solver_type L2R_L2LOSS_SVC_DUAL
nr_class 2
label 1 0
nr_feature 12288
bias -1
w
-0.08404993436449483 
-0.03877259097725076 
-0.03085010726046555 
-0.03006352684365397 
0.002839696356564019 
-0.04121223265389947 
0.007668361280385008 
-0.001340564309882587 
-0.004950842845698221 
-0.0009993257150379734 
0.003048920758076014 
0.00360590505983132 
-0.02135048344912189 
0.001277391428909159 
-0.0009652436743942194 
-0.03101274878448869 
-0.01858609656344799 
-0.02357631001493713 
-0.0460594109325308 
-0.01916457099339659 
-0.005676561298266233 
0.04641567046442997 
0.02950797202807823 
0.02563768448071766 
0.009383608972306799 
0.0238564400921551 
-0.02414719649661518 
0.03650671789291224 
0.02200449540369987 
0.04126993304432802 
0.04550949631422817 
0.01072626292408794 
0.02853486134546988 
0.04365286476853417 
-0.02630961713068682 
0.03084533935910982 
-0.03688096435127214 
-0.01004027710087121 
-0.0245667403769078 
-0.009077827371194844 
-0.005055495805062231 
-0.001984213276208245 
-0.05015508266548979 
-0.02810709624421706 
-0.02100455761671783 
0.01600757408671763 
0.02439704017063115 
-0.02047346083814 
0.001784863281855576 
-0.0118332562818665 
0.008748562554604426 
-0.01992241963162861 
-0.005789637372827267 
-0.008675901223678594 
-0.04130123361465839 
-0.01391413449425397 
-0.01495731430799239 
-0.01013281841353272 
0.004514668315316397 
0.001474424534201475 
-0.02590804606812946 
-0.008274412727876988 
-0.04019177128762817 
-0.03036348663684975 
-0.02061218416503665 
0.02725243846677988 
-0.05819118968020558 
-0.011547114148677 
-0.02279871538153813 
-0.0189794439112818 
0.005393069104296186 
-0.004654685414427934 
-0.07504054100911188 
-0.03401761673401012 
-0.004214756043614101 
0.028664862280422 
0.01410779642969576 
0.01001817232860723 
-0.02425026489445047 
-0.00972097538968978 
-0.01371602620697786 
0.000513129894470558 
0.01716934792326274 
-0.02272339820825498 
-0.01796694699765837 
-0.02110674175501858 
0.005966949979021934 
-0.00640739387712682 
-0.03319543143786571 
0.04083065743212311 
0.0502904368038907 
0.01245223805183512 
0.01328044981681684 
-0.01376799073188514 
0.01109536318649513 
-0.04005018915521882 
-0.02243620344455224 
-0.00625417475727624 
-0.004758954338338642 
0.01123105029476704 
0.01497402028411837 
-0.02182223763268709 
-0.01332385269957289 
-0.00434728565395496 
0.002404432847847635 
0.02743273726998102 
0.01428971516808489 
0.02215014808835578 
-0.01586666361745074 
-0.02978145967327722 
0.01812199681062882 
0.03833119150650419 
0.02586421801050929 
0.005666710272725692 
-0.01161151143200833 
-0.009537334161394616 
-0.001232241344615815 
-0.01991255668558403 
0.001608081517328159 
-0.009316173450301677 
-0.02413419730928647 
-0.01161171711673078 
-0.0239307423812113 
0.01916057455314987 
0.004437368888355221 
0.01601401088737122 
-0.02487043566731214 
0.0005414046408066144 
-0.0297517239007651 
0.0394768015874623 
0.005941139287597615 
0.03962766929123541 
-0.007566662408976623 
0.003063708060392653 
0.01091367762344666 
-0.0588057471211914 
-0.02700849174166875 
-0.0204976669128898 
0.05137277317004653 
0.02145744139053694 
0.02480673712247482 
-0.02134912923019755 
-0.001608948775384879 
-0.02390144480625757 
-0.000157887532608046 
0.001086694474867629 
0.0008287200945055959 
0.01815838826779463 
0.01551437640818385 
0.002483864815076362 
0.004915044982648296 
0.0136313499855254 
-0.01519673133017375 
0.05938530003841484 
0.02387767304921595 
0.03643498690073841 
-0.01681896913369437 
-0.01421264634906105 
-0.01244098090474947 
-0.01421504966617151 
-0.007593104720327849 
0.0001400519445570397 
-0.004077915655464386 
-0.008836725399320363 
0.006000826472166861 
-0.03688161359241168 
0.00512212797158728 
-0.05610583362082197 
-0.003022509184646274 
-0.01697186774448639 
0.01970068380449789 
0.005806717214174184 
0.01929300854499635 
0.01330225694001892 
-0.001614161261420434 
0.005058729564180955 
-0.003504385731186593 
-0.03163657266819789 
0.002468896304454943 
-0.02404692593803073 
-0.02843807175055591 
-0.005397634789184412 
-0.001960570057723003 
-0.0615764213642295 
-0.03591365290433712 
-0.02744297927181803 
-0.04483173876013731 
-0.02117348016529588 
-0.01376255600468275 
-0.01204509500491195 
-0.0121313818577387 
0.01059980830143165 
0.007202945405084185 
0.002298417228096799 
0.02344523593063134 
0.006432925196666835 
0.007449030572121752 
-0.0005106680114280096 
-0.006272260849955458 
-0.004700288268489615 
0.0133503600470255 
-0.0201874138289902 
0.003185171418466996 
-0.01461505503096461 
0.01706401474918875 
0.006133870210050137 
-0.02158841257954123 
-0.008480233524513759 
-0.007396223973295184 
-0.01026522396517118 
-0.009782657859331391 
-0.005711518797238134 
0.002789037777429349 
0.03738914934067023 
0.03474800021801247 
0.003435282977281006 
-0.004724606129578307 
0.0002374302388391089 
-0.003759048497736454 
0.04319353029167596 
0.001899869165714527 
0.0277440281054032 
0.01379076475236486 
-0.006119076350037594 
-0.002744018607366575 
-0.0326692641648693 
-0.006663020896725286 
-0.02746255824602289 
-0.009006536249673996 
0.01560928943701031 
-0.01046824119850183 
-0.03456398825543067 
-0.01933356792237767 
-0.002992657386659408 
-0.04475082992662811 
-0.02944766204875292 
0.001923699554981387 
-0.01741009959498895 
-0.01249933360689004 
-0.005734543547132739 
-0.005806986229048058 
-0.003341154420345653 
-0.002596983459294656 
0.00449060476039621 
0.009028533149874297 
0.01716290066333573 
0.04333157224197932 
0.01274479962370024 
0.03255400599369281 
-0.05441615932641031 
-0.006224686578586124 
-0.02411618453765953 
0.03036972342443978 
0.01987818975374349 
0.00509307513326105 
-0.01155583638127574 
0.006823046049079973 
0.007119576519605375 
-0.04056917190572399 
-0.008850356550187743 
-0.02568475618770549 
-0.04152472178458934 
-0.01664596589308398 
-0.007638364490580325 
0.00183341387219261 
0.02343846181778012 
-0.01039209714319308 
0.0365354137800575 
0.004528667982258472 
0.03757742759502451 
0.02162490092679506 
-0.006908030815806879 
0.0284363101390145 
-0.003324407883063216 
-0.007090330202346729 
0.0279033981299866 
0.007254174232849747 
0.001163859242540415 
0.002694634670157998 
-0.02409427747875935 
-0.01470177729739319 
0.0008475718262074493 
-0.02631828401103267 
0.01189370044888494 
0.008769940089707579 
-0.02606609026944022 
-0.00232060652890737 
0.002511485262505679 
-0.04430308035550532 
-0.01272836192961582 
-0.02303242768394556 
-0.02464721515995104 
-0.01404107817458813 
-0.008673799450887681 
0.004241076927853703 
0.01003359086428117 
-0.004968033368553397 
-0.06121895246271316 
-0.03240496333592916 
-0.0006741978622884005 
-0.01581022672544238 
-0.01155551226818825 
-0.003515564261409486 
-0.005745683865567999 
-0.02468391343294929 
0.02340237296296529 
0 
0 
0 
0.03205141540818033 
0.008579413985134239 
0.02931367499919996 
0.03178573441223583 
0.01169053886453109 
0.01431602809684422 
-0.00756420482066615 
0.003718752469324052 
0.00101949957685616 
-0.02789876459176928 
-0.01537713218583663 
-0.01610111216868054 
-0.01076764538383274 
0.001175206188435867 
-0.02599979422100522 
0.0261069129792467 
-0.0004511647534359905 
0.03048944809567821 
-0.01968711149737817 
-0.007823694526915618 
0.007225226537889816 
0.002144768900864351 
0.001239751476812443 
-0.00215339302018649 
-0.007303670443431444 
0.001430809364664196 
0.003139128980897043 
-0.01861155611559722 
0.01656776063657421 
-0.02596211419369064 
-0.01316229692961666 
-0.00486072223116529 
0.003332951977356443 
-0.03606896459925609 
-0.01786605455437124 
-0.00716984904018456 
-0.04145676887379637 
-0.02537130534244904 
0.009813916077004971 
-0.01846255476800938 
-0.009778123559968828 
0.01667905152364681 
0.02904545929432072 
0.004711630183114932 
0.012412857938291 
-0.04357445669325258 
-0.008104485885221278 
-0.01859903827743927 
0.04314941237008855 
0.02884792407803573 
0.03046679167733322 
0.01811709178178453 
0.007276351008593397 
-0.005253581299515126 
-0.02866905163025423 
-0.007713258255537368 
0.004186316903431044 
-0.04650708229785551 
-0.01027672506352432 
-0.02273794994336396 
0.001022039429036187 
0.001414875045052121 
0.001882276825209019 
-0.003875050242599548 
0.002168047036771102 
-0.0008993167530048974 
-0.01582053399234282 
-0.004936012257025468 
-0.002905561647483948 
0.04375639377450934 
0.01410132630985692 
0.01557261136445769 
0.01106781149766428 
0.01382365129441365 
0.001870959810680973 
0.01989162513891468 
0.007395479306108001 
-0.03139327194119732 
-0.01415876970365138 
-0.07192385255407374 
0.04959572014592814 
0.009803166191715907 
0.008452019100497752 
0.003157148792291239 
-0.02656365898528979 
-0.002951105424937743 
-0.01842870728285819 
-0.01248902466836131 
-0.004719922640287645 
-0.00354880585038456 
0.02074268820308001 
0.01331855706758313 
-0.005789123471992719 
-0.04285969591033616 
-0.01865136208664793 
-0.003037381407527384 
-0.00618924946920377 
0.02641856006239124 
-0.01217686793435352 
0.009049794257932621 
0.004768564704545851 
-0.005136881024789889 
-0.01580841538240645 
-0.008520735482961337 
0.005729727574639383 
-0.02691741664938813 
-0.01457019855588909 
0.0007956831956088846 
0.004022080448402724 
-0.004362806874942368 
0.01314347654811893 
-0.01078061267571967 
-0.008688132497115251 
-0.01262079979182034 
0.02535386651058731 
-0.03102338898426226 
0.06264817479690815 
0.0792496779319284 
0.0375889195266376 
0.06510532021207749 
0.01320154377604449 
-0.00549320469659308 
0.04819124952162634 
-0.01387865758658136 
-0.0005185592830909475 
-0.00711958107676087 
-0.06298092298776187 
-0.04836277619251956 
-0.004003413738132047 
-0.02743182220281884 
-0.01097363913310275 
-0.0392495239434744 
0.05597799857833695 
0.01438066437873513 
0.01181299189223968 
-0.01562065587679956 
-0.01586367338307 
0.01176237351308494 
0.05779958064456263 
0.01644157635013494 
0.04969728197995597 
0.04602267305358261 
-0.003274735926504265 
0.02108854617539391 
0.001912879430931116 
0.001008670148495199 
-0.009702805270243387 
-0.0342213757139252 
-0.006778562942846975 
-0.01983623289094037 
-0.04304178227906912 
-0.007798215917351352 
-0.01851552761198426 
-0.03802502622941993 
-0.006135905184418798 
-0.04472849160448977 
0.009725093297194435 
0.003412309621952476 
0.005030731233356501 
-0.000378570181906651 
-0.005174257103690029 
-0.005932894227452894 
0.006352572904245398 
0.0179315507054113 
-0.01647613383398653 
8.936119779622203e-05 
-0.0006624140407313148 
0.0002350907446707714 
0.0227391670767625 
0.02068390835169224 
0.00923035488001544 
-0.03056127872436816 
-0.002542678411597678 
-0.03480798930731885 
-0.08269824070301431 
-0.03219099717848674 
-0.01959203222073761 
-0.004537964158159631 
-0.007687496146563474 
0.01730847436264982 
0.03463196166674269 
0.02164369071023835 
0.003065123884876499 
0.03270128659798417 
-0.003370506453900037 
0.03221400654341285 
0.03313815217273018 
0.01017025991440461 
0.01254522132214768 
-0.01132298620320878 
0.00138776369765894 
0.02865274199819371 
0.03156425796172214 
0.01688656388574796 
0.03451790140758662 
0.005356844566131949 
0.02916284351916103 
-0.00720097939789143 
-0.03477218466780778 
-0.01090398070249602 
-0.03077828628224788 
-0.05317869356231213 
-0.01466408487211818 
-0.02841970109815414 
-0.01279899958903805 
-0.003080557245145247 
0.005898340874339505 
-0.04079348508749631 
-0.02274324526699573 
-0.008461242757052158 
-0.04338198240070112 
-0.01712379116086546 
-0.001703754223145841 
-0.008363438952166714 
-0.003622142751381517 
-0.00402463596084902 
-0.004691525812838853 
0.008587543002067244 
-0.01890118531361076 
0.03900652835857908 
0.02888460267351648 
0.007988901978205896 
0.002621006084254896 
0.002726008164215827 
-0.02342819898519679 
-0.004196965955638847 
-0.01093748982790745 
0.01777252762046925 
-0.01538113517456056 
0.02405787643564314 
-0.03305166662828176 
0.009763924429182648 
0.009216528561075571 
-0.01501882207479779 
-0.001646756967036576 
0.01233512323025904 
-0.03461390526551122 
-0.02887444220769556 
-0.0248359567910075 
0.03071133123024322 
0.04072577671066697 
0.02166603902930488 
0.009264437195313889 
-0.04914931583121265 
-0.01625584202967763 
-0.01820295668672112 
-0.01995968647204896 
-0.007112185263020503 
-0.00504480939261772 
-0.01338557622204288 
0.008755882455240048 
-0.02833954196627226 
-0.008848938449401095 
-0.03664812107161296 
0.02270293481316971 
-0.01464149376866648 
-0.01431727587433282 
-0.01067392931780327 
0.03575021935013994 
0.02480953951262756 
0.00591007523976575 
-0.04553572513001247 
-0.02331102906770277 
0.01527343783404247 
0.01001864781333489 
0.02733317252745542 
-0.003180883649558275 
-0.04695235190068251 
-0.0263370404381134 
-0.01584570399949825 
-0.03348167575371223 
-0.009837188072187364 
-0.04226810814490244 
-0.01488094530282107 
-0.007671138171042905 
-0.009583635914406244 
-0.03792128379848198 
-0.01425187232928898 
-0.03056091857557203 
0.05064492727762411 
0.05142307955933399 
-0.02718495299689059 
0.01125139836594399 
0.000719104371117313 
0.02094832916555614 
-0.02541296899362651 
-0.01720462441609725 
0.005667320278601054 
-0.008313914403994042 
0.004715153125978293 
-0.01444843813462108 
-0.03774790264116049 
-0.01697784161674542 
-0.0009481627816981624 
0.01464782881236547 
0.02144675324862899 
-0.008233933489808649 
-0.05088276807791966 
-0.01441087493356976 
-0.04876814358951384 
0.005882701617962005 
0.01697847557135233 
-0.02731362491708213 
0.01755052908875579 
0.02155956236837824 
-0.001611258716219752 
-0.05125507556023056 
-0.01997576271794473 
-0.02526508985908351 
-0.01769361769722571 
-0.007454908982116706 
-0.004034272329970635 
-0.05107773276715975 
-0.01248310678473794 
-0.0291465036965206 
0.0003648111961857769 
0.02030099492593824 
-0.02984978053413716 
0.001627985279597215 
-0.0001873286302523444 
-0.006277601134004752 
0.02479500975958279 
-0.0005692214019176888 
0.01483577844887744 
-0.02457442097358494 
-0.004081676121030164 
0.002809311531868175 
-0.05864585332773758 
-0.03080398582705788 
-0.01865704320273878 
0.03194747814177493 
0.02086376389962069 
0.01655697981252852 
-0.0394038009530273 
-0.01481471655592417 
-0.006174182399399884 
-0.02188248876361811 
-0.003673715308604561 
-0.0218098191387144 
-0.04223579237702742 
-0.01910353024709713 
-0.009360349011014209 
0.07019548706329891 
0.04766500079538648 
-0.006620011317794039 
0.04319918250485336 
0.02317579143896643 
0.009860713716022094 
-0.01229800959661878 
-0.002282451251177768 
-0.01034791029809176 
-0.02301177369311811 
-0.00789988607523813 
-0.01561712894378581 
-0.02972764429487831 
0.005041978725218849 
0.01391097726446855 
-0.01354971982772362 
-0.003509139493091269 
0.00452049410877863 
-0.02179708905353395 
-0.0106741722996183 
-0.003921753064880354 
-0.06776853149040911 
-0.03045872895081093 
-0.01918765996824683 
0.004681020690690651 
0.01879543938035699 
-0.0031891036942735 
-0.02618194429304018 
-0.01260257566714675 
-0.02271354713211309 
-0.002673096430572547 
0.01147396942132917 
0.007883709248483185 
0.03744934515818673 
0.03530647571434013 
0.00667542579084317 
-0.01372180372171616 
0.00068828818214803 
-0.004946219615740527 
-0.05526000305445371 
-0.02647200646753121 
-0.006849450521756073 
-0.02200081490314641 
-0.01172418120106953 
-0.02112612914787443 
0.004257784006243177 
0.01158140213747847 
-0.01912653692697674 
0.00576523013404169 
0.01128949021275102 
-0.007232067349967345 
-0.006400482887856303 
-0.0003996653406202611 
-0.007273778396428793 
-0.00601197675836774 
0.002275392159546883 
-0.008430159685203942 
0.00533774748782494 
0.01288642870368532 
-0.04669902054089663 
-0.02063410838817627 
-0.01038490998809362 
-0.00369311075327465 
-0.02560378341940543 
-0.02094638570078633 
-0.0009628999874196949 
-0.0115408219086814 
-0.002302821294781497 
0.003332942997463286 
0.06029722899757942 
0.004435243359756396 
0.02379894613839835 
-0.04785884399929527 
-0.01660010875510767 
-0.03066520370626294 
0.006026387233822064 
0.009510541878560489 
0.007990738879448633 
0.03144216933059896 
0.00976657467507424 
0.02590240885537742 
-0.005944662332451651 
0.01465145846213154 
0.005092618805528599 
-0.04914951396369113 
0.0009684217481135464 
-0.01766698805462081 
-0.05215172758914829 
-0.01307817856913119 
-0.02588719918346651 
-0.002455686499689433 
-0.005673314709889569 
0.03576879218890117 
-0.0220464208751695 
-0.01285410691185315 
0.009601778803990099 
-0.06944302960315299 
-0.03759561148493105 
-0.009702429893427377 
0.004249916667492488 
-0.01179309686927521 
0.009060228223555523 
-0.02119418189968808 
0.003283875623191447 
-0.03823901660999048 
0.03688956021695325 
0.005997627635507851 
0.02199215466519775 
0.01980004861837128 
-0.001481305785338188 
0.00519431052910512 
-0.01343722082106944 
0.006455107936802347 
-0.04581953996800213 
-0.03421243911111857 
-0.02014077862230552 
-0.004449079211073319 
0.01159918587842319 
0.003284026016934836 
0.02766213575147657 
-0.01393592961137431 
-0.00495287387568904 
-0.00129674179367159 
0.01514703736161371 
-0.004936389414845665 
0.02958599644661736 
0.001045540005043855 
0.00375820963693666 
-0.006198604559426191 
-0.008674101649552566 
-0.004893375484280018 
-0.0006661567661852817 
0.01736302273865048 
-0.003185883609716569 
0.0140824549080455 
0.02680307211264208 
0.00666894263113861 
0.007331539083776097 
-0.0300173840489541 
-0.01347506514867335 
-0.009205722864935942 
0.01150098639456656 
0.005456260090197279 
0.01131162998160368 
-0.005139224016319547 
0.006193525074391561 
-0.007462131395790522 
0.0184665535519884 
0.01780937707179259 
-0.01172842809054377 
0.02546742389300016 
0.0163864886027494 
-0.02951617272874271 
0.0005957756543220559 
0.005040574797657097 
-0.003389959180955178 
0.03229936743997061 
0.0237329386586638 
0.0005430126417704267 
0.0381278043270844 
0.04281261369833356 
0.01611452199144211 
0.002300620585532443 
0.008079775938538527 
-0.003273420941284882 
-0.02464966343201948 
-0.01375096808711229 
0.002158494678260156 
0.04950069271815768 
0.0006564960174366354 
0.01816470252822911 
-0.07765789778025689 
-0.02634342500889452 
-0.03147876241396467 
-0.009160267717695101 
-0.001954246460492211 
0.006287787498681694 
-0.01475419825622324 
-0.004245750675237024 
-0.01060840459275431 
-0.02187321662737255 
0.003427637548786329 
-0.01469367475245269 
-0.0158709903208568 
-0.01294396355849563 
0.02125089763019919 
-0.03058254139579727 
-0.01252794982218868 
-0.0138162825234868 
-0.0257317261976829 
0.004606346707144764 
-0.02916313363432904 
-0.02756520826970782 
0.01298250475900017 
-0.07153794949895849 
-0.02820387163837112 
0.01165319532034492 
-0.01797843208661521 
-0.02501554525217378 
-0.01298346526086486 
-0.00210363044302946 
-0.07370165212844923 
-0.04024491162485835 
-0.01039881964355381 
0.09540256312950667 
0.04834619335222209 
0.02025999642410321 
0.04261866976799419 
0.0217098416333053 
0.01302189617048139 
0.0072726838407001 
-0.0177319605109183 
0.03467542831887573 
0.01450492095610812 
0.004210766117409094 
0.01258222269255952 
-0.01241837427929354 
0.0119371401447112 
-0.02214667529953425 
-0.000934932279172372 
-0.01122277235094706 
0.01898137607516483 
-0.02995928973211076 
-0.01463763432136054 
-0.01471185864365128 
0.006825276542349718 
-0.002910255821388141 
0.01068438654225129 
0.004207978655998409 
0.004992140825132283 
-0.003287703469834748 
0.04427887361294853 
0.0223270796443008 
-0.00314613829570604 
-0.001221286523622232 
0.006400284486361952 
-0.003238016269837059 
0.001244893030951806 
0.002789668605753525 
-0.01145937373865571 
0.02724170719835515 
0.006600572662434145 
0.03611003531439347 
-0.02087297620014342 
-0.0185470383574914 
-0.02000028060258969 
-0.01349211077978276 
0.004868755090724503 
-0.00142017322224481 
0.03224912273890824 
0.02429900449835793 
0.00477099659830438 
-0.0408431258091196 
-0.009426462203355288 
-0.04112003041914179 
0.04090412905955139 
0.01071845044967887 
0.02189703491480052 
-0.01351636686337747 
0.01471904166062095 
-0.03856837930933388 
0.06537684324356859 
0.01618922329778155 
0.04568419389576223 
-0.0201373784701525 
-0.02914668189258268 
0.01898080181265338 
-0.006475849248263563 
-0.006202354436113242 
0.01879171952071449 
0.008246216481655917 
0.009859918152948736 
0.01142250934802275 
-0.02785458826702709 
-0.01480453906539201 
-0.01180344592141189 
-0.02042034009344806 
-0.01920943251902988 
0.008339171598797403 
0.01234566017705047 
-0.0112928052130669 
0.03999037168261405 
-0.02953566360436475 
-0.02601517523315143 
0.004624119270790907 
-0.05152350713229081 
-0.02178056684777224 
-0.02765831170991867 
0.01031325834917501 
0.0143847969659624 
-0.01702132644092268 
0.01920124746480025 
0.01505426721754722 
0.001629073087283983 
0 
0 
0 
-0.00119905727360668 
0.004842700692948806 
-0.01018189952628391 
-0.02363927339921286 
-0.006047396482594127 
0.01444533805246651 
-0.02307338311864716 
-0.004984550224937293 
-0.009640479096121774 
-0.009559648811384602 
-0.03280272017366889 
0.00696884420513488 
-0.04754613500100395 
-0.01155514897740726 
-0.01236083312010329 
0.06553202098206881 
0.03888230998371811 
0.01332326726801697 
0.01143723195284543 
0.01231276758597167 
-0.009506853936233729 
0.02370650914195526 
-0.0737360064878604 
-0.0458405224830352 
-0.005168163083185457 
0.001145135312717048 
-0.0001601678679626353 
0.002700667481267074 
-0.01368956044930804 
0.01403979422616333 
-0.02374713942658763 
-0.01625941854393908 
-0.01800230063617916 
-0.01913504708742311 
0.005978915592659808 
-0.01547796757494211 
-0.02317310156652984 
-0.006403405987114114 
-0.010760855625637 
-0.02723424557305457 
-0.006406724335071277 
-0.02591115541880084 
0.02822307394354054 
0.01641609628981078 
0.003146213260116046 
-0.02533501557987895 
0.006406576220387493 
-0.03305634721634668 
-0.02002625494272356 
-0.003555143290996008 
-0.005936955572692939 
-0.05514938874932041 
0.0009166700318004007 
-0.02411732865193345 
-0.02464095156677588 
-0.007982164865484719 
-0.02180553088951422 
0.01419766765796152 
0.02871023367822892 
-0.02019624417596118 
-0.01522948833907869 
0.002713803450234342 
-0.01165686330749484 
-0.03991241268624826 
-0.0124551240250649 
-0.02273111984615915 
0.02834177874189435 
0.01304169784554355 
-0.003304012849078454 
0.008797378995964767 
0.01290723601567183 
-0.02445392426158015 
0.01105409713496684 
0.02156238710470434 
-0.002846441798194414 
-0.0107769886360592 
-0.008312730971233079 
0.00836229075263962 
0.001500958510672657 
0.01264941697345465 
-0.02346299387929964 
-0.002284595867349399 
0.01584383402845798 
-2.699982603324078e-05 
0.0273354512368896 
0.004963515605338953 
0.02393113749047192 
0.01353337892949137 
-0.0009711844588423128 
0.0006079085550740942 
0.04427318488997603 
-0.0383403922253538 
0.03342932861300733 
-0.004140167212334274 
-0.01521608879230717 
0.01785401015754362 
5.421010862427522e-20 
-1.355252715606881e-19 
1.355252715606881e-20 
-0.05651390360469426 
-0.03263143681176834 
0.0229577013651856 
-0.03008503992946543 
-0.009425303765955894 
-0.01550456335821768 
-0.01014228399628059 
0.01422293549425958 
-0.04170093204341872 
-0.01274843085786787 
0.00300161988229741 
-0.01586620403314578 
-0.03131667416074106 
0.002952118793668411 
0.01599130181216305 
-0.01589047006112243 
-0.006088068499940103 
-0.003142932057831943 
-0.0726965221846491 
-0.03090453312339867 
-0.02069154075501979 
-0.005528669318137198 
0.002538493750353831 
-0.00645840892415175 
-0.06057475386754033 
-0.02891455836515042 
-0.02114670239372087 
-0.002166417954496101 
-0.0008965476045071383 
0.0003879742859042577 
-0.05887127020936682 
-0.02907101716118575 
-0.01916918441767124 
-0.0232474930413892 
-0.01207581657397921 
0.002584297638630524 
-0.02526266863154363 
-0.01456425020243697 
0.008448759841814439 
0.03296113727350283 
-0.03224457457728202 
0.02856576091580783 
0.01242079216089121 
0.00698248536979853 
-0.02774007598712577 
0.0202166394170999 
0.01165330238283123 
0.02401404151391902 
0.05189828039012223 
0.02806809172993812 
0.02092786081433848 
-0.03606769714944967 
-0.00518748086758428 
0.003200352485620575 
0.007817067111729185 
0.009922483824873301 
0.01282265599910493 
-0.003312518273781181 
0.008035393085291912 
-0.01124233301700939 
5.518805499186405e-05 
-0.006390825324650495 
0.007089104872828448 
-0.02593936748736283 
-0.002083707618079925 
-0.004670201712581382 
-0.03255518685450683 
-0.01123980870815431 
-0.01705050343260155 
-0.05821473467601116 
-0.03416021245787579 
-0.01876583097982852 
-0.006050485574640465 
-0.002212991662263661 
-0.01888350880626345 
0.002453284148386308 
0.001905157817633787 
0.0180618543767787 
-0.01569676763403739 
-0.007650764610855687 
0.008043750705922125 
0.04125207559797667 
-0.02984665457468338 
0.05578809111267562 
-0.1064071582115778 
-0.02356661663672489 
-0.04901290885903192 
-0.02639698558177517 
-0.0114614669894947 
-0.0143367016959786 
-0.05071852673478677 
-0.02409663877839489 
-0.006420761260653367 
0.03802924295370411 
0.006049219089703194 
0.02076607963849754 
0.00221589303548857 
0.005419858737925859 
-0.01995356161137753 
0.06406026481952039 
0.04143860112932453 
0.005662241865596801 
0.03251275816154546 
0.01831464325603808 
0.02081910118081201 
0.02720141481225617 
0.02389047640053024 
0.0007161772622880299 
0.009122361850467513 
0.00293639007604652 
0.01366753211537021 
-0.02377883026074746 
0.01016720823103279 
-0.02663780817895867 
0.004043043363030543 
-0.009255636535534604 
0.02097485059717261 
-0.006824043839439456 
0.01290040225550733 
-0.01408674459809178 
0.02256564805243056 
0.008267192393344721 
-0.004637324121802407 
-0.0248408536264788 
-0.002861647155737683 
-0.01213308379504194 
0.00355263271340012 
-0.001362447528322615 
-0.007964642215702323 
-0.03013616303937207 
-0.01705930336656537 
0.005273148278763566 
-0.01343528764698427 
-0.009069062343750781 
-0.008035076899251771 
0.01411899280807314 
0.005462966072979357 
0.009695334007142627 
0.01767038703304897 
0.01864830995917662 
-0.001107269455781817 
-0.0076287735344484 
-0.0008696183561524001 
0.002971318195669094 
-0.03718306789619948 
-0.01514507043357045 
-0.002516680796798402 
0.04926216869041457 
0.03767941187771939 
0.006007002992873089 
0.006595781150321662 
-0.004893684950109198 
0.004119529575282057 
-0.01762792732405208 
0.003921616911677871 
-0.01850981505755539 
0.008339597592594762 
0.01007645759682768 
-0.004877556581900575 
-0.05024018199139135 
-0.03264808947401219 
0.004102274534812769 
-0.02009826818470841 
-0.003562617072769789 
-0.01157013308556246 
-0.02437059536852153 
-0.01327748093909573 
-0.01731972255303107 
0.00332572290124783 
0.007676682600048033 
-0.01114730206824452 
-0.0008096702912616079 
0.01308663510390962 
-0.01522398407730885 
0.03032797650423314 
-0.008283358256808942 
0.01138447214214144 
0.006474137708439723 
0.008921076832501512 
0.007285174903697187 
-0.02220422447264344 
-0.0001005642775740341 
-0.004924830465111688 
0.001948341611152991 
0.004357228582859086 
-0.002587781498714552 
-0.02403448651772053 
-0.004679167820991969 
-0.01424558487857097 
0.0380917190027272 
0.001072175868816972 
0.02601562907089359 
0.003311632530632542 
0.00923770079761266 
-0.03269751365372202 
0.03721756229452713 
0.02566159441306506 
0.01687508975073005 
0.02239975320966668 
0.02791396402480045 
0.01923176423056407 
0.03840281191269704 
0.0257279758729004 
-0.02465638845050409 
0.01071867922478463 
0.01692270947573097 
0.008290563200407048 
0.03006602552937217 
0.01529742153277002 
-0.01619078465093538 
-0.02836392786260477 
-0.007519119836267287 
-0.01599517491938218 
-0.01824638434313518 
-0.02628284572112681 
0.04325727378054587 
-0.04310106745223167 
-0.004007413071531726 
-0.03933174875332549 
0.01630422810047572 
0.0009311350828220593 
0.02640566522672019 
0.002047516127864447 
0.006836521300497891 
-0.01864059523891927 
0.007415666698926798 
0.02008007745014589 
-0.02057162700807261 
0.00949810957651759 
0.009021262231961997 
-0.008767350515756887 
0.03274765980862185 
0.004305044077075671 
0.007833331766804754 
0.0943769986985295 
0.01941062996043873 
0.06915763934287175 
0.02140552667209367 
0.0009443676352400661 
0.006146394849148597 
-0.03751145557749108 
-0.02046200125557874 
-0.001357549291090409 
-0.01080546848673959 
0.004987336827246733 
-0.003468616826825111 
-0.05764854794718183 
-0.032564906728204 
-0.001190412306005964 
-0.03790952495049807 
-0.01457920095620265 
-0.01602407425639413 
-0.02660579592945345 
-0.02585225130427693 
-0.006903726271085591 
0 
0 
0 
-0.02725535279773464 
-0.007803713355439248 
-0.00606796179228768 
0.04322452370371704 
0.02695398425391067 
-0.01218463317850426 
0.02539044781810969 
0.01734506868576011 
-0.0003659601288103393 
-0.05362384400608836 
-0.007395711770712195 
-0.02059559070572498 
-0.02175400922416255 
-0.002840514975853839 
-0.01631553754647658 
-0.011802738076549 
-0.02068588863979559 
0.02829242540506127 
0.06324991538604595 
0.03875818701400102 
0.0003710308112514192 
-0.002975265417804519 
-0.003421986118326018 
-0.007301564447753545 
-0.006066629614420278 
-0.005210720308904042 
0.01636769268440611 
-0.05625451536568895 
-0.02433668925916456 
-0.004794787952547012 
-0.01111846745396675 
-0.008952662138264521 
-0.003420281465486052 
0.03273690522943631 
0.0135747684053074 
0.00270521784294924 
-0.05607690667356955 
-0.0122586061615513 
-0.009256664792342684 
-0.02190111443778113 
-0.00274378616018685 
-0.03186474464554995 
-0.02101357852889877 
0.011917441156934 
0.004306770346481532 
0.02930627294258166 
0.006776911396879317 
0.001242528155527327 
0.01314993676044751 
0.01093458824285408 
-0.008886594280873522 
-0.002838291715873688 
-0.00137654521448422 
-0.00723593409196622 
-0.01024623510928821 
-0.001267010788079386 
-0.01834440027862952 
-0.01758081096769407 
-0.004768477672673552 
-0.0162755249149895 
0.02597768943605853 
0.006158418034590525 
0.02017683000250114 
-0.02872758649292224 
-0.01894582396568657 
-0.0004605105431628263 
-0.01488197539726732 
-0.004305644440371877 
-0.02151508604776163 
-0.02089095605598498 
-0.002549084402408207 
-0.006064347582771646 
0.01795631403974308 
-0.002544923249400585 
0.01565524000689372 
0.07472307878207127 
0.03759461305279519 
0.02621066487750522 
-0.0249513978609965 
-0.02599985859795175 
0.01376079920840194 
-0.001652235962419385 
0.01487829743993878 
-0.009379555158340777 
-0.0160064820498822 
0.01145993463343891 
-0.006942824605154911 
0.01567781302742626 
0.01771290470345401 
-0.02047340569202416 
0.0887325654981153 
0.026203504629946 
0.04300295496882129 
-0.03570702361667185 
-0.01252652668162724 
0.002759810680755951 
0.004417360875507008 
0.0394927227207212 
-0.005858535351614653 
-0.03631280830846131 
0.004131739414092056 
0.02732015739946735 
0.02287713517472343 
-0.01709829864735595 
0.01912560475053011 
0.01119226615934444 
0.005931411176658654 
-0.02019146067855501 
-0.04275669850835222 
-0.0159506669330341 
-0.01644339193331972 
-0.02451907605651526 
-0.005108575768294379 
0.01712275369250801 
0.02278929737149412 
0.00668761329661132 
0.01325747695591314 
-0.0003810267472230256 
-0.0007091833173997696 
0.006197577936437249 
-0.02951211583416569 
-0.009552876571625183 
-0.01163702762687681 
-0.03163269198039975 
-0.0154800431571305 
0.01224422698070493 
-0.02607453691209525 
0.005133395289268207 
-0.03022110459306343 
-0.02597714834198009 
-0.01679443132281769 
0.001191499306254387 
0.01019123395029853 
0.001510744243172191 
0.005728967313569434 
0.004890445454837324 
0.002400405519165186 
-0.005636687724612817 
0.026503611471777 
0.01697697467979402 
-0.02348775960419793 
-0.03616559489865156 
-0.01559544121772921 
-0.005701207419877229 
-0.02521631549810633 
-0.005922304267317064 
-0.006000038539335581 
0.07359674401079126 
-0.008136677966218581 
0.04083068266484912 
-0.00108789499978663 
0.01365836192986644 
-0.01520839595649319 
-0.01156021498528863 
0.005687221965899713 
-0.02432606050041988 
-0.02908775121229422 
-0.02410340208754084 
-0.01022588463642707 
0.03789667768746461 
0.02709033490515425 
-0.02830291594918043 
0.02839236143628933 
0.01429107429276557 
0.0181575159043424 
-0.005730975296742765 
0.006847671452629226 
-0.02220416503968928 
0.00368904104166105 
0.004009416644614772 
-0.0007487009966258224 
-0.01547789758919187 
-0.001712725254867416 
-0.02983775031857394 
0.00182590926844007 
0.004358924244370952 
-0.00338912121698452 
-0.04715596000291962 
-0.02127498884183956 
-0.007723453303540195 
-0.02396390391690086 
-0.009976642312900248 
-0.006847269311076726 
0.01396284640965636 
0.02053658127127473 
-0.01531679733605304 
-0.03213256555800574 
-0.01395972886791045 
-0.02162743281949392 
-0.02167779237941043 
-0.005594592357734955 
-0.007358272282194977 
0.0235609616217228 
0.01088593134961726 
0.01860453321675442 
0.04873924615454269 
0.01976871452355069 
0.03984062018083731 
-0.003610051972002792 
-0.004060933930714192 
-0.00838328932103779 
-0.03793324598652206 
-0.01472405313049265 
-0.00671286522505446 
-0.05554269487169743 
-0.02215903425712434 
-0.02744763840129339 
-0.04787120584189678 
-0.009682525084792115 
-0.04892194508763955 
-0.004278301599612008 
-0.0004993479346792233 
-0.003367783387516297 
0.01881147669724029 
0.001225921776962386 
0.02066457006302991 
0.03072554791851318 
0.02304308158206644 
0.02415922920061233 
0.01342398118016112 
-0.003393946959182833 
0.0001985061342892461 
0 
0 
0 
-0.02789351637693402 
-0.02351556523057283 
-0.01761814646121519 
0.008568516288923373 
0.00317621543315905 
0.002075136446492771 
0.06243367256660332 
0.004342436652704926 
0.01153966983847183 
0.02338361677583101 
-0.013116200454839 
0.03670693351150765 
0.01703855346244162 
0.01635148399998626 
-0.0005728165165772665 
-0.02219796666087524 
0.0058696668143314 
-0.007218902859600218 
-0.005778659768679883 
-0.003495552870724427 
-0.0007706213357460907 
0.002810772335236077 
0.008091687996118676 
4.093092649509519e-05 
0.01781182581935733 
0.009170341549347935 
0.01486421824219693 
0.01781465174949492 
-0.007374252778825426 
0.004911511229665222 
-0.01239563588773762 
-0.006260783672366952 
0.001493893369904142 
0.0003933259752926851 
-0.01602777998359742 
0.0217723357385237 
-0.01418270525852034 
-0.01239407410700525 
0.007820814779667194 
0.01158170877278586 
-0.003102150841872261 
-0.007731945157934668 
-0.04976466073895814 
-0.02242678001944633 
-0.02366516411856649 
-0.01741171191653447 
-0.001090585447703809 
-0.01315752330031305 
0.01368206020258806 
0.01739793349823316 
0.006203273476540155 
-0.01901338781754359 
0.002501996322801228 
0.0152116311404303 
0.01157529629373572 
-0.0006399462371468557 
-0.004656822064096224 
-0.03603697762401411 
-0.01251600432837015 
-0.004877879712942939 
0.0312588325382586 
0.00513667126704175 
-0.006203782973230539 
-0.007136319912212348 
-0.005828369796210234 
-0.003108095101615522 
0.004836627501434527 
0.004579306170553482 
0.003043904716872598 
-0.03772727404903561 
-0.01827187206299622 
-0.02423579667892751 
-0.01891311433105802 
-0.02490182241369228 
0.006102415699512749 
-0.0103973445043748 
-0.001033510247418046 
-0.00598201105209861 
0.03103159952573019 
0.02291327878106374 
0.005345076678086931 
-0.02570695200034557 
-0.00407547946836713 
-0.02555332783670237 
-0.01532906744451251 
-0.007830419533473888 
0.001264661433529746 
-0.07098755989737776 
-0.02966399853362183 
-0.02233331850778458 
-0.02455851608697932 
-0.004657056614859365 
0.001355858129906943 
0.02388250073910056 
-0.006066313374139824 
-0.002728142219905318 
-0.01561382496146265 
-0.002583676425290772 
0.009594868297138447 
-0.02169324346811173 
-0.003296213493246553 
0.003861191143984376 
-0.04525652013049995 
-0.02020636758287627 
-0.01050577135382979 
-0.01566690673577992 
-0.008027402919796851 
0.001392842923945588 
0.04820266714414647 
0.0243835613414167 
-0.008474646370292851 
0.008889783514771463 
0.01405660474372316 
0.01655871403488043 
0.04690719007116646 
-0.0206062129647691 
0.08670009008104573 
0.0169368509723491 
-0.008347421900409669 
-0.005969139792566267 
0.05262497320556091 
0.03397499912715 
0.01686846452077809 
-0.02355193167935414 
-0.0002663841868407681 
-0.04516761436787978 
-0.01236709250865443 
-0.00385396274724949 
0.001366082582616629 
-0.005157626335839424 
0.001911343206123807 
-0.01450705617009796 
-0.01697210135097308 
-0.03271779867716829 
0.038231005323356 
-0.02352846644186958 
-0.003381495738878345 
-0.0136326239750864 
-0.03588286089051785 
-0.01351606925303003 
-0.02804028577501289 
-0.04032247033923122 
-0.01774326962225144 
-0.01143181917090948 
0.01636399887995697 
0.006389062399692658 
0.002433271092478908 
-0.04538324387299279 
-0.03284384818841932 
-0.01669634004567687 
0.0296871560780507 
0.01458843404828694 
0.003005244057596888 
-0.02668460758468417 
-0.005255782250653744 
-0.009709985388511509 
-0.02253807442766898 
0.0004877213975387367 
0.006111304000665107 
-0.008720288297508656 
-0.01787597688208395 
0.02126986037515599 
0.03112313365744939 
0.02003015204794675 
-0.00745494032240724 
-0.02855865600516775 
-0.0125713548750818 
-0.02070238324032608 
-0.05644934324085366 
-0.02518129080556764 
-0.01127722253602064 
0.03370178341321834 
0.01274119909311663 
0.003279980492656246 
0.08507713892639839 
0.03207667264829606 
0.01350731329669241 
-0.02550354646921017 
-0.02317336710420922 
0.03142354574122693 
-0.02013686649251151 
-0.005678218518335996 
-0.01712005056153849 
-0.0119018132460875 
-0.004277324598602191 
-0.005086633109437646 
-0.002262340048148418 
-0.001076416037285365 
0.001219486992695712 
0.05436221468835019 
0.01105588645165694 
0.05504232769115897 
0.02366466965583545 
0.007993387122861999 
0.01942873305867978 
-0.02299905751707952 
-0.01240173535651207 
0.0008907411811651753 
-0.006617607875504409 
0.0009293723575984465 
0.001447499386032424 
0.001521117086766503 
0.01013010825253836 
0.0107347794430529 
-0.01153095788394868 
-0.004591505586319629 
-0.003960554068905186 
-0.002366547310420899 
-0.00437274000166029 
0.004597477607840668 
-0.01706152585326809 
0.001629901037810501 
-0.003709184835951832 
0.001012035616633857 
0.01693353682312812 
-0.02878413218182344 
-0.007707013825150749 
-0.002257541216184222 
-0.005980369450054903 
-0.03372241323822023 
-0.03467520741647004 
0.03000159837097307 
0.04127639760619513 
0.04600369585024643 
0.02317012539031178 
-0.05568936632511039 
-0.005897481094905852 
-0.02612403583188431 
-0.0005237059401006572 
-0.00023232649412609 
-0.0002965392859208499 
-0.05304728911004704 
-0.02269653989401813 
-0.02131608446896206 
0.03037964607482165 
0.0085726690749877 
0.01758181920145256 
0.01712747788936911 
0.005882653800488273 
0.01183663138597376 
0.01195108635839689 
0.02415390178115846 
-0.005945340265001371 
0.04476449517201939 
0.001340478653907255 
0.06613593001432433 
0.01070382585976669 
0.01307190968383892 
-0.01045893217681658 
-0.001287877033077721 
9.946585306339551e-05 
0.001495998069196942 
-0.05382575423716283 
-0.02243824819564399 
-0.02848572175745078 
0.02680324671149589 
0.01408682377617479 
0.006628688882665276 
0.0157246006211688 
0.01503216449331506 
-0.01909099444575317 
0.02653289031860458 
0.01525091632120191 
-0.01960562621193753 
-0.02222291582251624 
-0.01697784677189242 
0.008705576895758916 
0.0146175202636586 
0.01285476803131037 
-0.0122093067684436 
0.01498704573052665 
0.001459882088948274 
0.01931181378399737 
0.03783067686925661 
0.02267166385569418 
0.006089667266162009 
-0.04587159531115876 
-0.05193094026833878 
0.009921830600583931 
0.01385392723181767 
-0.004200811610891217 
0.03272426584169169 
0.0168770368955158 
0.01087691600243989 
-0.01787703908824999 
0.01408411706381112 
-0.0001755010734283629 
0.01038802448630495 
-0.01434598368088955 
-0.01419066191958344 
0.02793820129768215 
-0.03349708205591583 
-0.01933788701712693 
-0.002092160661376354 
-0.02364123082241712 
-0.002458336224219833 
0.002964361596309739 
-0.01692913578795473 
0.005293920519899589 
-0.01613447539633623 
0.01841049706508139 
-0.01478876498465763 
0.04487300894353682 
0.00288245896932099 
0.02004203632057937 
0.02889166113353595 
0.008837090342325462 
0.006431724150083336 
-0.0112588729937342 
-0.005940382959280785 
0.001324429092229069 
-0.008351542691655577 
-0.0232770291490096 
-0.004691407573211346 
-0.01622925118921014 
0.09411502024725198 
-0.02698855146155408 
0.06095311549974323 
-0.02393972696697597 
0.004579833715451741 
-0.004171438010795324 
-0.0371344813360899 
-0.02095158560585064 
-0.01617696153486356 
0.08566057014632025 
0.03307360201447977 
0.03192088075664327 
-0.004967255740533677 
0.0132050823774918 
-0.04482304525825511 
0.01055755931232621 
0.004410570601062896 
0.001358552435128571 
-0.007909667207097753 
-0.0181861139005584 
0.01638312947372545 
0.05710588135943959 
0.01969633350811492 
0.0205703277802103 
-0.05495049942820222 
0.003434717405339372 
-0.0631812354827317 
-0.01252889514460397 
-0.01688634862761853 
-0.005956477332240112 
0.04914720451732005 
0.006323986016945313 
0.01420353121579612 
0.04650736446132105 
-0.008357628164732499 
0.05154225362297212 
-0.009367622896404502 
-0.01343490192304563 
0.01280596652691551 
0.03064465218972155 
0.02582126972606738 
-0.01037364584811233 
-0.0353164217063666 
-0.01661039617242509 
-0.01016762219014681 
0.01700596208070987 
0.004920472797512214 
0.02537929452731525 
-0.01478198816364549 
-0.00658185097077322 
-0.0028107752716792 
-0.01791353545370779 
-0.008402657640101913 
-0.007095586462560498 
-0.02541544323178258 
0.007039129639008615 
-0.005033565427802041 
0.0004913709321192739 
0.02792901621073497 
-0.03637963807463452 
-8.353145581518472e-05 
0.007361654662454502 
-0.004749650849555477 
0.001110091215952353 
-0.03255925250577857 
0.03550818673419429 
-0.005372245657589154 
-0.0007947843985918064 
-0.009762880295080534 
0.06287333467049004 
0.03816075433978031 
0.01437015754924684 
0.002732774290775469 
0.008495648125536154 
-0.0004988188250696354 
0.02841227800795632 
-0.02139228932892196 
0.02241777158518983 
0 
0 
0 
-0.02470157546197539 
-0.01893594747907605 
-0.003894109985739566 
-9.721821539782604e-05 
0.00383965791697745 
-0.01796258636241512 
-0.01855719987112877 
-0.006409878356486335 
-0.006874722007995872 
0.04748417407256014 
0.03479515827616945 
0.01114727356430172 
0.018667750481272 
0.02002852562703009 
-0.02289775175235935 
-0.03344173880786024 
0.0006634557287973112 
-0.01507546132588043 
0.03696259135216289 
0.03075053275189802 
0.01992121718373481 
-0.03763602632064259 
-0.01500832686565776 
-0.02270595227850196 
0.02580450581936108 
-0.0001400391909438705 
0.02908269538334155 
0.0348938206507985 
0.01762942752592602 
0.01115647500261047 
-0.006752539901881936 
-0.005731869836166318 
0.01270000120231019 
-0.06139691857175501 
-0.0220073753998945 
-0.003225343229435397 
-0.02526599076977076 
-0.007106316025361909 
0.005668624212304128 
-0.06255814522619113 
-0.0309683502281386 
-0.01227235326675392 
-0.03576741861547767 
-0.016435064310455 
-0.01213946393643899 
0.02029800575858308 
0.01747055377597703 
0.002079915260979706 
-0.007827439405414097 
-0.008155377139804356 
-0.007590193131783626 
0.03022285286026105 
0.01033206498514299 
0.01738948580206229 
0.01763071686898928 
0.01096999293667217 
0.0107829396188399 
0.005127853278791633 
-0.003673775301511468 
0.01949426935281009 
-0.0120566785551016 
-0.007713056893738716 
-0.02294274939291467 
0.01448181601348598 
-0.000540282888218065 
0.02436608882597002 
-0.03530605853288368 
-0.02808046713009194 
-0.001199419274615769 
-0.0309208524570732 
-0.01143203582820325 
-0.005868035768459515 
0.04295229090773817 
-0.005953918678077023 
0.03576359194639639 
-0.0152392903372583 
-0.004560760120649928 
-0.03578258271073852 
0.05882505848282502 
0.003356193015111596 
0.03051568379249098 
0.004223317646129068 
0.01300330736968875 
-0.01645376605848765 
-0.04012114889382295 
-0.01986617193917582 
-0.003778451682428216 
-0.01699623466111023 
-0.006536082435731797 
-0.01459715304954891 
0.02441625124842033 
0.01015703681501033 
-0.03121321333083023 
-0.01004060073045866 
0.004608580838251219 
0.01202585598551799 
-0.04051966978384662 
-0.03289868993047956 
0.01749321281590865 
-0.01345331239598876 
-0.004955233276345095 
-0.01791485694188386 
0.01261197384474425 
0.002385684078886026 
0.02195157241642482 
0.01543618040632994 
-0.009808706256271085 
0.0009415777714291256 
0.00273244882237385 
0.00390640071688681 
-0.02067482128883536 
0.007856579365229122 
-0.005422396301234619 
0.005612249928874875 
0.04062000460041473 
0.0327370382312443 
0.00411114993556029 
0.01706834780450664 
0.02022317707756037 
0.003301555410027226 
0.02758522880076478 
0.002903861856352028 
0.003652710718912381 
0.04356583927594967 
-0.004989235766414022 
0.036113652966457 
-0.008529706693405616 
0.002614174457212933 
-0.005857764691803663 
-0.0249889217280108 
-0.008357250339979012 
-0.007254443751888569 
-0.005386209723827026 
0.02405891580098456 
-0.03317989391342877 
-0.05020385548315154 
-0.02265741225852062 
-0.0145583909486021 
-0.03451413579833436 
-0.01775957787648865 
-0.008529591264236122 
-0.01089846646738196 
-0.002973255717473443 
-0.0007493173647031975 
-0.01395544451290121 
-0.006666632867112714 
0.00551139566230815 
-8.569861684124135e-05 
0.008520541078865922 
-0.03142076908991736 
0.009044523880430394 
0.02192832475003663 
-0.02019918991207768 
0.01446400745700722 
-0.00545976691931352 
0.03642039602973814 
-0.02225658121150597 
-0.0318399920477602 
0.01195986309862592 
0.03173422856679525 
0.02106959653316258 
-0.002341321256770963 
-0.005317168031383433 
0.001775482194747409 
-0.01560203759177402 
0.01741036540686109 
0.02658719662299184 
0.004630966802522244 
-0.01746850770454592 
-0.007920304030137991 
-0.01087916755243682 
0.02661403905522309 
0.02297046438185642 
0.009254922672867578 
-0.03372375857108872 
-0.01545018756212453 
-0.007096715799095082 
8.717411985747826e-05 
0.001414345396457849 
0.01510264381350264 
0.0269080289886185 
0.009734126687922123 
0.02073487651862406 
0.003597755527168013 
0.0001822918295155972 
-0.01356782327679551 
-0.0150672470677802 
-0.01191423437408354 
0.01010222531060798 
-0.0002028187454789091 
0.01129373920158669 
-0.03118837269558978 
0.03024200386234223 
0.02955205732951159 
-0.01180230152382882 
-0.008685750398529537 
0.0003468953585559247 
0.003408462736052356 
-0.0227322636056711 
-0.01113938011179917 
-0.00571368632008736 
0.02099126263802491 
0.009536486620435403 
0.0096877723908106 
0.001569740380476521 
0.004469841830502771 
-0.004912043369118759 
-0.03682196772300305 
-0.01549158109733603 
-0.007216267854720085 
-0.06149354356980987 
-0.03269310328051284 
-0.01476436319334394 
-0.02606634687155912 
-0.009859801741062997 
0.005871058530447162 
-0.03118763114764659 
-0.01257745062265156 
-0.006282655425189567 
-0.02055764376490476 
-0.003062615965825691 
0.02248079202479611 
-0.01809741516136457 
-0.005625152180700163 
-0.006895075428965997 
0.02531661133562944 
0.01816202000711311 
0.005433724187207171 
-0.01554349150871705 
-0.0007362388911161383 
0.004285323575232785 
-0.01096532491755922 
-0.006320708641680317 
0.01097521542630813 
0.01438046269470199 
0.0220686597129129 
-0.004121322625043248 
-0.007512219895862517 
0.01320443076708974 
0.01086488504805056 
-0.0398110801970889 
-0.01717993186794915 
-0.006729966672010292 
-0.03596778967720614 
0.008434786505546635 
-0.02680182728992143 
0.02475388504619069 
-0.002226073170357618 
0.0180291321579223 
0.01166508191892997 
0.008140475698405123 
0.0007293411165168838 
-0.03846532442060789 
-0.02307358417139288 
0.01614508379492214 
0.06188284971738991 
0.01510379175942837 
0.03747492239027319 
-0.03099037245420543 
-0.01907156197837595 
-0.001835810776713334 
-0.03660190675800957 
-0.01619482445166553 
-0.003621193745344605 
-0.01709649267855514 
-0.008366536212882797 
-0.02270270298356343 
-0.03576968208398167 
-0.01827555270290832 
0.005878444155373544 
0.02332123653723111 
0.01777447156062871 
-0.007281300677930249 
0.02505665776830788 
0.02342357252505636 
-0.01205169242630991 
0.004559810569981735 
0.01480659462848485 
-0.03583584254381995 
-0.0005055071226335301 
-0.001235110204799766 
0.02973386321677684 
-0.002596249846983903 
0.006335567013714069 
0.006617160751404529 
-0.02396852366893224 
-0.003062469853982911 
-0.02742477819096891 
0.002360507968842134 
0.005100163260769311 
-0.02506102408851361 
-0.03824004504657603 
0.006923975425155607 
-0.06400825391620971 
-0.03143981259250623 
-0.02326702887362839 
-0.01836241215750308 
-0.01650996737684539 
-0.01195154278386416 
0.001804581585793476 
-0.04487927100245381 
-0.01851951805593598 
0.001061583420348167 
-0.02764877900023111 
-0.01354697945420913 
-0.003565159048073335 
-0.004779658540462304 
-0.001193728213230763 
-0.01131381650873583 
0.003518654649237097 
0.009365818808763558 
-0.01827250887250804 
-0.03167099282918559 
-0.01010393538430101 
-0.01737635232747379 
-0.05015196754743578 
-0.02519602695692582 
-0.006702347237945937 
-0.000942367266431032 
0.00430652639463053 
-0.004012481951569123 
0.06557267814530096 
-0.006035797672552794 
0.01385449023852742 
-0.03361876028394113 
-0.01414461941087907 
-0.01467969830151234 
0.01417603855067843 
0.009537855680468386 
-0.003315637902142835 
0.00603467466142698 
0.01327208453352085 
-0.01306308250115549 
0.02079678410701192 
-0.001445874537367344 
0.02115151777689762 
0.007208063917099456 
0.006839717855011602 
0.001671096304293051 
0.025708788330949 
0.02710403514202664 
-0.01382175730590091 
0.1047645876026353 
-0.03730272614221569 
0.06489804305564092 
-0.02558640000316246 
-0.03517965436843692 
0.0138172197481692 
-0.03138681797704869 
-0.005865577275019107 
-0.04050102584861232 
-0.01786735503050156 
-0.01377736710242063 
-0.01164962452640854 
-0.01595651959392216 
-0.004862750476539576 
-0.003468610981901819 
0.0142559425650257 
0.005309106348258485 
0.01836714626949769 
0.03593600905278226 
0.01107741848548767 
0.04780555642042511 
0.02907099002419841 
-0.000630330887349463 
0.0167111023838803 
-0.02572279733730217 
-0.006234400404775808 
-0.01747829715543017 
0.006954067131706495 
0.008562973178484966 
0.001500358466713938 
-0.05328454315416614 
-0.02438155683189655 
-0.01218398348317884 
0.01208757014684451 
0.01740619346674195 
-0.0008104913314748561 
0.0007564835493776944 
0.00349109440562101 
-0.01082827095636 
0.007631042281137241 
-0.002677452612056317 
0.02667791369573095 
0.0351468808707481 
0.01062523146854727 
0.02018845769235314 
-0.01989138404816776 
-0.008067540548960294 
-0.01009155679040594 
-0.007323877049683405 
0.03860818403714673 
-0.03695704231752822 
0.04323325059990968 
0.02686750954357897 
0.01059000588664272 
-0.01981968322527055 
-0.004651569202149663 
0.00454461996901215 
0.01727274597121278 
0.01287766707613141 
0.005637317966981858 
0.05192310727381048 
0.009804788494725526 
0.04472599216241597 
-0.01289760437383807 
0.002432783142735154 
-0.02880308371437831 
0.004295514223799723 
0.002217664338837779 
0.01586404807188286 
0.1114894207390932 
0.0349828699119446 
0.04975327852538425 
-0.02935604156769478 
-0.01360248810519249 
-0.01675004601675657 
-0.08207639827347898 
-0.03542514956340555 
-0.03669476083030328 
0.0294887509141588 
0.006617303421274744 
0.001311261617629062 
0.03334437077168912 
-0.0170439363692503 
0.0427987935966671 
0.03764118348307939 
0.006083821712012466 
0.01802284203431478 
-0.01525464702686895 
-0.02123290400126154 
0.02494944658715267 
0.03406578850840929 
0.0006992180098098708 
0.04335288960585185 
-0.0004809403686937003 
0.008002644351142018 
-0.0131810019308691 
-0.02206902389028603 
0.00440591704226864 
-0.06804356659549846 
-0.005465252797395647 
0.009754987020436161 
-0.0198130017338036 
-0.05876964634068303 
-0.02675972878072596 
-0.01154109398814551 
-0.06484500997303652 
-0.02435710706129795 
-0.02128655151793751 
-0.01961277532183656 
-0.005452714991439589 
-0.003132308428322377 
-0.03135423515309772 
-0.01911541633581409 
-0.00407370955850575 
-0.03539271129609046 
-0.0144031178395426 
-0.01139114934819098 
0.03708732672170233 
0.028364916422877 
0.01121540210309721 
0.007466655187018869 
0.04999884960984788 
-0.009584835830809177 
-0.0363395820157501 
0.02224284618400326 
0.0632103506190039 
-0.0821289909333533 
-0.009007244309153797 
-0.0184449585902572 
0.01725082433299143 
-0.002755129141585345 
-0.01083537119872055 
0.01506359863979174 
0.01265576301986961 
-0.01004718711180999 
0.002094577356925424 
0.002186606562603716 
-0.002410374358950324 
-0.02878489201103801 
-0.01381920023499598 
-0.02456929455223317 
-0.007451663564119012 
-0.002314869529355933 
-0.0147883205298399 
-0.04502019804336822 
-0.01327188527125872 
-0.03302989423613845 
-0.05147251596329563 
-0.0107604716489035 
-0.02366899000086706 
-0.01916813333899176 
-0.02134389207614366 
0.02299312690502215 
-0.01280123954730953 
-0.001984558812940805 
-0.006854164643245706 
0.02232974712887874 
0.0008608232684625872 
0.02056139348266898 
-0.02213555518568516 
-0.006815725616292351 
-0.01961789173855925 
-0.005519082088400283 
-0.0002876706766351368 
0.02105318588254493 
-0.01786348998039621 
-0.004964253295931857 
-0.01666033227615622 
0.004955364474664071 
0.01477543567522246 
-0.01274339901613293 
0.05602044510789739 
0.01472301998183961 
0.01802635325791108 
-0.01484561144983347 
-0.002576056831429087 
0.002837045958228355 
-0.02042604015974489 
-0.01347773711851774 
0.01258739823183395 
-0.02506539788180774 
-0.03149069315446711 
0.0128363679931886 
-0.02495352195107297 
-0.001701355432933107 
-0.03274423366641923 
-0.01804551966243845 
-0.004656682735573216 
-0.01643520023869421 
-0.04094062370461918 
-0.02068231457404419 
-0.001093637458210633 
-0.02317871344202667 
-0.01118475383531737 
0.001653396287584026 
0.001711501862626118 
0.004814317980874322 
0.001218030867382227 
0.01977216373323847 
0.01537643592718007 
-0.004625537870164112 
-0.04186106613072184 
-0.02291847026633367 
-0.03220831852938881 
0.005315949269433788 
0.00451330975918338 
0.01063012481488834 
-0.0200668529812063 
-0.00989550633713355 
0.008019050276644716 
-0.03640383639504657 
-0.02389227217747116 
-1.959761100964777e-05 
-0.03566457172048781 
-0.01916344005392403 
-0.006212157807437162 
-0.07140684645156614 
-0.01317038315828593 
-0.03756980644559831 
-0.01190609544190006 
-0.007589013257262961 
-0.0121597275565774 
-0.06040725739844243 
-0.01635636978448095 
-0.04314888054788265 
0.001564383565466615 
0.0154683918169209 
-0.002952157171971937 
-0.03799884853218412 
-0.008916762927860481 
-0.03507026490796758 
0.07875182533588164 
0.02240005557822324 
0.07065131552059416 
-0.04292095804522503 
0.01819874204175016 
-0.05653835326158797 
0.05902159272511361 
0.04204186259105968 
-0.01120151363628206 
0.01627236048110007 
-0.001255046326328396 
0.004163751818677037 
-0.03465385026292407 
-0.003526545392012817 
-0.01215140389592024 
-0.00496288002108164 
-0.002462897471044101 
0.006868107585838024 
-0.01300382780119005 
-0.01800029535882897 
0.01824260809272588 
0.01566771609540482 
0.02864065028019323 
0.03050203221479927 
-0.02048872788640059 
-0.006126922128867516 
0.01574970622080009 
-0.00515346252993783 
-0.005195515791036741 
0.006117275943177226 
-0.03474850050056829 
-0.01544085532632484 
-0.001168861440352421 
-0.0379226327618355 
-0.008452634038035449 
0.01342795984605264 
-0.03657133012780617 
-0.0183883010994926 
-0.00750814116796653 
-0.02557818754081927 
0.000950679386139067 
-0.01320369307278882 
0.02047455783847706 
-0.009265061297193112 
0.008233204380059511 
-0.0300663793069555 
-0.01180155577055243 
-0.008452479130639269 
-0.01612358033797768 
0.001633915554210017 
-0.0158710758411206 
-0.03216868166316358 
-0.01308721314853064 
-0.01795983240592565 
-0.0183442858386341 
-0.006986892532247999 
-0.02607446773013074 
-0.03455583552735739 
-0.01032664197646818 
-0.02636037062572503 
-0.01241301136801078 
-0.009484180135528274 
0.009967956421401809 
0.0193557776218988 
0.007695188912020933 
0.00545188732396125 
0.007072931522424931 
0.005156565191993277 
0.02777973257358959 
0.04693927736175268 
0.01911611029805639 
0.0193673833546412 
-0.01227990862690548 
0.0142713025931916 
-0.007240995660141514 
-0.01296610480100129 
0.02746875038143125 
-0.03309818462951206 
-0.06173828071042105 
-0.096429634018526 
0.01087951192136967 
0.02195107242265244 
-0.003016302538953513 
-0.005678781226923635 
0.03453206790150421 
-0.04393295574228989 
0.04011922582013647 
0.02332914335219575 
0.002948091442912714 
0.0246667890953813 
-0.03890233762710001 
-0.01327840890040914 
-0.009776721789820296 
-0.03582162380425725 
-0.02152291719235159 
-0.006523323658340127 
-0.01070808226591551 
-0.001575274654057746 
-0.01078553638613859 
-0.03890022050908799 
-0.03372541853640221 
0.0257414046097823 
0.005672371446748975 
-0.009602752873348958 
0.03450659890779512 
0.03590584350526807 
-0.006533220849532955 
0.06079699695027991 
-0.05651578483985893 
-0.02415218827937458 
-0.03396807231252414 
0.005565867528038019 
0.007549057275279354 
-0.01062008678878524 
0.02579513891635255 
-1.300823023950401e-05 
0.01963653169561587 
0.005316309448640469 
0.007314968040882448 
-0.007567235903698098 
-0.02796277778054241 
-0.02023871169999848 
0.01173409904063933 
-0.08578983699260724 
-0.04252760963924525 
-0.002613644100488187 
0.02962324833934774 
0.02197278661462988 
-0.01567191051088693 
-0.05113342149466767 
-0.02142828328649981 
-0.02355403039487255 
-0.01173747003819006 
-0.007360629535071079 
-0.03036240037748893 
0.07151975575758794 
0.01119326264664134 
0.05488398162131602 
-0.05123743021372991 
-0.03372446691370388 
-0.01337432473620102 
-0.01281659282879625 
-0.003522145277696138 
0.0303952985230163 
0.01843123680091197 
0.01682258415550797 
0.03276637816829849 
0.001960117614575623 
0.02329917795770797 
-0.01647551120074349 
0.04124594465293969 
0.00170611046240764 
0.02579515994810094 
-0.06254111482578703 
-0.04310260362585552 
-0.01068346400435693 
-0.07331098212639811 
-0.03666328181327703 
-0.04282723742162791 
-0.01099269752787701 
-0.003586561339700348 
-0.0006088494403435396 
0.01687020544492712 
0.01217569107211022 
-0.01129974981450832 
-0.006604701025265039 
-0.00164388225886432 
0.003180420933361739 
0.02299413776637205 
0.0289831300337301 
-0.02054752901508977 
-0.007868064255982632 
-0.001810270412126093 
-0.03149031219090584 
0.003346748585511111 
0.001925517512576564 
0.034159770341851 
0 
0 
0 
-0.01345487589649647 
0.01089157104178399 
0.007531041589532883 
-0.01555076200227443 
0.02394947853803308 
-0.045867491277554 
-0.02526471039891441 
-0.0002666973966964532 
-0.02793683280703192 
-0.003927374611653463 
-0.001875022216556879 
-0.002360099840331623 
-0.005023552082654227 
-0.003104736448901138 
-0.02277998868820293 
0.0004990461734984721 
-0.00433775522958238 
0.0007910396390218451 
-0.01511411166780439 
-0.004272356261800416 
-0.008091504084314931 
-0.009309966151609245 
-0.02838719901809471 
0.01217321144398574 
-0.02245945881595769 
0.002670932608111153 
-0.005385302120459951 
-0.05935463533544481 
-0.05681209641426339 
0.03273511035714404 
-0.04860934155730645 
-0.007638028667952536 
0.02452713606584113 
-0.002355077683161232 
7.121442682358345e-06 
0.01668162345626572 
-0.03160759673921521 
-0.01728148856143586 
-0.03678819555002227 
-0.02283649440950142 
-0.01070319864913769 
1.362053839158836e-05 
0.06994887053867038 
0.05666426923027754 
0.003935633118746679 
-0.01464393084090433 
-0.006166067729637253 
0.02652327414540956 
-0.03668720581220854 
-0.0194705724199044 
0.009823087555837339 
-0.02256590329107851 
-0.001883533183247108 
0.03281529899024738 
0.006505137022066256 
0.009332257295198057 
-0.01058921897201369 
0.04115128907940357 
0.01781760581842877 
0.02868471703008113 
-0.0141877078156565 
0.002061436461777 
0.03110775228571978 
-0.01789279572056316 
-0.005243422757411287 
-0.005576983092608481 
-0.01671986415444748 
0.02020455735831848 
-0.0478474834375136 
-0.004060564447549 
0.01936062947687152 
-0.04774597152523978 
0.03519647390876885 
0.03443330910942319 
-0.007680088986241796 
0.02863731197919242 
0.03283585544191235 
-0.01674352116233074 
0.03357404258317842 
-0.01071852805793783 
0.009296836891201679 
0.01585087723304368 
0.02026888028179432 
-0.04183724930816363 
-0.03580597186373873 
-0.004705838454137034 
-0.05430477033106083 
-0.008222362368270602 
-0.003596933908099986 
-0.0006498777602420409 
-0.02480036990301307 
-0.006728754152229505 
-0.06106598295336575 
-0.01919150001727384 
-0.007321655742759442 
-0.009073638122544433 
-0.0834218408318689 
-0.04348950001340721 
-0.003584170297600019 
-0.002812669628221726 
-0.009932817812133215 
0.01026676180467384 
0.01082827882831056 
0.004092242899673127 
0.0189779706950639 
-0.02028746507453253 
-0.01043913711601837 
-0.0155676939287717 
-0.03284973162338892 
-0.003126622328509298 
-0.03349815935878268 
-0.02863507112566821 
-0.0076517058559198 
-0.01041455782870667 
-0.009589528624197449 
-0.01620885757359364 
0.01619540641661518 
0.008432430979698679 
0.005195321978814527 
0.006319566953609182 
0.0009465230115836385 
0.004145041979002035 
-0.01659957028730894 
-0.02516647807198687 
0.00726387231172969 
-0.0208981368722133 
-0.02518678565204369 
0.001673241645682575 
-0.02574569754234966 
-0.0514443172575869 
-0.02427311370050864 
-0.01350559747985103 
0.0004528419034772646 
0.02780677050410628 
0.008964861356034299 
-0.01019496736113444 
-0.01185090428760305 
0.01941698076590078 
-0.00988665588282979 
0.01209709292601688 
-0.01671380076322083 
0.04666009099497512 
0.01302706321705078 
0.0446623696676012 
-0.01787756835616276 
-0.03640742129324297 
0.0001038432126083627 
0.05308210041596038 
0.02766073086522042 
0.01890425966121574 
0.0296037520763435 
0.01362689170320533 
0.02404040949514809 
0.02281133642789331 
-0.02737250136426295 
0.03860196330484415 
-0.01080565237407834 
-0.008030213901938451 
0.01077120961550473 
0.004672150483666081 
0.03327507328073761 
-0.03078368721749551 
0 
0 
0 
-0.01338706369269329 
-0.009542813750350492 
-0.01665027549493249 
-0.05421743406836223 
-0.0123143964929204 
-0.05550569223379825 
0.03741698841429802 
-0.03087547984224006 
0.0750382749851157 
-0.01200741678924201 
0.002664870906856183 
-0.02741574873289221 
-0.02778052262782601 
0.000423342046791868 
-0.005585714095969907 
0.03568436441555851 
0.02029764946019752 
0.02198464795774469 
0.01404519641275663 
0.005966529679586527 
-0.02023949864589616 
0.06548344398917234 
0.05542847059195275 
0.0003678289885994831 
0.02534105750814422 
0.0129800682756043 
0.0248482497465605 
-0.01848516506337059 
-0.02460282223609944 
0.01421837987250688 
-0.01129808918524389 
0.003693272873377298 
-0.006286639205108119 
-0.01011234335838102 
-0.01180944702582508 
0.0112658205322178 
-0.03443412729847196 
-0.01856251528218704 
-0.0162460603977019 
0.02060246190511405 
0.004142422413304073 
-0.003917772174861432 
-0.01166579015364625 
0.01821836682483152 
-0.05496881839044625 
0.0362842087586809 
0.008597539613177713 
0.02018059314559592 
0.01980081184368176 
0.02310270396425781 
-0.01460968494445913 
-0.0218174537944502 
-0.0005523592827958468 
-0.01740356284399645 
-0.02724970743617641 
-0.01128719298685691 
-0.01275463889267786 
-0.01355336751299423 
-0.01339039081456491 
-0.009667662975989432 
-0.01152712641914297 
-0.000511946032728896 
-0.02539702671728214 
-0.03446204143249273 
-0.006063919126781055 
-0.006177221139081188 
0.008188620924467401 
0.0001918520686311967 
0.003542772606004978 
0.02397278064648741 
0.01040422391753915 
0.00262627273854508 
-0.02458477412579167 
-0.0004669689206627788 
-0.03180269834056709 
0.05455012734353509 
0.01957226591402805 
0.01528348747412069 
-0.04692430819959815 
-0.03759403799664035 
0.009512463879961613 
0.03521342702100972 
0.01393417740611539 
-0.004957041998851352 
-0.0272855619077275 
-0.01295196638860903 
-0.003442380518355058 
0.01323891469523075 
0.01263142678403486 
-0.013157789609185 
0.03897822468098119 
0.03278333171936564 
-0.01966856669957305 
-0.03753555410429754 
-0.01750474881846441 
-0.01653778443629779 
-0.03654882742532314 
-0.003787062694717287 
-0.01641611249863411 
-0.0398343343697913 
-0.0372395884878861 
0.0139734945840224 
0.02257348675786777 
0.01836825690736514 
0.01122743527652913 
-0.02709801034182191 
-0.005989608506328137 
-0.02410186612788139 
-0.002595867669376438 
-0.000628083821867488 
-0.001758805962202613 
0.05332098795497239 
0.0247397018014736 
0.03191567660737541 
-0.01818684835652612 
-0.04039569938270339 
0.02758906039747748 
0.01048995663656323 
0.01458734386210875 
-0.002155091870740402 
0.02477705002920407 
0.0511365980403488 
0.01828998075180531 
0.04100973076015203 
0.01920379894073336 
0.01053075188461288 
-0.03044412458157018 
-0.01510544369749273 
-0.006913835821209098 
-0.01418564707641179 
-0.01067783248411785 
0.005752195091864392 
-0.01851184379790429 
-0.001631400432323942 
0.0007538016818699455 
-0.0212655253744786 
0.01058529576083967 
0.005732331289697734 
-0.01075326743884917 
-0.0138694723608859 
0.006990921697748812 
0.04241070022163711 
0.01534309040418429 
0.03075055587967014 
-0.006011816353434348 
-0.01745696717755982 
0.04482255952391469 
-0.04150216658134472 
-0.02189982532980433 
-0.004693579330233512 
-0.006611845793904444 
-0.01266627342014545 
0.006490692201096932 
-0.05447498182041389 
-0.008949765171008596 
-0.01790860450851407 
-0.03343129749874028 
-0.01673383015638825 
0.003685069458719391 
0.03529697698743658 
0.0296885740493498 
0.002631524431273222 
-0.02534797922851374 
-0.009041298059595576 
0.009113298754139973 
-0.04322955487345607 
-0.007717783143261162 
-0.02935855320413076 
-0.006907762698353648 
0.01245320811567758 
-0.0009360790087244391 
-0.009572745030152452 
0.02935797373968355 
-0.006714310868594268 
-0.01238094492131576 
-0.006496536215727851 
-0.01497385217397666 
-0.04559320627652459 
-0.01247339753920324 
-0.02585930955167962 
0.05222149103013122 
9.271491887923315e-05 
0.09868715857181538 
-0.02115279276917844 
-0.009676331604538379 
-0.018365072718582 
-0.00701616696784053 
-0.03731104948199114 
0.007613868671344557 
0.002901439967274968 
-0.02817347192856514 
0.0280322567325098 
0.04926107706933401 
0.0367918053046899 
-0.01227380997720657 
-0.01543625538664605 
0.0002491646224992843 
0.009188598167877956 
0.0359630010188785 
0.01444487702020371 
0.002428210340830374 
0.02170997074759548 
0.003893585390165266 
0.02316970519549187 
0.00707664160344462 
0.004229096603416288 
-0.02009481629794944 
-0.04923220865017947 
-0.0173783630623576 
-0.02668744312656907 
-0.04492651996707415 
-0.006055663422075774 
-0.01986383867689149 
-0.017267023771482 
-0.00702304363273768 
-0.009115684106711663 
0.02862393052330096 
-0.005257652923787473 
0.03837853208735562 
-0.04650533552043778 
-0.003626642844495967 
-0.02699374591008955 
0.009835125509303514 
0.02755858689576258 
-0.006257348489823854 
-0.01430190967737855 
0.008744878359328674 
-0.01534763981296975 
0.1106012972280141 
0.04615358423664657 
0.04704526047650309 
-0.06646146743052667 
-0.008424606960313771 
-0.03904521954584721 
0.08806069649233524 
0.004690410935873592 
0.04911608471614139 
0.0147749959777049 
-0.02194515562036347 
0.009947612807770871 
0.03654334724787344 
-0.007572484546371219 
0.03449747572237264 
0.006034758689534041 
-0.00505146339238528 
0.03152460708683828 
-0.02257972247472918 
-0.01777831795287351 
-0.02051097903534037 
-3.312289614339123e-06 
-0.005161174571718057 
0.02160260516369567 
0.02784399960152338 
0.01992611562302965 
-0.01343470511364756 
0.01058791253698219 
0.001318442010328067 
0.04212419470347987 
0.08380811240442111 
0.05444924918340838 
0.006821741624811799 
-0.0002447475575583286 
0.002825659697266525 
-0.007910041985110122 
0.00544680054531866 
0.01333768851600471 
-0.0284056576971321 
0.0783657051676034 
0.02250577387456051 
0.01256286814044959 
0.0223418942740594 
-0.02362420545311717 
0.0554001402464452 
0.01125566484442012 
-0.04515616863671285 
0.03215730366142453 
-0.05023476163045443 
-0.02360776209836568 
-0.02006157358868646 
-0.008408187398076767 
-0.01752779355745842 
0.03496786800068892 
0.01188546846633528 
0.01426243520965268 
0.03333585874662724 
-0.01724685793736346 
-0.008234784682601524 
-0.01046714104906205 
0.001103185053124375 
-0.01346600477421726 
0.01242545491674516 
0.0326536579957687 
-0.008434220098456461 
0.04403449822494759 
-0.01509885177201923 
0.007378624888926564 
-0.01318691371570626 
0.04058970272326071 
0.006431056555032766 
0.03100789137016649 
0.00813410068111018 
0.01301024735784509 
-0.0136231634555008 
0.008282269349910826 
0.03583633731128288 
-0.03071607918378774 
0.01875709274089475 
0.01670636264015216 
-0.009403040465978021 
-0.02085545416392379 
-0.008795783420097169 
-0.003620108089990606 
0.007771651151202159 
-0.004707303692963375 
0.007369449812640757 
0.06034144092944398 
0.04415521541139904 
0.01259676101636182 
0.02720371242808154 
0.01679267665370459 
-0.001062886017817642 
-0.00131029377501779 
-0.001957224781284709 
0.01830109874697648 
0.001941298917409955 
0.003048998634945008 
0.0048975965412869 
0.09207673163671133 
0.02731907477826554 
0.0543354844772586 
-0.004263655837077229 
0.01871680864468443 
-0.03633078383630065 
-0.06916069891283004 
-0.03131994738955193 
-0.02460190598746156 
0.09180683807500682 
-0.04546521140957788 
0.03098251443920572 
-0.07013756904585539 
-0.01911755261168718 
-0.02657706718313098 
0.03219495413772541 
-0.002926432616668405 
0.02431838933444258 
0.006193918211346428 
-0.002806374322908844 
-0.006131302206084136 
-0.02366626612842344 
-0.005655133852293655 
0.0002367686882958569 
-0.0538081681799779 
-0.004523072452025999 
-0.07121996835294411 
-0.005800269320795246 
0.01641321507208982 
0.01103046990161428 
0.02255417672799179 
0.009021565091426062 
0.01895668734810937 
-0.08082774784070962 
-0.02532545810837802 
-0.04551069865205397 
0.01914374001368615 
-0.005117939153375692 
-0.01237039844049888 
0.02537644458851964 
-0.00332927634054171 
0.009908467649414249 
0.04123922925340537 
-0.01400665720116137 
0.05251371595256075 
-0.02446098135587198 
-0.01564766669024908 
0.02048741150080706 
0.03912363279558374 
0.02380689928581346 
0.05173740101728082 
-0.04356242822887512 
-0.02922271312613496 
-0.03234419888202784 
-0.07640036521860899 
-0.02005234749084252 
-0.04267000701250531 
-0.01083231546181797 
0.004214149330475006 
-0.02593946036186623 
-0.01273860226455501 
-0.002218817784535059 
-0.0002475348703854807 
0.008710554376095286 
-0.01147609450577955 
0.01706412647201528 
0.02912126177226274 
-0.04393301647468251 
0.04567028621522312 
0 
0 
0 
-0.0006754241701102893 
-0.00554682946289085 
0.04535701035692303 
0.01989579765161439 
0.009765622893529408 
-0.00803538250096527 
-0.06897158999778696 
-0.0151592657628806 
-0.0413125876027758 
-0.02192164132627576 
-0.01153480396405226 
-0.001151874622381866 
-0.03546871922895391 
-0.01319294563660329 
-0.00634624860173887 
-0.05153347079334016 
-0.06214891558715407 
-0.0136289134087732 
-0.01582831443529027 
0.01303152395367949 
-0.03703590950365368 
-0.01983261462134487 
0.05625668801884176 
0.08353408914097481 
-0.01534725142859659 
-0.01644919795836415 
0.01811554377317983 
0.03420074576851651 
0.008170464419550062 
0.03739555356401612 
-0.03899784675584186 
-0.02606901752553938 
0.009174355415079062 
-0.003003194862863756 
0.003652374805145651 
0.006833001971089709 
-0.02495444164073832 
-0.01281696933497125 
-0.0007686392370245035 
-0.03076980698920502 
-0.01224163198425065 
0.001946258280619298 
-0.0309214098741936 
-0.01591238862846322 
-0.003532585986767514 
0.06967390258231863 
0.03638508795445027 
0.04173841847605566 
-0.02413906347332256 
-0.02031492779478785 
-0.0006585421128689291 
0.0277980971118862 
0.03499670822126237 
0.0005524358708293408 
-0.03935784614997305 
-0.01087909583447866 
-0.05041956965337589 
-0.01855732975085411 
-0.01364487356369462 
-0.00305032347090743 
0.01967288955064779 
0.002542833749755634 
0.02712506245626243 
-0.04083643623857693 
-0.02110469790783355 
-0.004633915564373531 
0.002787074000438091 
-0.01717739475126163 
0.02469431114427123 
-0.005984038495152596 
0.00577889358617063 
-0.03326867725371594 
-0.005417107924404355 
0.006905714270684178 
-0.01974156502965288 
0.005475240544993782 
0.0345240126938459 
-0.01301048467295043 
-0.02160518619079643 
-0.01082338814409156 
-0.003028986219100971 
0.04676822979121018 
0.03242073449887781 
0.001943112920021969 
-0.005547984088386285 
0.0006191703751472767 
-0.02332692849658031 
-0.03043346104901431 
-0.007003774541272576 
0.001700610638626939 
-0.03739034271879373 
7.640082442706691e-05 
-0.01424517020668065 
-0.01203932140979561 
-0.006775865748086136 
0.001620805759029 
-0.0574045729560942 
-0.02316228757216521 
-0.01155368940402851 
0.001022964909628661 
-0.01506800911815589 
0.0121258539303515 
-0.02866844260648597 
-0.0108626481224065 
-0.005629485818008563 
-0.001182097358149075 
-0.009814150554951211 
-0.01817542225321214 
-0.02412999053566608 
0.012129372680141 
-0.0643006266419316 
-0.001039606840984467 
-0.001645218759973204 
-0.00646464469916126 
0.005907367110721947 
-0.03696306274751765 
0.004723894629860131 
0.0100659875635808 
-0.005897877088213355 
0.009043731138385896 
0.005616540741564912 
0.01929674034442145 
-0.03337302104564156 
0.03300594804118234 
0.01666277827636821 
-0.03406499287741817 
0.002377992129716111 
0.001203398861136801 
0.01238686355685874 
-0.002796051043764569 
-0.0004957973951567303 
-0.002576702296441618 
-0.02010365516642303 
0.003920091040310793 
-0.02292011676474206 
0.04008414296286966 
-0.03674003423603523 
0.06998195812921373 
-0.03460112980094535 
-0.008896478549830361 
0.0004552762878211855 
0.02632887543133793 
0.01831470536137135 
0.03677392082799481 
-0.03595856978160528 
-0.01879857150553323 
0.02990927617793452 
-0.01123275733097556 
0.001083788791623841 
-0.04094638061295809 
0.0184570224139587 
0.01016804009892311 
0.01163208517361538 
0.01259940247007972 
-0.003247661520821398 
0.02303590138910229 
0.004973202758534815 
-0.01255327025133178 
0.01349191101053044 
0.02766868880579505 
-0.01462988070602532 
0.02805309235683332 
-0.01925756650436718 
-0.01850654219654714 
0.02268738357671361 
0.04213207897923289 
0.02060978825169378 
-0.02069932828430708 
0.02181607433736868 
0.01057943995002327 
0.03656470837744812 
0.04027804286098613 
0.01940726224496618 
-0.008990686534181133 
-0.02863811980027566 
-0.005661421505740908 
-0.02671863707710635 
0.02459857595052873 
0.01243400156413684 
0.01123215913956548 
0.0002269747390242905 
-0.01945953104489891 
-0.01539752125577594 
-0.02831845700033321 
-0.02519581399213824 
-0.0007737926890259647 
0.008292635676905158 
0.009764447430633687 
-0.005253915745281747 
0.01142325760660642 
-0.003526516893376202 
0.02730066129988227 
0.005304512843154802 
0.03091815282144551 
-0.03253848038134195 
0.01579306972537412 
0.01405002835153341 
-0.01161150160990202 
-0.02807275968048245 
-0.01658703949570674 
-0.006453840584358967 
-0.05322791195445793 
-0.006240374095521297 
-0.02365425030663061 
-0.0270531230431948 
-0.02321103633357915 
-0.002020663022369107 
-0.05647010227954743 
-0.031158692614774 
-0.002926684062899711 
-0.05144518554582358 
-0.02046035976865146 
-0.023466611938353 
-0.060902005011896 
-0.0354711816521046 
-0.01283597415454607 
-0.02924131329272227 
-0.01316481527446222 
-0.004315248478470567 
0.05159183265265842 
0.02234922519482378 
0.0374940628212859 
-0.02802971549794755 
-0.00179026023758638 
-0.0439550806891041 
0.008018521002933487 
0.02420070852100985 
-0.01887953748081566 
-0.07235997488045305 
-0.03737480900655552 
-0.009617606979681731 
0.0006986395054104973 
0.001822773780893977 
0.002953536742844964 
-0.01717128779088754 
0.01644760342657647 
-0.0002649028504529369 
0.01456000977528373 
0.0380394085420681 
-0.009041155697269539 
0.06309665832265413 
0.01923232957654914 
0.01989785141578285 
0.04146839067847373 
0.00797071226218567 
0.02710762188814151 
0.002709743350003443 
-0.007330669363388085 
0.03383783714707765 
-0.01187247852490032 
0.005334818154352643 
-0.0325837409466795 
-0.04868179800834137 
-0.02949187883281629 
-0.01467824892287509 
0.03507510096959424 
0.02835509180248079 
0.02360807065592565 
-0.01517296698754883 
-0.007910009850926211 
-0.006712811121536951 
-0.01725997102444335 
-0.002714552028676385 
-0.00338452841459691 
-0.04294101039918637 
-0.00638180991437782 
-0.01088036263689786 
0.02395819638157153 
0.01814460949447027 
-0.009740157824345836 
-0.01391471323387105 
0.004320008594721719 
-0.003414456965812456 
0.005156524047929386 
0.02415308711431891 
0.003629543525440523 
-0.0006883924030635754 
0.006126011897705225 
-0.00970604377603149 
0.00497227584663102 
0.02233566936433948 
-0.03884366266308129 
0.005262838982312161 
0.01838564772570136 
-0.02524889991402093 
-0.01250212285369497 
-0.006114087437012431 
0.02342280603929083 
-0.02068163060638819 
-0.01019420996513706 
0.01528993487706042 
-0.02647060387223436 
-0.01868732359952384 
0.02271762004959211 
-0.03589779266069407 
-0.006085850657291341 
-0.02639713786183102 
0.01887807652451693 
-0.0044202349964304 
0.008849187464356052 
-0.01206550326103378 
-0.00374293674743477 
-0.003891838720657022 
0.0387452677300108 
0.03743444037142089 
-0.005309146790653172 
-0.08805638360779457 
0.02001456268346356 
0.02720010285242011 
0.03069638200070414 
0.00254749375501103 
0.01739278998461864 
0.06271092724544913 
0.02800848183499883 
0.006499238044017565 
0.02445074219546511 
0.01290896316899029 
0.02861571793746349 
0.01259814434483883 
0.008921021613842972 
0.002000053682958098 
0.01690532828153892 
-0.002512907021098286 
0.02395923519772897 
-0.01080704066812504 
-0.004138732980514045 
-0.0007658026335493617 
-0.03288108468568127 
-0.01003062207133904 
-0.003798038938813961 
0.006161898259366813 
0.01198790365164486 
0.01091867117922943 
0.07324751432462702 
0.01959432411401615 
0.05585939386526617 
-0.004260987998039346 
-0.002807322155345583 
0.007640962941291215 
-0.01991499137486626 
-0.002911983391785391 
-0.02097390487983578 
-0.0129081748884844 
-0.01282372310300764 
0.002034845882996556 
-0.03404999657610366 
-0.02542166997052392 
-0.004175120640031989 
-0.02901521985028044 
0.005389758959088765 
-0.01711077306769988 
-0.03880613851708482 
-0.02112711476880878 
-0.002341416903299372 
0.0344757078859417 
-0.0006310302210704742 
0.04171751983187567 
-0.01104842195125175 
0.00494628762226063 
-0.00822627055389607 
0.02581750114438626 
0.0212331220909777 
-0.004820956550767499 
0.02141630944541398 
0.01607905949405162 
-0.009508882423957742 
-0.0434352627431174 
-0.003894351456724099 
-0.02666281850827404 
-0.03075118778553318 
-0.01374485052641584 
0.01797383123506289 
-0.01133942831759054 
-0.003558561001531771 
0.001662612045638286 
-0.01722136737141863 
-0.01002264010135309 
0.003381823287470169 
-0.03595509416770739 
-0.01679420989090006 
-0.01901137299023275 
0.01277346508732831 
0.01323636864257156 
0.008359934356154366 
-0.05154230795885299 
-0.02734062980855763 
0.007375871197128149 
-0.001206067165308331 
-0.01758840047097769 
0.007162880310471412 
-0.01490065275278151 
-0.03020745318461813 
0.0131073312159382 
-0.01091190564242565 
-0.003760970780169912 
0.003154754900700626 
0.03961925869041644 
0.01291937327799023 
0.0153552038473632 
-0.03124446130066826 
-0.01202665584489727 
-0.01034732863312989 
-0.0423269827718707 
-0.02259754216573015 
0.001030932114037881 
-0.005548159438844825 
-0.006477104232235655 
0.01868612786982772 
-0.001941969293022181 
0.0007821950268438994 
-0.01096543582750898 
-0.002663483441155853 
-0.01040708926299538 
0.001060625766276338 
-0.009934770669551767 
0.007373970406688724 
0.004711127552447402 
-0.02516320357413736 
-0.007225531822380005 
-0.01067416772522445 
0.01046846778069245 
0.001277082247877532 
0.01045286621923027 
-0.02106637184551969 
0.004306508001455076 
0.00212767948287096 
0.01266705517415737 
0.01136259373833741 
-0.002975281590011786 
0.05031261385953287 
-0.0007661771729856307 
0.0623880925383341 
-0.020002279367899 
-0.005477504403105861 
-0.004784044257508864 
-0.02521094830278542 
-0.006073795408806872 
-0.001936090512538494 
-0.01923859299210557 
-0.0283661089857753 
0.03046544845150932 
-0.04867408796983597 
-0.006466901116531375 
-0.009185970598464368 
0.02291044480790731 
0.01658475847568058 
-0.004425664304529504 
0.02886883065670558 
-0.01164598338273726 
0.02723452238563157 
-0.0445354501048888 
-0.01802826942756944 
-0.009718188711213311 
-0.02039280059940438 
-0.0004064074058151349 
0.01189017716194201 
-0.02749698635368492 
-0.002750093753133444 
-0.01351650750452576 
-0.02628318035451646 
-0.006786522494742299 
-0.003774225769224332 
-0.009661980150023411 
-0.001436115662502389 
-0.01031038695155541 
-0.01093781433888174 
-0.00232855403604443 
-0.009473373824920465 
-0.05986412701155682 
-0.02230416527877019 
-0.01888030319031491 
-0.005345715080685143 
-0.005529384377450047 
-0.0111501444670889 
-0.03332980418921997 
-0.01782105866754732 
-0.01583904474832718 
-0.04978088923556086 
-0.0182528695963229 
-0.01638065276039195 
-0.05888506999746256 
-0.01712213108992097 
-0.03719781678376402 
-0.001922990893446628 
0.01025258833916423 
-0.009386191269951055 
-0.01501212423174325 
-0.01856208652528754 
-0.001440036878818415 
-0.005188354934077957 
0.004111235802365983 
-0.01622467694158286 
0.03277826766166583 
0.03276146706840173 
0.009403558003028603 
0.02001681698939322 
0.006433334324427269 
0.01733437256754808 
0.01836054714420492 
0.01801697008144742 
-0.008164311597396846 
-0.004001950998348286 
0.007308671710707599 
-0.0282414531269658 
-0.01118289859539873 
-0.002795924146176604 
-0.007556436380046361 
0.05750139907154989 
0.02258621439944653 
0.004102529075613518 
0.02900398193614687 
0.01302091627416671 
-0.004148507747671505 
0.01244608478079627 
-0.02272481631021994 
0.03940281667691969 
-0.03075250577224529 
-0.00978263231751764 
-0.01817290360119289 
0.005159020873876073 
0.002998384860784952 
0.00409388080477187 
-0.0175130989078933 
0.02130114509455451 
-0.03259008327993347 
0.02367906095411805 
0.02362707086766491 
-0.03526726580029559 
-0.00573146229664534 
-0.006523195344206136 
0.01244306377386591 
0.01493775583852901 
-0.03181109972671645 
0.03200972918529774 
-0.02850984185152048 
0.003240720166453107 
-0.03254014133625953 
-0.008963343106799375 
-0.001852227484550319 
-0.005364387511641426 
-0.04066709880881721 
-0.01597999730479053 
-0.005289773936425417 
-0.04466589278714275 
-0.01816521232552871 
-0.0374496786810975 
0.03878243509549963 
0.02279395374262665 
0.01037906163237933 
-0.001022648634215089 
0.0100640832646188 
0.008699157573030957 
0.02751727707251515 
-0.08921233150442062 
0.01101113088838199 
0.04890771695267864 
0.03642550316284834 
-0.04224805757678321 
-0.02922281924800412 
-0.008487136810336852 
-0.004939082358492708 
-0.06233306803885721 
-0.02320397952544581 
-0.01030035092184752 
0.007529627503580398 
-0.000812192576666564 
0.006441465232488663 
-0.03621004065208844 
-0.01080355598870292 
-0.007897402946974802 
0.03742354124458223 
0.02190694412275364 
0.0173330634045501 
0.03555639428530877 
0.01637019179165502 
0.01455786155159178 
-0.001973236607627504 
0.003037372290163103 
-0.008677109157935283 
-0.03624361951317052 
-0.0146997455058356 
-0.0178484947473846 
-0.001403733692913532 
-0.004259287739820754 
0.01077253289282915 
-0.02387276608459733 
-0.02434379459403735 
0.02672505397295719 
0.03026187056168972 
-0.002216611308498014 
0.03742428097338799 
0.002787801624310799 
0.02869086168676004 
-0.02486173904860394 
-0.04719975926619334 
-0.0110677526576397 
-0.007994076065698602 
-0.05047363003416292 
-0.0240128035136036 
0.003086472078414959 
0.08215623785604155 
0.04870443464495423 
0.01572799792653038 
-0.02523727170674738 
-0.01844932988469275 
0.005296181021945376 
-0.0316174113343023 
-0.03531116522532237 
0.02093957200208176 
0.03158042158562264 
-0.01065543892872165 
-0.002322141866968033 
0.01791114610306085 
0.01923163530393245 
0.009885837138410906 
-0.04577650491866236 
-0.02217200310642911 
2.639521605742791e-05 
-0.02069280968726709 
0.003674305327951389 
-0.0001930415963856107 
0 
0 
0 
-0.004579772674051663 
0.003395918917853639 
-0.01296918123659568 
-0.02842492700135148 
-0.01630002790783538 
-0.0005561127799838442 
-0.04262979137080809 
-0.02448914083885105 
-0.008877882930012498 
0.05414938392701329 
0.04281698899153 
-0.02860761577576977 
-0.005638628073974378 
-0.006826977367592404 
0.001263396820241303 
-0.03375894513332791 
-0.0129484601146532 
0.003134651781011607 
0.03139012429203676 
0.007731402945699472 
0.01153655183785402 
0.01562104223714414 
-0.01028283829943963 
0.03483319973949621 
-0.002477256868996179 
0.002331244766385971 
-0.03356699016652052 
0.01332018094698785 
0.01422985092527181 
-0.02982911984320323 
-0.05340918531936172 
-0.02385556102742476 
-0.01380685716754059 
-0.05069130336998368 
-0.000926553574495861 
-0.01734457080810566 
-0.02865660162946056 
-0.003854934501817645 
-0.03160477612081356 
-0.03849067419412935 
-0.01175355575194971 
-0.02047833284043713 
-0.003453779781759483 
0.009426946723232334 
-0.01966804179090532 
0.04575908822069647 
0.006652803549453568 
0.03834157029278248 
0.03140209333017463 
0.02098725955034872 
0.008984172537616171 
-0.0323941196736692 
-0.01052145249380886 
-0.01930887355092277 
-0.005017806311045369 
-0.00270119404594267 
-0.01841872765374822 
0.02596572465893863 
-0.02657966838270009 
0.02045160550909052 
0.01450225326763857 
0.02351093851318475 
-0.01361224683515858 
-0.001892556601731571 
-0.009485716751082051 
0.009744492939119311 
-0.01688224864390028 
0.007252111600835321 
-0.002233140020173543 
0.05674216224470792 
0.02851898135295558 
0.0286410644362706 
-0.007171380161775597 
-0.001196965775459912 
0.008612238980711038 
-0.005240911188480321 
0.01136947998551424 
-0.04057851622972104 
0.02261746608654938 
0.01654240041470359 
0.002463777992545373 
-0.01584643363680485 
-0.01221440060427207 
0.02988875389068259 
-0.03141093633236682 
-0.02653330537093996 
0.01428943629948265 
0.01761955203237892 
-0.004201383042914788 
0.04499253497799869 
-0.01082746340589438 
-0.004775288153166937 
0.0002449791801597439 
-0.01797240875522632 
-0.04427195997318922 
-0.006394736328336499 
-0.02526245053428404 
-0.02044608593382398 
0.004656387071620196 
0.03939314116440298 
0.02754519858994351 
-0.006381672219177377 
-0.01529185857340859 
0.0004224915939315928 
0.007568938994458075 
-0.02392641545143767 
-0.009224682234243149 
0.005167078299527009 
0.0055695207487432 
0.01199082929476886 
0.01765870124167988 
-0.02346464988302089 
-0.01082897600645663 
-0.003882106388690333 
0.05195458313486293 
0.03572539730738112 
0.02539693267882565 
-0.03622303317300087 
-0.03467153333098249 
0.01077070565683595 
0.02985229933533361 
0.01117261071806749 
0.004246446519451233 
0.05311868172905001 
-0.03238360162875865 
0.05746147068557253 
0.001545501976132094 
-0.013460902156508 
0.007132296374331245 
-0.06299062100781107 
-0.02657546667434227 
-0.02914978562511998 
-0.005959000462761782 
0.00135024907298793 
-0.008292555308810137 
0 
0 
0 
-0.0714196602251769 
-0.01668969552327432 
-0.04678432290305305 
0.007162299917378878 
0.003518994919208587 
0.008091105427200953 
-0.02444320140020502 
-0.01393491129220319 
0.002281890011212721 
0.009059959042165534 
0.001301154286603149 
0.01073467884242879 
0.002362141675476648 
0.0009884439352644255 
-0.005729840715061538 
0.0445749393959867 
0.02057875151769915 
0.02573843279415304 
-0.06560158033738508 
-0.02862225568977551 
-0.0006901883725907105 
0.014676134595997 
0.002144370954227499 
0.003809114652460117 
-0.02132558719395799 
0.01700008326345502 
-0.01451865404585005 
-0.1452465756627007 
-0.0657496280904778 
-0.07985522069225182 
-0.0313017559340934 
-0.01706604829824214 
0.006345549907275229 
0.02014338492808833 
0.01964843073149575 
-0.00463259023695867 
-0.08783952464966842 
-0.04459657845582327 
-0.03705021414704236 
-0.01915426608685004 
-0.01214428371842648 
-0.001365999662986349 
0.006465525574690207 
0.004467251938470819 
-0.0008838815777620179 
-0.0343288045799468 
-0.007304026406480855 
-0.02380045355836517 
0.03999055309741422 
0.01574927592846978 
0.03248695179773668 
0.03802703828968031 
-8.509562798577323e-05 
0.008009901630079501 
-0.01298837590852441 
-0.01596836951961067 
0.009599333757008133 
-0.02740820601310514 
-0.01321400818686208 
-0.005516195218458096 
0.01370829475219099 
0.007654900814313222 
0.00380296777592707 
-0.03751196053172202 
-0.02068041530786438 
-0.01288790384380973 
0.01645154954064565 
0.01783369731382631 
-0.02283921998320805 
-0.04920799323825548 
-0.02315976484775203 
-0.02481039439701122 
-0.02470818589687922 
-0.01631075865659316 
-0.002074992198774476 
0.01141681233169318 
0.00407211065849197 
0.04032219694356917 
0.04078594419375111 
0.04470331846672909 
0.002072610966930518 
-0.0284494738664425 
-0.006915627028282433 
-0.01134919518995865 
0.01470128388774959 
0.01601546940786623 
0.0004591820060477216 
-0.01407140827001225 
-0.006493530446092222 
0.005430185199065625 
0.009445648475171618 
0.01291223799427607 
-0.006977147800322909 
0.01195015007469552 
0.01062639058573651 
0.005768373542488167 
-0.08368806147640605 
-0.04701441846725788 
-0.03976585351609734 
-0.006217038898921 
-0.01052961073518809 
0.02020037111707563 
-0.01712493163643886 
0.002168408292904118 
-0.0004460520850549624 
-0.007509753193914336 
0.00167158350292344 
-0.009324250168065757 
-0.04991765921474978 
-0.009356837875543386 
-0.02775334680330853 
-0.01283412599926146 
-0.02021077096052409 
0.0001238805742468732 
-0.003503001065235946 
-0.002550599304975751 
0.004404281023731734 
-0.0280744494901614 
-0.01412687190302479 
-0.005434580957489007 
-0.03079326497462681 
-0.01259530653344554 
-0.008989212342699993 
0.03200398058400252 
0.02024139504362662 
0.01508109729760467 
-0.00918248050902503 
-0.005327544362268078 
0.035807552413217 
-0.001455379867434384 
-0.02164918240606884 
0.03001489454220486 
-0.005701109432141383 
0.01309992955796447 
-0.01563426359086009 
-0.001101186540649086 
-0.009187863113222066 
0.02768792920533053 
-0.03478966128231002 
2.115100903949618e-05 
-0.03632350038453473 
-0.03801369974944691 
-0.01956052155498558 
-0.01692834177371924 
0.01603789638419238 
0.01214559583940552 
-0.006381682287868232 
0.02791715414872828 
0.02765340315833882 
-0.01114572935716575 
0.008385649745401664 
0.01506340133570638 
-0.02197379292318853 
0.04058567954319513 
0.02038155281148581 
0.01308618572761518 
-0.01585971453385933 
-0.005339479966305245 
-0.01201845147559948 
-0.005836463418491416 
-0.003030146902516854 
0.001312609463185896 
-0.006141987307648986 
-0.01008919750305559 
-0.01556230880882384 
0.003741486503974289 
0.01029476980877283 
-0.03057188478017564 
-0.02597713059704456 
-0.01661784104373826 
-0.01307346579549911 
-0.01544278716950942 
-0.01288023235520867 
0.02733926254430281 
-0.007197680239210528 
-0.007134743908091281 
0.01548011903199977 
-0.04087070295694662 
-0.02004981133908737 
-0.01807312971771456 
0.01397836590958834 
0.01261560143170496 
0.02027839253205098 
0.0463620882421091 
0.04202446971667397 
-0.01699018161743589 
-0.03467076925781199 
-0.01720078127813457 
0.0008661777107883282 
-0.002820910694487444 
0.005375603197154968 
-0.01197003845429718 
0.01745068689690119 
0.0001153133582954271 
0.004248308577144029 
0.002818173278700859 
-0.0008463644904330963 
0.01115104955077574 
-0.0589021582355807 
-0.02664110884433424 
-0.0296263342343235 
-0.0007471663123380847 
-0.006280379599525836 
0.02210252079825769 
-0.02944285540366243 
-0.01179162694706433 
-0.03137023768295726 
-0.0684751379968883 
-0.04718094754543041 
0.03448784580145289 
-0.05365826657826495 
-0.02121060248732795 
-0.03279471069346107 
-0.01709022203883776 
-0.01283654427323304 
0.004383245025509877 
-0.05275956207347079 
0.0002218404389470862 
-0.03253569184436476 
-0.006439142933616924 
-0.01535013760561704 
0.01648174842426623 
-0.0142519631769308 
-0.007469081290017911 
0.003902305749615483 
-0.02838399890543913 
-0.01870541503635455 
0.006307430655398706 
-0.01304893569963927 
-0.01680398231467827 
-0.03013437595144695 
0.00982807648325836 
0.004777479050175417 
0.01952652229647221 
-0.03655722658118694 
0.0009769354536130637 
-0.02591801451553196 
0.0122190551445584 
0.009435539669638416 
-0.02835500735695975 
-0.01765480459198487 
-0.01305583405625499 
0.002377410629605993 
0.03960746356376433 
-0.004249056614411477 
0.03988600269768306 
0.0287839791711437 
0.01651953192795794 
0.01124905141635017 
0.05703856715469406 
0.02970063127670762 
0.04814685446651127 
-0.0481879632149848 
-0.02832796382741736 
-0.01553851050582948 
-0.004196684361895393 
-0.03139403343986441 
0.05294337912371062 
-0.00944148017393405 
0.005673937130484222 
-0.02037084643837356 
-0.04710284777627612 
-0.02395985526403985 
-0.01344642590518275 
-0.04777512579313981 
-0.01796674433549575 
-0.02022916820491272 
-0.06722092860164551 
-0.03418044983010386 
0.002752117422428904 
0.03315096485035319 
0.01694744995165423 
0.00406597439932579 
-0.05383450501276333 
-0.03053349516479411 
-0.003729639539204571 
-0.02212575405811006 
0.009690920315259146 
-0.01559910297205007 
0.03240923118978269 
0.01935808254773468 
0.0303492837665575 
-0.007929089206611773 
0.004565833634286053 
0.01999732408105468 
-0.03164598813678064 
-0.01000702559206841 
-0.01512852835870032 
0.04767706675000859 
0.03173779517451176 
-0.0058342336927252 
-0.02329042571120565 
-0.01735794938725413 
-0.01473514753832816 
0.01133035594785743 
0.00593988132676863 
-0.0005232286844875342 
0.01087303990046074 
0.01165837273741351 
0.01314384683974859 
0.01568695563409172 
0.0004668642073444789 
0.009837216327716385 
0.008141757844013041 
0.03916924262350444 
-0.01146816278642203 
0.02351599249786527 
0.01185077625419378 
-0.001885840089124214 
-0.01418336364856721 
-0.01538700787243742 
0.002425362520198543 
-0.04576823737356953 
-0.01727752948412198 
0.01807080150773458 
-0.05180102459607095 
-0.03367393443513415 
-0.02396284916368285 
-0.02725476116398709 
-0.01311874316292201 
-0.003456979637755468 
0.01661742999422112 
0.01206883160008526 
0.004592717666671953 
-0.02420717625644577 
-0.02335571152420069 
0.03337668623777628 
-0.003682886608973642 
0.00944968741866745 
0.0112044117049208 
0.0009713330469731891 
-0.006118041628590663 
0.009671235988401658 
-0.006917952931883855 
-0.0007395266461875607 
-0.004231626628374723 
0.0865237297248997 
0.06084613379910718 
0.01608606992000792 
0.009458851339544735 
0.01213953398242522 
-0.02030900987532862 
-0.06124417835843119 
-0.03136244501149529 
-0.002102424288364442 
0.02625941008771688 
0.005150861714674444 
0.02196172350988663 
-0.009352684681778722 
0.027098834245958 
-0.06343424742686703 
-0.05587624939267639 
-0.02471732137885729 
-0.0153679272027479 
0.001123788449944884 
-0.01936366207769964 
0.05334142925067342 
0.02266072628987818 
0.01607466390465029 
0.01077471473777214 
-0.01247322218698961 
-0.02063316208838642 
-0.001633651348197366 
-0.02763144454945309 
-0.01525998716474885 
0.004537634708595493 
-0.002501686075311782 
-0.005237687670436335 
-0.001256326359153407 
-0.01265434893477934 
-0.002316014817771663 
-0.005136712987757749 
0.04402550597899249 
0.02246745917065758 
0.01953624718318644 
-0.0598613213016122 
-0.02948519844379771 
-0.009412416460997912 
0.005273019048103764 
0.006666134118954255 
-0.005844454741090739 
0.00474665113731022 
0.007388379695651171 
-0.01078603343482615 
0.04943391771974074 
0.01344105013814501 
0.0329250499712757 
-0.04552935078487883 
-0.01715474702352322 
-0.03093151757133824 
-0.03198752783928854 
-0.01102098873895524 
-0.004321566207261973 
-0.06805950056629395 
-0.02576059404817035 
-0.01811550729017558 
-0.05360388719388529 
-0.01850790059490591 
-0.01271552960308836 
0.04146266455837248 
0.01671908042594539 
0.0375503574112866 
-0.01484519920105992 
-0.008739986179435333 
-0.002776221883302332 
0.001012109269588311 
-0.007147555250266295 
0.03158446354924818 
-0.0367855783676798 
-0.01620872660802133 
-0.005312759118838356 
0.0203262004433625 
0.001934366940877656 
0.04959282043190578 
-0.01350994463855256 
0.01420703365617609 
-0.006723813036547972 
-0.00409256460077451 
0.005426969540152288 
0.001530425244323548 
0.00589954673056293 
-0.01124867159162999 
0.01097782800406448 
-0.03547999300586442 
-0.02374917171693773 
0.006067122850610583 
-0.03808283034282116 
-0.02392051616256356 
-0.004038924768946581 
-0.01354270606746944 
-0.003235804243560342 
-0.006374802306234727 
-0.002110616422427987 
-0.001158368879678651 
-0.0001569110857447124 
0.01132944109397421 
0.01546941477776037 
-0.02220293869941691 
-0.05127777450897626 
-0.03243309853891803 
0.024772635892662 
-0.02409281362278127 
-0.01141253343756832 
-0.007992380893846612 
-0.0671945493737703 
-0.036790741971645 
-0.02016578385793664 
0.02278574823905829 
0.01061023280774986 
8.214888634107615e-06 
-0.01857799611166274 
-0.007857576006204922 
-0.02073209899253916 
-0.0274600403119904 
-0.01498743571749368 
-0.001834538776145966 
0.005291252731682318 
0.02030970606785541 
0.003013955301785869 
0.03529689057992338 
0.01971329669611595 
0.01216285632201815 
0.005038165088063771 
0.01083534349484152 
-0.03061776867367183 
-0.02437759553422813 
-0.005526300234604332 
0.02342315383534301 
-0.02430097797081033 
-0.01318131122674683 
-0.002335731448170893 
0.007161473063686796 
0.01295774547993199 
-0.03195800459523904 
-0.002237554273834957 
0.005627735396721242 
-0.009605075558846311 
-0.02897009094032987 
-0.01484932679351406 
-0.0006193323863471454 
0.0178657773921315 
0.02386210044098507 
-0.01324768663985335 
-0.01744906137217488 
-0.00666049156061242 
-0.006214260568612123 
-0.01983404215970106 
-0.01019429316593358 
0.001418924032557021 
-0.01988447002205443 
-0.0125036612400029 
0.003338885526475213 
-0.03861861822340493 
-0.02772404902230373 
-0.003182568258627034 
-0.03207461412788315 
-0.01205602504277906 
-0.00453830933139847 
-0.03614794695010716 
-0.02263732586850656 
0.002914251862369451 
-0.05659436534345782 
-0.02673946082839243 
-0.01350686104735982 
-0.04873186766347146 
-0.01719184526963827 
-0.0224427106612613 
0.007298047414791374 
0.005957075608127667 
-0.01220246769361959 
-0.0497186712585554 
-0.02319317772751497 
-0.01291443072101846 
-0.01936417415859143 
-0.003999679168530865 
0.001468211848850343 
-0.03877672809946616 
0.001148052458754868 
-0.02725222786107166 
-0.03452484267079368 
-0.008838610150536873 
0.01162097258344958 
-0.05372707813864426 
-0.0270551447316025 
-0.009525176951880491 
-0.00543240867953157 
0.0003465071193897476 
-0.003875771715695771 
-0.02547468769156373 
-0.01633675622102563 
0.006969601623543501 
0.03117263684867635 
0.01806143136883951 
0.016345896613372 
-0.005338907492069493 
0.003829600461855346 
-0.04324779494905889 
0.0183255134951212 
-0.0009012923494773652 
0.01829285443676412 
0.02414039028992348 
0.02733181356882078 
-0.002844829955834131 
0.02061055491001973 
0.02237003555801748 
-0.0001409229226331118 
0.0409066304187437 
0.01417374255217837 
0.01420940130635846 
-0.0071022977600542 
-0.006054722058247342 
0.004681805327672907 
0.02963732405275009 
0.0203867953511306 
-0.01383886346038494 
-0.03379711292577006 
-0.01425845081383524 
-0.004499879570431169 
-0.004150606074754566 
0.001299201454765384 
0.03156383792456807 
-0.01474555615189037 
0.007859596014737388 
-0.01428036120926178 
-0.02172825705402571 
-0.004290423434914629 
-0.01901482568047423 
-0.03635772199699124 
-0.02891016899626464 
0.00993369000616222 
-0.02900856492868286 
-0.009485373116399777 
-0.006249066998994582 
-0.04445013045214165 
-0.0126311404219408 
-0.01076631260898343 
-0.02293410519040437 
0.009510063006050284 
-0.03761276644879517 
-0.03512653415691871 
-0.01413829342482828 
-0.009690696122357879 
-0.01392460436233948 
0.003366017483010035 
-0.02298919101910342 
-0.00601091640963311 
-0.004465049644165971 
-0.02829296772559219 
-0.06211439615100268 
-0.02920670513626061 
-0.01754860432799753 
0.07474448784686887 
-0.07612045372336312 
0.03022974923710474 
-0.06672871661716992 
