solver_type L2R_L2LOSS_SVC_DUAL
nr_class 2
label 1 0
nr_feature 12288
bias -1
w
0.03200764364747037 
0.03048106178178281 
-0.02166819787879818 
-0.02761685869668759 
0.006895454827309967 
-0.03576447464607132 
0.04037960401029606 
0.03005738863093503 
-0.02019727522217568 
-0.01607273402752004 
0.01065815479036317 
-0.0175895044911148 
-0.00966525378683806 
0.003064707591521519 
-0.005325430998549477 
-0.001387302161593409 
0.01795671005080817 
0.01482890773486434 
-0.0330904953562841 
-0.02693211147987683 
0.0007394058682693937 
-0.002844003352263107 
0.0005967103072325936 
-0.01742025563317699 
0.07253605823856758 
0.02129635721635122 
0.03453584359541814 
-0.01403912991614415 
-0.01071958130670629 
-0.001400955546325705 
-0.02358657219590014 
-0.01829285889505643 
0.0120037061205751 
-0.02036519968042835 
-0.01349547408030492 
0.02625452043298801 
-0.001620067546279487 
0.0115756887802626 
-0.02497580459146363 
-0.00872632031980782 
-0.005103728472951118 
-0.001191711679878095 
-0.02484817289033374 
-0.002583242792397104 
-0.01837361527057638 
-0.0855182140520422 
-0.05107120689288412 
-0.01480070781170834 
-0.01185000865085416 
0.002399963296530446 
0.008884326450980338 
-0.004631653583875168 
0.01217780854450734 
-0.02045617390364276 
-0.002648812200711182 
0.01215788958409741 
-0.03883702034219037 
-0.003508119924021405 
0.008088295892427022 
-0.002237615370401624 
-0.02264010403403468 
-0.02281859681679295 
0.01680086609523014 
0.06055603189107089 
0.03918723367887694 
0.03812294190625958 
0.1092272261585107 
0.09944675174568487 
0.03624141659986069 
0.006907179423367771 
0.01067921843675426 
0.004505276250936762 
-0.003607265010729525 
0.0275417224285096 
-0.03158597987653324 
-0.00613852849072473 
0.001126965602503017 
-0.01385699843484019 
0.01111705286257426 
0.02115325125704086 
-0.006844834085447176 
0.04220224131166862 
0.01091250095192231 
-0.01454317475581324 
0.05614910606299033 
0.03137100493023993 
0.01939366856519472 
-0.01859910391650191 
-0.005445266919755163 
-0.005641790383027296 
-0.07130466880741498 
-0.03225678526015413 
-0.01419316756912275 
-0.03218162107406472 
-0.01091432776596868 
-0.01352236365143797 
-0.01076173005210296 
-0.01008324159868425 
0.02115495227208047 
0.04776519461996544 
0.02632631050209066 
0.01205548606918565 
0.004310496115724332 
0.003874212021499971 
-0.001911954201601903 
0.002005695095851047 
-0.007290904287442325 
-0.02968082007543462 
0.002760823085186268 
0.01318193979867511 
-0.01814231207672141 
0.02039986720379917 
0.02093368620272799 
-0.03761818697559345 
-0.06406738415722334 
-0.017106211417855 
-0.02342060486244157 
-0.02804228740311824 
-0.004985540708099938 
-0.01735635534995598 
-0.02306930555071503 
-0.003364505505530858 
-0.04226920880032291 
-0.0004399315088010521 
-0.001919354232967481 
0.006818741172341465 
0.003745726495252001 
0.006997588272136297 
-0.01295358352296484 
0.01606573715724858 
-0.02411478855798149 
0.04559960657459872 
-0.07808072853095058 
-0.04057111802725505 
0.004075083550662873 
-0.01156544304982665 
0.0001845639475116132 
0.01000361281143304 
-0.00525549176823612 
0.009485637758635581 
-0.01662880835636996 
0.03395308589202498 
0.024040924287764 
-0.01019048071798093 
-0.003231397340781667 
-0.005351985859228603 
-0.008414801392744366 
0.01417275298989657 
0.01620611051377641 
-0.008030644071442345 
0.02834548278482421 
0.02120063167481327 
0.0292871195206456 
0.02669776195960297 
0.02336082795639346 
-0.01778281283775027 
-0.02575428267260811 
-0.009223741941453482 
-0.004455682922852061 
-0.02125098046368437 
-0.01078005765764216 
0.001045442780003869 
0.008422592356522627 
-0.01879348457552449 
0.03725415111524101 
-0.03989577380847836 
-0.009486838270952799 
-0.003171790545102839 
-0.01686604514662121 
-0.004261356351893294 
-0.02325537900908085 
-0.01711737386201003 
-0.01948691948324269 
-0.01021635552958004 
-0.03866687877661201 
-0.008927444821200703 
-0.01496302738021711 
0.0159276806693499 
-0.06076402833403902 
0.04964267354779631 
-0.08890428292809241 
-0.03484622873530127 
-0.01986477724962443 
-0.001646695900875585 
0.009155999687621937 
-0.01865287098532595 
-0.04955955804083521 
0.01866818023565794 
-0.06726922189414826 
0.001459903356784673 
0.006044777318644185 
0.01327800190022028 
0.0005737878200488735 
0.01154755280151509 
-0.02826250110397775 
-0.002513384804666808 
0.006690881228629078 
-0.008487671544024411 
-0.0128953963190651 
-0.002195913183740652 
-0.01716001299701728 
-0.01025303266054276 
-0.003456081671761776 
-0.01399826006944523 
0.0006942993265599939 
0.004258714630056878 
-0.009511650109357044 
-0.005530855173707489 
-0.00621552581216145 
-0.01282488036635435 
-0.03279588835766149 
0.01814895347199145 
-0.04879321734974585 
-0.02638462861797673 
0.009215368934552586 
-0.01718481383286677 
-0.01398880282480025 
-0.005917777873842246 
-0.008858958627925946 
0.01644807594519586 
0.01276160683474587 
0.01365274579767321 
0.05862632909932558 
0.02623208374979685 
0.03642138410133364 
0.008537294841806037 
0.02388285742182696 
-0.007784872470465107 
0.006914299242428173 
0.02421983678981409 
0.001224064889565227 
-0.002389314030992145 
0.008529576124720722 
-0.008097988388001569 
0.002298526121870168 
0.002536027427818961 
-0.009843041624920631 
0.06954706074562023 
0.032235170178486 
0.05438322517882158 
0.008228380314388214 
0.008615456159429333 
-0.002446912684546595 
-0.03749720635693167 
-0.02581300675943551 
0.02062151742442452 
-0.004598316159617612 
0.0221569663322697 
-0.0408592105924956 
0.02703685733927269 
0.01208960434319945 
0.01779721041192941 
0.03437551669603359 
0.01497119757428359 
0.008883940858875249 
-0.01106415542093723 
-0.0250970021666627 
0.04166008704829785 
0.05495367024136753 
0.01602664405665058 
0.02168025748835163 
-0.01792717878407196 
-0.002079488978241058 
-0.02749433685201164 
-0.04305839483734256 
-0.001985581311837781 
-0.009972106530897669 
0.007108280586858878 
0.02342185415565651 
0.001116309834085887 
0.008824443423087186 
-0.01183839574810341 
0.0232107003263919 
0.02055940261061621 
0.02467906329114216 
0.01073356236903265 
0.01182966877117949 
0.01127236117801389 
-0.006283421641244439 
-0.0001408216194956423 
-0.01238582822005553 
-0.004076001731199009 
0.0062966922818095 
0.0399744973640507 
-0.01332148781682128 
-0.03099882232914733 
-0.02002497561374962 
0.002456365268094413 
0.004421958117539078 
0.02243052737305463 
-0.04947847668924552 
0.01721134340375741 
0.01429016326987152 
-0.01566770753429559 
0.006662118085733171 
0.007194877381993643 
0.01893024403691596 
-0.02336310217809669 
-0.0134595379568898 
-0.04907294727212323 
0.006015675946673244 
-0.00383991329114072 
0.006163312733249684 
0.008232035203927023 
0.02267288920023011 
-0.03171472758336197 
0 
0 
0 
0.01005647067356879 
-0.06225553008248924 
-0.00411869448704344 
-0.005671353760994217 
-0.01061051915518847 
0.01654770769644836 
-0.02755389462922753 
-0.01628465537338071 
-0.005086565570850342 
-0.03882786278707341 
-0.01627368532022769 
-0.0187067579449753 
-0.06897242749876127 
-0.03567825571474791 
-0.02933229585147017 
0.09020622796783244 
0.06390235550991452 
0.01626274427489515 
-0.03102896680815095 
0.00946647047939184 
-0.03009724592849455 
0.01213977779325102 
0.007968840376128555 
0.004564231121162055 
-0.08745954627802997 
-0.0516848195075585 
-0.006642357975331629 
-0.08782424087173815 
-0.03025764416922151 
-0.01220867476436706 
0.02693230146845273 
0.02229671285238493 
-0.01662470915550216 
-0.005721683527376631 
-0.003638839373697556 
0.0130170909309323 
-0.03371293402581941 
-0.01035852719701794 
-0.00212471063497231 
-0.06728312189527849 
-0.03324972512542968 
-0.02716736282625562 
0.06005367190912386 
0.02373171411127308 
0.01424703682780229 
0.00925132434391682 
0.0272052158626446 
-0.008318176165573949 
0.02292857467110737 
0.0235779021910309 
0.02521222052678167 
0.0636993848119029 
0.04649282331478305 
-0.00132843453076859 
0.01730875426990791 
-0.05815595310436136 
-0.001935580972547756 
0.0186745287844176 
0.0256307094330274 
-0.01159446149186885 
-0.007706942451759439 
-0.0009579479140676742 
-0.004501046579777385 
0.008247344684383168 
0.005229191598597014 
-0.0008684848134747314 
-0.04289247001939357 
-0.02230770759726084 
0.002657904162907166 
0.108075550795657 
-0.04407620355938236 
0.04897597141788782 
-0.0349216831743939 
-0.02819419658112046 
0.007466698765028802 
0.03079957327978768 
0.003920510753657301 
0.01630495550687591 
0.04978228645420713 
0.01753320743068184 
-0.03639311512183598 
0.05124590749011233 
0.01695120142551695 
0.03118648949121063 
-0.02230114221824014 
0.001668279440678126 
-0.01412582520195515 
0.003709805775966569 
0.001272956701088081 
-0.003555338130889337 
-0.01873901479766021 
-0.007256633409719202 
-0.008468483967916669 
0.0004636203188665993 
0.03558842451066449 
-0.005614191530241856 
0.03894256519063757 
-0.02143225130760285 
0.01866409799408352 
-0.0008028864465165001 
-0.0002657623744128586 
-0.0002820565891630597 
0.02130329489029627 
0.01744693089507952 
-0.009386942044868191 
-0.01547875256600307 
-0.00662147324916948 
0.003316421127940642 
0.0181820764874129 
0.01026001572269714 
-0.02763897504121375 
0.07659722491656455 
0.04217389311624153 
0.03762267797940935 
-0.04478620329428086 
-0.007705553034642001 
-0.01578667739934143 
-0.002149023153443594 
-0.02771194580740298 
-0.002320793165128549 
0.05530329530095814 
0.01489158735278782 
0.05154678010614401 
-0.03913995909205311 
-0.01977067349104638 
-0.007651230740581854 
0.01007090737825856 
-0.04477202005511641 
0.04158715371779004 
-0.01258377511955535 
0.008333652351480743 
0.009356844971947775 
-0.01892795781462166 
-0.01810927136884622 
-0.03189533370668862 
0.007629078989121451 
0.01417595664613681 
-0.02617677332991939 
0.03043595687438817 
0.0002947726370967626 
0.04416341374689973 
0.03629917426413784 
0.02954409064432179 
0.001778936529358406 
-0.01579444084746329 
0.002467950209979325 
-0.0002144463981890111 
0.03537158914340259 
0.02962542988862637 
-0.01012337215002126 
0.1334332454759962 
0.0656932337040439 
0.03094192668419866 
-0.01476317374288868 
-0.004394761796671904 
-0.0009523797544581679 
0.01005041321482521 
0.009356265970256634 
0.007995063540845266 
-0.03920790175551548 
-0.02254805227814656 
-0.005378629577679697 
0.01859319836617566 
0.008417844164402447 
0.02403218645383529 
0.01028246945407727 
0.005172238249561934 
-0.02037100097663421 
0.001223280587859883 
0.002392880787502384 
0.01752979111144908 
-0.0002018682784220078 
-0.01565028076882182 
0.01882453128899365 
-0.04411142401715456 
-0.03051533334767673 
0.00618682464495105 
-0.04139278731765824 
-0.0251672812691408 
-0.01695934962912418 
-0.005041204035677543 
-0.00481085258281311 
0.01381945056543039 
0.008999348784701504 
0.00911316512946319 
-0.0006385562035124676 
-0.09565705418687476 
-0.02467900324622374 
-0.04743782741969336 
0.01619766590254675 
0.00298397568490558 
0.01785690997268839 
0.04607552495036416 
0.0491395289290982 
0.007420969451926936 
0.06878727451169038 
0.001855664059719161 
0.01025735053128006 
-0.01068072388962901 
-0.007163592572313168 
0.02150381676958561 
-0.06743907657394267 
-0.02843635192878285 
-0.02288619463172963 
-0.03429904344422272 
-0.02226195375998312 
-0.007557201821154857 
-0.0476824169511753 
-0.02029066714929124 
-0.01279598477245072 
-0.04755999761759453 
-0.02371119990880328 
0.0008583945079799005 
-0.02513126177231908 
-0.008034831315480983 
-0.01006644089296416 
-0.07708378872373267 
-0.02123316220246335 
-0.02997878105980097 
0.07841144624747817 
0.0238920198599204 
0.02692632094472208 
-0.03336680481001311 
-0.01867307777593494 
0.004381004437188186 
0.002294001940462816 
0.006563345325546785 
-0.03439242563085335 
0.03430322201824852 
0.01730716737844635 
0.005127226929938599 
-0.02406216127009506 
-0.01530984346145712 
-0.00639277184291527 
-0.007582143296323867 
-0.006596767060607476 
-0.007216048180330334 
-0.03708039280610199 
-0.009279889284998436 
-0.01346020612205979 
-0.04672714901168259 
-0.04452361160962629 
0.007065924646458045 
0.006805359360874325 
0.01525766163016411 
-0.03469243651554257 
-0.03104133035368626 
-0.00761937488651104 
-0.01193894512745696 
0.004044452324075476 
0.02289292536510573 
-0.001717788762434584 
-0.04210875458867832 
-0.01341279148152948 
-0.03655893295933803 
0.02259858726833317 
0.005909042180294641 
-0.004662843259662579 
0.05616094598315528 
0.0272997108239026 
0.05226341255025483 
-0.0320111699461934 
-0.01766901774788149 
-0.0170863995376878 
-0.05678656887512658 
-0.005357269764349673 
-0.04522079314618395 
-0.009507522110492574 
-0.01292668279776367 
-0.004958401109990722 
-0.03394138097438405 
0.02322079339329189 
-0.0389544914627073 
0.008417886075474938 
0.008540958045672909 
0.003991742779601664 
0.001088026777815437 
0.02274794706153754 
-0.007120197126928181 
-0.02411444641007409 
-0.01592241297108252 
-0.006954570961878147 
-0.02337193054358458 
-0.009596810894111473 
0.001418391958375021 
-0.006074326748907096 
0.008481452115122193 
-0.02727391851989619 
-0.01637919724540118 
-0.01474165143968568 
0.00642231051577258 
0.0281706023828274 
0.01070296133936427 
0.02046914390575038 
-0.03350270192560709 
0.002483634647674745 
-0.02679985726414424 
-0.07773452550324318 
-0.04027965424313845 
-0.009285740120386498 
-0.05112938600117084 
-0.01268060551328168 
-0.01086959045952242 
0.02580544312016642 
0.01670234624272661 
0.00914360022639798 
0.00268977501885409 
0.003538820525729616 
0.00365617808884459 
0.007221600305099794 
0.02279488899676519 
-0.02898803327887377 
-0.04748108688674249 
-0.0164011849924229 
-0.02570093727773114 
-0.07184973710601746 
-0.03342822865197933 
-0.05095542880883579 
0.02726150028523339 
0.01633488000317194 
-0.007092778499895149 
0.01061089834028765 
0.008210067246901414 
-0.01421814315154517 
0.1025401244269253 
0.0589593137378279 
0.02973575203905139 
-0.02250293468624468 
0.003752562138310668 
-0.03328817956586738 
0.0628911108769345 
0.03127504312112193 
-0.00397905457532534 
-0.08766669081347678 
-0.03935742042085119 
-0.02411368979845951 
-0.05219913532112527 
-0.007434594674815807 
-0.04212253072214722 
-0.06415783151598609 
-0.03526205810966915 
-0.01369857594649974 
-0.0122157648058195 
-0.01555069648388289 
0.008887160231692495 
-0.01133936413566319 
0.004136224885028928 
-0.0492889044081575 
0.01509034143749674 
0.009125400181113559 
-0.001469542569368742 
-0.01079832415369423 
-0.003297096343048178 
-0.02145155318969079 
-0.0334144535531356 
-0.01240807036986653 
0.005424722169995592 
-0.04894451491702111 
-0.02663635133031091 
-0.03349168930050594 
0.02200772582302788 
0.01545396875757827 
-0.02003945281302152 
-0.04009627849415111 
-0.01049714631652454 
-0.02992655162277774 
-0.02556629530076137 
-0.005838886456139787 
-0.01687470837882355 
-0.03586340135224078 
-0.01749072063317526 
-0.004357566161053488 
-0.01283591238437362 
-0.008409252043415515 
0.03225258860506378 
0.06128479239757603 
0.04887205536869917 
0.03419436991272375 
-0.008222515446305685 
0.01370061252509856 
-0.01530964609598316 
0.03198131611974261 
0.02041932988114389 
0.002923710764703331 
0.03461125547643433 
0.03012562567177768 
-0.0006538756295395963 
0.05188331532253052 
0.04202036322188437 
-0.0513311232817722 
-0.03472672361033586 
-0.0131493330284196 
-0.011254957746365 
-0.01164801830013121 
0.003306010144717744 
-0.000520573771399404 
-0.01809492639654818 
-0.002401919417100005 
0.006486955091509213 
-0.03076470396234069 
-0.008076565580201931 
-0.03205996116612887 
0.02263067136147779 
0.01759071799522188 
-0.001130709653819905 
-0.004975883029665438 
0.0123218500696979 
-0.02011915662565542 
-0.0295177796405966 
-0.008096479063114387 
-0.03464479796915271 
-0.03216926032698399 
-0.01586596743650519 
-0.002246591684047677 
0.03193343242712426 
0.01871018246930707 
0.004852103405398992 
-0.02766155262991028 
-0.02566652313139892 
0.02496373687044086 
-0.02213576428286967 
-0.01372687710281045 
-0.0001273071479170267 
0.06970591291226425 
0.02631275946381773 
0.02649266422126302 
-0.06017124031554813 
0.00368957972955317 
-0.02324385591527416 
0.04498563663290298 
-0.001835455548001588 
0.03882427792717443 
-0.07266336923823012 
-0.02178957049810532 
-0.04260534784597532 
0.01562286187722818 
0.01687073792424912 
0.02104704574984121 
-0.02034666907566368 
-0.01188141326191857 
0.0191490569255841 
-0.02516063167016889 
-0.01428745952070766 
-0.002848315750775326 
-0.03171991702626001 
0.007231097980078761 
-0.01231555115917968 
-0.008712200469073082 
0.01323817901764386 
-0.04453131085926187 
-0.04745962857951878 
0.01260230817577872 
-0.05305102920935449 
0.03275317072723213 
0.02845888984444899 
0.0006192225823399275 
-0.007638845070338939 
-0.007279607370632137 
0.008461618155557562 
0.01668463152525417 
-0.009722349393253801 
0.03664493646798516 
-0.02066774631030359 
-0.005290139313680197 
-0.005752154953098367 
-0.04993292636612193 
-0.03235021109727579 
0.00710973432578596 
-0.04980878667412238 
-0.02504270283696806 
-0.01123798410899995 
-0.01096461549395991 
-0.006139744373581819 
-0.004022131032538075 
0.002067398931317996 
-0.0001533872635939802 
0.008567730404733411 
0.04622943725798736 
-0.008411927975905705 
0.06355999464511958 
0.03045519897356689 
-0.0202516542832272 
-0.001516818711292434 
0.002851778824340553 
0.006398054006099245 
-0.008804541674238482 
-0.03406163195371209 
-0.01565521093653912 
-0.005689141115081287 
-0.03624131843626796 
-0.0175681173670091 
-0.0192148968945787 
-0.01404505002927821 
-0.007689565669862952 
0.0005231419392562551 
-0.006472039408565869 
0.003239851773265508 
-0.02451490074813012 
-0.009754227703309923 
0.005975569090145959 
-0.02851760246695134 
-0.02714286907494864 
-0.002862706298947435 
-0.02457052553917212 
0.03875106248738096 
0.009691445733359475 
0.01009362755734188 
-0.03068718284161001 
-0.01647254669023568 
-0.007512627208383218 
-0.01668867899195324 
-0.00147512694976872 
-0.01209377753403759 
0.02510980130613698 
0.01905337332224694 
-0.004727554840101293 
0.005473742371861772 
-0.0007442409220994123 
0.02097026763471718 
0.002093654732551465 
0.004010616255642556 
0.003356331466741351 
-0.0579911997315001 
-0.03161485547834981 
-0.01644257155343612 
0.06545117202711094 
0.01574004175685787 
0.03197451582957431 
-0.01881958939595748 
0.000414794711233751 
-0.02592810425879516 
-0.02250196398181843 
0.01567590752975478 
-0.01443508536042702 
0.0349840019140053 
0.03082536100213474 
-0.01817519679502694 
-0.03832796874806526 
0.01888403536122074 
-0.03455464458644844 
-0.02264951450978171 
-0.01269154846674957 
-0.0216692011816773 
-0.005332945752256935 
-0.003188504471903744 
0.001598640354991397 
-0.02457621765123919 
-0.04124725446687262 
0.02342144547655456 
0.03109592633404213 
-0.01287165669179422 
0.03716173352757988 
-0.03405677858813966 
-0.02372725126785599 
-0.001191357507313607 
-0.01357805919793383 
-0.01472927133141996 
0.00258326014077687 
0.006368992678061165 
-0.03533948312002846 
0.042087832649462 
-0.01887726799550628 
-0.007264491339575644 
-0.003082121680738114 
0.04778373013726487 
0.02892047023749425 
0.01280702777034493 
-0.01987359847592651 
-0.03832869417481359 
0.002013118705476334 
0.009743851982069463 
0.01658810854875702 
-0.01165207768685461 
0.05445118057903253 
0.02999817209120342 
0.01074075693347975 
0.01362148443721388 
0.009666556829996941 
0.002620084686402153 
-0.02556077025549121 
0.003667578508863182 
-0.04619584529822168 
0.04382289775288054 
0.0145968540749058 
0.001277343192808019 
-0.0603893833466118 
-0.02689016318686965 
-0.02714122344459204 
-0.01680529712398459 
-0.006826925904844321 
-0.02456580005786576 
0.00526924438300513 
0.02030288016353982 
-0.04244251558313284 
-0.0863583773717395 
-0.03817615955650649 
-0.0435324919697276 
0.00125056646802036 
0.004680139327930103 
-0.0140097889449699 
0.003967465508749101 
-0.004084308376769158 
0.03968572668984206 
-0.02100889328676261 
0.009981582520523126 
-0.02247977743167854 
0.0251882269692263 
0.01468610484850197 
0.02843033619310557 
-0.03542910492732226 
-0.02705945544083733 
0.006632721405969735 
-0.0315153609318853 
-0.03307190783751129 
0.003743122343890962 
-0.01500520483740237 
-0.01295756279103598 
0.02286020879474712 
0.004323136098093116 
0.007028358218085244 
-0.01333181103165052 
-0.01265551346472604 
-0.01353440079060748 
0.002205221072411816 
-0.06207262103130125 
-0.02452299731190343 
-0.01308014699694647 
-0.01659812646402267 
-0.01629297502132102 
-0.009492161260366101 
0.001696303695210921 
-0.008507231932058667 
0.02023487672996569 
0.02724232016046263 
0.01290884155738099 
0.01627413653182696 
0 
0 
0 
0.03823506871822746 
0.01851188388568779 
0.00831724127344116 
0.006450278001305253 
0.01138465550576464 
-0.02689333920806573 
-0.05967220841119118 
-0.02035721028079803 
-0.02995961075829806 
-0.003753154890173314 
-0.02520099355770384 
0.04900765537145073 
-0.0004506055181067269 
-0.0108206869611712 
0.03828978927351728 
-0.05862878363301077 
-0.02780307713743502 
-0.01588488859024892 
-0.01855372769288325 
-0.006330171028932524 
0.003204621688720408 
-0.05488094062358875 
0.002246875329443752 
-0.04242688796942884 
0.00416849310479786 
0.006649244306825131 
-0.01719432271380701 
-0.00998452065207626 
-0.00245032984782455 
-0.001306953430898343 
0.01877862679025095 
-0.01013896038006861 
0.02480144473412614 
0.009156316491267712 
0.02732284838692935 
-0.02937465806487371 
-0.0209611287342095 
-0.009431520025581879 
-0.009379189806276562 
0.024232169374383 
0.02426560804133339 
-0.01242305207461435 
-0.02083120069326106 
-0.008867517030995109 
0.002732595585644542 
-0.04952560960780687 
-0.01637208812718739 
0.004930623072062017 
-0.03630159944510541 
-0.007470030630548973 
-0.01593677015594169 
0.1148379303664739 
-0.09918441958235862 
0.05087608844061702 
-0.03767234401001354 
-0.007800126803797451 
-0.00892202221398577 
0.0129205188237417 
0.006866695112870989 
-0.001319809483086425 
-0.03484623367237397 
-0.01296844749151388 
-0.01650747482699624 
0.01916770371118586 
-0.01489200529645338 
0.01671367891995118 
0.02707581584403247 
0.02346380288116507 
-0.03728964476369057 
0.003470878994452476 
-0.002521937684353933 
-0.01301916816716642 
0.02201799756856029 
0.02411021984728439 
-0.0004915755077470001 
0.03786085565971822 
0.03204433042855385 
-0.002516786386283248 
0.03225789295005192 
0.03050456221536 
0.0005677637279603724 
-0.03561890104176766 
-0.02818222723256455 
0.02683391453943453 
0.0189033763403772 
0.02649166300707172 
0.003996292916399349 
0.03091631022845145 
0.03357697984694208 
-0.02293820627702569 
0.03961195607809398 
0.01100458042119922 
-0.001580973620904986 
-0.01069541749634857 
-0.01025185839021831 
0.02037414801652482 
0.008880983193680496 
0.00420556339764929 
-0.00507816814200091 
-0.01955579738368831 
-0.002724648689927477 
-0.02004909908919077 
-0.0189103842215965 
-0.0009810672179812036 
-0.02110989391815521 
-0.01619479374278918 
-0.01595956785444793 
0.01994642449733316 
-0.06775277843886587 
-0.050154476925283 
0.002191818369972689 
0.02256051894901293 
0.01516329684189188 
-0.01593132707792794 
0.02504032660841709 
0.005105954794806518 
0.02206365609226944 
-0.01777786730052471 
-0.05895800230664376 
0.02459183332431461 
-0.008390833173115821 
-0.01502533542305106 
-0.01516680643935534 
-0.00464239351888174 
-0.01043677336538274 
0.01719201284102664 
0.002384999742017897 
0.004388478196672925 
-0.00359001761268511 
-0.02405919387201415 
-0.007350478044742404 
0.006848018164975224 
-0.02049076623216104 
-0.009446726815534913 
-0.002912187951575836 
-0.03203412363130405 
-0.02193607654384089 
-0.00984374704501997 
-0.0001872656595356405 
0.01244904947925488 
0.0177575345582705 
-0.01308352697993359 
-0.02180804975675976 
-0.02842577796575598 
0.02982711089900031 
-0.001588571730031581 
-0.005836470867111355 
-0.02158069444948659 
-0.02998120723361064 
0.001737199281682124 
0.0025594053186027 
-0.005906151487640254 
-0.008309307500424759 
-0.01393667318036344 
-0.008278119318481037 
-0.005640412940062511 
0.045796335823752 
0.03288335439088307 
0.007427371796735069 
0.0224170467260889 
0.01021531280877599 
-0.01128989176596542 
0.05441517219419545 
0.05952782335646511 
-0.01383996856743513 
-0.03274526699426609 
-0.01189774112783675 
-0.0262615009914428 
-0.02621878321688105 
0.006964797284553936 
-0.02148912335287083 
-0.07079096439573489 
-0.02934143441260528 
-0.0002452810373956009 
0.005607122576314286 
0.002113904742594573 
0.01306927864719262 
-0.01535987468565325 
-0.005495701925123096 
0.02059278972753632 
-0.0031480958190875 
-0.004638920004194223 
0.02857119951146114 
0.04040252473360716 
0.03119471680271434 
0.0164409812158259 
0.02889082102874433 
0.01964906786136758 
-0.002451627961309507 
0.04122274783613081 
0.03558785569743948 
0.03333479616886258 
-0.06253855140973298 
-0.03076209936825714 
-0.0481876752577801 
0.00996038205779891 
0.01235475324588036 
-0.005734291715925713 
0.025254890500607 
0.01300138147515853 
-0.02934518458254846 
0.02230890939200471 
0.003455108243578031 
0.01933259381731638 
0.06331575746383408 
0.05455539949105153 
0.03793051725400573 
-0.0010632957840849 
0.004795623037539589 
0.01004554982669367 
-0.04638917348533962 
-0.04045307530947614 
0.0196755979628931 
-0.01914933572215315 
-0.01147612017863236 
0.03816740561415027 
0.00598431812413434 
0.007463417852232862 
-0.01303085421722493 
-0.006149372100750556 
-0.004453301990058157 
-0.008729328654332895 
0.0004094257817974425 
0.007338394924063119 
-0.01805645166543791 
-0.004091232656833089 
0.01670408171574761 
-0.008699863791066154 
-0.001456524213170615 
0.004702352897989404 
-0.01331691656356523 
-0.04664264986308529 
-0.02159119507573679 
-0.02283561413124107 
-0.009057279658859633 
-0.001975968185861665 
-0.002159945043225097 
-0.05177284666588583 
-0.02523584185370879 
-0.01189546793671408 
-0.01633582158232239 
-0.006375891174514851 
-0.006087022117774461 
0.0009145594678853085 
0.01470978950980915 
-0.02258457316383558 
-0.02544558786376231 
-0.005542398656170542 
-0.004632368690949711 
-0.03866663451569828 
-0.02059910869619249 
-0.01069149196105783 
-0.002028622963880801 
0.01133509487491088 
0.008971400134750923 
-0.01326251168509645 
-0.008603448039160383 
0.0004105160688750476 
-0.01047433270649009 
0.0189051257529749 
-0.0177820755450516 
-0.00366407719870066 
0.005199001044815006 
0.0002565734193349937 
-0.01919363084793892 
-0.01820753529183408 
0.006750865814620477 
-0.0003024244921689154 
0.009641533724577624 
0.002245626875054366 
0.01544814979718875 
-0.007515368127632335 
0.0462549088454302 
-0.01303389093094497 
-0.001443790157244592 
-0.005286157603818324 
-0.02526600350706239 
0.002667158788278559 
-0.01792411960461783 
0.003545609974995163 
0.004796077356060843 
-0.03972088682359513 
-0.06364470404907181 
-0.03106839988991565 
0.006265336754049456 
-0.0008798310500109954 
0.0003576299744908146 
0.02220115778896466 
0.01976933292590798 
0.02132812486218963 
-0.02174158028539716 
-0.007753099993275404 
0.01147500749944137 
-0.01232207275286755 
-0.01069237942445904 
-0.005784251950989749 
-0.002819348934906471 
-0.04819667569083169 
-0.01314317132145998 
-0.0380536640045268 
-0.007630769812811128 
-0.0002118026950394893 
-0.02945982785892952 
0.009168946623670253 
0.0005562747355127343 
0.01001303412466435 
-0.03754514273207775 
-0.02069441009267499 
-0.002571739279466849 
-0.004349801414907381 
-0.001051188308916981 
0.01486906091036614 
-0.09845277510075892 
-0.05267464308668633 
-0.01880944683634483 
-0.05842871823019274 
-0.02810831742512004 
0.01017310382380491 
-0.01471107359445826 
-0.00423945481204124 
-0.0115668154137655 
0.02221854059746562 
0.01351546935552822 
0.01148085510743779 
-0.001722147901109948 
0.01195108752299336 
-0.008331062513483008 
-0.005899729868235575 
-0.005154915163853974 
-0.008054708195968261 
0.0019176665419986 
0.005384750846483097 
-0.02113353536766525 
0.006302535621518594 
-0.0008422133861925725 
-0.03264259252661263 
-0.0697888740523365 
-0.01982210522971179 
-0.03189500091378072 
-0.03610220371267828 
-0.02209140536930117 
0.01716160038021979 
0.02003002243186608 
0.01014642818333067 
0.009974313542414468 
-0.003757477231667122 
0.001334113246591773 
-0.00862585270577715 
-0.03188692238510182 
-0.02298317482665196 
-0.008576937660169173 
0.007893668900788483 
0.01763013184733507 
0.0005492700598428263 
0 
0 
0 
0.02485875435786015 
-0.001945241413770927 
0.005123584742409005 
0.05815369125735204 
-0.004990506342029888 
0.04424283253758848 
-0.05376832501908044 
-0.01775685142362056 
-0.03233723279690848 
0.03202413138775579 
0.01092026983421231 
0.003128804638592531 
-0.007346176154067336 
0.001921395670036409 
-0.01941728298963855 
0.01000777645553824 
-0.004858829872155681 
0.01834698958913054 
-0.0008434542199798979 
0.0003487934402161435 
-0.005966470423813258 
-0.01735981905488943 
-0.004016759404642777 
-0.01893115044066839 
0.01950738682802638 
0.02484888765725682 
-0.00860116615725129 
-0.02564104408388241 
-0.007365654993631938 
-0.02412028948890015 
-0.07637618305139998 
-0.03661787202231095 
-0.007998404811298789 
0.01600965980800062 
0.004043007365911327 
0.01705884190406773 
-0.004116112029957183 
0.007061980653136919 
-0.0005079551280472236 
0.01459253490222873 
0.01889774748325748 
-0.01200086590190651 
0.02787031519597832 
0.0671031391069811 
-0.01012804328189378 
-0.02377507564176943 
-0.01917168636341593 
0.01712789343135773 
0.01218877944791833 
0.01095072664711558 
0.0217134767844409 
-0.001704952271779295 
-0.003551795069742782 
0.01456057081743843 
-0.02920045462381718 
-0.01652414235599872 
-0.01797173064522072 
-0.003105898645510119 
-0.004000520609425647 
0.008447774238521215 
0.03773258551970148 
0.01436293352541154 
-0.01544407539832851 
-0.0453837280827607 
-0.02954001781783709 
0.006361582418444077 
0.004760018063867243 
0.003394172367215481 
-0.01505549820787345 
-0.01576012481075937 
0.000120308332723491 
0.001446773478188981 
0.01227807457448412 
0.01410603081537487 
0.0009961909734840396 
-0.06058208402680433 
-0.003880584254393835 
-0.03821489200169552 
0.06287033145514838 
0.02927158812924809 
0.03109057908051274 
0.01377240408955386 
0.01976217156243523 
-0.006851131374368892 
-0.01844052378289185 
-0.01328251048451632 
0.01445004094163194 
-0.06231990889446689 
-0.02365062020989051 
-0.03303159137081906 
-0.01799944271930923 
-0.008143798926305422 
-0.001877497034340743 
-0.04458162707799589 
-0.03415673846498731 
-0.001212164898952338 
0.07459459119187087 
0.01087205789395538 
0.05504891004220557 
-0.1035191946199593 
0.02818838767941831 
-0.03595267827471239 
0.02410022647466478 
0.007037140826744067 
0.01635607761445873 
0.02619126176518244 
-0.006828457853409993 
0.06534561469475268 
0.009019944215500245 
0.0162629609095253 
0.009124379368230453 
0.05044341282847428 
0.01477701549883947 
0.02669623364621295 
0.005012874044582005 
0.001288669345993424 
-0.007126285416860643 
-0.0187424768349461 
0.0007328224844084544 
-0.008621247319533957 
0.01232742145026618 
0.01877990300402155 
0.0001795410627508046 
0.02189741583979571 
0.01162552048469551 
0.01670309471450513 
0.03396858705656309 
0.005389717058060716 
0.04685476506458261 
-0.004409203457701634 
-0.0003593727872674113 
0.01004605149376642 
0.06252410116631893 
0.03054629085433434 
0.00841119073133708 
-0.02333833144576199 
-0.00763923242716062 
-0.01084242118246084 
0.01218424730171623 
0.008347031746343912 
0.005122498818795481 
0.01219447428553137 
-0.01829836697857552 
0.02571947651908939 
-0.006037385464773857 
-0.02797657834784525 
0.01957483722686229 
0.003687074480907768 
-0.02330783726616918 
0.03021041953497324 
-0.02937862232764807 
-0.03238084480290631 
0.01610103590850096 
-0.05521504882344244 
-0.00112597855137699 
-0.01704688212668367 
-0.007511467224486219 
-0.0159361722199687 
0.005870849690422231 
0.03187052791003542 
0.03168547661849994 
0.01199413013941444 
-0.02459851148344726 
-0.01049266263299764 
0.003682530027764502 
-0.02753491607339525 
-0.01092708039572742 
-0.0166536999500747 
0.007459387829183258 
0.006837913638350557 
0.003101280216084112 
-0.05855385039815564 
-0.02148270766287593 
-0.02932257190745182 
-0.02343798404114926 
-0.001897870520874356 
-0.01659251331460368 
-0.01158424572700978 
0.007232262433166133 
-0.01532487726821454 
-0.04685978650635661 
-0.02471231808450639 
0.01022712092773464 
-0.06852920099090089 
-0.035612505524907 
-0.003350055378346267 
-0.02979782545037891 
-0.02179884292200327 
0.01221343286606881 
-0.004793453552054452 
0.006572237735463159 
-0.01838760099662032 
-0.03447705087657067 
-0.0095404073599462 
0.01164845934812528 
-0.02356646449746562 
-0.03225225093724389 
-0.001082496215863255 
-0.0289087673132051 
0.002499637905083185 
-0.030058553632649 
-0.01905850543402229 
0.004761951559280961 
-0.0318295691112791 
0.02463059953678168 
0.02162535279459519 
-0.009341332935560862 
0.02361719860211005 
0.04918497845507692 
-0.02296432291735301 
-0.001961387308895296 
-0.0001827449477680582 
0.0008394041332070348 
0.02382187243594322 
0.02068012586069055 
-0.0196024356109377 
-0.0670222244569543 
-0.04082707679257964 
-0.03110839774449806 
-0.05386598791170814 
-0.03273642925863805 
-0.001092602976136659 
0 
0 
0 
0.0125819171981375 
0.02662309641636958 
-0.02264381874138856 
0.01367981029356827 
0.01420101522763778 
-0.002869513760962851 
-0.006199077918437631 
0.01265880850168638 
-0.01559253291705919 
0.02636520761156795 
0.02223101030253055 
-0.02309538112425621 
-0.01011761189302755 
0.01156233353754261 
-0.002932038310022306 
-0.05664314511447655 
-0.0160074052389239 
-0.01973357880083245 
0.01776050539026996 
-0.0022340446804269 
0.01065229939692936 
-0.01869952424209467 
-0.01332442675147158 
0.01836329396106175 
0.003533023068506093 
0.01059234036026251 
-0.01999909034488597 
0.04683420474320844 
0.03060333132858813 
-0.009081294738913741 
-0.004879358663414976 
-0.001818280040139147 
9.094070134233522e-05 
0.03783060120368762 
0.004240734667510546 
-0.009057763005601262 
-0.02039302902592143 
-0.02102392493241743 
-0.008763502410822858 
-0.05296425757933801 
-0.02844591024493893 
-0.02091403771952682 
0.01308651403173704 
-0.0097144490038978 
0.001986361214573875 
0.03493135307735751 
0.02183553029105135 
0.04054872837627443 
-0.02834733889405718 
-0.01829336535154196 
-0.01648324672312771 
-0.06204622351294335 
-0.03383132179261877 
-0.05022195294535647 
-0.05817090430324896 
-0.03544260851463934 
0.005526051629340273 
-0.05906240477399731 
-0.02078820159225611 
-0.01820328221976989 
-0.02801839344764254 
-0.007783550273592539 
-0.007379308784067734 
-0.01928655319606421 
-0.010154786814887 
-0.005412096354001973 
-0.02118801834084979 
-0.007204775040023505 
-0.002464566859501862 
-0.00410234932949469 
0.003688730387253418 
0.01269493265136877 
0.002870939063898354 
0.0106681516033378 
-0.01684016961108053 
-0.02002494859648301 
-0.01066203706394024 
-0.004286375683802411 
-0.04434245366003431 
-0.01803263945148464 
-0.03475776907956899 
-0.01397944586368838 
0.0001836741551057199 
-0.04236479931195947 
-0.000290785083195052 
-0.008128866221840305 
-0.00630747603261608 
-0.04180336312688219 
-0.02314916076617937 
0.002382849800191885 
0.008364321174980743 
0.009936111393109152 
0.01028892378168021 
0.03354393177849171 
0.03343120734966465 
-0.01355389205994448 
-0.03877598357578949 
-0.01638596067882684 
-0.01188764463860971 
-0.04205470797336944 
-0.01796085569555332 
-0.009582882653996184 
0.01098037127134698 
0.001109746967721911 
0.01609784831922284 
-0.004414089949274712 
-1.495079597055065e-05 
-0.003876361575180434 
-0.03415520934626994 
-0.01856739150387837 
0.007530546179687161 
-0.007793246301544475 
-0.01484552656524924 
0.004662319369926505 
-0.003823309129722839 
-0.003691123799792962 
-0.02040416459735328 
-0.03162902776641972 
-0.04048138904683941 
-0.04585013474318638 
-0.005021169627648457 
0.01157303367981895 
-0.01972425508328054 
-0.005676628094721285 
0.007320227351874961 
-0.0005586989155710434 
0.01122555750531613 
0.0003233931698505119 
0.01110538530949685 
0.001207050722130855 
0.003901887084799558 
-0.005270832364616925 
0.06231177493727895 
0.001736922569373499 
0.02945166081597885 
-0.008265626087594843 
-0.006844825752539144 
-0.009959794867148685 
-0.05011619765692625 
-0.02383920013742183 
0.007250358565993009 
-0.008317671092477177 
-0.02416586155878888 
0.02821659075019836 
-0.04556073637863552 
-0.003195479212007064 
-0.003848560878912362 
0.006737288246074983 
0.01878646608096905 
0.003793418633232784 
0.01112820565086854 
-0.008357484886596361 
0.03555175017830341 
0.02929933198394327 
-0.01847490419810306 
0.05080920476953917 
-0.00827863303339727 
-0.003264831663516092 
-0.03529724174246592 
0.03467944656735043 
-0.004707588974373664 
0.04734041809016665 
0.03127907701173429 
0.008787179699405174 
-0.0009116276185034545 
-0.03801296836865631 
-0.02508619633887473 
0.02256563996446873 
0.01394847165650057 
0.01793076956601767 
-0.0052087053941421 
-0.05701379396827938 
-0.02139397949985 
-0.04116777653751517 
-0.007486330880909496 
-0.001707415652278609 
0.007150550724897068 
0.01034565315055336 
0.00306848283723697 
0.01215073651022225 
-0.08415792637512359 
-0.04282866103379582 
-0.01989038806984641 
-0.02571035224255647 
-0.0131762079362025 
-0.003073648340171706 
0.0038498442568208 
0.001509604311527915 
-0.002874314221221071 
0.0328371546403059 
0.02217427110366684 
0.007970743951993774 
-0.006370554576321873 
-0.0193764371314091 
0.02720001640188206 
0.02708379442516731 
0.02021254079036177 
-0.01033953512718538 
-0.007069064075254507 
-0.0002308619556282686 
-0.01754428070545424 
-0.02878990210563305 
-0.01355306179879094 
-0.006953650416855832 
-0.01109396395539949 
-0.007167925264875414 
-0.007314779063172713 
-0.02620141512179906 
-0.01448850106109844 
-0.02923899290869861 
-0.04672378228539801 
-0.03010518903920586 
-0.01687265012265642 
0.09479881042944485 
0.01640606793955386 
0.04123690456757834 
-0.005881936617980632 
-0.0003817149223852018 
-0.01353710457249285 
0.02099846876033577 
0.01552053678673329 
0.01244304821473539 
0.03321077448994823 
0.01026403655242951 
0.02239282632851999 
-0.008593024380852219 
-0.01649833954771527 
0.02919116682430514 
0 
0 
0 
-0.03294630552425238 
-0.02527371542897367 
0.0238387364842213 
0.02425481038141113 
0.01789119674115605 
0.02841236814190998 
-0.03192262818884347 
-0.02389079782407375 
0.009988932265439109 
-0.02224897036910927 
-0.02611696761895629 
0.04741036300966899 
0.02283406197598262 
0.02437178195312868 
0.007139850248653767 
0.03276921194982482 
0.01170494823303859 
0.007883317294949654 
-0.00547623428056337 
-0.002535397352577183 
-0.00208451999645368 
0.05884342872493493 
0.01076199112263258 
0.05427485824940134 
0.01816868437766829 
0.01283472771292757 
-0.02380254656161467 
0.02732602828282994 
0.003873938616919657 
0.03632558302210442 
0.005086586850119204 
0.007946752351558848 
-0.02788597293478822 
0.05059384215865183 
-0.001379676820029009 
0.08333482595244546 
-0.01021536949758376 
0.00221063742703088 
-0.01787302661303776 
0.01360908664065203 
0.009559783702821694 
0.01589081337562182 
-0.05205071704456245 
-0.02898091044945113 
-0.01259463248525694 
-0.04964779948423425 
-0.00892058816680206 
-0.02949331992514365 
-0.03146140591681501 
-0.01192037044242002 
-0.01395896694003019 
-0.003559064028812192 
0.003495057393343463 
-0.01157599797447629 
0.006228021906500621 
0.001086417794529355 
-0.002032230479486583 
-0.008691000203547714 
-0.003473268675320759 
-0.008855943255402249 
-0.02782485003815641 
-0.01665463584601608 
0.005449323377197066 
-0.01724119485757044 
0.003214626775364604 
-0.01356844996013188 
-0.0568774219325817 
-0.01093583470717606 
-0.0178836209712755 
0.009251440484004754 
0.01085295964967059 
-0.01162259729298011 
0.0458858590882872 
0.02971408763380499 
0.0340143064559822 
-0.03365657968275775 
-0.01486405247847322 
-0.01049686641436567 
-0.01100749111039772 
-0.004310600250745009 
-0.002704981465310345 
0.01904483543898352 
-0.002285971647830462 
0.01015359927539767 
-0.0132561950075348 
0.006792039310635507 
-0.005764687801646821 
-0.02661869458097501 
-0.007864587729046585 
-0.002202664864765301 
-0.04301444686818342 
-0.01715722768050501 
0.02283632854217582 
-0.1038903960490079 
-0.05921903277663918 
-0.01239816148553119 
0.011117557009978 
0.0004787508774979207 
0.001658472381270374 
0.002635985021140921 
0.006889681686465941 
-0.01326494339553993 
0.006119562648130547 
0.01194138827169416 
-0.01158763793169811 
-0.001058936152448802 
0.01430143500523277 
-0.003399770375746623 
0.04042327709777963 
0.02788072084962748 
0.03412249621918238 
-0.02988929474205226 
0.0001868634041333025 
-0.002575587674812235 
0.03024787141174809 
0.0153950735170246 
0.007899541543894061 
-0.04861397618165035 
-0.0177505667461974 
-0.0170160283217636 
-0.07550935698322239 
-0.04054589253778745 
-0.007094114548442477 
0.01324767735095793 
0.004144327851346848 
0.004241946492391013 
-0.003182076311586095 
0.008576560139451067 
-0.01410622932608814 
-0.02567204746804949 
-0.01260712275377174 
0.02618763524189413 
-0.01284203702710898 
-0.004749651693967322 
-0.008562652962751332 
0.003632640628840967 
-0.01352340794271022 
0.008378037438648444 
0.05099689673905464 
0.01107827714698267 
0.03909670639387616 
-0.01466991141229364 
0.008656303814987136 
0.009370401332549787 
0.003990793093206017 
-0.002729042290292535 
0.05073978191223596 
0.0004865485878499231 
-0.01963320295878485 
0.02923517187909978 
0.01414448923139027 
0.01092740048139617 
-0.002328422754444704 
-0.01026471807202698 
0.00183765606417715 
-0.01611167778578716 
0.07982531230439782 
0.03902117912539016 
-0.005148661216913798 
-0.007254138606614025 
0.01066358840711883 
-0.01137404839887541 
0 
0 
0 
0.0135855221952769 
0.006224730301303483 
0.002803715749634127 
-0.01804158302545341 
-0.00680096920606005 
0.004152690545002309 
-0.02085787846443229 
-0.00498328317547633 
-0.01259905980403024 
0.09079380140572119 
0.00783642407501582 
0.03635715659236754 
-0.0141194277314358 
-0.01385712141684669 
0.01036597649244475 
-0.03934018257472541 
-0.02184588111949236 
-0.02934564535498575 
-0.0840966186871709 
-0.04083684884732337 
-0.04010038861618781 
0.01131209498221509 
0.01932678644005512 
0.01635470196888696 
-0.01024658698480915 
-0.001168817539793665 
-0.01028025404085032 
-0.03267367345078749 
0.02036602467744307 
-0.02384766715388938 
-0.0008782864384554159 
0.006052193924890449 
-0.0215335967431688 
-0.00994117076486669 
0.009246171672878787 
-0.03857885891006219 
-0.02022589915676216 
-0.009630308671254025 
0.003569609570350475 
0.02582904834698007 
0.01181003812135677 
0.02409400847796444 
-0.001757235037385094 
0.0006548802647724876 
-0.01314352125020931 
-0.05499353821919997 
-0.02139957666802628 
-0.03189461179524632 
-0.008186333351630354 
-0.005725437987565045 
-0.01456295468691195 
-0.03604539678320685 
-0.01727666305272618 
-0.01045358281894835 
-0.0001123612720100885 
-0.006087236469251449 
0.002993734366358215 
-0.04773567281626794 
-0.01164357602034694 
-0.03502948671252452 
-0.01441385226553199 
-0.01149402847199661 
-0.01138179780395619 
0.03255402576767219 
0.01414994227353956 
0.01175253719342882 
-0.002374755687494713 
0.005419388056286122 
-0.003186468412444154 
-0.004742664992371768 
-0.01103177109669587 
0.01595522481546603 
-0.03932947503407495 
-0.03806864777067014 
0.02644907914573886 
0.012902760812976 
0.01592888537405452 
-0.01818238687213976 
-0.01274843137347388 
0.000690473433698817 
0.02696198341848443 
-0.01439292558183053 
0.006644877283900122 
-0.006239103919028213 
-0.04683376040534885 
-0.02111195605556518 
-0.007657155921141473 
-0.006239708412778141 
0.003429930383763712 
-0.008357850153852224 
0.009836769130988668 
0.02086630508841812 
0.01604304774601568 
-0.01440387178636324 
-0.009920360290529805 
0.0004573791641194566 
-0.03082603501899901 
-0.02763293279438524 
0.003478774794104774 
-0.02674110216022968 
0.002296202501601942 
-0.01409903831715736 
-0.02114337078620081 
-0.04900946605331753 
-0.001749544653539357 
0.03558719634972807 
-0.00273781249996653 
0.01304788832103308 
-0.004124865595138699 
-0.001576863235208704 
0.01622777522682548 
-0.03579424262248154 
-0.01292774718744701 
-0.0008910702678052069 
-0.07622469206518022 
-0.04020852809634871 
-0.008371194496006569 
0.02355586047852508 
0.002031435063844619 
-0.001922922759791842 
-0.007231292918386015 
-0.02633253057252832 
0.01322049989933989 
0.01524923256288137 
-0.01954594708038618 
0.05314101062984852 
-0.0216176509118222 
-0.005920247052927066 
0.006137511513229095 
0.02531675631548632 
0.0186034766357089 
-0.002160497856833375 
0.03336030582124593 
0.0283002396588439 
-0.005256750651601163 
-0.03755372128970614 
-0.004767147269491409 
-0.002065513744452645 
0.03811092567236883 
0.02819398530013098 
0.02427971699320824 
-0.01220598630924783 
-0.004527745154408023 
-0.02881580966063874 
-0.03374708244723559 
-0.01818281530618627 
0.00287283529321705 
-0.01988884721472621 
-0.01003771927036517 
0.002806676386319836 
-0.009584199729852848 
-0.008739189527822173 
0.01957456437387918 
-0.0146266861231611 
0.0004516286053359493 
-0.002413596343481254 
-0.003904769526081385 
-0.008807602157071343 
0.001398830923805015 
0.01229986827377022 
-0.005117976931090142 
0.03135546909043466 
-0.05340773600157667 
-0.02493678614883698 
-0.001549718661203884 
-0.07568544259416461 
-0.04314431185380465 
-0.04010439308697172 
-0.00137366988005167 
0.0006840687633012077 
-0.004039510930832079 
-0.07571654279921175 
-0.03494146743424262 
-0.0182189329470014 
-0.03044220065434203 
0.01584841531087489 
-0.03267443331832542 
0.02691654649829775 
0.01242966527667316 
-0.01181683175261791 
0.002899755445568252 
-0.0003106709022569669 
0.02034971459882237 
-0.01945461829854295 
-0.007143193065077746 
-0.004449573426457521 
-0.03512228185426135 
-0.01802459134747457 
-0.008542413506476354 
-0.03278887509872002 
-0.02046412420705744 
0.02874857007043298 
-0.008975527534557555 
0.01175976495898151 
-0.05132079487073757 
-0.03338426877701472 
-0.01184329439911837 
0.01041248451415153 
-0.01063282618177405 
-0.01128370828240623 
-0.02371673783117087 
0.01870686788482887 
0.01152487663243031 
0.003041016532602303 
-0.01233375662745333 
-0.009414778330389928 
0.000685414694235845 
-0.02701455526740084 
-0.01269145207175259 
0.001751596570447296 
-0.01751405982448983 
-0.004310191086452182 
0.001418558779356775 
0.02237152071664256 
0.01734772880780623 
0.001295189376087587 
-0.03420520356825237 
-0.01531879065091004 
-0.0081135348231926 
-0.007087130897592544 
-0.01613092173147622 
-0.00777129038034158 
0.000992732890196426 
0.0120142153774523 
-0.02143459689918098 
-0.02381695148564102 
-0.02713544153754303 
0.008798572136026523 
0.01186311658899213 
0.01853458639049305 
-0.005242941761675435 
-0.009734858809317669 
0.008871594104837207 
-0.03937194117035843 
0.07879462616089046 
0.01123194818840998 
0.07230695926137934 
0.04961574446360043 
0.03329525392123754 
-0.00418462865872785 
-0.01504455991416271 
-0.01631151997738007 
-0.01174003473075855 
-0.02597487897741628 
0.007110607921169398 
-0.01252475935006719 
-0.01210697657512766 
-0.006273973307996067 
0.01394259593888502 
-0.0249473968978104 
-0.01106906150947632 
-0.01771860003278074 
-0.03757821645897352 
-0.01073756286633572 
-0.01860689871266994 
-0.01457511974013988 
-0.00430846862635186 
0.002044856750683326 
-0.03336481522264654 
0.01018546870731779 
-0.06994712487389823 
0.01103444221683824 
0.01291523080290168 
0.01198000862074424 
0.02723912751201272 
0.004514627313200282 
-0.01396860924754358 
-0.01628275971357803 
-0.00579611955393935 
-0.02360003397251172 
0.03646648070609571 
0.03953243965716176 
-0.007995936747193736 
-0.03962411774868063 
-0.02381710786613243 
0.003237905813705393 
0.05054044628269388 
0.03544418938264149 
0.007906792885188937 
0.01067326827416481 
-0.006939016256443153 
0.03941796447209148 
-0.0002026586571316947 
-0.003253575207295196 
4.56307561861785e-05 
-0.0146799803449506 
-0.01905602730839786 
-0.007996106863551337 
0.003012833515628041 
-0.001325164701082211 
-0.004459650169975888 
0.0166258565896563 
-0.006273692571247019 
0.04490394579696327 
0.013339844199972 
0.01908519675951393 
-0.003764741632796619 
-0.03864424571725138 
-0.02671025849252487 
0.0007714763214228651 
-0.005102379961680781 
0.04136591553981501 
-0.02315323149483342 
-0.02720891709391382 
-0.01681570503307923 
-0.005733417934236192 
0.02427728550965242 
0.02429342072886562 
-0.005178873792424563 
0.01884005376983407 
0.006864472942958903 
-0.003790859529356888 
-0.009227904571471704 
0.01576797308834715 
0.002894087122141578 
0.08226767100835765 
0.02401656232561728 
0.03107098909796681 
-0.01698550943908765 
-0.005767784561414981 
-0.009319553377320182 
-0.02480457455397216 
-0.009185177034380492 
-0.01377754689418336 
0.04723667043931393 
0.03162691880705435 
-0.003120852019144301 
-0.07103966066520337 
-0.0371312134207197 
0.00183140170491767 
-0.02092804965441473 
-0.005243389588777727 
-0.0001718290010322193 
0.008717687507973566 
0.003683127036752613 
-0.02776225976711416 
0.03538053231306714 
0.01094719858013175 
0.0263573408504786 
-0.0162149792095885 
-0.01161730259690239 
0.008794399303120084 
-0.007683293423758212 
0.0181817676174777 
0.001726171844521802 
0.01283119255059343 
0.02204728869320909 
-0.01247045111829955 
0.01484026606549046 
-0.002187591709727983 
0.01173610850980981 
0.04576329218030904 
0.03547952944450854 
0.0216843597187794 
0.01617779504766515 
0.0138755186672244 
0.0007464395095908623 
-0.008756225140809539 
-0.02061465930474232 
-0.001156444778127104 
-0.04345893781158077 
-0.01870179313218543 
-0.01455125146033023 
-0.00307843880592139 
0.01014277806589559 
-0.01618422676528805 
0.02876407574760347 
0.01130926935693323 
0.02341293374855856 
0.02142174348733493 
0.01727430897234986 
-0.02468319779518281 
-0.01573242312092709 
0.00533141837928749 
-0.01008021805467376 
-0.07559623912421629 
-0.03272885040551544 
-0.01555677189886535 
0.01452296076017091 
0.008835216171892505 
-0.01135263906743071 
-0.0212616572126957 
-0.007503310798350198 
-0.0192240066625239 
-0.01180508476516615 
-0.006003948495543896 
-0.006204453964746194 
0.01774990708189367 
-0.003904779014945923 
0.01994898843860159 
-0.02064616355414917 
-0.03391856578520755 
0.01294683898184697 
0.003040854961031936 
0.00779269457111605 
-0.008581161490993687 
-0.06594991057408028 
-0.02580590577393706 
-0.02208095067649137 
-0.03057734741084034 
-0.01650610321524878 
0.006439590686496225 
-0.04201198946744431 
-0.02567182633502609 
-0.0001331016931544586 
0.03143363631975084 
0.004629099370216205 
0.02020665206747387 
-0.01061521554052627 
-0.002787134022147393 
-0.01589210685155424 
-0.03510106212653377 
-0.02385954748327205 
-0.01134296619479016 
-0.06858520628797678 
-0.03401695766396142 
-0.03004782422808022 
-0.06371629086725959 
-0.02399601310404942 
-0.03665571551220934 
0.02594824064549331 
-0.01110126638247697 
0.01697387054605645 
0.02849709174315665 
0.02013812297054375 
0.0115860255071865 
-0.03601470643587235 
-0.02599313407430478 
0.01700386896624056 
-0.07375046788919799 
-0.02403199461834054 
-0.02463332861477646 
0.02226057386298153 
0.01091845514852754 
0.01272609866172816 
-0.04792214422289593 
-0.03023731638087637 
0.001758459952724462 
0.0257098104137625 
0.0006728158062973767 
0.02997639525007185 
-0.02915326652270698 
-0.001495085695826431 
-0.00920878346567402 
-0.03185763315569189 
-0.02005869003068254 
-0.000353967208512309 
-0.02380292760391172 
-0.01839184128844784 
0.02057078223404182 
-0.01219268644979823 
-0.0004321943846028765 
-0.00406554464567089 
-0.04920877440546207 
-0.02095755202126204 
-0.005904764470098305 
0.01184296180371214 
0.01454420378157432 
-0.01288401294900815 
-0.03273840189158529 
-0.02334959684960846 
0.002829949485636107 
0.06003253641590392 
0.01198907601634456 
0.04424351422061426 
0.03737832274273113 
0.0363436076688883 
0.05738334235134294 
0.1221567389647652 
-0.09612813559309095 
0.01627219683825272 
-0.0114645054097239 
0.02131390553693818 
-0.0451494559046575 
-0.001380826660100314 
0.009014153776485656 
-0.01890087944588664 
-0.05103987967759765 
-0.03113212090419648 
0.001497616875119013 
0.006100372178124138 
0.00637486172314859 
-0.01090878303236579 
-0.003643575219180001 
-0.003212697492313276 
-0.00583209863886173 
-0.02723332647708812 
-0.01186110133407726 
-0.0122369522201733 
-0.004746036676062587 
0.01742845846954312 
-0.01369931732105538 
-0.003367302688225958 
0.0003824487094686353 
-0.0186915055059783 
0.01587753031018881 
0.01706562423388768 
-0.003453201445314213 
-0.02216284966538586 
0.007551588137232187 
-0.03843678282826784 
-0.03757821680798357 
-0.02457269098568048 
0.009090132656284821 
0.008154373142770432 
0.01603370992590408 
-0.00244231446858089 
-0.0234559138503036 
-0.00973256966556578 
-0.01132621475699456 
-0.01295635832262932 
0.003112141788121543 
-0.02568691770025158 
0.05173849594801778 
0.02762484240365429 
0.03074973180676806 
-0.007788481434360826 
-0.004034918594614315 
-0.01966934865228188 
0.0148864838442529 
0.0114490574790252 
0.009596958416868195 
0.05407429934167887 
-0.001663669899434474 
0.007375428588775251 
0.0897581043344869 
0.03564521191340885 
0.03284598444489668 
0.003708875316635349 
0.008761754196990433 
0.00694684760981475 
-0.04848764928832085 
-0.01553759408046595 
-0.02182695310927651 
0.01933141695195394 
0.0008438792412355657 
0.0136548597362941 
-0.06229808301606912 
-0.03709760186667532 
-0.005760123452512565 
0.01449749744062482 
0.005537538876506324 
0.003963594120687659 
0.00419647291910241 
0.001419659511291548 
0.01035782598012139 
-0.02452682360342508 
-0.009183540937310971 
-3.012199998300375e-05 
-0.04611112606961629 
-0.004542156606384001 
-0.01345721263931 
0.01520049817255433 
0.01874353597050409 
-0.02460887358381143 
0.01057863294851489 
0.002820308210389558 
0.006695714590580807 
0.007110019529548828 
0.02211713085282244 
-0.03617440849474191 
-0.01360394392004009 
0.00168954841515478 
0.01756503980192328 
0.02287418954478483 
0.02293598367491548 
0.0004077576265346322 
-0.02843429619063044 
0.01086683984789905 
-0.00721579836295241 
-0.01370611750651461 
-0.003649032420469564 
-0.01124915177824756 
0.01067560160663173 
-0.007219011424659986 
0.005182982478535095 
0.008556235872162012 
-0.01271107154403522 
0.02055610633301278 
-0.02716607236235359 
-0.007901156678520456 
-0.002178476411059261 
-0.02548382069378914 
-0.006884992363509325 
-0.02400388592949134 
0.02348738895366902 
0.009432249826191801 
-0.006365941086547398 
-0.008219049445922404 
0.0007158963771501343 
-0.003772415078893943 
0.02877145945484888 
-0.004642727893164964 
0.02227461024776127 
-0.001636205957415069 
0.0168998286530362 
-0.03265026633186592 
-0.009968304598927242 
0.001328617303171852 
0.00219921186320539 
0.0147119735767713 
0.002803423071774443 
0.01405088815815671 
-0.02728798068241001 
-0.01025269811481384 
-0.01546150260821998 
-0.02430405728888202 
-0.004943585850805812 
0.01049540246620984 
0.04380461577843043 
0.02137158363644183 
0.01406390761235341 
-0.02283101071828605 
0.02615129485846027 
-0.04851733911205874 
0.005374449185688197 
0.003964801012440342 
0.02226574632077382 
-0.005529122222915422 
-0.002795707215971853 
-0.0009225392445709166 
-0.0263422325385613 
-0.008018646240514063 
-0.01742718710759605 
-0.02329069486731454 
-0.01850769961252805 
0.009373601196923678 
0.04594956788093221 
0.02810763136794607 
-0.001722657193956051 
-0.04387865192326998 
-0.02422439166157658 
-0.009560767565495523 
-0.01911256772782877 
-0.01649888438169515 
0.01216316631185352 
-0.0202134421539902 
-0.01331097682228225 
0.01478100635546832 
0.02332681918715192 
0.01885548895756918 
-0.008633092878025295 
-0.03561787162045726 
-0.03636551276686377 
0.005782476425316743 
0.008299179837690044 
0.02975813563774074 
-0.01022505203160572 
-0.02020344180669293 
-0.009537779086962869 
0.0124571482056614 
0.01998041921935936 
0.04517518536620255 
0.002892743058345692 
-0.05489029282708308 
-0.018884545379494 
-0.03839280814196182 
-0.04858358729834132 
-0.003692183249029719 
-0.05046959255732198 
0.01410152992026407 
-0.01194399072791048 
0.03042439878549468 
-0.01500983044822961 
0.009598727796663122 
-0.01284581714269773 
0.007002002804991091 
0.006859369214199732 
-0.03133945488523249 
-0.06235014687588395 
-0.01481849132703887 
-0.04547467570530508 
-0.009756887373057032 
0.01632585357331723 
0.004511817197695818 
-0.004288788394564252 
0.02301316481910081 
-0.02146551107544805 
0.02937946546665966 
0.01268103916435886 
0.02297908425023094 
-0.03759230055325298 
-0.006289014321781358 
-0.000268764835086165 
-0.06061326341860766 
-0.02641147818433807 
-0.01337931174300555 
0.08219112416130071 
0.03917210501617901 
0.0300741490080234 
-0.006531246407498565 
0.009224634186998064 
-0.008392515235239919 
-0.002182466718606505 
-0.02123721053399316 
0.03525068783472986 
-0.02037985418752098 
-0.01687070690526018 
-0.005993232377650312 
0.02217767868096585 
0.02425666673968496 
-0.02488509718802283 
-0.05192121250624922 
-0.02020621807542573 
-0.03249452355040609 
0.07861482056463949 
0.04941074437646998 
0.03645245791699903 
0.01299353854000476 
0.0275974915394923 
0.008457188224269583 
-9.426664751588838e-05 
0.002428585592741082 
0.00942646210008726 
0.006799833118567237 
-0.002016891608019269 
0.003316269941653517 
-0.01858145286887708 
0.001107116955211916 
-0.01911652658548458 
-0.007222887198733504 
0.01352603004015174 
0.00216522050573736 
-0.04708674261063657 
-0.005312256771378316 
-0.0370552712358359 
-0.006500464433021138 
-0.004912626202296663 
-0.01804068120901683 
0.005394176245406231 
0.0001590114873444206 
0.0146591429124986 
-0.03392535934880039 
0.01101078323246209 
-0.0222582684327738 
-0.05060139011287597 
-0.02793518870791876 
0.001606698606064347 
-0.03108379532671286 
-0.03236621758749918 
-0.0005210042028487655 
-0.01312511706919057 
-0.007081704309213652 
-0.0215294822241805 
0.03770884224636201 
0.0183606602066027 
-0.00226118416226069 
-0.007921520319838888 
-0.01072954332451179 
-0.03802579557165721 
0 
0 
-1.355252715606881e-20 
-0.04679801738207678 
-0.04535059536989992 
0.02012255641831295 
0.0003234556470781252 
0.02778676558221944 
-0.03287674619580444 
-0.0529294597454201 
-0.02685969106378159 
-0.003651823701031009 
-0.00862948603482711 
-0.003050337620449615 
-0.000995891398768147 
-0.02682633712334661 
0.007500998241002871 
-0.03193719403192168 
0.05252603420788313 
0.02228695473882905 
0.02595589869955958 
0.05088659147421812 
-0.01970797230386205 
0.05657721946362328 
-0.06475719618903596 
-0.03244609932315939 
-0.02907230483281198 
-0.04193006210779295 
-0.006697580588848872 
-0.002292536632508661 
-0.02673124733532501 
-0.0205883455192012 
0.02379217560828837 
0.07372006880181123 
0.01490332882941747 
-0.07635912100751883 
-0.04602300074213349 
-0.02210284829522644 
0.006341689596492799 
-0.05680554862327772 
-0.01957629678405721 
-0.01028075802106302 
-0.0008858096996721684 
-0.003894036759576692 
0.01845889000421785 
0.0584993038154021 
0.02840670094867478 
0.0184725200866948 
0.04062920098548659 
0.01901142361296024 
0.0008227513216458127 
0.009494596798235964 
-0.01267300277202597 
0.02301607390849681 
-0.002215925358250935 
0.003672933944577807 
-0.01231842898949966 
-0.001973487510308268 
0.00220149255111364 
-0.005398222801082792 
-0.03440399779288631 
0.007543913058920271 
-0.02717297322845135 
-0.02141600509044421 
0.004238496618115199 
-0.004138315543655457 
0.007684236498024099 
-0.004907792643068621 
0.002038192234418188 
0.01672701123421165 
-0.004169792532062983 
0.05350833362938469 
-0.07141075872325515 
-0.009386758074101996 
-0.0209955598624546 
-0.03660972454197182 
-0.03205629710419062 
0.02605845171484443 
-0.02096320217990904 
-0.004563649452672982 
-0.04423554820772403 
0.007515404610186383 
-0.0103690872380374 
0.038891221591024 
0.05703032637139848 
0.02962015830892846 
0.02758320950471381 
-0.0849099393988319 
-0.0367919258785446 
-0.04081382048183427 
0.00950697644484416 
0.005721922715920756 
-0.01664578715984405 
-0.06461555379752858 
-0.007782336030422428 
-0.03908229079306921 
0.004239273922083702 
-0.003132691013446666 
0.01842223915738396 
0.03326147560324422 
0.0336017269381214 
0.02529094185891765 
0.01058366940456622 
0.02566920709756008 
-0.01750508137053119 
-0.008869523218176205 
0.01080753619873907 
-0.03722133253999729 
-0.01182880537027419 
-0.0004141848408121187 
0.006246008844020629 
-0.04555114467322638 
-0.03220535498193744 
0.0006283493447673106 
0.08942401578312402 
0.0361854997937195 
0.04670064852484306 
0.01318988816963668 
0.01670559014524457 
0.002489272945298338 
-0.01592178734679197 
-0.02479477882024303 
0.009776201333786727 
-0.02603233543865873 
-0.002771485684184533 
-0.04165297194373936 
-0.04598000562477304 
-0.04720428714459732 
0.02718864140833828 
0.008584617663312687 
0.0146111042414663 
0.01029379788095201 
0.01502334840751534 
0.005495756689055768 
-0.01416244644588037 
-0.04441919780655399 
-0.04601837554003876 
-0.002889024250084019 
-0.03774801675334279 
-0.01882926160704921 
-0.02132543993643682 
0.008972680922223289 
-0.02765361021914132 
0.01334056526139143 
0.02644346193055109 
0.01948842730694462 
0.001591956689050642 
-0.02764833876383221 
-0.008442349067173413 
-0.02378452041146065 
0.05378657082661509 
0.03321286872185864 
0.02037970759564347 
-0.001608768655539641 
-0.008113556064608717 
0.03394769789437608 
-0.01574958855785815 
0.01351567833757684 
-0.03490299830162039 
0.001301515829449703 
0.0006534480315273617 
0.0006884660026948955 
0.004809348246842826 
0.008466103438831208 
0.02872354099904569 
0 
0 
0 
-0.03082524375120859 
-0.01047896833965694 
-0.01093665807499384 
0.09605190569769095 
-0.001687761911529577 
0.1151888218856312 
-0.01795305166641716 
-0.003848026282096829 
0.009282209465844805 
0.01580769313648335 
0.03933214454681151 
-0.03724698194106301 
-0.09382418491286905 
-0.02373789921128231 
-0.03249688750865928 
-0.01992534561350286 
-0.001796709134398081 
-0.01487336350566238 
-0.01966071222274525 
0.003980449257748256 
-0.02530567796866245 
-0.01974210354817846 
0.001410532015351823 
-0.01957304004432006 
-0.01620005633873932 
-0.009091631122349534 
0.004981233606313037 
-0.01163735739160731 
-0.02462285966414749 
0.01208411061228404 
-0.05136415205430226 
-0.0181741010883092 
-0.02563944108345551 
-0.03110138265097971 
-0.0157749457204549 
-0.01386396800801392 
-0.01117501698835724 
-0.005380201755470588 
0.02077824182038665 
-0.0263619185786222 
-0.01391973701739583 
-0.01719344944222084 
0.02602272167980074 
0.003300957435568131 
0.04204725668524517 
0.01552718105510105 
-0.01725353321815414 
0.00505876127172431 
0.01131407586650925 
0.02532902298362543 
-0.02744465350393253 
-0.02864826270168194 
-0.0153797046393858 
0.003561404960078142 
0.02910526466268463 
0.03265752489160264 
-0.01348647649562016 
0.04816073844223329 
0.01772632057769687 
0.03098091744080113 
-0.08104365441850349 
-0.02134365650428534 
-0.03053084534372182 
0.005749262425273372 
0.02101717574198427 
-0.01708464329112153 
-0.07714465438978492 
-0.02728304669161847 
-0.0164435359440437 
0.01447597450923342 
0.01228229723705942 
-0.01806207371852392 
0.009790996427101338 
0.02300287888449182 
0.001765043003245747 
-0.0484563623234742 
-0.02023921947321052 
-0.007236403902021507 
-0.02693919423620816 
-0.04573430084958288 
0.02964634597931421 
-0.06526311786998176 
-0.02189755321640025 
-0.0104410441774577 
0.01309255962017899 
0.01012641637724812 
-0.02155557293957782 
-0.03871755749396301 
-0.0368630614304652 
0.02512320195183493 
-0.03801924021721585 
-0.02530120574351375 
0.006772638272046012 
-0.07728571157398163 
-0.0221765399496273 
-0.05708293087165412 
0.03270532318020484 
-0.001104957448216238 
0.04641575846888668 
0.03328653136502007 
0.06355674085880526 
-0.001409374493349881 
0.0728454716183243 
0.01948821359106612 
0.03080501291729622 
-0.03866661513387265 
-0.009199353965710675 
0.01247112907561472 
-0.002792150416537465 
-0.001714619731852809 
4.73289923221832e-05 
-0.02271739600453408 
-0.004429632956873137 
0.01160409366302039 
-0.01246258851715195 
0.006103261602359127 
-0.02525697809793479 
0.01842374889346506 
0.006472284148466515 
0.02289508672357913 
0.01886471395000643 
0.008146953168120948 
0.01883482208894477 
-0.02058715885110813 
-0.0004611634928825593 
-0.03055837318132775 
-0.02077964615984182 
-0.01070910699030693 
-0.01442226397801595 
-0.04444534939183332 
-0.01987032964559036 
-0.02309396407245938 
-0.02294349571744724 
-0.005519105542343065 
-0.05434354758964407 
-0.08806231911360204 
-0.02898385544178317 
-0.0120890790852901 
0.03477936953169475 
0.001961707750936568 
0.02553326734014549 
-0.04011159079062144 
-0.0197263103493961 
-0.008509802686958673 
0.02658265956391306 
-0.02191449642427444 
0.06044697633497732 
-0.006003109054583542 
0.03138470230696095 
-0.02097488190412206 
-0.02464463123472011 
-0.01293684001656637 
-0.0153874076900398 
-0.03697627211816361 
-0.03670515296243353 
-0.01309621558552839 
-0.02324032362759455 
-0.0003793561911909174 
-0.0296985317715206 
0.05753390832880394 
0.0005071086852649881 
0.03989148114994233 
-0.04676275969610587 
-0.01275759670850524 
-0.04370488110155258 
0.005829714842817879 
-0.004877167214275768 
0.002293218239484073 
0.02286960414243454 
0.02949974524849383 
-0.009486285176228789 
-0.02297471020079993 
0.005777435410070158 
-0.05290275267189248 
-0.06199186215834906 
-0.03719622796133503 
-0.004844063359410786 
-0.01037136492489175 
-0.00944370313444981 
0.01369171039063012 
0.02541637384642171 
0.02418241820006706 
0.01331288290295927 
-0.03944152701395757 
-0.02837112817122477 
-0.01637233056029781 
-0.002028237216344294 
-0.003736337557209764 
0.0005613410443644551 
0.005080582546691062 
-0.02620480277534262 
0.01266786996219324 
-0.01907072733766281 
-0.008852850806730317 
-0.004410451957581201 
0.006268885657802866 
-0.01252099642498578 
0.008023032635622507 
-0.05217064719103755 
-0.0233291183240397 
-0.03828808989629669 
0.007875417213942472 
0.02052331718262506 
0.009672121075835644 
0.01402422600602216 
-0.01613402528758585 
0.03023407186560331 
-0.02050287730556894 
0.01743012840875481 
-0.005134944937842115 
0.05713462201092041 
0.03039869540962599 
0.030765559207082 
0.01863075752944069 
0.01094016351099973 
0.00136179011409902 
0.01553680288070257 
-0.001345563173346657 
-0.005453579250893918 
-0.007917805216305142 
0.007600958533159186 
-0.006726857886888101 
-0.05002772213403151 
-0.009928112983293737 
-0.05149834833212268 
-0.05178925446817016 
-0.008855932138239535 
-0.04147056698380931 
-0.02121494257878337 
-0.004661731765629014 
-0.01822044502151729 
-0.008146256069542009 
0.02410887358279018 
-0.01006116114544585 
0.06800887906366758 
0.02970363919165225 
0.05214459394577849 
0.0655199041922612 
-0.0006923523942358132 
0.06284737973060917 
0.04784887965289514 
0.03754206226652832 
0.0381785014727762 
0.007373979689044484 
-0.01262998792912752 
0.03056590102682866 
-0.008241707864193166 
-0.02397102563044379 
0.02265129270074473 
0.04341492845275662 
-0.007801284799240674 
0.03174285188068909 
-0.04509695544369403 
-0.0252977664467696 
-0.01214398100688834 
0.07563827529168154 
0.01395265967589353 
0.03621516978466 
-0.025944639798549 
-0.02668623758321452 
-0.008539818834640332 
-0.01941530794372624 
-0.0177358382920919 
-0.005455879291095565 
0.02379636424352137 
0.03524925270714972 
-0.01915554926389294 
-0.003329685762527428 
-0.003188132933748942 
0.02373568167629284 
-0.01547539749319967 
-0.006816602103294619 
-0.004677608681065824 
-0.08595370766352611 
-0.070372378137078 
-0.03614093105748058 
0.008363124086538809 
-0.006423483470106941 
0.0343988469323919 
-0.03967713275623208 
-0.01183724484341048 
-0.03124547578168919 
0.008202103987032677 
0.02634546188758171 
0.003525969851113096 
-0.03016010199393501 
-0.01108575599055225 
-0.01833158972141219 
-0.08867141092200029 
-0.05843169591984405 
-0.01885299458183609 
-0.027772499163871 
-0.01249248893076289 
0.01030625519521323 
-0.01254281976631997 
-0.02053885122454186 
-0.01532718411662961 
0.02330058926162775 
0.01435892799470841 
0.02594482986840963 
-0.06884361659583024 
-0.03998528853931545 
0.007851883278546601 
0.021986498247863 
0.03401834291922259 
-0.01402141823886615 
-0.008117068908871301 
-0.001925460442128156 
0.01151293321591268 
0.05226944301650938 
0.02720612185702082 
0.03005490271016801 
0.06765672820734922 
0.04922617895854185 
0.01919927044761726 
-0.008756582914221885 
-0.02905238759370049 
0.007536317809844689 
-0.04282218358603714 
-0.03427400071116563 
0.005928188468921402 
0.007613171373872627 
0.00943678007283834 
0.01200489576636017 
0.0004379073394463641 
0.02052841194845883 
-0.04090255839216187 
-0.01274429681720664 
0.02713035589773999 
-0.02493860389965098 
0.02435896901861087 
0.0101123307193451 
0.01863445024540207 
-0.003095294957709273 
-0.007228000163378779 
0.01706078277148102 
0.033255420468694 
0.01866007638921995 
0.02435453062068777 
-0.005733770052453675 
0.01372147657096143 
-0.007478286109243082 
0.01190406648696242 
0.01555562613637551 
0.001437840402555787 
0.001013739871527408 
0.01416703720910279 
0.01592335884133212 
-0.03084495247624597 
-0.03912502400259321 
0.02642688476937814 
-0.02588089509301426 
0.001696020668218691 
-0.01256017731580983 
-0.004085412472101572 
0.007903995926982006 
0.02735870540817235 
-0.001906320971636842 
0.001775344097585614 
-0.001708756170404214 
-0.01030974893335181 
0.01578199551587325 
-0.03461482707448862 
0.05249703904407889 
-0.01855927735142561 
0.01273525647778928 
0.09966621422857895 
0.0305370204854667 
0.06476010114339345 
-0.03398714119554603 
0.00745086795729755 
-0.02546217625059643 
0.007588776919049885 
0.0309617249262525 
-0.03387335870572812 
0.03665676754968199 
0.02564789599399599 
0.0009338343040255747 
-0.04481344780590853 
-0.02461615370393713 
0.01855615323679949 
-0.06736932916997732 
-0.03958971466652995 
-0.02782395019341896 
-0.02988316151156502 
-0.006778493987468538 
-0.01719799646671605 
-0.05805903106103551 
-0.0177686576323175 
-0.0264767535135908 
0.05001653510292346 
0.005505896550990452 
0.01516202358142843 
-0.006051084555172806 
0.004186689024488577 
0.007415502156343454 
6.776263578034403e-21 
3.388131789017201e-21 
6.776263578034403e-21 
-0.02692553871663232 
-0.005182648313605618 
-0.02382033051551894 
-0.01973189978834661 
-0.002766354179362922 
-0.02759098373083345 
0.07186058830407835 
0.008490218733499002 
0.04647580099982831 
-0.02678964769682018 
-0.01691729842515949 
0.002361009540062519 
-0.0267930431992771 
-0.009274527130759611 
0.01078557514014267 
-0.05141145157418231 
-0.01799495969076988 
0.002969581319069748 
0.04613006989070012 
-0.01474473043799533 
0.02422730926552508 
-0.07049336730525066 
-0.01483247775288091 
0.01473336515895722 
-0.01669150483824956 
-0.0002940041037468602 
-0.001689504882425543 
-0.02342542186887325 
-0.004598028839909995 
-0.002335066133728106 
-0.03119726485875491 
-0.03520683572379787 
0.01559522441987187 
0.001286740030019496 
-0.003346114035535341 
-0.01022278210823031 
0.01012976417028883 
0.01045027877328303 
0.009169183227448145 
0.02191166867777293 
0.02305072944440993 
-0.001183109652486994 
-0.0113798865726916 
-0.004632690355155884 
-0.01364581624046598 
0.0571029639157019 
0.02160166496230437 
0.02829751123089566 
0.007898052415327131 
0.0008133742830708948 
-0.006351268370345005 
-0.003027112332512581 
0.002086962701336746 
-0.005664497368564663 
0.01480618898291878 
0.01839350209291175 
0.005948974913433455 
-0.00115355147007919 
-0.005524340799673837 
-0.008120473684215809 
0.06344039401247324 
-0.06097447319710438 
0.05192596046463183 
-0.06244708591057496 
-0.03768004518512603 
-0.02261152584397055 
-0.02764105917439377 
-0.01861336936283332 
-0.01552665269493871 
0.0336510897181469 
0.02080007409773018 
0.01269704417836794 
0.01253549914461637 
-0.05384581419130822 
0.04657696111536043 
0.06238637569559111 
0.07829488750233883 
-0.01267852174290627 
-0.003626628320224039 
0.01326029422585539 
-0.03470001135549351 
-0.09496460896907666 
-0.05335814199778853 
-0.02497498723651994 
-0.02656189352942367 
-0.005557267852883281 
-0.03576366989910525 
0.03228766658975376 
0.03323830428449006 
-0.005427514103592004 
-0.007580917139614368 
0.0178019891782274 
-0.00679818120154512 
-0.004897897129643895 
0.002948922994178064 
0.001216016071018088 
-0.04671408348365933 
-0.01698551397601998 
-0.04522376083790591 
-0.05963394814818317 
-0.01464878813470535 
-0.02619206490539843 
-0.02347048189006396 
0.005820370382470139 
-0.01679094865321629 
-0.01271929800772832 
0.005914182244192008 
0.005341497585353274 
-0.03260910009158145 
-0.00284715224232255 
0.006633328076914738 
0.0393078479446266 
0.02516012570025105 
0.001440841719069176 
-0.07960387508267282 
-0.02269118587484057 
-0.04501097324361516 
-0.02039921710330193 
-0.01191956340515941 
0.000537096806452543 
-0.06654274919338989 
-0.02401483965615316 
-0.02691500291912282 
-0.0002249557073918916 
0.009143754693138025 
0.02813118689338688 
0.02175744193157728 
-0.01756771921020918 
0.002771139053778517 
-0.02170224888900013 
-0.0173469599456271 
-0.008198439091541944 
0.06512522348296297 
0.03091959462379273 
0.02645154670632678 
-0.02245931756134877 
-0.008695743577646428 
0.01006584426272933 
-0.005141864875913327 
-0.01495613595412899 
-0.02738358214158449 
-0.07332308892888743 
-0.02432257063169242 
-0.02409789273432932 
0.02419115084347146 
0.0205937056906915 
0.02808166506225615 
0.009853631508455989 
0.01114401084977633 
0.03141677460767398 
0.01080474344077161 
-0.02306406167960137 
0.0381342310457666 
0.0154096128704456 
0.003744094080441903 
0.02023979072746846 
-0.02200672764070662 
-0.01102909988639733 
0.03086598136954898 
0.02245248832051753 
0.0255675111071735 
-0.01205029657001445 
-0.04456466075253701 
-0.02959193167918394 
-0.02024784709088583 
0.05138183466647499 
0.01976641381841009 
0.03492132762148494 
-0.05452549795621704 
0.03135773137876541 
-0.03193320179052814 
-0.0008056609789745481 
-0.003379875511247733 
-0.01072201945992816 
-0.03165199194629643 
0.0006317194980924106 
-0.01358623657884844 
0.01237165245473798 
0.02251144092625722 
-0.03068208277492459 
0.03616843398863257 
0.00965371739175876 
0.03263884742853266 
-0.02893145900382751 
-0.003184113307076498 
0.008847872208496805 
-0.04390751360334567 
-0.03514124754091317 
-0.008544312809617274 
-0.03533494053021146 
-0.0361801770746182 
-0.02147371157949849 
-0.05498281377363613 
-0.02435567607484559 
-0.017996329081463 
0.01250089141887853 
0.0128369587846529 
-0.02487933661363569 
-0.04099758919593334 
-0.0029163208763405 
-0.006019640033972484 
0.02350635959093359 
0.03625517164633646 
0.002074497723277014 
-0.01609578895218619 
-0.007394417279682315 
-0.002722499232611737 
-0.0473631480205027 
-0.02095183626543088 
-0.009721087746746871 
-0.01192410824946433 
-0.01321385825394925 
-0.00218454906306241 
-0.02172343128517511 
-0.005348450122980714 
-0.009427895619027227 
-0.009460962445746606 
0.001777366015211268 
-0.008811462500656541 
-0.04667928845922936 
-0.009519098262395576 
-0.04412280045853403 
0.07216273263514468 
0.03986961883478336 
0.01744888611065986 
0.01051175638374098 
0.02377142727603352 
-0.01748669304974122 
0.01858732210460698 
0.00314582631859099 
-0.01273226278389107 
0.05841167294819254 
0.02099984168254362 
0.01913287646576811 
0.01155804601735065 
-0.01935640896880779 
-0.006471079198888835 
0.0274540158398304 
0.01350957489890684 
-0.001108966490552895 
-0.01820432775076856 
-0.015387732563006 
0.01248091754654804 
-0.01214826893266777 
0.007250455006523692 
-0.03104288157928389 
0.01355356735625925 
-0.01092787379601193 
-0.008785861172755895 
-0.03467545965655001 
-0.01874333752552585 
-0.002219339858508883 
-0.04024925299591441 
-0.0003516522763366388 
-0.03177581753036571 
-0.009225382707816504 
-0.003606650945957773 
-0.03913369779441767 
-0.04724110667958534 
-0.0227436656770012 
-0.007484414835574463 
-0.01212224937942569 
-0.006104103660489081 
0.0156589178972013 
-0.043182237166781 
-0.004366029506553622 
-0.01424056649650394 
-0.04539822236300126 
-0.01645033889514474 
-0.01017852595091584 
-0.04488778980152636 
-0.0292012635372956 
-0.02793059301457731 
-0.019987139430748 
0.01770796553798601 
-0.006742519448893422 
-0.01972754123117621 
-0.00791153632915784 
-0.01167525427631139 
-0.005861998246219479 
0.006373578695923485 
0.01402598033490356 
-0.01650974399590677 
-0.01944048704351999 
-0.007332176962290513 
0.005502786608258307 
0.01452951766605624 
-0.008502291159341363 
-0.005003355972567711 
-0.005369913568838747 
0.003785505340928961 
-0.04050697566675012 
-0.02703714711792092 
0.01856734422484173 
-0.03142150377696463 
-0.009031779157797286 
-0.008286248693791671 
0.04080786346633452 
0.04812921633123902 
0.006544995880847579 
-0.009273024370865423 
-0.006900763058833069 
-0.009635368219841463 
-0.01120823432185257 
-0.009870821183426279 
0.0008032735164066758 
-0.07587776756896707 
0.07783197124039222 
0.1117852066295079 
-0.04449677787340418 
-0.0103867822474749 
-0.01996033626332425 
0.008175184355615905 
0.0125359667874011 
-0.01096492715178066 
-0.02549559279463188 
-0.012848307027423 
0.00804701960974835 
0.001042876209086511 
0.004047239236165936 
-0.00274193708742079 
-0.02420997324355776 
-0.01181782667171326 
-0.01182179055440426 
-0.01561703948696761 
-0.004428734619911915 
-0.001124859453227811 
-0.008126998791296008 
-0.01150609378481459 
0.01954998266118975 
-0.02722852497031244 
-0.007573888881148921 
-0.003149991571158461 
0.01791864040579399 
0.008645533830499791 
0.02605012546246412 
-0.003335643338692075 
0.004790309205717409 
0.005994113721703927 
0.009810415457623086 
0.01718235413269718 
-0.01146503087847591 
0.04836654075136429 
0.02366356985694646 
-0.01643155344798323 
0.01732789499259389 
0.01747614896739078 
-0.01920349269023783 
0.0782953580580996 
0.03172401350978213 
0.02324871145258304 
0.03272599446023249 
0.01281338222428914 
-0.01365671419407753 
-0.02785365804340209 
-0.01855439474956347 
-0.008647922372064633 
-0.001986842513514839 
0.01473394007303345 
-0.01076964744784044 
-0.02961999402293231 
-0.01246389912878255 
-0.0199628747597796 
-7.650600241175673e-06 
0.005122352434662054 
-0.0097877837702711 
-0.02153530605656332 
-0.003108307277039618 
-0.008716497513559546 
-0.03073437858405414 
-0.009513962610742416 
-0.03059621942281984 
-0.01764235407985322 
-0.008675978680062453 
-0.006233888655838163 
-0.02301907693670375 
-0.01311147078433316 
0.00604520534624201 
0.01633791053367661 
-0.01641838948056659 
0.02320738642921587 
0.02576712893583749 
0.01147704578273439 
-0.01118129599650622 
0.04363469463900931 
0.02387053431350274 
0.02155148276559315 
-0.01887859619456938 
-0.01923127388834121 
0.002130602349845287 
-0.06019782383085131 
-0.009500422033773371 
-0.03023048798099217 
0.01143853208351641 
0.01605854462394191 
0.002019628486447878 
0.01431368609302847 
0.02186251084695641 
-0.01948099336016678 
-0.02602421387219462 
-0.01265840951363333 
-0.01889092720239337 
0.03031638041041002 
0.01954734369195843 
0.01041556065853896 
-0.01558951357967424 
-0.007180393173463333 
-0.004820015970307618 
-0.0006426248417375451 
0.007532548625063283 
-0.01293605811112445 
-0.02837434446811892 
-0.01057774546672642 
-0.01452983711950449 
0.01746992344184645 
-0.02236504558568076 
0.02729974663377147 
-0.0239807259925879 
-0.007919384708401048 
-0.01687200999521731 
0.06061967299620161 
0.02814656949116881 
0.005906339588780693 
-0.05200483731119878 
-0.01863452087995545 
-0.02186095242860515 
0.02490754340731845 
0.008560876503046396 
0.001024248351722076 
-0.02124594629911416 
-0.008303186585351558 
-0.004984477811382948 
-0.003613437700653401 
-0.0219752835398647 
0.006150413531276766 
-0.0206188644138647 
0.003026320861558768 
-0.0005623881383301334 
-0.004083667996943186 
-0.004517406564916186 
0.02932940853894396 
0.007247546245253822 
-0.004427772840909514 
0.005932292339149621 
0.03182249512034984 
0.02310107532360811 
-0.006272243627198876 
-0.01994028531142501 
0.001578867358859277 
-0.0325900193794626 
0.02015067156402099 
-0.004800321148474676 
0.0320744092495208 
-0.003865666197254321 
-0.0005684876993618036 
-0.001055948478311142 
-0.03219474325541917 
-0.01148240924389512 
-0.01379462990022794 
0.01736359545872651 
0.03254094321312408 
-0.02075445006920399 
-0.05612728778790613 
-0.0153860269360597 
-0.01575247530282907 
0.0123593441426887 
0.008408941781967083 
-0.004049013078471713 
0.007362088026606193 
-0.0008468886658106964 
-0.02817422808766263 
-0.01544640061321841 
-0.0046477243160318 
-0.007739600733078249 
-0.07373278065820078 
-0.04208862024726442 
-0.00982075283081933 
-0.02489942416114425 
-0.002298016259538758 
-0.01941972512357162 
-0.05470201127338209 
-0.01777976178808493 
-0.03776326676660354 
-0.01441519545487365 
-0.01186041824257158 
-0.004575495374792851 
-0.03096646044265444 
-0.01467079489901056 
0.009907386377386683 
-0.03303393020111605 
-0.003701158194864956 
-0.01581436837747543 
0.006858999572551512 
0.008051415054889483 
0.01585724898510938 
-0.01297888776829454 
0.005292271159313832 
-0.03413933293752944 
-0.05121876572995458 
-0.02564753760905401 
-0.01014047574934476 
0.01917424935569916 
0.01647726661661785 
-0.0175555667546301 
0.02406351931012657 
-0.008218695576552934 
0.004524472731671586 
0.02734915936294525 
0.02388881704849645 
-0.01358837420268474 
-0.0251418238733727 
-0.01219895211105959 
-0.009650525731738526 
-0.0224668397363892 
-0.01479246858964662 
0.005570014692429464 
-0.05307704333050426 
-0.01107951243244176 
-0.05452955138499589 
-0.01510263397297083 
-0.008860384347954876 
-0.001411316489954593 
0.03871361318091373 
-0.01135993388726154 
0.04653418698141604 
0.02904177103579931 
0.01854650511624453 
0.00902803433596136 
-0.0005646392636366721 
0.03099827265585941 
-0.004901061440320125 
-0.05798242222050229 
-0.0158584922629708 
-0.001778388773935904 
0.01976102099802637 
0.006626089618612823 
0.001586783941912689 
0.004937823398208676 
0.01437293305262578 
0.001640186402819048 
0.004747966259386407 
0.005707241502561506 
0.002325102820638972 
-0.006196586199850354 
-0.02878455015780251 
0.02091396298477909 
0.02429126392936301 
0.004702191367462086 
0.007374588106047564 
-0.03574732744504557 
-0.0158142455846781 
-0.04096384221905789 
0.006002668970902376 
0.02839329026218203 
-0.03300367224760256 
-0.03688023547233765 
-0.02456773974290326 
0.0132816552485716 
0.05522226453341202 
0.005882074850989725 
0.03154752314223586 
-0.002444638099793249 
0.01613418412280716 
-0.0110148093209962 
0.009621442833030522 
0.004338649394327367 
-0.007742100589785419 
-0.03245893961210904 
-0.006925879762480319 
-0.001282069702285122 
-0.03445963707317271 
-0.005866472748592158 
-0.007817870290291068 
-0.03171701920580519 
-0.0208246561878029 
-0.0162996129457879 
0.03969197235948577 
0.02597367209746085 
0.02454744424201123 
-0.00533430454416275 
0.01627310539632039 
-0.03221379011847728 
0.03895253672833306 
0.01761534189504893 
-0.005188569657286303 
-0.0061014262400936 
-0.0009445246132321036 
0.006032339681590629 
-0.002083829351990175 
0.03259749776579925 
0.005297092083155397 
-0.01734680964069151 
0.02742111673197638 
-0.02632421372326852 
-0.02389503729800206 
0.01163712588412344 
-0.01880276202299013 
-0.03090716297482709 
-0.0230745475309399 
0.007048136979951424 
-0.05469863136015533 
-0.02477388313585439 
-0.04089241763332702 
-0.02510929391172049 
-0.007451035321756291 
-0.006716643845953337 
-0.01206876525470374 
-0.02653700627995246 
0.01309721161165093 
-0.05475285437375339 
-0.0217604340401701 
-0.02875660183207542 
0.01664398365187981 
-0.02501734154859997 
0.03830917416250041 
0.001996655677061614 
0.006009104299871018 
-0.005521760924429233 
-0.02979098024557677 
-0.009818764325582645 
-0.01633232602874159 
0 
0 
0 
-0.02056298298750034 
-0.004235337081266744 
-0.01109475453177619 
-0.06704331251895503 
-0.03237979777477872 
-0.02348384408720208 
-0.01063115272474546 
-0.004553560507299229 
-0.02353963299168837 
0.08160431636489913 
0.05172539268592476 
-0.0005620050151830887 
-0.01228293154802145 
0.001161202423584357 
-0.01096565404201077 
0.082771644701887 
0.05867549311818835 
0.01098044341660324 
-0.03642424588910557 
-0.01967049752387469 
-0.00574270646444169 
-0.02056714234706438 
-0.007769200398210302 
-0.02977367563087286 
-0.03414353688847916 
-0.02423934010406682 
0.0006068569815214054 
0.008520004304528329 
-0.005381551276934854 
0.03287243832806776 
0.005467183051898828 
0.003985694446079767 
0.006551235121169354 
-0.01591446712100877 
-0.01427919666219014 
-0.002061408599642944 
0.005176754917478629 
0.02215083294749577 
-0.03054070082966394 
0.02181995964325205 
0.03516222081450129 
-0.05096812104985587 
0.0002371276230071148 
0.009610927543868818 
-0.003055417091465665 
-0.07722441348723388 
-0.02932049313451059 
-0.01899831132862548 
-0.01575883943300073 
-0.02691009902422285 
0.0145587903153308 
0.02565718636370104 
0.006498152895579182 
0.008878679935013798 
-0.009892444060747088 
0.008670799966704099 
-0.009922545370256525 
-0.01750512102288174 
0.0298398897957608 
-0.04737385304238528 
-0.03131281379294254 
-0.01224448275313499 
-0.006597861661988906 
-0.009372799854860807 
-0.000489755070645448 
4.591260329125235e-05 
-0.01375939322129052 
0.0059712455309103 
-0.02455665959244702 
-0.008156539162607482 
-0.01341783527289057 
-0.006852486426876706 
0.03851791352689683 
0.01660412417500069 
0.02324132757768249 
-0.01352658313521793 
0.02104042268593989 
-0.028556485719275 
-0.03457686405430266 
-0.01504400355298178 
-0.03493595729693667 
0.000805849650379627 
0.002470990486697103 
0.03594193651063484 
-0.04838780756700996 
-0.02127274067531322 
-0.01646027069739218 
-0.0648933188179872 
-0.01826177235828833 
-0.05544536907071316 
-0.005519526860095329 
-0.002281379518005761 
-0.002777247388151764 
0.05148222396627334 
0.008516226008083841 
0.03437713351254776 
-0.04568603795324357 
-0.01814780073601177 
-0.02495772131144572 
0.04721368191552873 
0.02967484265545916 
-0.006621007535043159 
0.02310997052375443 
0.0144519663864497 
-0.01069027540873565 
-0.005973763792072687 
-0.001506614213847187 
0.01107929393581129 
-0.02495204905629551 
-0.006152699035642382 
-0.007115296453695443 
-0.02065811353970408 
-0.003043092139323146 
-0.0252320133806553 
-0.008793833559067033 
-0.00100194093974678 
-0.02177886955995606 
-0.02495285162954923 
-0.006628885679221943 
-0.01620419981890017 
-0.0007278357248511296 
-0.02046211012243102 
0.01494317686086369 
-0.06395435275712687 
-0.02383468287104695 
-0.0367058357190924 
-0.001781517518131397 
-0.006698346071412053 
0.02346854716082394 
-0.02612915969380902 
-0.01226178996314098 
-0.01877868065524897 
-0.0003320710325724747 
0.005566406420913827 
0.0006760938624831198 
0 
0 
0 
-0.05749748905347422 
-0.01299607898166923 
-0.02007291683981746 
-0.01758360689545151 
-0.009081738967234083 
-0.01653727467908759 
0.004709417934939251 
0.002752581781880984 
-0.01372869913699406 
-0.005494723061106689 
-0.0001777849357993185 
0.007660188577047159 
-0.005270081152565506 
-0.003411038702147123 
-0.001863461290890783 
-0.006972209963360038 
0.01216672074316493 
-0.03526750217608858 
0.07317163162482361 
0.02346373831804664 
0.04398524250656808 
-0.01744401655422939 
-0.005038588708375384 
-0.007532560239386279 
-0.03272886322911008 
0.008694268432432909 
-0.01817415086776145 
-0.05689616219634017 
-0.03383005949600612 
-0.02755264024334322 
-0.02743656775966481 
-0.01289099281134994 
-0.01508584409203586 
0.02154691847205052 
0.01196741363901587 
0.01045687976778353 
-0.0006454653396516165 
-0.009351061302887084 
0.03671162045411211 
0.01876715707468549 
0.009452373563854347 
-0.01295515953435988 
-0.007156473562636944 
0.001438052067349326 
-0.005835513051434866 
-0.004971812232702094 
0.004758971917918355 
-0.008169904252608013 
-0.01661970894162385 
-0.00208979382779586 
-0.01905949118544849 
0.02929221372777266 
0.01528484984589067 
0.01102640516955234 
-0.01393568686352912 
-0.01698088004479482 
0.02557248263863017 
-0.02275036287859833 
-0.01257137906638535 
-0.003885119008921728 
-0.02470570046479283 
-0.01134562376803152 
-0.008621430444317318 
0.02540082397719429 
0.02524092695795639 
-0.009840744463365596 
-0.002320593071785788 
0.02114970370200145 
-0.04880986703071351 
0.04004924437952872 
0.02542433966166292 
0.01619578783694233 
-0.04086326173718745 
-0.01949818551287947 
-0.0194608642525958 
0.03237551409668264 
0.03332633350886546 
-0.03940764616554987 
0.008082183141720491 
0.03247833886896818 
-0.04023065468380514 
-0.004663900706763188 
-0.00585258473547961 
0.01456140840692968 
-0.01787583246175571 
0.01313679911423201 
-0.03482644088476996 
0.01546761764192006 
0.01099852850548443 
0.008773720112027285 
0.03188595357584564 
0.03149899965545262 
0.01651979509217852 
0.01578010386698773 
0.01855469063165741 
-0.003507175271555958 
0.01347922420675643 
0.009334969398117154 
0.0007549898905121202 
-0.01421354135731901 
-0.002950828391746145 
0.003264538696265072 
0.0006502118001921403 
0.009541281156207677 
-0.02440010475939802 
0.006131620894128022 
-0.009643586500203151 
0.01294797753749325 
-0.00580472036418236 
-0.02483064661432452 
0.04815550159077288 
-0.004542824330501301 
0.01098555338943507 
-0.02459910450778013 
0.01980686840577737 
0.02208410594249325 
-0.04162120417191976 
0.006970245754530201 
0.01296854433034343 
-0.0004956204003317643 
0.02063015548132922 
0.02177551168247445 
-0.01110067256892188 
-0.0004125233071244987 
0.01485650633438646 
-0.00306043240684761 
-0.02235867835643016 
-0.0007012570463342556 
-0.03535065286830403 
-0.01234579811367758 
0.01840876400675574 
-0.02055848934858641 
-0.06412208522724192 
-0.01851361785117434 
-0.08842219783948443 
-0.01081499834812222 
0.003844108544751372 
0.004779849485127675 
0.002151966078495672 
0.01676184643294062 
-0.01679032786198503 
0.04165284926890223 
0.03256779841070618 
-0.01676585992734191 
-0.01440412209111586 
-0.007755907653691404 
-0.005623340476363417 
-0.05062285488160497 
-0.01884942498002048 
-0.006561245998983698 
-0.01117010968735234 
0.0007027522110220159 
-0.03374228261690049 
0.001890523287872459 
0.003085126353113343 
-0.000331576484420893 
-0.03707796928167915 
-0.02027811404902152 
-0.01036529246696006 
-0.007690036274559117 
-0.004519918857440353 
0.002443101455113865 
0.00461632609623135 
0.002590451805515098 
0.01877893617581734 
-0.08468954866708497 
-0.04888286247263738 
0.0008076597145320828 
0.01207474010823282 
-0.007967200503803553 
0.000585201124337802 
0.04096436035474438 
0.04514978523179231 
0.006806865757211856 
0.03665229247138869 
0.02754315032625606 
-0.026380205618416 
0.02226201433295781 
0.008943766190992122 
-0.01027449364472369 
-0.01473167763690919 
-0.004500313771902224 
-0.02476366059346077 
-0.04996476400548503 
-0.0252011909693967 
-0.02747878181911081 
-0.008982000079658046 
-0.00773654137108635 
0.0003513256348202051 
0.005635009742483764 
0.008251706521315976 
-0.007543885220777587 
-0.05198021671211493 
-0.01834659604305056 
-0.0356563259047182 
0.03035395016056427 
0.004253806367588564 
0.01654691389832799 
-0.004808851434781819 
0.02470207086980868 
-0.04428689683965767 
-0.02418829006739892 
-0.01159926358171532 
-0.008258655846084524 
-0.008699547285819318 
0.01581710634423333 
-0.0161862747832112 
0.003384065959449753 
-0.004426777403580474 
0.03562855357919906 
0.01930861694244825 
0.0007383058573177957 
0.00725634897792549 
0.002411804210434012 
-0.005201457020953005 
0.02058113568868362 
-0.006959875224771902 
0.004727874394587018 
-0.001139742551633597 
-0.03334740886032678 
-0.01575540304224796 
-0.00828800049831863 
0.003507316011287015 
-0.001782420322227851 
0.02214651996267576 
-0.03894568823009489 
-0.03267169122474842 
0.008105008694744065 
0.0419173659153188 
0.01163011295215079 
0.009388968435080773 
0.02016055049972891 
0.01977983285047153 
-0.008436977333076199 
0.03900101523863157 
0.01280292105029049 
0.01556476421677519 
-0.0173566108593264 
0.002636740241765847 
-0.02380435184785491 
-0.009481025555653643 
-0.0007623688898483501 
-0.01713817028050232 
0.04356393999815813 
0.04323803532003634 
-0.0419372548040378 
0.004969480438709648 
0.01114022727430828 
0.03046496191338713 
-0.0159551056402624 
-0.00596256208956584 
-0.00762908853565179 
-0.01188831511064494 
-0.01121589200491975 
-0.006581187459718727 
-0.04483687097564769 
-0.008105215180751683 
-0.04577826380017606 
-0.07975767083222374 
0.008019290453196302 
-0.0868862022623713 
0.02397765738920679 
0.009197888585428145 
0.01659456748317917 
0.009115048137574223 
0.0189367729002354 
-0.007237383024926536 
0.03407978889376502 
0.0224428013561905 
0.03433124737652455 
0.008755640633668247 
0.04982352204467719 
-0.01589997840455042 
-0.01008909764723946 
-0.02083751438245035 
0.01858136863936909 
-0.003959334150267552 
-0.01411229225778283 
0.01257485868741929 
-0.004921553494662635 
0.01649391355570954 
-0.04345807076017789 
-0.002839739688424063 
0.01657457938293917 
0.02422438562397699 
-0.03205404146531485 
-0.01313668770811284 
-0.02664240418098976 
-0.03629731518769734 
-0.02043919118084465 
-0.004697866700827157 
-0.008768785305597682 
0.0193948592727882 
-0.06285673078384864 
0.01617402662047294 
0.009935642291512566 
0.001172033215585857 
0.02183030913967724 
0.01992590317437168 
-0.01818884353872368 
-0.04098495785847931 
-0.01020408441858272 
-0.008566679734067649 
0.01126072779129122 
0.02975192766944462 
0.02043717543450621 
0.02886241633933213 
0.01007602849354051 
0.01574125978558025 
0.02199906294442816 
0.0140147353372946 
0.007362743933420016 
0.04075195191367486 
0.006353061031874117 
0.01790804825491577 
-0.005425939406803326 
0.02741087859416353 
-0.02493260159030693 
-0.01614386031800434 
-0.003392696223693298 
-0.01504063438696642 
-0.002796113541633278 
0.002014877146982126 
0.002057371479735189 
-0.02322879035192545 
0.01063573887763531 
-0.0566962313325668 
-0.0766859996259899 
-0.03967852319878818 
-0.002286263152694391 
-0.005956741824904167 
0.007517525622812682 
-0.01747635905518147 
-0.001133867101667709 
-0.002781401000880559 
-0.0001683759590770207 
-0.03074660562178709 
-0.01066527684184941 
-0.00429489672410021 
0.02982968290590855 
0.02383380975878349 
0.01427610038107658 
-0.01815405855246833 
0.0001189850058752934 
-0.0357678263906125 
-0.07878198134263072 
-0.01295716098962854 
-0.04318942658388298 
0.04974176267377312 
0.01662568540174677 
0.03098586373185488 
-0.04224995892525495 
-0.01608091476799161 
-0.01014491909469131 
-0.04594411467468711 
-0.02229097286872499 
-0.02510434839105546 
0.009198365175289628 
0.009451609452830538 
0.01162757664270242 
-0.01081176561162614 
0.002602106166920381 
-0.0008738710474721003 
-0.006060171036869994 
-0.003542364048261326 
0.0004172927637320435 
0.02130094830524682 
0.01719922903915056 
0.007219727934843886 
-0.008537568272858004 
0.001850343287290611 
-0.02489860709615188 
0.04214046122365616 
0.02551792045983505 
0.01158515562436054 
0.006127082516144844 
0.01904514119868586 
-0.009116495711826331 
-0.004617001260792177 
0.003298313385888919 
-0.003682846092322569 
-0.01207863700687643 
0.003014406121220061 
-0.0211187886796285 
0.03122509810206389 
0.001895869067411215 
0.06517610643216747 
-0.03893684176729421 
-0.009985752183959144 
0.01574613586685745 
-0.01986715678875741 
-0.01078528476802789 
-0.0001317406199404615 
-0.01659282859750572 
-0.00583933253126929 
-0.03452475438755594 
0.009582688928322643 
0.003850347544371937 
0.02443924429362976 
-0.03288020046029139 
0.01062630729736169 
-0.03072482087347519 
-0.01720663576696994 
-0.002590221919685637 
-0.01956283430690031 
-0.02137019558568482 
-0.006343179567164247 
-0.0206653056589231 
0.03275208720085591 
0.009334028891654328 
0.02162765999645612 
-0.06883687284883623 
-0.03437412572793198 
0.01261353537668858 
-0.03643342955577279 
0.01248981021494095 
-0.04049046650261773 
0.02114873848341749 
0.02629623239475313 
0.001720964222725489 
0.01884360662619908 
0.01488343641854278 
0.02448568379247698 
0.02395106990953191 
0.01249307169126022 
-0.01801927677962895 
-0.0218608662313992 
-0.01353779519159999 
-0.01014864135499629 
0.0143134179726509 
0.01057150232420713 
0.006163107731423736 
0.005415722299257794 
0.004457812988756277 
0.002773561999356914 
0.02941243017807572 
0.02776201350423396 
-0.02033599180145737 
0.0288946903037954 
0.03082923871397006 
-0.01202219078960952 
-0.01115750320251761 
-0.0022256883492445 
-0.002932141941929616 
-0.04215397612134594 
-0.01284962896939569 
-0.02968337246469365 
-0.02445006208484512 
-0.008306927167754486 
-0.005715943683011541 
0.0616085931588759 
0.005918295042317766 
0.06971809967759512 
0.01167132555211465 
0.009488351313748582 
-0.01004276479662476 
0.02525583940125404 
0.05615400881634509 
-0.04010899686811194 
0.05196510051891281 
0.02864296920541222 
-0.01102225273579231 
0.007011945725494712 
0.008062726464902928 
0.000200451962442064 
-0.03719765986028742 
-0.01457552319903435 
-0.03487768433822262 
-0.05917177558848041 
-0.02714845644060954 
-0.009839934038639904 
0.01601257204609998 
-0.007405760435410164 
0.04508249546220832 
-0.02210544274309391 
0.01711247051017559 
-0.02914978107101491 
-0.001688194526695981 
0.002426826336463682 
-0.005449524117622914 
0.02953665256835914 
0.01150234065455704 
0.01322187618720668 
-0.0005923673203637069 
-0.003187128666058988 
0.0063173456015703 
-0.04410850181004009 
-0.005751594347719391 
-0.02132262950017526 
-0.01308475030148602 
-0.006126683169096809 
-0.001279066743340118 
-0.06251413585016695 
-0.0348343516764593 
0.000603898871531022 
-0.01057906926795668 
-0.01959030661229436 
0.02182554314405931 
-0.0413672646631084 
-0.02569275520609562 
0.01041721566990311 
0.02747299142904495 
0.01411591765250537 
0.02209349556601974 
-0.02624704054794421 
0.0007439015819038018 
-0.01520572777018517 
0.002833590451846584 
0.009099576146876492 
-0.01052402660252488 
-0.03410083552809721 
-0.01397319877700831 
-0.01878515921139667 
-0.004917113532527572 
-0.007248704854386995 
-0.001790181954615387 
0.05310630608928396 
0.03478253284423106 
-0.04156174049634106 
-0.00658624040119837 
-0.006867479298129709 
0.002065240660265872 
0.01381130207435755 
0.01171040658509641 
-0.01001377619741472 
-0.006237643694684642 
0.0003814102680413716 
-0.005044631369199564 
0.01881115614878712 
0.02481880940499274 
-0.03543525309696099 
-0.004662974322184726 
0.02803763546533821 
-0.009422068140185107 
-0.0251018191755864 
-0.01589686032346123 
-0.009934545815530476 
0.02579692618487198 
0.0005239006111191475 
0.002122538532061778 
0.01872978276814733 
0.04120726335413404 
-0.01282265328206579 
0.05851183842413332 
0.03618841900047959 
-0.01029547505874023 
0.04843216335349089 
-0.009641704916890865 
0.07409340179819468 
-0.02854047151177295 
-0.01434730321455006 
-0.001671559618185817 
0.002835580657068269 
-0.01114295525754923 
0.02055412916982316 
-0.01200459463628958 
-0.006774142645439835 
0.02453312845569614 
0.0324797332407421 
-0.001908909130206374 
0.01684426405055016 
0.009591478266014222 
0.02964629186917707 
-0.01006950503779629 
-0.0310447577425916 
-0.01269327995088101 
-0.01130074048255652 
-0.009937606650932193 
0.004782381567271641 
-0.0003279575696415642 
-0.02586782314939259 
-0.008896843940053809 
-0.02842435221215278 
0.09024767225872575 
0.01967455232288638 
0.04933737881288801 
0.02193310343594924 
-0.01777474263684132 
0.03879001214653565 
0.002740225795317387 
0.01396954169715453 
-0.02454895238084368 
-0.0518623165531605 
-0.00833860164042358 
-0.03195492371019507 
-0.05011645073429851 
-0.006413545814735131 
-0.02303512962541651 
-0.001774524034260605 
-0.03964187037376285 
-0.006849653678913201 
-0.003165875400408128 
0.004860058623202418 
-0.005728885546071873 
0.04742169240341519 
