solver_type L2R_L2LOSS_SVC_DUAL
nr_class 2
label 1 0
nr_feature 12288
bias -1
w
0.02397454971002622 
0.01383111860408762 
0.01644743842490972 
-0.01831138505464319 
-0.01980297474496649 
0.01211512761730193 
-0.04665789145429786 
-0.0241895591004784 
-0.008241556216596543 
-0.0040009212548693 
-0.0004120768369365707 
-0.0002164721686428809 
0.01670365439874743 
0.005707509624605618 
0.0174654815217655 
-0.01009257388838841 
-0.001635215698492004 
0.01671065399713835 
0.01504121000593053 
0.009293893518567561 
0.03253766970009041 
0.03823649267595416 
0.04478746132107407 
0.004155582547218605 
0.06316376055150043 
-0.01231750214774491 
0.08087643460097356 
-0.0226184066767412 
-0.0184640662643548 
0.01947167447306187 
0.04057652758416042 
-0.001673612045411908 
0.03177114177620196 
0.06594488996765685 
0.02414604582257527 
0.0257281808964734 
0.00198300037649931 
0.01002111317043718 
-0.01884882234688383 
-0.005287781879292295 
-0.002921841569494866 
-0.0002186614989707816 
0.04688086157869209 
0.03419657132855437 
-0.001632998289011744 
0.008099372108796386 
-0.0219261857284549 
0.02602314947192218 
0.0510123321706135 
0.0101946868616655 
0.06179047265725091 
0.01111631620064526 
-0.004608994151920019 
-0.0006272276229620004 
0.04485920729947126 
0.009037276556073628 
0.05002335976436502 
0.05592083009976118 
0.03047820891491134 
0.02123520717542337 
-0.02073748256386653 
-0.001496051443958376 
0.01355387778428964 
-0.0525983700405147 
-0.02003923243417548 
-0.03195822582790381 
-0.02274601282980823 
-0.006930689573985245 
-0.01209013545214946 
0.03719694518756553 
0.02790073987806464 
-0.01611090114258669 
0.01303662295417131 
0.006550548166822792 
0.01261133104555645 
-0.04129835552755688 
-0.02122326943438584 
-0.004305145871674571 
-0.01859600127942485 
-0.009307184023724522 
-0.002854918433817522 
-0.01330022646713265 
-0.008612648686806607 
0.01496452111464802 
-0.002767683121875621 
0.01681208506056106 
-0.03848092698486717 
0.01936881520491777 
0.01373032072960821 
0.004095340789016321 
-0.03432949846425293 
-0.01302485873766453 
-0.0459197823187091 
-0.004385183163199051 
0.0003690278198292066 
-0.01082350325538897 
0.0001720089716697452 
0.00326568685995852 
-0.02152858840623039 
-0.02220070693181405 
-0.01330157724132053 
0.0005024133173317917 
0.0163992201817507 
0.001599433349442364 
0.009219041479428345 
0.01739759624675691 
0.02062845741066158 
0.002419916405771428 
-0.03557894924769689 
-0.007119848743273014 
0.0009553847992280533 
0.02181261445619136 
-0.002375278611038543 
0.03424706699492552 
-0.02643623535712654 
-0.02497394911292702 
-0.01919562489195575 
0.008092300013131156 
0.001891029664501498 
-0.002817751541049569 
0.006216823908528494 
0.005756633619163685 
-0.008009898199881004 
-0.01324607519736068 
-0.006787621304049457 
-0.001818643674952522 
-0.06309072984184366 
-0.02921157275048821 
-0.01289462826244144 
0.05414579041270996 
0.03424742745626166 
0.02804134377017476 
0.01245079317684711 
0.007413169864663636 
0.004650310849675624 
0.05076688199245199 
0.00273388318134934 
0.05614882459708218 
-0.003449865373908936 
-0.017556181967643 
0.0147705759108887 
-0.0683604007053569 
-0.03479495454130888 
-0.01203575341255955 
-0.02065620755588082 
-0.01198520831173732 
-0.0004127733588311594 
0.01321645342369863 
-0.008537613354561577 
0.01001978324266658 
-0.0007956037435001599 
-0.006059204437994192 
0.00268588148075296 
0.01306224442668269 
-0.001593523479686902 
0.01288652023666325 
-0.007014144110686667 
0.002218837216152808 
-0.003554487117812525 
-0.01855348470625445 
-0.01040506351914535 
-0.009173447220201176 
0.02045451065062139 
0.01319211850674251 
-0.02511908908830949 
0.01066095662796128 
0.03264388164372917 
-0.01677813116092525 
-0.04283629054375561 
-0.01743612509689255 
-0.006536153134459383 
-0.01653827042976991 
-0.009068082178639053 
-0.01781053857683586 
-0.01266461323871142 
-0.007450319477624796 
-0.004518174344952303 
0.03255599712217397 
0.01584388575596201 
0.04090741899646696 
0.03018673414303425 
-0.01606624639975466 
-0.007461289830076675 
0.05577483300484343 
-0.01623711171896235 
0.0504215824284956 
-0.01583149857939377 
-0.02485524877215856 
0.008448675886044628 
0.04525428941026149 
0.03685185387383252 
-0.00183168282661778 
-0.01158131709238591 
-0.007068632854688022 
0.001762678160260953 
-0.01725237685985607 
-0.009345434760692521 
0.0028018400173156 
-0.05072300051951453 
-0.02853250112600252 
-0.001619520001866583 
0.02697079788916772 
-0.01404113498066828 
0.001684844461140702 
0.008503651138463781 
0.01068719803920064 
-0.01124417106988423 
0.00781074454365738 
0.006613180075505124 
-0.005940309670296842 
0.006512080560143659 
-0.002721236939862275 
4.618381404854204e-05 
-0.02923256777337617 
-0.004039719224106003 
-0.02945769782302684 
-0.01468563285215804 
-0.008607615354223788 
0.009009987629547364 
-0.02759479755490098 
-0.01295676233270965 
-0.00787293444411879 
-0.01219235283400008 
-0.008504584598431925 
-0.009171760743104839 
-0.002474916842283992 
0.005274750102594443 
-0.007165110123908278 
0.05930675627773555 
0.0138299927407872 
0.007248994501832587 
-0.008730518614857246 
-0.0008468081666399357 
-0.006587156649800096 
-0.008267719687687972 
-0.008196311867676546 
-0.01002676851475841 
0.03671895609029308 
0.009430995260686154 
0.01163062991988454 
-0.004456865877419681 
-0.002510807994121447 
-0.0007981761201089269 
0.05266467972795887 
0.01408193206549718 
0.03899717609699296 
0.02252627051535969 
-0.01769772678656086 
0.01408554295222003 
0.04774239151412192 
-0.001555667767186067 
0.02354479463838911 
0.007325491648655283 
0.007644830888386669 
-0.00975819226939822 
0.01754999531564207 
0.01454169834588612 
-0.04637704686199484 
-0.02959797700366398 
-0.01262384705263838 
0.003403810505255117 
-0.02113673719724074 
-0.01853224460648745 
0.01958485603071879 
0.02362322352942756 
0.006171787382148133 
0.0209391185368698 
-0.005870139852230422 
-0.003424987227024466 
0.008452415122073351 
-0.03804303878751607 
-0.0172051884846929 
-0.01211089149354257 
-0.009189022268630307 
-0.003191872384730306 
-0.01597089899161163 
0.005202653979055332 
0.005185916951590738 
0.005045974338287434 
-0.05900252539396342 
-0.02536953800150068 
-0.01029605104098692 
-0.01217852736790232 
0.001378042067758614 
0.01836458896154125 
-0.03210077946846993 
-0.01402126925761783 
-0.0245582049860938 
0.02058536280636698 
0.00318052822891928 
0.0206938126228186 
-0.04417209034046157 
-0.01839231374328696 
-0.01855447335894089 
-0.0197684748134035 
-0.007415952276275765 
-0.001061626685157848 
0.005507825020790723 
-8.037963180550213e-05 
-0.001107935705370405 
-0.004476526727025227 
0.0007172709471378882 
-0.003137137341770576 
0.009439878632607899 
0.01102344827145278 
0.01108227776765809 
0 
0 
0 
0.007474298550477884 
0.03653827027207589 
-1.426124810903719e-05 
-0.008901776532199807 
0.001995875239851432 
-0.01008236578141305 
-0.03040810763730983 
-0.00636523232151151 
-0.007950130015412227 
0.001976654635971862 
0.005290370912724495 
0.01181685778884309 
-0.01756669690272041 
-0.02474172857133523 
-0.02116233347958781 
-0.0168646382390752 
-0.009225997661489883 
0.009098341715290571 
-0.01015686309561985 
-0.001052020819759574 
-0.003911517287088331 
0.05670378362301657 
0.02011721816336454 
0.03644076595956058 
-0.009046338167885372 
-0.00030144285608384 
-0.005939868205024439 
0.04765256994085796 
0.01673190451448918 
0.01119087067523075 
0.003177886535180765 
0.003800049186121761 
0.002503326387813393 
-0.03334374395733069 
-0.02173859979845845 
-0.01339570093408786 
0.02427103818377917 
0.003072114419051233 
-0.0010603201308678 
0.04180500643011572 
0.03631340616058557 
0.01100012334026266 
-0.03647355419921979 
-0.04061306945546826 
-0.02198803528393178 
0.0004801871405221995 
-0.02044386741934651 
0.04587424099538844 
0.03177778342890215 
0.005073506139540867 
0.02864269351677757 
0.01038666128725317 
0.01475804203728937 
-0.01530197696803647 
-0.03416793938549045 
-0.007456404550310471 
-0.02011434397341682 
-0.007758602872347778 
-0.0144533603238896 
0.01603908211675392 
-0.005764086128516361 
0.006042330209494494 
-0.00617568338605416 
-0.007631820227804777 
-0.005096699614358509 
-0.0002427008516234253 
0.06874895063316601 
0.0008711842017622737 
0.03444342419511498 
-0.05901318878029552 
-0.02788044487884225 
-0.008586560530382963 
0.008885616174972565 
0.01331667690832301 
-0.01953521758268564 
0.007673888681422074 
0.007233855956650434 
-0.00253392284813597 
0.01315878026315363 
-0.005344910451716403 
0.02881076859029774 
0.01956698695878036 
0.01381939988255019 
-0.006381654839719761 
0.00255569765056959 
0.001107820449176386 
0.02145525095388432 
0.007794912505263981 
0.004908871000691356 
-0.005511066407984576 
-0.02416420716401623 
-0.01225991995205264 
-0.006099852374954744 
-0.02832463542110515 
-0.01061538080103673 
-0.02028067998461479 
-0.007754200928291819 
-0.01679610801222684 
-0.001387004059153175 
0.004217262406048225 
0.002470881232040628 
-0.001017572857871629 
-0.004305255352030419 
-0.005000684458162015 
-0.007446722857401764 
-0.02172530701417527 
-0.0122933451435314 
0.003735844671917753 
0.02974740728123206 
0.0239776793639404 
-0.01627854967209948 
0.0294983478768199 
0.02705310891707108 
0.0189388535647446 
0.001390102319195702 
0.009969250518428209 
0.003099145376808996 
0.0732501918499866 
0.004312770599678209 
0.03050445843958152 
-0.0338570787745929 
-0.03640518647977115 
-0.02065435477736203 
-0.007107482969255102 
-0.001678039865628037 
0.005446110294592158 
0.01668215820740661 
0.01756448348295269 
-0.01467264979756024 
0.031383472700573 
-0.006601287654324404 
0.01797463610966365 
0.003711978514092929 
0.003917532513169674 
0.005589571476291325 
-0.04969338048681222 
-0.01753924156558424 
-0.02222383507517895 
-0.05143237243540783 
-0.02933884783655902 
0.01755410536050736 
0.0100203905310092 
0.03029501142835787 
-0.02310566823417231 
-0.02954453255257515 
-0.01683475267707615 
0.01001425161632547 
-0.01502846310386298 
-0.002733176394946848 
-0.01458441263168039 
-0.03191200939422792 
-0.0121103922012794 
-0.01589431563530487 
0.06604338095572458 
0.04172262943286828 
0.002624305173854704 
-0.009470579128418335 
-0.0003040013702237414 
-0.004653278913098156 
0.02630720379888452 
0.01772741389083675 
0.003728987456486843 
-0.007460017267983963 
0.02270041050868512 
-0.019701919215854 
-0.01490264101610189 
-0.007590404595334399 
0.005120307602041091 
0.01634524732583114 
0.001102159636435944 
0.02967218213596704 
0.01935251091532891 
0.0115970160866186 
0.0001852890985909779 
-0.06980111417955484 
-0.03593469834309809 
-0.01817546949782968 
0.01897540970243377 
-0.0001740694169683316 
0.01886001786574168 
-0.02112693666580892 
-0.0128573319393318 
-0.005546545907419926 
-0.0486744906051825 
-0.02497739908883307 
-0.002405339783268114 
-0.02164065153060381 
-0.005970076212402677 
-0.004582619010955506 
-0.006012540012039923 
-0.00242935375648848 
0.000801336470007209 
-0.00293134430918747 
-0.02023255590951663 
-0.0184806915032381 
0.01047526344835066 
0.007380104665334609 
0.01641089473155879 
0.000701040435688635 
-0.0005833869454087986 
-0.000199556489261919 
0.05470072642497024 
0.03147234889188057 
0.01439629527484211 
-0.02110855285969588 
-0.007666150123672746 
-0.01285298548499662 
-0.01962013541302121 
-0.01136981808662177 
0.0008107543128829859 
-0.03187146737667759 
-0.008483369151184039 
-0.01592898160102343 
-0.009509542203614307 
0.004614156677410991 
-0.009845266407770659 
0.06494628919105706 
0.01887531557744214 
0.0356804998817316 
-0.03467802647358776 
-0.01605558667282628 
-0.004670478032062361 
-0.023153873229147 
-0.01778737842763901 
-0.00693175877877304 
0.03481467014244192 
-0.01049065897698297 
0.04322759744888155 
0.08838078673073428 
-0.07768216641059382 
0.04903209143571039 
0.05440406284943426 
0.03163612521235636 
0.01630164113887519 
0.07832765937910763 
0.02923770532611582 
0.07359488614498384 
-0.05581963439207821 
-0.02238231085004427 
-0.01620419263866655 
-0.01422373169889524 
0.008239804068696783 
-0.01571383198957275 
0.03613115222063409 
0.03099254262583732 
-0.001006917875473985 
0.03086281937005625 
0.01483349722812615 
0.003540683627359365 
-0.02464878394609733 
0.001387984300411538 
-0.02605667886416525 
0.04178481867770235 
0.02498898388396514 
-0.00760852123440107 
0.03873784300266274 
0.03228964846025621 
-0.008803986686041043 
0.02255974607837585 
0.02284337121045418 
-0.03096380617498399 
0.007264422727134717 
-0.0003972590677900029 
0.008105895325863612 
-0.02679195137510581 
-0.01070059699600486 
0.0006415589587547659 
0.05812014455335942 
0.03566665819221333 
0.009018475711918099 
0.01573358911352588 
0.02221386674582527 
0.006344695775442355 
0.007329420455615752 
0.004749581938031557 
0.00139098610309454 
0.01242210870944522 
0.008145707808123464 
-0.005964411686239851 
-0.07556883109897886 
-0.03368183380287813 
-0.07216102509786732 
-0.01722252084093151 
-0.009241849739338297 
-0.00248870184560022 
0.02210488166376151 
0.01697211409681383 
-0.002019823625136359 
0.003008250653560099 
0.002991178895234067 
-0.01350186345654598 
-0.006172939926207761 
-0.00430692924225324 
-0.002385349602465855 
0.02248305586591548 
0.002815288090557572 
0.03852367879550679 
-0.01335385655950918 
-0.01872860199904125 
0.001256575914709637 
-0.03752833448056365 
-0.01965674993703807 
-0.03114600705619248 
-0.02715683436569103 
-0.00436719952425149 
-0.001820361877514161 
-0.02086429337641533 
0.001302835476637571 
-0.01841600262193036 
0.01568004491812963 
0.01180270817080897 
0.009400228903685064 
-0.03520838599691894 
-0.006226698848339676 
-0.008006767667904108 
-0.007849529611642798 
0.002378581064052833 
-0.02697500044745797 
0.01524417009869704 
0.01642936861885329 
-0.005051048527502778 
0.005976906583492368 
-0.00622947479428233 
0.03226908510925417 
0.010248991126934 
0.009526225781983142 
0.004648790435175076 
-0.02162845684715904 
-0.007823871720294969 
-0.006991574081217786 
-0.02571691520091524 
-0.01329717946144619 
0.01026727795301647 
-0.03106970863932482 
-0.01121664443993492 
-0.01656776660396241 
-0.03855396865931135 
-0.01588719662507997 
0.001174290659174385 
0.0214889367568901 
0.005967839675118878 
0.01337939682861085 
-0.01567852478925804 
-0.004096756631735313 
-0.00850451475169919 
-0.01275387102721575 
0.003162721767248857 
-0.009734251662633527 
-0.05596487139470212 
-0.02909500954202335 
-0.004266370465629292 
-0.0003833692958064923 
-0.01663735152343684 
0.03854310246609326 
-0.006792481873217493 
0.003991601831833993 
-0.005019764975585663 
-0.01231660466488206 
-0.003184314331939363 
-0.001978031358111302 
-0.007752231015717514 
-0.003324079708573326 
-0.002866036563141133 
-0.02122465104472565 
-0.02195218741845626 
-0.007184003772452288 
0.003156319102948773 
0.006646905662873638 
0.02713356763076892 
0.03006411437538545 
0.01935780455105364 
0.01015682404361057 
0.01914670934257079 
-0.03378011720568917 
-0.009288157524655621 
0.009834430378625547 
0.003055710073034902 
0.0169199889674425 
-0.001066267905057258 
-0.004898867788039787 
0.01788116014798913 
-0.01111662217652623 
0.001530570630901556 
-0.01224059468994737 
-0.003287105360116013 
0.0004328390050591238 
-0.01288208210679409 
-0.05294279926053838 
-0.02780347260138894 
-0.009237406794927981 
-0.01157544726211115 
-0.006718862748891961 
-0.0005813026834510817 
-0.01930190502318323 
-0.0006566063366212864 
-0.002064784882259869 
-0.01937903990606443 
-0.01482425313218244 
-0.01314600616758672 
-0.00134768837033252 
-0.001203562662545306 
-0.007060998861666401 
-0.00292996112559351 
0.001579822256527146 
0.00193818844281096 
-0.03089271093875394 
-0.01076771939142815 
-0.01571397674531003 
0.02540438554203808 
0.01229452044364455 
-0.004249428750627647 
-0.002344710581823736 
0.01227245828094653 
-0.006087531062764585 
0.04387620718452962 
0.007124628524346033 
0.02662689422227946 
-0.008893953437777564 
-0.000972452131504146 
0.006017033051636773 
0.002123193766021688 
0.004241878337793111 
-0.007077740978160603 
0.03446069890016496 
-0.02305013646743958 
0.03826483050157924 
-0.05739740048112471 
-0.008242255427337142 
-0.02599516025931973 
0.01610762067466421 
-0.01149835512730685 
0.04271043388506172 
0.0419853432013245 
0.01617345314332697 
0.04530493214379057 
-0.01807543108323523 
-0.007940502103888636 
-0.01475056731893292 
0.07295227416952106 
0.03246414763551846 
0.02574824603522671 
-0.01596125464164763 
-0.003378673238716858 
-0.01681192928304505 
0.02363604322454315 
-0.0002929163247273291 
0.02707355380973214 
0.03726287233955165 
0.0004921152928908727 
0.06979822533338306 
-0.03175592463816916 
-0.01267830954072065 
-0.005036943514380219 
0.002063832127045173 
-0.0008775342732979486 
0.009934808738987156 
0.03382498480068894 
0.01588315853213377 
0.01300841129951983 
-0.007720435165595989 
0.00413788410589008 
-0.004474906348486686 
-0.02108071784802633 
0.005112643322309555 
-0.01219631503422778 
-0.008577031285174171 
-0.0314193241450825 
0.01624673966123582 
-0.02418545587921661 
-0.01447222628802423 
0.002006650318385577 
0.003422384142549058 
0.0001275283283414946 
0.006584991048358121 
-0.008003063095474437 
-0.001882139060750336 
0.005103360969518248 
-0.004833747082948723 
0.0021145886013074 
-0.007927148244459585 
-0.01701932386116612 
-0.00922665303593025 
-0.0332940960498003 
-0.02035711970613112 
-0.004982819180504711 
-0.007217416322976579 
0.002037638342625676 
0.001364322751685503 
-0.003637409183152281 
0.0243662712806452 
0.01446766527978427 
-0.005711887538862557 
0.01281071158451538 
0.005099504599416271 
0.01511227743090299 
-0.01348489918221062 
-0.003071670986562145 
-0.006735623347616395 
-0.0442143702621194 
-0.009531158147770233 
-0.03456840411919213 
-0.03532704552052521 
-0.03323923585450944 
0.00929492566125994 
0.001255700691415141 
-0.01129017104214914 
0.01357289898312136 
-0.02343725850323869 
-0.01094885766941123 
0.003911223745575312 
0.01726939247937454 
0.02320316235855226 
0.01982467436718886 
0.01215449300341355 
-0.001094913246556457 
-0.004883858680804693 
0.02029686878461495 
0.01744097975312647 
-0.009945561352192569 
-0.01685836716036422 
-0.009658323523957369 
0.002623534002311295 
0.05240703778504158 
-0.01510433098469023 
0.04833808403766341 
-0.01118872694779748 
-0.004264524394643455 
-0.016576107323949 
0.03866328154918162 
0.01444325495984746 
0.02140996977003742 
0.06453148372949603 
0.009491643516088251 
0.0213897584305449 
0.03614013899029839 
0.04121574198422111 
0.006579132571435657 
0.0620265985000483 
0.02121083267244111 
0.04014703308501406 
-0.01517513319690449 
-0.007503848118869818 
-0.00971407812779553 
0.03140145429094982 
0.03363427688622352 
-0.01764444682356466 
-0.01757683250765749 
-0.02484638065109955 
-0.0001539175677468432 
0.01624020481268714 
0.01781727554696282 
0.002938349542674884 
-0.02744799464440544 
-0.02448239873116151 
0.002772577154570577 
-0.01906002360386347 
-0.00370037279077318 
-0.02105387238660501 
0.01043310069164485 
0.008502746603977466 
0.001825069946466945 
-0.005736505576262117 
-0.002984190747679753 
-0.003634183936756053 
0.002398927691526303 
0.001676830701425043 
-0.01020230375915207 
0.0090399220295119 
-0.005106123984057154 
0.01789412334892579 
-0.008850132561339203 
-0.005720164546269179 
0.004058631301802926 
0.03741847868648635 
0.03475836712588833 
-0.01808030782969925 
0.04227926618645145 
0.02305115991290664 
-0.002530568810185924 
-0.02446981644199783 
-0.01758597258372044 
0.008119888989419627 
-0.0184959034782905 
-0.004448518359199903 
-0.01219807637713836 
-0.02237951375791432 
-0.02909223651363363 
0.02179009175549447 
0.003677574963101775 
0.003274109526725003 
-0.006915452906410684 
-0.04590795320807225 
-0.06295488008655116 
0.03645242373306584 
0.009810718379093449 
-0.008994820192993932 
0.0011827797969759 
-0.01696195870911029 
-0.004064003412555164 
-0.01235691354879685 
0.003312398089266658 
-0.00543030828511698 
-0.005271327449216966 
0.001982894366861128 
0.02007167892076612 
-0.01929596280241013 
0.007035056156325877 
-0.01069150214756222 
0.0328792449837937 
-0.02144252960702157 
-0.02032269104868336 
-0.006754819269423564 
-0.03608547354077771 
-0.004434708904127439 
0.001819896043751417 
0.02316610076746233 
0.01987684979139315 
-0.007864190131173071 
0.02740934028561081 
0.01255026873068944 
-0.01778492122313384 
-0.01875882736306736 
-0.009641261992712931 
0.01722886550549086 
-0.008513575061004927 
0.001733979550873195 
-0.0007930522748746448 
0.05861265898715431 
0.02248039426829514 
0.02452264581596309 
0.0002761791583657881 
0.00172408061514461 
0.00445155918400542 
-0.02367342519878381 
-0.009127593019808516 
-0.002092780309687396 
0 
0 
0 
-0.007803416109171932 
-0.002676687212988788 
-0.001024050186935494 
-0.02067156857022281 
-0.006829067058588798 
-0.01244788960557694 
0.04595270965834795 
0.0426093391897993 
-0.034404378405087 
-0.01915663160130266 
0.002309172259430284 
-0.02931957807268389 
-0.01352434790404962 
-0.004516341053336352 
-0.006568649239805495 
-0.02570044954635284 
-0.01537642100139845 
-0.01297175994706307 
0.01450304772721531 
-0.0002462235186889128 
0.02080439652211319 
0.04742391034685652 
0.0558543706914145 
-0.001136146133622248 
-0.02166615140054704 
-0.00881332638449292 
-0.002175825016613525 
0.01389231974218361 
0.009290008181389649 
-0.01152184067313747 
-0.007925967777937052 
0.00454036731534117 
-0.0269320297533746 
-0.0348853554446233 
-0.008718999481591249 
-0.01835543383032305 
0.03879780230435859 
0.0176661381266169 
0.01343925993074948 
0.02761539398561339 
-0.01045240805914379 
0.03808222560567259 
-0.01696340163518051 
-0.007701643931823728 
0.00262191169102381 
0.0107062250951678 
-0.017177629795569 
0.0100254955911135 
-0.005083049017633804 
0.0002349013469359449 
-0.001442381839546323 
0.01060313301674869 
0.0003801339939947961 
0.01889864889222429 
0.007735249357818086 
0.01440687179266118 
-0.01482580924535171 
-0.01465605214034766 
-0.0565080200974673 
0.00895461267621277 
-0.01425414595872782 
-0.00421092472297695 
0.0003912947162940723 
0.006203179790729665 
0.007069146937021208 
0.007922456250723209 
-0.04345758365168538 
-0.0172292077696253 
-0.01269273235211001 
-0.02843643398140146 
-0.0248731783612658 
0.004089058483859285 
0.05766333670269897 
0.004732428994337801 
0.04688049019052552 
0.05535851642120173 
-0.03625860964493446 
0.06295472657074776 
0.003344656328366026 
-0.008560266279715342 
0.02038972400889968 
0.0293698641185374 
0.01515617900839583 
0.02600416781506815 
-0.0500031869525472 
-0.03260452580191325 
0.009479869223164485 
0.01920383380575144 
0.004084356125508851 
-0.008133271722192054 
0.02870449376016165 
-0.07876974978601338 
0.02027879487436461 
-0.02236323902033293 
-0.0142581080623649 
0.005523582013881204 
-0.003297171333977228 
-0.002369168020493915 
0.0001144591835168082 
-0.02254134817087721 
-0.008345271334568635 
-0.004373611739781043 
-0.01221984012374852 
-0.007649662157278169 
0.006435522280965386 
-0.0008383991842364132 
0.001408925604653301 
0.01611736134267373 
0.02418441437532542 
-0.006067407107113076 
0.04442878701198517 
0.0192911934596031 
-0.02780063715990792 
0.03404456104817064 
-0.007762947114911992 
0.003141520297068219 
0.008271276715797476 
-0.02992512562813548 
-0.01121840778068661 
0.002683378564911222 
-0.004205634285441734 
0.004313648398664473 
-0.001076514026252384 
0.02232217507051637 
0.01276455146834875 
0.007319335935627245 
-0.01451027374495896 
3.974948994741957e-05 
-0.00247686749678648 
-0.03832170052157721 
-0.03061731851900483 
0.00918419055989339 
-0.02059445725235538 
-0.009997405650651338 
-6.330480969502528e-05 
-0.001197386970201623 
0.003071337604191515 
0.00927372143610373 
0.03084406297011503 
-0.03545680955615466 
0.02797380860449797 
0.02690704292923146 
0.009680282203580059 
-0.004827253989634663 
0.02746878961527788 
0.01563222769827212 
0.002270356788224982 
0.005503560969780947 
0.00733462025823889 
-0.01764426110400841 
0.004591939905408058 
0.005515628213083038 
-0.01195793772250869 
0.01564946848749868 
0.009873087431247339 
0.01640491390310175 
0.01383727864892311 
-0.03084248905296393 
0.02581565999837212 
0.01975971634927112 
0.0112116866472199 
-0.01243633064043341 
0.003461897124978031 
0.009849250848117526 
-0.01344227161831463 
0.02632586298060741 
0.01009201491840364 
0.01516640358288763 
0.03628585967432416 
-0.005251369683007072 
0.01154576422574744 
-0.02449827576526688 
0.001158766961757577 
-0.02918965335462522 
0.02539533305269432 
0.002287702850446157 
0.02200275721600754 
-0.02088091839283842 
-0.01729183249375317 
0.01389061299970908 
0.01841698436653646 
0.02170260530031835 
-0.01421518512375628 
-0.07845190074696283 
-0.01740673057186207 
-0.06538012971360656 
-0.01498715383459782 
-0.00793377968235456 
0.0003270866021766551 
0.01407646580801958 
0.02311006668349143 
-8.077272525027521e-05 
-0.05904676213283194 
-0.02605616756932197 
-0.03566033278187512 
0.04037078837891481 
0.02215423191458858 
-0.006983296320807528 
0.008487428192319178 
0.006159142973634553 
-0.009493140049289941 
0.02283082547105373 
-0.005024074446958362 
0.002835889576245963 
0.04461006270799572 
-0.04654019427279368 
-0.002476138745249681 
0.01202789533440306 
0.00406971333310128 
0.01657409763476453 
0.02715993284357718 
0.03062874552463893 
0.001544211026226229 
0.02021645782001555 
-0.007525301820582745 
0.04582245505375254 
0.02326511112018562 
0.01867711498871238 
0.009752965695225085 
-0.001173920113981614 
-0.004556953167615516 
0.01931567421006568 
0.02090747330030905 
0.01872563486512779 
0.001725287350860706 
-0.003917074043691548 
0.02319066835987356 
0.009770269608717326 
-0.03520088960840869 
-0.01475918574049608 
-6.338349151938052e-05 
-0.043025327582801 
-0.02111119450432633 
-0.03638335776298853 
-0.01337642934046323 
-0.006620767410437891 
-0.0012593937473506 
0.06048362886846009 
0.02425222143165818 
-0.001166619687327804 
0.02413360412695042 
0.0004269703143044119 
0.005683711992625393 
-0.005861373550964654 
-0.000378379076398133 
-0.004165339431598747 
-0.003131011864245255 
-0.02259740395046278 
0.01545998555216888 
-0.02449755820354309 
-0.01140637768198858 
-0.002831718473962323 
0.006631454096881868 
0.00174026965473958 
0.009749113313541962 
-0.01016074742110566 
-0.006274048538324568 
0.001929530118099949 
-0.01102856210140033 
0.0005271531417687644 
0.0002177010482756934 
-0.01698635473374818 
-0.008176688416318842 
-0.007159185736549144 
-0.02782408659531316 
-0.01519679715272236 
-0.007962113617761621 
-0.004479902914273259 
0.003818300417151681 
0.00139276630225389 
-0.01635990864536443 
-0.005734959579151921 
0.01089373078776143 
-0.0001002977734949932 
0.01134869940545604 
-0.006371896486211539 
0.0270126814984142 
0.04425833248505501 
0.01764251801144054 
-0.0315945959748687 
-0.01599747602213387 
-0.004281156597448714 
0.08944658006095922 
-0.001474476225462852 
0.03032799893492718 
-0.02732048723629509 
-0.0008250684764362588 
-0.04262947488457492 
0.004042504731644026 
0.01133325342891395 
-0.01216274585489448 
-0.001162433512365506 
0.004050873005192259 
-0.01702159509444134 
-0.02722999096988234 
-0.01955519747925766 
-0.02050703144793775 
-0.01244224342332767 
0.01491039325371035 
-0.02891459616884256 
0.01402908637693233 
-0.02078814305619105 
0.03035086232507523 
0.02830557797955571 
0.0283570736220249 
-0.002253017038185964 
-0.04231227480947597 
-0.02073404911606227 
0.005356102207259735 
-0.0003599110417718942 
0.004363653582961136 
-0.008269100976512402 
-0.009337272249284429 
-0.0005905476678639488 
-0.03311155692232966 
0.007692461891425648 
-0.01688785890142852 
-0.003526090512487181 
0.0008680071930600888 
0.003758871274968884 
0.01253699774395529 
0.01541942369201561 
0.0297839666899628 
0.0005055178611568415 
0.05854308195132631 
0.02582018827249541 
0.01773006954077831 
0.01326952126460384 
0.0137492614228047 
-0.016886376116883 
0.008566316561280542 
0.0003374727122031724 
0.00145154226502957 
0.00517885414738931 
0.002109677403855204 
0.002337995167659129 
0.06773505081040675 
-0.003248911173907426 
0.06384619870019638 
0.004662805488075969 
0.006759089746441641 
-0.01214682844749178 
-0.0135539488318071 
-0.004030481157112076 
-0.008679608666401745 
0.02038740827255455 
0.0187676285191505 
-0.01321863322305277 
-0.01020974251842468 
-0.001375668714690144 
-0.01506402078521545 
-0.06278632781785749 
-0.033376768092532 
-0.01658314654095451 
0 
0 
0 
-0.01380232620478055 
0.0008931478885331399 
-0.0008645855245423935 
0.01548079275135064 
-0.007137700324034789 
0.0146370186673554 
-0.0363898660678112 
-0.0109430112976572 
-0.03616920250720854 
-0.02022658116676591 
0.007552656788538041 
-0.006882881228830153 
-0.002114241572510047 
0.0004093286924408606 
-0.008516016002920514 
-0.01785688694514467 
-0.01306653304718533 
0.009871019329832588 
0.01522525444897595 
0.005203477488165262 
-0.01422176641568412 
-0.02811050144198716 
-0.03193789336358591 
0.0186452974721774 
0.02207433759423063 
-0.01485885930363825 
0.004742566522236588 
-0.008174061784120652 
0.0008793370221698406 
-0.001941434425564575 
0.01238367795349175 
-0.0007649059092585528 
0.007971966039269229 
-0.007770416479827261 
-0.003877352816435076 
-0.003374002523879876 
-0.01139929970159364 
0.003003723855726329 
-0.006660778150821107 
0.01339398445009235 
-0.003122497712331657 
-0.007961125920320982 
-0.04229617400201359 
-0.009344033303845501 
-0.01603107334454597 
-0.02346599251313553 
-0.01397260044799619 
-0.01104096756542529 
0.006699108271457371 
-0.001039142030273341 
0.0004949287924370453 
-0.02014774401143538 
-0.01176319517650233 
0.0003219201145694179 
-0.03228055098505768 
-0.01781027138679309 
-0.00646577150022221 
-0.02869527749294823 
-0.0140059011329367 
-0.005722923271095663 
-0.06211716148421939 
-0.01810727550734397 
-0.05148843428111052 
-0.01606124718365796 
-0.01348355849171259 
0.003753660374528495 
-0.03877028980274606 
-0.02513582540900517 
-0.01479866250366738 
-0.01630624521302594 
-0.00533415800662479 
-0.01262463876367 
-0.02055575707119968 
-0.0140992925282989 
0.006729266971384985 
0.000864269760178692 
0.01400826530434969 
-0.01590838616690515 
0.01705501753269688 
0.002297528181894406 
0.002681790462752156 
0.00439506513574426 
-0.001372951756256016 
-0.003235035962461287 
0.005731673820727862 
-0.001178145735793551 
0.003557350688043125 
-0.01134585412140077 
0.006998881044518243 
-0.02879324336849107 
-0.005166922623643699 
0.001209353248094245 
0.001399908933125658 
0.02318627509781149 
0.02023028176284372 
-0.001614802814044224 
-0.03363306387338107 
-0.01342952885021913 
-0.00689338705305704 
-0.09016713050915411 
0.001655029533593868 
-0.02797398691808287 
-0.04826174827924654 
0.007236693310572851 
-0.04596568313986014 
-0.04083210009356743 
-0.02456637423263059 
-0.006450597754888282 
-0.01821514347172264 
-0.006819871478551997 
0.004245317863342874 
0.01923788805004654 
-0.0004462087966630556 
0.04707371143396598 
0.01636119089896217 
0.01366667307239109 
-0.008360745451391191 
0.01201151336437144 
0.01394876130104333 
-0.005984082677549548 
0.008615041659642549 
0.003646905096572905 
0.01360856063144173 
-0.05507857644172192 
-0.02344599947991549 
-0.0018900261191111 
0.009347331940528019 
0.0156220109947794 
-0.01263163310189024 
-0.006941093781233048 
0.003639147595460696 
-0.02623535492065485 
-0.02093811250686736 
-0.01102331773000868 
-0.033817011952757 
-0.02770701609543673 
-0.02566248994360251 
0.01150298575384917 
-0.008609077847750151 
-0.003518791321646823 
0.004952137342132068 
0.01593795243933465 
0.01431479245174508 
-0.005584271244452575 
-0.02938065286190097 
-0.03282574738460948 
-0.00278884102656228 
-0.06557118231805463 
-0.02828541034945929 
0.002503136790512321 
-0.02096041968302308 
-0.007844057112904439 
-0.01649441102397812 
-0.009864791872587051 
-0.01080943542759224 
-0.01259008938662667 
0.02046135959355807 
0.003571646740413387 
0.03349624748853315 
-0.006369629036822637 
0.01077819923048245 
-0.003126388176182942 
-0.02968111563643137 
-0.01627657592680366 
-0.001434298183823004 
0.007115200028251435 
0.01524698065752676 
-0.02681157040636184 
0.004441739388801194 
0.002372158257690301 
-0.01331495728345866 
-0.06016731923165201 
-0.03664080945763497 
-0.003406738075326865 
-0.004373880157209797 
-0.003426042553285089 
-0.001816647276428989 
-0.001362305602507269 
0.003028915437912039 
-0.00940314554751958 
-0.07787188111638149 
-0.04615382320742376 
-0.01350230786514088 
-0.04654059643944652 
-0.01804641573385976 
-0.01564019131379354 
-0.02060760713741292 
-0.01279035010751367 
0.01812965027406093 
0.02147873220261151 
0.01549753209875636 
0.004795064060693017 
0.002891854894751329 
0.01397108835526864 
0.03020567445242685 
-0.01026214435402974 
0.02363651066184391 
-0.03472967438693449 
0.03478984045282841 
0.01419452930031866 
-0.01875420828629731 
0.01300822431311992 
0.004468843212684441 
0.007956420712854949 
0.01448868090455472 
0.002980680492381912 
-0.003678696526990131 
-0.04349024946179825 
-0.007458900877850102 
-0.02015229990139192 
-0.01426874970612747 
-0.003681184669769074 
-0.00387719504999305 
-0.02105226222373473 
-0.008144997124953252 
-0.009955147600474001 
0.03369047753277671 
0.01777198790927604 
-0.01593866981245572 
-0.01410503332214057 
0.001270054772085263 
0.0008517629464853023 
0 
0 
0 
-0.03656431810336579 
-0.006553165585132002 
-0.004425126801645606 
0.002907964539547556 
0.001566867423864853 
0.007760879573448344 
-0.0201763567781695 
0.00527191421186942 
-0.01438596228404221 
0.03632286661161471 
0.01130418599413149 
0.009642151344161805 
-0.007329118814301814 
0.004172403373140342 
-0.003469301323165594 
-0.006883269312185589 
0.01552083003587114 
-0.01235088698423056 
-0.0139445978922642 
0.0002780706348785761 
-0.0039637348719033 
0.02984898686184015 
0.01035680180825199 
0.02632977003197138 
-0.017945428464899 
-0.01508062326428378 
-0.0006788834941181801 
0.0152190410438483 
0.009672072313628467 
-0.003055144750139108 
0.007905100079401392 
0.0072334265167242 
0.001652455009061427 
0.02401731900073524 
0.02301109410332777 
-0.02477735604128012 
-0.02183849143354987 
-0.0009272501007796841 
-0.01948791045072147 
-0.02104800999135881 
-0.007711319758483723 
0.00582880759904791 
0.04030149628039511 
0.04029114028048399 
-0.007234623257605616 
0.06830139090533535 
0.01682431417299123 
0.04454579102858231 
-0.03089719028920006 
-0.01263736372782239 
-0.01409442628569389 
-0.02988212866795251 
-0.001178203631552004 
-0.02877297385295396 
-0.007406803868419427 
0.002306122001423105 
0.000260043731167702 
-0.001098480323249283 
0.0003484385028977343 
-0.00312824662837071 
0.001402026965163795 
-0.00199391348368181 
0.01919785781457514 
0.006120784852620108 
0.007415343839500945 
0.00130775352831513 
-0.02363768781609167 
-0.02656269026798842 
0.01533409831851103 
-0.03502238387879217 
-0.01939422283946252 
-0.001642395066683786 
-0.0137622236868423 
-0.005545143360583338 
0.00856201722679042 
0.008594173015540236 
0.01485781004432839 
-0.004153221929175373 
-0.02057467348157083 
0.001876296176022913 
-0.01805716346679628 
-0.02428802376235346 
-0.01408487642998618 
-0.03115849855973286 
0.04614166940596151 
0.03138202230611842 
0.01744859029453201 
-0.03834177061729085 
-0.01113715916458489 
-0.00959751010126543 
-0.004561233845537284 
0.009146062623977458 
-0.01699084533783617 
-0.002924211643710508 
0.003897804311548851 
0.006836852583313412 
0.02659796109541566 
0.00973035030448907 
0.01290731689046487 
-0.002432168838314817 
0.005988832153690807 
6.741998551124703e-05 
0.02778748884914735 
0.02144486721725069 
-0.006118962331389552 
-0.006556200434808885 
-0.000133581024876878 
0.005168205687195404 
-0.02258144819162306 
-0.007459100899786267 
-0.03105175312181103 
-0.05402604426957181 
-0.0252751161133026 
-0.006450848834126257 
-0.01590509959707717 
0.001630569839890873 
-0.0164333198770346 
0.002640433270477709 
0.008316336905723143 
0.005170712240932438 
-0.03214047322423021 
-0.007918352405736673 
-0.01772665163516745 
-0.003294679826337164 
-0.008609602695198233 
0.01737357201375345 
-0.006821093750962948 
0.00532807196406255 
-0.02194777926195319 
-0.02592733315256104 
-0.007583427918865219 
0.009004569317164486 
-0.05650744250083847 
0.01458915694951964 
-0.05309517829898601 
0.02453203790424782 
-0.01231535545662337 
0.020018695958635 
-0.05137141395874443 
-0.01415882117716938 
-0.03226639000240588 
0.005814385967446088 
0.008599409562590409 
-0.005844312043681784 
0.01182470679737626 
0.03026272584248916 
-0.0103508369663036 
-0.04109159789318904 
-0.0248355868891465 
0.00132492878769353 
0.05858335326406798 
0.0210034682995754 
0.04015790426676301 
-0.01281043565047277 
0.0004311960202196025 
0.003227794370261763 
-0.01151803723931058 
-0.004134652687783682 
-0.005375609415152675 
0.03531385363354552 
0.01804168709807861 
0.01503421006596914 
-0.03524363802795647 
-0.02394381659098942 
0.006077304844013782 
0.04340318763720536 
0.03056923286928585 
0.01055618846003213 
-0.07727236945445484 
-0.04567808387726387 
-0.01846576089354509 
-0.03400086734301119 
-0.01787215698132474 
-0.01018082126857885 
0.01652657742327467 
0.01454789756137391 
-0.00724692497998434 
0.001223155369267379 
-0.003848380080160653 
-0.01454008853250853 
0.02587047858790039 
0.02538058721061932 
-0.01066894030667031 
-0.02011173236449735 
-0.009111480427751921 
-0.002727892624828307 
0.005426105375557308 
0.00263029369869849 
-0.002884312153797715 
0.02982574851535416 
-0.002658524428514965 
0.03179779305119194 
-0.01363790689370928 
-0.01590405595919513 
0.01296549015053794 
-0.02451021934846659 
-0.009608619669068109 
-0.01129822432203291 
0.004831716612181056 
0.002257679404500633 
0.002218742417882436 
0.01778376265001184 
0.006111800086801267 
0.01626811272347526 
0.002227786609990637 
0.001215674946779976 
-0.01660625298682701 
-0.02779753518611141 
-0.0117867589695839 
-0.01200289105477868 
0.02716072987448751 
0.01210756592474429 
0.01114789681804003 
-0.03206726550919686 
-0.01327882547659006 
-0.007931241563845025 
-0.02783358985197536 
-0.01292627546331529 
-0.002050247187005734 
0.02586989111977073 
0.01361273997191926 
0.01514248611776347 
0.05034472266428865 
0.01261453237095453 
0.03689159321428112 
0.04748114648569424 
0.03349897812008969 
-0.02427231859996273 
0 
0 
0 
0.06353653436809112 
0.03052222491038868 
0.009473899519649616 
0.01601053563467198 
0.02751053236298826 
-0.006640270488680829 
-0.02156385001881998 
-0.02483141056029356 
-0.01791732038493987 
0.02603496806894434 
0.008412097484794994 
0.01937137011881505 
-0.04374735112844361 
-0.04452083654340478 
-0.002205522384897876 
-0.0481034163434479 
-0.02236331221033391 
-0.01357253760755905 
-0.000726513489779624 
-0.0004897027633658952 
-0.0001824666863388234 
0.004976524158139058 
-0.02095134379893661 
0.02450418647347247 
-0.04745622671070327 
-0.02572744631410345 
-0.004367604888999181 
-0.02176591024656236 
-0.01001474243582686 
-0.007342176411761334 
-0.03351268468844822 
-0.01366446632493306 
-0.008196750698578543 
0.01659519662477262 
0.001375888197120131 
0.01890768600901524 
-0.0252083650050835 
-0.008946109483897824 
-0.0004347677091120622 
-0.01073403943774063 
-0.003243608847159188 
-0.01226279772683721 
0.03739690928757345 
0.03084647723050113 
0.001505909992320677 
0.02953251916107426 
0.01536199895090329 
0.01086459407538309 
-0.007754779742182596 
-0.01671128638271516 
0.005311929715532297 
0.02249039831928934 
0.0204311912017215 
-0.01733995877394 
-0.005079914828979177 
0.0006612509695932191 
0.002703566494682766 
0.03152207509562646 
0.007503632961601792 
0.01384477915232388 
-0.02447635012588371 
-0.01174795680620894 
5.207617761685061e-05 
0.06257502123484551 
0.01031839279342614 
0.03039941648524986 
0.002738127478833828 
-0.001595196847486697 
0.0003071336593256516 
0.0155627248744467 
0.01491546064307281 
1.229181107232039e-05 
0.02575725890886222 
0.01491325228488442 
0.0157082913466193 
0.001581104838015979 
-0.008104597392033301 
0.02042136854079684 
-0.02942063928935804 
-0.01065332134904464 
-0.002173637819226548 
-0.02164134870133107 
-0.007578994946295094 
-0.01363170207983558 
-0.01418800218877679 
0.006783721674091132 
-0.004632942998851004 
0.0007182632983906175 
-0.0008715486332044893 
-0.03190908065572678 
0.02950537701445691 
-0.04425009928027498 
0.02841927801123191 
-0.04195044759236424 
-0.02027538843579714 
-0.01402502925883444 
-0.03910808535128956 
-0.009978037747953035 
-0.005825887901781752 
0.004216422201098051 
-0.006054968886310643 
-0.004069066567951142 
0.03157093255361058 
0.02536225046146323 
0.01454964017211855 
-0.02816042653661996 
0.005044003497683443 
-0.0462434346606343 
-0.01078943848484459 
-0.0009880494513550184 
-0.009003644210188641 
0.0146182546309818 
-0.01620772483586813 
0.02990745574505478 
-0.0132721057988388 
0.004235168627796504 
-0.01487606490547474 
-0.001653884521537813 
-0.002273464196523646 
0.01945274578219753 
0.02164259108112527 
0.01160269924936424 
0.007265535381955849 
-0.0278202582308163 
-0.01348285741375963 
-0.01275144915610257 
-0.02140548859488209 
-0.008407426108625927 
-0.004130162192213066 
0.0173848503520878 
-0.0354013604203116 
0.02514772518188972 
-0.0002726272710607713 
0.0004366917663113915 
-0.001831876595780929 
-0.04412203823986725 
-0.02098188932530621 
0.003502253734469214 
-0.04923069237314207 
-0.02445455717742765 
-0.03700934207274418 
0.01769051856866292 
0.01069993399113943 
-0.0130033915352271 
0.04785205732479947 
0.01095792651215236 
0.04759473543361828 
0.01459434932950242 
0.01531967953266579 
0.003216136213067389 
-0.004061030562872011 
0.0001802633840300235 
-0.009375768783933576 
0.004710341635584816 
0.009813681779991064 
-0.02411641028299108 
0.0211759003300729 
0.01748728175678402 
-0.01163320205849119 
0.01649016979775815 
0.02692862130139917 
-0.00791454661968013 
0 
0 
0 
-0.04449164030948415 
-0.02817460142626127 
-0.007937211648291384 
-0.008487759882532269 
0.00282996044664595 
0.01276356539612095 
-0.01917050659843601 
0.001912128669896292 
-0.01257581989970686 
-0.03255100258819549 
-0.01028970288003386 
-0.01298448153356781 
-0.01498348820303242 
-0.01215397136339556 
-0.00742346567728615 
-0.003531548533158109 
-0.006857288106197651 
-0.009984626486684559 
0.03012072238929576 
0.003396324589931285 
0.02099577904193587 
-0.006582388616169844 
-0.002775988074697879 
-0.01834354360843352 
0.0261473395790379 
0.01392655027906182 
0.003997405159692827 
-0.02864600519580493 
-0.03046649894504961 
0.008613868653217375 
-0.03326965953609071 
-0.01178492125829576 
-0.01767276699459039 
-0.0008306823661150405 
0.001332430009446532 
-0.01176267163073922 
-0.02051624924850472 
0.0001009206358539911 
-0.02113864036983393 
-0.02091376227077727 
-0.01272044342832187 
-0.0005840568706297081 
-0.04131376674330402 
-0.01073086460899517 
-0.02902269056661393 
-0.03073343387474722 
-0.01642375794809954 
-0.01322465044405008 
-0.03542065884091556 
-0.02103128588611654 
0.01071994186147665 
-0.04830191656584428 
-0.02967071051521887 
-0.006353775327665581 
0.03158723334133055 
0.02146696587193502 
-0.001792616025589039 
0.01120573961122915 
0.008055576379074822 
0.02352619405560222 
0.02870029467035216 
-0.01206223935539745 
0.01909937750737935 
0.01014361342674455 
0.002298131038101247 
-0.0212883946352208 
0.00664375956289852 
-0.001451215555024527 
0.01752278151913483 
-0.02394499656335813 
-0.006192403822410405 
-0.002599875431567917 
-0.01379322045295114 
-0.01581291918238441 
0.005045225254038645 
-0.03431521720877407 
-0.01324768914333437 
0.01079879039717199 
-0.02150843617327495 
0.007584469019735095 
-0.008562456739003504 
-0.01060344461420349 
-0.00331618507555564 
0.008952634053438354 
-0.03222372620833212 
-0.01920258249669647 
0.01357731525971806 
-0.0008963839201700046 
-0.001583725589517013 
0.01233835358603941 
0.04932324780645061 
0.01977438638960398 
0.04094167396645765 
0.07084183729900248 
-0.0337989208948172 
0.07469927434941145 
-0.01611371225199796 
-0.006775229793895452 
9.291294377711713e-05 
0.01745375143798304 
0.009255226515131968 
0.0268771900970684 
-0.01431342896298816 
-0.01098660582713075 
0.03916431847603272 
0.01142386451994906 
-0.01653791617057715 
0.01654427921690066 
-0.1005024742106477 
-0.03537437776379648 
-0.02288886791250956 
-0.007751715758838465 
-2.65416138719575e-05 
-0.005491832870625087 
0.003803056769685877 
0.005301575498798547 
-0.002863813065802456 
0.0272285963716446 
0.0102738324536754 
0.008571846245064907 
-0.04422905146421027 
-0.02304561202819702 
0.0009242086342598814 
-0.06493077317173046 
-0.01707201935297197 
-0.01191797634385178 
-0.0258234882295556 
-0.01597210897770483 
-0.009089960502471765 
-0.005159894944093439 
-0.004413623877308257 
0.001675017197304997 
-0.01249102792722904 
-0.003618389012117964 
-0.009278605810441884 
-0.02094962881993282 
-0.006995741879144964 
0.007273235520772752 
-0.01564230573447967 
-0.0004913366058386213 
0.005416951965518071 
0.008485974790275972 
-0.008750322212163594 
0.02495559567011514 
-0.01655305704759386 
-0.009637785253907323 
-0.005196833303003568 
-0.01184377363459541 
-0.006981060537472154 
-0.0009938221392535556 
-0.04582649957915916 
-0.01347118561107148 
-0.03841291431209917 
-0.03553694849379235 
-0.02415938502148342 
-0.005437428633624191 
-0.02088269366352475 
-0.01448169703422575 
-0.007248412011233872 
-0.003641104433921549 
-0.000785250924655103 
-0.008775970268847641 
0.04595165306652346 
-0.0006721826265476117 
0.04614830183158222 
-0.01476577970525684 
0.01042983809639949 
-0.02360710190555206 
-0.003443722628554901 
0.002573703598623996 
-0.01427289022694745 
0.02659349718474522 
0.01141768249882051 
0.00582711593919628 
0.02574735008740996 
0.0282875276036242 
-0.02296103346844483 
0.04855035873676749 
0.005611749934921805 
0.01201675938847097 
0.03579059602637852 
0.0009194376038153608 
0.02772980951898415 
-0.0004299448024360106 
0.0001923486663216946 
-0.002614352127344485 
-0.01282719387534416 
-0.005970192102001864 
-0.002001712495726607 
-0.04863283009231116 
-0.01778128458804188 
-0.02615859507257803 
0.009060562309493928 
0.007753769844977017 
-0.01756684681414142 
0.02449971660582374 
0.003529807253178093 
0.0447637049203238 
-0.006746361278460885 
-0.005414658078495613 
0.006626852947825258 
0.01916857161435669 
0.002893436088447042 
0.006785894657405252 
0.001038825089077281 
0.003915787284870405 
-0.01280160798130236 
0.00296069579086157 
-0.007346767331970177 
0.003979133660423889 
-0.01969240029927035 
-0.01379704351165885 
0.007512230139396778 
-0.00231879424632404 
-0.02066172277870616 
0.01673817612005069 
-0.02172335382497415 
-0.01107462131219149 
0.004150357164285317 
-0.008246517422216373 
0.007764746286484647 
-0.02811409519109733 
-0.01844857790128271 
-0.008657991624105492 
-0.001588779105742631 
0.01280849147958828 
0.003082434933844332 
0.01785232674613909 
-0.03709065315697938 
-0.01200560437668096 
-0.009763606557074291 
-0.01379996948640263 
-0.01448680858976212 
0.008308669867535418 
-0.00881930798674983 
-0.004088227366191173 
0.005764620052359047 
0.04405629528905543 
-0.01157185010705074 
0.02317767361046975 
-0.01803247743146395 
-0.01095123695006894 
-0.01086991479320758 
-0.04793794056957004 
-0.05068473828129876 
0.01039698851082119 
-0.008072904313404582 
0.007048839309712169 
-0.001619443631666174 
-0.01032931816401957 
0.0007088908819525902 
-0.00057037926941888 
-0.04833085151640273 
-0.02821660276446058 
0.001800814363886984 
0.01521612051907938 
-0.007797795217924839 
0.02056222952968104 
-0.01191660387215908 
-0.005262719444643038 
-0.001117572419435088 
-0.0119447603200233 
-0.005301976360598656 
-0.002136445883140604 
0.05416407340916961 
0.01336257596730263 
0.02222812356342752 
-0.007532933180638842 
-0.006397170833455184 
0.0007842273243786537 
-0.04420237845229148 
-0.02425388765502273 
0.0006153309639524145 
-0.004197737531190224 
-0.005138531895621632 
0.01228643637052723 
0.01558602248393822 
0.01741411408845772 
0.0005873608158170785 
0.02126066968352182 
0.01400084121014922 
-0.03549972891207132 
-0.000246367379058977 
-0.0115795391400137 
0.005890437849822574 
-0.01100100919424161 
0.003075755877441741 
-0.02623322388430187 
-0.03286909296355563 
-0.01516148470449941 
-0.01314587638667173 
-0.04832034474606745 
-0.001771750678482772 
-0.02549641131589872 
0.002760491885601777 
-0.0006785071198338121 
0.01713295377505974 
-0.009646792651837799 
0.0003893449720230853 
-0.004154039947187922 
-0.01187506458467172 
-0.003756145848710965 
-0.03806886350184339 
-0.01372810895151223 
-0.009834785665735655 
0.009209211037908371 
-0.01583955526258493 
-0.004428021221233073 
-0.01209199001899151 
0.02060755090026956 
0.01269582513428285 
0.003990370499038993 
0.01621386950379209 
0.0109522048793782 
0.001821561731974934 
-0.0357751361611411 
-0.01965256069641692 
-0.001902685570628497 
-0.001623286471988925 
0.006736574816350769 
-0.008849925112140954 
-0.0472323497649197 
-0.02168059749582506 
-0.00866991123506562 
-0.01252863107888563 
-0.02524039667644447 
0.009609457967660884 
-0.01932391317428931 
-0.03531263460965562 
0.01682422124024273 
-0.03157998684275322 
-0.02028346028683348 
-0.001314609168106894 
0.003828696355705271 
-0.0008389245080025864 
-0.006055359342246193 
0.002673468990718391 
0.004654314959212058 
0.008877549763056372 
-0.02804267808412794 
-0.02139598592710587 
-0.002194199032421155 
-0.02831003147865175 
-0.01243591954565785 
-0.009298687864623303 
0.02874105305026855 
0.001170559990922605 
0.01025904260283674 
-0.02548947233615177 
0.01269535464754106 
-0.01018472533821149 
-0.03883289419615395 
-0.01499042144617458 
-0.008446646564662654 
-0.01365395640907029 
-0.001662280997944166 
-0.002650431070214334 
0.005554785121704926 
-0.006176586017726218 
-0.0144320978687013 
-0.02155704079895272 
0.006653255415917723 
-0.06213242108607918 
0.03126898049349142 
0.02453836309687852 
0.008720578095232882 
-0.02128700793072508 
-0.01500354274812583 
-0.01457343486258214 
0.04670527896347354 
0.02193619054958479 
0.01494087346245634 
-0.02647815732894067 
-0.009739345801685348 
-0.01390545141550217 
0.02560903698488737 
0.01394461770765416 
0.0003765461320923389 
0.005502337811135007 
0.006283982992525039 
-0.001433239514293152 
0.03333355170024122 
0.01245300452024706 
0.01133418306774609 
0.01995249996019404 
0.01420253925032166 
-0.002824885620382534 
0.000716863342790712 
0.008562265982537037 
-0.001998051784487086 
0.001574160048734112 
0.02497245594359512 
-0.02527399209756138 
-0.00577579636731833 
-0.0009517961471410382 
-0.004953137220572883 
-0.02063469322352385 
-0.01010646220657703 
-0.008561772480530579 
-0.02242733450457752 
-0.002132242710539209 
-0.00578314599891902 
0.002384461388652837 
0.008520747732533866 
0.001551156484928652 
-0.009307462086932065 
-0.00312387458270792 
-0.0007944352354328509 
-0.05015269384416967 
-0.02821494623677035 
-0.006221814773104606 
0.013494685518584 
-0.0006187691518053701 
0.01091120286191715 
0.01703713194986343 
0.009225456050183104 
0.009445273446258411 
0.02706301120267346 
0.0325805243119025 
0.005374683728961932 
0.01032204724899269 
0.01009926409973914 
0.01034745671953099 
-0.02419996526414622 
-0.01486445507522759 
-0.0103505149225143 
-0.03671097855642915 
-0.01165078870449643 
-0.0154037918308087 
0.0104150780661363 
0.01500869460828308 
0.0002524337123554395 
-0.02953868433123816 
-0.01057990390663528 
-0.01153307684051694 
-0.009383242151093324 
-0.005697532573645035 
0.008149308900772352 
0.03719543876748631 
-0.005610780691274952 
0.05642077489990122 
-0.006259884744311201 
0.004647401534217842 
-0.00674236154314461 
-0.01304966298218727 
-0.008209417410312746 
0.002991450484056918 
0.02332088189835716 
-0.0004855359380211997 
0.005332128518820738 
0.00367003741352179 
-0.003762191340271451 
0.009185327621677758 
-0.03017096366154591 
-0.01783114811720266 
-0.00460354053544297 
-0.009674879873759906 
-0.00383349977294855 
-0.01232303438113427 
0.008169192388478156 
-0.003669709136994549 
0.02572730690021613 
-0.0161122455289732 
0.00506690177115747 
-0.0225489452289843 
-0.04762885435352057 
0.05320332885720049 
-0.0469623452709541 
-0.01355121548300358 
-0.005724744160524701 
-0.004113200013898873 
-0.002935378649073696 
0.006000712931257251 
0.01394326518700408 
0.04232770206101214 
0.005845521735312235 
0.03926997945663598 
-0.008485432411287786 
-0.003415639542895803 
-0.01001528113014882 
0.0006498154310836693 
0.004092079440811357 
-0.0001282051755551548 
-0.01969046585089408 
-0.0080496255960759 
-0.0129548155131921 
-0.005346248365121522 
0.00727029304933099 
-0.006697360522295951 
0.05433972438912246 
-0.001706928856632079 
0.03105192686455034 
0.02170157326014456 
-0.01249713635498757 
0.01890767583671885 
-0.02350308945437361 
-0.01130858904490129 
-0.00706008181311259 
-0.0263212652854424 
-0.01052788883945066 
-0.009321745356097973 
0.01722048728243982 
-0.02642762932591043 
0.008039297958015586 
-0.0268064004432634 
-0.007211778230424775 
9.573765541287502e-05 
-0.01628751928946412 
-0.006124284366687555 
-0.0009207050469554519 
0.04827986856757898 
0.01461648044048084 
0.04481662920244054 
-0.02911051369157635 
-0.02456289139589013 
-0.02848272792412357 
-0.03046860238756392 
-0.01493836656715892 
-0.0099371204667691 
-0.01244365735823329 
-0.007450585747139705 
-0.008766477294038897 
-0.02392836625783942 
0.01545099704345025 
-0.01051864730803136 
0.01780317251485272 
-0.0140838996014181 
0.005484923235539543 
-0.02472566276781437 
-0.01344214960780483 
-0.003741243184883939 
-0.01600958280411702 
-0.00754425526806731 
0.008221338768522853 
0.02058637049457391 
0.008571312161210431 
0.01615783887552287 
0.02339375234180751 
0.02518906324078921 
-0.01127891633296461 
-0.0247562448739162 
-0.01015923723860564 
-0.01075349322750975 
-0.01494930807987186 
-0.03311162026920109 
0.02371677866485061 
0.02896031059686947 
0.02694544281174256 
-0.01647593080080062 
-0.03240600289934076 
-0.02125456956802024 
0.001251386038816707 
0.01760667709752763 
0.0100198278774417 
0.01689229664851567 
0.005983893269780566 
0.003080158844229421 
-0.004241145286265457 
0.01581946786699286 
0.007959396501053045 
0.03049328415938396 
0.04280713954774849 
0.01035004702146821 
0.01158418159131154 
-0.03842327043613374 
-0.02695973942975186 
0.004893959647114169 
-0.05019960549615731 
-0.02149486084944996 
-0.008584113840432984 
-0.02257641905146788 
-0.06738141292475058 
-0.01145930915935349 
0.008573719012172716 
-0.00299402959629813 
-0.009419445704158622 
-0.0125179027022892 
-0.008150023993807572 
0.01407308888357734 
-0.02771260258202279 
-0.00618876110714969 
-0.03585790979597511 
-0.00943897509973835 
-0.003369104824042047 
-0.01597822083802383 
-0.001567714841410802 
-0.009453181405132325 
-0.03793906166412268 
-0.003100207443556342 
-0.002938177953010819 
0.0006107307953978264 
-0.00948034355171032 
-0.005178771142652092 
-0.01680734265394138 
-0.05463032767737165 
-0.01057243341701239 
-0.04865141916899417 
-0.03501794939221983 
-0.01905123818578332 
-0.002381709742452285 
0.05657449336861192 
0.01402995242980918 
0.06392299117324832 
0.03777011770048883 
0.02244665024443051 
-0.00098904154564905 
-0.04605422489565705 
-0.01183589376930655 
-0.02648205724902664 
-0.01449430298685214 
-0.006463693385038625 
-0.002472200819174729 
0.007856617434452597 
0.003296579638504799 
0.01300056090280214 
0.009924835460778962 
0.01546224430301326 
0.0005375838848012058 
-0.00758301933685788 
-0.003792767448340582 
-0.009928980442748626 
0.06012900535446044 
0.02989815991771172 
0.01328700383300596 
-0.0106583182739158 
-0.003675641945723862 
0.007733575661101358 
0.04161291740866312 
0.02765985956132198 
-0.0121899018824878 
-0.04524741826440196 
-0.02217628478443486 
-0.001179022107314788 
-0.04021917491036527 
-0.02204793977010837 
-0.00907760257545643 
0.004383926997898512 
0.006533460541024843 
-0.00894294586698857 
0.03130528804349735 
0.006747165350331077 
0.02340233922075799 
0.02826497600447989 
0.01866583495209639 
0.0171957252182664 
-0.01953023509084527 
-0.006230734252048549 
-0.01169786966714756 
0.01169446515536688 
-0.02308059600602694 
0.01899888932445325 
0.008028276893512704 
0.01162036229252347 
0.005127729877957554 
0.008316717037475592 
-0.004777666579480916 
-0.008873937216495957 
0.03632498163451917 
0.02242697182513389 
0.02062995360893996 
0.001145024563187789 
-0.002345061736227038 
0.001996642575323839 
-0.01403904755271548 
-0.006772437851710903 
0.006877399248485821 
0.04134891104625461 
0.04295812262397906 
-0.01595585375553317 
-0.01683009220887555 
-0.01654513009745318 
0.001113097564098909 
-0.0005343508684137535 
0.01836729096928827 
-0.01489963623076496 
0.01264729816615801 
0.01716067250496483 
-0.009837974736182158 
0.0111877141249568 
0.01516940034963217 
-0.01642052260757618 
-0.04156982122718541 
-0.006058237842751914 
0.002365777687561693 
-0.04193163715635264 
-0.01343291044701636 
-0.004974338246280016 
0.04390585246570847 
0.03618636459095714 
0.004503832392697256 
0.01830322422376139 
0.003052907812891149 
-0.01036412822259539 
-0.01419854969978224 
-0.0007157410913427309 
-0.01341378728219144 
-0.04915230887343419 
-0.02822734929900069 
0.01151588284751258 
-0.0003256864299047279 
-0.0008368956918977138 
0.01114675129403906 
0.01613155606346472 
0.001754523256853291 
0.02315383939278572 
-0.02816738012141463 
-0.01492209228642837 
-0.01055182805642833 
-0.03360248193492123 
-0.01191980464369347 
-0.01562556094631639 
-0.0006759776454745047 
0.01365746827341388 
0.003587409991467904 
0.01707478593546588 
0.0164981572483141 
0.04157076341937242 
-0.01627888260555066 
-0.01133835898725999 
-0.001979709499713244 
0.01687989383754445 
0.02393235416556676 
-0.03019922890860919 
0.06222668845283928 
0.0567802517019508 
-0.01135308026671676 
0.01534718201181578 
0.003885041477179919 
0.04525296228828547 
0.02906303717116231 
0.01282532695656527 
0.01898884153289762 
-0.009447943430683725 
-0.01383467542008057 
0.009487962913009074 
-0.02590603198654974 
-0.01474364426004026 
-0.003117457126369635 
0.005559327180032893 
-0.008673221191563047 
0.01152397972463352 
-0.0113686213723337 
-0.01127592353133109 
0.02505977122310135 
-0.01259160655921882 
-0.007141744660505993 
0.00149910809664865 
0.008972897532159369 
-0.001170004045480519 
-0.002045774207004822 
0 
0 
0 
0.001506189107578535 
0.003530132526699696 
0.01410793590805724 
-0.08240042639047712 
-0.04394917837135388 
-0.01327470481884653 
-0.01296887001527161 
-0.001743335866667588 
-0.01434685823689622 
-0.009250212635032137 
-0.004972514195615829 
-8.874428039669342e-05 
0.0473864752198397 
0.01666011763413644 
-0.01505852477255863 
-0.009604195552677162 
-0.007820875355839698 
0.001116127792819691 
0.003887717688278931 
-0.0402280253475994 
-0.02755814190859186 
-0.03054546064162815 
-0.01547748411168916 
-0.02072897414907198 
-0.03962823601819263 
-0.01865625091297244 
0.0008568309333104218 
0.01892551850818447 
0.01655762107985749 
0.006363221999539401 
-0.05697954243369514 
0.006495305903750696 
0.02582337637826216 
-0.01773294552620772 
-0.01328510948341184 
0.004389885176635103 
0.005958365407688028 
0.02334378746415453 
0.02016745834377533 
-0.05583574028446911 
-0.02945162913683459 
-0.01976879771474496 
0.03994128536129059 
0.02773883591075694 
0.002240080248270949 
0.008086082531907839 
0.005873835136950193 
-0.003472697378029038 
-0.0259678026604892 
-0.01913610816571809 
0.02126120078733611 
0.02333760189278939 
0.02662388088586874 
0.01400427314749383 
-0.02159572957275259 
-0.00756175205670971 
0.009729588380156374 
-0.00787747714383955 
0.001391389613293923 
-0.00466939741573939 
-0.02733845923485765 
-0.008582372772376959 
-0.01660999287859916 
0.03085891955478518 
-0.007381894146065272 
0.04863047276144414 
-0.01201825625662458 
-0.007411021037263408 
-0.01480245398773912 
0.02881398769378858 
-0.0252387757019145 
0.03818661191372943 
0.009471400536814384 
-0.006537244592146794 
0.02890944938774665 
-0.03618902423978947 
-0.003957737667928682 
-0.007868347132428996 
0.01599225986546084 
0.001669674230177676 
0.01320299955055272 
-0.01587685717697373 
-0.0502327608362893 
-0.0009549080436870256 
0.001406437059968685 
0.0006054809235100442 
0.022901526410508 
0.007449849084704383 
0.006114655750199025 
0.007315626687236525 
0.01343583028426699 
0.007867850036023357 
-0.003528857821371969 
0.02034575902344038 
0.008816095618567379 
-0.001748958470983284 
0.03498812795678182 
0.003008382116704199 
0.003031870454188124 
0.01253424381540075 
0.004021575632475118 
-0.004620740238309267 
-0.03056566335029812 
-0.01403248642318996 
0.004488805261287499 
-0.02179903740767786 
-0.008961174178220819 
-0.006728127143278937 
-0.007529636616385619 
-0.009082531286961152 
-0.003555468823027708 
0.03518172203303616 
0.02436713130190251 
7.291972788528403e-05 
-0.04526265240221995 
-0.01647791793992831 
-0.001945570576365288 
-0.02337047110052173 
-0.01294290418051944 
-0.006327801323879714 
-0.0006991434505823725 
-0.007184551352046945 
-0.02077291771321019 
-0.002912662290564538 
-0.01275528238748233 
0.00489605967619244 
0.03496132204421508 
0.03735916463198541 
0.007535372272348322 
-0.02240413597851953 
0.001064052888502231 
-0.01160298175216043 
-0.01411830716671217 
-0.01014955936612513 
0.01126457735074205 
0.0181492403301225 
-0.007130356139993367 
0.007423644225755829 
0.0125408468054498 
-0.007864148091217486 
0.03519966555843792 
0.009287563094780809 
-0.03268212662686362 
0.01575015178795887 
0.02556914033560915 
0.04347912126954747 
-0.02058998493151998 
0.03222379665764958 
0.04613474619874133 
-0.009216702485295327 
-0.04074807200106099 
-0.01796042162325664 
-0.01426432745378953 
-0.006489842555794572 
-0.01236724399813112 
0.01826731880301913 
0.02906918758682709 
0.01616868039358577 
-0.01291558369335787 
-0.01669099369910909 
-0.01513444934216642 
-0.02271801169597385 
0 
0 
0 
0.01038038524853664 
0.02033016631849464 
-0.004787908887729396 
0.009780729177001096 
-0.04728456262950777 
0.0536473936472117 
-0.03281735204919856 
-0.001326653834492468 
-0.01013051493840905 
-0.03562119138448066 
-0.02021360141090423 
-0.000511338675041903 
0.007342714122657283 
-0.002157606854284448 
0.01046571914354105 
0.02337838167485196 
0.007660773177282167 
0.007480531740454066 
-0.03791440007628069 
-0.0381365400624018 
0.01633647397602812 
-0.04786184931525798 
-0.03224000945172757 
0.004470727830804309 
-0.02133000615058326 
-0.008001484290486541 
-0.008862921466124806 
-0.0005165562529383112 
0.002939046447012298 
-0.003610545219258894 
-0.05282111657982252 
-0.02911215638484602 
-0.009233227874884955 
0.002523081010490478 
0.005603690886982482 
0.006912180957027134 
-0.04971506635306375 
-0.02334149689165603 
-0.01868608675979323 
-0.02960643719431389 
-0.02568727146721469 
0.0136582124580063 
0.02818981295510575 
-0.00896307460172599 
0.03191594147858971 
-0.02860086238372377 
-0.02784692800054501 
-0.01941723556383797 
0.05927324783084554 
0.0359723511004508 
-0.01394840041539617 
0.03765521119925422 
0.02648017805678433 
-0.006420819164461846 
5.400274441234762e-05 
-0.001356733091071058 
-0.01706893094949585 
0.0190304637459416 
0.01551781939330037 
0.009868525342349029 
-0.00635230154690546 
0.001924964189065616 
0.004108556437821056 
-0.03022135232994212 
-0.00569443772386163 
-0.01073825800012554 
-0.0469791728385029 
-0.02047077135774019 
-0.01540155623355486 
0.01601768279507151 
-0.02358924672490989 
0.03358452369804871 
-0.03667120034727982 
-0.01231625458655049 
-0.02065583990733549 
0.01842169829715281 
0.00885211486569292 
0.01873244192011611 
0.0199981526675102 
0.01839401019133553 
0.006409479552405989 
0.007850901937222087 
-0.01006273714818251 
0.02698937866983316 
-0.008886376844176124 
0.01731359578403044 
-0.02758078965810746 
0.06229105992762921 
-0.002829086958448389 
0.0302720928271416 
-0.0002493188496083259 
0.009313374409569541 
-0.009497261602605009 
-0.00426175086264969 
-0.001120957409013345 
0.004179497720562295 
0.02289156579589999 
-0.003208448353729262 
0.01683699239358522 
-0.0310388486133426 
0.004821957456662244 
0.007470673880255135 
0.04252252713082764 
0.02511356731564085 
0.02925316197044959 
0.00523136924436807 
-0.006291750205296377 
0.02671397815712785 
-0.00584595296437434 
-0.003431109063002977 
-0.0006320914065926868 
0.02468670077872172 
-0.006956800058889995 
0.04963869527794815 
0.004415496395305659 
-0.01224830489556003 
0.03164706321017829 
-0.02001167037217103 
-0.009435895421740403 
-0.004690762766230595 
-0.01454986559857011 
-0.00465618913557665 
-0.001155893475534845 
-0.05367229923794095 
-0.02768488327260457 
0.004348921640107503 
0.01955060867078793 
0.007420695701170217 
0.01536102263947866 
-0.002659445986802793 
0.00409294785507426 
0.01302714737905015 
0.05698686540399565 
0.02729791919178965 
0.03222774671655525 
-0.03095125993558055 
0.01625502037036346 
0.01554057733591408 
-0.08026615442201361 
-0.02001971383215891 
-0.01342018245137257 
-0.01116175665147644 
-0.004237189361475865 
-0.00320973513735732 
-0.02894797582127704 
-0.008602153586582971 
-0.006895936235777807 
-0.03147908839622547 
-0.035340874476889 
0.002409597626395806 
-0.02250844239702282 
-0.009363308698835513 
-0.006234561537942519 
0.006897046940447536 
0.02988891070412121 
-0.01308032642294001 
0.003116259891192799 
0.007141827523116036 
-0.0102979021524747 
0.00857223707501714 
-0.002658239734968068 
0.02066433935988784 
0.01525351995191132 
0.02540186902841589 
-0.03733288788008644 
-0.01955644221066729 
-0.004226739784622128 
0.009536349473850821 
0.02894691803374589 
0.03117325763867402 
0.0128952467050178 
-0.01999120319988631 
0.003694368856344862 
-0.01525042857673063 
0.0406278705336795 
0.0246109012821453 
0.01382467019849404 
-0.04541715872224451 
-0.04393622238690685 
0.01440413113056192 
-0.002067197482636594 
0.00751789141976255 
0.01366736181149902 
-0.0245804991288012 
-0.01728895236835416 
-0.01663039195306932 
-0.02384777931297445 
-0.02427221117234273 
0.02276707456158348 
-0.05272254188100432 
-0.02623257408361162 
-0.02593347182636461 
0.002021795403150697 
-0.00167124313832907 
0.0176385164580468 
-0.03157779998134319 
-0.03489436670126564 
-0.02405474944662491 
-0.01723837881478409 
-0.02635180610666142 
0.006399747285967962 
0.04192006733914817 
0.01915300323008916 
0.02705679745877611 
0.01026084621640562 
0.0008748070367223477 
0.007913647714255538 
0.02399862197293064 
0.00738763606259644 
0.01204289205991135 
-0.02666446634176847 
-0.01187793998937918 
-0.002350616852974182 
0.01692672294237327 
0.01928783979436029 
-0.003448965931279251 
0.02657440824567247 
0.02340119281352244 
0.002034350892644156 
0.009656274374242163 
0.02076102117423949 
-0.01489707444754131 
0.007905545463170169 
0.004957864108659051 
-0.005170313069204475 
0.008489829369145125 
-0.006290876574681611 
0.0195196024451007 
-0.05975929314574008 
-0.030720890280384 
-0.01005755002121083 
0.02889666799768208 
0.02064927639347457 
0.004009112437060678 
-0.04047345762359212 
-0.01811689994671924 
-0.002125070401334877 
0.0396602012423765 
-0.005219831222239342 
0.05145215771201271 
-0.01668035448298238 
-0.01324648773650915 
0.0116351715816939 
-0.02007294741963273 
-0.00955611010742371 
-0.007305326636479903 
0.01297931719646601 
0.01945865176799326 
0.003057242960611223 
0.01471638525048471 
-0.001624027418468054 
0.01635260578969824 
0.01303863074070324 
-0.002548081753090947 
0.01100823873951939 
0.001462150306581562 
-0.01717354087821 
0.02831739191998725 
0.002894265880800532 
0.0007350887322513417 
-0.008267969523913361 
-0.01686135672409548 
-0.007207066007666331 
-0.009108119854190621 
-0.02733203077323472 
-0.01597884409925447 
0.01369198618971472 
-0.08029404243474893 
-0.0293136539891115 
-0.0382243218571519 
0.04740414632215939 
0.0233016362651223 
0.04064433948967942 
-0.03335556777002333 
-0.01865914975588849 
-0.03769696766343307 
0.01931357690052184 
0.01619551659725911 
-0.02201499601915659 
-0.07498829681108689 
-0.04412651835183538 
-0.01417177367763009 
-0.05621910312402627 
-0.009684192306259439 
-0.006661802419079669 
-0.02422074607514687 
-0.006338555858421818 
0.006379719895959982 
-0.03737588996650996 
-0.02453235146419355 
-0.004244946652624111 
0.03503824997496723 
0.00289005219723937 
0.02869944669179655 
-0.02076317711936512 
-0.06282719816776126 
0.03759732249351577 
-0.01746421105027625 
0.00696226966262752 
-0.02629670956003837 
-0.03371871246266119 
-0.007479553725566133 
-0.02168606793254378 
0.02992787644329208 
0.01123428076489011 
0.007258428951530942 
-0.02891376009478873 
-0.0107738565783951 
-0.004025340056869338 
-0.03459595826593627 
-0.02161022467520824 
-0.001922503223168545 
-0.03084554178168256 
-0.002825868540399375 
-0.03345610796128681 
-0.04713001082202251 
-0.03186935929083524 
0.008229302604299096 
-0.06149100369874896 
-0.02495021917191112 
-0.02114622137290642 
-0.06620129207369826 
-0.03860586271129545 
0.01721801764742515 
0.01303735318885218 
0.01820520432282766 
-0.01601925008494846 
0.00507470898845227 
-0.003062058415048145 
0.00404024904485592 
-0.02114067155388196 
-0.009038949224417296 
-0.01304132241917024 
-0.009787558880306768 
-0.01007895741736519 
0.01046279068904513 
0.02640048556699419 
0.01011807003496831 
0.02953625219450858 
0.02916782280345888 
0.003988199945802717 
0.04662449043713017 
-0.003083923842782262 
0.005255165191314451 
-0.00309862887036473 
-0.04171051886548165 
-0.01471724670638959 
-0.01669083005436674 
-0.03969375916790432 
-0.01796346013647978 
-0.0009036618343086332 
-0.02120616631731681 
-0.04150947369352313 
0.03027270340410068 
-0.0429970337599761 
-0.01797381083920864 
-0.03220201635150164 
-0.02944984873992067 
-0.01888146296198979 
0.0015810384551277 
0.05228670565557883 
0.01612067278822707 
0.04460995753040187 
-0.01839359979608444 
-0.0001939961916102231 
-0.03907958194720635 
-0.0517413707757418 
-0.07482545902274802 
0.02899093671142081 
-0.04483469487651832 
0.03079437102567467 
-0.07827961617841397 
0.003487544616915585 
0.01619074412721164 
0.01061686219263005 
0.05837279065393231 
0.02574447267927494 
0.01192272077042356 
0.01101098366420893 
-0.007378846113545737 
0.01942017422402745 
0.01277254235499412 
0.004725354937395193 
-0.000308496800369696 
-0.01547529425998488 
-0.01036795601024179 
0.006454832248493832 
0.02715474687122072 
0.02401626449085886 
-0.001231338595049776 
-0.02803447996272217 
-0.01195927195115916 
-0.01487740593133157 
0.008290204395105683 
-0.03490709161649613 
0.02875260234232137 
-0.002880190385079727 
-0.00152653248770305 
0.001400687459979808 
-0.1095532821999728 
-0.06798005219219917 
-0.02352056292488833 
-0.03792535978702968 
-0.01387843226999195 
-0.002368290228401668 
-0.01666068602943674 
0.006858540184038994 
-0.01663442371626431 
-0.005471421908293342 
-0.003164019426090535 
-5.31423545268916e-05 
-0.002363015549422981 
0.005792115822203439 
0.007147849235635656 
-0.02538607336673836 
-0.01326564932544769 
0.02393897502543558 
-0.02394133364449536 
-0.0119517053859124 
0.009930125369823718 
-0.04899141205665679 
0.04237181832974168 
0.03475499805312121 
0.0006143575337295918 
-0.01482106784654801 
0.01010414827735144 
0.01952499806873448 
0.01057349816481409 
0.01346356199803404 
0.003989768147250742 
-0.04415084832753639 
0.04484261528457523 
-0.009289938231959807 
-0.003268892473072917 
0.004627020094922086 
-0.01228176630489201 
-0.001183562932535716 
-0.01038394608410249 
-0.007796410202348394 
-0.03458698411793353 
0.03227141227775331 
-0.02276079338351142 
-0.01114333064913748 
-0.01471917437063146 
0.03718113388491526 
0.03493135781942339 
-0.002542353783232058 
0.005541217495330823 
0.006716915182812151 
-0.01306500898383258 
-0.03548212586376641 
-0.01794846734351534 
-0.02026724179253411 
0.004102524475901347 
0.006595407386442269 
-0.02146976312164145 
0.01377816026388428 
0.008620647810979085 
0.006470430982110364 
-0.0005243079835728159 
-0.01577365787957527 
0.03387617606453081 
0.03816546323448427 
0.02832329004568931 
0.007884778437082461 
-0.04363521276530618 
-0.02975138709311766 
-0.007965917592383515 
-0.01017243048581969 
-0.02360188132190904 
-0.004363050854674185 
-0.01497816039983187 
-0.008315620088592662 
0.001896498281111319 
0.04419212318089838 
-0.002267668697411658 
0.04265788939352174 
0.01724511251401097 
-0.008544535244013871 
0.03017998714593094 
0.03222895704022628 
0.005444775506915918 
0.02086231162398909 
0.04745609960087112 
-0.005122670884870484 
0.06167781991916689 
-0.01346880112801716 
-0.002013758302916396 
-0.003274454940842755 
0.01969009912280551 
0.02303314960171908 
-0.0002631858971668051 
0.01073197270760556 
-0.003828468117447398 
0.003478367735114895 
-0.03690702743597702 
-0.02307388746382347 
-0.005442977625142475 
-0.02210183474706037 
0.001520883891114449 
-0.03722871623820899 
-0.02553342614451002 
-0.01172239090208187 
-0.01621910978798989 
-0.00566456215649514 
-0.01477105489435115 
0.01056715494268529 
-0.02198981473472567 
-0.01680861900218546 
-0.01655985842795352 
0.002804319685740001 
0.008215188298475009 
-0.01342614990478338 
-0.03588562217791626 
0.04071110858601958 
-0.03894305209338386 
0.01114357332529586 
0.007684346400083706 
0.01475301276254669 
-0.01456123683497913 
-0.02600883457230939 
0.03040466184367972 
-0.03193952105100071 
-0.01388609552070748 
9.127097666628559e-05 
0.06031859633200523 
0.02135453054996419 
0.05417711235116483 
-0.03315563445082696 
-0.01562517239403631 
0.0004963581392511551 
-0.0105718023259226 
-0.05496872062603225 
0.0006385281905645014 
0.01982405777943518 
0.01864719732388853 
0.007305513830033207 
-0.03310627595051695 
0.01009881339612802 
-0.03473767340352673 
-0.006794411629985625 
-0.007704752071076753 
0.01916295335083238 
0.01217087676918086 
-0.01366510871892515 
0.02381779198332749 
0.01027641806802739 
0.01758963836202421 
0.03834512732203071 
0.0415645342767488 
0.01275889525145178 
0.02469140900739685 
0.002679149426993178 
-0.0004137368919782345 
-0.01837849575996625 
0.01593942005031591 
0.005214033836797287 
-0.009878010999555769 
-0.008986404280461805 
0.00298078907766908 
-0.003047766971839982 
0.05803674308731697 
0.02136750237577307 
0.05217344646939177 
0.03582613062980995 
0.01803826310481401 
0.001025193447792911 
-0.006681217778989221 
0.01468771435624224 
-0.007849276666516122 
0.03244708424857769 
0.01471913076110518 
-0.001692472386066923 
0.02277962335639593 
-0.00812040463362086 
0.005014155333687265 
-0.02802614509299582 
-0.003674651893452274 
-0.00742607915253925 
-0.0007929904498405375 
0.002039715386785711 
0.004447194092708746 
0.0009328040261387584 
-0.000220565412795358 
0.003028283290436558 
-0.001743978547836827 
0.001367686609343528 
-0.02477716057308746 
0.01196843240654831 
0.02872159378930241 
-0.02398746684436769 
0.00382579999248641 
0.009412820485864408 
-0.009461869852965994 
-0.05564080752978873 
-0.02824205130024047 
-0.008126451115436622 
-0.004767714520081027 
0.002247884440186725 
0.01056929562722624 
0.04264099477214407 
0.015939869038752 
0.03490068296133098 
-0.006514053451276737 
0.003873444030232535 
-0.01363470138492618 
-0.004195012405620542 
-0.007667591002887192 
0.01351806388412718 
-0.0588905300025807 
-0.0179647010162451 
-0.012258698040367 
0.05669540954547726 
0.02195791834358733 
0.02385289225072903 
-0.02076789143443309 
-0.01830268561253299 
0.004486478146964881 
-0.00151735509882913 
-0.007850366903277317 
0.008473363493623369 
-0.06334401882745569 
-0.02781607839455193 
-0.0190630846835343 
0.105095293884293 
0.03165030362581536 
0.04045179730504497 
0.01904737017615492 
0.01859952154188029 
-0.0004158209975685842 
-0.001291718228890489 
-0.006485733912465585 
-0.001060385490524632 
0.0002072780204558368 
-0.04812232869062198 
0.02403956729337601 
-0.03295006494215416 
-0.02856731429757285 
-0.007057909875235987 
-0.09445308137937881 
-0.05155804855118211 
-0.005873916184960192 
-0.05223314289447481 
-0.009991883984126081 
-0.0401618777745518 
0.02121105631689848 
-0.002321913274974619 
0.02146394031267726 
-0.02266756476221053 
-0.00645829974073814 
-0.005024721909724288 
-0.03360700555910822 
-0.001383873865556335 
-0.03379084068980617 
-0.02645333132296799 
-0.008849697727652884 
-0.01692025083090636 
-0.01327805071219146 
-0.000965568673592593 
-0.02330135714966997 
-0.01246404865808861 
-0.008153340613923555 
0.02805882032451837 
-0.03182214075837953 
0.01339575343594746 
-0.01089507067256978 
-0.01997522264565874 
-0.0190386500389698 
0.0275495481609794 
0.0644777003937675 
0.0248841954206553 
0.0360805402164983 
-0.0148592844636509 
0.01733883909899028 
-0.04839208305149598 
-0.03666264942082575 
-0.01467577959736637 
-0.01714185084389014 
-0.01798805501104466 
-0.007568015299984461 
0.00950627120496722 
-0.03039198029845981 
-0.01224815208185354 
-0.003997752019555039 
0.0008414747262414128 
0.001846768385705809 
-0.03181156792294821 
0.03178773431152519 
-0.006390332961327814 
0.01305285551501918 
0.002726486064729911 
-0.00150776590056685 
0.005172200540702003 
-0.04280567217816828 
-0.01788576657745762 
-0.006189083248205434 
-0.002357216919300355 
0.03841762973941128 
-0.04490763979975452 
-0.00177891020728329 
0.0003690045735834919 
-0.008251080934403446 
-0.02876068194994395 
-0.002881506519235264 
-0.05161716609137228 
-0.07112950317325294 
0.06323179899206977 
0.08619757134747461 
-0.04057026219028751 
-0.01814043432512293 
-0.01808619897446538 
-0.02009620004572494 
-0.002151690406886759 
-0.01693600676842757 
-0.03852285963096685 
-0.02573173209365508 
-0.01204042423029134 
-0.02655960890297287 
-0.01134040626593288 
-0.006305245505238042 
-0.03859199289677406 
-0.01454506426160477 
-0.03118150985973882 
0.002049122098640727 
0.004400066926439222 
-0.0006306592841112012 
0.01055557182859614 
0.0046630125510942 
-0.01023091262694831 
0.04806935468172412 
0.007474218578294374 
0.02478946889305176 
0.07044224410375488 
-0.01235857703334951 
0.04838842426086923 
-0.0002887012622156314 
0.002941515026761877 
-0.01114115209086794 
-0.01211570726457921 
-0.001936272944635591 
-0.01734981168133779 
-0.01752375864718554 
-0.006463435392137125 
0.009054101497558769 
0.006061793579816291 
-0.0003756280393590584 
0.002538298867239058 
0.03043799098726997 
0.03293374225677808 
0.01421863710427166 
-0.02099571130945583 
-0.01031797397154274 
-0.0007120136521755324 
-0.03987660476013114 
-0.01982175895079521 
-0.01049304536346495 
0.01991521193263804 
0.01900627518831031 
0.00440966226387108 
-0.02179409711734018 
-0.01491925802983985 
0.01259583505481551 
-0.02815177213284769 
-0.01020704950959359 
-0.008295328867170418 
-0.01555448599392056 
-0.007109425933877585 
-0.01122007824757656 
0.0212615843346253 
0.004935335834194015 
0.0149831981485616 
-0.01549483755715685 
-0.007579179579338378 
-0.01039063987296287 
-0.002278669587464819 
-0.001723237364394667 
-0.006949628772836399 
0.0119743851684371 
-0.007537664745835582 
0.008935372521961221 
0.09341646653907108 
0.007912176655247787 
0.05558756748859629 
-0.006556422702875837 
-0.002438922802062174 
-0.01296907338855054 
-0.03600331805691619 
-0.01073266106795568 
-0.03371387047018071 
-0.02786661688316733 
-0.0003342457229112561 
-0.0201712166990455 
-0.002656262173813416 
0.001162738897681059 
-0.0001435558535100899 
0.01851162013876507 
-0.009653557671992349 
0.01354345226773408 
-0.08844289332934611 
-0.0409114798234038 
-0.0279754386196736 
0.01300523569503454 
0.01169399003274634 
-0.004582125448683982 
-0.01584387703302127 
-0.004878651710087844 
-0.01396963294302863 
-0.03344877152923009 
-0.01729615501611393 
-0.01324969524935687 
-0.03716233203258036 
-0.02026199992979434 
-0.0003970682043350549 
0.01916155272311482 
0.003113074190499613 
0.01306453683949868 
0.02270385339685888 
-0.006304055095912506 
0.01586625269239601 
-0.01442247489335929 
-0.005262029435916797 
-0.00126029107489395 
0.004548349345064891 
0.00792967018388121 
-0.01059613685615791 
-0.02513629267347951 
-0.01297695656874424 
0.000287323463851207 
0.01693766282468901 
0.0164161411665045 
0.01867203128597388 
-0.002603061185448626 
-0.0007163229835772198 
-0.007269609197613107 
-0.0009703843968606815 
0.02856681858905407 
0.02109892470029986 
0.05640179013736382 
0.02096922633269752 
0.01598901777608553 
0.04729228713990325 
-0.01548540018144306 
0.06371850070176729 
0.01103808656200222 
0.002215788726539113 
0.02015154977647159 
-0.02022688808363556 
-0.0003754520009016416 
-0.02331110932661579 
-0.02792669724749849 
-0.023128941797147 
-0.0001881745141310192 
-0.01048241258332953 
-0.002644490434986454 
-0.03317066367746201 
0.01629710149030338 
0.01421012706950019 
0.0005044594562644079 
-0.000522578305071079 
0.00774100671038701 
-0.009694392283961231 
-0.02291883096455872 
-0.03630904373220309 
0.01507393861720463 
-0.01157548104477901 
-0.00192473253490318 
0.0005994780399572539 
0.01173074146721346 
-0.002470227912419522 
0.008825954166856128 
-0.007732590355604185 
-9.455985356904109e-05 
0.002110816151711546 
0.01286120602325562 
0.01017620923164253 
-0.01161538973053358 
-0.01837718169407451 
-0.004776197083975917 
-0.01315095546388383 
0.04080944567829228 
-0.01889908824030456 
0.04785002896228947 
-0.02136275193705738 
-0.02117688867416101 
0.008608952974424725 
0.02232004652276127 
-0.002895719221323522 
0.03043638996935041 
0.003554717625635322 
0.0236650160774097 
-0.002979843405642357 
0.0265500440302811 
0.0145404879350648 
0.007160829002340689 
-0.003081094373317068 
0.0122168655265543 
-0.01970112134280948 
-0.04031438083560383 
-0.02376697081422013 
0.006696577076683879 
-0.03320500596065281 
-0.01448652995902561 
-0.00224668991113055 
-0.01270807364974315 
-0.01790044807312179 
0.008656417747835314 
0.01323364951283465 
0.01795420817479996 
0.006431250115160244 
-0.01478092061218065 
-0.007034142216659114 
-0.00996425745878941 
-0.03346508778342135 
-0.008752113378157459 
-0.02044121599638258 
0.05390014455873649 
0.04308988953217687 
-0.0009289049292708337 
-0.02331880679607767 
-0.01244623576315929 
0.001764984696232416 
0.01578619865882435 
-0.04918085009519731 
0.03996194234257942 
-0.02809604318797931 
-0.01428886897528002 
-0.00677233683734667 
0.01713227315551444 
0.01600788387147694 
0.002795318254943149 
0.01411740024655906 
-0.005102054387396889 
0.0125065369136406 
0.04326172039690789 
0.0334792089199646 
0.01815594747087068 
0.01391643149829151 
0.01096625901910975 
-0.01091169377898246 
-0.0293409495994624 
-0.01617290401322454 
0.0001439160919847918 
0.03686492755475213 
0.02729755158548361 
0.02285101556051535 
-0.07017518042794955 
-0.03872613517968481 
-0.009835508128427015 
0.0008997293024660542 
-0.006931003789371055 
-0.005131224418719584 
-0.01608510729896468 
0.00597063347840976 
-0.003670007280076464 
-0.02831857873404931 
-0.02810970141190804 
0.01389041612544941 
0.00721651307360453 
0.0001515047857175569 
0.0002308351924198539 
-0.05095663225147617 
-0.02150852532422118 
-0.01524287783486745 
-0.0188483230114702 
-0.006766179957777008 
-0.007221842844881931 
0.03681575485868929 
0.01431477972461396 
0.002812587540531944 
0.01646338125815371 
0.01642036788571567 
-0.03022219715764234 
0.07330328846355713 
0.0460206478214948 
0.005796534832209325 
-0.01585042580283435 
-0.009185692079230359 
-0.01218055324081744 
-0.01194088806293587 
-0.005126596391043288 
-0.004193880724118859 
-0.05290740947133225 
-0.01914017196746796 
-0.01912889929899323 
0.02850206307214826 
0.01313304193856503 
0.02755584288617318 
0.01549296994229359 
0.003824982076293181 
0.02050959260831138 
-0.01025924197811557 
0.001197876174163891 
0.0073917731475985 
-0.008498800940979307 
-0.005804652069394342 
0.003209065515554031 
-0.02946228891229712 
-0.00491578415131449 
-0.01229437414772288 
0.01212836431667696 
0.01843829262173271 
-0.007798792635954254 
-0.0007500528470213762 
-0.0007403371693754217 
0.00172732826694882 
0.05457531085783385 
0.01361558941907083 
0.007353365174198951 
0.004222797435855052 
0.002626342526658165 
0.002392966089274369 
0.03785401887388233 
0.01395824831348774 
-0.002924401540207673 
-0.0184451275958741 
-0.01009908885961795 
-0.001992044892424805 
0.02323373670285237 
0.008390172185042068 
0.01538737824385054 
0 
0 
0 
-0.03212823435570945 
-0.01183855602244903 
-0.01292968988790995 
-0.01144102998878936 
0.008274807783529525 
-0.02782430548510618 
-0.01557658091265175 
-0.002980006635784616 
-0.002805156294437504 
-0.0297694906340416 
-0.007741126594116984 
-0.01273604667910615 
0.02361514742616549 
0.01088076015546004 
0.007171422602426384 
-0.0109470070415424 
-0.0005821216284058239 
-0.01965999211518164 
-0.002823392896503486 
-0.00608489223380101 
0.007465863258601013 
-0.02250007894858673 
-0.001782794720225837 
-0.01833566776592472 
0.001774770035727326 
0.003513816870971537 
-0.0024349720254147 
-0.02115619704039528 
-0.008536713671096308 
-0.006888235330422163 
-0.01890036115752427 
-0.004022587747672505 
-0.005442240300503155 
0.02028780479957306 
0.04740116264475642 
-0.006474323023025617 
-0.05648951718441723 
-0.02861598295154948 
-0.02401876746810716 
0.01569504507526159 
0.01237651021895498 
0.001913162496044189 
-0.01292713043151519 
0.003815366186079252 
-0.008641550320202937 
-0.08770312015209095 
-0.03652060998172393 
-0.0254619059377475 
0.06531373755845003 
-0.01787660603271126 
0.01928756880129679 
-0.01770164698216851 
-0.009192251136675182 
-0.002461265130606695 
-0.04949379866487739 
-0.02104397856127955 
-0.02548750422779981 
0.004935259416419176 
0.04763074372611324 
-0.02194623078678399 
0.0535464800061933 
0.0001692855098584827 
0.07119023468896581 
-0.01026196498453345 
-0.006293981436072339 
-0.002481794464754927 
-0.02939059272380494 
-0.007130601237463925 
0.006105611309427689 
0.004092703475686126 
0.01109313471037224 
0.00893374473281021 
-0.03670614164061549 
-0.01040007871979991 
-0.008510558573466174 
0.04792126833910676 
0.01905592057138538 
0.008983794649335845 
0.04416769930522235 
0.03038320469765225 
0.01686899160220063 
0.002855040461807804 
-0.01491032276672177 
1.624056706754596e-05 
0.03488187102396063 
0.01862917247059789 
0.03625048671680867 
0.02010627068688923 
0.04532914523162847 
-0.01510381848016015 
-0.0001407188850861061 
-0.0003608185162046194 
-0.001923516671020455 
-0.07241539150459445 
-0.02604004111458314 
-0.02099565722566931 
0.02339636856862873 
0.02277788841811267 
-0.0146737630398175 
-0.002671998400225432 
0.001542649702211595 
-0.01261151256655354 
-0.01851111841129421 
-0.01126618902440901 
0.01901381958748512 
-0.0006025888683037596 
0.008277923820997311 
0.004631924224453599 
0.03119103289613992 
-0.01085104333850846 
0.03014689754827245 
0.03773105144844316 
0.007834008178613055 
0.04686196972045789 
-0.02065655157652153 
-0.02681796415588874 
-0.02261634547453179 
-0.03235476788034521 
-0.01849471959152784 
-0.004997779010305846 
-0.009634855628400465 
-0.009850517798380068 
0.01561308685704651 
0.02850578566555979 
-0.0034495918693926 
0.01551670742181175 
-0.004155296485066125 
-0.0005951897598442218 
-0.009593135851258233 
-0.02107719149492324 
-0.0005481965623214324 
-0.02894787232860829 
0.005658894619282952 
0.005375421976094676 
0.002530594080570258 
0 
0 
0 
-0.01289271745591126 
-0.001028639804185735 
-0.012759339802057 
0.01321390684281033 
0.008981035424064622 
0.007046123261477795 
0.008604687250103236 
0.005006298821084446 
0.00538790679637886 
0.007216106547630542 
0.004858502776613288 
0.001056283796709095 
0.005686629883990251 
-0.001882506183933129 
0.01040914330454101 
0.05272170280157115 
0.0294464836237157 
0.01321095169154244 
-0.01432735114772737 
-0.0141597852086349 
0.01698042522677653 
-0.0160513818956515 
-0.006057977914862236 
-0.005439011216555036 
0.005236572978474548 
-0.002360545882384397 
0.02597825447968965 
-0.03530710416171939 
-0.03293938684356439 
-0.00971342238307122 
0.003541793751002881 
0.004489418698907481 
-0.006432879495072909 
-0.03273193688788266 
-0.021467559409929 
-0.01161120978116366 
-0.0199510192348561 
-0.001462795890087054 
-0.02250776936023006 
-0.05444989095570827 
-0.02626461037594724 
-0.02651310903344611 
-0.02247080020058347 
-0.002225781346299139 
-0.01122087337176417 
0.01218707604459686 
-0.009827155466562543 
0.02700975230407247 
-0.009982293897864892 
0.004991484371405215 
-0.01468859487930103 
-0.01877583311337292 
-0.01086924629275722 
-0.0005469035234481728 
-0.03257794456456065 
-0.01992419779034675 
-0.001988696464537796 
-0.003461085803947753 
0.001748798335756157 
0.01227142644681891 
-0.01337904829700616 
-0.003259166140127816 
-0.01879636838096745 
-0.01219728700609913 
-0.03120598355900036 
0.03157569723167829 
-0.02915907334059691 
-0.01385683252259913 
-0.002367542635723645 
0.01026100667614587 
0.005664534122587314 
0.004660739396645486 
0.02250032356655997 
0.01537274381664329 
0.0001618425934289557 
0.01708418437694813 
0.01197566915726695 
-0.03578276290691637 
-0.02093868965644916 
-0.005495696409235114 
-0.002569998025370538 
-0.007904906530691192 
-0.002988833401559089 
-3.010649846552146e-05 
0.09616720166685326 
0.03080340215462427 
0.01822579104710076 
-0.008979911117540765 
-0.004098424326794877 
0.002474639105210951 
-0.007057015126728179 
-0.002766627717210332 
-0.005798457918194534 
-0.0008112653376874489 
0.001015988249297062 
-0.01041104589812505 
0.02261679072406622 
0.007015279697131 
0.02408880101992389 
-0.03354821820824971 
-0.001213517573324021 
0.000111117666641811 
-0.002337029345872418 
0.01147141337008895 
-0.01546371346214179 
-0.02170725666195717 
-0.01123648231540337 
-0.006545381971197987 
-0.01036772513877296 
0.001973177380449218 
0.008803077722293133 
-0.02295508615473163 
-0.01007077525982552 
-0.00405776479143104 
-0.005668233064151221 
-0.007777570532601606 
-0.003969214277664534 
-0.01815385787744773 
-0.012160477834662 
0.0005896835491354584 
-0.02533920514511257 
-0.004253471675889253 
-0.0353508868133524 
-0.00818897369518288 
0.002378449483122694 
-0.0109524402027519 
0.06419911156083197 
0.02634084366707928 
0.03848326614523565 
-0.0669161626680419 
-0.02181581888651262 
-0.02856715793896334 
0.07299876027505842 
0.01821443437038588 
0.06126994667462531 
0.05323639121151191 
0.03034871128983224 
0.01242764417197677 
-0.006405609552350094 
0.000424468946504959 
-0.0008276002655254644 
0.01023303157167856 
0.01014934390662538 
-0.01723022477588878 
-0.01118823201384789 
-0.005853388500037197 
-0.0001026136604330627 
-0.0607753577279071 
-0.02244785440621353 
-0.04042865825756157 
-0.01371441091519075 
-0.01129868862881587 
-0.01194395163474809 
-0.02141489962347533 
-0.008035741606823261 
-0.02311580587593577 
-0.008000631472689321 
-0.009507441516149247 
0.008479976531969186 
0.01510186842627462 
0.01263844920902252 
0.00074254238107513 
-0.04369788209059317 
-0.01663753040650161 
-0.01585277050382103 
0.02210886252917415 
0.003539574746095771 
0.03089058958693987 
-0.04022075564360517 
-0.01866303863739146 
0.006189043402021006 
-0.05899890832465848 
-0.01122877371692791 
-0.06994594419672956 
-0.04183648821202381 
-0.0154931127683642 
-0.01492197509271507 
-0.01019319182572971 
-0.00253687052829989 
-0.003210775840864838 
0.0144647781483745 
0.004854571923267624 
0.0008303775331025571 
-0.0117269980959541 
-0.001715034384564327 
0.007229367888124986 
-0.005117206660255766 
-0.001074894073680127 
-0.01268450879775905 
-0.02134624196073353 
-0.00506534542543222 
-0.01593335556066217 
-0.0381413072667228 
-0.02433203263046529 
0.01503745722061427 
-0.009084147343530908 
-0.005018297428632802 
-0.004604061112171046 
0.05753822525047016 
0.05468856178939772 
-0.01918906691061464 
-0.01684166388143468 
-0.009646579995702712 
0.00407209059818177 
-3.009254359897261e-05 
0.002175053666430593 
0.008538010447415314 
-0.02693084904293155 
-0.01733471540130073 
0.0137300885878378 
-0.01933497922951939 
-0.01429670807973466 
-0.01734932609922177 
0.01774277470237602 
0.02078523635411403 
-0.02444416172415893 
-0.03504112844246794 
-0.01250641965094494 
-0.00292947125255803 
-0.01922952203783256 
-0.01142920786099724 
0.0001943666613882506 
-0.01427548679870264 
-0.004990523280794401 
0.01130403847272185 
-0.03749781356767921 
-0.02085753333198685 
-0.002526756183627922 
-0.05984126196576027 
-0.03907156375755613 
0.001216460604375597 
-0.02304730418076806 
-0.008910316850296035 
-0.02379322443833799 
0.03094308236678183 
-0.03379122331209549 
0.03066535279841752 
-0.02479354776441416 
-0.01360899984459568 
0.006133906610433649 
-0.01550089022475854 
-0.009504938756606596 
0.002399464039851659 
-0.03737079619397641 
-0.02251884113995331 
0.009787306180508108 
-0.03909678663347052 
-0.01634644075138991 
-0.02218363479113054 
-0.02200784845675417 
-0.01518455346744583 
-0.008599333904172208 
0.04228487545834139 
0.0298852715410679 
0.008821578934888651 
-0.06359631399724197 
-0.01857980469430125 
-0.0087472921244569 
-0.0002016916820492359 
0.007932583796855582 
0.02876443998960391 
-0.03763056781576146 
-0.02350490717544813 
-0.009200285506048476 
-0.01218411213254759 
0.0004052814515000089 
-0.01155101306688892 
-0.005843113452403074 
0.001225624812906608 
-0.002303812720950898 
-0.01071774740685278 
-0.002529836030471164 
-0.005557921747697387 
-0.02174836590704334 
-0.01353698071652121 
-0.007636084185604635 
0.001703070569570917 
-0.01726794986823052 
0.01826615456590703 
-0.02275769817593868 
-0.03298690196526676 
0.02086576916800048 
-0.03118183023230348 
-0.0130629350233353 
-0.00148653118472322 
0.02534233909360366 
0.01520111706046993 
-0.03121657092667425 
0.01416611868841442 
0.01287684813046908 
0.0008251179795543754 
-0.01340442569854538 
-0.05935690274385413 
0.03672680064479387 
-0.04014294200078419 
-0.02015018976055079 
-0.01451439214268202 
-0.07200240561211677 
-0.03811300047704934 
-0.004835708086755987 
-0.04325920166128689 
-0.03705826981178743 
0.008010725577448242 
-0.06850478480112257 
-0.008309777690941938 
-0.05106504794317424 
-0.07024574314222856 
-0.03404238967611806 
-0.02695426760374067 
-0.02013238939139051 
-0.004512921664456017 
-0.0108591717732684 
-0.01096487746457337 
0.01573565394436024 
-0.02973057121773863 
0.01994565890990967 
0.006572619089867857 
-0.003145802978252476 
-0.01210217747673869 
-0.006126858792501333 
-0.0004203976814645221 
0.02217673365916095 
0.007615642594918701 
0.007610292970664355 
0.01133485673039907 
0.008163867856909573 
-0.0066642668940704 
-0.005095554050934612 
-0.004251107990277056 
-0.00557211455250377 
0.003588862116074474 
0.00525815512393066 
0.01826583043739888 
0.007482616667389756 
0.006863593636305638 
-0.002319273306614967 
0.04531022523791859 
-0.02269514151312549 
0.03090601643145113 
-0.044420208952633 
-0.02079931118564819 
-0.007901696692806489 
0.02496979616890082 
-0.005052351117097762 
0.0373903740327373 
-0.04985157740333237 
-0.02972455910011343 
-0.03391124242115384 
0.01087392907875857 
-0.0204783457501799 
0.0177091286455379 
0.0009017943161326229 
0.00371278434313788 
0.005292280647650528 
-0.05450914608662267 
-0.03021553577444992 
-0.01266406526340015 
-0.03771800239944412 
-0.01702973425994446 
-0.009815131107932541 
-0.008229046625309825 
-0.004445443017305978 
-0.005304742114165564 
-0.02793173020353523 
-0.01834707375914115 
-0.002599797174855263 
-0.01445699170920053 
-0.002293802415539701 
-0.0007232051327559545 
-0.03693593309193594 
-0.0206241514413584 
-0.004940394634390838 
-0.03836305602826016 
-0.01309481654499758 
-0.0240381303106854 
-0.0283512830211706 
-0.01125917963592041 
-0.002034574602803578 
-0.009440420142793468 
0.001188206385759068 
-0.003148320428690603 
0.07821227507242104 
-0.02026629009875702 
0.03971849188516494 
9.946306740047666e-05 
-0.0004866522290503168 
-0.008397370321927923 
-0.04511922359611965 
-0.04178612578272343 
-0.003487332629965124 
0.01557470684983082 
0.02286673285960062 
0.0003027071982258829 
0.0008939562170994114 
-0.01111442397296682 
0.0006795323769798387 
0.002543030493990934 
0.004604472954911385 
0.01558888117308068 
0.04871003865867125 
0.04683726320724708 
0.005475640251935728 
0.002007591745195685 
-0.001923941209604547 
0.005793927165327031 
-0.006203994239108596 
-0.0005704381053863132 
0.004017124576130681 
0.0114540323570876 
0.02262077276258116 
-0.01683834193422693 
-0.009441994522378962 
-0.01265666446313375 
-0.003634086780656234 
-0.03149052651067456 
-0.001901641865090257 
-0.007752138916393986 
-0.01768308968061423 
-0.01017979184774791 
0.002230835419821324 
-0.06073901953971684 
-0.02456632726349794 
-0.02533974912180765 
0.01682288544875158 
0.009866463336936221 
-0.0005080402456082789 
-0.009875724043768372 
-7.638675262867809e-05 
0.0007577533936183586 
-0.01019005069654171 
-0.006490217864887925 
-0.01172955419057909 
-0.007780509893531916 
-0.004624933585891019 
-0.001852062101944665 
-0.02054685180301915 
-0.006508208250494539 
-0.001801853369159283 
0.03338170269004224 
0.01124291958781955 
0.02167162712339143 
0.009811978322159177 
0.00912886987687927 
-0.002264720230249024 
0.0502349971279368 
0.03159516649497501 
0.007537897906387661 
-0.005063570275532055 
-0.003343489482784068 
-0.00500896456668141 
-0.03084708495571536 
-0.006949005013600264 
-0.01283762235007103 
-0.005769725700135142 
-0.002575691569572049 
-0.002035122071935372 
0.0008699321058834813 
0.007520530144103625 
-0.02680113082482024 
0.04740999249989027 
0.004370121246991891 
0.0006263125185164044 
-0.01454004201862554 
-0.0009323463484715354 
0.0146317149964042 
-0.001233087745358599 
0.002835936378587774 
-0.04552914329705204 
-0.02236685427714866 
-0.01205714095529178 
0.001984250230597359 
0.05589639599948856 
0.02162673666106136 
0.02689624406353709 
-0.01754674907862461 
0.009286268594939008 
-0.01944321794839684 
-0.01301167343119413 
-0.005305659202470521 
-6.431359158904306e-05 
-0.02376332258947248 
-0.008465312456803093 
-0.005941993080152009 
0.002071975628887883 
0.004820462452992216 
0.001538210813539892 
-0.01095736609789693 
-0.002103351670328502 
-0.004816878769139638 
-0.02284969894569954 
-0.01286266523106094 
-0.002975712468106328 
-0.006524406774083735 
0.001504700818398215 
-0.01050890603073588 
0.01153655758120685 
0.00927730450301148 
0.01273772821227998 
-0.03224334151119735 
-0.02198899827335176 
-0.003097622290624648 
0.03129971584812034 
0.0233435062749775 
-0.01275258391066588 
-0.03493304827219224 
-0.01254228190510566 
-0.02124366455157032 
-0.0185279370116013 
-0.003149504569052709 
-0.005164773616310228 
-0.02641682326065769 
0.003954586159550275 
-0.03689219105449026 
0.03681892547084805 
0.01898119139283696 
0.0195875571929561 
-0.04093967951966615 
-0.01868780784085491 
-0.01075296387853397 
-0.02704805677088396 
-0.01078551589371543 
0.006847075603569738 
-0.02817289605445046 
-0.02441989641578265 
0.01585813401669818 
-0.00672520312064141 
0.006316994418231498 
-0.00647956890072804 
-0.06439864624111218 
-0.02768149818460204 
-0.03287257447570689 
-0.06094913202955062 
-0.008406771959683283 
0.003662274445083184 
-0.047130006821734 
-0.02904478580462253 
-0.01183174458128243 
0.01463987232256046 
0.01533359403488908 
0.002999904218142013 
-0.01983761930493238 
-0.003537669527349578 
-0.001598021367188322 
-0.04484506338958857 
-0.01718573246962533 
-0.009895707641366443 
-0.01895881377341264 
-0.00953512094296757 
-0.005260874967625082 
0.00406684300477903 
0.006858123721479122 
-0.004041423572631824 
0.01191386712682747 
-0.0005138475558757407 
-0.01901757844832185 
0.0001484238670117629 
0.001554908105584955 
-0.005594178615581667 
-0.05168492020645025 
-0.01743410423978357 
-0.02873590350545003 
0.02959434635235509 
0.02191994992240577 
0.01962468769839113 
-0.02410171765377836 
-0.01032976403627664 
-0.003477794769271267 
-0.003207159319037989 
-0.03047948217804429 
0.0165835171273162 
0.05778336725343924 
-0.02971511907959438 
0.03529513731078641 
0.002917709451964865 
-0.001974159519154562 
0.006164385288465624 
0.04567069644715971 
-0.02900556305579213 
0.03299946834406303 
0.0116705540931196 
0.01453151366278127 
