solver_type L2R_L2LOSS_SVC_DUAL
nr_class 2
label 1 0
nr_feature 12288
bias -1
w
-0.02231055748532954 
-0.03251071784019962 
0.01444672862212316 
-0.03255153936099502 
-0.0284033223683424 
-0.005306077879192232 
-0.01048836436343486 
-0.006906127222089099 
0.001829709202157611 
0.01856535971428863 
0.01270386698604975 
-0.0310340413165591 
-0.01587717737292354 
-0.002875667032276863 
-0.01689853035722609 
-0.08099488949020706 
-0.0520492281709285 
-0.03728409583795929 
-0.04815562426798126 
-0.03018812111035057 
0.03162817503490992 
-0.03832007297878214 
-0.01749165499512098 
0.02308176090896824 
0.02128972184777506 
-0.005767115962562852 
0.007252902534912395 
-0.01465274402839612 
-0.01047840134209774 
0.01620078805380623 
-0.007706643143129044 
-0.005706197553528624 
-5.565858770107111e-05 
-0.03490686045457619 
-0.008913481847874527 
-0.02964504470648111 
-0.001219350169417712 
-0.01978613223006011 
0.01033541404546241 
0.02083315870191462 
0.006150771241084574 
0.0102754768223762 
0.00566734177636095 
0.01046410680990253 
0.002792022803770766 
0.04252766624618706 
0.0001723529306986357 
0.04717869094628625 
-0.04346181043780517 
-0.03582050236943461 
-0.01979277687703278 
-0.01433468971897853 
-0.01586439825111508 
0.005677107961966143 
-0.0261912725388855 
0.01056847542190251 
-0.03774882218608629 
-0.002959400843030217 
-0.02852649928832589 
0.0179955545042329 
-0.03396623661134421 
-0.01230397455189363 
-0.01493507013857212 
0.01800671777494019 
0.02690094352256505 
0.002325262955151445 
-0.06763378885342695 
-0.001267972383660911 
-0.03323636758564662 
0.05821140687224964 
0.03611432333120073 
0.06722412534434166 
-0.07006760572836612 
-0.03543801206593436 
-0.0168907895551885 
-0.02565993660676843 
-0.01513723832324484 
-0.02155518685824892 
-0.01283070408840582 
-0.007146770047560957 
0.0004174246919447299 
-0.01195444387010727 
0.005978757976349836 
-0.020760923549793 
-0.04948315595080936 
-0.04816149194560086 
0.01516551405732386 
-0.03855207588036523 
-0.004186462314634625 
-0.008761583521669924 
-0.03563463516303733 
-0.02935895173278234 
0.02516573684603804 
-0.02565258567236202 
-0.005244163629377171 
-0.01552047475595285 
-0.02524129158876601 
-0.01406967068289505 
-0.008636647443740106 
-0.0342096663365693 
-0.01969961225754802 
-0.002861696460112913 
-0.001398201699239548 
-0.02259128418291691 
0.006133819670805459 
0.00572070953394989 
0.02234037978605497 
-0.02860389176324917 
0.0005349692890406599 
-0.005289836689261304 
0.002232976682846279 
-0.05775856647432203 
-0.04769043913944079 
0.01421230981396638 
-0.0009373479351035228 
-0.008043187242786421 
-0.0007592958612153949 
0.004682253432373551 
0.01560009393015292 
-0.0007752582375942965 
0.002200529936754827 
0.003074937453015898 
0.01976455735894848 
-0.0143160158015701 
-0.007316695662811287 
-0.004241640130608605 
0.02519376428317436 
-0.004743476203784467 
0.04278611411477268 
-0.05961444310647691 
-0.03838435462620701 
0.01765775096041887 
0.01597416178571896 
0.002774270644971311 
0.02060976782270404 
0.02504772829990936 
0.0274168531197131 
0.005336844130624411 
-0.002554834279070886 
0.01021897351488131 
-0.02882120142163504 
-0.02485063281631357 
-0.0197673012769156 
0.01516378222583012 
-0.002993497111689243 
-0.001298713710532382 
0.004451057561749561 
-0.02339904762921544 
-0.01025395205675403 
-0.005534121859742044 
0.01843565022076247 
0.02299996041767675 
-0.01602601241392964 
-0.02717510765806955 
-0.008537515923236349 
0.008387721497928602 
0.009093686777286973 
-0.0070833969508328 
-0.005287207115139147 
-0.02328582440158855 
-0.009537855315165364 
0.0001995431337263714 
-0.05076152104841223 
-0.02133290150676524 
-0.03077300836952637 
0.03390113290925176 
0.03928120283112004 
0.0215951144216094 
0.01723503485455435 
0.01848568774646931 
-0.009660300991855136 
-0.02652236172816105 
-0.01571832515296042 
0.005249341402105994 
-0.03437822369455092 
-0.01161789093751197 
-0.01971444683486463 
0.002025145428153782 
-0.01988331929436302 
-0.001960334262978523 
-0.08579298900441318 
-0.04137445007492121 
-0.03251352532874136 
-0.01998812544767292 
-0.009955452552194169 
-0.007919980308226738 
0.001013229922219315 
0.03548218959911665 
-0.01054657702765732 
-0.01120735108447632 
-0.01513622247688376 
0.002272568160068078 
0.02081019324437386 
0.008682798546231579 
0.01613512748071798 
-0.009554243236452667 
-0.001625675321504392 
-0.001325782156805945 
0.004337166533240732 
0.0003132795860495082 
-0.00663674290904292 
0.01541245113479455 
0.02652070999927752 
-0.02818679051246147 
-0.03836791925342792 
-0.01835643159527785 
-0.0222627977284374 
0.0156159071119165 
0.009715870441349094 
-0.007359748281688631 
-0.03283700417949436 
-0.0125365526309929 
-0.001052703279138164 
0.03336605256184063 
0.001567992192937381 
0.01994515225199392 
-0.00695792023935092 
0.001481055139548759 
0.01417942326456467 
0.01172539041298 
0.006249902442113289 
-0.003399953429679017 
0.008511617719363394 
0.0107403774519019 
0.003876955432248112 
-0.02919682625277296 
-0.004490034254362111 
-0.008010478522386313 
-0.05867840367859394 
-0.02544950361992555 
-0.02663891664426013 
-0.01642883627354613 
-0.01006514684789749 
-0.009295632607967256 
0.1147433234201718 
0.0857839408685947 
-0.01515734244482284 
-0.02394473910502068 
-0.0169416596458089 
0.01015704544628691 
0.0008281182185156175 
0.0006458197957725184 
-0.00828353089557766 
0.0149692027023332 
-0.02434472819795813 
0.0002786079724530681 
-0.0494422621139379 
0.002336108566444785 
-0.03809494375875946 
0.04158866754961715 
0.03216377691006545 
0.01685165398824733 
0.04651299994589247 
0.02169780017816361 
0.02085440943224919 
-0.01157752088378953 
0.004900184173227199 
-0.02071648960627974 
-0.02653846441669714 
-0.008796482914888682 
-0.02632072570588815 
0.003069058274148581 
-0.0080309431700502 
-0.004874128532761238 
0.01533082879835846 
0.01021470692675741 
-0.009793104263125928 
0.05181723615512215 
0.01889418703896206 
0.009140681485386916 
0.05174025282397344 
0.03202445655623756 
0.01419063165299066 
0.03341573405973877 
-0.01347008892691389 
0.04164900890977271 
-0.04322860585802983 
-0.02575687036740976 
0.01758154969739878 
-0.01292462372370336 
-0.01556160845563764 
-0.02856295431949249 
-0.05771900192462145 
-0.01211001191540751 
-0.05555566233481338 
0.02275134419484921 
0.005882281954190547 
0.001490708103798403 
0.01210138029730869 
0.00805572138822367 
0.002533536968560895 
-0.01427203093773235 
-0.003187992905960984 
0.004135447997371493 
-0.03410384797528733 
-0.007540793149934721 
-0.02143190916641223 
0.04440284786552404 
0.02985284925460463 
-0.01572242894506598 
-0.004093387550032615 
-0.001580357116908217 
-0.00623771326778489 
0.009967799110574027 
0.01300318196446256 
-0.009356056512750748 
0 
0 
0 
-0.02644472166784553 
-0.03064903335318219 
0.007132332536377253 
-0.0149060501234229 
-0.005114412807501133 
-0.009525899034646216 
-0.004621036321312222 
0.001281968316125059 
-0.003851173471966791 
-0.04752409596309791 
-0.02453620987202282 
0.01009699825399291 
0.02373688462570074 
0.01460648813366628 
0.03452469017568213 
0.01117491876146556 
0.006186544994886328 
0.008305120703426795 
0.0299851780273335 
0.02114490396877447 
-0.01576554842617365 
-0.05361414626168711 
-0.0225702665982203 
-0.01911488831423354 
-0.02106180950250331 
0.0120809015013841 
-0.05025729118309124 
-0.05491198916578344 
-0.01774160931892168 
-0.05850221478824844 
-0.009184696102455314 
-0.006840649167334317 
0.00412822796143507 
-0.002251216742216508 
0.006405387995805508 
-0.02202611363754709 
-0.007705011540023014 
-0.005439913247065301 
-0.007966269133282777 
0.03159251206954782 
0.0220718211307486 
-0.01402362517827445 
-0.002674194906586657 
0.002973481179621971 
0.02779775407366034 
-0.0181255660520296 
-0.006476356120337658 
-0.02522435272601826 
0.04971933440227614 
0.0309095714761994 
0.03198841669331355 
-0.02621307125314165 
-0.01721225990667031 
-0.001749391463125492 
-0.03229608986652855 
-0.02996182965295765 
0.01696821006298077 
-0.07151814852374512 
-0.02301891424756295 
-0.04394648275127023 
0.04952583788663126 
-0.01153116182323426 
0.03231965874674912 
0.0414877694075609 
-0.02109377368347204 
0.02741387917072943 
-0.01321647597729711 
-0.007165264979827043 
-0.03499523367883124 
0.0005924577133071836 
-0.02396609905712282 
0.00254242644061821 
0.02305894234439852 
0.01437043566786733 
-0.01706903503203913 
-0.05355507010111534 
-0.02390483095484925 
-0.01124477628283306 
-0.01743851850055963 
0.00882436282030798 
-0.009465896030991853 
0.0009560368978881294 
-0.001181845260789351 
-0.003957129066554197 
0.00267460173992957 
0.01156006329871525 
-0.02567489376407897 
0.02333896560999291 
0.001288398554162399 
0.01563504949841812 
-0.001315725756922031 
0.001203429475142697 
-0.01099884260514068 
-0.01279636388909421 
-0.001249665408081455 
0.003880481550080316 
-0.02463805728484266 
0.05179695777642745 
-0.05541826522725506 
0.01728542612529095 
0.009829865002401095 
-0.007462835356989122 
-0.03384596085870661 
-0.02506880936582027 
-0.006675854694251403 
-0.003669107157253113 
-0.002130073923458919 
0.001536217436391912 
-0.01405080525780242 
-0.01588971106280218 
-0.001976751168768865 
0.008721964630484243 
0.001083694599894775 
0.01819574548096821 
-0.01900389127747939 
-0.00583827446103415 
-0.007267792209148105 
-0.04362484388800639 
-0.01752412931587113 
0.01434269912837264 
0.01917914471430206 
0.006770877418049187 
-0.002849067045533653 
-0.005378520197304541 
0.0004846333179159726 
0.006548856484115085 
0.01233915459190433 
0.01080427265030292 
0.007001930561436053 
-0.02831657835065119 
-0.02209976772330464 
-0.01173981465907271 
-0.05412280861398282 
-0.01687138490338111 
-0.004454493186733107 
-0.02019077993653811 
-0.005274411808866279 
0.01094341931721577 
0.00906860416144138 
0.02144441194915445 
-0.005725776926134001 
0.01535539874527167 
0.03222708393891016 
-0.01608839070097371 
0.01263545062448418 
0.0003597004934635272 
0.02426020818576443 
-0.02871392719537506 
0.001010285434248151 
-0.02585897852209795 
-0.004844804511462558 
-0.006094044102524938 
-0.01744698544042826 
-0.02522460164637544 
-0.00360105572417788 
-0.009941913520635922 
-0.00130962099075295 
0.005112693770929959 
-0.006813178757915614 
-0.01033734691073333 
-0.01119420762589182 
-0.009425912043511996 
-0.05876589003697977 
-0.003066691424054624 
-0.02990566726552761 
0.04591200340058899 
0.03011309290518185 
-0.0001889953922066891 
0.004039542068781496 
0.01711563118707163 
-0.01344760935845851 
0.06117047129651039 
-0.04354725038926376 
0.02060464833436266 
-0.04725563517154147 
-0.02758261605423323 
-0.01574108137835526 
0.01086474168924406 
0.01639147154630816 
0.03502346662663213 
-0.03980353223988767 
-0.009073243501003471 
-0.02060739113989372 
0.01566907533380964 
0.01444390310852822 
-0.007667686573901746 
-0.00766761192906333 
-0.006014552362111078 
0.02346133917737704 
-0.0732836229918646 
-0.04243027651637504 
0.009081473977647409 
0.03873459984351784 
0.04485022983663225 
0.03391558768970173 
0.0324966878357385 
0.02832691587156603 
0.0213336403754585 
0.01035344972168442 
-0.009559598877377328 
0.01346632945578038 
-0.02413172572333681 
-0.0005300859037304408 
-0.01368847135121293 
0.004487302355701362 
0.0009982137585946664 
-0.001603805561974711 
0.00131645854595583 
-0.001337667742442436 
0.004181343747509648 
0.02133110261334593 
0.01335889279603549 
0.01599997112598037 
0.0005070002452635587 
0.001026192828851319 
-0.004698252797080191 
-0.05004711476161429 
-0.005186194539862401 
-0.03055115011943321 
0.02456561469067627 
0.0134284957517209 
0.005019396436904172 
-0.02752478836905941 
-0.009261153616921621 
-0.0104129626094925 
0.02023964159655299 
-0.01846257972214399 
0.05824575362164799 
-0.004851182362382884 
0.01940502948562086 
-0.003718849539698371 
-0.01362951084853547 
-0.01014612068047973 
0.01065751849493462 
0.01901124252635924 
0.01632318407431947 
-0.01981386554022734 
-0.0388347021616266 
-0.01187560672734968 
-0.01426877991677049 
-0.01740323045676555 
-0.003153686400500231 
-0.0004509306679702576 
-0.0650236884731 
-0.03174954763168363 
-0.03030447155382855 
0.001797914511516551 
0.002613694419367365 
-0.009705105083427519 
0.01359500795853408 
-0.008160056659058839 
-0.01526368484692031 
-0.01730485851066197 
0.008744457519973556 
-0.02123271908257491 
0.01601468927620351 
0.01173712610381878 
-0.01719222527030783 
0.00920137651163362 
0.01664848818329179 
-0.03828807392907251 
0.03819862776588791 
0.01680911449938868 
0.03292476755299635 
-0.02358082472327422 
-0.02004231558675721 
-0.01161985487232861 
0.07128016974716342 
0.04422302991145505 
0.01444045530546819 
0.003089122404739427 
0.01182469590973944 
-0.01550187523635698 
0.01416223045351237 
0.01841760827060279 
-0.009921565221793487 
0.01047542000252258 
0.01547771990333688 
0.008098128585734577 
-0.02327830090416456 
-0.01357214493137465 
0.002061654359013455 
-0.01510039932457218 
-0.006329476251974901 
-0.005921207435022518 
0.02035089688352219 
0.006002122333756708 
-0.005445857304768656 
-0.01912893657343884 
-0.01063882142236237 
-0.002017510966049026 
0.01400605359727969 
0.01165045775495948 
0.003852534401917422 
0.02875485600555332 
-0.007278458087392516 
0.01633349322367517 
-0.04183486725565376 
-0.0214578053934983 
0.0001400120322422399 
0.01699517169290468 
0.0244679699045896 
-0.01791313828702325 
0.005849967521281647 
0.01566642418378723 
-0.006227535898583679 
0.06737296824142393 
0.02091596430126896 
0.07072100961406287 
-0.0371565602361885 
-0.01359339217734024 
-0.00314884394072569 
0.03612838322668591 
0.04193587454452977 
-0.009270043473112059 
0.007367449594214435 
-0.000217401796131863 
0.0135923048040481 
-0.01277751396910961 
-0.009117255997886313 
0.01105598956710256 
-0.02354874350309594 
-0.002361806598017364 
0.004523725399033199 
-0.06390271752869071 
-0.03087260087573991 
-0.02038873218181384 
-0.01981729039130763 
-0.01918249558291654 
0.01241164308529879 
-0.03379927440997678 
-0.00564130142158479 
-0.02073124239166458 
-0.05413248365448953 
-0.03358993924007109 
-0.01305902035630629 
0.002235057930650223 
-0.01904870549630727 
-0.01363749299875184 
0.01663802683710858 
0.01163221669375809 
0.01484258446022211 
0.01948861258290671 
0.01149126691035594 
-0.004764055259182221 
0.0687462920265907 
0.02089822739907522 
0.05422542029570584 
-0.02589289743369668 
-0.009346522523871402 
-0.0126619647261806 
0.05444637635175406 
0.006254146996753402 
0.03240067493549292 
-0.01445617126073197 
0.003841289119996136 
0.001085322635320278 
-0.01450795283030882 
0.004024312201617361 
-0.008533799236663624 
0.02043427089600431 
0.01450208377724506 
-0.01873678100347381 
-0.0222855507401515 
-0.01130148903186191 
-0.02211069845363737 
-0.02165019518583685 
-0.01798903986391771 
0.01983179637648565 
-0.04174754021837677 
-0.02309159742215614 
-0.003414932313668832 
0.009113347652973142 
0.01396093478391548 
-0.02283687099134521 
0.002618833236451669 
0.0111410119607476 
0.03258340816086407 
0.01620498867991611 
0.01101916454542779 
-0.02430021403956263 
-0.0237744230578118 
-0.006357506495395122 
0.002791571824913133 
-0.03896797829995933 
-0.02641084917218855 
0.001122449983497319 
-0.02184275686786622 
-0.0299251733460661 
0.00128794174036793 
-0.01660702004342726 
-0.00827973499793421 
-0.005009063318697033 
0.000850482843508064 
0.008792088477009472 
0.003984061723862257 
-0.03852232644641229 
-0.02586743601544287 
0.008703673168862022 
0.0324773051460263 
0.01801803359913771 
0.01215685643793671 
-0.01594286817927756 
-0.009206175461920488 
-0.0002645850481994055 
-0.01410732154178882 
-0.01420757011212323 
0.01877727130085317 
-0.01503276530772056 
-0.02052076287311615 
0.01881588479442141 
-0.02073983428887414 
-0.01111302202576175 
-0.003475332982925517 
0.001785712041637943 
-0.0004451398775314186 
0.001591529926563281 
-0.02213592312514369 
-0.01108903716725744 
0.0003686025167475019 
-0.04536529653045384 
-0.02635502386516855 
-0.004624145937797322 
-0.03894601027206351 
0.005436585118131971 
-0.03750272152859514 
-0.08451107894484453 
-0.02946352672455825 
-0.009112951981828408 
-0.001127419247248558 
0.007611046827479662 
0.009737103161978086 
-0.07796231098686006 
-0.0280940261767374 
-0.03606690423486392 
-0.02151298468246857 
-0.01429057807425708 
0.008790543635842205 
0.04333810268689909 
0.02176211594869741 
0.009604225927676331 
-0.0005629530196266851 
-0.002214436227497754 
0.01086717781809892 
0.05126378561251095 
0.006859566453283571 
0.05405930677248602 
-0.1002663985766571 
-0.04300897526181391 
-0.03800050600472536 
0.002760589484270385 
0.01753580935539575 
-0.02094281414998414 
-0.06534059784338467 
-0.04690699233072455 
-0.03528301921841241 
0.008513783699265184 
0.008425196514604136 
-0.01898336722358537 
-0.03602225433425122 
-0.007196461128269168 
-0.0391179002983218 
0.02349704110392652 
-0.01535253420236115 
0.02456816354768769 
-0.02419929412966076 
-0.004743913453764023 
-0.03475009335492809 
0.01096234109625936 
0.004208663531789209 
0.01648032892513868 
-0.01373553317605588 
-0.005971595505766986 
-0.005547175722076541 
0.001417350396994156 
0.003713282045802854 
0.0001580993632548227 
-0.03212067621953905 
-0.01508124752829735 
-0.01036721635937757 
0.01750273909747255 
0.02260211964468382 
-0.02273251474717572 
0.04173018842118907 
-0.01576250452010598 
0.01942785109243193 
-0.04746468618008954 
-0.02341697260890774 
0.0001017869517193197 
0.02304097551795011 
0.01745321375955255 
0.01174158132462034 
-0.05274971331626675 
-0.02490588786386752 
-0.01829496087596958 
0.01749989720718814 
-0.00201179486607803 
0.03858144515030089 
0.01415085575185234 
-0.005710384785099601 
-0.005730208115381653 
-0.01128326625443869 
0.02695847503507796 
-0.0724426823838054 
0.01214874100788882 
0.0127813739933133 
-0.004177681449301925 
0.005683300172434881 
0.004612656853191545 
-0.001441950949025376 
-0.06814804939220256 
0.005462826980444573 
-0.02895188335052118 
-0.004490830064497953 
-0.001008154921788477 
0.001151760530367053 
0.03166541365464006 
0.02522671874427572 
-0.01595085167758355 
-0.02258294547782339 
-0.01132357535048593 
0.003906391105075346 
-0.02003028849024755 
0.007430256576930208 
-0.02833060878731027 
0.026621498478232 
0.02653951099850235 
0.003632274948448644 
-0.01975455147416104 
-0.006088434003738272 
-0.01657645095086272 
0.01547691252174512 
0.01614472691084016 
0.00388577481941946 
-0.01316590530325788 
-0.01251206806480099 
0.05850727866668081 
-0.02105657062336034 
0.0001582147504474229 
0.01844350899655727 
-0.02331441093914974 
-0.01107588309959709 
0.002947220129582192 
0.02030912882981695 
0.002905285949688519 
-0.01919403113657232 
-0.06302815229947986 
-0.04241476884640704 
-0.007044153078247809 
-0.04349226313741437 
-0.02272837154507585 
-0.01528993964044196 
0.02828888249577686 
0.0188471364760285 
0.0194001219883773 
-0.04504110332364613 
-0.03037724297120925 
0.02138980475083572 
-0.01743759346807567 
0.00254905064879812 
-0.01388580852116054 
0.01958661234579821 
0.01511767001507989 
-0.007909365007537557 
0.01097177129738552 
0.009697367038991269 
-0.01292663077778307 
-0.01713380295980716 
0.006351075417570275 
-0.01003124260454806 
-0.007761315582282476 
-0.003310894786257491 
-0.002998072925324299 
0.02558308913175895 
0.03563831616404597 
0.01153316498148134 
-0.01634201436496074 
-0.0102005744679325 
-0.01007164920245168 
-0.003645856857495503 
-0.04157496964186363 
0.05791271888837635 
0.03579980178517875 
0.02743202626219808 
0.000826650834625746 
0.05680561049281578 
0.03745944875121553 
-0.0138595079113006 
-0.009302723453054237 
-0.001089254677840933 
-0.0009286522685633441 
0.04752942828217817 
0.01470351337533061 
0.04010938085570859 
0.04607188479784978 
0.04533216737869229 
-0.01548801879855386 
-0.02295048534153192 
-0.01175008766250707 
-0.01647242492726593 
-0.01601833533096498 
-0.01155982756263134 
0.002245068282247939 
-0.04540613568757149 
-0.01978089177970474 
0.004223425538074191 
-0.0687198207090718 
-0.03277407761436828 
-0.03860177778594965 
0.03652694729925693 
0.02056014146808585 
0.01593509871001961 
-0.005411988374439397 
0.00469121798455133 
-0.03335165828630199 
0.009660855618519367 
-0.006631398900375484 
0.02108774595672388 
0.0003641134866188233 
-0.0005633434390926428 
-0.03790306605581524 
-0.04395245013276693 
-0.02027028791999786 
0.01485467386302883 
0.03137471005926587 
0.02031850602584821 
-0.004318207716354237 
-0.007076847274695153 
0.0005988302836035645 
0.00841351550347812 
0.002165571706453655 
0.006769066611512777 
-0.0101623276516761 
0.006119946115205649 
0.01078531649519366 
0.01402722356870715 
0 
0 
0 
0.007430930329174623 
-0.007645752029604901 
0.0003384766186066736 
0.0291269841727709 
0.02150393307019131 
0.01518312747618151 
-0.0009835739999509725 
-0.001637593480025346 
-0.02915573545804492 
0.06767414721628254 
0.06006299226381803 
0.06784069454402887 
-0.03318850895984526 
-0.03195430970630753 
-0.001502520056030618 
0.01381297395444046 
0.007304551388558545 
0.015111165698884 
0.03028858346577485 
0.01514696669036487 
0.01138662580468312 
-0.03787780047249154 
-0.002776295035851589 
0.02300069680548631 
-0.01850737547113635 
-0.00878350309555365 
-0.003196296271875527 
0.002472338843447228 
0.002915640334940511 
-0.004014350189106891 
-0.01904416703531959 
0.003126131404485495 
-0.01460221070130562 
-0.02888033939664116 
-0.01062210930492163 
-0.01419685275458245 
0.008310566362414664 
0.01173917403566846 
-0.002063786834528202 
-0.01253813021815813 
-0.001738334284761374 
-0.01468296675260685 
-0.02941753174731313 
-0.0158834285527658 
-0.005064528178871255 
-0.007232555700535593 
-0.006447732088457518 
-0.02037483781289323 
-0.02553744925377554 
-0.01369129080896531 
0.002816775361825907 
-0.03851763859616165 
-0.01400061945894098 
0.003853118707359107 
-0.04455955403378462 
-0.02088976638980859 
0.003003501518887914 
0.02346078633774419 
0.002605404428112856 
0.04384772008457112 
0.05641815498720039 
0.0537614286772668 
0.0013021712586032 
-0.09553342898311469 
-0.02433892260685583 
-0.014164639907051 
-0.0159383014281735 
-0.008583157152256759 
-0.0004579693613863045 
-0.006365970312398894 
-0.0008084017194798073 
0.002477885859326432 
0.02392344372528698 
-0.01677889206891786 
-0.007237746236096715 
-0.0789775488894689 
-0.03632163106686251 
-0.0308674252736121 
-0.03754913892000369 
-0.02875588490786796 
0.007576042020245866 
0.08408345298716133 
0.05370909360608702 
-0.006331496564218343 
-0.01956031651216854 
0.003043991535434642 
-0.02546656592500916 
-0.05764588517164172 
-0.01122124315036536 
-0.04086358195072798 
0.008820057381677899 
0.04818383032116389 
-0.01248587465587554 
-0.02371704606055606 
-0.01310441496197662 
-0.00430264392665366 
0.006260149391977803 
0.004133087072151854 
0.001933170871330227 
0.08260597657595137 
0.01776641108938004 
0.07819198976778235 
-0.02621185303233758 
-0.01059828583724101 
0.0008275022008387817 
-0.04298502344210284 
-0.03285162367229039 
0.005590676692883931 
0.01384524269823773 
0.03131473299375236 
-2.172456288529011e-05 
0.03433525946490564 
0.0275886505300758 
0.00655644094910449 
-0.03929631434742949 
-0.02408416264479791 
-0.02357165733386201 
-0.01278085640281926 
0.02496421818926275 
-0.06818523623424697 
0.005716589315823795 
0.0006799915604477926 
0.00306045654209492 
0.01103543943908511 
0.003103754165336647 
0.02419758682641077 
0.02861812223926744 
0.007466624986199873 
0.02381667155945612 
-0.02888406327521853 
-0.006621409394863869 
-0.02630611331854124 
-0.02141952448669867 
-0.01404906852722265 
0.002247640471971793 
-0.05100347743397884 
-0.02928486120341695 
-0.004108463274876536 
-0.004684063162528619 
-0.007936444625838281 
0.02546212593793868 
0.02128582834462788 
0.002293712709299699 
0.06804979440306469 
-0.03142181414228482 
-0.00435388079165016 
-0.03405511590924398 
-0.07920612129648597 
-0.04467174610467035 
-0.01407257310166019 
-0.02055192568513729 
-0.02024388442544425 
0.001774629777272692 
-0.0435675343251463 
-0.00648196094673912 
-0.03826488807830226 
-0.02091432651573958 
-0.006706442435744074 
0.002985420058276925 
-0.03345211232791566 
-0.01031897406598739 
-0.009971882234391532 
-0.03584658159052512 
-0.02013346005470229 
-0.004547107189656773 
-0.01715190037662214 
-0.012695874403993 
0.008920717265986762 
-0.0281676241510599 
-0.01659968969423318 
-0.01906850377367901 
-0.0517685928587015 
-0.01981981018802541 
-0.0305250499205633 
0.005171281121099456 
0.001599111698376527 
0.01691308045356325 
-0.002094428307733525 
-0.0005851365515736087 
-0.03761573375832157 
0.01629419751100022 
-0.009589530392105862 
0.01691126939275861 
0.00626712611987052 
-0.01310390372872904 
0.01541820733604014 
0.03031276127782542 
0.001130571020158708 
0.0322278510226672 
0.001677085287154374 
0.007191702146437605 
-0.01017463538196209 
0.0587195466634833 
0.02487957772425414 
0.03103500910671169 
0.02391898600711598 
-0.03043537098350196 
0.03167172589573612 
-0.03034930813900695 
-0.01601619735494164 
-0.009635502812173015 
0.02496122940546524 
0.008576259600547103 
0.002500902840988705 
-0.05279986013006525 
-0.00782361700194426 
0.000512542521935244 
0.01345898705626382 
0.01176652878124698 
-0.005497687260434676 
0.005407877782534952 
0.001511848917197342 
-0.01374130442459959 
-0.03761598629548674 
-0.01513444220765484 
-0.01465604707411336 
0.02112714097932936 
0.04064069018890362 
-0.002329183564846121 
0.05722719068301085 
0.03008666844461205 
0.02253657123618516 
0.03969538471977902 
0.0275575376529672 
-0.03334427170909092 
-0.01830035660356351 
0.009134920400298653 
-0.02803004343611653 
-0.002197014413993064 
-0.01137832797021254 
0.01605782650294343 
0.01887345039516271 
-0.0002693281442930524 
-0.004987353943890774 
-0.05332884306191808 
-0.02998690327880366 
-0.002753728531791505 
0.006784261876340862 
0.01613033728514154 
0.007625145453144344 
0.02949729386981402 
0.003589691467238322 
0.02690849950746155 
-0.02903551888453676 
-0.003942425103922433 
-0.006481000227206744 
-0.04149743400547761 
-0.02489791470178033 
-0.01679797308117429 
0.01305285696354128 
0.008062759672551047 
-0.01398822459788294 
0.03035635600108954 
0.02999169133240008 
-0.008698936472868072 
-0.007914963737618514 
-0.005253621114653426 
-0.007168477401916636 
-0.02884020475805655 
-0.002119023998809026 
-0.01692918852965309 
-0.03920173670230579 
-0.01249438437453633 
-0.01455953231606001 
-0.01447324218972685 
-0.009753850793004218 
-0.01094191282995329 
0.01921370632247654 
0.01093225738480783 
0.001749466040525517 
0.004228498090682228 
-0.009335584701619219 
0.03506525373812491 
-0.03535314920683219 
-0.01330324076275709 
0.002743395710028013 
-0.005586912572713747 
0.006554189728074368 
-0.0454320267285534 
-0.009521698719621115 
-0.003773180568197836 
0.004546676918449955 
-0.03324948561939114 
-0.006895966388790223 
-0.03263904037468036 
-0.04519782173490757 
-0.001965181280143476 
-0.03389373931042957 
-0.01016492024455988 
-0.006173219044894374 
0.00526136027696585 
-0.03724474725970988 
-0.01895468842622832 
-0.009952800238659184 
0.06348385189816548 
0.03487247018968247 
0.03197454961874472 
0.01303004499561143 
0.04942631700718473 
-0.001819851068705444 
-0.01626803266152509 
0.009165717701681319 
-0.0163934981577359 
-0.01758876650250119 
-0.03364156509543183 
0.009471354980192298 
-0.03867885629012776 
-0.02021879664691384 
-0.01636110177173192 
-0.0366398105156677 
-0.02009621422070153 
0.001714818457439291 
0.005788844342817352 
0.004977244474409292 
0.03062491663709079 
0.01302289807667061 
0.02161572091370648 
-0.0237783236013537 
-0.02888673911956915 
-0.01187469438429852 
-0.0116192500949782 
0.01185827704804932 
0.01627483766521998 
-0.01870918958690316 
0.0521513540342496 
0.04071695242142051 
0.02422364622028901 
-0.008987029029299999 
-0.005621437447878143 
-0.002782858002158571 
-0.07587952901021049 
-0.03237221997419417 
-0.01686544091911001 
0.0199081323889235 
-0.006736404057818713 
0.007081074327778042 
-0.03387877368208772 
-0.005711506992630754 
-0.03287156236074448 
-0.01815030906524354 
-0.005202981000277628 
-0.002432030943124954 
-0.01199114144346502 
-0.006511291311284503 
0.0003631409780989269 
-0.03049264708070381 
-0.01833630459080273 
0.01097687987440122 
-0.0009896197827611805 
0.01778643323334322 
-0.03603775887421991 
0.06690050155247035 
0.05366254639601879 
-0.01360399069600754 
0 
0 
0 
0.02462977560553995 
0.01157758711738364 
-0.009096771527861315 
0.00556092883505382 
-0.002612704888990455 
0.004123886839409616 
0.04992869029875678 
0.02952588089088178 
0.03252928114559105 
0.003832731066210586 
0.01006306301625511 
-0.01903841362000623 
-0.02334365129470515 
-0.01441625468802865 
0.001295305129308757 
0.001018540617052867 
0.006596980450656601 
-0.0008758721507301842 
-0.009024712936170347 
-0.01983190845661215 
0.04480539431316986 
0.02718138904532449 
0.007010100106149206 
0.03770689762347161 
-0.003683717753332924 
-0.01140097776657014 
0.02309087914902011 
-0.02622054821335745 
0.002110459929272829 
-0.02499178460625954 
-0.03373543642699097 
-0.03213183385564383 
0.02007101646284997 
0.0008563602944461419 
-0.001770885807694595 
0.009316760985561924 
-0.01527368530498044 
-0.01362994812841217 
0.008109210162407959 
-0.03922875629912574 
-0.04416870894138177 
0.005984982477364324 
-0.03592942758145257 
-0.0118042429671141 
-0.03861200015148286 
-0.03588541809056958 
-0.02424619869677147 
0.01393836232641213 
0.03845121680929918 
0.03020244064083969 
-0.01232702214444245 
-0.01605969313648536 
-0.009652571613241538 
-0.0004333919135134414 
-0.02976971939287843 
-0.01753988942390421 
-0.001318084651530362 
0.02986921911592464 
0.01330514405864226 
0.01075316941696818 
-0.0146129654163658 
-0.001421327948931876 
-0.006106247242656947 
-0.02302959376857862 
-0.0116252333614838 
0.007375608745877722 
-0.01737070458195775 
-0.01237914439109584 
-0.02437094495856697 
-0.03916318728959102 
-0.01630932237676283 
-0.009154546085654745 
0.004219902586330157 
0.003331675367972843 
0.01479676908433673 
-0.09526136570150918 
-0.03137248732291195 
-0.003290636467320167 
0.03125223917721241 
0.04485506913444293 
-0.03404498185074095 
-0.00507413672951583 
-0.0003076948680241584 
0.01781509896691938 
-0.03380923261183172 
-0.000437884908352172 
-0.005264345938842312 
-0.02076498874307772 
-0.01171567054877357 
0.009508086774970843 
-0.02106709638800355 
-0.007600325729878609 
0.001165078401894956 
0.01268052798303381 
-0.003592097482908725 
-0.007497137787553258 
-0.05868401440224951 
-0.01253994135737864 
-0.001202890702432504 
-0.04411634955407566 
0.004807565584088414 
-0.01330227491749474 
-0.01686454545498879 
0.01986447589470234 
-0.0457861982938809 
0.01859276762334367 
0.0277189149477592 
-0.03365802783470587 
0.04783560534090225 
0.0247985459317902 
-0.005033809147741897 
-0.02607324664105969 
-0.002333562860439342 
-0.02365791336283141 
-0.03043872118085893 
-0.01269158325228595 
-0.01260542608968193 
0.01621436907108688 
0.01849904300973434 
-0.04112047195293297 
-0.0270623349220438 
-0.01548427543375814 
-0.004878225805117644 
-0.04674701481827474 
-0.02562694506054477 
-0.01136123210863487 
0.03695899313822692 
0.008484111966065303 
-0.03297188474755545 
-0.03043749854014676 
-0.0119569894614492 
-0.01139306869119602 
-0.03023438824984852 
-0.008412896539366428 
0.0006841444723425822 
0.0167986618426969 
-0.001956967009518537 
0.02982360801645582 
-0.03849698528615374 
-0.0164677332017042 
-0.01305790854916985 
-0.02780620471153437 
-0.01387292901809632 
-0.006878256324349591 
-0.04124486721860669 
-0.002814998835577183 
-0.02305253915885484 
-0.05542349115250743 
0.01510370823079818 
-0.04748450262216638 
0.04339284913602929 
0.01231813929453043 
0.05460386704309179 
0.03890747819354726 
0.01426499904297327 
0.01006218231406767 
-0.02074262615664332 
-0.01336281763397176 
-0.03511427097761208 
-0.07099205319720393 
-0.02816150183655984 
-0.006065658641824063 
-0.002753040355731173 
0.00133295331115329 
-0.01293304500290922 
0.02377107836894502 
0.01528310739625295 
-0.0171964851001248 
-0.01635467345626893 
-0.01068074962419589 
0.01259438100806737 
-0.02350331815120225 
-0.01183126075801536 
-0.05590695513787493 
-0.003109583518826714 
0.004795617917043983 
-0.006424652967101446 
-0.0174384260563122 
-0.00872130211435863 
-0.008051054032235988 
-0.02155198282786957 
-0.0008807993991905759 
-0.04005613385725321 
-0.01572038319331554 
-0.009633900471473736 
-0.002842875583772546 
-0.0401619428929214 
-0.02408938766216131 
-0.01505639072279838 
-0.03258528811629881 
-0.021035063677352 
-0.0001558167085552934 
-0.008772580627997137 
0.006555845246753982 
0.02905568357995602 
-0.04719848927590228 
0.0006457092443884827 
-0.07244467042568105 
0.03086047705060142 
0.0293794627313242 
-0.01158697061671815 
-0.02426691812345354 
-0.01310630416511171 
-0.003642331078669005 
-0.06776364081021266 
-0.03850509466566178 
-0.02304981481306862 
-0.006926286970286132 
-0.02141309227252585 
0.007811114553639367 
-0.01607096034367994 
-0.005296097629236634 
-0.008478713279713329 
-0.007132802502282615 
-0.01068564340675461 
0.008772611988368692 
-0.005010392066212579 
0.01029696301700914 
-0.01534946051199411 
0.03029333083537963 
0.03157513911156211 
-0.01417115139206324 
0 
0 
0 
0.01958373430440035 
-0.006952974621637314 
0.004025693285762686 
0.007507871457943943 
0.01380808194098789 
-0.01180193339727197 
0.01608985961495896 
0.01105086855582906 
0.008017641452129683 
-0.005621204804239867 
0.05635360314905458 
-0.04596888916164811 
-0.02718985119984561 
-0.01012800586790256 
-0.007239557166014676 
-0.03285723806983953 
-0.0236967346187779 
0.009128950606149523 
0.02278260813973708 
0.01723031244455258 
0.01725011445939583 
0.03156827181793312 
0.02948300934133673 
-0.002296696699268227 
-0.02540224529554218 
-0.01434039722481664 
-0.01148328513629673 
-0.006819492053612031 
-0.003961448889832268 
-0.001554281573786768 
-0.01686805589279211 
-0.005463202343877142 
-0.0007251622668265973 
-0.04761303082149334 
-0.03273159624027883 
0.02417328673008843 
-0.01173827925232613 
0.001359509677988433 
-0.003118367152589847 
0.02504665963458014 
0.01938584530762056 
-0.004067145720099086 
0.02351616543329418 
-0.002228316485890764 
0.04358773022322356 
-0.05013998668363222 
-0.02437870967111846 
0.004378304663099261 
0.03834933191990728 
0.03894487771555178 
-0.01744112011554543 
0.02612280399187052 
0.02342577534149788 
-0.005867438666111776 
-0.01622136675852539 
-0.006662321192164457 
-0.002973367657988785 
-0.03294329865251893 
-0.01661025867743266 
-0.0154832371735273 
0.049469802555054 
0.02865763612127885 
0.01779231456853046 
0.01646829096918116 
-0.01367250964305029 
0.01685488022857259 
0.0731442868804237 
0.03256474094206849 
0.051377367825931 
-0.01335064650949505 
-0.01083862134979109 
0.004645338025894162 
0.0527617429197725 
0.02422002397715332 
0.02394542312748837 
0.07714931650273743 
0.04010889192179724 
-0.001860776821949125 
-0.07273661240965047 
-0.02798133223858621 
-0.03249495245513849 
-0.01989434998496197 
-0.01042218534285116 
-0.03104912274339688 
0.01960655892378859 
0.01707578258485063 
0.01284603679311117 
-0.01361635040146866 
-0.00944755803316139 
-0.009374324454892778 
-0.003440318662424197 
0.01322642099056782 
0.004750967878872819 
0.02269513351332534 
0.009167274330662922 
0.01622188820224161 
-0.002855408416258674 
0.003201645608789988 
-0.008725669446808694 
-0.0008723287650484302 
0.005981277902535192 
0.006294314631795944 
0.02224759564031325 
0.02777639093908698 
-0.02675188232113508 
-0.008118295610579033 
-0.003159600711739783 
0.0008766200496970252 
-0.03838811450270144 
-0.01555966198106231 
-0.0214793021982983 
0.02820315860018705 
-0.01586278626544208 
0.04164965576417768 
-0.03948844003450642 
-0.001183863226826322 
-0.03153813231603167 
0.009571240068973415 
0.01205681873895577 
-0.02486493145064516 
0.004902095997370542 
-0.0121700739392471 
-0.01362985270911339 
0.02960030685005662 
0.01513263145215305 
0.0272206148951001 
-0.02503138271682425 
-0.01416240688707781 
-0.01011034744316434 
-0.03040478554649506 
-0.02836390802949129 
-0.02229298634804698 
-0.02345123264257006 
0.002005804900370336 
0.03159788798474965 
-0.02278520029527244 
-0.006250926587151723 
-0.01133673281056848 
-0.01979879646490717 
-0.02644721587571152 
0.02973587297783031 
0.006068202958141396 
0.008313126898569364 
-0.02012301165221218 
0.08312751033677342 
0.04287653047487337 
-0.02695354768869177 
0.05388795883601701 
0.01461422727026095 
0.02761728551408728 
0.01314352228073649 
0.00524411247347443 
0.003653226164731584 
0.02605786506620205 
0.01849764657098662 
0.02262382159156997 
-0.05639607173121778 
-0.02388663639857392 
-0.02382857613221463 
0.004220664880501149 
-0.003646321546536313 
0.002759570567804276 
-0.03979205059190762 
-0.01432293987816034 
-0.02148528131244775 
-0.07789386591988434 
-0.06962606550734836 
0.01762078082594861 
0.07285432481360858 
0.04016618296071087 
0.02644720939749565 
0.02034329778835813 
0.01223065085552508 
-0.002088191093584313 
0.02083737820282158 
0.0007603530153706438 
0.01433922806217025 
-0.05171170404661773 
-0.0004482694887152773 
-0.04808855326897783 
0.01399265469035803 
0.007826296094971229 
0.02143111676281142 
-0.03414707184167423 
-0.01618186078531631 
-0.006445526271710175 
-0.0007975153633919548 
-0.0006905968777776185 
-0.0001188578937500006 
0.003388230516022122 
-0.0205781349306476 
0.03258215262908293 
-0.02480709508376028 
-0.02439493425831529 
-0.02344282583732936 
-0.007389632628371091 
-0.001911188629648108 
-0.004927633402886788 
0.01714637183952051 
-0.001253985365043436 
0.003173036359376756 
-0.02650623302184645 
-0.009435898884528336 
-0.02282432431734095 
-0.03567338849115124 
-0.01756942972422725 
-0.001618791992745064 
0.007493370624469015 
0.01078387744078404 
-0.005823939904629918 
-0.02116163738815885 
-0.01456715961212906 
-0.01489888327472946 
-0.01022546992004677 
-0.004630878372982389 
-0.008793199067530302 
-0.004533269543065522 
-0.009689279125062577 
0.006531735260217036 
-0.04086216192882231 
-0.01339318615387019 
-0.005165266051389086 
0.01830035272645411 
-0.03243123628302482 
0.03761485367082282 
-0.01562048924264996 
0.002341848240077249 
-0.003833033107353163 
-0.002275209970524 
-0.0009936946706883137 
-0.001299086487405956 
0.0009771178344816405 
0.004350686929646624 
-0.0360187016255671 
-0.02034893813195525 
-9.589794823146448e-05 
0.0002007608281534238 
0.02932458663040711 
0.02953592048643995 
-0.0226182211754538 
0.02231829494122627 
-0.009763276773201468 
0.05440130609126328 
0.01763703609949321 
0.01922195873675726 
0.01070054940585199 
0.02135016741815874 
0.01902575627684857 
0.0002692671476956801 
-0.003921261961536394 
-0.002752810716517539 
0.0005828038353043169 
-0.0621752121778204 
-0.04405273060319798 
0.004742475942822044 
-0.03563656503638507 
-0.0163579612811843 
-0.007474679467461507 
0.02316188459882164 
-0.004359727659329949 
-0.00695153323400946 
-0.0068576393673709 
-0.02033899473912214 
0.03233828339842511 
-0.0054297634368413 
-0.0006722136019836136 
0.01684811523446994 
-0.002052440884531922 
0.01554890514884633 
-0.01797995623038184 
-0.02723423677578124 
-0.02709996839160036 
0.01372088441154755 
-0.02696456501253196 
-0.0041498295905636 
-0.0003230498332826212 
0.01468118880263847 
0.01189569272170712 
0.001273518755408238 
-0.01837236882871034 
-0.007993207762602662 
-0.0006468910012008624 
-0.04024639541216007 
-0.01825052227753006 
-0.01770578509994572 
-0.006241152945339501 
-0.003047602819103351 
0.001425236116273834 
-0.02449165812855486 
-0.005427473291588507 
0.01721582713766766 
-0.03919098476008061 
-0.02483983546088794 
-0.01062169288351638 
-0.03235124886032032 
-0.01750079601809255 
-0.009806341104822487 
0.02175198713870479 
0.01095419874050904 
0.03817867526210061 
0.02369535775094533 
0.00847680047596755 
0.009264095986824438 
-0.0009535288903742593 
0.01470358085223277 
0.0100860669781657 
0.0004726877645873589 
0.007697787774144778 
-0.02711822019652963 
0.007521972423442934 
-0.001927965537019376 
0.0133868748565966 
-0.01815009114694382 
-0.003174542415961295 
-0.007181570601776268 
0.01490493877844602 
0.02039856036084544 
0.01658856459676557 
-0.04697843444979728 
-0.01536524143689664 
-0.03272807063724558 
-0.05762310914775044 
-0.02064027064834115 
-0.004805597653082294 
-0.04804974880223117 
-0.01944230071821682 
-0.004999457642369256 
-0.03455510991069291 
-0.004065665099118075 
-0.0197373305167618 
-0.01812915044573798 
-0.004939854692167961 
-0.003787040975851666 
0.02510872297657073 
0.01797938380525485 
0.02740293282018923 
-0.01165561617116595 
0.007677263457875961 
-0.01216605576099817 
-0.01793983766899774 
-0.02603987611230165 
0.002365051474029914 
0.01470006475086938 
0.03561985761204088 
-0.03343934246337511 
-0.01186180579621045 
-0.007978977965483787 
-0.009932406502956369 
-0.02718952950370833 
-0.01637143790634166 
-0.03489728277486292 
-0.0608610758788147 
-0.03292788061278222 
-0.01343091844356291 
-0.0199547042641459 
-0.01303520267374954 
-0.002544688662388447 
-0.01248016970966015 
0.002325906761680514 
-0.004271704052919054 
0.001294956080260828 
0.007108696881222549 
-0.03477530199974041 
0.008224071286020204 
0.004779686525796261 
-0.008296954593661494 
-0.01845653804291207 
-0.01012903947558141 
-0.01148630378483294 
-0.01597878352182338 
-0.01147071969248677 
0.01132833458991046 
-0.00313480533962648 
-0.002815858423972012 
0.0152488073541597 
0.0281403000083665 
-0.01364652866724469 
0.050515624474637 
-0.01580388543837526 
-0.003458140789184203 
-0.02222974151979549 
0.008885110670620448 
0.006292256123254781 
-0.01374800966329611 
0.03669064605802493 
0.003425532473991134 
0.05817471786437697 
0.0005108278603476355 
0.003713764002568381 
-0.04366983066983881 
0.03171845595516317 
0.01429479995737178 
-0.005770683660546642 
0 
0 
0 
-0.05545772806860712 
-0.02944825093482777 
-0.002457975820434166 
-0.03641300748999724 
-0.008079024652784266 
-0.02515305952767232 
0.01574725217314512 
-0.0156678866125039 
0.015101772278448 
-0.02041164967086318 
-0.004594784690885139 
-0.003642540750331815 
-0.01786372846853549 
0.0005412744630554335 
0.01529760913863398 
-0.07173104590266359 
-0.02162717618769024 
-0.03715336130101257 
-0.08653548187841363 
-0.04613118256525905 
0.01394867049880047 
0.001091773443186201 
0.01507664514671816 
-0.01979017481691423 
-0.03847787854539546 
-0.02192975820272107 
0.0003356597189394395 
0.05345558381001806 
0.04129688612486644 
0.03174304881252298 
0.02701069695112264 
0.01608662872429808 
0.01118382466874779 
-0.01945262577567753 
-0.001685982537646793 
-0.0261472050783113 
0.06235146435167054 
0.004157271578082105 
0.08340243323790231 
-0.03432413561050551 
-0.01927036307212759 
0.007142404951845811 
-0.01074961745826484 
0.001235676516706937 
-0.007754820198621417 
0.03234771245815614 
0.02183793366198324 
-0.0101341759830072 
-0.02241992880035082 
-0.008016317083927867 
-0.01912269223415378 
0.01589852862953394 
0.03728383334147987 
-0.01069033152917221 
-0.02743251406694584 
-0.01773732439392021 
-0.009026071281886526 
-0.0003154298836307517 
0.01285927579581196 
0.01001948904784819 
0.03694296824622312 
0.02471898439031699 
0.01375381580942307 
-0.01254839977741633 
-0.004903967426573737 
-0.01866293177704478 
-0.02310706862357728 
-0.01118114778061604 
-0.02456403948382202 
-0.01572784725298176 
-0.004824998629728456 
-0.02264969834274195 
-0.06056325065555895 
-0.07862184604565164 
0.00158981648758327 
0.0661357277280385 
0.06565483393768796 
0.001019539143429236 
-0.04325511069074198 
-0.04087403538480493 
0.01237731839846154 
-0.02930176699583444 
-0.01289479808024967 
-0.007644804180526367 
-0.02402663337802067 
-0.02017329108974039 
-0.006206223694346846 
-0.0116378116170927 
-0.004915746357842688 
-0.006354199613572049 
-0.03875798921759585 
-0.009473366393267044 
-0.04077558942445127 
-0.02679870407079239 
0.005012763562511244 
-0.0233549844291988 
-0.008051879444673574 
-0.001755188656229285 
-0.005797934053794004 
0.02132018415125857 
0.01138622499525984 
-0.005237893915934283 
-0.03460187278661874 
-0.02974992477566447 
0.0113264526791354 
-0.009184951910210114 
-0.002979844266372917 
-0.0005932075671691143 
-0.003871014536672858 
-0.007701094298191162 
0.04958179206112304 
0.0002013387877646497 
0.00203623629753889 
0.005185461087768024 
-0.02019704250750029 
-0.007963300501687873 
0.004853859899954789 
-0.09869830240853465 
-0.04422407287613311 
-0.005223703333737062 
-0.0411392875119949 
-0.02263261497620876 
-0.02127450602903669 
0.02333762112941415 
-0.01235592572529952 
0.03167928343584487 
0.0224198626197809 
0.01144068299863975 
0.0002309767687270272 
0.02316958708627097 
0.002699201060444428 
0.02595634888754477 
-0.008865664753490621 
0.006569306034705932 
-0.005076578396886429 
0.004480241162416606 
-0.009281412965007391 
0.0413671309578463 
-0.03091235367193535 
-0.01523999151206627 
0.01107252432197111 
0.02933780643714377 
0.01693900040749243 
-0.008231606750496162 
-0.03164004739586725 
-0.02184735621265991 
0.001647151081439592 
-0.01858165976734682 
-0.01400763845512329 
0.02382957799628214 
0.0967345936900154 
0.04338128080703926 
-0.003709016022179357 
0.04799570412766323 
0.03234380655771775 
0.006061880414563969 
-0.0492871787062526 
-0.02337999177624759 
-0.006894634982216169 
-0.06554193299288602 
-0.02801863132099687 
-0.00984551172567223 
-0.006377498562683178 
-0.003378612340778342 
-0.003162022727790397 
-0.01625150553412898 
0.002256376248159147 
-0.04001177414272968 
-0.03643884582632534 
-0.0200007654088821 
-0.01444960339283564 
-0.06244238112203528 
-0.02985084802452204 
-0.02140539985936549 
-0.009522642969159549 
-0.001805094870309855 
-0.00764449055806262 
-0.01841687341510639 
0.009535451911505729 
-0.01627240283006169 
-0.004007961428052633 
-0.00022267942004674 
0.01041969606340192 
-0.001570713756775941 
-0.005495726530153079 
0.004986421921737608 
-0.02553301934837335 
-0.01330536984349364 
0.003578875658278904 
-0.02778920088605186 
-0.006197824575066259 
-0.0258356272719121 
0.008831312019332703 
-0.008192531819413901 
0.007363584948769372 
-0.02349084483222269 
0.003651757154433452 
-0.01455118578690386 
-0.02405583154322792 
-0.01737886383538344 
0.01852680666372815 
0.004840359419157068 
0.00019905616455136 
-0.00132748524182916 
-0.0334475906105931 
-0.01914889292426339 
0.001202708120448461 
-0.07113403742394454 
-0.04017087085960103 
-0.0169815423871824 
-0.04864496675766995 
-0.03080342657204176 
0.00938843059960319 
0.0158719030809083 
0.01004558720567086 
0.02216585953385104 
-0.02804956892454848 
-0.01198117509572812 
-0.01703703669866632 
-0.01967685042454439 
-0.00633909831141978 
-0.02500729275656768 
-0.03392136490902402 
-0.006798162846201522 
-0.007569069713553337 
-0.02881353308856213 
-0.01593713118157306 
-0.01939490944705145 
-0.02799932623148488 
-0.01603898111673278 
-0.001782946146910256 
0.001783715000342493 
-0.007175790960967075 
0.01067658991973255 
0.02096040335905508 
-0.000267911287768125 
0.009658842565901361 
-0.04870702236764034 
-0.006649591314145464 
-0.04010274857739855 
-0.03715769765241961 
-0.01897798400376701 
-0.005684409382184488 
-0.005695776987578759 
0.01490118008703657 
0.007158734268374579 
0.01959466191816219 
-0.001473315474026123 
0.02606794587485802 
-0.01143089875743529 
-0.007414153384241789 
-0.004722395780670095 
-0.04224304429733991 
-0.02051393928111834 
-0.0004713688809092488 
-0.03734892405084466 
-0.00938411710679448 
-0.002734296479458271 
0.002460020880801259 
-0.004505861459872558 
0.01105243203441003 
-0.02968506853200522 
-0.01533554672778275 
-0.01587851709781448 
0.0561966595271257 
0.002546899217433422 
0.01398151684596724 
0.01172068053609539 
0.004961203541996705 
0.02011809099985411 
0.02078545368228032 
0.02173204629811379 
-0.008500823345864099 
0.03602880332471962 
0.0328889358701813 
0.001130361730534774 
-0.00748980228029333 
0.007799232792359691 
-0.003207038750728843 
0.01394393724125236 
-0.006859485890046241 
0.06207393427958328 
-0.009363135429216081 
-0.0044789219361728 
-0.01156105723749991 
-0.05489948351574336 
-0.02094861166757493 
-0.01383066087005841 
-0.02395083699775505 
-0.01069794912978327 
-0.004493564521066828 
-0.06238158260208849 
-0.03325623445290667 
-0.01971044335252338 
-0.01012024542843007 
0.001084677049398492 
-0.01548573922564039 
-0.006633581887832267 
-0.0005228935069699966 
-0.009949080086990306 
0.0004163227616897809 
0.03510117850128715 
-0.01754623618865747 
-0.006343950274414848 
0.003290173923438147 
-0.01184975563525366 
0.02257664019713892 
0.02132775101520637 
0.004710950535685411 
-0.002890327753451476 
-0.003189428349964479 
0.002778362741100757 
-0.03056359539028915 
-0.004253309640890002 
-0.02949452923604216 
-0.01886275979921037 
-0.0355046740715072 
0.001372875337900912 
-0.00281275362366092 
-0.001311387552346757 
0.001524882925120784 
-0.004135600240586697 
0.001161389429704197 
-0.004573134631307743 
0.0008736797769271768 
-0.0002123713786871663 
0.01018251627808082 
0.03030462829820865 
0.03528506301445489 
-0.007303003424417429 
-0.03875057383824284 
-0.01959930552885399 
0.0002195957416959322 
0.01554120176819998 
0.01280273908714984 
-0.006945432626619214 
-0.01152414293174291 
-0.008445072791729107 
-0.0005290841723637223 
-0.05918298728918882 
-0.03401709183195251 
-0.01726045717492689 
-0.0303265196197765 
-0.005853029826835237 
-0.002700512144098879 
-0.02032216162448449 
-0.01117224358777945 
-0.0008187726929105263 
-0.01594029830570673 
-0.0004561676394952611 
-0.00717541972501395 
-0.0388419098003279 
-0.02856719211621568 
-0.01736959153397226 
-0.01143359459756209 
-0.003364552145429846 
-0.01054368783130858 
0.04430663077280335 
0.03377857527361764 
0.006841080597618305 
-0.03107093373837668 
-0.01097437277328399 
0.008358956774374109 
-0.001241186006337085 
0.02047716565089249 
-0.01713180078910644 
0.008437156187365796 
-0.0125995945786424 
-0.002992663237702817 
0.009936986135142848 
-0.004977671651621504 
0.02027576354323024 
0.02385814991950807 
0.0158307862524206 
0.006408582796117097 
-0.01783761852007625 
-0.004094968800559734 
-0.03500381531078216 
0.01942553619029526 
0.01497610401611017 
-0.01596683473971016 
-0.01443361562218788 
-0.02730308790706543 
-0.006308737954951561 
-0.02341409710956102 
-0.007723532765277235 
0.006262432969659861 
-0.04804057151227008 
-0.02496861400027183 
-0.002058533964046842 
-0.02211872943137556 
-0.009794821276954408 
-0.01289564689060592 
-0.005559232413074155 
0.01771546421188148 
0.01927287251179627 
0.03581987806334633 
0.02124051821545698 
0.009510953560408049 
-0.01446415617187539 
-0.004185383838256201 
-0.004116104669138437 
-0.0002560900797939044 
0.003805553953042103 
-0.01710111728843923 
-0.0275477054731347 
-0.01374057197847706 
-0.006577150679184708 
-0.06288030581126845 
-0.03110729343205779 
-0.01110691921829025 
0.0004428746841294348 
0.004428946147289126 
-0.01387415702619699 
-0.01335547595799221 
-0.001636078874089434 
-0.02889457581337876 
-0.02767303378674684 
-0.03504888266040039 
0.01965911686583474 
0.02856075638164909 
0.0209445398056395 
0.01739034440508692 
0.01270424317435527 
0.004228690713539922 
0.001321037434902469 
-0.03395045826134979 
-0.01710503450362427 
-0.03404845170564368 
-0.01690655476010595 
-0.01009245186113204 
-0.007926132981044179 
0.03836578851944247 
0.03717606367347253 
0.008704368915849844 
-0.03724372806565392 
-0.02909758191959016 
-0.007272739682600642 
-0.08413471112622678 
-0.03803839012695748 
-0.02572908806484951 
-0.01543545296410514 
-0.005368241323847138 
-0.01782336586261215 
0.007848894926067888 
0.009439314840471474 
-0.007445125595234923 
-0.09063042687394293 
-0.04353671017386567 
-0.005368197701862408 
0.00787814015352218 
0.003399729121098979 
-0.00545990454699003 
0.009433703991996695 
0.00779583836304719 
0.006279933883846539 
0.02571999856516574 
0.01814088329882749 
-0.005376621656227528 
-0.0137467562006484 
-0.007207012112519207 
-0.0117427937470153 
0.06084927497387475 
0.03836114163239791 
0.0307157029023373 
-0.0406923170742129 
0.05197682864545695 
0.03447745221251038 
-0.04094636058330844 
0.01668124467390482 
-0.04535003552358113 
-0.03005329530986318 
-0.042278000752995 
0.06304691716732211 
-0.01619118192509277 
-0.007633006519970252 
0.009849306252670942 
0.03913442920407268 
0.01481167568398554 
-0.006437838018168374 
-0.009411350858121729 
-0.01496876754187611 
0.01910999229453536 
0.006451173678134459 
0.01121938243272925 
-0.003999132725901603 
-0.0376892564262977 
-0.01156682073171688 
-0.01730729145725717 
-0.03894231005301511 
-0.02130891316239973 
-0.009948571001995513 
-0.02209261338951589 
-0.004535906416503888 
-0.006157898888179443 
0.01385401616376471 
0.00618080713557807 
0.002276244929644306 
-0.05334006775099082 
-0.01764912269312569 
-0.01989495456053286 
-0.007176353245923407 
-0.008290989977741687 
-0.01498093188576879 
0.04194387445658712 
0.01302762109781645 
0.02506390660145649 
0.00583830590406818 
0.007637868703134883 
0.002673743795244939 
-0.05369752847943202 
0.001768030235359346 
-0.06367501886970675 
-0.01728647562432287 
-0.008061817866763374 
0.02515865884789437 
-0.01138399832195758 
-0.002075731674252421 
-0.0103665209669781 
-0.01313540061026425 
-0.01018334524077825 
0.004786169461957541 
-0.02266639447496352 
-0.001065693674992882 
-0.002886397088434171 
0.05918444824425463 
0.04068802136029296 
0.04007270325771355 
-0.01996559928543493 
-0.01215530947923845 
-0.0142536644389287 
0.003580403720651784 
0.006729972284391203 
-0.005269265953116464 
0.01693163033756074 
0.01244232613225208 
0.0006617570232405993 
-0.01071856554910987 
-0.009016481362772942 
0.01913575421589896 
-0.00814392519175729 
0.0007376768888698338 
-0.003571899160972487 
0.01025269070246432 
0.002665646429197345 
-0.005979103118069547 
0.006912979320096354 
-0.003024125853900866 
0.03192768739191217 
0.04142487025291094 
0.02932178425175204 
-0.03726542801590524 
-0.01360763661951293 
-0.008584440533523667 
-0.00189019608309587 
0.004643985124125996 
0.006556314884009613 
0.004957349734508919 
-0.035209776543176 
0.002465077552860948 
-0.02903977111649677 
0.00652142471529631 
0.01274977278809641 
-0.05305940059320353 
0.02743819585951146 
0.00398971729540533 
0.00664497128007807 
0.02139444023335465 
0.02040589504095066 
-0.0161566182251736 
-0.004873894795941999 
0.008613286622622916 
-0.005212762877735957 
-0.02050211703788504 
-0.0153042076546606 
0.003269640605769467 
-0.07340426975968263 
-0.02933491941538108 
-0.003109666608155869 
0.02959337965532046 
0.02670201337207696 
0.01001163196174444 
-0.04073231309845269 
-0.01555040457179618 
-0.02837700757605627 
0.08320349557678056 
-0.01037515430295264 
0.08018205145365685 
-0.014377339207921 
-0.01162983699888694 
0.00390003918172975 
-0.0299979485723587 
-0.002426341364802264 
-0.04208704024767814 
-0.03808280368242526 
-0.02574646020491842 
-0.004298479861527534 
0.01311584215426803 
0.01448059326531877 
0.004806611192857289 
-0.04845300215077061 
-0.002178922603736734 
-0.02299713123489179 
-0.005931914924575595 
0.003467580617826536 
-0.002587119566274799 
0.08707081998794305 
0.01684671097555334 
0.0746704503451535 
0.0005145399442357753 
0.004145789577063437 
-0.001480823442731199 
0.01762883014372425 
0.01648734999464169 
-0.004391542737916042 
0.06997234705471823 
0.01291279078494797 
0.05461837452734072 
-0.04575804042647034 
-0.02385768757263588 
-0.003529676823788325 
-0.01736486185691305 
-0.00183808991660857 
-0.01238587826179074 
-0.005409902279562701 
-0.007428045259895493 
0.01464417093670118 
-0.02362589394389709 
-0.01936247172448838 
0.0004369600279542809 
0.0177281053486817 
0.009676346966421374 
0.004127022988276279 
0.003031106920710442 
0.003404449204797399 
-0.01539309196683416 
0.006651465580244444 
-0.007501200553922699 
-0.004995261839580659 
-0.05128456254452367 
-0.03449693722861924 
-0.004007089034558017 
-0.001096274486624807 
0.02041568033747964 
-0.04302548060661312 
-0.06274811701237828 
-0.06120720411663726 
0.0245261539755105 
0.04523702325933844 
0.01183467169668869 
0.07066338161939402 
-0.004740261383883877 
-0.01023471022212735 
0.007092347423927361 
-0.01242724028089917 
0.009460801263583174 
0.01601367688394711 
0.02872376065517718 
0.02840497537084812 
0.009875914754364513 
-0.0254944824933615 
-0.003302223027667305 
-0.03677386154203338 
0.04913027698659598 
0.02915539422700762 
-0.001240472604939242 
-0.03750389144164509 
-0.01722393533372277 
0.001964622676414475 
0.02705095420486534 
0.0178629703230001 
-0.00649409911945834 
-0.03789744238499495 
-0.05328666092733873 
0.04999526313323503 
-0.02284845632883237 
-0.01476835895486523 
-0.01097028702823403 
-0.004218623640476053 
0.01510504897929253 
0.002304468794581715 
0.06573900734968206 
0.006716663528311447 
0.03853150144530509 
-0.01072075331719974 
-0.005020977907122305 
-0.009640332047922615 
-0.002538949919922158 
-0.007223909267789774 
0.03617321122030055 
0.04757112874909844 
0.01715063674316139 
0.02160241092645008 
0.003438700652923062 
0.01685273761259482 
-0.0008324513387033997 
-0.02931610129665852 
-0.01680358748850534 
-0.0144285509936725 
-0.01765100530467451 
-0.008694684828505148 
0.003598433426535736 
-0.06316845510184266 
-0.04583937485656548 
0.01016926092700362 
0.06647311566142065 
-0.02262084581317741 
0.07341303497540606 
0.02473886375196453 
0.002308907495958753 
0.03183213284558603 
0.04400799478624414 
0.02984719327833372 
0.007298149116685687 
-0.002621414518458896 
0.01411195943861872 
0.0009207103108928957 
0.01898854939328738 
0.01517661349361064 
-0.04385873666031053 
-0.01006855743189507 
-0.006954474052296708 
-0.02295985265002456 
-0.001392609359262628 
-0.0146875086574817 
0.03236111331227642 
0.03517284832228819 
0.02229697582723203 
-0.0003732885031379166 
-0.01370158208236734 
0.01443292566302961 
-0.01018618996049377 
-0.03543933310937192 
-0.003165946490075717 
-0.02858891328593182 
-0.01744097631654451 
-0.007888552897755283 
-0.005533799400290777 
0.06760031943296253 
0.03894633890022403 
0.04093727327968098 
-0.03210700575831182 
-0.0009159763740356351 
-0.05799118408882695 
0.01283202366001089 
-0.003323490020132284 
0.02605980317100604 
-0.01797885420401986 
-0.01554474355619574 
-0.01193668036976497 
0 
0 
0 
0.02021207225513994 
-0.00456815873251175 
-0.0007105830428620219 
0.02285948366030834 
0.0007491589189239 
-0.003071646188572878 
-0.04411206211556178 
-0.02045737167977755 
-0.02210120727430765 
-0.006984585905274798 
-0.004531257959620874 
0.003938629604353172 
-0.009775704599895121 
-0.006039189921478401 
-0.02757219459606533 
0.04188913720126185 
0.01782489724837557 
0.03860659013254782 
0.02407179104351773 
0.06075473060261918 
0.03057896358784656 
0.03709695862143734 
0.002765680900455557 
0.04267216818522162 
-0.03354269084770974 
-0.05672733335064607 
-0.01810297846834683 
0.02988536925693891 
0.002849322908076623 
0.02207068918137414 
-0.06741247630251697 
0.01901197336443263 
-0.007972703097509554 
0.04430504813305251 
0.008187506182942582 
0.02447680059610565 
-0.03590675857222028 
0.002792482704330825 
-0.05535937949875793 
0.04551351208127288 
0.002807835043263119 
0.03851025119676019 
0.04082858525269977 
0.01107030806538024 
0.01825714731581069 
0.003729035276058774 
-0.01632083425145831 
0.03585371859767373 
-0.02884363276493103 
-0.02806373765947688 
0.02265494024350645 
-0.04414230139553309 
-0.008604197292652129 
-0.02150282499070585 
0.03871948591784918 
0.02842835856060724 
-0.01086406429623304 
-0.01154903559841899 
-0.003907138426339143 
0.003357076295046615 
-0.02828278812007414 
-0.0158431931215426 
-0.03210162653942997 
-0.04470978654840383 
-0.05227059110376821 
-0.01946174532117587 
0.01205037403929188 
-0.007110593329527231 
0.008452638541981493 
-0.04177806776225423 
-0.02864396988863303 
0.01421192011776669 
-0.0005748675402611475 
-0.009821165419786948 
0.002488464223528072 
0.02652409289037188 
0.02464524006264708 
-0.04797677891842562 
0.0008603126349937582 
0.02042590648513986 
0.00974897597471794 
-0.02634132932596409 
0.002930504222828847 
-0.04411558992870702 
0.00910985632663224 
0.01025304682624543 
-0.01384674304769522 
-0.02370637399986101 
-0.0130092622336296 
0.0003595120052368029 
-0.09069511921944665 
-0.05104407107451197 
-0.0115771738966282 
-0.02112055342855083 
-0.01288808284355161 
0.004842158697350159 
0.004001421083023415 
-0.004573827542149311 
0.03084031211054186 
0.04462974400653261 
0.0009714734002108852 
0.07737912302413615 
0.007455687559927451 
0.01176097283049295 
-0.01924858439780271 
-0.02452017627077691 
-0.01193210589658093 
-0.002000045983190396 
0.01160340459976838 
0.01703400195054224 
0.04054080729850393 
0.009400336692423687 
-0.01751028797568096 
0.01076982937985004 
0.08475623206569927 
0.05981614325570846 
0.02552243513327385 
0.01757252956383857 
0.007886950973085439 
0.0139153757993644 
0.01229989397463071 
0.003713020115881238 
0.04835116405962387 
0.1304574084451022 
0.09068527798287938 
0.05092952224572752 
-0.02616237603220123 
0.006100747185537812 
-0.0540380960985808 
-0.004719789617944341 
0.004246523540021353 
0.000818206679995763 
0.009321558755018493 
0.005073496871249562 
0.02431358045277186 
-0.04485776725727657 
-0.03983796788680349 
0.0300670897238043 
0.00976825446429996 
-0.004834763790298569 
0.02439116333640459 
-0.01734998051202632 
-0.02869617658871568 
0.01448873524775019 
-0.08530392789939938 
-0.02281649365879085 
-0.04556214444566573 
-0.001754255979705039 
0.004523461591746986 
0.01666650518585355 
0.001029513580119167 
0.007891124170560366 
-0.01646200595918125 
0.0311504272105405 
-0.005716681150951404 
0.01267652608792598 
-0.01244600808127752 
0.004868372778263842 
-0.0119913383441757 
-0.04129668089570354 
-0.01948540458500373 
-0.0223435484107862 
0 
0 
0 
0.01523090259007308 
-0.004355042475827603 
-0.007259781035943481 
-0.02038817232592846 
-0.02373609791733965 
0.02582962969858417 
0.1049036012074521 
0.01756408246153177 
0.07319013733177476 
0.0004605460513985543 
0.01092539000588363 
-0.007058698366620238 
-0.03136280500818388 
-0.002980208697443399 
-0.02279669620333808 
-0.03030491299787714 
-0.01019525106021242 
-0.03049714553363031 
-0.02293980800397933 
0.02048805999481093 
-0.03759997148932816 
0.02356432894104148 
3.487840510463626e-05 
0.03586104594694487 
0.02456645634442026 
0.01695183260083914 
0.002319303793166661 
-0.01620152340117067 
-0.005430287840530317 
-0.0008908076630795494 
-0.04476410848538887 
-0.02228623134689466 
-0.006634149745706108 
0.01503744181343445 
0.01001865560262697 
-0.006318115193994472 
0.002580357741284243 
0.0001157396838941515 
0.01664217200282615 
0.01703481776554913 
0.0128313241185083 
-0.03823720006214078 
0.04934688768291366 
0.03062201385844231 
0.03112460413397924 
0.07850181340468917 
0.03883794766733205 
0.05707810920252755 
-0.02253069875171728 
-0.02110929839710567 
0.001982719686790146 
0.002190546149839269 
0.007725912509161222 
-0.001430443577300593 
-0.06296890486878685 
-0.03684112536267734 
-0.0052331291785121 
0.06504469790075469 
0.01614593001182591 
0.02159838389051456 
-0.01469104923906014 
0.00514533378589562 
-0.02146941385557917 
-0.02887604061173751 
0.007056851582384042 
-0.03371741204006167 
-0.01309430439926886 
0.009794425322486347 
-0.004636691277741485 
-0.00813414127746801 
-0.001956213078962276 
0.002468029091714354 
0.0176284047307549 
0.01063586993597721 
-0.009287962906996929 
-0.04174235526337469 
-0.02336089809304099 
0.00998780222756372 
0.01884213623646683 
0.03133685638943417 
-0.007309518230535626 
-0.01733673097055443 
-0.00908060935556488 
-0.001182872513266472 
-0.02832292462951082 
-0.01817723635129577 
0.01656091287935315 
-0.04500436932525063 
-0.002328602531822303 
-0.007253553373582773 
-0.01638445905648242 
-0.0001294720824480548 
-0.02127416233123608 
-0.01802607109898278 
-0.01172067496531243 
-0.01151347415630147 
0.06462714548921095 
0.04919693653167852 
-0.01349155387629775 
0.01004533239455311 
0.01874165938400924 
-0.02394218696138992 
0.006422411690019224 
0.003053383504512754 
-0.02726738282476326 
-0.03443207847049083 
-0.03715436542297202 
0.02559290185839453 
-0.0009687160976019966 
-0.0005919427298235949 
-0.0003678513949490709 
0.003377078055708472 
-0.008931743452405935 
0.01232757290124784 
-0.04200184833081329 
-0.01920701336465955 
-0.0317660241606622 
-0.03393040953641167 
-0.0197971568277658 
0.002546725672363 
-0.002323300070074405 
0.003024973883001378 
-0.0336409140135835 
0.01523543783484037 
-0.002477535050271567 
0.0004205045270611113 
-0.02195271325743272 
-0.0101448680350149 
-0.005448690225186382 
-0.001908202352667813 
0.03078269698940474 
-0.02978450776570203 
-0.03256731608481483 
-0.0008037165940970509 
0.004971026664797814 
-0.02009204227049477 
-0.00849165101574512 
0.03649220412465766 
-0.06690691243533976 
-0.02895214283061371 
-0.02626157813255045 
-0.08123728074353412 
-0.03951529910285194 
-0.008945939314106132 
-0.01102637887629987 
-0.01188961157960521 
-0.01925092164021569 
-0.02684501723445581 
-0.0395805147438888 
0.006824383963665934 
-0.02962036810569687 
-0.01019089922636764 
-0.003177635176642536 
-0.02352303797887773 
-0.01337654473768881 
-0.01805962203939885 
0.003014763645145195 
-0.0006756660553841931 
-0.0111985951874959 
0.02832439462404197 
0.01267121153324541 
-0.001603220424917976 
-0.01676724824089965 
-0.02475490123283799 
0.01131986399033494 
-0.05631107849344694 
-0.03299129542654303 
-0.01861467981140073 
0.001663899853929563 
0.01028906801141291 
-0.03833057687295315 
-0.005657850702275773 
-0.001792342511372752 
0.004747225623006234 
0.03933207439023213 
0.03103987723139278 
-0.02308538765392951 
-0.05720127341843088 
-0.02274931989667445 
-0.03899372360787727 
-0.07205917882377569 
-0.01866909832560416 
-0.0477177897496693 
-0.0566822363768926 
-0.02390274546233248 
-0.01979880508436435 
-0.01090344332320003 
-0.03025152912865627 
0.006226744556992273 
0.002662783217317171 
-0.01014050084836436 
0.01632905936046953 
-0.01750290696454143 
-0.00399490262465459 
-0.01002094832375831 
0.0238726352848137 
0.02449025483536761 
-0.02870135831311163 
0.02477367940524444 
0.02384895093695357 
0.004644592779092298 
0.02951078771080341 
-0.006953796775674884 
0.02199932627652504 
0.01365840481557098 
-0.01218390054565394 
-0.000167746034359247 
-0.05862326356533844 
-0.01684596641685733 
-0.0258103288399973 
0.01469439169020626 
0.02759886313940029 
-0.01697620132006425 
-0.03825326098495787 
-0.0211348722146001 
-0.004637387041679018 
0.05076755327003268 
-0.003217948565770783 
0.07672572887876594 
0.01523015578208544 
0.003180406885294613 
0.001598686320251716 
-0.02267208989893994 
-0.03605318351430351 
0.03988079374044786 
-0.00637122560719639 
0.005644145875185638 
-0.02459176603979614 
-0.08354407658817371 
-0.03493168723946059 
-0.02904334698604756 
0.1030124953239533 
0.03392569128178038 
0.02527441218195054 
-0.01030525961993273 
-0.02703693959832001 
0.0136527780265146 
0.01297739822647047 
0.031557074121525 
-0.004658131658862894 
-0.05807907341356541 
-0.02177800620453514 
-0.04546489917834213 
-0.06937080173957771 
-0.03883955638945194 
-0.001367799248937126 
-0.0226537636798308 
-0.05054121789671602 
0.02385063638507737 
-0.001020782899081725 
0.02917140043719551 
-0.03158629829963806 
-0.01774973278518962 
0.007897918483565308 
-0.05000204750737312 
0.0111086940556919 
0.02846257193405083 
-0.03489942246073952 
-0.01937896689200298 
-0.01134065756039867 
0.01863436281276975 
-0.01777191603874192 
-0.007426838098449267 
-0.01154503957753703 
-0.000555127432141638 
0.01651904283805603 
-0.01916558891326793 
0.04158452797502953 
0.02059407511015664 
0.06166896704180818 
0.0004097113716629474 
0.006444868371662428 
0.0115801612416007 
-0.01767607445555475 
0.0230333682405715 
-0.03599903204191892 
-0.01559019478886136 
-0.01542871987532116 
0.01923616250524189 
-0.02809974531511034 
0.02336236072614631 
-0.04834680136776618 
0.007813413857108724 
0.01607958681623084 
-0.003172876046156837 
-0.02471510336803693 
-0.01159801052394333 
-0.002381445900193308 
0.01155947566694113 
0.02202959153289874 
0.03264089352410518 
-0.03506111171957334 
-0.01454696973882763 
-0.007935931451227589 
-0.0001048535613091709 
-0.006493116661396597 
0.02340378835170449 
0.008436919186052194 
0.01990003776586004 
0.02521103092118655 
0.01725141943823761 
0.0430757550038811 
0.004045329917057175 
-0.008022283040813736 
0.00743330094161062 
-0.02705053924813035 
0.05263218979425042 
0.01266959249557937 
0.03018607245176388 
0.01239769784414814 
0.00337652182553334 
0.007151071161992349 
-0.0209652542080529 
-0.004286194755966048 
-0.003983339021142232 
0.005375121504192381 
0.02176856107465721 
-0.01434524303439942 
0.03081347336915616 
0.02032782570512403 
0.02749767184496214 
0.02673190116839974 
0.01615195982028465 
0.008802442284145357 
-0.007813088365707458 
0.01911994983341071 
-0.04358368067624184 
0.002901662947863875 
-0.002528423081719758 
0.01403167546184817 
-0.04844372470186611 
-0.02792058992212448 
0.00629845932002971 
-0.03804129861184968 
-0.02165123261080968 
-0.01473174903649791 
-0.01126172476977451 
0.001991957215767642 
-0.0006434450304421377 
-0.03122074103754574 
-0.0005390015423885335 
-0.004248132094095358 
-0.01182799051086853 
-0.0002455340057309194 
-0.01245658540071795 
0.03390988109271112 
-0.01408696754799589 
0.0439115460051818 
3.433179168942222e-05 
-0.000658910075143616 
-0.0004604697006169166 
0.008874801226066244 
0.02111596192512872 
-0.004381570856969157 
0.004528499018537627 
-0.03448357571556154 
-0.01250299362969246 
-0.01260437027580741 
-0.005829706391370493 
0.00644733458595232 
-0.02255853121068075 
-0.03167025208078392 
-0.04478865072956797 
-0.07529225333505699 
-0.01770664688963645 
-0.01195752676772606 
-0.01168190477078003 
0.008227783215959378 
-0.02523389245805628 
0.007268553531548204 
0.0149248947667526 
0.02875103506097365 
0.01700863719343176 
0.02354505403188635 
0.0113975434950194 
-0.02612972088527393 
-0.02521007636051934 
0.01087801707542865 
0.03723954646720155 
0.01139753425984091 
0.004285850500870513 
0.01269573347180409 
0.01061199644374517 
0.009084454358222123 
-0.01718546325428249 
0.001581626249601461 
-0.0126208140851867 
0.01304691027144948 
0.01860970320395126 
-0.01863119849388718 
0.003071654701624205 
0.007072751553861337 
-0.004928183888511205 
-0.01960273233858044 
-0.004425314617401938 
0.005313155614282785 
-0.002897757662649218 
-0.001535843337454249 
0.001409230737370442 
0.01919854321265895 
-0.002868436486022937 
0.02888640571677019 
-0.01240911704581842 
-0.006835938989093136 
-0.009569768282411439 
-0.05747510357590341 
-0.04177413530253535 
-0.02574074249577966 
0.01170289957717787 
0.007324568917838415 
-0.003633396055042389 
-0.04915036343831189 
-0.03107629337349999 
0.008422104783917559 
0.007094093215846758 
0.01492296097490547 
0.0008740466371294018 
-0.0447767687644119 
-0.005705720207605735 
-0.03367789109707598 
-0.05519681416615174 
0.04134083353515858 
0.05033002056787558 
-0.01072166869440784 
-0.007509431572898325 
-0.009097748670650845 
0.06485359000456538 
0.04086715271468765 
0.03088855646914887 
-0.01658296597093083 
-0.0142279256719259 
-0.002495991535834662 
0.01353443041312273 
0.003834784371862282 
-0.02199569290542646 
-0.03049474879826789 
-0.01427537428633837 
-0.001540945799538972 
-0.06368505609621089 
-0.03480253370110161 
-0.02166943990278257 
-0.0005755343294828038 
-0.0009627117461746248 
0.0007549845096103847 
0.0453480772001294 
0.03247536173748608 
0.02142000010861126 
0.04555781178279381 
0.02689637711775306 
-0.01018233200573186 
-0.0273385595876192 
-0.01041063800982067 
-0.0006398294556746792 
0.05062526120241158 
0.04409698468871447 
-0.007650563676611817 
-0.06959382166566856 
-0.03909811448622906 
-0.005143016523138894 
-0.02458846457753655 
0.01307572227667117 
-0.02757328036289727 
-0.06972413360254924 
-0.02739533169877696 
-0.03224414045073375 
0.02534749897329257 
0.03406442838579025 
-0.04160989004464655 
0.008204949278386458 
-0.02072062835696485 
0.08034851322726939 
-0.03377767289750715 
-0.03431423489447265 
-0.008280493618466937 
-0.02969594878175386 
-0.02671391363474614 
0.002052051635845304 
-0.008050065156638635 
-0.01843206177971059 
-0.003103728175859327 
-0.003638611007970379 
-0.02121566108053927 
-0.002885651202145251 
-0.002481671492513185 
-0.00133393257827623 
-0.003113450571950256 
0.01205095804719661 
0.005223354342387732 
0.01160410395565482 
0.102558515152315 
0.03279317643895268 
0.09975574071508331 
0.01927693133085689 
0.02306257272113597 
-0.0001940727219832289 
0.02763766991235383 
0.02651717376972726 
-0.003839582268414054 
-0.03281130944138185 
-0.002702763299033068 
0.01242925237090073 
-0.01161920142879941 
-0.007841014496746223 
0.008252547794106963 
-0.02940209698996697 
-0.007724335530565174 
-0.002999132622326002 
0.002255788477112793 
-0.0159774481313026 
0.02758391024907289 
-0.01209352149016494 
-0.006707200777350601 
0.006009529626485116 
-0.01416606466296868 
-0.03327189641339675 
0.01881103508497303 
-0.05311600382282674 
-0.0262917296355404 
-0.003928524459070854 
0.08588362876573573 
0.06690420254573611 
0.02556169541988938 
0.007233333230144438 
-0.01637853357311291 
-0.01536697916288729 
-0.01055061025158022 
0.008822325518460452 
0.003687301754630289 
-0.006672675354278032 
0.001547603623847796 
0.01168972120666104 
-0.01435447811516649 
0.01521312800860544 
-0.02361161682106171 
0.01743939921572525 
0.05371063551564188 
-0.03524718610239504 
-0.03016248262284242 
-0.0250557338502735 
-0.002944122182226983 
-0.05229129313014903 
-0.01505904407310848 
-0.04581159971855851 
-0.0724711552590431 
-0.03237638781108707 
-0.004880043241289555 
0.06217597177291594 
0.01853825060286186 
0.01344253182749183 
0.01493617978761119 
0.02029102898137434 
-0.002959183223732695 
-0.03270586668393686 
-0.01738243494067459 
-0.005525524927699414 
-0.03276686582613674 
0.01225271413657316 
-0.0007283400154659942 
-0.05047105625482361 
-0.02110639278230664 
-0.01047258210422041 
0.01244965663027693 
0.0001146989921853005 
0.02643289209328843 
0.03296659820177843 
0.00897940586062485 
0.02887136173566358 
-0.03552637650641177 
0.02095125829672726 
-0.03997523325091269 
-0.03803950967485629 
-0.03176697107482469 
-0.02873316984625967 
0.02031298300890331 
-0.01571291359668956 
0.02064177417022485 
0.04500392710278748 
0.01166054349650035 
0.000714880317622822 
0.05150968698914855 
0.02740550688765919 
-0.0144183961302203 
0.01132198358374356 
-0.008060545067215026 
0.0385050556518488 
-0.08081891263570243 
-0.04995307012204277 
-0.01914435088725001 
0.02402257635485189 
-0.02017751617432669 
0.03813318730008671 
-0.01956643260426036 
-0.01214977020864518 
0.01816574494454065 
-0.0490215236445495 
-0.01634986230481986 
-0.005936057676913354 
-0.01211424910261912 
-0.00801225157415832 
-0.003499248028974134 
-0.01342954931206859 
-0.0005161987583774511 
-0.0309485506398108 
0.004889149835729117 
-0.0167378801506602 
0.01969501605223524 
-0.02542743711169675 
-0.007856330578071826 
-0.02035832692469231 
-0.001666470230011492 
-0.03152654584578317 
0.039599227618993 
0.0014164055441471 
0.003064083172994704 
-0.02129500582991913 
-0.003419604234547768 
0.003366956010208421 
-0.008257746329435453 
-0.05549888404092122 
-0.02403889670596741 
0.002308830951002345 
0.05085235570702374 
0.04824773263772693 
-0.01708276905489972 
-0.04037562901567513 
-0.01634748198572578 
0.005272142841770469 
-0.05517463180079312 
-0.01629338785712954 
-0.0442000386783673 
-0.0304987754602788 
-0.01179101230474567 
-0.009873571488308995 
-0.005532583872111783 
-0.002102827067382758 
-0.02047058671035181 
0.03620686813265774 
0.01843032506205886 
0.0319993663031809 
0.02734915371258823 
0.01409233212674871 
0.03600150131429311 
0.06354505122051911 
-0.03318341226655259 
0.06650650714327994 
0.0003979043234117368 
0.01065395585733954 
-0.003065054716677879 
-0.01334126723673849 
0.002109664671233256 
-0.009209632592738066 
0.002305715916439578 
0.01046523190012532 
0.01888414027258109 
-0.006415382592147964 
-0.03483258529292853 
0.03469945080874415 
0.0340354157820231 
0.01627308169049431 
0.01170389166836886 
-0.03529909756370126 
-0.02367688328856055 
-0.01502718995300813 
-0.03890450278028887 
0.01916520027431855 
-0.03688102338744698 
-0.03543883789032317 
-0.005288172864361874 
-0.0366937149672688 
-0.05478086354520345 
-0.02869766206612094 
-0.022211615203934 
-0.0594802818700751 
-0.03769459966783149 
0.03661002322249763 
-0.01764913866304689 
0.00309526534962876 
-0.01498473039354577 
-0.05114775353339344 
-0.01683110923165951 
-0.03276946684673508 
-0.03153173383395592 
-0.004887116823661997 
-0.01962478026521353 
-0.02450718182893136 
-0.03292932688377925 
-0.01811759718835548 
0.04027482378073127 
0.04660325075109328 
-0.01912340620272908 
0.04595563485479533 
0.02360176834282751 
0.04719497332564652 
0.002893141199243365 
0.008546760145582545 
-0.002762278923881115 
0.01123469801587013 
0.01877824495284809 
-0.03472358600424542 
-0.03115110655358133 
-0.01665304187236015 
-0.007592919309124173 
0.002755680474386687 
0.006831403135909241 
-0.006145084429092641 
-0.1743209438085518 
-0.005968754721801188 
0.07404935993202674 
-0.04330806365494964 
-0.01715023702718332 
-0.02301461917856216 
-0.03201642872903102 
-0.02550972035981827 
-0.008547680912590651 
-0.01293722034349034 
-0.02915376922367873 
-0.01678143199344344 
0.01775759454441861 
0.01708607361267139 
-0.005729726105921843 
0.004987956639351496 
0.01146122657130906 
-0.01216618044412671 
-0.002813452212622742 
0.007125726032588705 
-0.01247872033031287 
0.03854223837516702 
0.02078271124410773 
0.02902415388585679 
0.03462841800386476 
0.009436142358383429 
0.003240314028336507 
-0.0557749906230438 
-0.03359689996170395 
0.01230790383772262 
-0.01202776579692484 
-0.004225113590218863 
-0.008060288640314319 
-0.02182002141565954 
-0.01229727195596844 
0.002618386582270754 
0.01674385516280267 
0.02095659496213525 
-0.019209756790471 
-0.01531824382906103 
-0.02151051659087692 
-0.007176735435405984 
-0.02940084504327252 
-0.01057589686418652 
-0.01423567665626295 
-0.02344228221128974 
-0.01313038492177383 
-0.008811347871233312 
-0.051230874940978 
-0.03077642342886937 
-0.01424338066722615 
5.124459281432317e-05 
0.009384766408571679 
-0.01848181969231551 
-0.06834716534331139 
-0.03034885969868333 
0.0007639873057737323 
0.01235161130238377 
0.01130423646189327 
-0.01203288078005361 
-0.005556367058671216 
0.00493005523088635 
0.01835939506463756 
0.007235884504428309 
0.01200526203769338 
-0.01489559169302774 
0.04146493333578875 
0.02382396537349189 
0.002510399442390888 
0.04681327032897178 
0.03128850933759615 
-0.003807182616696565 
-0.03391893470592521 
-0.02094233674281053 
0.01520990969114591 
-0.05726332026157298 
-0.01604543940167915 
-0.02956809649811982 
0.009280794320798594 
0.01244013472018473 
0.01496295309186321 
-0.02855492798642342 
0.0002325562833097755 
-0.0379990556914484 
-0.01389853353564069 
-0.0176250169382289 
0.02007117376294475 
-0.005947868509742477 
-0.001897691925020871 
-0.001819646139831976 
-0.02920485633668252 
-0.007109408400160003 
-0.007457282611583176 
0.06958470683471685 
0.05744921537607469 
-0.007619291405739071 
0.04917650439778029 
0.03895313709965383 
-0.01166258967168799 
0.03913117210022536 
0.02773853139287156 
0.005963892289112702 
-0.01092750457412392 
-0.008214003258463269 
0.003333647474908317 
0.008627102360152555 
0.006908433618909045 
-0.01504675348995426 
0.01230783256648933 
0.02173292912086591 
0.005171440566794462 
-0.02719785573296355 
-0.01415378676172835 
-0.01661443505125779 
-0.005741823207476843 
0.004231585244582478 
0.01124897412579276 
-0.009906696929412215 
-0.00391719124514902 
0.001048899014369516 
-0.01461693103455799 
-0.01066647218642253 
0.003343820268665341 
-0.05847709503693598 
-0.02506557459714181 
-0.02532914558186893 
0.01802045954801302 
0.01324255643817995 
-0.01295977772650962 
-0.03352370292604284 
0.01586554745899115 
0.003654648933380683 
0.0017999068918592 
0.01219848685129682 
0.01900963907300832 
-0.03821115993905593 
-0.03049892279083767 
0.01399554692719691 
-0.01822949529550335 
-0.005339807518873712 
-0.001893016658215889 
-0.06628547773964585 
-0.01282382862971887 
-0.01552381248994192 
-0.02747457662795792 
-0.01477801359333379 
0.01720291685470103 
-0.09549480465705369 
-0.04887195004335743 
-0.01026650343898574 
-0.09711512098219806 
-0.04451981349297003 
-0.02980764912774051 
-0.002359153013423646 
-0.01123835433328151 
0.006284304949301521 
0.140112744389554 
0.03613495751229148 
0.09404690008471395 
-0.01356824096153572 
-0.01074497883557127 
-0.00631461753171723 
0.02413719291959053 
0.03809020672168906 
0.00272666253535775 
0.005935166262345845 
-0.0002178376322542577 
4.223865544296077e-05 
0.03086040153574244 
0.01550885104810746 
0.01535649060459653 
0.008568253531129572 
0.009043137584178103 
-0.01227165765693631 
-0.0312251967409861 
0.02101855618326193 
-0.01438878953051317 
0.03947621133380141 
0.02627413957332762 
0.01759270929079558 
-0.05611905916875544 
0.0024101144888142 
-0.02691225430429611 
-0.03942252648298516 
-0.01851036371682231 
0.01270550080780992 
-0.004085113169293324 
-0.02314896365240421 
0.02002769178878373 
-0.02641061859705287 
-0.01018383935240508 
0.004023032384033862 
0.0433053536290911 
0.0248200719470995 
0.01038546018174893 
-0.01365787179961808 
-0.003218252168167306 
0.001097593844900067 
-0.01941217626481553 
-0.001147051803258425 
-0.003420155633299989 
-0.03634861290573687 
-0.016209911193687 
-0.002515908943871084 
-0.05928218545827295 
-0.0274004532827215 
-0.03154981713082045 
0.020363489245738 
0.02146258965972699 
0.007128691085345327 
-0.06880449754727272 
-0.03048229386108292 
-0.03552570800726845 
-0.01420714570601351 
-0.01000066456497382 
-0.01506702370298161 
0.01123330842579714 
-0.01526153036688923 
0.0644544856173891 
-0.03355067082420203 
-0.01523250312630808 
-0.00209032773176274 
-0.02499530651743377 
-0.01168707237329578 
0.004700709345787093 
-0.03279223419460395 
0.02226570055916248 
-0.02753803197553908 
0.008657198983272546 
-0.002382686400120662 
-0.01427244729460562 
0.01966899815447443 
0.01521787483925605 
-0.007698244828041951 
0.005301728083304089 
-0.005384575692754704 
-0.02246826301723699 
-0.01508670531578566 
-0.01394657183585164 
0.02589895115111431 
0.06576460230028951 
0.06045874736857706 
-0.0304083830866483 
0.02374889644212878 
0.03490741481129613 
0.01191220120989037 
-0.03999056699809546 
-0.008355897061782816 
-0.01661944312559611 
0.0003396165586112518 
-0.007617277045783574 
-0.008297615616821916 
-0.009446814620110069 
-0.001874325239516676 
0.00592957399091306 
0.0134382994871301 
0.005726441488822308 
-0.02627939330332842 
-0.002166143441517542 
0.001181531669747671 
-0.01844380404286762 
0.01291867445233911 
0.01766508446094522 
-0.01904373367816283 
-0.04153813925768069 
-0.01876972428964953 
-0.02005083516008794 
-0.06254333982231208 
-0.02389434123819883 
-0.02535457414692862 
-0.03286549126032186 
-0.01781734886524203 
-0.002444364012492958 
-0.01351365749321647 
-0.009322906872728111 
-0.004065834903153601 
-0.0386348550895045 
-0.001901099965031855 
-0.007193963688223589 
0.04457060940428312 
0.02049635962237475 
0.01742932706851912 
0.04448581788397774 
0.0166223003318471 
-0.008043520299078158 
-0.1270507354806323 
-0.0407337401413084 
-0.05456023746794235 
-0.08560431203256569 
-0.03146129434046389 
-0.04250804730805013 
-0.02043812891441527 
-0.004451405707686774 
0.01792087917414466 
0.04747668278641894 
0.00394663133829111 
0.03327757518810416 
0.008117952991469226 
0.009833043145258022 
-0.01043364490457543 
0.0343293487338612 
-0.01080359135138823 
0.05893259402123771 
0.01072983124794079 
0.02463285041853972 
-0.009429383019168623 
-0.05346843915150425 
-0.0245811031992927 
-0.03586458791692231 
0.00981445373569436 
-0.003792025438474727 
0.01784753515283949 
-0.01627829636924759 
-0.008390785693357425 
0.005739331396637559 
0 
0 
0 
-0.02806453344494823 
-0.007453043988787809 
0.0002333779992242585 
0.004605032837832737 
0.009278138266687603 
-0.03525036834263341 
0.03097314229096369 
0.02479616951133678 
0.0009832430981736541 
-0.003088763048724721 
-0.01882576772715057 
0.02171924081825401 
-0.01145152269469197 
-0.003373409359996431 
-0.009632237791120291 
-0.02595702034117506 
0.005042294274586152 
-0.009998847343203793 
-0.01913578714720954 
-0.009018385256940167 
-0.008175787800470879 
-0.008849070076846878 
-0.004972747537291386 
-0.0101087783214493 
0.02954539500262383 
0.01882567916110044 
0.01730813321389585 
0.001994245011792986 
0.01359838707687641 
-0.0150116672506699 
-0.03579644696179894 
-0.0161621387551548 
-0.0008492090156928726 
-0.05663511351561516 
-0.004169023243691907 
-0.03584176466698133 
-0.04681315849050933 
0.02019132038849587 
-0.0377603692499002 
-0.04620131655927418 
-0.007445499873598646 
-0.0419722879093175 
-0.04447874641033375 
-0.0115545450295188 
-0.0128614202233109 
0.01950619667959023 
0.01269212450232154 
-0.01505246657015653 
0.04890330346639857 
0.008105311250973609 
0.01803155183649351 
-0.03181507193108 
-0.01848104493425335 
-0.006762671112457517 
0.0005649029473469255 
-0.0005011760298800399 
-0.006625324398973123 
0.05967885004083386 
-0.007649939584395034 
0.03246875835505709 
-0.01327608827170598 
0.008025597972756926 
0.000327434446761374 
-0.01707216700714238 
-0.00992737494585787 
-0.002510376922700807 
-0.03367075301826188 
-0.02053982158673561 
0.007023874125164383 
-0.05173472390619476 
-0.02841005510235869 
-0.004939731566680147 
-0.007005223028514035 
0.01409679447589152 
-0.04339889738308619 
-0.009197755285668636 
-0.02948530349036626 
0.03300203696881857 
-0.01965507643843091 
-0.005445489781539104 
-0.0217918186178333 
-0.0252201380315703 
-0.003896243247851466 
0.008540324138757681 
0.02721073313279106 
0.03452444322407673 
0.01149541544831584 
-0.02733512589461865 
-0.009561415633380595 
-0.009915324769424029 
0.04778064321117277 
-0.005983632027914984 
0.0241439286939514 
0.1103827877543805 
0.06438738263364828 
0.003560182960278472 
-0.03995265299790212 
-0.01895774809128819 
3.497691656126763e-05 
-0.01551373194026684 
-0.003841809282061575 
-0.008266826607832383 
0.006577831807546795 
0.005749340385732443 
0.0001605960850308443 
0.005618905311321351 
-0.03823997536314746 
0.00967963574411672 
-0.04568040144394912 
-0.01144497749479186 
0.01234178157391998 
-0.04153387762226043 
-0.01312666437719284 
0.0005825342865045371 
0.01957750699476211 
0.04305176043563077 
0.007838804710841937 
-0.03038271121903361 
-0.01221664957084454 
-0.01045365288149054 
-0.006262082876862885 
0.009449919723048201 
-0.007499321370650093 
-0.0343402501675255 
-0.03563674187362974 
-0.008483134921919022 
-0.0241074882782959 
-0.01467165618735057 
-0.007872210260994054 
-0.02293484985592672 
0.0002555986153605392 
-0.0278406873025183 
0.001201587638454184 
0.003347871613448852 
-0.0007937130026754289 
0 
0 
0 
0.01529644963639612 
0.009846582494327355 
0.01259416300783433 
-0.0656360017044221 
-0.03901714670601854 
0.02301533771805105 
0.00461725676731401 
0.002803835108511332 
-0.002059616478718755 
0.0304306715647415 
0.01653844560030031 
0.007411970897954141 
-0.004898916480703699 
-0.006049614792974767 
0.001414869070511357 
-0.000950642217625919 
0.002897564001996676 
-0.005785952355907609 
0.04350055059665496 
0.03273888965256034 
0.02123044067942542 
0.03190381122272751 
0.02493655886689385 
-0.002825257730728472 
-0.0309044124128075 
0.02232853921118095 
-0.01781372909241423 
0.05272301990654305 
-0.06323731127826258 
0.1187304634253 
-0.07723564142542123 
-0.0273872982766653 
-0.01381302654746297 
-0.03508354775082109 
-0.02180512915736844 
0.01546568022976838 
0.09586471768427682 
0.06182512738960705 
0.05518406464079396 
0.07231494691164947 
0.02932634191545437 
0.0332374699012023 
0.02412693706015083 
0.01483174197930042 
0.001083195756522668 
0.02173466195725011 
0.02612622906309633 
-0.009532819849732034 
-0.02827563407988438 
-0.01626174562018447 
0.01579481211706311 
0.03393077947097802 
-0.005011077293474479 
0.04781014058918861 
-0.01604774856758011 
-0.0108925145513962 
-0.0009643415209448441 
-0.0002528214225171054 
0.006967397702124797 
-0.02068829926318579 
-0.004268908269821074 
-0.001075506791278564 
-0.004347239055838731 
-0.02968957121909216 
-0.004596602697135824 
-0.03061296509073046 
-0.0177205839930351 
-0.02075874765454149 
-0.002137627478982291 
-0.02360866836030437 
0.002144550662485663 
-0.003370467986709857 
2.64880074981644e-05 
0.002923199098591131 
0.00860705309189934 
0.01228734743687977 
0.04161055294312126 
-0.01432780277428406 
-0.01022984914109578 
0.01047000786891221 
-0.02010659779306213 
-0.0102938618098353 
-0.004995204703584112 
0.007109474223787137 
-0.05909649360890578 
-0.03356519652084549 
-0.02629642453242681 
-0.0265052042176861 
-0.01622496452844445 
0.005494557301834681 
-0.00818529284850383 
-0.0002720608429765183 
0.004683512602535132 
-0.02056965043678323 
-0.006989599194458111 
0.0004258283900356675 
-0.002695434279611346 
-0.01825283076229928 
0.02250538238797896 
0.05143294763377001 
0.02350383919529997 
0.03222979131982773 
-0.03775921268172398 
0.0199450425049475 
-0.08642943152686473 
-0.02925890018226764 
-0.009857078308094047 
-0.003146287467718091 
-0.03243088147477457 
-0.01077891439535482 
-0.03505872727598031 
-0.00105197156392501 
0.001532083041987528 
0.01995434639231948 
-0.05812088675287061 
-0.02188649874681651 
-0.03052680999769609 
-0.01455468421721386 
-0.007960612223500755 
0.007973238193112677 
0.005396318756830697 
-0.01232624502199809 
0.02812260901585481 
0.0297748052098506 
0.01821949207770818 
-0.006236415787133228 
-0.02226810082369868 
-0.01731443420997644 
-0.02471946468265351 
-0.0238162624686748 
-0.03170514205439834 
0.03296292238535894 
-0.007333592740268635 
-0.01363801338477606 
0.04337697730306211 
0.0001418096053300495 
0.00591061545004126 
-0.006657234238590279 
-0.02673683766541634 
-0.001647747116880658 
-0.02432554699666749 
-0.06407026114798324 
-0.0290226878475191 
-0.01699302462513135 
0.01150282950693492 
0.01676897087199978 
0.001383633068145691 
0.07790680936842986 
0.01143353461705927 
0.05235653871504464 
-0.02113645188573134 
-0.03269251949237419 
0.04538882913369561 
-0.03358770566003171 
-0.01514558313274329 
-0.01634307014467938 
-0.01761385743806242 
-0.01669426178588279 
-0.01120902209604527 
-0.001147275981597554 
0.003651803556920533 
-0.006560537092337265 
-0.04091104472381983 
-0.0124974874705193 
-0.02512946353793119 
0.006418923532029384 
0.003356801100640009 
-0.00389953866604187 
0.05706789829721666 
0.03067863885443934 
0.005793166336321252 
-0.03598170539269321 
-0.01825339057413678 
-0.0374589930231429 
-0.05281928700730799 
-0.02882799700696172 
0.01277201433841542 
-0.0302910256847405 
-0.01610041840572017 
-0.002152979040902518 
-0.02890725573941368 
-0.01034679953849296 
-0.01466156102427299 
0.04528453994779844 
0.03540167262934444 
-0.03039228227644927 
0.000142537464747866 
-0.004227088717505551 
0.007326263816747113 
-0.04705495877333653 
-0.01901124090636453 
-0.007774364542282015 
0.01957045438917711 
0.01683601310175665 
0.02521032084060864 
-0.01339400260671895 
-0.006259950713419124 
0.001794093341845287 
-0.02120161573904083 
0.01710528786153953 
-0.01959350891725976 
-0.01882334340776471 
-0.008839653692364875 
-0.005775849038687845 
0.05420048069219236 
0.03197224540896407 
0.03371426699405455 
0.03886916347942851 
0.02760925440425737 
-0.02401043005649296 
0.0151769002011554 
0.009698831875430006 
0.01418114340977148 
0.03810663170830423 
0.03589538008782609 
-0.001860769562332446 
0.01722636089203039 
0.01817062241803122 
-0.007513787828763774 
0.002055867163412209 
0.002811043846849632 
-0.004313041505573451 
0.02803146157919579 
0.02379977066582835 
0.00514204473660109 
-0.03845242553294648 
-0.02118437746905729 
-0.004907581199599799 
-0.01112936135745368 
0.00364909068719105 
0.01609087607539048 
-0.02443086370932372 
6.391816744753244e-05 
0.01322327879802944 
0.009455278752838931 
0.01119015381562017 
0.02763583266722951 
-0.04351503375026465 
-0.02353277823992919 
-0.003936604091856667 
-0.03862538416810121 
-0.01727523777198628 
-0.0137495962533285 
-0.05535152553572997 
-0.02712912814538791 
-0.04750911038588618 
-0.02665843807914787 
-0.006711937626935308 
-0.04065823960253209 
-0.01669025220901098 
-0.01358245687476133 
0.02207352748151274 
0.0397377632396735 
0.00289032183004602 
0.02635472499684069 
0.06188395106045315 
0.03568738253760803 
0.05518449171599291 
-0.06683388401685103 
-0.01776509336869785 
-0.01073284926725288 
0.01157179077281082 
0.01303011164540634 
0.01728840558130738 
-0.004045778859888889 
-0.002799470827710224 
-0.003808694981005118 
-0.01845485378034431 
-0.01022008190991096 
-0.007230711796926373 
-0.0276596485867603 
-0.01282024231363249 
0.003787598038081617 
-0.06914485684763778 
-0.03254842809033993 
-0.01250260191793883 
0.05740746553627242 
0.01159562898854848 
0.0262672520452985 
-0.04888180308679704 
-0.03771789463626764 
0.01007807677100094 
-0.04945934592220136 
-0.0007323017606472294 
-0.03381097241665935 
-0.03481122940300772 
-0.01721879596219987 
-0.01240425619865116 
-0.01492694295140139 
-0.006112313850225606 
-0.001845434348252525 
0.04685234258698759 
0.03610590348878289 
-0.02526954020551765 
-0.04506895492767218 
-0.02951511851099202 
0.01697685464034208 
0.009278200996080838 
0.009592374695666032 
-0.01866156888998796 
-0.03693518276036625 
-0.01062453679410334 
-0.01840188990312495 
-0.1088408779661369 
-0.04129589496543504 
-0.05440532714843492 
0.04074021164404298 
0.02392338632914169 
0.0348839568475131 
-0.003760461995915138 
-0.005630643620983664 
0.01799237282404184 
-0.07543454024879474 
-0.03556807266273428 
-0.02299098623344022 
0.007954883184146881 
0.01718048997575551 
0.01542731766672544 
0.04006859573630531 
0.02624776581437198 
-0.01069081150788568 
-0.03284384624761415 
-0.0161373173416681 
-0.002196676281336338 
-0.005942578216825613 
0.008321506339111133 
-0.01609267686330657 
0.05934750725907994 
0.04389124155076746 
-0.02210490107604861 
-0.02059501515417629 
-0.01266493422663666 
0.01346392614455524 
0.003060434277310188 
-0.0005814958202123182 
-0.004010516526336482 
-0.02991760868101277 
0.02336470132794171 
-0.03968501139049394 
-0.02378843257126735 
-0.01130273209677907 
0.001375935386612947 
-0.056970144799367 
-0.01514336995695252 
-0.06474088541160218 
-0.01387357759578796 
0.002729384136127003 
-0.00481287298921576 
-0.01696102337803167 
-0.01961600271779122 
0.02869796809561583 
0.04206735067344394 
0.0266008058419662 
-0.02454644444900657 
0.0352721928453111 
0.01230147887858943 
0.04793170780673645 
-0.004370342032830714 
-0.001297627630929231 
-0.001985138175348289 
-0.02229286561018167 
-0.01552303872985549 
-0.005821401181466166 
-0.03676150188479031 
-0.0224464849084727 
0.004138469352266741 
-0.02191183398754561 
-0.004919868416530085 
-0.00400683196477307 
-0.005265678785254503 
0.000945118512508592 
-0.006783564597073595 
0.06996221472555512 
-0.02146566503541813 
0.04362395675562455 
-0.03883189757770655 
-0.02255759241326042 
-0.003588035106012724 
0.004729980674187611 
0.00812929377783708 
-0.004573078623431519 
-0.03769727695871616 
-0.007758603836676082 
-0.01744565286255968 
-0.01252829049261438 
-0.008417596237327336 
-0.001209621127958557 
0.006704690503724694 
-0.01490060191464378 
0.0117960064879495 
-0.007873929934387914 
0.002236734037803127 
-0.01165876078320295 
0.03060168144179535 
0.01539942989332744 
-0.03165544394891495 
-0.005466961191296302 
-0.02371632560830713 
0.003458469246830193 
-0.02474713768961448 
-0.02143036923349183 
-0.003367073992078015 
-0.006690080725225593 
-0.001518197847531509 
-0.003305515156629767 
-0.04532865364426247 
-0.02162237600821774 
-0.01849180304569831 
-0.01786448971759051 
-0.002663988052884746 
-0.01173565970922085 
-0.03624817420853748 
-0.03669707287318679 
-0.002772705339519716 
-0.06423705037778209 
-0.01772700684557202 
-0.06214257763070889 
-0.01832430859153756 
-0.01016664054348313 
0.001406847236022141 
-0.01684730634588679 
-0.00270177143431985 
-0.02967772543727811 
0.02145268188110811 
0.01786728174802127 
0.02155241338897068 
-0.01667911702994403 
-0.01275129902965157 
0.002256281320915745 
0.007502598004112454 
0.01245631193432879 
-0.00939952797585091 
-0.008632203076475876 
-0.004759122927685032 
-0.002569785899404014 
-0.007773173036011788 
-0.01818295176919104 
0.01638811665422626 
-0.09610770953649263 
-0.0515598729848503 
-0.03815455884184236 
0.001758434014478825 
0.002304435592439309 
0.004233807203478078 
0.06767440674137511 
0.03388099515559075 
0.01897798803751199 
-0.008000449129620351 
-0.003176926090892912 
0.005721991353975928 
-0.01744463052583151 
-0.005465512501299214 
-6.350071859414796e-05 
-0.002517615905437074 
-0.003682236615315239 
0.008398337019801352 
0.03904292875584497 
0.005772935996617491 
0.05407347913392784 
-0.01765887925308884 
-0.007379060109341782 
-0.001271907139879252 
-0.001506591035001292 
0.001993548488387886 
0.002896491880677541 
0.01340267147528653 
-0.004257027270125691 
0.00761206485968237 
-0.02776219324068905 
-0.01070991094446077 
0.0008506395758522923 
-0.09679562126768244 
-0.01451930927975537 
-0.05152658075038151 
-0.03109838017208701 
-0.009659669511142777 
-0.05201414038897222 
-0.006070609631156652 
-0.005904321349154604 
0.006487713937219093 
-0.01141947794283558 
-0.008428253302302017 
0.001386832240600958 
0.03329244794146253 
-0.001822801487980327 
0.0248786231768462 
-0.01261243542078736 
-0.008004739852164895 
-0.002538573982778971 
0.003265740049384363 
-0.01095269093997744 
-0.01039764334361914 
0.02820509983330605 
0.01518862824412004 
0.008195536183656019 
-0.004234038753412839 
0.009399423804773321 
-2.453577313408236e-05 
0.007215359399962167 
0.006845030446811145 
-0.009688219739797117 
-0.01381773963238569 
-0.02498011796782189 
0.00818155785732199 
0.02112491707611327 
0.0009002327390702153 
0.00128191377820242 
-0.003496485546341199 
-0.007638220740685853 
0.02376360366987075 
-0.05877447081072531 
-0.01464821604257117 
-0.0149667852040371 
-0.00875796786140747 
0.002093314395144555 
-0.003101641621800435 
-0.0635478711750795 
-0.0288536745599108 
0.01240221149155175 
0.0554220604442683 
0.002410581064549141 
0.07323956689934341 
-0.06410455633311607 
-0.03841917653230881 
-0.01065557094933033 
0.04518115566971846 
-0.01350835626801717 
0.02465582004579839 
-0.03983207627527773 
-0.03676648423701274 
0.02804513860420387 
-0.0520621029572438 
-0.03700394607603207 
-0.04434378233397944 
-0.02626085456933699 
-0.01277949996632221 
-0.01051302078140161 
-0.002299185578668963 
-0.01141432233218884 
-8.668587206530102e-05 
-0.01664908230435703 
-0.01279820327592252 
-7.495170420401232e-05 
-0.02964171595344333 
-0.03944108958580889 
-0.008968241784539508 
-0.02296045333387217 
0.008899093531534601 
-0.01073891955387291 
-0.01836200875933332 
-0.01058665587715738 
-0.007627053110325912 
-0.06219889343942899 
-0.03699834905122534 
-0.002853850274491824 
0.04459361960473146 
0.03292981833263613 
-0.02284026224998193 
-0.02503555066260177 
-0.01240518985996184 
-0.02948556827205534 
0.07240362474827165 
-0.02100084264735473 
0.1011568396338476 
-0.04656575554085619 
-0.02422361314901728 
-0.003269005288105657 
0.03755724255933846 
-0.01349683379910075 
0.04836343934544368 
-0.05950418371962647 
-0.02793019038246235 
-0.01680606218523613 
-0.008850961760326554 
-0.0254687511250788 
0.01489765188801792 
-0.05259627808722698 
0.003507476969825599 
-0.06238138005126386 
-0.03324959451118601 
-0.01250751489872836 
-0.01097320810181924 
0.002585325706056997 
0.01200796047359275 
-0.01048567737742495 
-0.01761413035726264 
-0.0272269300252177 
0.02388983139945201 
-0.01273557372125017 
