solver_type L2R_L2LOSS_SVC_DUAL
nr_class 2
label 1 0
nr_feature 12288
bias -1
w
-0.05146682543577283 
-0.02719784004291129 
0.004172977792297645 
-0.03380359298315192 
-0.01471372795882274 
-0.01048652039546712 
0.01227356740662318 
0.002544422393159798 
0.007755892567141442 
0.003260856209476115 
-0.01319832692448174 
0.03045336914534853 
0.03521554643382269 
0.01960073952343816 
0.0371763382216052 
-0.06141802252942744 
-0.01316263415224688 
-0.04849575328188162 
-0.01208399630983716 
-0.006378188343857644 
-0.00643402503468009 
-0.0770905076060303 
-0.03303554997905802 
-0.0008559144692567986 
-0.016939492462366 
0.002221733599818205 
-0.029924516620633 
0.002564364262057959 
0.0004794807957864206 
0.0275391041576869 
-0.0021428508725807 
-0.01102769162962143 
-0.01916168711918477 
-0.006728759378596873 
0.02200807422290224 
-0.05250858943340057 
-0.0456937772476717 
-0.02067181042640269 
-0.001775549147206189 
-0.007669428883733878 
-0.004299141861457433 
0.0003703576562894099 
-0.0499377518427656 
-0.03000924057099484 
-0.003819147698641397 
0.06078011678776741 
0.05219888896262378 
0.01293874600757184 
-0.04874727365500213 
-0.01773165363849386 
-0.03140395561145642 
-0.009390288563969694 
-0.01374991537359535 
0.01599516027366655 
-0.06312183720099289 
-0.03113326451781535 
-0.01370212703871176 
0.0340462187414801 
0.02644879217119432 
-0.0122293891316492 
-0.005822282905361201 
0.009216494491143553 
-0.0295450913223603 
0.03342693965023939 
-0.01485737410342874 
0.05797123830881923 
0.05340262608353656 
-0.01925262869849642 
0.03884962489265287 
0.05699263999532448 
-0.0006808623584771047 
0.06016610308598754 
0.01414747299305784 
-0.01050618476782258 
0.004585569410061095 
-0.001810018501020229 
-0.03393866216529023 
0.03245307797224981 
-0.02875514517635263 
-0.01278308667654015 
-0.006703966436716866 
-0.06365950337082393 
-0.0287235385846615 
-0.03618301110082312 
0.05668983422101573 
0.03278358413524851 
0.01989755009568774 
-0.02990388754900654 
-0.01344616562059713 
-0.01182253064019989 
-0.05059986528517859 
-0.01612211014452301 
-0.03761733912993512 
0.04254152855390621 
0.0148237565961212 
0.03127214358528065 
0.01976981061492798 
0.01726257332672724 
-0.02215219868701063 
0.0004277031727448948 
-0.00326518648394448 
0.002625077409349798 
-0.04354380058240986 
-0.01155089874890957 
-0.01834772588137755 
-0.06082234844277419 
-0.03457344209827322 
0.0005728915129330911 
0.01265468215611915 
-0.006887536019249733 
-0.01520707057007362 
-0.04810915961093892 
-0.02570669430682097 
0.0006976689238504877 
0.02251459386281864 
0.02065352430974601 
-0.00406140946849527 
-0.01279789880893742 
0.005363041474534144 
-0.02893668566922221 
-0.04619062581964942 
-0.02897622953657216 
-0.003850829496889706 
-0.03037049436880823 
-0.01765752890441901 
0.003372317476482829 
0.0161006621199098 
0.01465659982192952 
0.005557031879823276 
0.006956638482891206 
-0.008941825462814341 
0.04420653749109535 
-0.004082851608244563 
0.004580657229295303 
-0.02801423496419437 
0.02394130560447496 
-0.005911556713551689 
0.05932325490867386 
-0.02597137750552053 
-0.008384312192244135 
0.00293331214078182 
-0.05018941951348034 
-0.02358470655468067 
-0.03064134561223527 
0.008974613653053604 
0.005381800565656161 
-0.004733799847709266 
0.007661928667125601 
0.001860561263990747 
0.004462040925418036 
-0.05772284173272414 
-0.04478303153311838 
0.0001723420661257963 
-0.04131093590729247 
-0.005474257770188097 
-0.02296572183641547 
0.0890218474703746 
0.01952725180681502 
0.04480806339711815 
-0.03495776574335325 
-0.01453957774437413 
-0.005756770267438089 
0.003679784734693041 
-0.004999780091389734 
0.02063336667383553 
0.001945940776541717 
-0.02185260859790445 
0.03198876001292744 
-6.861919227523701e-05 
0.01065713741772573 
-0.02441627206382155 
-0.02193438026923765 
-0.005215764195569077 
-0.0008976374418237874 
0.02993050417607622 
-0.01316343254247249 
0.01538356914891903 
0.0266542841593513 
0.001839820120544182 
0.008718128892089521 
-0.04405013577185789 
-0.006722875235073889 
-0.02084725366400964 
0.03871520864581986 
0.02501506691994013 
0.005647994336749867 
0.005635174395281866 
0.02572532059163946 
0.01210900593728083 
-0.002967763115093165 
0.002090672337188021 
-0.04404862227707178 
-0.002660108575523728 
-0.01076797728253015 
-0.00631709024276946 
0.07428892462040725 
0.04302178769071584 
0.002453965186647734 
-0.02648370982614742 
-0.007377303348494114 
-0.01017355972303529 
0.01956052635719005 
0.02549027800790004 
-0.01387662920672934 
-0.04028055413506443 
-0.01080820202168699 
-0.0003197028558047123 
-0.01634014485829862 
-0.01132968851630148 
-0.01696714570076569 
0.01505724325815097 
-0.01478583707774403 
0.01694534901790485 
-0.03150209896523316 
-0.002771712969627001 
-0.009382642403368788 
-0.02163951245467862 
-0.005292898933994295 
-1.511149607713505e-05 
-0.03053475494940191 
-0.01619648650017218 
-0.01760835547690527 
-0.05179663244481438 
-0.01293561047575853 
-0.03146562792810229 
-0.002105083700230311 
-0.02432562557596831 
0.0007057973679433574 
0.006318731695423868 
0.008783730273855773 
0.004907730931776575 
0.0119447627722004 
-0.02144581894647462 
0.0147329467090734 
-0.01262297931673779 
-0.005707061377822857 
0.01531756020065848 
-0.01429272162395228 
-0.002302028842169313 
0.01421681446157435 
-0.00509341452971027 
-0.001336837894936898 
-0.001674819326103234 
-0.07228191017284713 
-0.03331215261247973 
0.004378855637221952 
-0.009100822748432283 
0.006797844133229767 
0.004741746066913492 
0.02200623494214067 
-0.001100019825250264 
0.03062143232898013 
0.03591379179739181 
0.04429320077134747 
0.001010415095087878 
-0.02531295228461811 
-0.01972372836209018 
0.02964787963998454 
0.0276655236674093 
-0.07382894827520839 
0.001113849722905042 
-0.01586563854041576 
0.003829868160393933 
-0.01775829906969232 
0.01601623135491529 
0.007833258095759197 
-0.01539422435696904 
-0.01417377799121069 
-0.01946089996601277 
0.003105710945083952 
-0.006331654167282471 
-0.01502300816309074 
0.02115238537138747 
-0.01142622640394378 
0.007124647959946219 
-0.05234971847685184 
-0.0162779764660165 
-0.01531269853436683 
0.01770626723214226 
-0.02967481530728633 
-0.01538239097643654 
-0.001626701573539576 
0.01122101694504273 
0.007289749455976745 
0.02994789546891994 
0.03757013778949 
0.01909649865607258 
0.01579529336128916 
0.03831025283323081 
-0.03228285774509344 
0.04745772307834816 
-0.03299800344246372 
-0.01745194615610415 
0.008434950678854348 
0.004338603148768239 
-0.01049415344005219 
-0.004304621087194977 
-0.06494974000749078 
-0.02693598883263127 
-0.005563249245264846 
0.03554393255931185 
0.01752701347855955 
0.008561303125667784 
-0.03443409499888238 
-0.01808073870159222 
0.001109743039144162 
0 
0 
0 
0.006182208391334303 
0.01058291137077661 
0.01220267350334354 
-0.02768624259190523 
-0.0111028259369583 
-0.005876844068723702 
0.04823254274921297 
-0.006299731655194729 
0.01362150211381707 
-0.02646059705199637 
-0.01812453598168928 
0.009858790415745141 
-0.04082883290322726 
-0.01403689805436857 
-0.01885318375133242 
-0.02103339732467158 
-0.01234319135940758 
-0.01002758213211808 
-0.04902327255817529 
-0.01867174575323762 
-0.04399580478119738 
-0.008811170646455689 
-0.01988536272337069 
0.01709875394583053 
0.03105021747054772 
0.02133527937559727 
-0.001916965718927873 
0.0722023749399409 
0.06202117346210765 
-0.01495128969970027 
-0.03508823991067075 
-0.01973182114991343 
-0.01183423454266457 
0.002774150007256997 
-0.008043147163194989 
0.02028846176829587 
0.01049236369346946 
0.001299434990438795 
-0.004863317197933622 
0.006575923365116054 
0.01010904376245666 
-0.001240447424716601 
-0.04781766893834259 
-0.002759105589467583 
-0.03180230360062865 
-0.05272096794230066 
-0.02258186324512375 
-0.004609000398789832 
0.0639698592452897 
0.02347812732020381 
0.02793414923190462 
-0.03108195683398718 
-0.00933054600064058 
-0.01538681869972882 
-0.08933541569207328 
-0.03611004750197299 
-0.01129894672876769 
0.04212127641414418 
0.02195514370406767 
-0.000535360877456047 
0.006693768220107504 
-0.001795556458720459 
0.0103169698232126 
-0.009732936307751116 
-5.144193367386812e-06 
-0.004229348765514107 
-0.07903664437214056 
-0.04252604613301805 
-0.02622389030712523 
-0.02163519772537095 
-0.01935411168448332 
0.01651901911071051 
0.02642390470248459 
-0.003340039698646166 
0.04795238835259295 
0.007839293998930224 
-0.0006448425776946522 
-0.000250631228901546 
0.01490305126470087 
-0.004242468542672953 
0.05480774360083616 
-0.01279020381945222 
-0.007215027391649828 
-0.001854610672405427 
-0.04106989783703058 
0.006187133722431044 
-0.03709376435782428 
-0.01038509119126846 
-0.005194169350424439 
0.001948192431748629 
-0.005979285756712954 
0.003732205135443781 
-0.01239389880489243 
-0.0108838155828787 
-0.03783197158993861 
0.01329004680343191 
0.01085786153269624 
0.02277906477534634 
-0.0001910111990206329 
-0.01036305274570504 
-0.005741368064897721 
0.004469651640086885 
-0.0244160630709314 
-0.006339441219430938 
-0.01672755062388723 
-0.003849451235159507 
-0.001175541086246212 
0.0105179611232365 
0.05016279583560187 
0.01840844669703862 
0.01652167378080403 
0.05496586897954569 
0.02049473586619774 
0.05165088441391458 
-0.0004998992263391341 
0.004257140473205002 
-0.02710941762333959 
0.01433338103662799 
-0.009964314234165574 
0.025064382958739 
-0.02859784411277844 
-0.01522938696896047 
-0.008551939842272985 
-0.04828340205147833 
-0.01353749536146227 
-0.008249806115757846 
0.03432548780389484 
0.02440719775535305 
0.01325895509510947 
0.00343078502769052 
-0.0001328374494467634 
0.03625749593846992 
-0.08705073049304182 
-0.04790307690947476 
-0.0326879484848184 
0.006753191817032326 
0.006858200169255993 
0.01217925426652939 
-0.008556835640576146 
-0.008882586656663825 
0.02586679623335577 
-0.06132036894491895 
-0.02673681981149762 
-0.01578954657384509 
0.0169928570437426 
0.01882180052737126 
-0.01168893672832864 
-0.0009584626602303542 
0.0055779271129248 
-0.005155283417319049 
-0.02196043372978276 
-0.0129906540066906 
-0.01610230196202716 
-0.08422688340673462 
-0.02938702172198661 
-0.007881635746726498 
0.01539790429747254 
0.007953981087391541 
0.01141054816390427 
-0.03653104387201281 
-0.01190048240242333 
-0.009219906795515487 
-0.04189418241991449 
-0.01098945785453358 
-0.01674964350412478 
0.07863577573541915 
0.006734104038660644 
0.05683061396080181 
-0.001544226880293952 
0.02121133894980113 
-0.007448237571506558 
0.01531979816547663 
0.01100777980020729 
0.003760502282726775 
0.0190404083063735 
0.02928878932316158 
-0.04031052759321015 
-0.02812438819404379 
-0.001470780954755813 
-0.04082122769383448 
-0.02036163840970323 
-0.0160147787195279 
-0.002494283937634391 
0.01103695563015148 
-0.01159370223974615 
0.0288479494232098 
-0.0433125606795759 
-0.01404282698941134 
0.007318913840192243 
0.05977795863168491 
0.04572362992612005 
0.001294294135485238 
-0.02990689934650938 
-0.01939710019175667 
0.003806739797170727 
0.01953415810465249 
0.01843670754058341 
0.005342579130684988 
0.04478420529546642 
0.02662810196333703 
0.02692242737382512 
-0.01126308443378502 
0.001419240911936755 
0.02635347889379066 
0.03307775549696035 
0.01576058618059984 
-0.01254840217321978 
0.007133123941033792 
-0.01775288824049745 
0.02708937877952913 
-0.04313619045188475 
-0.01999014095189474 
-0.01241559337357741 
-0.004522188576115148 
0.003499883702180494 
-0.02006399484331876 
-0.007029045734177976 
0.002029241350429466 
-0.01155293863343537 
0.0151949591468131 
0.02053301881707007 
0.0001457555617297756 
0.0370828363783467 
0.01274257020923003 
-0.005079357846171611 
-0.02127548023965533 
0.004929289717157615 
-0.04522329583001473 
-0.009813499180826798 
-0.00162542420752648 
-0.006041622496797236 
-0.01955627407657735 
-0.009296884111141034 
0.00936624285678268 
0.04858396304238864 
0.03221830834670265 
-0.001734484613469555 
-0.04245843618441618 
-0.01235724791145617 
-0.01333960299703364 
0.05146058711952946 
0.05542400755906367 
0.01680859310961637 
0.05107758757667627 
-0.02397444773678414 
0.08515553032065662 
0.008073106544259332 
0.01888752887397755 
-0.02346006523233364 
-0.1105807463977938 
-0.06645832461015498 
-0.005362147622405143 
-0.01682496050457807 
-0.009981453224806223 
-0.001587987322297013 
-0.07293497355503933 
-0.03324909812778921 
-0.02498605673784879 
-0.0129837176767483 
-0.01074925441439709 
0.01300061964235939 
0.01567024656938638 
0.01949362310475736 
-0.01190795103320787 
0.0291358790691595 
0.006821425114907426 
-0.01308737991940356 
0.01028377474059178 
0.01283449233928996 
-0.01278494007187954 
0.007241834435780429 
-0.01291334844342465 
0.0192431941674301 
0.007572287635816467 
-0.05647146705779298 
0.02992845103844072 
-0.02886291276737743 
0.007194409044950171 
-0.03568191375965102 
-0.02950488028080179 
-0.001786075549328654 
-0.04021783103230716 
-0.003487655009545807 
0.01785239576278514 
-0.01817582740503405 
-0.04970803398787488 
-0.0110919639836208 
-0.02266961753140579 
0.02840985428015723 
0.01616279734452275 
0.0248597600144982 
-0.0430655825695388 
-0.02430417705432103 
-0.007254189585563657 
0.04618466895014497 
-0.0004757739976884128 
0.03977633189854317 
-0.01363955348987186 
-0.01215647223493115 
-0.004198709920139599 
0.007028839967249833 
0.02660784874832243 
0.00374076390879141 
0.04026871288309726 
0.01037103395883391 
-0.01913289557819781 
0.009630472804126324 
0.01676397870081704 
-0.03011441764324292 
0.02796013692095028 
0.007723534642528166 
0.02222352971369916 
-0.01047058459047957 
0.01168141370207207 
-0.01594174074053654 
-0.04000548183720055 
-0.00492260254489749 
-0.01479814212157579 
0.04596314495534595 
0.02053273566482575 
0.01102831807838086 
-0.004219323931381113 
0.02302658094187079 
-0.03061407511787858 
0.04230747298397453 
0.001716323551015914 
0.06732903407097662 
-0.003216116439084999 
0.0094181662644963 
-0.002295741689813142 
0.02365255638905439 
0.01060077401239106 
0.03059027152483773 
-0.00785924446776776 
0.006290895512859734 
-0.009932668519832513 
0.01942739824705108 
0.01278925301146579 
-0.001175983010802447 
-0.08876853526073547 
-0.03640676008992931 
-0.02365905677316629 
-0.0007138482077051933 
-0.0005190741853715549 
-0.01208481727435095 
-0.0337410367319492 
-0.02941230154727721 
0.03804785074528822 
-0.002720223794055489 
0.001396304294647663 
-0.007522416876098305 
0.04620072588863765 
0.03724944431101673 
-0.01238212061614348 
-0.03086446612817834 
0.003189937559855686 
0.003594352552316294 
0.02166975826759941 
0.001274635691726638 
0.02105485067304036 
0.003172163674240139 
0.008665017561456351 
-0.01407938726426492 
0.01725269261532662 
0.001958129046636397 
-0.002704366841120217 
-0.02542061007102005 
-0.01615063546279752 
0.007716053945013516 
-0.02050491794499805 
-0.006520487229481584 
-0.0187842101771517 
-0.05964264752018059 
-0.02722888977715237 
-0.02409496996563536 
0.04642306103127263 
-0.009761594070070337 
0.04548722943278177 
-0.0218638579105873 
-0.001368393113530534 
-0.03923107253440603 
-0.02360054261013016 
-0.01304526654934796 
-9.970148338320309e-05 
-0.000226968987427473 
-0.001569947190963147 
-0.02125854593617862 
-0.05653282705445325 
-0.02302068559063487 
-0.03418637687478831 
-0.02206971845261555 
-0.009639914821918994 
-0.006415258231471452 
0.01226689689339121 
0.01666482634043005 
0.001067497498568093 
-0.02104828717619236 
0.01336987537398317 
-0.02046781806850394 
0.001723482257186342 
0.01133104723214141 
-0.009635107556450652 
-0.003610639736727577 
-0.006284414650184631 
0.01541423151874764 
-0.04102956051235675 
-0.01224089780694665 
-0.03682706672547445 
-0.01386664692502528 
-0.008373239651850018 
-0.0154339968593445 
-0.0349234763289195 
-0.01104726873225212 
-0.009146742432977821 
0.002214800009751515 
0.000346476720887399 
-0.01100560017159066 
-0.02306095297416487 
-0.03118124571701004 
0.01955056373726259 
-0.02525905961554919 
-2.698012063898263e-05 
-0.0377928364609835 
-0.04750618625632837 
-0.014033040461568 
0.008037783626040159 
0.006030529234587266 
-0.01468906975375086 
-0.009805996905902814 
-0.01741544106787805 
0.01590647777958272 
-0.01277557412530504 
0.02238774708568298 
-0.004203829964497718 
0.03431195749095892 
-0.002736029215442371 
-0.004046767501672248 
0.001457222252421547 
0.02234573729938497 
0.02671959577816451 
-5.052494406960306e-05 
0.003573056557101315 
0.004128217532728703 
-0.02679821377620367 
0.05381638501882118 
0.002721866462982763 
0.05852417694520674 
-0.02340436850849595 
0.000452361368644605 
-0.03774998328777029 
0.00549059394223513 
0.005921489840297669 
-0.009162358264353371 
-0.02306877091267501 
-0.02545471277482308 
0.01688132069626837 
0.03329791130302086 
-0.01875562452605245 
0.04196344596814005 
-0.02825344613112804 
-0.003479208066944244 
0.002587958605180774 
-0.01259078938913392 
-0.004520421346943785 
-0.00787630126157046 
-0.02970726506440786 
-0.003628327223528011 
-0.01394005634850476 
-0.0004827136356075259 
0.006469096964914927 
-0.03617839180456698 
-0.0283850676002099 
-0.01201347456231877 
-0.009650484318759424 
-0.03169596004789458 
-0.01701840555719926 
0.008713905479393195 
-0.06898033188955056 
-0.04045889692289843 
-0.01279184080333061 
-0.02955562505804725 
-0.00321547922998438 
-0.02711041336107376 
-6.893837764232217e-05 
0.003414311724996995 
-0.02172396895930986 
-0.02242203738263924 
-0.00526766050204078 
-0.002258814961578858 
-0.05265804001289155 
-0.02786371397298137 
-0.004771747883192611 
0.01167118752451388 
0.02036479478299028 
-0.02453626910612055 
0.01628935227945737 
-0.003800482857452821 
0.03507887770252974 
-0.01794974654214938 
-0.004052651331447247 
-0.01555977388293646 
-0.03423604657613789 
-0.001376108904417609 
-0.02680669108868301 
0.1159233546528058 
0.0127464519085911 
0.07120810119368093 
-0.05331130938690241 
-0.02114144317230175 
-0.02557920487577554 
-0.1122764445495814 
-0.005026124479876459 
-0.08368622884640163 
0.01699683337233652 
0.002855217639281083 
0.01983929328253461 
-0.04647649352300248 
-0.01153398789552842 
-0.01423852000519932 
-0.0001142735102307078 
0.000355532861628259 
-0.003027827390282605 
-0.02490687955703096 
-0.01871105028805102 
-0.02303029252252916 
0.02021018466008055 
0.009180799676810823 
-0.019833303810411 
-0.02446101540753807 
-0.006954425238941338 
-0.01759361046429228 
0.02047680198125398 
-0.003324378777960591 
-0.005618569054554911 
0.005123739647588879 
0.01233641294048203 
0.01056279846438463 
3.980919833067202e-05 
-0.006478550993436674 
0.0144545607602863 
-0.04053232001153723 
-0.01362422576758716 
-0.00132125232026547 
-0.01813786664692766 
-0.00893004033263345 
-0.007182761106336043 
-0.004868774165616195 
0.00224533650070199 
-0.0105287709514199 
0.01291634348495829 
0.0004092023100084451 
0.04640678650015974 
0.03350170315295678 
0.03304994214278702 
-0.03677070751467746 
-0.04054602901606877 
-0.02025714289789962 
0.007913636000040976 
-0.002264375171180434 
0.009729115486273693 
-0.01618273155934113 
0.03373013727942466 
0.01861052207276645 
0.0003568226990288074 
0.02424869845905283 
-0.009292380498836569 
0.04167386894670863 
-0.07808710489307839 
-0.04731892102639879 
-0.03937938323151112 
0.008822392357192455 
0.01116099864337089 
0.02593980125027469 
-0.03759999331842419 
-0.01326846867811542 
0.01736648325179419 
-0.002810561809510982 
-0.001535520289480405 
-0.006446279582889743 
-0.05313031095040873 
-0.01814547813402189 
0.01501964957890928 
-0.05949649899602859 
-0.03389099525326403 
-0.02198166539670045 
0.07212825777800576 
0.04280253330813693 
0.04024427103894025 
-0.01435522370748078 
-0.009271757647011642 
0.02016195961825082 
-0.06145464727016925 
-0.02352822707242733 
-0.04552261740139404 
0.01215044503280822 
0.01304364575805388 
-0.02720598095547768 
0.05492086723471936 
0.0418544119916231 
0.001536501570396283 
-0.03311565442758981 
-0.01360242959305255 
-0.007129215095611099 
-0.0533071283582961 
-0.007080163843625859 
-0.008641248208832759 
-0.07170221282607145 
-0.03354043908049856 
-0.01387361908170136 
-0.00759422945138767 
0.006127137362297215 
0.01858551020289575 
0.01328147993202361 
0.01568292409044247 
0.01829511894405644 
0.01814998206452691 
0.0376532932729128 
-0.00560184252819062 
-0.07454721141480558 
-0.04527638799954137 
-0.02884260763266869 
-0.01267032176751576 
-0.004448787770940493 
0.03207967996578705 
0.02547862337523948 
0.009708674689042225 
0.02794303724625545 
-0.01506458950624761 
-0.004487769109274923 
-0.02685913190214324 
-0.02263858016633547 
-0.009227077845749233 
-0.0128591851238967 
-0.02565610986865301 
-0.01003064193060539 
-0.004649325694981826 
0 
0 
0 
0.02201320727595473 
-0.02989495450436399 
0.03316903036010275 
-0.002486122284411058 
-0.01103504361945287 
-0.002609914243180238 
-0.01924406560846744 
0.01390465040792657 
-0.05415800598939138 
0.005227160896644776 
0.01343872262580685 
-0.006023391694072855 
0.023081344189541 
0.05451375479647644 
-0.01992324150340696 
-0.03593135589305364 
-0.002977238565310996 
-0.0321530976783173 
-0.06060838189015505 
-0.03308306859604857 
-0.001472487886877678 
5.625806105142656e-05 
0.04017925416763534 
-0.003110679234257902 
-0.009093136247892375 
-0.008851085593053414 
0.003424666019869441 
-0.01082085558719486 
-0.002210380247912771 
-0.009127220182746844 
-0.05398412836727858 
-0.00760696501982207 
-0.02660429704489433 
-0.02171607408292849 
0.000299048046357701 
-0.008730515130241125 
-0.0366972613144904 
-0.01450181373490441 
-0.01295393925243996 
-0.06311884383251061 
-0.03501410127034197 
-0.02626763932111082 
-0.04913104493689322 
-0.02318254906648538 
-0.005993189951946001 
0.06301934164225668 
0.0462627855414586 
-0.003397307737891611 
0.03110149533255472 
-0.01005060231468945 
-0.002608535734669609 
0.003101228355347151 
-0.05630831809482654 
0.01496849289203057 
-0.007673366743947358 
-0.008921350773096864 
0.03039780727993256 
-0.03641316339033857 
5.240364421500503e-06 
-0.04285843133903457 
-0.06591982828281703 
-0.03630403049789117 
0.003937203798840151 
0.0420561319202593 
0.005758702946334274 
0.02817828657345556 
-0.01793518164304456 
0.008956996110595979 
-0.01400737959813704 
0.030943572297884 
0.01485009870974571 
0.02015080269997146 
-0.02649729177778207 
-0.01597278468310115 
-0.008503020876812673 
0.02876364341336539 
0.02040040520064482 
0.01442409279333842 
-0.02965941210361958 
-0.004889108688516503 
-0.01992515696088649 
-0.06188611180274223 
-0.01743676229352879 
-0.02702735799993855 
0.01948205431184829 
-0.001574888537982279 
0.01164460278719746 
-0.01545180797158052 
0.01688820237349232 
-0.03255121137295563 
-0.08798052113491463 
-0.01136160711469283 
-0.04468105222455549 
0.03911470190783842 
0.005722564426703079 
0.01749849421115936 
-0.002295261495452761 
-0.001277771194654752 
-0.000921590953612557 
-0.005533171484821323 
0.01068520372446388 
0.03483537644355697 
-0.04511184377570002 
-0.03218405426700716 
0.006047901003232215 
-0.02550542779379017 
-0.01153282912570653 
0.003294018575109358 
-0.01300029019376861 
0.005697560823481172 
-0.01728314389659001 
0.01906036387674738 
0.01507303534272882 
-0.002320520375748196 
0.03706920309853749 
-0.01913910584719407 
0.03747437411782666 
-0.006456661353894276 
-0.02805677342406373 
0.03837209283310059 
-0.03745243759625443 
-0.01373013915614792 
-0.02312306340972217 
0.03059274827090383 
0.03849538779991732 
-0.001526126741998044 
0.004545048296152801 
0.001530781921803514 
-0.001550976825911899 
-0.05170380030952924 
-0.001254307955277342 
-0.06382368187665426 
0.0279084454494192 
0.01099252019810293 
-0.001425652295252603 
-0.05864493213171267 
-0.02261475346741684 
-0.022697968539468 
-0.02515509988859942 
-0.006573374941783561 
-0.01838055559133773 
-0.02142375185958464 
0.001935364181686686 
0.000540737361090543 
-0.006427345246540611 
0.02607222462520778 
-0.03408513676615286 
-0.00569739556989807 
0.005617693297201196 
-0.03479637243353763 
0.01481114363917657 
0.002526312589233296 
-0.004548571623611674 
-0.0958768710659549 
-0.04065677627448467 
-0.0275312041134922 
0.01464363509167053 
-0.02518496165091329 
0.01298029759513057 
-0.04499129726520413 
-0.02537611141787822 
-0.0002207871213996057 
0.02699377764000159 
0.002210517461962743 
0.02551700547308843 
-0.03447773248907301 
-0.001071794948400205 
-0.04223144273654357 
0.01831476070858388 
0.02059208772516818 
0.0150361674201393 
-0.01242483892769437 
0.005857104436585296 
-0.01894502253881286 
0.05167938699681953 
0.02715609933549293 
0.003544435888452397 
-0.01863959980303132 
-0.01681334197740839 
-0.01220744093024875 
0.0360642177512561 
0.02716920600745624 
0.0001754640759792567 
0.007503490194612588 
0.03077128097872448 
-0.009841660214839273 
0.04883967359506719 
0.008649594581147073 
0.006734817418842661 
-0.005091475383478501 
0.0156716647487487 
-0.002551409523110513 
0.009807992107719449 
0.008240910412279588 
-0.01055057110271278 
0.04491451292507562 
0.02447515710490256 
0.01148267264774202 
-0.02728286771589934 
-0.01430233039552272 
0.00217208057276916 
-0.002435973128680546 
-0.01600652050885254 
0.005726710360552385 
0.03409236741154759 
0.02154886282724414 
0.0391605203903641 
0.004071624730148199 
0.00964977298034082 
-0.003727006794329805 
-0.01449159102775847 
-0.006952759800050013 
0.01680567757721108 
-0.02431746148630513 
-0.008715161085461144 
-0.006160839950347816 
-0.05923763221446988 
-0.02404206896897479 
-0.04399370626721425 
0.04244730467418283 
0.02360395312892604 
0.02640717997221228 
0.01775193469645908 
0.007180739505367453 
0.003616138031019469 
-0.06973820553426641 
-0.01474169130006385 
-0.01636151238530741 
-0.02369187683187711 
-0.008827092845994901 
-0.006141289334590058 
0.01780070736354195 
0.02710161981195102 
-0.003622339079480098 
0.001455686706599426 
0.0009876329157408497 
-0.02492293920077033 
-0.00796022481765757 
0.0002308792367797028 
-0.04501050992748763 
-0.01765887887475308 
-0.01443025633360764 
0.003119632023011457 
0.02312388044165356 
-0.01331061392321873 
0.01750202975527002 
-0.05772155157197063 
-0.01429144034845067 
-0.003976825529217361 
0.0157072871823914 
0.01969174836803574 
-0.0241328704100214 
-0.009871087672399111 
0.003350441709705978 
-0.02165078990962498 
0.01855763006948681 
0.008732193327178728 
0.003973750729614267 
-0.09558779945897375 
0.01533701279913395 
-0.09270741929299901 
-0.02908398696452005 
-0.01233114108569976 
-0.01748587488747683 
0.03606776034427123 
0.01527159928549232 
0.009136384373549831 
0.04607677511788378 
0.01755705153647012 
0.02967262901651864 
-0.07376036368168547 
-0.04567046761212636 
-0.0143712443462457 
-0.0009922621518214103 
0.009486904840721724 
-0.03813369344077938 
-0.07214707035736799 
-0.004966498268213355 
-0.03419299830145205 
-0.06359414476108601 
0.007475770002249983 
-0.03337791099194497 
0.03292523418806018 
0.02376940032856696 
0.04209870925144551 
0.006089200787522063 
0.001338694962562596 
0.004800098696024921 
-0.01236933181548304 
-0.001560642899178058 
-0.0009496314620031602 
-0.0775585247255812 
-0.02308391071178512 
-0.01477706485172379 
-0.03533221284752124 
-0.0557535562968892 
0.02444510545696721 
-0.01560200401522848 
0.01407214443065065 
-0.03489416626856297 
0.01761239777920479 
0.0189015958226871 
0.001284224442063539 
0.0227639621958263 
-0.02888545488888424 
0.08356632128422101 
0.02765489622116683 
-0.006539094626454569 
-0.01219719481811842 
-0.05820864532416126 
-0.03137890272592438 
-0.01607404797659816 
-0.04541205654058893 
-0.03211970269719158 
-0.03051295284445156 
-0.02012483706652997 
-0.002889284269349284 
-0.03529790011324534 
0.0158845191357812 
0.02233326064479412 
-0.002173882709495394 
0.01153695687483032 
0.006232603727822855 
0.008300713403033472 
-0.03126893283947235 
-0.01487888153738992 
0.004274130946714963 
0.04199621723604764 
0.04125937047310685 
0.004019393687603467 
-0.07797815201025873 
-0.04032185515619968 
-0.04104146602218887 
-0.01052458523673495 
0.01235433583810214 
-0.02002524690606091 
-0.01414339907903585 
0.003691046161918429 
-0.006124640368199202 
0.02854679597975425 
0.03937961267743077 
-0.03111647507546875 
0.006380543999653192 
0.01109322650058071 
-0.01313138898636263 
0.003698695887100401 
0.002624233949190545 
0.02653727057006985 
-0.03713898107257711 
-0.009018450984024283 
-0.05784538217105081 
0.05902279149137669 
0.0368917705098963 
-0.01029745285351936 
0 
0 
0 
0.01456784371191292 
0.01353546243183474 
-0.001514191264286723 
-0.03216217285174819 
0.005771249167374561 
-0.01299639893901823 
-0.01334697043242739 
0.01617697789082707 
-0.03083034414944223 
-0.04746778928094184 
-0.03298418245382795 
-0.01541136253199247 
0.003641386795707853 
0.003445574407270152 
0.008917098955259188 
-0.05779963784975889 
-0.02965953336114799 
-0.02936071827561211 
-0.006725268467640134 
0.004984390097099654 
-0.007859872799733119 
-0.04806102864467684 
-0.04284814352971193 
-0.02397596907965451 
0.0003024503215419934 
0.002589533430439266 
0.004941107867508088 
-0.02407018490900705 
8.120792132600853e-06 
-0.01587402219640588 
-0.02419722437900801 
-0.008932576738839076 
-0.005392028799659692 
-0.01153423012784524 
-0.004813804368722235 
-0.0006942046400703932 
0.06388940418169876 
0.0117446473259367 
-0.01114556841234986 
-0.04544483434077261 
-0.02580428581134861 
-0.01850572694555501 
-0.06189257096659023 
0.0310601169515738 
-0.09042111937680206 
0.002310172059792847 
0.008081499513582989 
0.01298118816047215 
0.04397638342285975 
0.02045018595532578 
0.03415729745068045 
-0.02789112976136154 
-0.01479160835141883 
-0.01034007296485846 
-0.02648957613797726 
-0.002856597362389201 
-0.004923623786375445 
0.01950442908780892 
0.009365806737259048 
-0.009103057581217456 
-0.0599713567760564 
-0.01857346144483115 
-0.02284542265138509 
0.02376892166103727 
0.01280607845619334 
-0.003581206300755999 
0.01461106236143644 
0.0007018938436504421 
0.03686525855187089 
-0.02039058098396607 
-0.03884760469286744 
-0.007520998259924213 
-0.05097829103521131 
-0.0197836042214245 
-0.02153944494252345 
0.05729775652275129 
0.02454818091606627 
0.05572024212010703 
-0.02057577354955175 
0.004452121090301049 
-0.01994257101770523 
-0.04748698327192695 
-0.006928554684616985 
-0.04785986961940916 
-0.009111286149198585 
0.0160072575034681 
-0.01897010783132815 
-0.03107222880177903 
-0.005204238402070323 
-0.02950757256307179 
-0.002016178763324157 
-0.0004295551610168196 
-0.01018202448653407 
0.02770067776382943 
0.02325157946539468 
-0.01499478893818194 
-0.03891791461674941 
0.008164202160392011 
-0.04039843553897345 
-0.02557263841257873 
0.03816202605640352 
0.05218809859916248 
0.02643547259617971 
0.02989938768499549 
0.0006001340013967301 
0.02384511215992248 
0.002546075920305693 
0.0212999104106989 
0.02857545988644519 
-0.005037155448625034 
0.04665354902728277 
-0.01451288220935336 
0.007759878040421684 
-0.02673798732025097 
0.01419849346645268 
0.0137582387113165 
0.003356722371092582 
-0.003100052773993785 
-0.007947561655422644 
0.03382765589925225 
-0.0381568549305969 
-0.01531367006852224 
0.01764325879265296 
-0.01538999983559258 
0.01349823127529383 
-0.009179580938709221 
-0.09618105037478747 
-0.05450552047543814 
-0.01866926243709401 
0.01991710544927314 
0.0164301176695742 
-0.01657211286073633 
-0.05326133508323759 
-0.0208497375125882 
0.01167955419098325 
0.002365865182051444 
0.007750725901248206 
0.008216254754033415 
-0.002371410905504221 
-0.0136598568631254 
0.01946549412545158 
-0.03656491285514136 
-0.01823651467863174 
-0.009274288627075081 
0.004429699578844355 
0.004027212201492298 
-0.01502589601661875 
-0.01704939739144499 
-0.003862101555564535 
-0.004850571761447 
0.04004708365766922 
0.04123924311976063 
-0.02030234814970414 
-0.01855102186466389 
0.01866388150659996 
-0.02233760264851102 
-0.02198206765545965 
-0.03430293630508662 
0.01522072242690062 
-0.05356828948718655 
-0.01856019952583683 
0.02144815542120608 
-0.008827037193273988 
-0.01026730857941319 
0.007913891905066662 
0.005038097390001479 
0.006873467296328412 
0.000241586116245034 
-0.01704135414178481 
-0.006602653304300229 
0.009814140697553214 
0.03015776403109613 
0.03687128195743195 
-0.01697798785321829 
-0.004771341367677449 
0.002408737344742962 
-0.0216806542441378 
0.06174047287307338 
0.03954996663605388 
0.003114332509681351 
-0.008386524316279165 
-0.02437050855279178 
0.03188052667128691 
-0.015469905499015 
0.00903236614773285 
-0.03365219015101634 
0.03910768952445839 
0.03896820050081128 
-0.0187986587681235 
-0.0118844386605314 
-0.0009329580727247067 
-0.01087390276789105 
-0.04688990706193028 
0.02293335858972166 
-0.01093198129305155 
0.02107382935671275 
0.02319992135935536 
0.0007978790009133345 
-0.03002710593612739 
-0.005213875231085778 
-0.002528050449323133 
0.06334573232038111 
-0.008103808578015063 
0.02220446028041977 
-0.03632779935656424 
-0.01386085118739301 
-0.03232076267460644 
0.04019848573109744 
0.02069720152791196 
0.0002276125842111799 
-0.008441772411924188 
-0.004669473997437527 
0.005551340114417816 
-0.005185599443145898 
-0.0007137967699164822 
-0.005568812918556427 
0.06069096950182831 
0.02694964219633879 
0.003275426134428344 
-0.06525216405423777 
-0.02745710277104016 
-0.01976661820246088 
0 
0 
0 
0.04978582140882475 
0.02760673353483289 
-0.008450243067936439 
-0.003406028831945463 
-0.01286333335129046 
0.0275038684257698 
0.00666006163935504 
-0.007981539763282012 
-0.005266255899376991 
-0.02019020205183028 
-0.01569370292495519 
-0.01300256485945642 
0.02666248296768067 
-0.01102633181090502 
0.01518421502025714 
0.003124136281238766 
0.01823040672350991 
-0.006371071254336014 
-0.0451055652495802 
-0.02736093983784878 
0.007712398089159634 
0.01594844694291781 
0.002041835192138779 
0.03058595306742976 
-0.03975578093061148 
-0.02233125883115075 
-0.007706653483157184 
-0.01116798645580222 
-0.003503534189346034 
-0.002356792965114741 
-0.01105379567241494 
-0.003225094566033729 
-0.005057235064670813 
-0.005780693456627768 
0.02415273917834253 
-0.0425941475238389 
-0.01719484883720082 
0.03038022303098576 
-0.03321674961960059 
-0.04539927004088673 
-0.02928244089170802 
0.0006356087624128272 
0.04369794470675898 
0.01210534103884913 
0.03310976018529522 
0.0136016498508447 
0.01298319461242047 
-0.01416902362442018 
0.02686218473871581 
0.001361169657654455 
0.02557230197698928 
0.02105526208841856 
0.002608690543368638 
0.03653705920307083 
-0.0184343154273597 
-0.008131968213777579 
-0.003531591318694929 
0.03678590138889976 
-0.05311668214719268 
0.04676239855628903 
-0.02249611536964598 
0.003248184423837516 
-0.03029362783449095 
-0.007646894227333528 
0.0007381935768486167 
-0.01628022261819789 
-0.07126994370568648 
-0.03133528405103903 
-0.02228776594513097 
-0.005136758824645911 
-0.002952851925404518 
0.01228846877306684 
0.04442740439443979 
0.01186506103303918 
0.04067074088937294 
-0.001342897618811048 
-0.008429357792506758 
0.01985985071572792 
-0.01883482340456382 
-0.0009931302959738679 
-0.01283777475986463 
0.0233086822152317 
0.02273180093908139 
-0.009104142624084984 
-0.05026520076411424 
-0.0116861011361831 
-0.05263138337380453 
0.03148587995802902 
0.02493879367731834 
0.04061532811225903 
-0.002237349009863142 
0.01349648578078928 
0.003264705160015232 
-0.002351034194547236 
-0.004441174501950342 
0.01776594473912484 
0.03486457295874131 
0.02996966833086692 
-0.01492708276839263 
-0.04138478482938966 
-0.02322624370953021 
-0.01987327406634981 
-0.04750013756691067 
-0.02543568089013186 
0.009484846073167276 
-0.0001735227448613386 
0.00373967138114443 
-0.01130626942757844 
0.03278777910336505 
0.0001711983004786606 
0.02402836839293042 
-0.06650402976906894 
-0.01632884795866402 
-0.0452018599656355 
0.0506480938900026 
0.04128364761811031 
0.03372372437389218 
-0.04724472435276784 
0.002342674222227174 
0.001428952077759107 
0.04323255931234093 
0.03101210014649945 
0.005183459837038275 
-0.0436090011944601 
-0.01918793694357035 
0.005669078152545641 
-0.01866040157580664 
-0.005738935066672282 
-0.006177266424931512 
-0.01036380261572784 
-0.00365653063824877 
-0.007930495375593018 
-0.03779601564000803 
-0.01828536367924268 
-0.02588737563419947 
-0.005968629023355755 
-0.004515989335576397 
0.02143990698357113 
0.02368336162167481 
0.01864802521274395 
0.03037681716291564 
-0.03277768078530575 
-0.00688306457324559 
-0.01247496224335914 
-0.01933393269739533 
0.009032610612660806 
-0.01148202480037154 
-0.02701001670704755 
-0.0006120571350629841 
0.01538571519871208 
0.05417228163600404 
0.03794522084567679 
-0.008878924486039304 
0.01097094704564164 
0.01119952377096578 
0.007728063713174999 
-0.02185737564152136 
-0.01094687831916485 
0.0128372357803541 
-0.02407223138921947 
-0.003913007184810333 
0.002403107251904888 
0.05528621350272002 
0.02622178193183588 
0.02980159439175342 
-0.03793309071479491 
0.0001831103007434529 
-0.05014513459469183 
-0.01888239487176273 
-0.002206547621937414 
-0.0005940175750354698 
0.08416050173987188 
0.05917643954027211 
0.05212497378798795 
-0.02387505609811597 
-0.0005517820365530395 
-0.02785775613317645 
0.004644897533761012 
0.01020580577186112 
-0.01744105603041353 
-0.07694385964265942 
-0.03680859200831441 
-0.005928821847246956 
-0.01671955743587469 
-0.01596247815487103 
0.008364354523655788 
0.004810108961903078 
0.002015145810901062 
-0.002821264448777097 
0.01232939277598118 
0.01141799748038715 
-0.02075174145022146 
0.04909444411409127 
0.03352066700095223 
0.01866413518685024 
-0.01894352740370886 
-0.01093571400752008 
-0.007176706509143684 
-0.007661184767675969 
-0.002085899450840594 
0.002002496873890292 
-0.03425943695246042 
-0.01058466608701199 
-0.02719518295536771 
-0.04355700762689855 
-0.02127012777632021 
-0.009395594223331579 
-0.05404301474999627 
-0.02626290878397899 
-0.03101209932249399 
0.01365666921867358 
0.001286328584299269 
-0.003378727780311741 
0.02517099569318201 
0.01494960489622118 
0.02378428986626947 
-0.01618477590344437 
-0.006617368923304342 
-0.003197689177326164 
0.03949670442056354 
-0.01390296788577627 
0.03491498408588509 
-0.06946468211900286 
-0.03639453874624933 
-0.01902883548724764 
0.02411669913073158 
-0.009662192010045064 
0.05813336754681645 
-0.003246347532532683 
-0.001242164454858906 
-0.001974808873607061 
0.04895855465437334 
0.03589138599293492 
-0.01384325486903778 
-0.03313249922125375 
-0.002044059252643662 
0.008240566414482288 
-0.0725483964771475 
-0.036475015796159 
-0.01858761516966898 
0.0182090990552413 
0.03371781397032227 
-0.02053492107312362 
0.004565232904656336 
-0.0007974082527360252 
-0.01448166511690769 
-0.01337978028506621 
-0.003660882170884799 
0.009391745263591983 
0.02191352739746881 
0.009155034480075515 
0.01175596542653547 
0.0070626075892968 
0.009981312330436348 
-0.02826869427132365 
-0.008523547134722623 
-0.0233824001804755 
0.009840829272437592 
-0.03197951100511084 
-0.004257906475253501 
-0.02054997613709286 
0.02170251346996479 
0.02277783811699691 
0.002130670288776283 
-0.008058350965913745 
0.007618709572013502 
-0.02070680254171857 
-0.02494026106365411 
-0.00432944650224724 
-0.03662569756242159 
-0.006385549855092114 
0.009212224653513706 
-0.01388131953872847 
0.01431321648042279 
0.002529800009640013 
0.03066752239300888 
0.004703996018025594 
-0.03018866592743865 
0.03133135592678463 
-0.04668770796293199 
-0.02342285815466199 
-0.01161400721039584 
-0.02094581428128329 
0.01390857337501868 
-0.04006266577961538 
-0.01777003689219424 
-0.009703665838445119 
-0.007366854959238731 
-0.04686049995383809 
-0.01243375792185752 
-0.0169105436629199 
0.05086637192677453 
0.04345034425824201 
-0.01715685173946577 
-0.06777293294631263 
-0.03086649675398697 
-0.03237512712927971 
0.03077891029199106 
-0.05583797934653958 
0.02521221720924058 
0.04192342505552333 
0.05128213812730872 
-0.01686562358369898 
-0.06735103713105982 
-0.0374945150689304 
-0.0006228713909387185 
0.01366954853737313 
-0.0003173726161877505 
0.02201037922476291 
0.006564982422121871 
-0.005103328118775163 
0.02414299159473382 
-0.01723105837589085 
-0.004112711583297215 
-0.0273646805205765 
-0.01067336473017995 
0.006489636366543243 
0.0001409487932633312 
0.06682121375438446 
0.02183053223398131 
0.060946046319226 
-0.006358688734944005 
-0.0008124310451811585 
0.01131297419882077 
-0.03073097779206624 
-0.003596646831126352 
-0.01340120045135347 
0.04252537283750731 
0.03069834898783329 
0.03711348135618515 
-0.009667506363350377 
0.003809733548778962 
-0.02311714214053131 
-0.04450948297197816 
-0.01341396638207933 
-0.06678414295086238 
-0.04698162942712476 
-0.02296646827293345 
-0.02246441113238501 
-0.08360287581194444 
-0.03748773714193336 
-0.05688448008902082 
-0.0215295332629381 
-0.01374088217746137 
-0.03100133228569057 
-0.1031940495144369 
-0.06093043868410325 
-0.008197060776862877 
0.01060242202349816 
0.01288945687416886 
-0.005990491220740734 
0.01362075474203932 
0.02012788072035815 
-0.03014511533851663 
-0.02049971987284432 
0.01314768120231462 
-0.02992494718855661 
0.006764620802324483 
0.004224009230375741 
0.007249375442405266 
-0.01558059300198633 
-0.004773209834281845 
-0.01291694007067725 
0.01129637122557644 
-0.004230567296934046 
0.005747172011141136 
-0.05033324994889077 
-0.02032134008777216 
0.004423559131981453 
-0.06743121060018616 
-0.004317532458277022 
-0.062782290483193 
0.02275626918229802 
-0.01575817465865219 
0.06715649375895504 
-0.07177912888400793 
-0.03309031513380616 
-0.008623345186716591 
-0.0524947386584611 
-0.007037204526172867 
-0.037381926556454 
0.0216256527489724 
0.01794235533216038 
0.004554638666881071 
0.006516717770442227 
0.02285228340746417 
-0.0226477935782034 
-0.01300240231399509 
-0.008144515841459787 
0.004898014116935456 
0.05548948158488023 
0.06325981230050326 
-0.03335207807873657 
0 
0 
0 
-0.02213128446034956 
-0.007476647608908865 
-0.0196963336019533 
0.02742082686998359 
-0.01541959241244989 
0.0469396703129871 
-0.01006216864253108 
0.001491066719332526 
-0.01155505496155293 
0.02521645654944408 
0.02085971581362056 
-0.01638280483142534 
0.01075846837480769 
0.006644099214536238 
-0.01685637094812307 
-0.03684720202491896 
-0.01062901561599192 
-0.01349007579016407 
0.04431041812365572 
0.0171817368252266 
0.007831263032776214 
0.04376286773905735 
0.03805919390420468 
0.009872703919545235 
-0.00655064102357098 
0.0008916076282775545 
0.005440920926420478 
0.0897710777188826 
0.05041301153715738 
-0.007311198223967415 
-0.005890870345511786 
0.0107618416289792 
-0.01422270298744082 
0.06126765996013995 
0.04474247370515979 
-0.03034129871778589 
-0.03482371008894052 
-0.01798591766525393 
-0.00267299133105895 
-0.02463574209368313 
0.002979957409536617 
-0.002409476740352356 
-0.01094666897497049 
-0.0084681172299151 
-0.001777181944368162 
-0.01190003048230345 
-0.009479310934844715 
-0.02454019724690307 
-0.0173842440501148 
-0.02118047182097181 
0.007296484445530684 
0.00635131867685245 
0.01260522817064608 
-0.02801991433114073 
-0.03242306621001287 
-0.01168818488040066 
0.006527134588129415 
0.008767311091514334 
-0.01545385487488153 
0.002195205788823209 
0.005930944697931994 
-0.01981547636057263 
0.0518976445732409 
0.006224991459715634 
0.03980598379300788 
-0.008295281682764022 
-0.02626440012741511 
0.007411378608652797 
-0.03152888282873455 
-0.02729844583012537 
-0.009579525425720957 
-0.004327971845986915 
0.01779027967560391 
0.02203639098292304 
-0.01686581067608244 
0.007939332440613416 
0.03285312083866359 
-0.04207554035454807 
0.03139822980708334 
0.01063662001209242 
0.02632360707252573 
-0.005247972957895784 
0.006571310512923189 
-0.02176082979891179 
-0.04253433035808935 
-0.01532945726349656 
-0.005711033864399365 
-0.002499714640450743 
0.003013502567788639 
-0.001030618576004768 
-0.09151860352954107 
-0.03783764314533908 
-0.02216204872973202 
-0.01190508468575601 
-0.01520598313166717 
-0.01169247543518984 
-0.05243440590586437 
-0.0398756837257459 
-0.003439861761786555 
0.03940227364140125 
0.03604309574422582 
0.02076189432737337 
-0.07709001148960798 
-0.03928108617243666 
-0.0003878252624960192 
-0.02570710377552531 
-0.008613831406123609 
0.003340783090747068 
-0.1071764086660259 
-0.0558015965220677 
-0.04895034431693224 
0.00507347342500639 
0.0226673800887678 
0.004782397409875619 
-0.01331458875087719 
-0.002385570882226949 
-0.01557513730009505 
-0.01002086722565245 
0.01223686498985217 
-0.01341901996984846 
-0.03650200757482881 
0.01514672331088422 
-0.009142982940227459 
0.006838497272925467 
0.02078127541656877 
-0.00209901642167704 
0.02770150682138981 
0.01829351150698352 
-0.0001910741242862247 
0.03456424228350666 
0.01894873569744608 
-0.004127762563626811 
0.02729407046999785 
0.0008355789066042656 
-0.007987887930868373 
0.04741543015241053 
0.02167884168438826 
0.02559826980041745 
-0.04761810475467959 
-0.02604441137205811 
-0.005978185102092553 
0.02641603098496125 
0.0002775496461425535 
0.0242748435347524 
-0.02279187225102233 
-0.01086118437903891 
-0.02092692683807287 
-0.02666275824655484 
-0.0001343119132716873 
-0.0242858118515702 
0.01488354318451423 
0.01707520133120829 
-0.0164233931059139 
0.003138942017180618 
0.01352956644998953 
0.01006386867716192 
0.05699022996846939 
0.02521182478820317 
0.03029846472149905 
-0.01049366749553246 
-0.01011638697279731 
0.008386811701907589 
0.06158979300341502 
0.01551569323588627 
0.01269915890236881 
-0.1046083798852441 
-0.03905395536445252 
-0.03452626675644709 
0.02057210138526504 
0.01861934441800113 
0.002766304945732446 
-0.05303063072595709 
-0.01468879220769261 
-0.02042607867056651 
-0.0135699264874269 
-0.0341458692296281 
0.01939538401550547 
0.001481759377633341 
0.01519438187086342 
0.006147895455521794 
-0.06934294093279794 
-0.03226860354788069 
-0.01052256975408173 
0.02647523831744987 
0.01542892460088727 
0.00796400113178453 
0.0308357775588013 
-0.001257200127133305 
0.03175993107044885 
-0.01652747883838461 
0.001310434889531547 
0.01873625096484265 
0.008532201977958493 
0.007015859740805715 
0.02425535983936318 
0.006772273097146222 
0.01343793852717707 
0.01507545824999026 
-0.01483232912492513 
0.00224018411875339 
-0.02475695275836599 
0.0653458840425428 
0.03471158359580793 
0.02268436067849068 
-0.007881024005932252 
0.004891577548988058 
-0.02683465054081149 
0.005916050111543439 
0.01690495567475941 
-0.0116418806781697 
0.0377942181842438 
0.02020537269067091 
0.000413245271680044 
-0.04117318989506621 
-0.0317968640105 
0.02270791868012663 
0.001175535270933814 
-0.008254654516411497 
0.02251849437796009 
0.01938157931251092 
0.005487665040776347 
0.01317852792884962 
0.02875527639024194 
0.02889042598838912 
-0.003247519330069175 
-0.001228242031486981 
0.01072184526902497 
-0.0238049170675863 
0.01705079827433285 
0.0320357937551748 
-0.02811538239876608 
-0.08617839162345611 
-0.04485950771560027 
-0.0191963497707872 
-0.0375675678812817 
-0.01007337854601168 
4.295275855689611e-05 
-0.03542249602431046 
-0.002682935066586244 
0.004917747809642673 
0.004541041506652865 
-0.003420968591791672 
0.000527888545996557 
0.03736099497615909 
0.0233743523530377 
-0.008180519001988261 
-0.03952332744375921 
-0.01636477798897955 
0.003075885680714343 
0.04939456718963876 
0.04400243791652823 
-0.002297954061471104 
-0.0239993738709255 
-0.02162307445900365 
-0.009608639830289251 
-0.06295588557984839 
-0.01892603475123726 
-0.03606642284945982 
-0.002479520462657933 
0.01175706521389496 
0.001503439861972561 
0.0281304282514253 
0.02430728500646873 
-0.004710833735599233 
-0.03559858417603091 
-0.01577006229402686 
-0.01030012901832724 
-0.0535101849591496 
-0.01708888172792993 
-0.03364063578805641 
-0.02947357864661245 
0.003255653861469204 
-0.01781908905009008 
0.04202936911859319 
0.01713611598491042 
0.02061805286641762 
0.01677609202366185 
0.03438091546387185 
-0.04039316377113913 
-0.007716016083355598 
0.0201757429106559 
-0.01927175756568669 
-0.009213669327436712 
0.01267380742352364 
-0.02051690134086795 
0.03359700092407478 
0.0212282271100782 
-0.001136180437442144 
-0.004275779806560413 
0.00869490401682519 
-0.01710517698065308 
0.03867311157161318 
0.03168940792298916 
0.007184014127635496 
-0.02270243048779432 
-0.008652965708629858 
-0.01321086562835115 
0.07084793552569782 
0.03248289477333047 
0.04170427362554233 
-0.06477060587629946 
-0.02101052720502209 
-0.03222695037649159 
0.02256965474879146 
0.005457405037140659 
-0.002456278469726777 
-0.04905577683896169 
-0.02251677640967852 
-0.0245864064417698 
0.01048142446717757 
0.007161415715744539 
-0.01163498465991355 
0.03088900238716666 
0.01279528779786144 
0.006026594273417086 
-0.05809041331421885 
-0.002595242794119517 
-0.01989235372391523 
-0.01191255284104502 
-0.003732416537940544 
-0.007043504496334762 
0.0140136070438927 
0.02597562047421621 
-0.02188815262960957 
-0.01911485895204627 
-0.003514636797056201 
0.008224743416826356 
0.003840756089772379 
-0.006725919420521699 
0.002300916110961087 
0.05945751583383654 
0.01942563008512817 
0.04024082093161242 
0.01453601271073327 
0.007758855551823142 
0.01744553432612843 
-0.06426613072202152 
-0.02096129770716044 
-0.03855111555825597 
0.002574704918906445 
0.0130529356379124 
-0.002046358147071358 
-0.02045056577804033 
0.008711907837479641 
-0.02449173916806145 
0.04910941042491368 
-0.002903137394111373 
0.008738524686176393 
0.001383052200550945 
-0.01723816433485388 
0.03023975865355393 
-0.04464883502551914 
-0.005365020303889198 
-0.003112703672112496 
-0.02942478195536266 
-0.01508205174490511 
-0.003565156278792289 
-0.04550956015442459 
-0.009277794965867293 
0.002107188916773937 
0.05393767650374946 
0.02472662135971094 
-0.002663099051798205 
-0.07025033591792317 
-0.04349278962651183 
0.01183599535482164 
-0.003476768533646741 
0.00295498851047143 
-0.01146851459384484 
0.0679158813246447 
0.05357526883594052 
0.01686477413462336 
-0.02613652597718852 
-0.02810825539328807 
-0.00703568932715814 
0.01753267065692588 
0.01529360825838449 
-0.001656217258873977 
-0.006761773643632084 
-0.007248670403195865 
-0.003165424792835102 
-0.03515184129001687 
-0.02001636228634557 
0.01118358033213475 
0.03160395943599856 
0.0341204006474829 
-0.009695090610557244 
0.004258377994139251 
0.001776525709595272 
-1.153902208143008e-05 
-0.04464669630467794 
-0.01595002039434881 
-0.04123916182752254 
-0.02605659695473865 
-0.01784545641727923 
0.02466614564620944 
0.009778793253328529 
-0.0269317046002265 
0.02004275254590688 
-0.03423641455495231 
0.02399358114318213 
-0.04393480092828938 
0.009053033996728911 
0.002602516016985389 
-0.02166981038577133 
-0.04162020104582839 
-0.01656850232335117 
-0.01060847621584457 
0.04344844746225773 
0.01317033931154805 
0.02903100900544401 
0.01119826463061996 
0.02891842395947331 
-0.04119482495945084 
0.04784766111023184 
0.02363569871470084 
0.008556314002086333 
-0.03017627037297688 
0.003447497821105238 
-0.0399343267092264 
-0.001343585956391285 
0.002460506147487977 
0.01043988306393407 
-0.01454128128093859 
-0.008327803211215791 
0.01122410082259178 
-0.01672500310824764 
0.00827385006625939 
-0.04891454767418926 
0.05277594041385776 
0.0192363826245757 
0.02672335465654599 
0.0008512159437667026 
0.008010388289049746 
0.004739101827865064 
0.03880799919075124 
0.02861903799916891 
0.01389742528509249 
-0.06211266945022872 
-0.009352708211391721 
-0.04040739646803004 
0.07405947223889468 
0.03834805247421039 
0.03580071537757613 
0.006397724405354625 
0.006837990238689008 
0.01571590446975366 
-0.005787551117739425 
0.005806131639173604 
-0.02994558981796428 
-0.0002677308835570604 
0.0041893616597074 
-0.01254428924420255 
-0.009000918149937693 
0.0001540406045814704 
-0.001542144015835986 
0.01160596918707214 
0.02074277307701024 
-0.03466722780446101 
0.006258797530725009 
-0.0035517582259927 
0.000898459601504843 
-0.05143347813546925 
0.006431412777793747 
-0.03981829634518608 
-0.08056222464983061 
-0.01159755036640009 
0.03236369574343329 
0.0009501430748435446 
-0.02682459486665853 
-0.002642279759398445 
-0.01620184331453032 
-0.008991858314000513 
-0.0003346604142112389 
0.08797254683280087 
0.04363294031189748 
0.01376514062067471 
-0.02201876265751654 
-0.01300298346830647 
-0.008651102056992021 
0.03856319677133255 
0.03373952178468666 
-0.01531970155213335 
-0.005310943199504315 
0.01095145137031826 
-0.03137787551230244 
-0.03536799063077281 
-0.003613779999884811 
0.00173618618521964 
-0.01661332058494059 
-0.02720168430590022 
-0.001333438856216492 
0.08259581077749117 
0.04099652367046134 
0.02748827406512023 
-0.04154447526744249 
-0.01605747938385562 
-0.01473266152900692 
0.02052667569244745 
-0.01455474697493053 
0.03160606451481505 
-0.01574276527876738 
0.01119023607802111 
-0.0479451593359521 
-0.02220279879878778 
-0.01571888167157806 
0.004944408719243666 
-0.01072760198720058 
0.001842145769084486 
-0.02378378138270717 
-0.01967860659897501 
-0.006925307875155392 
-0.04362596754716931 
-0.03262720215350486 
-0.03020569679325196 
0.03974357101654712 
0.02233699041402908 
0.01874492422558333 
-0.002026784818948659 
0.03133476940172416 
0.02759948974702164 
0.004075766280767551 
-0.008809448677457921 
-0.02636840647439281 
0.03860867813096867 
-0.02702264127066543 
-0.007579299329378656 
-0.02930215447591141 
0.005160706786669333 
-0.01564436290973907 
0.02671118849913851 
-0.009180512090899323 
0.006008406073111839 
-0.04221605580994055 
-0.01816165544722502 
-0.004196239432598648 
-0.007391473210991869 
-0.007307115991531026 
-0.01430501809023169 
-0.008109865081138449 
-0.0234045844838944 
-0.001086857518216814 
-0.01621287066738064 
0.01936983378404051 
0.02117961007500024 
0.01639437723997855 
0.03780544013104251 
0.01716452386700803 
0.001121598776574183 
0.003958701571284817 
0.02588196476498172 
-0.004399477271322162 
-0.04455097196911845 
-0.007040635214983743 
-0.01002052895241191 
-0.01870744833334371 
-0.01394645658174097 
-0.003015923365488065 
-0.04906409762750911 
-0.009949400845987472 
-0.05372387759714069 
0.005818115737363462 
-0.007780646093835571 
-0.007022489023833197 
0.005211771195679119 
0.0006758886186284488 
0.009628917127095623 
0.006855465953119932 
0.004932208357527838 
-0.02177024765256834 
0.06289404246720269 
0.03985330557621649 
0.006092071417343439 
0.04593673314854534 
0.01452037033177722 
0.03675355999279961 
-0.0007521449508471179 
0.02650126551383203 
-0.01562349745299224 
-0.02441261487109898 
-0.007622744419968472 
-0.005016690290174556 
-0.03818037735106002 
-0.01823192217138517 
-0.006091911123565736 
0.02120284301036382 
0.01876103294967229 
-0.01291405707163902 
0.0008710097976305299 
0.005151761851740788 
-0.02099177819569526 
0.009505057698420262 
0.0108146061286197 
-0.002458542933588147 
0.00170300399313353 
0.01098480931559653 
0.009617465062823512 
-0.03645791368249232 
-0.01827532728418115 
-0.01712894374000758 
-0.02297303503930175 
0.004834284762803832 
-0.006652463706493632 
0.03918631753805991 
-0.02051357958238686 
0.0586770183233997 
0.0197188724653484 
0.0196872977557267 
0.01800009944624982 
-0.05981138138812532 
-0.03218019180330164 
-0.0008906568185083859 
-0.03280091841480955 
-0.05541475035737141 
0.02185002786819492 
0.003361112315670723 
-0.005656966281911828 
-0.05133854075803829 
0.03014322668084305 
0.01037726660860515 
0.01182051203455505 
-0.005581934235402357 
-0.0278236609504446 
0.01863247776572812 
-0.02389039322097119 
-0.008114238764218443 
-0.001684969344944795 
0.06105028837470762 
0.03379966974073143 
0.03528383508363991 
-0.02259990192309338 
0.001490671302708777 
-0.01009438840859182 
-0.04179519789710757 
-0.0199109501713561 
-0.009888323396119095 
0.002271085632795279 
-0.009210175628692223 
-0.008619815642447895 
-0.02231038536831997 
-0.01661233980885197 
0.02021998009714859 
0.01297219458903254 
0.001874140658755873 
0.03301196878995898 
-0.01179157204584611 
0.003866524684576843 
-0.05307534231678951 
0.05735806862454645 
0.04136185743285592 
0.02679790563309408 
-0.0589876801304316 
0.01467343044250747 
-0.04961097299291184 
-0.003296523864151725 
-0.0002165913872149486 
0.005980025234962403 
-0.01546029287055523 
-0.0004073138221668026 
0.006782888155441289 
-0.02366263350588517 
0.01601490578411028 
-0.06015140170869205 
-0.05344828448125721 
-0.01998676310666809 
-0.01049116182042759 
-0.004313427563790351 
-0.01630823716565361 
0.03787388136190626 
-0.03102539683254329 
-0.01834408727988466 
-5.78277663056547e-05 
0.01611378692034897 
0.006418272596418528 
0.03698604728978704 
0.00950037551230252 
0.0259392722719264 
0.02876364409568548 
-0.02040925608018945 
0.00460120579862668 
-0.005801612150335497 
-0.01892117104710348 
-0.0001954069209445843 
-0.02451559803052655 
-0.03372923848112419 
-0.02249665079268242 
-0.03227971422556047 
-0.02933297759546194 
-0.01202240671440145 
0.005858153178750138 
-0.008812208988963104 
-0.01944675812708118 
0.02265410337672016 
0.004927847691645702 
0.01823819943795909 
-0.008524192257130477 
0.03020144563812443 
0.01529763221715569 
0.04485592929380808 
-0.0288051609073771 
-0.00572535724086388 
-0.01457704881991039 
-0.01565489474079156 
0.006296404221014945 
-0.02707926653313021 
0.009458600699425305 
0.02842553695045088 
-0.007257027354559666 
0.03828489698581371 
0.02986898071845807 
0.00388890192060303 
-0.03293570338513831 
-0.008969034709434996 
-0.001558116033756386 
0.01784133514323297 
0.02678614684736426 
0.00616056172325075 
-0.007036885974471115 
-0.00632196979226821 
-0.02845996189141018 
-0.02768194075146995 
-0.008610559856710092 
0.004734602731299353 
-0.03428727297060568 
-0.02862631745466892 
0.03114431625959247 
-0.08432329313817341 
-0.05286071811664957 
-0.01449069786268552 
-0.02971593710017247 
-0.009332797074782132 
0.006389586709408635 
-0.0370845514709761 
-0.01661090366979688 
-0.01882691999611855 
-0.04205753398390986 
-0.02187315703046175 
-0.01040783772141497 
-0.08279178334806588 
-0.02926013597759066 
-0.03395687528525071 
-0.05181155604300983 
-0.02318818526962892 
-0.05043589985190655 
0.0168124841096642 
0.01615923093205529 
0.002718617856069142 
-0.01618098096446758 
-0.02019028889493821 
-0.004013619957243545 
-0.0009996250697206818 
-0.0005298122486471695 
0.0004861353287937051 
-0.01499800797376756 
-0.0139950254971028 
0.01690690479624269 
-0.0113813648283287 
0.01902140565088219 
-0.01239937581694634 
0.0371575543201526 
0.009300564192438169 
0.03767982474236184 
-0.02339205616958306 
-0.01236405367206565 
-0.004211763901861559 
-0.007269330912106796 
-0.003848057478018991 
0.01195820115802665 
-0.0004058798537744758 
0.01159971751208956 
-0.02269929931932521 
-0.08661784940418314 
-0.0280956154433263 
-0.01625047691579428 
-0.06182783443279333 
-0.01110761453915901 
-0.05594356793689408 
-0.06785023817880964 
-0.01011452358154818 
-0.0269274272491342 
0.05420726546738239 
0.03684155603344692 
-0.01336229140700399 
-0.02690533074078402 
0.01593801852910462 
0.005746517929189572 
-0.01595179215750854 
-0.01071196658049971 
0.01658221434947349 
-0.03986260478785839 
-0.02132898600319596 
-0.02920644031206067 
-0.05109952287007483 
-0.02733125111063685 
-0.02643352345958075 
-0.009128077662072536 
-0.007673542334690118 
0.01714045545092147 
0.009013911444063724 
0.006775926128242933 
-0.01886999174513143 
-0.05963579799953852 
-0.03080726245548267 
-0.01102895241906416 
0.01238109433374177 
0.02975176190179618 
-0.02969542918592859 
-0.05115080145257521 
-0.03044882241136558 
-0.008752967675185968 
-0.05262517887887337 
-0.01439046056938817 
-0.007512325816855703 
0.1030317771542491 
0.04078234249845268 
0.06303994012730749 
-0.004999691004802608 
0.0120251923270455 
-0.02358695504125372 
-0.03209049920573254 
-0.01082845155912101 
-0.0010567032905725 
0.003255962105302471 
-0.00241054484368084 
0.04073475885935327 
0.02022714726690308 
-0.008158081324867741 
0.04832187941528779 
-0.08877191896544948 
-0.03424560457034628 
-0.03022176340540698 
-0.004602433671526745 
0.003567079359105634 
-0.0061969412646349 
-0.06432577668462676 
-0.01535905768981697 
-0.01822620550283025 
-0.05507548270435605 
-0.0172742190702421 
-0.01639746768057945 
-0.0291213792269988 
-0.01905065300543339 
-0.009752823358927066 
-0.02878802091160719 
0.0106059307982506 
-0.05584437867567117 
-0.01485821622009929 
-0.01155101736866894 
0.004182291285763423 
-0.01826968792730459 
0.01826324121284104 
-0.02058888127067434 
0.03751701360323895 
-0.02287960479392107 
0.04491357582884421 
-0.04634399375806412 
-0.02202233622700167 
-0.01908327198501915 
0.02170999340222462 
0.01375307921096378 
0.02291739334480584 
-0.01303941258589133 
-0.00863986124455041 
0.01345321916139916 
0.01137511211372149 
0.006241251685326727 
0.01453157606135429 
0.04011707228611609 
0.03093700504724109 
0.01432446762730503 
0.01305710280830749 
0.00809980642047556 
-0.008028481340541781 
-0.008561313386288466 
0.003249362910377099 
0.003968271876594568 
-0.05955912656337512 
-0.01822401617134252 
-0.006301239432338385 
0.01716424957879231 
0.01921368941987658 
0.003828775697197504 
0.02747238824978425 
0.005461965267006224 
-0.001188925662984943 
0.008494209097679414 
-0.003971174471968418 
-0.0054129766755838 
-0.1053147070136091 
-0.04661701899989482 
-0.0344551933965485 
0.02831610635088553 
0.03057862110240287 
-0.008651894491047432 
-0.03053345998651873 
-0.01091066799146454 
-0.01023460940273529 
-0.04265516908885694 
-0.007083381759450823 
-0.03463071943568239 
0.008422091361076793 
0.02726861875033179 
0.02129450651866268 
0.05493780553013269 
-0.00288341377187482 
0.06827300207045627 
-0.01267606957003128 
0.01598028368576613 
-0.03954814954547508 
-0.09029246271083341 
-0.01575895033081911 
-0.0310952324563409 
0.1005283647621436 
0.06114800314364432 
0.01169700685602822 
0 
0 
0 
0.01551217242715066 
0.0139252869859568 
0.007911128326436933 
-0.04916254361471193 
-0.0236408253505253 
-0.02596001015609114 
-0.07504895224277018 
-0.005390673350538314 
-0.09205400373134817 
-0.004744559950442129 
0.005580835356963991 
0.009182518685186859 
-0.04242451168184825 
0.03047195206388017 
-0.07660192361087409 
0.04024902209591905 
-0.003842704587493989 
0.04414693340009549 
-0.04686722162054927 
-0.009138768235295698 
-0.03090374070184237 
0.1022593610859999 
0.05365704291933076 
0.03967072093468079 
-0.01433151994469386 
-0.009033166942546434 
0.01382963883484685 
0.1068611823720965 
0.02135750157786895 
0.06342941815056087 
-0.01682178962253928 
0.01022471001321519 
-0.03608812503951542 
-0.01505871678610194 
-0.004372599825286788 
-0.02508182920870896 
0.01299667489310953 
0.01559011197098821 
0.002860337132936389 
0.01521787599659195 
0.00711557410214287 
0.005153507811646369 
-0.02156691365404732 
-0.01408883168096705 
0.03114488347756327 
-0.009992075055356436 
-0.02215845043361368 
0.03566105933260846 
0.06697361756404495 
0.004624538913762543 
0.02105690669423863 
0.02697862301028674 
0.03418809965144516 
0.01902839882230767 
-0.02902639701891768 
0.00342174368602432 
-0.006453189327891656 
0.01392570162276781 
0.002462380976823266 
0.01301686487587606 
-0.0258602345794963 
0.0002274180872183358 
-0.01186184228566944 
-0.05752699300608118 
-0.03263352533342049 
0.003412932585174208 
0.001556793134453435 
0.0005610325295712137 
0.01952471678589921 
-0.0004871528892348748 
-0.007281854317080371 
0.01826051858947848 
-0.02362200363175343 
0.01782260407402924 
-0.004656567172370142 
-0.02502503641481195 
-0.01238929936263007 
-0.02031564115703418 
-0.0105144561772055 
-0.01250786671924579 
-0.006578199581851235 
-0.004790533007355577 
-0.02311272817552461 
0.02147937975915162 
0.004494464693392113 
0.01114572750524565 
-0.03356960019050802 
-0.0171439718100556 
-0.003161812224626246 
-0.03059704096096405 
0.01540557833741464 
0.0255748590977605 
0.02580016588721429 
-0.02307791795867271 
-0.006359535491480679 
-0.006312142861988819 
-0.006297462335267222 
-0.01991297100138848 
-0.008368852516387358 
0.05717991559281996 
0.04291763862442816 
-0.007391492818803174 
0.01344069672841192 
0.001220132775235711 
-0.006739009102318516 
-0.02524445291815324 
0.003319695168428808 
-0.02792189767915578 
-0.002504808349596585 
-0.00124394234656293 
-0.0008880039664412371 
0.0581536559745021 
0.02905833276171577 
0.03402490245835659 
-0.04312523468240145 
-0.04875428934020977 
0.02503211856410265 
-0.02265004364538164 
-0.006128908221574884 
0.01945889947905525 
-0.002470265281939586 
0.03146054565353197 
0.009640932953563523 
-0.07208687646439624 
-0.01348547815729468 
0.005304286608806562 
-0.008652364070353909 
-0.01209293609256362 
0.03646949550606635 
-0.05141936984180669 
-0.02151181204461772 
-0.023610199234631 
-0.04116711511159743 
-0.03541374499529771 
0.01232227710053401 
-0.06571395775146381 
-0.0240488790350812 
-0.04454329586266879 
-0.02317525912927888 
-0.01135452453884037 
0.002815074038082161 
0.02084710997475225 
0.01456914725951232 
0.007758906176782929 
0.003951083226407061 
-0.002166765025345327 
0.0151979433041653 
0.04322901199739758 
0.02815522125959648 
0.02459159507967176 
0.05085676161072574 
0.03554361442914942 
0.02669605497671892 
0.03465279830597646 
0.02832540783738566 
-0.01472068563515244 
0.01540077333799546 
0.01499263665429142 
-0.01731310563852312 
-0.02009031482302626 
0.002809931882424863 
-0.03163958523409992 
0.02605924973874674 
0.01231106105562566 
-0.03545195635625309 
-0.01442942652459896 
0.008890680370304226 
-0.02669152125837042 
0.05225305554159748 
0.01747646054178131 
0.03853753786581376 
-0.05288895751654948 
0.02867135022920095 
-0.00402592007631261 
0.01722369935423576 
0.009767539677636154 
0.001435866375132847 
0.01805927093073897 
-0.001609985395986422 
0.03880184717163632 
0.02243352967583979 
0.02433102348203121 
-0.03681010467452844 
0.04343269713316789 
0.02669525496435094 
-0.03460182818081184 
0.04684367196734301 
0.02306642359848837 
0.005975163814591002 
0.03189559487497035 
0.03068956489441787 
0.001922863951827057 
0.01993869202122785 
0.0125205427561756 
-0.001913129484020609 
-0.04188205957654641 
-0.02278955042504584 
-0.01795160497083726 
-0.02846721688626899 
0.003429266280023803 
-0.03801239511477324 
-0.06815634420093065 
-0.02564372268981165 
-0.0421072809582005 
-0.0129371665103485 
0.007901472536929997 
-0.04140640372332059 
0.04315057215727095 
0.04667381495465205 
0.0004486520468668621 
-0.05071257707222255 
-0.00105393149775265 
-0.03004623383872532 
-0.046212978414077 
-0.02143894466238131 
-0.009644627980702532 
0.04105687791916209 
0.03072157913873229 
-0.001989811176808383 
-0.003110259840818436 
-0.02219128999841626 
0.04065014592862581 
-0.03615176003883493 
-0.0009091873002881111 
-0.02841234248085026 
0.02142194657215997 
0.02156757379896227 
-0.01109977101762643 
-0.01129818618372758 
0.02263447965096212 
-0.02298435852176552 
0.01733614646977424 
0.06515981208960815 
0.02052436443150269 
-0.004508618479368313 
-0.0002432395617494503 
-0.003012379245212454 
0.02133028764098106 
0.02431026002173118 
-0.02291480937867605 
-0.04279177423039398 
0.001590855790784151 
-0.05452639309002144 
-0.01688976967501417 
-0.00328174140655871 
0.003138053753720221 
0.01509864630855094 
0.02319860312779922 
-0.001953965030909523 
-0.04393873638020915 
-0.02846800629063898 
-0.003760409640499963 
-0.001130723890825239 
-0.01345945596982718 
0.02408128819889222 
-0.02194965053934989 
0.00744115257660678 
-0.05627477511988733 
0.03309366057546865 
0.0364899785679469 
0.02686619652566018 
-0.02081047698467741 
-0.005179886942145742 
0.01877854949400099 
-0.04293432223145235 
-0.02618687345941259 
-0.04230967381327527 
0.009045347669932277 
-0.007604794085727438 
-0.0004829361184073961 
-0.05458746003378599 
-0.01318092561525074 
-0.06190311035649487 
0.06665866963156139 
0.06353168299675724 
-0.009258246967258755 
0.0436938276094848 
0.02514010498222997 
0.0173221899420018 
-0.03655995591421689 
0.007344025101269302 
-0.02027512177784662 
0.05442461682568987 
0.03275566257155124 
0.03061753928528083 
0.03394838561594647 
0.004165661377227742 
-0.0001849655057706935 
-0.009164036448818328 
-0.06027136602391825 
0.02176941063404584 
-0.0153536951917527 
0.02611429316907524 
-0.04416872348090019 
0.01607311692485388 
0.02977498592200218 
-0.04440426300875721 
0.007955917906062857 
0.01022676859228821 
-0.0538457780437542 
0.01648677892782246 
0.01937704729456326 
-0.008260198456721471 
0.01511251969075931 
0.0007583221928793476 
0.003622666585343706 
-0.05417170519866737 
-0.02733295883929791 
-0.008772437085307561 
0.04476868906487495 
0.006247851950389893 
0.0393096572604115 
-0.05814496216922228 
-0.01916785953184518 
-0.02924124693607365 
-0.03245248448223333 
-0.04060116817828507 
-0.0009215280218900927 
-0.06613147183889888 
-0.02567443835616535 
-0.01022674187559983 
0.04387785851315436 
-0.004082262745660806 
0.01204252742789196 
-0.03677557740581436 
-0.01089007429874821 
-0.02122365618238985 
0.01213117529860885 
0.007198549599260726 
-0.006246581545265278 
0.06160680006490314 
0.03149195982778755 
-0.001830242027501329 
-0.0299378685109607 
0.003321926353105532 
-0.02028610605811564 
-0.03946026084988419 
-0.01889797781461369 
0.009198988519280103 
-0.08156674611309057 
-0.03427041556061507 
-0.02741755713233112 
0.02072764925244064 
0.01614110813447017 
0.002900406560385853 
0.0014147042381287 
0.02607303330078682 
-0.02328912819249725 
-0.006773405853964264 
-0.006169658411464649 
0.01644916203348835 
0.03703730417357689 
0.02729062336761044 
-0.008377796881211048 
-0.03491829142016428 
-0.009076392276471373 
-0.01445423773432368 
0.01350800596788548 
0.01435377345856502 
-0.01614276780964265 
-0.03491524115581998 
0.01328517882049591 
-0.04196744796288534 
0.06208728477840387 
0.05540146902130381 
-0.007820654386805509 
0.05332357327473757 
0.03502165687073856 
0.001899221151461755 
0.03531224172977737 
-0.02220134378775251 
0.03961534303625247 
-0.0003422852576836209 
0.0019250521816031 
-0.009954287051990855 
-0.07084034374385817 
-0.02707742529253638 
-0.01717223002366864 
-0.04395659690512164 
-0.008405458617811097 
-0.03722456197433409 
-0.008504719226584174 
-0.01110707486842607 
-0.003186696828740088 
0.06658879237368218 
0.01699613631669762 
0.02342654787590445 
0.0009848504225881134 
-0.001458594955968724 
0.01417837277834731 
0.05920046939679929 
0.01308194058883824 
0.04684492167104721 
0.004130844748193234 
-0.006117989611827725 
-0.001961263500688768 
-0.0009584531544503432 
-0.0005079906820706291 
0.0004661126991365623 
-0.07159160258362174 
-0.03658995973438878 
-0.008339748207412187 
0.001540589754137965 
-0.03959473171962637 
0.02971542718506261 
0.01319939053015407 
0.003385304334796797 
0.02971338047111035 
0.005506263977228271 
0.003089746588353525 
0.01061303242380386 
-0.06886050187549471 
-0.03384571248649108 
0.009849299251725124 
-0.1016544547808139 
-0.06410122055636831 
-0.00505145766135033 
0.07057225820858513 
0.01047861553146842 
0.03984224819884007 
-0.1078066928278843 
0.06427169862462204 
0.03191743574113893 
0.03087735122948536 
0.01507818720550601 
0.01245952865823415 
-0.002655930127703722 
-0.0005685354967595411 
-0.03076250238078653 
-0.0524826336263319 
-0.04232268715812432 
0.02301155021127681 
-0.03834071933055281 
-0.01663640425414091 
-0.02002363475791247 
0.03034720823074732 
0.01830654690462422 
-0.02311275811378328 
0.01516128245362556 
0.006082694160957451 
-0.001649403395838341 
-0.01098095107529652 
-0.008250079395611147 
-0.02398385144813632 
-0.004827659458507062 
0.003090557754595805 
0.008950825525484138 
0.01341845837237359 
0.0115566709533277 
0.0008912501653629894 
-0.02812826549798447 
-0.01369463569822666 
-0.0197224099370105 
-0.07546699757507094 
-0.02661489478074935 
-0.0159366618448007 
0.008561752528053945 
0.01731537104823603 
-0.006196424349164764 
-0.02361312623938911 
-0.01007861979885561 
-0.01286131883688576 
-0.0229382566548711 
-0.008783008215143233 
-0.009630533302294143 
0.03902302323242055 
0.01237172490107766 
0.03844031705013981 
-0.07089777171044706 
-0.01629508262108143 
-0.04221607180500448 
-0.04031434411714666 
-0.02572665981643646 
0.009196313105354839 
0.0438549328973659 
-0.05831481383584061 
0.03737143747786968 
0.004868866584540525 
-0.02786454001093671 
0.03798546703782591 
0.08077823326437909 
0.06569063748455407 
0.03267262867852287 
0.0516458797938564 
0.04319188319694756 
0.004461960322903714 
-0.01275969777150152 
0.004717817197347096 
-0.0008661498767274761 
-0.04060028185238507 
-0.01648423932710011 
-0.02269334661650044 
-0.007686673061323217 
-0.002089382229719039 
-0.01207389784843036 
-0.001448911195934926 
-0.003397044644870255 
-0.005303834766890047 
0.0173311338599285 
0.04681186320235202 
-0.02932743129903197 
-0.01167918392802024 
0.009618610913007803 
-0.003761895822293118 
0.07662299820025778 
0.03422050792773691 
0.02888012066000741 
-0.0360828356143654 
0.01560900689988719 
-0.02220241837659893 
-0.02934723809061921 
-0.01889395877041307 
-0.004898777078122266 
-0.01331847370966174 
0.00801552832185118 
-0.02410646611147522 
0.03239352679005558 
0.01162887358496962 
0.01667252170076511 
0.04119690683778227 
0.01777277362791602 
0.03923167054967146 
-0.03372518911780567 
-0.01028966239241059 
-0.007200984795569063 
-0.007242662578444563 
0.01341989266351808 
-0.02535058442774091 
0.003213369020959737 
0.01299300792618789 
0.009764469295756431 
-0.08040019811909407 
-0.03062483387311471 
0.01055920059000563 
-0.04963777715645883 
-0.01306616842953648 
-0.03394046809625222 
0.005849791964602103 
0.01484205265762841 
-0.03439953059512851 
-0.02587802153726766 
-0.00116251520873497 
-0.01814358764367643 
0.002157065805569106 
0.0184863721993179 
-0.01639012661112659 
0.02348350265559232 
0.0007524251386517837 
0.02053046152125738 
-0.03114903189688906 
-0.02140439739963393 
-0.03335834633268117 
-0.008888080299848134 
-0.008720285890711412 
0.001597803769932736 
0.0201717895977189 
-0.002724968165058997 
-0.008748767477419204 
0.05358716288353658 
0.02378500502679757 
0.003044154393038022 
-0.02492749516914399 
0.001743915617303324 
-0.05767036295462213 
0.02711500794801264 
-0.01929186352075439 
0.02798981781966601 
-0.03934097155712576 
-0.01280601593083084 
0.0191643180957953 
0.02615694068088362 
0.0395918031238818 
-0.02710559474032424 
0.03291616187514845 
-0.03137752921457884 
0.09291124789297657 
-0.05450496419935393 
-0.05520719555688595 
0.01692535328053302 
0.06053589865005461 
0.03137068255152414 
0.03430852541649718 
0.001387855601050892 
0.002994568242089238 
-0.03028937056670498 
0.02963124327925814 
-0.01232343024736158 
0.01436023651634586 
-0.007519832192352026 
0.006514883850014076 
-0.007385075297791175 
-0.02611382484823168 
-0.0009950432998367467 
-0.02499133970684391 
-0.02751831513552079 
-0.01025085619699746 
-0.006123973246589682 
-0.03022761652038443 
0.005084597631974697 
-0.0194407780151386 
0.01102738864046698 
-0.05218286215561999 
0.02136318501286188 
-0.08536780690718632 
-0.05428955146327954 
-0.001799919343397087 
-0.0205154001212249 
-0.002927429674492581 
-0.011106660914648 
0.05807056845331122 
0.02581412944447751 
0.02961243559258376 
-0.008032036045149011 
0.008702604766726813 
-0.01957683644633207 
-0.004025176123334109 
-0.002769452269944327 
-0.01270219925836122 
-0.03054163840385108 
-0.03564651410605661 
0.004309252700135822 
-0.02952585529575495 
-0.01686255707704387 
-0.01068154065062289 
-0.03232322947721492 
-0.0453558118632611 
0.03888327971309637 
-0.02608567494041534 
-0.003502390491582476 
-0.007890474363071949 
-0.02506665570130626 
-0.008406199688132488 
-0.007222134351140695 
-0.06136887911521056 
-0.04550628433940967 
-0.01213869359684476 
0.01574418033988404 
0.004958873388077271 
-0.001440652936039924 
-0.01654457085275521 
0.009572995278999045 
-0.01535024843296031 
0.01151170012410222 
-0.002361674012523023 
0.04033604317656313 
0.01163608540525702 
-0.007785229932036459 
-0.02205488055816334 
0.002205500668926992 
0.01300361430102013 
-0.02762786549523305 
0.03631484724981518 
-0.00165395258470148 
0.0117092024817324 
-0.0403811975022957 
-0.01541812331137957 
0.02229260179318336 
-0.05521156102395346 
-0.02388161546158132 
-0.02157767590994307 
0.03121540394993226 
0.005780518574444006 
0.05491677137962225 
-0.00834197228629526 
0.0273122279921241 
-0.01859019292429075 
0.02496301188588362 
-0.03291205859621538 
0.08172839727894601 
-0.001771828057556144 
0.01710847098790787 
-0.03188136917244942 
-0.06521175972411665 
-0.01615944035526306 
-0.03786785532057411 
-0.008847918319244032 
-0.002219933041806077 
-0.02028055888014682 
-0.03513453369255906 
-0.01090609359706316 
-0.01732081262949055 
0.03604679935314942 
0.0424780003194736 
-0.0167219962588258 
0.01492089675163671 
-0.001126843978414876 
0.002213765981678359 
0.01514832768593747 
0.02198295400990782 
-0.008292369402206824 
-0.04373544626376601 
-0.003360597167638122 
-0.005124639404188378 
-0.05340526987886516 
-0.02427188719671045 
0.0001847112218148008 
0.01580379031051566 
0.01426464111500717 
0.02521474695913236 
0.01907351973577309 
0.01724580379729274 
0.008724286561898404 
0.06469988387438505 
0.02467982759867919 
-0.007748375715894712 
-0.1300085747396928 
-0.01092832482959663 
0.06790342182050374 
-0.002037928851353464 
0.01071127539674159 
0.02439784473312332 
-0.006551349223769668 
0.02235551684178175 
-0.02764716492903128 
0.04847461043486943 
-0.00305290371356893 
0.01738501198270078 
0.001004955085314648 
0.003707058500343874 
-0.0201405441074342 
-0.01941001325741097 
-0.01477004660892162 
0.02013278315589185 
-0.01963828959019382 
-0.005856919988466602 
-0.004198204677048158 
0.05328627764316615 
0.002272000199338224 
0.03774929816037086 
-0.01585503944550677 
-0.004898493020288928 
0.003555472562389899 
-0.04184957091171872 
-0.0144004153293486 
0.01743113983716622 
-0.032906912315963 
0.0005002975468895508 
-0.008035506958761079 
-0.01630458221938271 
0.01312183604192137 
-0.04713526934024676 
0.01566494810736796 
0.02879618226485341 
-0.01106454590997304 
-0.009434526683339274 
-0.002061823926463697 
-0.01113234437688923 
0.04619496797010925 
-0.00757457591513943 
0.01619441365760661 
0.05058840233598592 
0.02643405129884348 
0.03371777588086564 
-0.02575521772619909 
-0.01263525702054164 
-0.001015812900792757 
-0.03312641196606007 
0.0007736291453288438 
-0.01816181442343332 
0.009491974347048055 
0.006812392040189174 
0.01364816305295002 
0.004132215226555228 
-0.008893775933311976 
0.0266120681874563 
0.001616761776253791 
0.0224230314985162 
-0.02537043142498174 
-0.03074225824940082 
-0.00903304253355326 
-0.02622202137419724 
-0.005875846987058658 
-0.001917940223646039 
-0.0002454535968406466 
0.0480431417410435 
0.03072824837493546 
0.01828868792602934 
-0.08573619916034923 
-0.02638462620215967 
-0.02942621275993168 
0.0129626515058836 
0.01126143115289785 
0.007887838116987195 
0.03081035824633863 
0.01554321310969599 
0.01165630897556559 
0.06171385774006471 
0.04139038584442573 
0.007681382245704392 
-0.04926956933538697 
-0.0154592229941112 
-0.02015048174547776 
0.02470623007910704 
0.01341096292070873 
0.0107451727800605 
-0.007582646386673311 
-0.01347489610550583 
0.006159600031730797 
0.01684090735961679 
-0.01488340177258487 
0.01910721641836215 
-0.03745115267494643 
-0.01299780658876057 
-0.01651592817676373 
-0.06358890732002392 
-0.03787052075671903 
-0.0004483098766571615 
0.01769226196937386 
0.00123875021485452 
-0.008970048909821145 
0.02251451829207709 
0.01586646085039798 
0.006494671502893574 
-0.05443266555149651 
-0.007868488074130557 
-0.022431922657994 
-0.07161795469556796 
-0.03527889008933491 
-0.005461839336882843 
-0.006487008288681931 
-0.0003893054486229092 
-0.001106006938708687 
-0.02022750621267183 
-0.02043149800738099 
0.02176767753788832 
-0.03339271908294355 
-0.00363077194299562 
-0.01186861805010229 
-0.02240010398186853 
-0.007012326977985466 
0.001488427577786703 
-0.01473400214689231 
-0.003600402290449261 
-0.004822697259930785 
-0.04915320376754217 
-0.003897104685780824 
-0.01597284639842163 
-0.06807100431439363 
-0.02823049791336756 
-0.02733781019459107 
-0.02564381507017442 
-0.0006972875942443048 
-0.02518699977880054 
0.005438809337444474 
0.009262000474931953 
0.003645626113599301 
-0.004908372411582996 
-0.006700964696078264 
0.01919175277724032 
-0.04708092492985497 
-0.0137198811900929 
-0.002378680381632351 
-0.06159842290740886 
-0.03735496613132067 
-0.02701568184750108 
0.05175383192738627 
0.02623133302265816 
0.007447484828816354 
-0.03018486429314234 
-0.004465374100431171 
-0.01375483661408001 
-0.0323526816319071 
-0.01858520483539254 
0.002558375307899462 
0.02038276882559928 
0.02467605446978691 
-0.007115997150950694 
0.001245883143176641 
0.0197100043276968 
-0.0009404312310202625 
0.01254674605419014 
0.001814790741185027 
0.02822823673043105 
-0.03083773224725301 
-0.004545732131756401 
-0.009418214510204899 
-0.005955304962454083 
0.01472596378070913 
-0.004713195890517293 
-0.01945852585903069 
-0.01254705576909179 
-0.001748256101664598 
0.01203699638479754 
0.0008851293467083056 
-0.001043578864463279 
0.02962473441104445 
0.0064462311127851 
-0.007848628159003009 
0.005659310011124945 
0.01643184105398639 
-0.02598032838150393 
-0.001530478469911375 
0.01483736891096382 
0.01442299068076758 
0.06041833510139938 
-0.01061462307212224 
0.06333042783090874 
0.01668273981111827 
-0.02144881882283696 
0.02823557671425878 
0.005226680842878752 
-0.001463898088007763 
0.04842935675409349 
0.03732997840557109 
0.009383696150385229 
-0.02901451974584849 
-0.007528529763705975 
0.00268951859862971 
0.004542061961883093 
-0.01293586459618338 
-0.0007978047888226845 
-0.01085028171935195 
-0.0109234758202636 
0.001129456223078612 
-0.008821597313983741 
0.01003804323570343 
-0.005051648713884963 
0.01270030234777836 
0.06713165524222653 
0.0425070223623048 
0.02086571120468319 
0.04845461653411858 
0.04561915674005202 
0.004626571207582773 
-0.02272668352759457 
-0.0165172713509838 
0.005723269632398242 
-0.02650424507479704 
0.03703842477195287 
0.02173943268509342 
-0.03152801470212459 
-0.00683460055182705 
-0.01991654450936181 
0.009347221222484636 
0.01409708931770895 
-0.01828743845741557 
0.04985460317979225 
0.01479989913910906 
-0.000751368386013164 
-0.05216688541661042 
-0.03424735886611207 
0.01565049536976178 
0.04368414342012313 
0.04456086182185166 
-0.01730527008583143 
0.04001352928785921 
0.02667596236393742 
-0.002946595362250792 
-0.001066632815482317 
-0.001025355836792986 
-0.00252961017732747 
-0.04732755113298145 
0.003282561652782879 
0.005004506213572818 
-0.02551293627677654 
-0.009775288698811717 
-0.01927844051590261 
-0.006682087398352853 
0.006081637920371055 
-0.01488213127948059 
-0.0148031147750896 
0.004233391823863277 
-0.02510462241180033 
-0.03450963431209873 
-0.01536597683866346 
-0.007267246965540734 
0.0241000267995989 
0.02385450916737386 
-0.01930975745915696 
-0.01680250581484646 
-0.01619201027043752 
0.01475262854809074 
0.07625890876731224 
0.03798403505385215 
0.02963385672407729 
-0.01453769035188768 
0.00234504064904565 
-0.01730715184036115 
-0.04503233209707309 
-0.002338516790735953 
-0.008562684413166054 
0.01266882601973865 
0.02374319986632021 
-9.815567740398893e-05 
0.03876263559315924 
0.03210936895427301 
0.002627901116380141 
0.0008646004002805473 
0.03835080660001198 
-0.02189711587402473 
0.07426219187650861 
0.04031120745241325 
0.04995370870931323 
-0.05180893185640612 
-0.02191630673149676 
-0.08236412342868085 
0.05563026029615329 
0.03331922981746399 
0.03004157780173275 
-0.0322213191679466 
-0.01406005071845592 
0.02477387686041222 
-0.03600525664598533 
-0.007982571944669952 
-0.006309120974311196 
-0.0225819811924277 
-0.0159400857962389 
0.0276036146107811 
-0.04895393896751025 
-0.02420501430853549 
-0.002609023599558478 
-0.03115547603458205 
-0.01187587932367637 
0.0001709060480724958 
-0.004004397580894553 
0.0009685538386296878 
-0.0054804340394934 
0.02373458996589271 
0.03238947736068119 
0.001748692836534137 
0 
0 
0 
0.007515457115783937 
0.01918400448087889 
-0.01415538448110915 
-0.0576611247180886 
-0.03871260309215451 
-0.01354263312846611 
-0.006313206280347211 
0.0003407316300060525 
0.003581703521042343 
0.05855933017140993 
0.03063065766269301 
0.02804840511641231 
-0.01106278774558715 
0.01273212415094746 
-0.02267232260568467 
-0.01825575124622024 
0.008969505466928832 
-0.02102512659855762 
-0.03061122903589075 
-0.02235748975573264 
-0.01583812331898204 
0.01702035985764331 
0.01236536844932385 
0.03333777287440354 
-0.02411626718752001 
-0.008347997925109834 
-0.004663136041366957 
-0.01455719058760663 
-0.01352276543639965 
0.002659974577632592 
-0.02005427207745419 
0.01949778422638313 
-0.0009171434722897955 
0.06249907086076026 
0.03250489931004489 
0.0235512371859974 
-0.0288270089834241 
0.01067550534845762 
-0.02354808376743269 
0.006363967504350982 
8.064241678964641e-05 
-0.01777132451881445 
-0.07042493573169739 
-0.01569499607100155 
-0.02594896117455545 
-0.006220613122094871 
-0.005025949539018142 
0.007568417519790065 
-0.05799467090630558 
-0.0234294283008564 
0.009451368944947185 
-0.0178076938816681 
-0.01643565904006524 
0.006446461313070567 
-0.03404786522479347 
-0.01837418660355684 
0.01625568920079097 
0.02659833293374987 
0.006526891360443402 
0.01204456737293224 
0.002202946587270532 
0.008315160721033903 
0.0133303034451781 
-0.01627410786348502 
-0.01555353451864193 
0.01305722681896428 
-0.007469677956010835 
-0.009487862279900831 
0.005045699552335648 
-0.03509141223915209 
-0.01638004268295104 
-0.0398351981608254 
-0.04833081228457359 
-0.01350395605061683 
-0.01315911970151193 
-0.02582883819909279 
0.01060053153406802 
-0.05468143551726037 
-0.07079134417709994 
-0.03105670071202274 
-0.008109198969134869 
-0.04323873763224761 
-0.004911036831823513 
-0.03701026428712938 
0.04847442025189185 
0.004944925645655241 
0.02164901476149019 
0.02201323951060409 
0.03403389773860776 
0.0225425371348484 
-0.01410697117275862 
-0.004474798055650133 
-0.0003173007023614691 
-0.06049906428999407 
-0.03129372137350664 
-0.03417091650705076 
0.05736227952416178 
0.02259636411307413 
0.0006653488867758294 
0.004104646385332227 
0.0086492511715957 
-0.02125242847198012 
0.04261580019996846 
-0.01531231607485523 
0.04719986920779569 
0.01063683851060543 
-0.003599212357157935 
0.01373187041080333 
-0.009771471834093137 
0.008400944894295425 
-0.03092701651427699 
0.02590940619340328 
0.003865125055482588 
0.01850053469361078 
0.0242290649159042 
0.02288949709223642 
-0.001352120683156227 
-0.02289909701443577 
0.002862472894456439 
-0.0004126292949199217 
0.02937591473159955 
0.00947639971391908 
0.0343062094655481 
-0.01869165323423741 
0.009365346402505612 
-0.01381704359315213 
-0.02138529092728748 
-0.02404254507951324 
0.00568613269882658 
0.05462587155113314 
0.03648013715904896 
-0.01708159536887375 
0.0114632050813032 
-0.00804948400812046 
0.00995644819772303 
0 
0 
0 
0.009441506800283803 
0.017628552154759 
-0.003539272664449114 
-0.03221353864924633 
-0.01408775225724964 
-0.02107386968538056 
-0.008840130821123433 
-0.00247021719713898 
0.007338865231056889 
-0.002061419589786104 
-0.001156326631854 
-0.008110918476689656 
-0.003063253147696645 
-0.002136933515106224 
-0.003969381621428251 
0.008974787775272925 
0.0146976809856622 
-0.004485661585903253 
-0.03850583492928285 
-0.02051758088911394 
-0.01903427083035888 
-0.03776793662066053 
-0.003321800579382102 
-0.0254008575979053 
-0.02018347670140652 
-0.03884019184004169 
0.01239432750482307 
-0.05118823490061886 
-0.02412591386842537 
0.01532150836040413 
-0.02281710325881631 
-0.0167847272720873 
-0.004150166038018878 
-0.03003736231463264 
-0.01053865957481292 
-0.02881990999801116 
0.0390831387062425 
0.02126642109928098 
0.007410675952927323 
0.002501043946666428 
0.01873588337165772 
-0.03549625756179799 
-0.006508725264351777 
0.001474075388997983 
-0.00224242416188378 
-0.04305022800035035 
-0.03595688837719213 
0.019030203996857 
-0.01913158177540028 
-0.01231264906849845 
-0.009260736290532966 
-0.04021487769179997 
-0.01801743645420125 
-0.007145201246000915 
-0.04806112179341392 
-0.03254554817436726 
-0.02182052441630493 
0.01191957459984462 
-0.001673330962035589 
0.005828219959352549 
-0.01913417396364804 
-0.001762691056406333 
-0.01669471798013778 
-0.02647428382453531 
-0.001089764291716185 
-0.01384104022472177 
0.042050952404264 
0.03719262970876668 
0.01289434277432768 
-0.02457109849576623 
0.004276912461136065 
0.01159609774286486 
-0.04085729604654242 
-0.02201968912799831 
0.01422063947351016 
0.02690980152369286 
0.02651052465543895 
0.005783354416545379 
0.01674430857195502 
0.01034052941819141 
0.02136907917706359 
0.01398965292807716 
-0.009997229828321418 
0.009736240542346588 
-0.04278451087556119 
-0.02180460077522723 
0.006110304920997761 
-0.06428894634331318 
-0.03831724190870398 
0.001142463938500689 
-0.04350605446938122 
-0.0132195222531352 
-0.01525269767489139 
0.01765004512287986 
0.009366206494711794 
0.0004077998103382758 
0.01349185026737007 
0.008468284901162238 
-0.02102385731359276 
0.02550783960896564 
0.00985683463800199 
0.04749120986342768 
-0.006092836411043232 
-0.02450487388824681 
0.006091847446284173 
0.02632042193591979 
0.007651044083412264 
-0.001865796914840694 
0.01019708713332832 
0.04934653900422961 
-0.04268841686670482 
-0.05487897755846807 
-0.00425169058081871 
-0.0137200735627913 
-0.02521919255950794 
-0.02835499945274124 
0.0148122675888994 
0.01611089482191727 
0.03893744480864347 
-0.01146766323696527 
-0.03361339875155115 
-0.02025913318883351 
-0.01521093715715219 
-0.04581936419622184 
0.02494341565831082 
-0.02515180365656983 
-0.01053801760575915 
-0.002490516299633052 
0.002206762744475651 
-0.02970424332864105 
-0.01248593578026334 
-0.02539671372809376 
-0.008668128946418453 
-0.007583626694142458 
0.006122965923985141 
-0.001518929202285238 
0.00763382901125009 
0.004074293558787647 
-0.02370672169487778 
0.002132383085683697 
-0.025348409270169 
0.02836316061769228 
0.0134044872862245 
0.01313375230996573 
0.05162979995107193 
0.02133672160326106 
0.0100637958396271 
0.01662934869421725 
-0.006098720203768448 
0.02492702120053985 
0.0560609881291235 
0.02218653132552094 
0.03141687266415674 
0.03698085241516807 
0.02899089730079854 
-0.004313307937396516 
-0.007373888159194382 
-0.004047989618881144 
0.00236309708956578 
-0.003532600318597255 
-0.002289906997601047 
0.0004273425374061066 
0.02778637582845857 
0.008935744033125043 
0.03186108375677265 
-0.01279204061375403 
0.0002096176625691706 
0.004838255308513284 
-0.04993992394259348 
-0.02642996394605964 
0.002037588633711731 
-0.006482581786251119 
0.00226776108637303 
-0.01356609825476464 
-0.02717746705163639 
0.002212940835872715 
-0.00159762916358775 
0.04746279132709171 
0.03666631537765305 
0.002283548794795636 
-0.04877722243655218 
-0.03618284691770401 
0.0209064681416088 
-0.02225454913459122 
-0.01033313439132019 
-0.02334670480066533 
-0.006923076539560892 
-0.005379691860479905 
-0.01498466967659302 
0.01186566144361004 
0.01949643317672219 
0.002685260798537164 
-0.0006037885646124968 
0.007921428512890393 
-0.01143058890108631 
-0.01258811669552085 
-0.00153413300931982 
-0.01306000059477509 
0.01081664588118082 
-0.02697744726798804 
0.0200007818269428 
-0.05235651396881039 
-0.03044685215685413 
0.002528517613717228 
-0.0106680662738658 
0.007716926233980775 
-0.01515693480585543 
0.05178595862049833 
0.03793051822334465 
-0.01184497628941239 
-0.05514276281120266 
-0.02073716403714785 
-0.006381273718927524 
0.07374466450928878 
0.04750958809201524 
0.04255492683340026 
0.02943052011355246 
0.02706158218096082 
0.0442657077829194 
-0.01369729113291059 
-0.006497425393686466 
-0.01133652566189706 
-0.02128933794155842 
-0.005199825039421226 
-0.004968954210177543 
0.03683160625568697 
0.001215974740001754 
0.03761710819968109 
-0.008924585988914154 
-0.01324133672915066 
0.01778497934445082 
-0.005787435853509324 
-0.003901929919147754 
0.005962632704764802 
0.0421933018514803 
0.04286006613110116 
-0.007052414749221994 
0.04263808716128204 
0.04684195345399604 
-0.0176600895447221 
0.0007211162453113009 
0.007436640565795722 
0.005724326407945043 
-0.03827047342221149 
-0.01217340549937321 
0.004943271652795165 
0.01663037004731881 
0.01713615124656912 
-0.006788713076957323 
-0.08605884835646589 
-0.03794020858005361 
-0.04175999959743699 
0.074186706493429 
0.0345643464411612 
-0.001824822866174923 
-0.0172640584784759 
-0.001593983214634327 
0.03161281058034625 
0.001562069722174757 
0.03098638896937767 
-0.03251750205595338 
0.03278653435586576 
0.03161279486691392 
-0.02192753999009787 
-0.03346372600863635 
-0.01289606715414298 
-0.00708941524122464 
0.06151346166137457 
-0.003932749247473593 
0.06152035734612776 
-0.05314675403513768 
-0.02089547257822602 
-0.01890451455685067 
-0.0180278528163765 
-0.01558642420089733 
-0.009823467522680722 
-0.01463850766987798 
-0.02965603989472217 
-0.009377629895402131 
-0.04435857437185951 
-0.0179380782449432 
-0.0171328397523139 
0.01323654474660505 
0.01742386999801113 
-0.002236330851599988 
-0.001004930944921928 
0.00425570740196869 
-0.01466819060537515 
-0.008612836364301312 
-0.01243423908876455 
0.02699233083638795 
-0.03672291099144061 
-0.006438230787765165 
-0.03607235706823028 
-0.04395869088220838 
-0.01752118878184854 
-0.00403889089626261 
0.0600012126802177 
0.02863556690007227 
0.02809787706951282 
0.01527817571917153 
0.00123270805952694 
0.01299606723658091 
0.05817630751448612 
0.02615155383199014 
0.05594455446018458 
-0.03022414267696398 
-0.0215704827031368 
0.02024738732083297 
-0.01129424832624372 
0.003579416253334535 
-0.007830097810618709 
0.07261094728693036 
0.03027355153538662 
0.05568446766319208 
-0.03918312072415275 
-0.03510705280537012 
0.003274477913749462 
0.018885245595849 
0.008486222742687699 
0.007395057000342951 
-0.01233372020685045 
-0.00662692877913657 
-0.01547984440163209 
-0.01121441495359299 
0.02671995723885386 
-0.01990199458067185 
0.006256944295361121 
0.02713485751529498 
-0.003691807812397459 
0.002330362211322718 
-0.003648835467504604 
0.008061151642549445 
-0.02466323362346316 
-0.01405418094540201 
-0.004057788284993855 
0.003843405894879294 
0.007350459170139957 
-0.01890787718361744 
-0.03221598431272529 
-0.01136521069605095 
-0.006234429363261134 
-0.06651171185009926 
-0.01303411017637666 
-0.02804714146459081 
-0.03120101531943916 
0.004780642733666803 
-0.0179093383815392 
-0.0003694370887316602 
0.01097000552189812 
-0.004189153709720247 
-0.04194489227363071 
-0.01048744904296981 
-0.04700971267111279 
0.01356795301703303 
0.01831410884291643 
-0.02077341976804379 
0.005161963246324743 
0.002570729996505695 
-0.01215042398839349 
-0.06972991968651671 
-0.02173062371646499 
-0.02312786825009533 
0.009091424516882184 
0.004283753456689349 
0.01634907811143313 
0.06426727549841121 
-0.02639848360329117 
0.0508860656521364 
-0.0354333947430646 
-0.01036186288634369 
-0.0303520043320538 
0.04017732889271024 
-0.003146062892077431 
0.02974532271259162 
-0.04079076951157859 
-0.0113443071737353 
-0.004177139079705192 
-0.01614836600345679 
-0.008670488909755298 
0.002038233759105225 
0.0308332361435538 
0.02069787637890591 
-0.01069932848586428 
-0.05359947991960851 
0.009164019858854754 
-0.04763694135242103 
-0.03438477971531652 
0.003119848591886211 
-0.009260113066274276 
-0.01142501707791238 
0.01271045780479749 
-0.008074985553811911 
-0.03539637058679732 
-0.009612286406871109 
-0.02777626277324106 
0.02397212077915286 
0.01746840385125284 
0.01383862962918123 
0.01607325031958578 
-0.02630915573880824 
0.04737449547941041 
0.05613377446354034 
0.03995356522640707 
-0.005965074042724884 
-0.02457240391275204 
-0.006479318133012557 
-0.02051384691070398 
-0.04743881637086653 
-0.01898996586420445 
-0.009007658783976118 
0.005055411530800663 
-0.006182576044067912 
0.03686499215808785 
-0.02796762886935233 
-0.01721846076000156 
0.01193033810100336 
0.0131516208189278 
0.008214500465520167 
-0.001021846830444925 
-0.03020107612794071 
-0.003556920874304192 
-0.01204820921742052 
-0.01771478791233925 
0.002885377356203144 
-0.008572801582991141 
0.04875982066049985 
0.01282797618841596 
0.04811059891594158 
0.02349668816741023 
0.02075706607540198 
-0.001136645769527772 
-0.003657014947826664 
-0.002354049211889847 
0.0007615148674149873 
-0.01939292366120053 
-0.01220117379800201 
-0.01274424337970028 
-0.02748943891890986 
-0.03095282878745525 
0.001597565897931248 
-0.0329342187544675 
-0.0150771606839666 
0.009845908467031914 
0.02436731998245986 
0.00339631365129099 
-0.009293534213231137 
0.03150570742700639 
0.02623171246706506 
-0.01609639680032895 
-0.04252745731343838 
-0.006051444759721679 
-0.009221913281608204 
-0.02340894391074228 
-0.01304811444438065 
-0.001216697120838728 
-0.05825881197936132 
-0.0009621625485742726 
-0.05945238465749329 
0.005177394666974034 
0.01675593043512567 
-0.009963020371491452 
-0.06372254180057731 
-0.04643228064187944 
-0.01556756725190633 
0.0001212335197591802 
-0.01305337716103535 
0.005268660945729233 
0.03242147485649418 
0.02160455521069397 
-0.009490567296059352 
0.05197883761584406 
0.04815478024995254 
-0.03102949620526983 
0.008285421089197845 
0.02608573379442772 
-0.01208629160207554 
0.01743396177471994 
0.01452329628558174 
0.0164795773310885 
0.011580934347568 
0.04043605907753755 
-0.01906048450813329 
-0.009928302793123532 
0.001656047326194822 
-0.002847163104203617 
-0.01810859654458073 
0.006517197839358028 
-0.01750028463868183 
0.002113626219935882 
0.006423378623882024 
-0.004177025510183743 
0.01313782723890523 
0.01137061854790293 
0.00112269128987397 
0.001021643335347805 
0.002028586633518889 
0.007951319378079391 
0.0322233603134297 
0.03042549428127257 
0.01712962908143271 
0.03539642507682072 
0.03686297038342406 
-0.006414881463282566 
0.02286969672038402 
-0.008606608360068404 
0.051479252225306 
-0.02743113159629494 
-0.004325449550178898 
-0.01794293171281627 
-0.05170375455659448 
-0.009250484031345397 
-0.02278358571822537 
0.01693539036090817 
0.004033917288223245 
0.01525566680827713 
0.008933667819333307 
0.02220391909812697 
-0.03455881453801419 
-0.02765956477915258 
-0.02617184435164902 
0.003179354652103611 
-0.02936198328429545 
-0.02228153322110404 
-0.02296940932350362 
0.0371625200301398 
0.01433459350904715 
0.01180491137573929 
0.01907283941960461 
0.02022874792976443 
-0.002499387584417898 
-0.07303529216307314 
-0.042854660647734 
-0.01085779501606496 
-0.009313265417376161 
0.01310432849286451 
-0.008302766883128034 
-0.06991232241068542 
-0.02367100056013896 
-0.03283083031230268 
0.008748251676684887 
0.04936575656362404 
-0.01703572785889208 
0.008407567374072066 
0.007105123766493991 
0.008482299263513758 
-0.04802033017075006 
-0.01060814425225049 
-0.007285040026498667 
0.0386017731075634 
0.02710664891415789 
0.00386225682058558 
0.01023942617693948 
0.01567908213478785 
-0.005121373133614101 
0.05880051701778639 
0.0470271328133982 
-0.01468168461732458 
0.01280821744598403 
0.0230116551234145 
0.004373283715905926 
0.0264217137084455 
0.0004127039146008939 
0.01470151430860464 
-0.004591215999646848 
-0.009303874865564551 
0.02430343286591495 
0.04422115017815512 
0.03668447380959387 
0.002935295378087391 
0.01572380675133491 
-0.006830895335701931 
0.02477135386898603 
0.02334651595269105 
-0.03431307077201071 
0.01599881546725882 
0.02748944563827369 
0.02011958159394912 
0.00785696032418713 
-0.01672403301905746 
-0.01784450232240318 
-0.01538631102089154 
0.0542241020509255 
0.02094665345341178 
0.02096359897690686 
0.0348105244947849 
-0.03429629987384567 
0.05187353008230602 
-0.01950425483206255 
-0.001346574072845503 
-0.01589256206132526 
0.03906256951163379 
0.05108483580640928 
-0.04028615675843769 
-0.04639010471514145 
-0.01884393911837789 
-8.264713171134366e-05 
