solver_type L2R_L2LOSS_SVC_DUAL
nr_class 2
label 1 0
nr_feature 12288
bias -1
w
0.02141874395659729 
0.0142048997872648 
0.006828197931461429 
0.03958475544150398 
0.01956262803328987 
0.008005764151481708 
-0.03392666342061897 
-0.01777583266776678 
-0.01982569825855705 
-0.0160659653336857 
-0.01025699136932606 
-0.003970716802294666 
-0.01325908490825456 
0.001149618734647247 
-0.01161509938914137 
0.009245096190334078 
0.01367279553200409 
-0.01832800124843496 
-0.009855420832557355 
-0.00220509343929966 
-0.002019863304125244 
-0.003949153808306184 
0.004256016440116151 
0.006364628257759786 
-0.01229731065305464 
0.007777294779034593 
-0.03118429407043644 
-0.02933362190230573 
-0.008852735410566503 
-0.02202586058256463 
0.001623836609918118 
0.01249405845547095 
-0.006507614281918223 
0.006462643754633473 
0.01362207032971217 
-0.002686046521361746 
0.001794573043957157 
-0.03062701357422198 
0.004582991864292505 
-0.00265589273189299 
-0.001766621390350944 
-0.0001989026409765238 
0.007029698808670857 
0.000933175999544151 
0.00709551566328892 
0.01322902539255564 
0.008984926451313453 
-0.003608699997616496 
-0.01689638196433465 
-0.02377855187531641 
0.02231368017704245 
-0.02257193851899237 
-0.01144097732830498 
0.01233514560757666 
-0.02671693682600424 
-0.01034948628655536 
-0.004861600417283386 
0.02824807514926118 
0.02167196188363063 
0.005546779660154088 
-0.00117353840628681 
0.008887155047321337 
-0.02110295359167603 
0.008416800323265097 
-0.01482208323548694 
0.02106927010973013 
0.02528347699230127 
-0.001941929176912355 
0.0006531666454866524 
0.03022030245477404 
0.01760581861653198 
0.004145722560202915 
-0.01385348405412439 
-0.008715302192123341 
-0.02573335343657979 
-0.01277228001895957 
-0.00493913831191816 
0.004100340346989176 
-0.001848488683064227 
0.0003644989630463625 
-0.0002120171068761334 
-0.05220189056752371 
-0.02791919622803844 
-0.006105989635985684 
-0.0155939781674682 
-0.004626716817559434 
-0.001424201922261034 
-0.01215739697600227 
-0.004998674925087127 
-0.009543931064793416 
0.04819019011229451 
0.03439008605126977 
0.0168446165862667 
-0.03478726713315298 
-0.01397269888054523 
-0.01754023734544935 
-0.005447150805423728 
-0.002935831399462119 
0.001453188844627673 
-0.02388511605140493 
-0.01171630291474923 
-0.003996728260601 
0.003657160051109506 
0.002669505168403076 
0.004506488170477577 
-0.007052924902186667 
0.004000836070106116 
0.008789239672453257 
0.03996174378490466 
0.007473360924138066 
0.02933180665796438 
-0.0232223292578553 
-0.01168328432543496 
-0.01063608672064303 
0.04653489092059034 
0.0258363314222598 
0.03018385276399712 
0.006918355790056056 
0.0001711437569157336 
-0.01028782921668315 
-0.03786917092027988 
-0.009688676988795801 
-0.005644997660497368 
-0.002512548715133821 
-0.0005621464833224898 
-0.0005158259893667113 
-0.0176025432440241 
-0.008575474895766058 
-0.005699585577518398 
0.009393320398794661 
-0.003867198701994358 
-0.01019062630460011 
-0.02886441592172621 
-0.01658138347498207 
-0.003579221005319095 
-0.008100525436973939 
0.0002229751367728891 
-0.005721807013287547 
-0.01294600803466074 
-0.008745355335672444 
0.00244800806690541 
-0.01035433526560031 
-0.008146451971555616 
-0.00732608093710635 
-0.01397182007949766 
-0.006591787141916444 
-0.002129434595820089 
-0.01549206408560859 
-0.009564099115362731 
-0.002013250615821199 
0.008689003450701394 
-0.002013180673837524 
0.01219910378841766 
-0.01738155166357387 
-0.00951030281514172 
-0.00278852917281046 
-0.005906806763025874 
0.001136248854665107 
-0.004812361506000658 
-0.01061464965748249 
-0.004819001964094069 
-0.0003572939688883873 
0.009779971535147876 
0.00604247467272775 
0.01007305236911287 
-0.0198414353384231 
-0.03431108725318389 
0.005243243767002822 
-0.04290244084925646 
-0.01810663464611626 
-0.007017697462192821 
0.009767914235153614 
-0.008076050275113539 
0.02282454981379762 
-0.026009119767264 
-0.01467956164129095 
-0.0009180873913791386 
-0.04735227849269631 
-0.01955194268580576 
-0.008367495228745345 
0.01897642235297342 
0.02146038243662581 
0.008958149068096775 
-0.02029199412147605 
0.004793230473427213 
-0.01646977562949721 
-0.0531562925811544 
-0.01737806393156796 
-0.03072592050155659 
-0.008757193293698671 
0.00335620838120574 
-0.02138437020441954 
-0.03199339111493529 
-0.01805299977379666 
-0.00169710351791505 
-0.01230252975673952 
-0.006360116944980776 
0.005749808988775634 
-0.002086178498920163 
-0.002610951718713911 
0.01064103146376826 
-0.005359684164442021 
0.01473767685949737 
0.004838297787149671 
-0.00294236998928829 
-0.004155297139619775 
0.01509395575999547 
-0.00931871775059322 
-0.004627796333872918 
-0.008097138296562518 
-0.03076101029511473 
-0.01450879294128941 
-0.008216474492048872 
-0.004294802610990613 
-0.01232751345826689 
0.01507176088669095 
-0.02507802200198685 
-0.01196561553184893 
0.0006633122828374172 
-0.003283863110460231 
-0.0067747933711504 
-0.005616483831877815 
-0.0308019442541188 
-0.01824159260401665 
0.003076336400535815 
-0.03763604001443312 
-0.01363053410013245 
-0.01531649478818859 
0.04534445582081838 
0.02517998821309299 
0.01568225059746533 
-0.02103693154047907 
-0.009355141272617119 
-0.005156233152791559 
-0.03769610289307389 
-0.02822424746349804 
0.02042879859191265 
0.01005981463286265 
0.01618829246810935 
-0.00493299246147267 
-0.01888009259084665 
-0.009432297681181997 
-0.006382684216795289 
-0.0123223420173192 
-0.01763351688647337 
0.002106056212116996 
-0.001825461957005194 
-0.005641003242120017 
-0.009576276565276241 
-0.005535940386656398 
0.01857408513713144 
-0.02534129247923267 
-0.003064896660334373 
0.002155215359305465 
-0.007870513366687698 
-0.02579825336430452 
-0.01167563502615889 
0.003062237565345641 
-0.01693637800030839 
0.009385091978038457 
-0.02620615272312046 
0.004606456385818202 
-0.02781832284236485 
-0.005094551716449515 
-0.03459903282371198 
-0.001286062515413634 
-0.004858356275209311 
0.03913612024633652 
0.01328885746524941 
0.01658884849673347 
0.01299706635197341 
0.008954143225402033 
0.01184391764885639 
0.0183024464470499 
0.01360835711651335 
0.0006296767847684567 
-0.01135094247922414 
0.00065706914667815 
-0.002920315388143834 
-0.01213267304274528 
-0.00761277564560997 
-0.01583052805436271 
0.02771907700530034 
0.01523534188037402 
0.006602201968908117 
-0.004684050471763684 
0.0004675518230706624 
0.004155912527063795 
-0.01458059250464886 
0.001058190393908514 
-0.007962959524932435 
-0.04718035290641819 
-0.02676701415784744 
-0.003173036585107346 
-0.03075384601341914 
-0.009936585937362285 
0.003741047138970994 
-0.04965538117972661 
-0.02440811132912033 
0.003467334006910473 
0.005378610877951245 
0.008054379557015328 
-0.001899527528107107 
-0.04153492581974935 
-0.01921218969827153 
-0.004755072772426015 
0 
0 
0 
-0.03406876212099368 
-0.003665480801834806 
-0.006228245350655046 
0.001183263532703883 
0.003229841059246361 
-0.005482765006889468 
-0.0171323564207439 
-0.004420885756962959 
-0.01468686995804529 
-0.02342041444853084 
-0.01377216319540914 
0.005307696948088201 
0.002638823700689048 
0.01193241727193337 
-0.004371553107932085 
0.0001749733144283243 
0.001581008595798183 
-0.001049307741522517 
0.02977731491795403 
0.02971984224550976 
-0.0009263933488989068 
-0.02404474970139165 
-0.0107224987642726 
0.009202226993182586 
-0.0198764826776776 
0.001236829930162219 
-0.02059561210898733 
0.01940637907979706 
0.01091429324706725 
0.02705440553902494 
-0.01575215040933402 
-0.00815923097057648 
0.0003282333891553632 
-0.002041575863563862 
-0.0002332064901257634 
-0.009842154463346723 
-0.02563464356130432 
-0.01800130914644245 
0.006255231791710973 
-0.02364989872073106 
-0.01401572126622124 
-0.02213881581784492 
-0.03440882277596834 
-0.0135949282859505 
-0.04006949052205126 
-0.01212010190782701 
0.003940098231550716 
-0.01708082231309042 
0.005488595614838319 
0.01434512874050806 
0.01816932660299147 
-0.03220393121664007 
-0.01848108615716634 
-0.006002545538200221 
0.01048380250055402 
0.03315905182624151 
-0.04012785997916594 
-0.08163740916361334 
-0.03674914452856223 
-0.03375772512715058 
-0.005753060144045248 
-0.002804550867733222 
-0.002602021227223006 
-0.0004062918213119075 
-0.000147015345003784 
-1.186961149332105e-05 
-0.02962784076621376 
-0.01685505765983849 
0.001781469312120797 
-0.02569071183309431 
-0.007065769937096164 
0.004915402736439481 
-0.04728103937614271 
-0.02351841705744527 
-0.001398116518331287 
-0.01781954269097154 
-0.01032623442909881 
-0.00122816447190201 
-0.02778947056493115 
-0.004937033884095916 
0.007889133428609602 
-0.005732036711968763 
-0.003052946419881856 
-0.0003094808219370317 
-0.046767332348945 
-0.01986080216476745 
-0.001266514326577575 
0.003724837410001544 
0.002279446334284622 
-0.004450990119402058 
-0.008390210480064452 
-0.003071809008146807 
-0.0008666853764894674 
-0.006573295472922056 
0.002828787095835072 
-0.01249705162558313 
0.01225338919198095 
0.006324258026908323 
-0.005726892747606463 
-0.004783413258202363 
-0.002902171837466955 
0.001637191046833976 
0.004646344735603766 
0.003628425738232619 
0.0009259871623736646 
0.02519570269171114 
0.01466607852004013 
-0.004291456654830219 
-0.03972493131756875 
-0.02335111982707022 
-0.01705160201253706 
-0.06452732461259908 
-0.03192919375098039 
-0.01027228251517753 
-0.04766399356209464 
-0.03073820098490744 
-0.02398924932498816 
-0.01176257003204147 
-0.009432562223376252 
-0.02135845051066596 
-0.02466421704734413 
-0.01471514089735586 
-0.01310179432408962 
0.01131914697853564 
0.006274129572668341 
-0.01044529318183363 
-0.01011656149093352 
0.0006370976756778687 
0.003791659483736931 
0.01596125215657255 
0.005764651229977028 
0.005485713058810461 
-0.02638654086775595 
-0.003631604336261181 
-0.01236635145769316 
-0.004674321980059239 
0.002543239443557957 
-0.004212316768906408 
0.009280745324206403 
0.00153317169274119 
0.00316809847026205 
0.01600778265296984 
-0.01364085425564837 
0.03488785606064888 
-0.01518905845861518 
-0.008148090367818111 
-0.01471580829725216 
-0.001099615437258618 
-0.002691115589595752 
0.002488670454450015 
0.01466414853659045 
0.0157174223378128 
-0.009638725487948195 
-0.0003110119130440066 
-0.001677369137463257 
0.006472599444096195 
-0.02469014485971373 
-0.01388298409504473 
-0.003411822823672485 
-0.01288629344722057 
-0.004881501807107175 
0.00107472894177936 
0.02024969217271179 
0.009179426192956497 
0.006252940588190176 
-0.01241821058892862 
-0.01833084918198903 
0.0149804940664692 
-0.002308483937290879 
0.03036876172402459 
-0.02118135803872243 
-0.04160548264680358 
-0.02052487988130652 
-0.009604384056708827 
-0.02275152650050566 
-0.003971686034805681 
-0.01938567437288127 
0.005445058018047266 
0.01165221656811417 
-0.02364069678686165 
0.023155692551128 
0.01214537688900305 
0.01149152577348253 
-0.04647757125188244 
-0.02044538389837482 
-0.009092939955814248 
-0.02858455188788488 
-0.01084585839630877 
-0.003224081659211232 
0.03621491877486141 
-0.00386407106717221 
0.0345782758801869 
-0.03478361017063351 
-0.01130745510603096 
-0.02180714877339384 
-0.01894295846342649 
-0.0137689193153917 
0.003907785318073319 
-0.0127254220467387 
-0.01427156663638674 
0.005475168554161768 
-0.02162980542245639 
-0.02072231211620517 
0.01040439536049542 
-0.02889002703885181 
-0.0137538264088369 
-0.002229244606142092 
-0.01302355028435113 
-0.01010597378567405 
0.01374488672543111 
-0.02167971915671654 
-0.008964716023575519 
-0.003117420049379426 
0.009441717398375637 
0.01765817014192739 
-0.01078879017481045 
0.03263853649895895 
-0.008917177998361817 
0.008217763125181425 
0.01003605452272088 
0.001789315989989826 
0.01380706132333377 
-0.02214059894443369 
-0.004478011804227287 
-0.02631312811476458 
0.0220808258016802 
0.004978635855536271 
0.02323360823605342 
0.01845561622999579 
-0.01274168424161994 
0.03535141558250748 
-0.0131075146134873 
-0.007844092893036494 
0.0004827119536980485 
0.02339462324874328 
0.0287548864727409 
-0.01006089732949875 
0.02282711573803904 
0.01189059445825007 
0.004415095216715756 
0.002775020963689494 
0.005173512458173561 
0.001449502036143279 
0.005939960372680804 
-0.007131918274131907 
0.03115636738953554 
0.006844105382720315 
0.0002317324570898312 
0.006784892695622037 
-0.01339659065737007 
-0.01535416879135618 
0.03242929910483381 
0.008176890308921084 
0.02003168554025409 
0.006532545263444061 
-0.01832974749601986 
-0.00303612214599308 
-0.01108758847318608 
-0.01702118800669765 
-0.001628997165071852 
0.006117136430022634 
-0.04465573576388396 
-0.02495546246846012 
-0.004897313538232392 
-0.03045556046780893 
-0.0008768942404960177 
-0.005919537994323644 
-0.03016635286165328 
-0.01264438891888111 
-0.00584537691634033 
0.02979887262123324 
0.02999009215274259 
-0.01178449026411648 
-0.007567218369075497 
-0.009025571864624575 
0.01088356910921742 
-0.04052982708616082 
-0.01134748865996013 
-0.01648815795125761 
-0.02129142950716504 
-0.02055481477974839 
0.009933675910618545 
-0.01827776125365228 
-0.00268284914696959 
-0.01339922564473053 
-0.01213621703567395 
-0.004283129577402281 
-0.001821100647406085 
-0.01419583866248597 
-0.00278208480785985 
-0.01290445611020159 
0.00824456886619624 
0.005273985890047854 
0.01299249565392226 
-0.03873575318579981 
-0.01681012358215566 
-0.01653902438731734 
0.00477085450425517 
-0.001298183243077482 
0.009421146112222428 
0.04410488069506267 
0.04187423095570156 
0.004498009668112092 
0.008904656445209927 
0.006703410281760472 
0.007339321049668611 
0.002507385816952566 
-0.007937413870659819 
0.03345380507702023 
0.01563128452066786 
0.001732160585722629 
0.01672673817848093 
0.03051263701498537 
0.009939288561621915 
0.02036904981347322 
-0.01434546733148931 
-0.01330236612017353 
0.0004085640638785616 
-0.01000087247395424 
-0.003767622857990288 
0.000343048630768825 
-0.001461089732152492 
0.01687816794274903 
-0.02962581268304559 
0.004499213117350939 
-0.005596201137450096 
-0.001884811555411094 
0.02006017289137144 
-0.0004016685653788462 
-0.004157870173151866 
-0.05810199416522464 
-0.03625307853086918 
-0.001496275861309521 
0.03571511969224456 
0.02906621108701902 
-0.006376971047214891 
0.03311571501627179 
-0.01157769841653556 
0.03233474443326154 
0.03650051151516684 
0.02574124669928352 
-0.008905609571868436 
-0.01715102904116791 
-0.001279193345693278 
-0.005826482461362092 
-0.01997989788442202 
-0.01605211385584782 
-0.008776493658043323 
-0.03696813324908062 
-0.01624638277088679 
-0.01664553584937321 
0.003479456503877497 
0.005737340929636818 
0.007804108983802125 
0.01646322624389315 
0.02484084468924747 
-0.03761267245307577 
-0.02560312573583667 
-0.01280323425199084 
-0.00813644665051786 
0.01455316920010189 
0.006407306380412004 
0.01465278521817403 
-0.01992067973763039 
0.002120284418923288 
-0.004697747109136396 
-0.02733438057838829 
-0.02517797580382525 
-0.002733879079195079 
-0.006062951800560689 
0.00100888523349031 
-0.008679516290531462 
-0.01351164171255591 
-0.0301416955309884 
0.0120790389490129 
-0.02853675682999834 
-0.01022539235467085 
-0.01660266908318031 
-0.02333868573761617 
-0.004753035653474983 
-0.001950013582070499 
-0.001537829530128268 
0.001140797740472113 
-0.00887035826238777 
-0.04661991518620722 
-0.02268716639648885 
-0.01124103133287087 
0.0002722240334324221 
-0.005000914285418062 
0.03009636838863685 
-0.005915456812379471 
-0.003354829493566033 
0.001858419462589833 
-0.005643835981124196 
-0.001751645269551966 
0.00492533731467576 
-0.01167205876431862 
-0.003750059981996464 
-0.007432519142662504 
0.01028065866964126 
-0.001395720359685668 
0.008138644340087552 
-0.003813399314381339 
-0.0007974430432904433 
-0.003018948384684741 
-0.007779146523586571 
-0.003275832782367412 
0.01066552934030479 
0.009847954578437644 
0.01845453548746995 
-0.008260000269724616 
-0.03109096511480609 
-0.008538288466190496 
-0.006213724189470041 
0.0492343001954221 
0.01641379476179109 
0.02807048152428168 
0.01861215829439049 
0.008697664911607568 
0.01163938325082815 
-0.03996679331383109 
-0.01959778424187463 
-0.006715354624658713 
-0.02307219065998313 
-0.003307440477108182 
-0.01036252635952216 
-0.01393676941730618 
0.0007854065218427993 
0.01349476152647043 
0.02377008896276251 
0.01085888639449461 
0.02882306075240987 
0.01014095047915976 
0.02101485519494222 
-0.01486729740565062 
-0.01515963311347224 
-0.008663495748774497 
-0.0004591089360719695 
0.0009207108313175729 
0.006590500339291212 
0.0001199030684980788 
-0.02906144021230052 
-0.03495494314187769 
0.0277220482444879 
-0.004207167265098214 
0.01331021800207828 
-0.01144804894570436 
-0.007273624007109634 
0.009364743962618651 
-0.006623608849639896 
0.0136075509731071 
0.01168849177195328 
0.01911079540569191 
-0.03569421206387754 
-0.01811577347624603 
-0.006691464867543622 
-0.04238101813169493 
-0.01429584955610506 
-0.01841150304924788 
0.01835324126809657 
0.01888365348331949 
0.03048027303222578 
-0.009413470306138948 
-0.005938375436692997 
0.0006914278028859796 
-0.02494087441584958 
-0.009927079146684538 
-0.001175311836710816 
0.008702037351851254 
0.007191096201033054 
-0.005477531537479569 
-0.008283574076303363 
-0.005166534886214954 
-0.002373408533429544 
-0.0149475642216069 
-0.008556114200313476 
0.00388184203063318 
-0.01499702215477086 
-0.00550240466247345 
-0.009536677992786711 
-0.0612241931416911 
-0.02268029673730515 
-0.0125314301393505 
-0.009766275263011197 
-0.003860923294237666 
-0.003918680215435452 
-0.01746306538532249 
-0.009517401345232841 
0.004415114099494105 
-0.005273238080460194 
-0.001717014773328066 
-0.003793533760353527 
-0.02310730534441856 
-0.01047998351110818 
0.001955246939085389 
-0.01782082185971357 
-0.01191705873145456 
0.000609031274660555 
0.06243795952271648 
0.0138430916268943 
0.04495583790135981 
-0.02218112014046229 
-0.001494863992261333 
-0.0126269303873997 
0.03087283821730484 
0.001094610153481515 
0.03238848117767625 
-0.007661760891680286 
-0.0006916247431188075 
0.004888928461413282 
0.008816535327132667 
-0.01418252851053305 
0.01417527375804449 
-0.01557248546016902 
0.008416058268811548 
-0.02372367550566451 
0.002202359142941906 
0.004346274356629998 
-0.005530791192683784 
-0.01667343007708246 
-0.006799349848763408 
-0.003811931390443807 
0.002151248295397716 
0.008074188548035446 
0.003479825547561395 
-0.01647697931628573 
-0.01006183616059194 
0.0003645103339857167 
0.002256987592952212 
0.003491703178940255 
-0.01234672292992729 
-0.002233426718399595 
0.008479402794093626 
0.006923359762114765 
-0.04591275597567872 
-0.02176797552024387 
-0.00171057197613688 
-0.04316737393116799 
-0.007425582480150517 
-0.02389871572750745 
-0.02525858530668766 
-0.01144908487439089 
-0.02236351796466936 
-0.02790443436594841 
-0.001907477811144251 
-0.0153979704593721 
-0.0006172018507108056 
-0.001178391142519252 
-0.01977555250109332 
-0.0238831900059655 
-0.01486224710298576 
-0.006690815908677568 
-0.03261733042159697 
-0.01443801259307326 
-0.01253603706014742 
-0.005288461819504635 
0.0001698053166863129 
-0.007621712675938671 
0.005203015161845065 
0.001190562910789329 
0.001325732994656746 
-0.007745286418595688 
-0.004706141200614313 
-8.047621911251418e-05 
-0.01348878431037835 
-0.008382633074474562 
-0.0005172644953954438 
-0.02757413522968441 
-0.01424111017954871 
-0.003789700281993586 
-0.002915455789491547 
0.01050038463737596 
-0.005562053970186617 
-0.00782058801466508 
0.005769256427823297 
-0.009302233811769985 
-0.01741176625133793 
-0.01066752438469834 
-0.002046347815774806 
-0.01850295722396382 
-0.005104843668834894 
-0.02802912042589654 
-0.03186289585913425 
-0.0190648937938029 
-0.00653409309199142 
0.04296431164750097 
0.01666098746097355 
0.02294990508869883 
-0.03760909710839786 
-0.01248559545168941 
-0.0170064771039151 
-0.004710467214359804 
-0.01917934795771214 
0.02344547816934466 
0.005650720936690995 
-0.005317232054397097 
-0.007006759968177018 
-0.04421143281086055 
-0.02397797227058607 
-0.005809142888059718 
0.01663810604525857 
0.01801592273699032 
0.01418268866518479 
-0.003591246735075576 
0.005149229172508945 
-0.02568830732604304 
-0.02716068976305516 
-0.009057100004310831 
-0.00754058205726593 
0.008233679793911172 
0.00879852662364063 
-0.01238889287207814 
-0.02655779032151482 
-0.01448392606036238 
-0.01273591598149146 
0.01522606062605431 
0.0254773853568452 
-0.02474084735926531 
-0.05620837527077128 
-0.03221914198100819 
-0.003201936980747332 
-0.03422848426712347 
-0.01706401096559675 
0.0003534402568502699 
0.001233495805798324 
0.01136862301511167 
-0.004332894842245173 
-0.003307644290140608 
-0.005949122319221139 
-0.005740031286689707 
-0.0369702083557672 
-0.01839286763330868 
-0.005247673571938333 
-0.01571628883533068 
-0.004702235183059506 
-0.008014216565954224 
0 
0 
0 
0.02289168269202476 
0.007612732627754766 
0.01585910274134477 
0.0354744429256017 
0.01205350188185632 
0.01834286033575046 
-0.04463854765385021 
-0.01727129952974923 
-0.004740916019183527 
0.009120846189186581 
-0.002851594011556444 
0.01953069287622593 
0.01016655202941377 
-0.004136903479069354 
0.01005499039790115 
-0.003006522827008269 
-0.004546654650472453 
0.0005994345090259207 
-0.01001168015613447 
-0.005055173068397091 
0.004392876315778201 
-0.009226382246376331 
0.03065949584528884 
-0.004660751755603846 
0.02289356180839316 
0.002932176567450409 
0.01208774383231531 
0.001042860772492147 
0.001906169967909224 
-0.003250076117471188 
-0.009723567692476703 
0.004515280130672622 
-0.0006891924634250979 
0.01907216441503585 
0.01876994486076906 
-0.00363404569465108 
0.0004861506628430912 
-0.000975449185727828 
-0.01369917525687436 
0.01900032961409037 
0.005993423916189206 
0.02522592891578353 
0.01167660794297201 
0.003292340800159058 
0.006571702725131774 
-0.003330576025272328 
0.007872425196604322 
0.003823732136620754 
-0.02565780887271706 
-0.007625879810450353 
-0.01667234997816134 
-0.04211348020124669 
0.008699470080051628 
-0.02690733643324492 
-0.002772139535187772 
-0.002204250574270892 
-0.002173440021489205 
0.01311758372223973 
0.01569008070749811 
-0.002261002852839823 
-0.03575217196439423 
-0.01412461328541234 
-0.004910256661106865 
0.03174725330271337 
0.004633767954595014 
0.03000908185824326 
-0.04452143347620689 
-0.02118828097598997 
-0.006682019132331107 
0.002564074336824542 
0.006331401987595972 
-0.007840386866787931 
-0.03223058520726061 
-0.01234219559019773 
-0.004656085309350287 
-0.008795640608548287 
0.001410908696479529 
-0.005209631690506951 
-0.009735437336984069 
-0.008806625549455424 
0.006351018286759954 
0.01331505890923454 
0.003038006864925863 
0.002517164190894051 
-0.03303491976600282 
-0.02072491747982292 
0.004473718846166012 
-0.01357102772746925 
0.0003402220157916664 
-0.001528171981788422 
-0.0147106804364125 
-0.002138766200231975 
0.02260207293567434 
-0.01392449412629712 
-0.00743590739830001 
0.002726879281478601 
-0.0007340296080387213 
-0.0004597671872633945 
0.0002597552675585467 
-0.008222739875326453 
-0.009434609887687602 
-0.03148761091048118 
-0.03132418938836595 
-0.01519453240547702 
-0.006627678234942091 
-0.01396301173812038 
-0.003615618113106513 
0.0009860135093734904 
0.01396020130143197 
0.001721898261841493 
0.02281165841216748 
0.01886254273629208 
0.01773262025118244 
0.01554172296999935 
0.02219455517049542 
0.01033250232884207 
0.0258577473537544 
0.049820935540609 
0.03468071959958951 
0.03417610463971676 
-0.02369042343232268 
-0.01096669551443635 
-0.01097297961069792 
-0.02198702354917472 
-0.01334624373025172 
-0.002276428333391189 
-0.006473142937420529 
-0.003416935789865772 
0.0004976696541495615 
-0.0263207462466013 
-0.01838345098542014 
0.007235376927881676 
0.03527891810527296 
0.02834728256101727 
0.001266066773449648 
0.01758956204810257 
0.01885839039843655 
-0.002313342875974181 
-0.002438574731448261 
0.01090959631981671 
0.02038848309010162 
0.0006975411856375881 
-0.0290193539666428 
0.00926438451046893 
-0.01491291485039531 
-0.04271804161520421 
0.04612459258182309 
0.0105561153681907 
0.008697287277652437 
0.0132756830624065 
0.008303583165223217 
0.00753374681956991 
0.004274614404751846 
0.000119704084579382 
0.009704934977024349 
-0.02520059180822735 
-0.02814253373887662 
-0.00639693199840002 
0.003820712857996998 
-0.01249702232461567 
-0.0004640913075540117 
-0.004551740489846295 
-0.02653815088578126 
-0.006625940255323886 
-0.0002438433358412599 
6.903788184611853e-05 
0.008200652988981027 
-0.0280258520707806 
-0.01243037516485876 
0.008111623876750925 
-0.01135361470334486 
0.05809779951176133 
0.03478777329982003 
-0.004516105652420717 
0.03186868601486113 
0.0249175951506337 
-0.01477645091427609 
-0.02146921767790847 
-0.01161769610419501 
-0.00758703069483714 
-0.04092815452910071 
-0.004991380104786836 
-0.005361171305000451 
0.03144999707274485 
0.04353573224456301 
-0.03617627275823147 
-0.01275285377462657 
-0.007996141529188082 
-0.01072252961573716 
-0.03197180782912107 
-0.01609938181951548 
-0.006259642809288764 
0.006019379784354956 
0.008893811247120183 
-0.01554191192260682 
0.002268609501009436 
0.004670011657703805 
-0.008465414026328381 
-0.01744782798181927 
-0.01049150322361597 
-0.0003057063133637725 
-0.02532601549433051 
-0.01187243970445943 
-0.00142261813110078 
-0.0001051105337418435 
0.02291647377450967 
-0.02140952883063302 
-0.01630916466574479 
-0.005509789049483072 
-0.0114349884084425 
-0.002769949257171993 
0.02332114001603017 
-0.02069186540738729 
0.001478268644531957 
0.007772442139391207 
0.005135472614790471 
-0.0239871170508234 
-0.007312744691794095 
-0.01661856731176251 
-0.03230997070145106 
0.001320225821381778 
-0.03430580748719743 
-0.01963844547550456 
-0.008756187939552688 
0.01271103132228066 
-0.01950146784025301 
-0.006238471543351533 
0.0009293729965380666 
0.01006298250288837 
0.006174857764839281 
-0.00457726730075454 
-0.003708417854798668 
0.01354729239452813 
-0.007937346631872691 
0.008345366676209101 
0.00501708984128556 
-0.005858197200937315 
-0.002571608601175673 
0.00650432343574901 
-0.01372557551648909 
0.02001713011434813 
0.02070798237969785 
-0.01018292622975489 
0.02025979673157127 
-0.0423158630205252 
0.01742720387001929 
-0.01253223256073408 
-0.0005067619419355381 
-0.007826875151399982 
-0.01049847377045839 
-0.002551507566418622 
-0.003266614768627796 
-0.0128911674301134 
-0.0172042234874205 
0.01486882699623501 
-0.0164063766577715 
-0.00916132731305935 
-0.00250151177436102 
-0.01087259527782931 
0.001335104202747121 
-0.008958025420786725 
-0.01410356945138632 
-0.006813284425146808 
-0.01322900779774388 
-0.01494301331308853 
-0.006799662683716008 
-0.004983763338046445 
-0.005826434899027701 
-0.01074518725387741 
0.0009645387510430206 
-0.01366142612415629 
-0.005314348104745873 
0.01275746268482648 
-0.01894966509060592 
-0.005280724284115293 
0.001111466905246079 
-0.01569769014670708 
-0.003860324578311634 
0.001789675667703834 
-0.02400101975472765 
-0.009657430496484778 
-0.004409009247632878 
-0.04408376723079054 
-0.01481644344490614 
-0.02402579535964621 
0.003235147144627925 
-0.02378546689683699 
0.04239343393331694 
-0.04992638592015942 
-0.01564873152650455 
-0.01835483572523074 
0.002086456101911358 
-0.003749958589019294 
0.006999033524230583 
-0.0330993921312623 
-0.01876857913254694 
-0.006231944345625412 
-0.04109056508482066 
0.007083333082090785 
-0.03375710788731707 
-0.05140899149781183 
-0.02777543963724459 
0.0001151439191003422 
0.03723305577846908 
0.03989085565722648 
-0.02864725878702706 
0.02809557771140129 
0.02207435883514242 
0.004376604503750266 
0.02419832353343013 
0.01019773128743805 
0.01408775545738078 
0.01950017628142714 
0.002232632981736603 
0.01436899701804749 
-0.01120507650569405 
-0.006997855523417826 
0.00903695325289571 
-0.02246126902494905 
-0.009618233976251996 
-0.01378705560182147 
0.002244524291351586 
-0.005765427802878496 
0.02392393948065705 
0.0118233676002608 
0.01702235420386667 
-0.01362150599100499 
-0.01633151272348878 
-0.01326648242690622 
0.00685571162417567 
0.04848243663130621 
0.0250720676465186 
0.01446806354916819 
-0.01889085506191836 
-0.004593621911709819 
-0.03215375892239247 
-0.02056295835973576 
-0.008858486754979109 
-0.01964006281840262 
-0.01353215060840148 
-0.01198237275595891 
0.009185654872520614 
-0.01761168893343947 
-0.005119859717583343 
-0.005425614775600865 
-0.02256669735541721 
-0.011798084795177 
0.004562261120584961 
0.009918932065055772 
0.0153583330389048 
-0.01762485348813345 
-1.967234674493892e-05 
0.001330721610461191 
-0.0006840069632573666 
0 
0 
0 
-0.01176395120451878 
-0.005151566511625819 
-0.005104718434127058 
-0.006833276646215839 
0.0006748668466659751 
0.003230574238714454 
-0.02414318797694677 
-0.01027418145308517 
-0.02904017177141694 
0.0633461908462728 
0.0180881041808839 
0.03388197849522717 
-0.01909923685384406 
-0.01472543923496437 
0.001010274137015483 
-0.0361209275048671 
-0.01455607233078476 
0.001854625026927467 
-0.02867843932138321 
-0.010589512166743 
-0.01163319900734353 
0.0389070119756998 
0.01467603620296214 
0.04245197052354668 
0.001638527916416343 
0.01707329789410866 
-0.007383315035581399 
-0.004937905587626859 
-0.0009801499233780271 
0.001656202550225955 
0.0100182067278264 
0.007394182517232072 
-0.005650166484432373 
-0.0184456368770937 
-0.009467692231450253 
-0.00618758929680097 
-0.002377305894117911 
-0.001317191192462053 
-0.007136455130135198 
-0.0008203620120284989 
0.005142842787275078 
-0.01236679080596499 
0.02995397626299644 
-0.04766426952071121 
0.03420161602708237 
0.01002655010801103 
0.009127928858914095 
-0.02393776310029835 
-0.03755099277243384 
-0.0150891733545388 
-0.01029471517306914 
0.002716481802732802 
0.005299729081774217 
-0.002796904260622227 
-0.03417508262999531 
-0.01744353848750521 
-0.01171838729793062 
0.01201901479281312 
0.01073728219814316 
-0.008424154696728376 
-0.01905621975972112 
-0.00308840359485275 
-0.01667529033683237 
-0.03948183282698738 
-0.0206961316942637 
-0.004534147809609127 
-0.003613619165821318 
-0.0006438050407760855 
-0.01042238939504909 
-0.02598730378408325 
-0.01037590542901414 
-0.0007096999157651497 
0.03293225303246669 
0.006865183501965498 
0.01616555052861301 
-0.03732427964446821 
-0.007889287410519398 
-0.02201150335864244 
-0.03212955753239875 
-0.01754470001350689 
-0.001052756960163244 
-0.00703545241126682 
-0.006127789670975116 
0.002472900253268712 
0.005652278214836961 
-0.004304028768868095 
0.01460612425887851 
-0.003465201641648554 
0.0015186349431168 
-0.01048557098230685 
-0.0172236070868257 
-0.006524615798853249 
-0.001321429965570715 
0.05158681312557997 
0.03384076948460068 
-0.0192040066221169 
-0.01111976335990249 
-0.005250025232360878 
0.02064719952322453 
-0.03238168027624313 
0.02636487981299119 
0.03034098485997791 
0.01127369452332467 
4.885598468589738e-05 
0.02132883793739685 
-0.005713197437163552 
0.009493913716346782 
-0.01902733864151866 
0.007719560553815577 
0.009523565368419537 
-0.01652775955223184 
-0.002637310852996504 
-0.004827430713598408 
0.01022031348191931 
0.024767331559388 
0.0184485958163053 
0.01336842709118355 
0.02091857392225469 
0.01049526781718826 
0.00565258481477355 
-0.01332769707301194 
-0.006548878930731602 
-0.02199269745429412 
0.0006438136437080622 
0.007179917071552713 
-0.03347292013593071 
0.008421995687278879 
0.006817272696924955 
0.005130616229633593 
0.01729618304142672 
0.01070521937372612 
0.001973140899164773 
0.008767338511814536 
0.01267483222974722 
0.00542470134809137 
-0.01056319519037758 
-0.005130754066523763 
0.001119191776928326 
0.00144353911182484 
0.003129156151455612 
-0.01278563485481424 
-0.02102254490579316 
-0.01297117556159319 
-0.005475832964612898 
-0.02105255248582182 
-0.01049005465673488 
-0.0133564453558336 
0.0001837215349958403 
-6.98747278169625e-05 
0.01348360906426413 
0.04995014755215022 
0.02696573379666517 
0.01534543802439854 
-0.03010025897785189 
-0.003455362410266963 
-0.0058547192531653 
0.06982618378015623 
0.03093998466635738 
0.05521474258297339 
-0.03366498955278128 
-0.01624746480588405 
-0.0109713991469543 
0.01382646864381535 
0.009149381328209295 
-0.004648225493581674 
0.02724600244741627 
-0.003092953626505215 
0.02858825777198093 
0.02288978480143004 
0.01647389503735755 
-0.002693168972278915 
-0.01133929999325165 
-0.009981083796039862 
-0.01010693442364869 
0.01136835279557981 
0.01158208811019269 
-0.008836404444245978 
0.01613411118400356 
0.009944555181776621 
0.009558297793846248 
-0.008920654257706407 
-0.00858029208912402 
0.002010769736196382 
-0.03408209469815221 
-0.01115440049512885 
-0.01305388617087001 
0.01802307519454061 
0.008045048267240968 
0.006572817767044434 
0.0001258271816917917 
-0.003651173947396826 
0.006263482261373254 
-0.04564217238723587 
-0.0200070870516651 
-0.01305196044468678 
-0.009743792375774735 
-0.01101749096244815 
0.006810772881487271 
-0.006128644070481656 
0.005569107928854936 
-0.0091760201575197 
-0.006992373865885899 
0.004299414031528854 
-0.01291007533546105 
-0.003623334622196711 
0.009688425712905633 
0.0030986694811704 
0.006896786871673134 
-0.01140506339056123 
0.02778813079527163 
0.01657140990626969 
0.001911562138232073 
0.01001946341406962 
0.003725880329722926 
0.009580701246786399 
-0.008023030866497168 
0.03396001393460103 
0.005889472040118691 
0.02076409859015724 
-0.02578841773393048 
-0.009420946767194653 
-0.005292082927401956 
0 
0 
0 
0.02749557908848607 
0.02013552037018095 
0.0341800040679032 
0.04058331916797679 
0.01852136930707086 
0.00542638667156171 
-0.02270939976818965 
-0.003568052527599695 
-0.008171053000077661 
0.03434871633876616 
-0.02890499290764246 
0.05461161409590427 
-0.01996781606579776 
-0.003576710653962002 
-0.006983095506401323 
0.002648266183387387 
0.004570246603025729 
-0.01477669453591176 
-0.008150927488775559 
-0.006330763549756975 
0.005557403028580723 
0.007663562885740089 
0.0008017986426223335 
0.0212867982970205 
-0.02320693783900258 
-0.01246148551440702 
-0.01067342089611789 
-0.004113771743358255 
-0.002324026366198881 
-0.0001526844420348081 
-0.001748132551642013 
-0.001003881170688892 
0.0006236855231901676 
0.02970775832661892 
0.01644123716444651 
-0.001611624036896769 
-0.01628653873941511 
0.002506608003721517 
-0.004946644257801945 
0.05758386005989134 
0.03737931911802395 
0.01165433616112837 
-0.0139472758002466 
-0.001172478777089781 
-0.002792362435810596 
0.01932670424111697 
0.02312125591593421 
-0.00777014042393016 
0.00882810801836381 
0.009838925703681669 
-0.02185507087006827 
-0.03336471444079277 
-0.01519156032428913 
-0.01812378334348506 
-0.0008199295946464141 
0.008516947807427819 
-0.003405963618568184 
-0.04296535312102791 
-0.01580203816751336 
-0.007955211678585553 
-0.03325173346040743 
-0.01635308413408099 
-0.009518357166723784 
0.002195223264688378 
0.002731431662024321 
-0.00167669279480998 
-0.05326216462915247 
-0.02675741817103888 
-0.008829304254962944 
0.03509270859810221 
0.01501849098712602 
0.02057386922538082 
-0.01060051545355864 
-0.00957189130965583 
0.01361576186524622 
-0.0003388827465583476 
0.001274186369797264 
-0.005306988075095985 
-0.0126653876378178 
-0.01825958250837785 
-0.006922950997689319 
0.04363447982606537 
0.012126859593511 
0.04118837339120492 
-0.007516214153376092 
0.002750774938271691 
-0.01216326990106372 
0.0108195451404899 
0.001567693279912775 
-0.00102255485386207 
-0.01100157789529 
-0.0003966911599825342 
-0.002511283850984557 
0.01935981625925071 
0.008740520519180457 
-0.003396023217720341 
-0.0310440741382284 
-0.0174433808259434 
-0.008571602025565639 
-0.00453168457027364 
0.007652010000237148 
-0.01821832335164697 
-0.008378150678355895 
-0.005550299697720604 
0.01097954400236003 
-0.009742631266293282 
-0.00514693979434025 
0.001099907952654031 
0.02540798161786745 
0.001144604121589727 
0.01375353855500068 
-0.004320288853625175 
-0.001686441658473226 
0.008489304502381041 
0.03370117562390176 
-0.02653139468418617 
0.06906577953914382 
-0.03558130579765069 
-0.01172120153649613 
-0.00904611499687486 
0.01701236890874214 
0.02369094864606445 
0.003404608317391827 
0.02815531822928502 
0.01851513839240837 
0.01710523463670625 
0.009618733927460028 
0.004213855062260169 
0.006691937507304929 
0.007702878137319881 
0.004763529643856148 
0.003124770282758054 
0.04431066703351901 
0.006178822079124859 
0.03601225843999098 
0.0100511621063657 
0.007899949351989037 
0.00416460518459635 
0.01704292947297366 
0.01851223912570078 
-0.01011079510343617 
-0.03041294679288634 
-0.01625461010627803 
-0.009175709849148393 
-0.008012899017648551 
-0.004838686675554274 
-0.02312328708754749 
-0.02753928882121517 
0.003273130277241789 
-0.02840728584529547 
0.04366796636603335 
0.02934385909576093 
-0.01195500055023181 
0.02685533648373321 
0.01863110881773899 
0.01494070820385513 
0.05469218612061258 
0.03543514183020444 
0.006090589697622035 
-0.008836207567416925 
-0.001565873977876472 
0.003024826524125516 
-0.0324314135482369 
-0.01186023490780851 
0.000380795013625217 
0.02630947506197354 
0.01082683430842481 
0.003129884253969522 
-0.05361504797794066 
-0.03508146633631707 
-0.001661751919256002 
-0.07200705707417326 
-0.03400792655600698 
-0.01764013259911871 
-0.01460204244178889 
-0.006319979780295697 
-0.006282756499598927 
-0.03375246616454756 
-0.01168633825511156 
-0.01808637727250882 
-0.003007946602625327 
0.0005226928479870759 
-0.01213827057472891 
-0.01285464844379608 
-0.006154128611632174 
-0.0004983519029234774 
-0.002667185353852444 
-0.001639206804986492 
0.0005771109601180783 
-0.01360721648696955 
0.003466602312111954 
-0.02118307784722192 
0.01769100848195001 
4.242778202726302e-05 
-0.01458512059417978 
-0.003172269231989027 
0.0005096812273576993 
-0.006779072033257338 
-0.0216511981454018 
-0.01153211026099784 
-0.006541448044751868 
0.01441901263768901 
0.01635028113518828 
-0.02373144964955478 
0.01901297203814938 
0.01277835734375642 
-0.01658252581274455 
0.004504196799186192 
0.00950659856152992 
-0.00672257327876731 
-0.001526103105871229 
0.01003146467133065 
-0.01185134065313923 
-0.02498897394051013 
-0.00959468006899613 
-0.003791575219527601 
0.004124909706729997 
0.004651881935134511 
-0.0009795103571183998 
0.00294252638096354 
0.009330148508161039 
-0.005122412843482133 
-0.01832093571158802 
0.008118891321785685 
0.007952220127726669 
-0.02951147366154432 
-0.007052090894968807 
-0.003532789387291456 
0 
0 
0 
0.01844025191002148 
0.01135416091911887 
0.01646861675172757 
-0.02529945909023691 
0.01198941925968919 
-0.01472543252017873 
0.01968742383663882 
0.01892040238861945 
-0.002355885487383621 
-0.008444435230269227 
-0.003002765853574899 
-0.02064207527670096 
-0.004165908958300951 
0.003828606211069602 
0.002120468187957843 
-0.01816317733256529 
-0.009702199461669789 
0.005415734177096744 
-0.0006690306017078609 
-0.0003545935553653682 
0.0003253613993746481 
0.01834191062122443 
0.02563366018072838 
-0.01318330850499284 
0.0100434549929822 
0.009026601796899266 
0.01255841888756268 
-0.02477797675982729 
-0.01615865032175053 
0.007220199122819537 
0.01285192944023899 
0.01157821612459078 
-0.0004013469488624622 
0.01295603044656395 
0.004232976773585145 
0.02132625856260889 
-0.01276794864830757 
0.006893573510293886 
-0.01353392739418641 
-0.03716767167028766 
-0.01502045471017783 
-0.007702396756451783 
0.02070605763044188 
0.0004955653181854294 
0.02141796956864716 
-0.0245849331752121 
-0.008099568021385315 
-0.005992037824638708 
0.0008694558874834732 
0.01145665012516265 
-0.01858847737811297 
-0.006515128081603817 
-0.01382723207990048 
0.01002293119076962 
-0.01799530256183767 
-0.008455138075652752 
-0.001699659038051447 
-0.009447494483595435 
0.006822558377625343 
-0.04832157986482792 
0.01456877309780907 
0.01436712214501992 
-0.008206786014595119 
0.03351376176736234 
0.02199971346421507 
0.01171640781993795 
-0.008658403630316008 
-0.008353360524192293 
0.001833897344317208 
-0.02011466638216439 
0.0006637243701334926 
-0.006914747555451676 
0.01804218990965739 
0.0149625334924567 
-0.02023778265830102 
-0.03643663448396417 
-0.0172302512751292 
-0.001578173611963696 
0.0183099815712618 
0.01760462907780711 
0.002335986671812167 
0.001785837016674131 
0.004312033902495788 
-0.006888888095673954 
-0.01290443655341673 
0.0113428263055713 
-0.02303201088934313 
-0.02139049213431451 
-0.001810347991024366 
-0.03068107411508521 
0.001116156614521341 
0.0152237416271235 
-0.007850268348155765 
-0.02237030656846456 
-0.0007248927175006897 
-0.00918505740038794 
-0.01624312076035293 
-0.003177323524489164 
-0.02836029219227032 
-0.0244172698591541 
-0.01594590902235523 
-0.005160232046479181 
-0.03874220705735754 
-0.01482910345855114 
-0.01119717535442117 
-0.0482232303139786 
-0.02033170643093671 
-0.01032138521423248 
0.0177818285989425 
0.001588079039962132 
0.02426609671138922 
-0.004274664744059862 
-0.01619352151082352 
0.02266319902306287 
-0.03890617678823698 
-0.01356598540013338 
-0.01433067967838676 
0.02859427308221757 
0.01447409387027544 
0.00702159813721849 
0.04049579561725982 
0.03690427379549301 
-0.006578664384403098 
-0.006807195572762105 
-0.005430801466228066 
-0.007248843494272784 
0.01555961409736332 
0.01100821758597918 
0.001676060835053649 
-0.023147113826279 
0.003909594369929544 
-0.01331591200718983 
5.025716566653862e-05 
9.189111264190498e-06 
0.002896972817091701 
-0.0007995086787483209 
-0.004072835731659698 
0.01603253810677623 
0.01387122264896069 
-0.009007157633397106 
-0.004186223950025414 
0.03277857592023568 
-0.009623281614515847 
0.03323699652469361 
0.01340048293444347 
0.008348658639228118 
-0.0009002579635987929 
-0.03130547655159044 
-0.0166483822139499 
-0.001271436874757807 
-0.0104178262699258 
-0.005617409020581519 
-0.007740030108895683 
-0.005211167690577647 
-0.005702809893546933 
0.01715081598248271 
0.02135244966716265 
0.01675342117438752 
0.006520128737697692 
-0.005637905255109653 
0.01544831496385031 
-0.01410209984398483 
0 
0 
0 
-0.009589204984761871 
-0.002412585597066493 
-0.0006280899834944389 
-0.03110547471347322 
-0.009677896386178402 
-0.01939512776892274 
-0.005597369689516441 
-0.002513015519231972 
-0.002286311683780012 
-0.008047857917898849 
0.01542415395438957 
0.00107446907575217 
-0.005675621479680742 
-0.01270346963064466 
0.01681589409005558 
0.009264627586389275 
0.007625640218508571 
-0.02041284275630819 
0.05261802332924796 
0.002103866294187038 
0.04362631817529595 
-0.01260635540082129 
-0.002282757142900349 
0.01266289766721433 
-0.03510832991495895 
-0.0165416213669063 
-0.003734661474402982 
-0.01365358184381952 
-0.003543835019057809 
-0.003098989235037189 
-0.01744014735551416 
-0.006969163108997545 
-0.001867521811607593 
0.03006183982588055 
-0.003587564636972588 
0.03425478133368706 
-0.01236836918334757 
-0.0003780983362676397 
-0.01420272940863461 
-0.02693594925381959 
-0.01478445270100935 
-0.01233980982694862 
-0.02749197390481556 
-0.0147520913103761 
0.001250073876733694 
-0.007893783873712239 
0.0004183870392341343 
-0.01121639042082372 
-0.02424303691194933 
-0.01103963072652285 
-0.002902385057350176 
0.00386575289685935 
0.001650315621185702 
0.007467749638302335 
-0.02482470524929562 
-0.0138159718773748 
0.001852168116517232 
-0.001810352859599075 
0.005531550175554797 
-0.003013108109815886 
-0.01257439512184623 
-0.007693094723549083 
0.006440525093880932 
0.02884406247946071 
0.0147909018138589 
0.004196352870409442 
-0.02282170831312082 
-0.01056428258985446 
-0.007127538200143005 
0.006810418141464214 
0.005625068394863363 
0.001157107411956973 
-0.02730235476959529 
-0.01734811265112297 
0.02223238660728117 
-0.002115802645319342 
0.00422738961924665 
-0.01243001203379846 
0.0363255224525847 
0.04047408776407665 
-0.01382493045893273 
-0.06322658550994895 
-0.02859971165127811 
-0.03264513893753391 
-0.0002900190359868482 
0.006389124205838028 
-0.007610715497313293 
0.009015929390283763 
0.008521310982113717 
-0.00795541235144097 
-0.01087621602908727 
-0.007860466930781164 
0.006607551360882379 
0.0245191820859784 
0.02664658504079157 
-0.04859165138194325 
-0.01874637609548635 
-0.01488276042707649 
0.01055190810572649 
-0.01843155799109583 
-0.0210770911364178 
0.01729001657430552 
-0.02351267753702987 
-0.01314220911654261 
0.0124024089788703 
-0.043186162696108 
-0.01789845739679656 
-0.008141137199766356 
-0.02600956784286883 
-0.01199330720238138 
0.003011818724352543 
-0.01783259052230446 
-0.00329974927497252 
-0.01016050266202155 
0.005402140727851364 
0.003592160234145038 
-0.0159315599123005 
0.005585228463914987 
0.01394550331677607 
0.007976043460561945 
-0.01676614291435911 
0.001284615103973808 
-0.01571750145803969 
0.03236140605072443 
0.02148874139825207 
0.008387377768441076 
0.02724269171208887 
0.0196781206748605 
0.004112317712757934 
-0.01320329041794897 
-0.01298780733823992 
0.01191536782982263 
-0.0223382918364519 
-0.004474016305034968 
-0.005515709879951648 
0.0275812455870296 
0.02253530669729741 
-0.004645332781743376 
-0.01258491044452231 
-0.01606568995648814 
0.01130590382963681 
-0.008230981410030423 
-0.01422503814003386 
0.01547370987009767 
-0.02349210758171309 
-0.01301964894485693 
-0.0008629121292659869 
-0.02395964312179055 
-0.01223640004785458 
-0.0095686575818659 
0.002032694468020303 
0.01043284831588873 
-0.008483460517416955 
0.005164247737804371 
0.01190617824621054 
-0.01129774856251398 
-0.03217290220118418 
-0.01659632361116129 
-0.0197978572628391 
-0.03052526465140247 
-0.01703777935948037 
-0.001781146250375816 
-0.003691144349731808 
0.001498268371347085 
-0.006285864031513263 
-0.01555108487735971 
-0.01896974874535234 
0.003046688287922096 
0.01046871457105364 
0.002729641675121412 
0.01255495084179361 
0.009866766258858477 
0.008818622636449183 
0.006024984370979263 
-0.01913512671151816 
-0.00700921085890321 
-0.01810208657308154 
0.033024539145627 
-0.004281421272502701 
0.03303571768594465 
-0.01712998713641016 
-0.008310734950469375 
0.002706439001561612 
-0.00533229924175458 
-0.00149731341482193 
0.001861013809989673 
0.001764495746329687 
0.002090826974174196 
-0.004500325010733036 
0.0185631469631691 
0.005309943952818366 
0.02706492259659523 
0.009688078889013402 
0.0119383082456596 
0.003797897667580484 
-0.01171293804697302 
-0.002421205787673628 
-0.02391772780896932 
-0.02500935344576233 
-0.01559064931316894 
0.01028534986021219 
-0.01504502167505578 
-0.004725271794214645 
-0.005145772665101019 
-0.02141388676828015 
-0.009748959188284514 
-0.0001370651304896638 
-0.007501678286043596 
-0.0002985296181611208 
-0.0006988438097423029 
-0.01929815825618054 
-0.008459925071787323 
-0.007191514038250622 
-0.0433594734923316 
-0.02511382934139872 
0.001308348542885215 
0.002324834215644669 
0.01002985450529238 
-0.007892570339809252 
0.02429200682223407 
0.01954253766389546 
-0.004107813871220903 
-0.01650600362361559 
-0.004336551435660902 
-0.002708898644175374 
-0.008782066992707768 
-0.004574526720714965 
-0.007058170668783093 
0.004592973048329377 
0.007799149418140407 
0.00802609981011101 
0.01254482092454859 
0.02396064967622203 
-0.02303773684780335 
-0.02524071721747051 
-0.009715709476135191 
-0.01297996430316921 
0.02064782528715967 
0.0121357568975948 
0.02875628030303093 
-0.007814955549784423 
0.0006801965612526268 
0.005730441052697373 
0.001096540038180534 
0.008003464553450228 
0.01328868178481508 
-0.02353055087415006 
-0.006362147634780132 
-0.003853922576637664 
-0.01058328054965713 
-0.006234494359909435 
-0.003475250513745653 
-0.00577146273869753 
-0.0003137290108639575 
0.00917083935123961 
-0.03703794374131623 
-0.01923653674456089 
-0.0006424122451617793 
-0.03456927212848366 
-0.00127300550128516 
-0.02256752122819468 
-0.0114325796205708 
-0.002460036246161007 
-0.0110693835043667 
0.007355462850065108 
0.005152916379034561 
0.0115209983050245 
-0.02202352742648121 
-0.01436615187457775 
0.007295999965561763 
0.01752860470181878 
0.01578172170060891 
0.02023569141684418 
0.04820383499593846 
0.007482720362648687 
0.004260648775427533 
-0.00749195294529813 
-0.0007605594301746991 
-0.005078489316029211 
-0.02268280849051405 
-0.004856642782882233 
-0.009210820478454311 
0.006498033421151466 
0.002889650355030009 
-0.01057088156904215 
-0.02040723162988134 
-0.008249103220971931 
-0.003603164238002218 
-0.01585134514230622 
-0.007624771265616868 
-0.00889830702455377 
-0.02923260824553698 
-0.01710441286263541 
-0.004838077031316869 
-0.02749978057930333 
-0.007076096848224736 
-0.00780324636327032 
-0.01852809957075439 
-0.007433904182067535 
-0.0009652592907072455 
-0.01447621499719021 
-0.03339409064691545 
-0.00108718396184909 
-0.0008732505342287156 
-0.006464464951767574 
0.01483994929158573 
0.00484010373821667 
0.0001820403366862229 
0.003708758606161297 
0.005810499710712155 
0.003718404898120625 
0.005374682525070165 
0.03104372573773508 
0.003883208846962337 
0.01953303230951909 
-0.01289049621194436 
-0.004058728353767678 
-0.006811028693914143 
-0.01369390312947548 
-0.005421870999689005 
-0.007297484348784575 
-0.03175731013238084 
-0.009788623402021464 
-0.008028880027575703 
-0.007516424024044461 
-0.001791255266400789 
-0.01487529926537987 
-0.03810202674648425 
-0.02083973860169018 
0.001652562302528694 
0.01018007213607314 
0.02276866774846208 
-0.003746720977287884 
-0.001759543244018858 
0.004751984754674739 
-0.003565466115925686 
-0.05614950019129139 
-0.02495448256066515 
-0.01859899461150338 
-0.05389099376589205 
-0.02406657901430085 
-0.004162563781147854 
0.008016491876889385 
0.00752996340841184 
0.003001808678156436 
-0.02749771177975792 
-0.01130766797286508 
-0.008991191808430962 
-0.007928180893510753 
-0.009865453068130942 
0.0009746485712218826 
-0.01888525166827301 
-0.009934644461185992 
0.006853803492629353 
-0.005349633561353568 
-0.002988127742467814 
0.0005928307210749751 
-0.02264466634847576 
-0.005765864220101035 
-0.03224879316150923 
0.01021252136204111 
-0.003655307644377656 
0.005593240464906023 
0.03311177556686591 
0.0329163336121743 
-0.008663000934038372 
-0.03386347070562262 
-0.01386952071999238 
-0.0131934235634804 
0.01558004453245755 
0.01569957729128646 
-0.006096526538195641 
-0.002468597963812319 
0.0007360965566532032 
0.0009721684000987968 
0.03401081973901381 
0.02521603241567305 
-0.0003123822218098825 
0.007284390968265504 
0.001639467279651923 
0.01096318280362073 
-0.01470410185408602 
-0.00922359246679829 
7.874732582058345e-05 
0.008105703392808377 
0.005687235906689667 
-0.002881502847971759 
0.012747821923822 
0.01106382934720166 
0.0001951185580000044 
0.004456333462478094 
0.003897593076604405 
-0.02656842341997565 
0.007953353145054456 
0.009654555270065601 
-0.0195513198911961 
-0.03971825428303084 
-0.0163809019578342 
-0.00841217054193507 
0.01290826638193211 
0.01608024876078204 
-0.0002599835622603815 
-0.01792074442523187 
-0.02877693659396998 
0.01804821979581828 
-0.02573779174746282 
-0.009804119284469828 
-0.01098536184253926 
-0.02108812344786093 
-0.007671630629119772 
-0.01262535707362101 
0.0002909318365474157 
0.0008762852470259874 
0.01592206052009983 
0.02508677383518631 
0.01742854604004324 
-0.004658944292174915 
0.01090987344823526 
0.01504654376096222 
-0.0003078214801464349 
-0.01889826031320298 
-0.003609913744406049 
0.00808578708858548 
-0.009527938977735458 
-0.001283547415187029 
-0.0004983789579121357 
-0.04525070655756253 
-0.01074666019415679 
-0.03812520464393197 
-0.0140177904141628 
-0.00330057850383496 
-0.01478637633626179 
-0.03354228655694518 
-0.01002706507616487 
-0.03392032781327123 
0.01283590414046078 
0.01272361212476115 
-0.005976043330549143 
-0.0008100704950972304 
-0.02508727048130902 
0.02798723290744239 
-0.04040863286569304 
-0.0113512310382649 
-0.01493036722370432 
-0.02823244907823283 
-0.01301348289102612 
-0.00387705302521769 
-0.006180681368241712 
-0.01487283443315783 
0.007037188640071043 
-0.008800667096029301 
-0.003479503314562453 
0.0001141857249809494 
-0.02769382126864217 
-0.0104702178435108 
-0.00914845278650844 
-0.03143032259902006 
-0.01472320029630891 
-0.0004861054734958454 
-0.0008761506563472837 
-0.01000977800562395 
0.01587745977854692 
-0.03431800846482837 
-0.009000242045143807 
0.004501202446040203 
-0.009665293608516541 
0.07273722178752252 
0.0669218778765589 
-0.02207915406696674 
0.02810878158197629 
-0.02735118829617226 
0.004704512305505091 
-0.000835896715857009 
0.03777734767321596 
-0.005170709813384205 
-0.003518799182123803 
0.005999953332684519 
-0.009289067361149589 
-0.006136476218142521 
-0.002099007233842002 
0.0006584332601923048 
0.001391652796828861 
-0.001728960543162245 
0.01528404392508306 
0.004187994203685331 
0.01543130950060709 
0.02055258266365612 
-0.005515776927594584 
0.02059979658272299 
0.01687749030869403 
0.008585199177068162 
0.01344652138475207 
-0.01781985753337266 
-0.00615032492328022 
-0.005853121281644822 
0.02289822084634779 
0.01259624018748141 
-0.02212917044689622 
-0.01566460338113148 
-0.00281439891389078 
-0.00563191791348686 
0.03148585376797738 
0.03422613823549039 
-0.003289247326419371 
0.01672168050417101 
-0.002491403719730488 
0.02500055903601759 
-0.02451075611122211 
-0.009208122395715619 
-0.01197291555751549 
0.04247266715509604 
0.02635459289764852 
-0.01514586266185757 
-0.01361048881091209 
-0.004214154792371836 
-0.004930737400145963 
-0.01466844044572805 
-0.0006432048747721068 
-0.004539630730158456 
0.02163305270907117 
0.01104937755326312 
0.008738316990540056 
0.02086718125721208 
0.00191312758915605 
0.01138829930750688 
-0.01752924292550816 
0.004219066153182946 
-0.02859073395654093 
-0.04247392180113818 
-0.02154739611789137 
-0.01171094895434338 
-0.01034698241377722 
-0.007004413711100012 
0.0153522385809209 
0.009771129617787399 
0.001372578937960152 
0.0004840219193250846 
0.04041894610423006 
0.02077380736022216 
0.01545706109134951 
-0.01571838287878547 
-0.008612842352783961 
-0.007892987629249735 
-0.01332679452068704 
0.0004224264192799486 
-0.01673624865021673 
-0.01381747919260543 
-0.006421759852467047 
-0.004394733023741764 
-0.01032473904307238 
0.002411976586426179 
-7.358674541168292e-05 
-0.0018956495291908 
0.007933934421445918 
-0.0126348979626227 
-0.01521319044890713 
-0.008407936978330978 
0.001630533373083061 
-0.02559904239548636 
-0.03222826049747012 
-0.01543529334279832 
-0.03155136938249031 
-0.008302501355116131 
-0.007842998578562809 
0.06835102134554724 
0.04319018732626952 
-0.0003183414533575827 
-0.04238379701426417 
-0.01894967823709831 
-0.009695021235797276 
-0.05039300918760584 
-0.01882870295529768 
-0.01727880118686631 
-0.00220739353215668 
0.0102812950958237 
-0.02326920740168526 
-0.007072754817653753 
0.005763148047586963 
-0.003323017453329183 
-0.003109900562028797 
-0.003975578579436942 
0.006857119033692148 
-0.003375602948856095 
0.00117652211150162 
0.00512430615191819 
0.0104780208483063 
-0.001649493005485582 
0.003062134985957669 
0.005333216973529169 
0.001094242644161463 
-0.0007270104959458868 
0.03371790648625476 
0.01000446846834695 
0.002196396784580894 
0.005747465686595112 
0.008682798292718924 
0.001147259142802084 
-0.01743717283447713 
-0.007686802276279583 
-0.01901856856994164 
-0.0177249422120921 
-0.001217137264333432 
-0.01730947668547022 
-0.003278452178056356 
-0.001129006162406461 
0.002005465023386298 
0.01799102343283533 
0.00488578292165593 
-0.01863298157948105 
-0.01976141999753418 
-0.0109358881651471 
-0.005705678843030107 
-0.009562764283654213 
0.006738427853426561 
-0.0299695224676648 
0.01238476138379099 
0.01797827477587307 
-0.01987217046631902 
-0.03561046013183886 
-0.01841283166909949 
-0.001720120352561956 
-0.04209186585337067 
-0.01636073451109969 
-0.006830889376561808 
-0.0297644289108284 
-0.01308781142197259 
-0.01671829158360607 
0.006677405987865057 
0.00235368906019261 
-0.002175048174438522 
-0.00620871633642418 
0.002933872110376865 
-0.02210920706953264 
-0.03000524226321149 
-0.01552117801368299 
-0.01067587026066926 
-0.03924762972608629 
-0.02117928710937823 
-0.009712962696928971 
0.0410156576831814 
0.01809731700271455 
0.0162520725100936 
-0.02064797426930406 
-0.02481579977540365 
0.03506792014107104 
-0.0433238151506715 
-0.03192831071412741 
-0.002326511791053924 
0.03927511674574597 
0.01656341775470339 
0.01983434154255901 
-0.03323817367269328 
0.009463875804302545 
-0.03125842777769276 
-0.007817933295081344 
0.005965901594868424 
0.02653658165824938 
-0.002375385335131302 
0.001990502501897185 
0.001450677532345148 
0.01302997375841422 
6.397942208155995e-05 
0.006825164485765277 
0.03541489595460705 
0.02425376746208303 
-0.004507202218459212 
-0.03876443904595542 
-0.003859882695870888 
-0.03769149796326257 
-0.01276191398274081 
-0.0007143526789232886 
-0.01282067335317092 
-0.02878183110291333 
-0.01119455170312992 
-0.017369866604346 
-0.03420836754294082 
-0.01522933840394827 
-0.01180420117173014 
-0.02368956425404806 
-0.01560226803521144 
0.002987285358251053 
-0.02082542870688896 
0.001727832485689201 
-0.01536356921812913 
-0.02465655073279908 
-0.01724322144668988 
0.02536110796308256 
-0.01410925338825321 
0.001914634526406612 
-0.02454351523129619 
-0.05905816339543765 
-0.0317672749804177 
-0.0212623479721921 
-0.008986224633801939 
0.009474305285111088 
-0.03550832192992238 
-0.007400163445975161 
-0.01001514598954487 
0.01006047911731945 
0.06069689445463382 
0.01802366385522469 
0.03230113808882473 
-0.02477122832408745 
-0.03012753503111445 
0.02269244908514918 
-0.01216579462744994 
-0.01251531510880654 
0.02128171789460683 
-0.0185485946975894 
0.01709337590262773 
-0.03630655671921424 
-0.02720016521270728 
-0.008546145864979121 
-0.01169297368603817 
0.01572334634231827 
0.01386550766386908 
-0.0005139566166882532 
-0.04214708098641689 
-0.03078803401202009 
0.02115366231595971 
-0.0105505085951134 
0.001886909533167202 
-0.01778359055257901 
-0.04864390985768962 
-0.009063873832072697 
-0.02716263017330834 
-0.02573906541999455 
-0.01156752573464237 
-0.003966830801816004 
-0.03880028376359933 
-0.01771902564130612 
-0.006533188245495678 
-0.02736174361578626 
-0.01325911771668776 
-0.007647350419521137 
-0.01886659104208481 
-0.009023308595341048 
-0.01247922139077743 
0.02040551544078882 
0.008495484066251646 
0.001371006550026576 
-0.02252263558008037 
-0.001517344132148409 
-0.03037109234182285 
-0.004327474886712143 
-0.001819925809982109 
0.005123065062096232 
-0.02840702586391467 
-0.01587241738796188 
-0.02288816678810102 
0 
0 
0 
-0.01926061116513975 
-0.01088084025287661 
0.005236993021826768 
-0.006125169965272501 
-0.01189244237355721 
-0.01402675860667282 
-0.01046673720497599 
-0.008356433174502591 
-0.003422233605303743 
-0.01408420589340781 
-0.009136425530003007 
-0.001281754014110922 
0.02317729731779899 
-0.007371241454879608 
0.02966017256330268 
0.00917297963503811 
-0.006787365353079408 
0.02505579350073563 
0.01919025477880415 
0.02697462725555258 
0.01439631717290019 
-0.02455876483322628 
-0.021152643633176 
0.03130990696416582 
-0.02436837261180234 
0.0001038880778302519 
-0.01242926960095917 
-0.02326120350957618 
-0.006650090622881249 
0.000789681990803539 
-0.04729917898942294 
0.02733853586515662 
0.01428092590933104 
-0.02957670605246371 
-0.01575691094204415 
0.003845382805673573 
-0.04974779067879423 
-0.01771312989523989 
-0.031507232436704 
0.03240705430082928 
0.0104568838779445 
-0.0002904555903715838 
-0.02480784704018616 
-0.01002837261305842 
-0.01021516909996069 
-0.03233602499382245 
-0.01706058844914004 
-0.005812997263077806 
-0.01980525395622339 
-0.009571733104272073 
0.0008972838057648599 
-0.007698742635024736 
-0.000281475066704761 
-0.00712284343269425 
0.007650250208165863 
-0.005585581934735445 
0.005508871316153833 
-0.02348166982096486 
-0.01133839897799239 
-0.00648587665285685 
0.004821579297990579 
0.003309643160093662 
-0.0218897479164428 
0.0231248094113039 
0.02166836348248085 
0.01458263706275402 
0.004426201121155363 
-0.02785232568945511 
0.008812678729429152 
-0.009589304221866411 
0.006992167672976036 
0.004472210907448156 
-0.01600590322656848 
-0.003592646722059676 
-0.01422893493198129 
0.00335987768254795 
0.006861206452737317 
-0.02458702548949486 
0.05132488605870543 
0.01286819979499416 
0.04156949463494305 
-0.00266110626325133 
0.0007919802219948387 
0.006832151617433684 
0.005263782697464899 
-0.002361480494784775 
0.0166012671871275 
0.008731473457161059 
-0.002545625775027756 
0.01858454771221456 
0.02665893682599017 
0.01344775754110343 
0.008159288733702783 
0.01738134166546457 
0.01337905006728317 
-0.008518567051011866 
0.03535788728348584 
0.00205875533319543 
0.04302591446028873 
-0.01865003376634061 
-0.006585220906913792 
-0.02216946036573359 
0.001129569873691517 
-0.009045673563932981 
0.01345782428768165 
0.05283365740080773 
0.007277881471030975 
0.03297243784160059 
-0.005911085019822173 
0.01650096594748019 
-0.01193037876821035 
-0.01151498003111706 
-0.009133606288552993 
0.0144976768422041 
0.008086603956356532 
0.002141418626305013 
-0.000169995917907309 
-0.02325530050081411 
-0.001664739001612624 
0.001770572143686913 
-0.007768783532446583 
0.005140402931737076 
-0.008252322294972168 
-0.02582959761108914 
-0.02716977961065632 
0.03783486000173212 
-0.001332775595810121 
-0.02307852600958823 
0.05133261975358274 
-0.01485787337587141 
-0.006369839305313967 
-0.003754031399486811 
-0.03160454005556097 
-0.006360807870477497 
-0.01231614608885688 
0.04447394114545433 
0.03757051953528798 
0.008456311461280909 
-0.01225321063879105 
-0.008057186605811879 
0.004284608006966178 
-0.02508114782791839 
-0.008609702205151367 
0.002221733495799312 
0.01722481742265471 
-0.01659884122299973 
0.0006189530233857891 
-0.01709157695016271 
-0.00427626786053842 
-0.02377477927755216 
-0.03004518423232584 
0.00459690831980311 
-0.02222401773702235 
-0.03258729434793078 
-0.02022048611635036 
-0.008968409364536191 
-0.007985264768356749 
0.005648011770888847 
-0.006865136027385305 
-0.0116588450693566 
-0.01448570165835931 
0.0003517152748025597 
0 
0 
0 
-0.01340710557518825 
-0.0003775784449267348 
-0.0001684813430426587 
0.004080080022191559 
0.003024679503737306 
0.01380060683118432 
0.02552957938483624 
0.02122899003964953 
-0.02417311900586866 
-0.04509823797465189 
-0.0249712380111612 
-0.006852068075137677 
-0.0145157615551535 
0.008610559660399851 
-0.00184929409919744 
0.001685683764804714 
0.005900728072447106 
0.01000227542738201 
0.02851774679482859 
0.02601934696387256 
0.01097030194434265 
-0.0009754736463531565 
0.007490373831484055 
-0.01074936937575543 
0.002529829069659243 
0.0006509313591538445 
0.002247875407293825 
0.03260418266524866 
0.01852161743617704 
0.003713873253243054 
-0.009206914363233192 
-0.01071511080112253 
0.002047889858512531 
-0.006503185450165852 
0.001983969500198836 
-0.002760712969140337 
-0.01484521947383945 
-0.00505052634063103 
-0.00664885572618183 
-0.03801620570128497 
-0.004294433888189219 
-0.05778473390850001 
-0.001213492053346793 
0.007868475324334408 
0.003225553553074044 
-0.008069695106920403 
-0.004749424615807364 
-0.003133733094553795 
0.02277435568179652 
0.02030541495598322 
0.009864090330830449 
-0.02983534149355933 
-0.01747422372113271 
-0.01782493035281196 
-0.02460945985527547 
-0.009038783311530895 
-0.009983304688279335 
-0.03078187722392933 
-0.01397363026343095 
-0.002447257577322373 
-0.01599191605768004 
-0.002008684583821206 
-0.009934613993263435 
-0.02313190336970341 
-0.01141521125876415 
-0.004252797022579377 
-0.04367770774728283 
-0.04332711779081237 
0.02848303218980768 
-0.02428831909473634 
-0.01265419842254619 
-0.001690706637459791 
-0.04249220521465358 
-0.01666632516903132 
-0.006172664581152452 
-0.04825669271736659 
-0.02573721633354086 
-0.01224218078302819 
-0.01065080008015372 
0.006374851470319833 
-0.03962310274912886 
0.0228328090859214 
0.02118331878907618 
0.004669643241480293 
-0.02686207932653534 
-0.01231634290796467 
-0.007354817404273346 
-0.01292590379709851 
0.002321562618925401 
-0.007449643979818165 
-0.03260468127161689 
-0.007359817386257994 
-0.006973326679229053 
-0.0222194722587226 
-0.006701416118957642 
-0.02717548517458137 
-0.01050647464970649 
0.00290426422465966 
-0.01599687890937531 
-0.03720093913832553 
-0.01235448590925999 
-0.007137004064992611 
0.005375821614717461 
0.02034261839205423 
-0.0051865887918108 
-0.01877932136582519 
-0.01031174434693736 
0.01061121672501705 
-0.0005722679499221659 
-0.0003902697096125988 
5.950578058476295e-05 
0.006074367759281957 
0.004628747306285781 
-0.02833294894240429 
-0.03168159289711776 
-0.002669896733323534 
-0.01319967005999909 
-0.00737065569762403 
-0.002265789454547848 
-0.009229595965344626 
0.0125518222137512 
-0.02917754453469667 
0.06582747569820586 
-0.03014154269199836 
-0.02365968684463557 
-0.009247367626299782 
-0.0139711463235956 
-0.01008181253544996 
-0.003925967059250017 
-0.02002770954370193 
-0.004852430032728763 
-0.01233470681239039 
0.0106999642628206 
-0.0001244439124902742 
0.01761897915773347 
-0.01888138787186344 
0.02358774563708397 
-0.0340840840516019 
-0.03442353945522939 
-0.01855954204982365 
-0.001182344930009908 
-0.02799536626903016 
-0.01229364844268949 
-0.005663138864666277 
0.04375254413989584 
0.01714311445704492 
-0.008977147131372125 
-0.03887874147455856 
0.0008085168202429071 
-0.03036075067302382 
-0.006894037200735411 
0.0005240017034891214 
-0.008864306398797796 
0.01469738990032677 
0.007354102692602767 
0.004772822907821752 
-0.02595905687657494 
-0.0139174468250462 
-0.004299190247475893 
-0.04487564080515866 
-0.01900989091677932 
-0.01445970903934187 
-0.01411811344886195 
-0.005020025388782167 
0.005805956279812904 
-0.009489568350736175 
-0.00232397702663887 
-0.006000814885130219 
-0.02202758759965699 
-0.003483764300570309 
-0.02764262038209908 
0.008845289158084453 
0.02625323642551491 
0.005289627497812197 
-0.002353389821016806 
4.713832077956208e-05 
0.0001209988776801161 
0.04956887670555162 
0.03045530663044383 
0.02378287277738926 
-0.02190644798320651 
-0.006128429010323415 
-0.03638284530602842 
-0.002541452336857929 
0.005368175192528309 
-0.003061735771065081 
-0.005262732724637166 
-0.002500073868755008 
0.005146774811744174 
-0.01237553912079301 
-0.00659299065390216 
0.02096642370153033 
-0.004270225458367783 
0.002170832230696692 
-0.01174028001526177 
0.02619669546015903 
0.0225696551800393 
0.003348489056620993 
0.001011274953568425 
0.01639114350951196 
-0.02734616270752125 
0.01558441938386361 
0.01446843526048807 
-0.008431483997631677 
0.06398708257001628 
0.03265876096992187 
0.01754217111090193 
-0.01271949869712428 
-0.003834912130084038 
0.001146302120867984 
-0.02214974939861286 
0.002080283526832366 
-0.01063401501670247 
-0.004725200990807295 
0.001793242535042508 
-0.00874395241294554 
-0.02652700143853486 
-0.01056451028893209 
-0.009461041029338094 
0.002768982517811719 
-0.004891451677916035 
0.006721320223340277 
-0.02829429074244541 
-0.01728795100399537 
0.008737530460427658 
0.00154979410554479 
0.00498325591884401 
-0.0001741975804607794 
-0.01874126003902613 
0.003654776484863072 
-0.02187375730187579 
0.009378001872689631 
0.01817496737781353 
0.0106375438101803 
-0.02877242661729447 
-0.02093809546321227 
0.009565488246336157 
0.01208777519473051 
-0.004662159702123973 
0.0266340824456187 
-0.00461465922992056 
-0.004325919694260993 
0.01049627597570956 
-0.03341706401682636 
-0.01890805506671675 
0.0008968691961248107 
0.004383095059147109 
-0.002469975030928354 
0.01509570434299894 
-0.009965556613294853 
0.003730996298992205 
-0.03750418660188235 
-0.01248711631371494 
-0.01804150365674498 
0.03568303052277972 
0.01609744864817559 
0.005616289234105709 
0.01550347182073798 
-0.008047478162658318 
-0.01074307805230417 
0.0046714997044019 
-0.01588572048045087 
-0.007136901480298919 
-0.009020695772095884 
-0.004987704442901283 
0.001463516757975092 
-0.03730372077691829 
-0.03434028146208313 
-0.01735802867064849 
0.006131329223444755 
0.01999248396029589 
-0.01454682244443429 
0.01444499632536924 
-0.02520825273832617 
-0.006530840798534932 
0.0005424775810425958 
-0.01882267209886587 
-0.00905987216468224 
0.001635198991997481 
-0.02272153161924191 
-0.01612721941073445 
0.008571551005447405 
0.01051971970902179 
0.01705745514000742 
-0.007723528885878518 
-0.01517457209209769 
-0.008758737341558999 
0.01215175251779601 
0.02122050795546158 
0.00189012564241969 
0.01978003200972429 
0.03831513350545288 
0.01614973397210756 
0.03444095812000077 
0.01216091272520194 
0.01571406349074953 
-0.00682044847551768 
-0.01113836143443203 
-0.004925525635637759 
-0.02769831657949081 
-0.04337722591691892 
-0.01380750491353076 
-0.008659221622159093 
-0.02092826739981633 
0.0007316262720859628 
-0.01879577990025007 
0.000240842149596371 
-4.508748049392402e-05 
-0.007555244836332036 
-0.01990626071062699 
-0.01177247621693894 
0.003660205819986801 
0.004275443448506795 
0.00156467572995613 
0.006279653099146542 
0.005807598683213792 
0.004330442545913769 
0.004458847533182951 
0.03185947899057245 
0.01936405823146019 
0.001471207468361208 
-0.01450387478156006 
-0.007296498592422173 
-0.01039311573079646 
0.007674567605553176 
-0.006952910099223892 
0.002609549785606012 
0.009348658168946974 
0.01088144729880262 
-0.0232825051185499 
-0.006368138396785061 
0.004737340731367315 
0.004291014542029931 
0.007576825787129782 
0.006902308739601484 
-0.001911471114081775 
-0.02969184030356583 
0.009282463817914645 
-0.005818852930270181 
-0.04261952250661274 
-0.01325679807678987 
-0.02026173641020474 
0.004819315820761852 
0.002317099691347091 
-0.001923676429410439 
0.0162065224552254 
0.02134618059444638 
0.002962083954439608 
-0.0082755185855197 
-0.001179034729558565 
-0.01219654467715263 
-0.02094152026383497 
-0.008717021056307431 
-0.007621473241193601 
0.0121013795097477 
-0.003393610939153802 
0.02751354939891039 
-0.006443705223212221 
-0.001710731124130655 
0.004135175786976056 
0.00522710410322216 
0.005693697735932022 
0.02071163814833934 
-0.01733007703247277 
0.00648512916492847 
-0.01084669648011925 
-0.04344804405511562 
0.000318267397457041 
-0.03046186072575113 
-0.005962790285605107 
-0.011906762602433 
0.01818884936109383 
-0.0136984471666364 
0.01766513800808909 
-0.05036831811339113 
-0.0463702959123099 
-0.02579728554320674 
-0.02135017060436261 
-0.01582186661629271 
-0.0006784632395167583 
-0.01705891376194461 
0.007231626330794647 
-0.007729954277778283 
-0.001129100356395102 
-0.03009830540893352 
-0.01076021092276681 
-0.01382238802732663 
-0.01740406647537595 
-0.00391946984186229 
-0.01483490643836582 
0.009617673096959704 
0.007151542662525005 
0.01491531095674825 
0.009934365850702983 
0.004819256004271138 
0.005367668407318804 
-0.0007934251425897479 
-0.0004205240261192483 
0.0003858566619120868 
-0.01143275731095166 
-0.008627127090478486 
-0.008573237555416455 
0.06553694309151757 
0.03740846071887222 
0.01674710668275125 
-0.02521903887793442 
-0.0257429925122816 
-0.003908625663059236 
0.05322239609489884 
0.03014498247723073 
0.008676663534947539 
-0.03863789853680292 
-0.02162934964407762 
-0.007870612234781516 
-0.02474848431925267 
0.0007974077392457179 
-0.0109759811380037 
0.02688552721226221 
0.01726223492876327 
-0.002843152014700367 
-0.1044886706160555 
0.006976120143463597 
0.07753753040190509 
0.0005180145431158087 
0.00256588382055135 
0.008817868195012292 
-0.04467213991804741 
-0.00403645627485253 
-0.02487565390580356 
-0.005951815630312093 
0.0009862250648750037 
-0.001893889927977271 
-0.03494559007287874 
-0.01340280335844571 
-0.004085925635864905 
0.002279050355103383 
0.0116501914299222 
-0.0110920838506249 
-0.02210146765274923 
-0.01389020050046534 
-0.0008433946438202896 
-0.006433813424636443 
-0.003248304757916326 
-0.001823213121339171 
-0.0007530685809301224 
-0.009271250895327507 
0.01579073611240902 
0.001695663491475191 
-0.01350584410901001 
0.002134613365659227 
-0.02675823061237848 
-0.01539656768753464 
6.983519466490686e-05 
-0.006206119977766003 
-0.0004864674868572072 
-0.007443023532993478 
-0.02168605863093778 
-0.01135173134354102 
0.005466316703113043 
0.04314403445970313 
0.04064327034039113 
-0.01931542195942686 
-0.01114492056778983 
0.005650287949306896 
-0.004594290149928119 
-0.0658703026281386 
-0.02484053114420832 
-0.04179049352646475 
0.01258664885997211 
-0.009859774872229875 
0.03306905606881928 
-0.05928808870491265 
-0.03088531536170991 
-0.004160617905067179 
-0.03639843310018723 
-0.004333218873215749 
-0.01593382297887967 
-0.006519391655883403 
0.003720270802324384 
-0.01747458692619713 
-0.05959922877395881 
-0.007833642475533356 
-0.05826596685732398 
-0.02158647721458925 
-0.01474470628834061 
-0.009954157949655967 
0.01227454206445311 
0.00416029487594128 
-0.005689938966325342 
-0.005553984807960723 
0.001305092664513844 
0.03350678323820864 
-0.0006478700217955324 
-0.0003011335657766354 
0.0002879880662161224 
0.02455762954367066 
0.02237158719438325 
0.01344411193751367 
-0.003081398671718653 
0.006261743876328355 
-0.02236334423194272 
-0.005202414931034683 
-0.01472315170800112 
0.01334298258919636 
-0.01238341509929463 
-0.005189191612732408 
-0.008661317780214745 
-0.03713233133631609 
-0.01500442758786123 
0.00234100981725588 
-0.01989337145161626 
-0.009429430539577229 
-0.01313424219218658 
0.04779568507543589 
0.0249704718360224 
0.01296486696402083 
-0.03245606896673513 
-0.01863749420474408 
-0.001799520781323052 
0.004547972396757726 
-0.000502903740756357 
0.01319101204677279 
-0.0006798045474605005 
-0.00678032818706497 
0.01386416057866178 
-0.05496395919086198 
-0.03328505983823118 
0.01005479129627567 
-0.02454315051395944 
-0.01038952441510696 
-0.004252890132691378 
0.006872300626671732 
0.003962312454430772 
0.01392693571738376 
-0.007694533613357579 
0.003543354523777485 
-0.03662630206208278 
0.007119982839601666 
0.004404462746605151 
-0.001998677378108439 
-0.01181036205799826 
-0.0462969676567438 
0.01305147526036213 
-0.04209704871837802 
-0.01367781034115276 
-0.01272174686580002 
0.006134066114038674 
0.01038337081228643 
0.002199343199443711 
-0.004538604571816496 
0.01012046151499771 
-0.01906340040675014 
-0.01466897182622683 
-0.007033534103525131 
-0.004146583851555303 
0.03700431715114889 
0.03104350693954928 
0.007586134431227329 
-0.04370228788747743 
-0.01768363474607137 
-0.02213048293666297 
-0.002019384425051717 
-0.003206903463697482 
0.003732103203856753 
-0.04268670322992501 
-0.01414456777431357 
-0.01263649307123831 
0.02989229528691194 
0.001669157582959008 
0.02360390965592788 
-0.01918320186326688 
-0.006581842518301473 
-0.004914940820353426 
0.03889414331484739 
0.02028316464514978 
0.0210766321019637 
-0.02149912617622256 
-0.009978596475966205 
-0.0003372896132071161 
-0.03795334755169789 
0.006962594556240246 
-0.02507004710649365 
0.03596248925058345 
0.03101456415389682 
-0.01440847947847974 
-0.0601377857170156 
-0.02997002080337949 
-0.02041834459836053 
-0.02386750581707692 
-0.01295047110045861 
0.0104120538570234 
-0.02486345085614212 
-0.002817454902582202 
-0.01961683808106353 
-0.01156966273294845 
-0.01167813986283239 
0.0003547848222879844 
-0.01820652697997317 
-0.006833745461232651 
-0.002747104232382722 
-0.02697692709670461 
-0.004011357441288155 
-0.01919354235283127 
-0.06320139377719837 
-0.03008078501160094 
-0.03460368747121825 
0.002270841465702073 
0.001046497768745124 
-0.01557944039890035 
0.0158554319253654 
0.01220755810124084 
0.01898407200191366 
0.007887305722834153 
0.01125465727683341 
-0.002453279712711106 
0.01895423372445133 
0.01325334326606745 
0.0009975200524575583 
-0.01189705547382014 
-0.001658272824075147 
-0.007113210868663998 
-0.008946831694648466 
-0.008496882460106596 
0.004299266488981992 
-0.06460490862959087 
-0.03511251453380197 
-0.01388976914072707 
-0.05264469738618788 
-0.02548197057016496 
-0.01715295539316192 
-0.02979695231209666 
-0.01498281207808902 
-0.0001739011441700813 
-0.009379189928979754 
0.02554418612281176 
-0.01030995170899765 
-0.02870063564171961 
-0.01336161330617228 
0.001063263649268439 
-0.005971658415986508 
-0.00683458362181036 
0.001201330381061202 
-0.06566375814039968 
-0.0249025435639153 
-0.01448586215983737 
0.02984169764766612 
0.01023282715701365 
0.008608753298159705 
-0.03317591650603846 
-0.01662667967718177 
-0.008100983443609152 
0.001275931040105857 
0.002395254710639296 
-0.01043698083147244 
0.02063852040229481 
0.01688665050688911 
0.007427366585707612 
0.001558836169465692 
0.001157630517536484 
-0.02124697200295329 
0.01017796305372281 
0.005856955380305963 
-0.02129330204193578 
-0.02565542309508488 
-0.00492264412587103 
-0.008830227684364205 
0.03336829162144302 
0.01745625466517469 
-0.002582303021841456 
0.01058016315391865 
0.007161374866175472 
0.001487239190226351 
0.002924112336358143 
0.002167799856263002 
-0.00756089422301355 
0.008995651906278247 
-0.0003151879538965751 
0.01956047392811004 
-0.005358866751925005 
0.00332096046433173 
-0.007952004015984612 
-0.01671539928313029 
-0.01095505589710394 
0.0008603832698277439 
-0.05546950690061973 
-0.02719712486587413 
-0.0525803703174258 
0.005701715979506197 
0.01156040580143976 
0.004457717906645276 
0.03830372575544319 
0.003104823739126121 
0.02903392738812444 
0.001163936566653545 
0.008900789591642106 
-0.001027295548507584 
-0.01143214255642075 
-0.001390863403574053 
-0.00632572486347632 
-0.01516002704583798 
-0.007974772183405216 
0.00282681664169028 
0.0139611906623062 
0.00897045891328853 
0.01878797793169835 
-0.08814050312555879 
0.02243580903578688 
0.03281766090022149 
0.01071654213098216 
-0.008036879524779196 
0.02349743221217684 
-0.03627346187559023 
-0.01654337520744444 
-0.005178569526582572 
-0.02647901052542531 
-0.01749718353927724 
0.02270580840987408 
0.02701704264072702 
0.01205146087415552 
0.007820391230974147 
-0.009699546702432438 
0.01246304497685163 
-0.01086258864208527 
-0.001206065368563255 
-0.0005070949003445595 
0.0002734427729435838 
-0.04303559602371671 
-0.006377517716463561 
-0.03202643532879073 
-0.02617494014925638 
-0.01909795870109379 
-0.01000034941260966 
-0.00651165049511518 
0.006302882344334841 
-0.01950022489167139 
-0.02716713780795603 
-0.01594183547004824 
-0.004004395245466546 
-0.02746579948490385 
-0.01132205633770649 
-0.004983499528602957 
0.03007260587303151 
0.01903912208178453 
-0.01478498340215793 
0.03466802663051599 
0.01929698678391605 
0.01600317022618946 
-0.04728749093836886 
-0.01839913970407757 
-0.02048756486953344 
0.04037624769096674 
0.003286009278424898 
0.01246517368469858 
-0.0329051104172079 
-0.01833023943102354 
-0.005911670318201368 
-0.03127997332061267 
-0.01488065794977182 
0.006165886018278167 
-0.05290905426699675 
-0.02413275972676264 
-0.008153654558284974 
0.03065506299903512 
0.01882928179118545 
0.01512443986538187 
-0.02814582012652415 
-0.009850694801452028 
0.00108204426661652 
0.0391775056147823 
-0.00665784518606647 
0.00257115902775706 
-0.01355567162212537 
-0.006825647146791639 
-0.004395166842233933 
-0.02595950389030404 
-0.01566281518405601 
0.005192719801736896 
-0.003442743562884046 
-0.004768353196888079 
0.01302594923217274 
-0.0624819398538205 
-0.02589792384785515 
-0.01284591658190892 
-0.04032700458576992 
-0.01683801369483096 
-0.007835543553837086 
0.002890927066227521 
0.01764972146577815 
-0.01821194074082912 
0.03012122413306864 
0.007735709860857458 
0.03416044738469304 
-0.02332158334470062 
-0.01100849596758506 
-0.00247923634863139 
-0.001589177739745776 
0.008414820074924209 
-0.004739244797072077 
0.0573082209783806 
0.02064249737346932 
0.04653667218963074 
-0.006922535891189928 
-0.005510419549848597 
0.01156773843575519 
-0.01167138699969877 
-0.003013355872320444 
-0.002755894697468464 
-0.01822758293635258 
-0.007972632736475947 
-0.009361760515997436 
0.003274177619994794 
0.003580448475563928 
-0.01883119987949832 
-0.04274041830676857 
-0.009203856963294881 
-0.02189751767930681 
0.006972132661900204 
0.007003039542997099 
-0.002352309808685931 
0.0429059687527608 
0.03770049695075951 
0.006373251436960916 
0.0121955011284704 
-0.01003928997206871 
0.009707674541772933 
0.0002043441295488669 
0.001249183363763279 
-0.001907631717307172 
0.01826910535242799 
0.001288585302429884 
0.01919977930807735 
0.01952787719905027 
0.01481985540500131 
-0.009776465543998249 
-0.009570272561620061 
-0.004560433722294042 
-0.002182306954831041 
-0.007651774935391771 
0.01609329917531787 
-0.032703317679079 
0.02610032892201404 
0.01027100349657352 
-0.0001785030417755707 
-0.08079849558057221 
-0.03652787225921751 
-0.002976583085248066 
0.002357424360418782 
0.008078654262963378 
0.00339673857273272 
-0.02453107997282155 
-0.003577328472090552 
-0.006504270284581633 
-0.02344693108924207 
-0.01529261184497277 
0.006536668410371733 
-0.01425261097586627 
-0.02394295838302674 
0.02361444259740871 
0.009201023995866394 
0.01486855777598996 
-0.0005057554282008888 
-0.07538801836652964 
-0.02970135682954223 
-0.0283809270416705 
0.00715858429904485 
0.008788943355597772 
-0.0110249528768617 
0.001435434106843014 
0.005413113522818282 
0.002785504565257783 
-0.02075582827117781 
-0.01407027836795482 
-0.005690566959570247 
0.04056728604921506 
0.01964412698269946 
0.01476956116865633 
-0.003728898479335707 
-0.003180737316276698 
0.008816704967981051 
-0.04709361422778011 
-0.02079518156021427 
-0.01266980982955074 
-0.01670774147535614 
-0.02021849354465707 
-1.765795676250717e-05 
-0.03079611748114282 
0.00153567984285958 
-0.01655541426473769 
-0.02712366463156645 
-0.01301777797283056 
-0.01877208092108557 
-0.0368867253437184 
-0.01228370058922995 
-0.01960647704238027 
-0.01843716154976956 
-0.01555319457750598 
0.007015568900751111 
-0.05220255032418525 
-0.02814902017107407 
-0.005787438127944087 
-0.009206665212939821 
-0.009284655576909506 
0.01378764652220318 
-0.03722553912516855 
-0.009993021854182238 
-0.0112299134925396 
-0.01209827394916643 
-0.001880552655839583 
0.004127561168889107 
-0.03184957665404119 
-0.01161355273948808 
-0.01226434461634145 
0.009760450040290646 
0.006513637824933376 
0.01631460185757653 
-0.0262384180547173 
-0.009929688623671159 
-0.01752765387991745 
-6.762821014499912e-05 
0.003402813601165857 
-0.006234312593014254 
-0.04281355120922133 
-0.01019707067077263 
-0.01800789406466078 
0.005621887495290706 
-0.03711146978457989 
0.01133105830073973 
-0.01207430363598717 
0.01712690305691347 
-0.01435386433701663 
-0.0323935363440865 
-0.009351469974728936 
-0.006516432035693058 
0.00711435756312148 
0.007617572394580486 
0.009268672509036716 
-0.01686657101373047 
-0.007412968242830828 
-0.000882559173365257 
-0.02398681754141902 
-0.01436985737805853 
-0.002065428186281409 
0.0104433045067698 
0.00357924226796125 
-0.02338143338016742 
0.0228051306567032 
0.01406416651017663 
0.005658131426582812 
0.0230507193249373 
0.02067178609382085 
-0.008766605984211841 
-0.01668270339548541 
0.02060605392982351 
-0.006725417822237416 
0.006685304189411752 
-0.0005551752363811702 
0.01116927905281571 
0.03883602062168346 
0.02710638191229476 
0.00295923966645115 
0.0184340896498477 
0.02722455970932023 
-0.0383683809558111 
-0.01783367523609932 
-0.009079487664034503 
-0.007236604216365905 
0.02714011865437642 
0.01080947526199636 
0.01098210225261579 
0.01153508913552428 
-0.01629510847500155 
0.02183770771486365 
-0.02463503198545383 
-0.009487519464582856 
-0.01882356801623763 
-0.01620505474624664 
-0.004598455674023482 
-0.004208634020025874 
-0.03126266011520502 
-0.004676665207723139 
-0.01667013049988915 
-0.032368609547361 
-0.01531775373349701 
-0.02500271267672281 
0.01549093473076952 
-0.002050721078315978 
0.0001766115507224298 
0.004691683840998639 
-0.06379555345287909 
-0.01672438719096717 
0.03862275757912176 
0.0193188507170275 
0.04342847925619917 
-0.02204064923517008 
-0.0001218714505406588 
0.001743634538845409 
-0.002510054874801217 
0.00784539308350319 
-0.01302420053869643 
0.04302650844136269 
0.01716026655579887 
0.02406765061026651 
-0.002792866929447334 
-0.004458003168295741 
0.003241470820555546 
0.002127551132663285 
0.0143235794440865 
-0.02095663046373145 
-0.007952355570717926 
0.002507938124473066 
-0.01284346090543234 
-0.02848585915264844 
-0.01667759242049455 
-0.01573518654089175 
0.01851251388641038 
0.01633126069687657 
-0.007377938966320291 
-0.003767135931706563 
-0.009761080955352053 
0.01017963020800252 
0 
0 
0 
-0.01110325125696088 
-0.00741199723860974 
-0.005532242633569892 
0.01039639757343612 
-0.009264792097888106 
0.02877660720068391 
0.04986468426800292 
0.02090520776158717 
0.03103473805586218 
-0.04576428944948684 
-0.01373017331358454 
-0.03429531503107692 
0.04156643123548505 
0.03163987942573807 
0.01526884559008319 
-0.01731100769752418 
-0.00586950303401128 
0.002532467615399056 
-0.02073752618393139 
-0.009403636393606436 
-0.003586634832828253 
-0.03241781680045151 
-0.01270412135716498 
0.001071734396594373 
-0.03524218578729953 
-0.02217761542646738 
0.00472870418596947 
-0.003009738472245014 
5.149368121774144e-05 
-0.00752859944853079 
-0.02839064246912624 
-0.01257732888490071 
0.00165821893477241 
-0.03247667048995225 
0.01280230386737694 
-0.03039526564771172 
-0.02416635880480329 
-0.00763850078712251 
-0.004748289733026469 
-0.03481860567945629 
-0.01199598450342122 
-0.006928235447591508 
-0.0004740624913442679 
0.004295039104397791 
-0.01710290593209868 
0.02465184304707227 
0.01976002820357961 
-0.007986226345103506 
-0.03043832197264681 
0.01023678793331916 
-0.01228255194866367 
-0.0267654311027153 
-0.01194847514703767 
-0.008848675212887893 
0.04878821775442405 
0.02091002664600468 
0.02801666153079036 
-0.001361934886383139 
0.01837191978951437 
-0.05587359575458035 
0.04101371930696963 
0.02828581395340076 
0.007370880786615039 
-0.008714987101127855 
-0.002717051523978046 
-0.004311598392589207 
-0.009511146708412965 
-0.006518600707906604 
-0.01120157319667792 
-0.0121316592266701 
-0.001770621734909346 
-0.01592952170788977 
-0.01899643643731684 
-0.01108203600086625 
0.01424112202971788 
0.03216804736135084 
-0.000788941326754255 
0.0346247362555548 
0.01227958969273939 
-0.009529972429799711 
0.02543924365071215 
0.0340959332848307 
0.04295012173465631 
0.006902705735223188 
-0.006608585860648501 
-0.01540226760183773 
0.01103112396695562 
-0.01408905656330853 
0.01862016038184118 
-0.00780590500961031 
-0.006413591255418579 
-0.003453203696259991 
-0.002065959174663805 
0.01462198719483044 
0.03123225920375629 
-0.006886316282784348 
-0.02455049695217863 
-0.01178958626663038 
-0.006398842004711873 
0.003061744762546594 
0.003325769715646157 
0.009114147756482414 
-0.00514180717219856 
-0.01113277030070404 
0.01442783215108675 
-0.01092406377916444 
-0.004380984278450292 
-0.001662077196596614 
0.03952026758550008 
0.03281370986840178 
0.009576176748335439 
-0.04699456977154419 
-0.0241112863444428 
-0.01090383193446168 
-0.04271015068946109 
-0.01800391499424665 
0.001675636605932022 
0.002184603734867918 
0.0115101472539311 
-0.01867240950393873 
0.01354970195961778 
0.02016148034681504 
0.006132763852925565 
0.007032917921843972 
0.01426543197537863 
-0.01451016408970023 
-0.03410737334581505 
-0.01650468881550059 
-0.008533274253676362 
0.02170921992888075 
0.00989246110394618 
-0.0037038364806776 
-0.0138354442850145 
-0.006862150748756517 
0.001371247501746357 
0 
0 
0 
0.04349337978717849 
-0.001114760232447479 
0.04156283462635239 
0.002110015789067754 
0.003286392644773474 
-0.004346814921011933 
-0.009797782728482736 
-0.006098341019097801 
-0.005422158763944021 
-0.02140306239936278 
-0.012722855482396 
0.0009209704950995463 
0.0005889870387180512 
7.013036935393061e-05 
-0.004028345216184603 
-0.01707016737015438 
-0.003007376178213722 
-0.018530053478947 
-0.01091521052895411 
-0.00589032069888361 
0.00542511063018899 
-0.009213185194225504 
-0.004574832021551371 
0.004006755513135746 
-0.03766374188470717 
-0.000981107369132069 
-0.01539866301050399 
-0.06857669791118644 
-0.008009616011701064 
-0.05951939959006279 
0.02008078663924296 
-0.0008016297597676248 
0.02120080646460544 
-0.01054572310859724 
-0.007856193778707098 
0.01037770552050444 
-0.05895832657514982 
-0.0351741909654196 
-0.03388388895484412 
-0.02052918973481542 
-0.01060952686778995 
-0.001015230390673159 
-0.004111402532097568 
-0.002786972324851045 
0.00286475220123895 
0.03633942767645183 
0.006227305766228431 
0.01389087649579302 
-0.04743912207280495 
-0.02576989435329288 
-0.0181058001000347 
0.01162028325250818 
0.01587714223254498 
-0.007623128960818095 
-0.02306929520630395 
-0.01194742074926535 
-0.004832347660524479 
0.005766469494902161 
0.002544932354329672 
0.006995963182332482 
0.01648781817254759 
0.01055684891559948 
-0.002640770300441839 
-0.01328104092822863 
0.004031417412475356 
0.001974413611895237 
-0.02297349127354688 
-0.02312291294473196 
0.01827319084111076 
-0.004812637964935051 
-0.004091804807197737 
0.004188367151098654 
0.03701135069866628 
0.02008792705068066 
-0.00706145878809871 
0.05086446185059944 
0.0003230073239204661 
0.05332623213242653 
-0.03718007662179844 
-0.00889008827058298 
0.009243702335759928 
0.01445125658178293 
-0.008546025273587554 
0.01245190995432113 
-0.03960975794206598 
-0.005791055960125233 
-0.01718435839145849 
0.0201704300185466 
0.00572474420309519 
0.009332260563483479 
0.008087714871182549 
0.002054667837797649 
0.01560734250563217 
-0.01649847786491601 
-0.004613088550450548 
-0.01011424948607237 
0.02263099550418305 
0.02218600514984155 
-0.006974295002630741 
0.01351425069183429 
-0.007024713553646057 
0.01363723249717275 
-0.03448727381238084 
0.003574002585569991 
-0.02798495942187868 
0.02063119031325673 
-5.763397441831085e-05 
0.003287047319315574 
-0.07987093424122993 
-0.02931485887198529 
-0.03213104005435456 
0.02059674120698601 
0.0107721215786355 
0.02327688273660211 
0.03407795009872724 
0.02419347160301793 
-0.0118995018878508 
0.03057235788828712 
0.003624586847248435 
-0.002855782642721546 
0.009556674530689469 
0.01123456407922538 
0.01649955192240854 
0.02625188401222962 
0.02266206893037926 
0.008098195460155342 
-0.07445866632807523 
-0.03934527364500152 
-0.01316144840007718 
-0.02724270634808454 
-0.006271562307320138 
-0.00754550798234788 
-0.01495448417984203 
-0.002696426885548002 
0.001849681493230843 
-0.001432536780184169 
-0.002422033963399267 
-0.002232015912676463 
0.02019228801167031 
-0.003701199020743681 
0.007120586364745102 
-0.01567228042256551 
-0.009711570721301953 
-0.01321323377965968 
-0.001273027953369172 
0.002933305664736106 
-0.003150361013729059 
0.05198848289905895 
0.02322208333607313 
0.02822127407126732 
-0.0005328562582072231 
-0.005675480306201174 
0.01346781093949243 
-0.0234889678794313 
-0.004327276285249134 
-0.01444351247027077 
-0.02249423070120456 
-0.01018849858848907 
-0.0026908792460293 
0.01247806979503949 
0.009872688484113254 
-0.009747881757213311 
0.02548280278460991 
0.01624274658701636 
-0.005369003958957142 
0.008890143673784627 
-0.0007970991831219193 
0.004581718586096517 
-0.006703211147550586 
-0.001769059096477222 
-0.005077396410727008 
-0.0001512227639253876 
0.003674501391656815 
0.00155391593298198 
-0.005749670609908949 
-0.0003111690519997656 
-0.01248122544766075 
-0.01796424774680931 
-0.0127906828122576 
-0.002896612198137914 
-0.02121925582305302 
-0.007441598279064371 
-0.001507716785483799 
-0.0275228621653304 
-0.01195424177624463 
-0.001801049847044426 
-0.0285167021376323 
-0.01750918064371268 
-0.006066509129881428 
0.005331325418178985 
0.003084406421723361 
0.00184267846283449 
0.005735034220055138 
0.008604680681206289 
-0.002565155507988258 
-0.00321209060695726 
-0.001203211582852822 
0.000936930777263705 
-0.0004484919581922037 
0.01222235373373813 
-0.01794994897690589 
-0.002857472255272792 
-0.00280883985244802 
0.002639672888178957 
0.03677986998666714 
0.01404354962361671 
0.02411300638195358 
-0.01839306675448745 
0.0002029286314484554 
-0.02839973227781691 
0.01128388901531847 
0.01179578399822965 
-0.01119652777258177 
0.004226727531769566 
0.009519596370475317 
0.002578660347721117 
0.007342064613697096 
-0.008008527141700989 
0.01908360842319071 
-0.01365016288694479 
-0.007398103999603462 
-0.0002179679744342664 
0.03543912660464929 
0.01884816054773943 
0.00456822488831043 
-0.03799943399502596 
-0.0229299506184076 
-0.0008298009117847041 
0.02323803095400016 
0.01955697172368092 
0.01470116512114684 
0.01705443271786867 
-0.01418440396931823 
0.04099755481398741 
-0.02469918884851246 
0.0009782904488795999 
-0.01450799918694531 
0.02098271126780213 
0.01065554926180072 
0.004083397511528967 
-0.005228301890970337 
-0.001417960212947075 
0.001201279038562153 
-0.03451590491062129 
-0.01716124063018377 
-0.006656487213284596 
-0.000622333972305158 
0.006805347990522705 
-0.01720101949936877 
0.007428145280305651 
-0.008335349329968593 
0.01722292551731678 
0.01650500668286872 
0.02154467365649135 
-0.007093275619823808 
-0.03339521393758436 
-0.02481691961606792 
0.01346460091948274 
-0.009217812892648307 
0.01287135023788364 
-0.02133669170623255 
-0.01008131858838929 
-0.005634879358287406 
-0.01356779994937588 
0.00933896341032126 
0.004767073958105249 
-0.003887486722718995 
0.06536361133103383 
0.04388301561775797 
0.01112744570864769 
0.006110030835096881 
0.02036766940594827 
-0.02084855230480884 
0.007468295369165406 
0.01363943311943915 
-0.01070596384829988 
0.04208704158878478 
0.01884959142623476 
0.03044528627839452 
0.04589177698034502 
0.001866428733041724 
0.02366244411194957 
-0.001081115680494721 
0.02188309397632271 
-0.01852807648167502 
-0.02718875270518665 
-0.0176426412881109 
0.003568106982698595 
0.02349709068058252 
0.01474717346697584 
0.004711618365657083 
0.02893254814696336 
0.01920346011312714 
0.0260940929477899 
-0.03425302783179219 
-0.01713577553620078 
-0.01152855393586448 
0.04960033867893687 
0.02747508802773946 
0.009031500063336566 
0.01544754276551079 
0.01030511200072658 
-0.001460146738752793 
0.008523658516313013 
0.01478958437814683 
0.02084245079972774 
0.01038985571297435 
0.01465941077022918 
0.003664729460501442 
-0.01482192361420846 
-0.005188936157046504 
-0.003759448390938479 
0.01391614411884925 
0.01051306915018059 
0.007236280379363238 
-0.06570867559196482 
-0.01985902622900221 
-0.05154169998399954 
0.001319278501927882 
-0.01427847810683184 
0.008175370698659068 
-0.02693503309297816 
-0.015138071388254 
-0.004627364185183001 
-0.002782013905709983 
-0.03373488535841478 
-0.01039700178324821 
-0.03408171317310123 
-0.02107064056436103 
0.02034818954014709 
-0.009740180490853907 
-0.01680001374711463 
0.006249437611787827 
-0.007632271722608824 
-0.003917696816474711 
0.0002744593481908751 
-0.01814561920625526 
-0.002475970173539219 
-0.01091770798250263 
0.02605678943659079 
0.009851792658436402 
0.01473679399537028 
0.003661956490905905 
0.01410134050064275 
-0.02270803288882616 
0.04132796819256657 
0.01962192646213196 
0.04882260089854464 
-0.0208368354808095 
0.0199701668678215 
-0.0281976712586392 
-0.02236993570531697 
-0.01060040311940948 
0.004401660133677122 
0.014675163555733 
0.01431312323239085 
0.0003729637588990631 
0.001638830404156615 
0.01294689390391027 
-0.007652532401467503 
-0.03115132432527224 
-0.01172780086823395 
-0.009431380882237534 
-0.01799454617230553 
-0.00970109003854071 
0.003988349217667265 
-0.01738140836404976 
-0.008235143959507574 
0.008327356624059366 
-0.02136542204173307 
-0.006892891319654482 
-0.004497681125017196 
-0.05148882936321136 
-0.02022741247306417 
-0.01357481966985597 
-0.02921966488508168 
-0.01459373212867774 
-0.01463460749603364 
-0.011201845475923 
-0.00667545502868325 
0.002222421026704764 
0.03497238855831301 
0.01474833574076737 
0.02191782699292367 
0.002464907784037824 
-0.01864033454245953 
0.01889643465868745 
-0.04219402503086968 
-0.01675417908469883 
0.008988436739378368 
0.02143756490501882 
0.01381569349359152 
-0.001362576341536021 
0.02702704824925078 
0.01243523418835805 
0.01111806668931451 
-0.02690936721384974 
-0.01647352023573996 
-0.006450325470691516 
-0.05190539258471947 
-0.02552022692688638 
-0.02650446247072934 
0.02758240188574687 
0.01849676187291661 
0.01851171350790728 
-0.02080568353326276 
-0.008989891076452157 
-0.00901210267364482 
-0.005860008723157332 
-0.001537670471910788 
0.008753999071200015 
-0.01454655712428648 
0.01019633752404968 
0.002257085231508135 
0.01642625452268401 
0.007075012579270398 
0.02034560458448111 
-0.03093129951829813 
-0.01135808575855364 
-0.01214222161062555 
-0.03051144204892036 
-0.0143411100659125 
0.002248838841463292 
-0.02883959052861903 
-0.01174725007462082 
-0.007684707108621681 
-0.02585656490461653 
-0.009935487081641983 
-0.00857935033707726 
0.002771267254028237 
0.003722312331455533 
-0.01036578571894463 
-0.00145758909907429 
-0.001014303524033829 
0.000102303981274456 
0.01712632842947684 
0.01800658438028918 
-0.02154618913539377 
-0.03201393218949893 
-0.01771054249855497 
-0.01176436458692518 
0.004522264748858093 
0.001049889614936963 
-0.0158099896122118 
-0.01824714986134408 
-0.006815312864521745 
0.0005215661448783452 
-0.009634736646173332 
-0.00587437579950011 
0.001108977325970055 
-0.002446917110681019 
-0.001064385176155114 
-0.009054497146953253 
0.0280988224711242 
0.02191970345394254 
0.007289844224434174 
0.03600222645650638 
0.01205635461671939 
0.02029769389108953 
-0.02165993388181793 
-0.007648326281072546 
-0.007030913513468561 
0.001986098244146592 
0.006792217974524183 
0.01486121984851661 
0.01090455647971247 
0.008145245582665063 
0.006646616034998322 
-0.02919567588397804 
-0.01161599064617494 
-0.009204704796483694 
-0.05610025855345064 
-0.01339631627829443 
-0.04114990041030477 
-0.02485524901495077 
-0.002234682689814414 
-0.05163078271433085 
-0.02104696863166025 
-0.01335705284931403 
-0.001919889386537355 
-0.01534904673792496 
-0.01110833070160139 
-0.002274075668836375 
-0.004624382957848953 
-0.002199801272866305 
-0.001612949098725197 
-0.004614780429008332 
0.003926775617814231 
0.007325912741084233 
-0.009471115808476002 
-0.00454809843837032 
-0.0004206352364695378 
-0.01292667969403083 
-0.004223591525340279 
-0.007238284576804822 
-0.000653949759269224 
0.001006929783226748 
-0.00291342951537587 
-0.005023635512487355 
-0.003627432635787995 
-0.004469272137341421 
-0.02122966395561834 
-0.008794599687427657 
-0.004855863966416624 
-0.01990062473199319 
-0.001335099256188455 
-4.594702279946297e-05 
-0.01270184095039838 
-0.009155402114881044 
0.006846968739340025 
-0.04336552525188098 
-0.01819273892072931 
0.003081386683853766 
-0.004544369046776116 
-0.001942491323545257 
-0.0004182591873259121 
-0.02970955096098123 
-0.01641455237268899 
-0.000362592551830543 
-0.0002192274695713187 
0.005455972107890649 
0.000648873151969234 
-0.01048384435951252 
0.0004709876360404595 
-0.00625844174797571 
-0.003700537127393697 
-0.001613511517247029 
-0.001506942529369391 
-0.05519024346825049 
-0.02847900894831534 
-0.01046974050453023 
-0.01910181249323596 
-0.003056335904202494 
-0.007054548983112776 
-0.00593365616188227 
-0.003311799680309226 
0.006711817307726219 
-0.0101403540966529 
0.01173092237582834 
-0.04728234467864806 
0.01606133566461624 
-0.007803025827675352 
0.04884870056299619 
-0.03163446432003165 
-0.009098184495757004 
-0.01443574867596612 
0.011543302510233 
0.006568083328639849 
-0.002436873148961526 
0.01528052614177005 
0.01121777195957792 
-0.0118372551127094 
-0.002768702370465195 
-0.0005832882056622563 
-0.02563345278153944 
0.01947007495624882 
0.01675859976975213 
-0.005017357845745631 
0.005832366028718483 
0.00665317798599276 
0.01119106220262805 
0.02239320201950028 
