solver_type L2R_L2LOSS_SVC_DUAL
nr_class 2
label 1 0
nr_feature 12288
bias -1
w
-0.01473669517462357 
-0.004409658603896305 
-0.006798062083271245 
-0.003516753035116052 
-0.009073777618842009 
-0.003128334267706076 
-0.002365305735733566 
-0.006672764540267774 
0.02708826276086087 
-0.01225224954591084 
-4.332852068894015e-05 
0.008250976700080102 
-0.04809506099445503 
-0.0164097279715265 
-0.009146238883418692 
-0.001232578941565217 
0.02930830858476844 
-0.02817356263803525 
-0.0333115520764887 
-0.005566517615101171 
-0.02133491725326371 
-0.0643665516261233 
-0.02559622668706497 
-0.04500196592305875 
-0.07936829700240337 
-0.02501580544415736 
-0.03669001177163091 
-0.02455165278203886 
-0.003632734199696484 
-0.01967819218614187 
-0.02510936590296121 
-0.003994928639081147 
0.009764103670283467 
-0.008814385797643218 
0.02030982437219407 
-0.05169959296931079 
-0.03634843126285728 
-0.001618972662667607 
-0.02519020639528171 
0.0260013239287737 
0.01797744519036631 
-0.001649992479423941 
0.04845028630405947 
0.02966966351525388 
0.007372049055388614 
-0.02222040125216023 
0.003655513939316358 
-0.03132838702428554 
0.006376137960645852 
0.005225601410705387 
0.008517762668252988 
0.006119579588247864 
0.03007948396828088 
0.003504988801779838 
-0.007671177803024024 
0.002283810270561104 
0.03042742373730466 
0.05340079860285846 
0.03224781297668457 
-0.00869653432763629 
-0.07537429073045648 
-0.03881467998379124 
-0.0352352336636304 
0.04564651053373555 
0.02944585168948477 
-0.0438305012014392 
-0.03333719401842974 
-0.01254335534653342 
-0.01231349696467011 
0.007228331292776724 
0.009992788378360276 
0.001024279833658197 
-0.02697509505833676 
-0.01179336815861352 
0.008542826895034394 
0.002916257199510054 
0.004140034967973673 
-0.01117362909673042 
0.02719481751557314 
0.01392534106953528 
0.006267548550161848 
0.0232121047703402 
-0.006676603720192699 
0.04600741124813587 
-0.01286125682665244 
0.004738251300726897 
-0.0151808710521897 
0.03419281290494861 
0.02899194376864595 
0.002510980014555134 
0.01390132818675891 
0.03412167228406505 
-0.01552957251146706 
-0.09577449083866026 
-0.04648041237909856 
-0.01720317829140789 
-0.01574659945226599 
-0.008144469370317658 
-0.008744379314358092 
-0.04675796604984119 
-0.02485712929582548 
-0.003251399735161307 
-0.02298353635685319 
-0.001887737080269308 
-0.02067977275893371 
-0.01420289559456707 
-0.005921568711250927 
0.0005758805894471421 
0.04159620544809358 
0.01916905514600906 
0.0100656676408258 
-0.03099454595112899 
-0.008582114489582005 
-0.02685205232168287 
0.003919980952623755 
-0.004291346639909216 
0.004766258364966712 
0.01117588670591664 
0.01131884698170213 
-0.0204413092092378 
0.007369578347207379 
0.008290442227778128 
0.03763758447570905 
-0.0230913143398195 
-0.01399553021721963 
-0.0004935949013530991 
-0.02331557735697969 
0.003087260318115557 
-0.01837363543169892 
-0.02240836365417563 
-0.008531175135907712 
-0.01881570384172987 
0.07184288789083512 
0.03169192385755968 
0.04163810799856687 
0.003286135034145874 
-0.009387156759174982 
0.003560979432595764 
-0.04415534511201345 
-0.02208583149947818 
0.007404106392172817 
0.04583066411072138 
0.03131074235568041 
0.01702092473855795 
0.02456233652069842 
0.01478370232889587 
0.0009862190955485831 
-0.01702497317437555 
-0.00799987389386359 
-0.00107507151452469 
0.03744144822954686 
0.004876334896549586 
0.05423959776731581 
0.00725567031381244 
-0.002857532080825858 
0.002015753503826095 
-0.02160582441329754 
-0.005895312661345148 
-0.01365164384273455 
-0.01659470520962958 
-0.008606075068406611 
-0.00610748178740348 
-0.02899600699279953 
-0.02207346815332665 
0.03333780346107566 
0.06467675714454685 
-0.003942857218861234 
0.07648061668130042 
0.02107358527500985 
0.009544795077075447 
-0.02473911604474033 
0.0351944868063709 
0.03198112879658738 
0.01158472983172469 
-0.07346542975344598 
-0.03441056183551032 
-0.01343656969664306 
0.03640183861404846 
0.02232465242959196 
0.03559744499478761 
-0.02535577970779218 
-0.02026175805013768 
0.02172873259391527 
-0.006244869513748569 
0.01949813662428481 
-0.007415985962689838 
0.015840909180896 
0.006593028528047573 
0.0181446811574359 
0.00547736032685018 
-0.01557930264094867 
0.05176507466871399 
0.01211586094531295 
0.03377218458948865 
-0.03169731860485775 
0.007379065994050056 
0.004243605890595491 
-0.006395242091736923 
0.02652142920603929 
0.005203231631348595 
0.007594628656213822 
0.04522567935272063 
0.02132054191258786 
0.05384137935686654 
0.03868293822346146 
0.03276742001035336 
0.01434363814425935 
0.0002317380907173136 
0.0002601367914166923 
0.008076794405630153 
0.0005001578696101778 
0.02165172706481094 
-0.02960252272157441 
0.07452399407777791 
0.03874701363876921 
0.02343966958727325 
-0.005858818847264819 
-0.001189181225380009 
-0.008586548416517759 
-0.05360442910986619 
-0.01832980310891605 
-0.01357353448096724 
0.0504670360591483 
-0.02058003240608397 
0.06059363075726544 
-0.008671182037241647 
0.002639302232177003 
-0.02472931270719153 
0.04203843293830969 
0.007224812349137369 
0.02280698464010996 
0.007380458122920229 
0.007112929073934315 
0.003069403028014965 
-0.04570012880302785 
-0.02503554879928651 
0.01061542973750317 
-0.06933929578915234 
-0.002092955613771808 
-0.0665415677106528 
0.01190743736528123 
0.004031989346756673 
0.008631014665587158 
0.02919297614102651 
0.01662433168513448 
0.009177476969752225 
0.01256721121816843 
0.02759451851350693 
0.05169391165746214 
-0.03407797452113392 
-0.01788400098436834 
-0.003883661802990009 
0.01320184819809014 
-0.03890707140033055 
0.053350313182292 
-0.002047647390560067 
-0.004742556757923714 
0.003076118799935652 
-0.02303656163700652 
-0.007643473109445627 
-0.004603096434143473 
0.04909727405036418 
0.04578163259370856 
-0.002989571797545793 
-0.05433056021302868 
0.008801203546360778 
-0.03194635021560163 
-0.008775513397803787 
-0.009139792783951373 
0.004786904994656199 
0.0164198711158615 
0.02254188215916963 
-0.00763248558044202 
0.02016834574374923 
0.002300668281390705 
0.01990255422832799 
-0.02818719840188116 
-0.01298871161726611 
-0.006935255232888883 
-0.0240128428326342 
-0.01467846853145693 
-0.002360409948502541 
-0.01571909563093143 
0.03698096086558975 
-0.00613016097234912 
0.0101005860737017 
0.00239681621838667 
0.001642627469208145 
-0.02576882100143356 
-0.01313085009475022 
0.00230351800804546 
-0.0007593408857238368 
-0.003402710339627513 
0.01493474889671952 
-0.01386821476993878 
-0.0235157258226623 
-0.009043266525080678 
-0.03686997167738022 
-0.02719362323714938 
0.02049040218303399 
0.04488695940754227 
0.02312118172525391 
0.01197936297955445 
-0.03996608924471843 
-0.02906199801129788 
-0.005043043665226721 
0 
0 
0 
-0.009785869252041007 
0.03471680308213834 
-0.006949094163389891 
-0.01065854564894737 
-0.005880874649781567 
-0.007862042188365642 
0.006332943336686077 
0.002431233870102665 
0.004869137943480355 
-0.02483195632846054 
-0.01027422613311155 
-0.005837304969540631 
0.01049015051678102 
0.01890921615982776 
-0.01856456197102618 
-0.04364815212658302 
-0.03921257440362841 
0.003664350573487788 
-0.02329656331491278 
-0.03032049303796845 
0.05821910163580987 
-0.04525711655130507 
-0.02127927106833399 
-0.00730326747620835 
-0.01350953874531926 
-0.0378197407607061 
0.01855146696493066 
0.009481938264827666 
0.00682009348803842 
-0.0444351893215557 
-0.01139583055257678 
-0.006995329844372647 
-0.009301149778233344 
-0.03935048447499095 
-0.0214145206177597 
-0.003469607130021298 
-0.04695164050855937 
-0.02994288580027619 
-0.0004040954429309561 
-0.09045437559209117 
-0.05621683463419778 
-0.0009886119768064367 
0.01711437281405244 
0.01735344093757553 
-0.010118959275088 
0.04042316520906864 
0.0395601274037792 
0.02899713239986022 
-0.04807026010512895 
0.007374867129043966 
-0.04488553564562256 
0.05752014741718697 
-0.04065376576284467 
0.08424512957508075 
0.00246109557585204 
0.02863129205033687 
-0.004037682342928978 
-0.05724727824627907 
-0.03037174067417238 
-0.0199356547165779 
-0.005007959260901859 
-0.003166209988190764 
-0.0007487548157253727 
-0.01042706854544643 
0.00149496571580092 
-0.004394655731167939 
-0.01283969507043941 
0.003164725596882123 
-0.002247692583201745 
0.05566521790545788 
0.009410041043961842 
0.03436723017900126 
0.04059630271722439 
0.03325760477491562 
-0.002895720651793368 
-0.04453893151633158 
-0.02908387938544831 
-0.005677683537527806 
-0.001107142999837263 
-0.0007222686168340185 
-0.01181132543540868 
0.0134564582243346 
0.01069183851181046 
-0.004625570492847295 
0.01035560876526172 
0.002398220343305113 
0.02156335035066433 
0.01957902831974851 
-0.004059784353126841 
0.00368156669997489 
0.04503885778833041 
0.0241740061228138 
0.0116390021773137 
-0.03431861214350191 
-0.0117535724841525 
-0.003647443815045074 
-0.02601222456735183 
-0.001691586677960932 
-0.01039927264805838 
-0.006568412507974377 
-0.004048339433368864 
0.002412569083100959 
-0.05129202700088974 
-0.02681315092216673 
-0.0208553768992794 
0.01680715624737831 
0.007725708841933438 
-0.01153148873623868 
-0.04440897626592166 
-0.01369582544700558 
-0.01572315893529231 
-0.01710427769683473 
-0.0002477161381834764 
-0.01062776514745226 
0.03393228580614634 
0.02682244875645091 
-0.00675556819516711 
-0.05978280886723259 
-0.03611463642605553 
-0.0009166390257012838 
0.0002291245280053228 
0.02295018519823562 
0.003889571893581432 
0.05167047942823174 
0.02829301713138777 
0.02039091245221286 
-0.06916581099084831 
-0.0194725143348051 
-0.06577937095983272 
0.02206230161316947 
-0.004499359092966476 
0.02883227593279116 
-0.006032353111444341 
-0.006038890189925624 
-0.002411182882623547 
0.007822689502239584 
0.0105607483489552 
0.007374422276770679 
-0.004349876349790016 
0.002699637269951666 
-0.00568448832985014 
-0.05206650582705807 
-0.01856147323902307 
-0.03997349637742841 
0.01666415777169491 
0.02012675782914759 
-0.01053975131669798 
-0.005512046409595444 
0.007222643867732332 
0.02572325508609171 
0.006241435661299589 
0.02512252667211132 
-0.01470237455245878 
-0.009177483701450707 
0.008830889942838149 
-0.008967911568361074 
-0.02858863242580412 
-0.01583194077794527 
-0.003088035107625885 
-0.001996218494344429 
-0.004532919060113799 
0.02036904453810712 
0.003780931370059089 
-0.009423703636338628 
0.003900943471976264 
-0.03864945352731809 
-0.02294629652538957 
-0.002419562286415229 
0.00460077349960207 
0.02155464801119356 
-0.04448196909188114 
-0.03826729257568437 
-0.006627923614345034 
-0.01622580084279297 
-0.05213835519493108 
-0.01392105709256959 
-0.0383086623784277 
-0.04835673873746592 
-0.01487480590631619 
-0.01038629270685011 
-0.04886018784579097 
-0.0205294468794119 
-0.03532947259465629 
-0.05328357446980367 
-0.02470070727061596 
-0.02375193144687689 
-0.01626958030085104 
-0.0214816607507003 
0.01830132372247607 
-0.04134454805578916 
-0.007999327696886833 
-0.01180780920200119 
-0.009769961393759165 
-0.01620658512863775 
0.009586275852532597 
0.05084866785859542 
0.01030763270832045 
-0.01683812636540036 
-0.01929466526364407 
0.0104194862840268 
-0.05071050896984106 
0.04316149878605399 
0.01714671107251798 
0.01068020233748068 
-0.02075149204515167 
-0.01385667167297035 
0.009608961101069255 
-0.004284639347077052 
-0.005273882875005977 
-0.001917959859189845 
0.02320838777753968 
0.02232861702714628 
-0.001407714338200099 
-0.007322028723508022 
0.0008214821990110909 
-0.0215154483866305 
0.02199478650121267 
0.0006783230559478426 
0.04567888391875146 
-0.04438846046553789 
-0.02482032817940403 
0.02167301234206683 
-0.09094920843371768 
-0.0445325516981662 
-0.01558226695328175 
0.01306437462144203 
0.001343284062908423 
0.0333082058788854 
-0.00503528390732402 
0.003842338161368575 
-0.009556090533209763 
-0.001894234909104028 
0.006833815245891495 
-0.004635603758104903 
-0.03738080804366153 
-0.01099659756448441 
0.0125677739546786 
-0.04088874974651881 
-0.02092350912481977 
-0.00501748498760122 
-0.01159098819838849 
-0.005099463093591355 
-0.0003947742958008338 
-0.03363609618317626 
-0.006820308452936877 
-0.00691386950563299 
-0.007964646493416166 
-0.01305063876626192 
0.01680490972825808 
0.02001500124504909 
0.008327914885272535 
0.002103549425083412 
-0.031975780120861 
0.004328485695487443 
-0.03887798243128003 
0.0327509104935972 
0.02191315510241695 
0.01876162347123129 
0.02596006953239158 
-0.02353811544181928 
0.04881890407009226 
0.008216061575185271 
0.009589043941795642 
-0.01268837313111096 
-0.08374170350689981 
-0.03093781876597556 
-0.008138284297947749 
0.03247849966772366 
0.0164398051879285 
-0.01877478531934643 
0.03776126376432089 
0.0367469125215525 
0.009094336307674452 
-0.001767086168276694 
0.002434802351300484 
-0.003653767016900436 
-0.01551106602076284 
0.006856068957386685 
-0.02243000867595982 
0.03862391581551412 
0.0109860162879372 
0.02302626647206441 
0.004152873851325417 
0.00559914735024268 
0.002982474602481426 
0.02673255531490543 
0.02687756995338942 
-0.01496887879908292 
0.002454541423567098 
0.003803156131399362 
0.003964820558826298 
-0.01632270786855744 
-0.008464007992409544 
-0.005347213445487513 
-0.01059298609418281 
-0.001073244379138281 
0.0158138592353103 
0.005452459233113387 
-0.001581898187543778 
-0.0007964494022790536 
-0.01750109928027931 
-0.002089411800945425 
-0.04320536918054925 
-0.02254565402322768 
-0.002192197913532121 
0.002232323901313928 
-0.07530426414362509 
-0.04852098227703636 
-0.01299311182381688 
-0.02801525231103181 
-0.0114952751602733 
0.002188867440292972 
-0.02651568425632045 
-0.01976951375480298 
-0.01314684257378377 
0.07522652834210723 
0.04152703346296419 
0.05261256353343943 
-0.01198561762021493 
-0.0008748911192714904 
-0.01040613669966941 
-0.02787359338271597 
-0.01847246201105755 
-0.006831985798179173 
-0.04019118431214917 
-0.02100206815473058 
-0.00109218346711102 
0.002664633539581491 
0.00900467196627497 
-0.002074130533399072 
0.04622659240470951 
0.02247173723416073 
0.03153383474973166 
0.07215757053266199 
-0.01003326748064151 
0.09037613398075613 
-0.007265381872723818 
0.01303303979753021 
-0.01919015035001812 
-0.04995209864976681 
-0.03974586494608334 
-0.002741104398376543 
-0.04669346528471241 
-0.01941574019607026 
-0.02416741656296382 
0.009951782631398431 
0.01604761423841428 
0.000938229754533888 
0.02844721588235084 
0.01971582499596457 
-0.015640161516673 
-0.0276069928570369 
0.005872395065603664 
-0.04174448846906077 
-0.0108681115994101 
-0.01445234249596634 
0.01396957974275102 
0.05703707350995552 
0.020155681928519 
0.04874930303921438 
0.001076598072649533 
0.002736091870625496 
0.005523907535713645 
-0.004936026551607223 
-0.006718006710761481 
0.00209056063127786 
-0.05275273576100389 
-0.03435386334253916 
-0.003648427176978805 
0.07193163580499091 
0.02154303565576591 
0.04267369234743407 
0.0295215847116212 
0.007771701017128417 
0.05063219772148119 
-0.06144887578021322 
-0.02486549937787818 
-0.02372129163894007 
-0.005955517313463686 
0.009433001366398507 
-0.0102595939975975 
-0.03020512729767125 
-0.01620452953808265 
-0.02007011436890536 
0.01439182455588954 
0.003305578121445898 
0.01347209991454582 
-0.02565001925447007 
-0.01569096319632831 
-0.003297178890432672 
0.0131003971695217 
0.009441486237548298 
0.004051799499347405 
-0.011584613071106 
-0.008054396049746294 
-0.006403130434201635 
-0.004304448146914534 
-0.006654489083380835 
8.661958997266944e-05 
-0.05479381266640841 
-0.03311065231086813 
-0.02360183829525011 
-0.005289202836477887 
-0.002229808644624775 
0.003441781949017228 
-0.02321338633472168 
0.004522129195802694 
-0.009020670029836333 
0.04057099119554238 
0.02087804502213771 
0.006974189490541269 
-0.01425752408461533 
-0.008811539424850386 
-0.007110271016061708 
0.02030341878762922 
0.01923121543307601 
0.007637331882706323 
-0.01014698846883865 
0.001001141966463002 
-0.005286546575469404 
-0.01627511389690561 
-0.002069860904352087 
-0.03341045106142815 
0.02088728448165028 
0.03783493217220552 
-0.01875897581215175 
-0.04962227848045921 
0.001897845514049502 
-0.02312571701107878 
0.07188908777802044 
-0.006201541088560401 
0.03263790052013513 
0.03995734274067329 
0.01000374524038071 
0.01816733754016368 
-0.04322662222502274 
-0.02293665487874664 
-0.01729897869965261 
-0.02146287049206202 
-0.008801623093012266 
-0.02919599032113382 
0.03736044110088634 
0.01835687742516885 
0.01322007025597825 
-0.0102243811251601 
-0.04236726845803922 
0.0175061837792523 
-0.02547017044562815 
0.008650089075463168 
-0.03679899808068422 
-0.006916739069782863 
-0.01462640158513838 
0.01387790509011953 
0.06380105446640345 
0.04226164830180637 
0.03730138568778218 
0.01205564238992526 
0.02325102733514295 
-0.01773001648273289 
0.003806158488886768 
0.01871174446699638 
-0.02695426565250486 
-0.003536069428796295 
-0.003720735155985494 
-0.00373203952239297 
-0.05116581937564395 
-0.01201075061113288 
-0.0007204918759817336 
-0.01839989587806182 
-0.01106669367383417 
0.003064266916451741 
-0.01130624645021226 
-0.006516049782730278 
-0.0033713278301356 
-0.01369755924067865 
-0.003769315103345506 
-0.003964640899173798 
0.001496599257444989 
0.0148029582893146 
0.01098162869515025 
0.03555210964912119 
-0.01037150814383684 
0.0447223910408299 
0.007732445231204772 
0.004806176071223589 
0.00317082555414068 
0.04859727439801036 
0.02108490663818326 
0.02978241805835964 
-0.02854882217021837 
-0.01182363397893053 
0.01866574140626863 
-0.06283023174916728 
-0.03133809080376666 
-0.01692937302590392 
0.0520778863609053 
0.03605545833851445 
-0.005808162031610204 
0.06911413394003839 
0.055024721051786 
0.002775475039413468 
0.02478610989365403 
0.03285807007005442 
-0.005500332167458291 
-0.04312402071490928 
-0.02053365518303259 
-0.01499334787738629 
-0.01463597712469561 
-0.007133073150306452 
-0.007300659443854713 
0.01616556760721362 
-0.01875087318281069 
0.02156265031186205 
0.004524001202129366 
0.008643488026578997 
0.0306121403514153 
0.001263206740500874 
0.0001106686321370009 
0.002728589170934648 
-0.015397930331104 
-0.009144048391203882 
0.005218312998110693 
-0.08277324061014031 
-0.01217400432464723 
-0.08642742755945648 
-0.00208899172478674 
0.001800288593105194 
-0.005018867106258735 
-0.03916705959426929 
-0.02218481596980894 
-0.01896898782550926 
-0.03405477144094406 
-0.03306356335384647 
-0.00202171675229908 
0.02973869230757871 
0.02371571759640268 
0.03684674286583083 
-0.03496849992835338 
-0.02118711980643611 
-0.001561607914405685 
-0.02429116921992821 
-0.004513069862531468 
-0.01718916243755682 
0.06494497626729857 
0.003688092381225471 
0.06532161719381943 
-0.03102000441140311 
-0.01876053659109853 
0.004131942805889582 
-0.05105690945061209 
-0.01630926448851135 
-0.01369291940645749 
0.01832048296668107 
0.005760097165523155 
0.006853510239739651 
0.01309457397986166 
-0.01157568999666017 
0.01859464552914809 
-0.03096358049850114 
-0.0103187953489236 
-0.02679827141761597 
-0.01178262898903184 
-0.00575818196546981 
-0.004922285786127596 
0.06093726040297424 
0.01895825858324779 
0.02959222911744047 
-0.02574591499622983 
0.00272011946484396 
-0.01198300425675742 
-0.02686240590456552 
-0.01280430808739612 
-0.005963918236451899 
-0.03923144971842296 
-0.03806571794629321 
0.04198917043438118 
-0.02912002748951048 
-0.01595072204006439 
-0.006087736881020281 
0.02552487683206339 
0.02993862951642931 
-0.005385534679338514 
-0.04081551548775036 
-0.01523053157988847 
-0.004689631072738587 
-0.05628726486965863 
-0.02116777635215828 
-0.007852417216894435 
-0.02636786005784331 
-0.01447185610264989 
-0.006281433092628863 
0.001046638686401345 
0.003752035875583842 
0.01689969079796648 
0.06367148311142334 
-0.006123397109755936 
0.07158438542460455 
-0.03868984753183112 
-0.01912540137232431 
-0.0204743242474503 
-0.01370059081303068 
0.01085547747053658 
-0.02767464786043991 
-0.002096164909384524 
-0.01254102381041616 
0.0301633962975248 
0.06303807025465659 
0.04744984743674012 
-0.03251148988488431 
-0.02717054354544603 
-0.01158247917216646 
-0.01332883156513768 
-0.01244945208289113 
0.001731253932947028 
-0.005596685996752857 
-0.05743721843815498 
-0.02964299432763956 
0.002107898089045054 
-0.03636125331978882 
-0.01918054214178926 
0.01476840040331986 
-0.01690251368046181 
-0.01015994149150574 
0.006784914407440334 
-0.02736734032163143 
-0.01526420788918464 
-0.007041637456484692 
-0.09256287744083505 
-0.0407970186457958 
-0.02406933517296886 
-0.002535525011184432 
0.00697275497331825 
0.001881241692466195 
0.0175197664341109 
0.01584282601979221 
-0.02401552497205413 
0 
0 
0 
-0.02761390041692881 
-0.01552113163402757 
-0.01157721010171782 
-0.02155285486949964 
-0.009235952040814042 
-0.01725893830912166 
0.02685218904537161 
0.01249706568892859 
0.01067178880459027 
0.02789198076204011 
0.02076249434419989 
-0.002155519703313992 
-0.01629732718697177 
-0.009714251279553844 
-0.01074033425602747 
-0.01820388414497365 
-0.0105165501934289 
-0.003657786353358008 
-0.0118791460125212 
-0.008504869641589483 
0.02749432127378486 
0.05107636552617955 
0.03829744407453782 
0.02153412105264948 
-0.01739704439726282 
-0.009274362934752983 
-0.004019124499534885 
0.02041746663670641 
0.01377315048519482 
-0.0009864687854601558 
0.01707688922267332 
0.03021412372278729 
-0.03548265311625724 
0.01382303329949681 
-0.001747902783455832 
-0.002610956496857351 
0.03472060594334204 
0.03353213037181164 
0.0142251525395374 
-0.0339372409336366 
-0.01102557214142804 
-0.0110737874073683 
-0.02225295188760534 
-0.011607004098052 
-0.01135687485272784 
-0.02401361516038546 
-0.0175075857257092 
0.009876922520231339 
-0.0284131768399745 
-0.01267685208923522 
0.006465090566234891 
-0.06194876161832981 
0.004043271297494076 
-0.02528258366239898 
-0.02415223730698374 
-0.0108775168329334 
-0.01317595280095652 
-0.02287936875404007 
-0.01436813073573995 
-0.0116155153010014 
-0.04743691346379248 
-0.02700877011104339 
0.0005408860016225725 
0.03438562794918473 
0.03040448260642272 
0.009664276232001183 
-0.03819969162766833 
-0.0154259065537679 
-0.00414513170961849 
-0.05207938664363702 
-0.02808607185446568 
-0.005532396428742594 
0.02024639044655716 
-0.01506617490389833 
-0.00133844911743005 
-0.01230934442790985 
0.01098432651841743 
-0.02592400935369939 
0.01616327148230383 
0.009431036140002637 
0.001438603638113563 
0.0374546448694669 
-0.02886193377834273 
0.0259967305898925 
-0.0434093583605865 
-0.02547111323119687 
-0.005794450732380753 
-0.08051031431944145 
-0.04465492765102493 
-0.0009567305125129652 
-0.01342681215936295 
0.005163295813329188 
-0.008966085337824977 
-0.02595185406129727 
-0.009306793678481957 
0.005079946365738126 
-0.0005739366813117324 
-0.000299342934102936 
2.138098965470102e-05 
9.295616245103417e-05 
0.005869815029371408 
-0.03855465393243621 
0.05603090337864362 
0.02862659456179241 
0.005121415533719518 
0.006242032334985286 
0.007521886811094093 
-0.01390128238032011 
0.01067489382397571 
0.01311072894570742 
0.01650617364515358 
-0.09267637040579187 
-0.04920841224394711 
-0.005821820145466168 
-0.08108184849867676 
-0.04190467268800541 
-0.01842404755152341 
0.04490132905219891 
0.02132473334892061 
0.000322680324410475 
-0.02186492619795366 
-0.01021160125498957 
-0.005515096685322221 
-0.01723168298428564 
-0.01376216746931048 
-0.00663962856885785 
0.0008938172173612826 
-0.0002949154289478549 
-0.003395273323118029 
0.007897773350234807 
0.01623409486317934 
-0.01188934511676922 
0.03440936852265643 
0.01516323409382853 
0.002536952658608088 
0.01592840008157697 
0.01661744988337634 
-0.007933479376724978 
-0.06410803744578612 
-0.01308940898965292 
-0.04499409599501245 
-0.02410197973901169 
-0.003909551819940932 
-0.04003620597234713 
-0.05066159244772039 
-0.02931577669275427 
-0.003816337212612008 
-0.01407838012091282 
-0.008102993052897632 
0.04338639641256368 
-0.06656381288095259 
-0.03234945651662396 
0.00336304017618051 
0.06058124438016187 
0.01745318479105706 
0.02565259412093857 
0.06101708617726442 
0.04001854860011687 
0.04662035907900947 
0.01770639101198682 
0.01825894832922858 
-0.008007793574833806 
0.01267227527990175 
0.01592666023366206 
-0.001737818931169201 
0.02709425623883233 
0.02463545001493336 
0.003095884541412282 
0.01113437849204927 
0.02539815746655168 
0.03178599208522573 
-0.01821974663141717 
-0.005882760444579319 
0.01255372597362995 
0.01773881145140447 
0.0244406740281154 
-0.02196909893615826 
-0.02261434910920056 
-0.02075919707185449 
-0.006823490154613044 
-0.05276650468218361 
-0.005028561236375994 
-0.06461253034056057 
0.01709256495340541 
0.004776169618732309 
0.03252546716081653 
0.04487232108423055 
0.01980191694647624 
0.01702605421652333 
-0.021743500478765 
-0.001967945733407807 
-0.01958110379740221 
0.09484005335147012 
0.02963096623012709 
0.06918158697308052 
-0.003353680472670233 
0.005634031245967961 
0.005419617916836037 
-0.02592833506074311 
-0.01387280151946814 
-0.002614592763456 
-0.05278913947078277 
-0.01673442740510351 
-0.004949185190478211 
-0.01978295127042088 
0.004494995765519862 
0.003177011214116094 
-0.02875200089293002 
-0.0243856483460075 
0.004934982884060361 
0.02376381275793172 
0.01612888131289722 
-0.008373214385334702 
0.03332201377502111 
0.03186974822071836 
-0.01433456776752744 
-0.0586543325070258 
-0.01741011561083686 
-0.03456543279262932 
-0.03098044526442996 
0.009000965183668344 
-0.01467565015039204 
-0.008693712740409762 
-0.03030086529625566 
0.04594150485573826 
0.06549187874249278 
0.03546388326045374 
0.04772799964993343 
0.003701193761091971 
-0.01257213822691701 
0.007384307064024123 
-0.0201829212414983 
-0.001451056280124358 
-0.001312535777197777 
0.003259239662276444 
0.003931626820686464 
-0.01597360666860657 
-0.02021477811192841 
-0.0219417088898739 
0.03973992773153792 
0.02759793842073142 
0.008532422358774404 
0.02619192448838984 
-0.01207940533796142 
-0.0113493300309466 
0.02426119557676502 
-0.05205346070732363 
-0.02402579083074531 
-0.0006340406983471613 
-0.01851048741047866 
-0.007447445495295756 
-0.0008489225468252272 
-0.01980167284641541 
-0.008150713257573878 
-0.01189917326460089 
0.0021306072494766 
0.005601124244161769 
9.020744951291163e-07 
-0.02546105550178142 
-0.01102458013216462 
-0.00952836896882934 
0.004492580074865294 
0.003169902841808373 
0.005653333717581248 
0.001702780305466751 
0.001444847747259514 
-0.001600245941909968 
0.005279493824494693 
0.009560471631053793 
0.004217320569304931 
-0.00845482664542475 
-0.0001027353071686158 
-0.00764796244540931 
0.008205929132420407 
0.006828207235536595 
-0.00397368953572634 
-0.06784047056556995 
-0.03282007910686689 
-0.01334050870505404 
0.01338748716097174 
0.0053979337351625 
-0.006665934821373635 
-0.00802003776261102 
-0.0127367515258984 
0.01621786591274939 
-0.03738837267947424 
-0.01301552361614567 
-0.0300642882818986 
0.0004610183340158392 
0.01239448791741652 
0.01633070666433424 
-0.01840833691959344 
-0.00684635293619328 
0.01680322473875986 
-0.005725998363139074 
0.001950276380305045 
0.01622186364813068 
0.09728973630436974 
0.01381926327682837 
0.03472970741982762 
-0.0201761204591433 
-0.006926228320357244 
-0.001645897166734743 
0.01413668819891871 
0.02493544469958293 
-0.02344576553984521 
-0.01270431090859853 
-0.001525477465538424 
-0.0006268797104236985 
-0.03956051817758979 
-0.02150227737141298 
0.00123444026348251 
-0.01668321858359647 
-0.0003484236062395694 
-0.02048326429338001 
0.05496026147663061 
0.02278309749533484 
0.01028014743963254 
-0.01153940524645851 
-0.002497010325907355 
0.004587274874074851 
0.02065684995348441 
0.003410146001723575 
0.0117691061934417 
0.008423456416663472 
0.008783320139108805 
-0.02037368614192549 
0.05070631824297663 
0.02209634406776509 
0.02921386418162382 
-0.007670684287679186 
-0.00830864558209762 
-1.220517521246559e-05 
-0.01051656246761261 
-0.01536228269829342 
0.003687680859392029 
-0.03877142156197532 
-0.006154891632148845 
-0.01583922975287099 
0.02540598366991829 
0.006851099289860369 
0.01433666344457919 
-0.01867348775637548 
-0.006610826277250788 
-0.003622376358139021 
0.008309573860203149 
0.006582271137520291 
0.002390627180580464 
-0.04419640623671067 
-0.0233307383294702 
-0.01711514117533729 
-0.05896965375419343 
-0.03726450208880829 
0.007211830491936531 
0 
0 
0 
-0.001610395780754636 
0.004273747467985214 
-0.01654712881277976 
-0.02264689564576384 
-0.001616562599648529 
-0.02558033884056897 
0.002603426681523337 
0.01638163728083144 
-0.04169133682135792 
-0.09120792539386212 
-0.02362080090079689 
-0.04057569913954481 
-0.0017688098405479 
0.0007325591607265225 
-0.005015549607542468 
-0.01332462398021295 
-0.009085130173408602 
-0.006198179427534644 
-0.03914406782305634 
-0.02814582276505107 
-0.007861847555590008 
-0.03329103916079407 
-0.01612585430196858 
-0.007580007518862524 
0.02918745648521918 
0.02575722979849878 
-0.0142905876085523 
-0.003033267593322236 
-0.002209507423102938 
0.02310123176926544 
-0.008754622160427952 
-0.001427806074662275 
0.02069332624573446 
-0.02177553045530121 
-0.01033200436624603 
-0.008577765004383777 
-0.04799335849704909 
-0.0244733000631186 
-0.00765334168542027 
0.01657500136686883 
-0.000209624665596443 
0.01256659703320201 
0.004447798138797305 
0.01337969344022186 
0.02877790324337002 
0.02528030402289609 
0.01578589672300603 
0.02503536592534189 
-0.07561963028232978 
-0.03615379558153842 
-0.01954577053620047 
-0.003046029073320457 
-0.002401828831164671 
-0.01078211138229931 
0.002740228113856219 
-0.01174336954078747 
0.00584577352150553 
0.005522301165630774 
0.007397314706488964 
-0.009679323940687583 
0.03500922420481798 
0.007128188662880282 
0.02284692068030249 
0.002173303793563035 
0.002007799830287336 
-0.01822587456454421 
-0.006814954102552367 
0.001299246319525124 
-0.006277707709355599 
0.01177250967178615 
0.01443663192531961 
-0.006130567977375676 
-0.0304121194365382 
-0.01747188016884748 
0.001254010507080593 
-0.0006945193376147952 
-0.005755285430364218 
0.01368625235107013 
-0.04324659375455669 
-0.01298210916339117 
-0.01837610126439986 
0.01416424827053031 
0.01409652693888695 
0.007974853445317402 
-0.03438654855528377 
-0.01545568883904164 
0.02918428516933979 
0.05105804053040586 
0.02925999772050763 
-0.00569811741741197 
-0.0221593504187225 
-0.01213883294544682 
-0.004777931937070877 
-0.02361931384675724 
-0.005972355504071791 
-0.03264894197016964 
0.001095546163331231 
-0.004368262050134838 
0.00878048027273869 
-0.0510734584738908 
0.0009920318271297035 
0.03912026332217949 
-0.04107442303344286 
-0.03688582498735475 
0.01063782961629622 
-0.02123340102824598 
-0.00848915104982715 
-0.02366861418724156 
0.02608417363024874 
0.02566194876806796 
-0.05357836741819304 
-0.004520822081405567 
0.01221753674333403 
-0.01267723711392919 
-0.04473309252202549 
-0.02189353935168921 
0.008131151814153446 
0.04728092403113467 
-0.005706400919345136 
0.04783774468969672 
0.023490050165071 
0.00744074613686349 
0.01189300957031168 
0.02295622636663252 
-0.03918519282249974 
0.05372134408484699 
0.004344394850786272 
0.01823740479326966 
-0.0192984678207792 
-0.03341473847982886 
-0.01796295972195306 
-0.001618961347922023 
-0.001638945759357704 
-0.00650798949360029 
-0.001575274030939747 
0.008164878176056505 
0.001708161974304466 
0.002124452941598722 
-0.0183508156860105 
-0.008745683099468065 
-0.002697908256669325 
0.0240403491189548 
0.01855276151134251 
0.007039643625835122 
-0.04681382526095998 
-0.02982423498843675 
0.01186579768421071 
-0.0387929335395801 
0.0105659679377401 
-0.04154398831635635 
-0.01882264421431729 
0.01397265548868507 
-0.03196795106253222 
-0.03126110806313013 
-0.01166328153072744 
-0.005823217684762346 
0.02096911770678851 
0.001598035589737209 
0.03655428108555473 
0.0191764537497756 
0.007278648513401611 
0.007018612450682446 
0.0107810261277346 
0.001833185000822133 
0.006109916641304407 
0.02336542306742243 
0.0141022068812969 
0.01880979287536582 
-0.0183148492728255 
-0.01617510421156006 
0.008222095897900478 
0.003092736627323656 
-0.008696857515031853 
0.02621222688960339 
0.04588413304723346 
0.02100416952036717 
0.007378762716207597 
0.005661209855982974 
0.004348303567752823 
-0.01739105483995828 
0.06279856594225956 
0.03360171658629784 
0.004330114204243993 
-0.01110080424907619 
-0.001926078381719765 
-0.006906487683980661 
-0.01034985714589883 
-0.0039312543870272 
0.0005539903198962207 
0.05542451015114438 
0.03014341224156696 
0.01770700822479675 
-0.003753847960680504 
-0.01092660380575415 
0.02589016545486604 
-0.01605152359083876 
-0.008207934701920966 
-0.02230377835896154 
0.007595035225195152 
-0.008817880291522152 
0.02457641235570086 
0.006730100459049384 
0.007214399020201184 
-0.0172223234015649 
0.01123405712662466 
0.02199326068650657 
-0.0004889433919833659 
-0.04637984820996007 
0.009956825733997868 
-0.06110875400386034 
-0.009119381308969332 
-0.001642377401245219 
-0.004773974954272634 
-0.05719282980815113 
-0.02978797499948502 
-0.02468267056087032 
-0.01012422309266918 
-0.004881111723632212 
0.00355599687089775 
0.008800980193345751 
0.01748444444279125 
0.005818281917597143 
0 
0 
0 
0.04635828851527354 
-0.003164978841579651 
0.06170419666914764 
0.001223333034972461 
0.004380538891573469 
-0.004139348494708693 
-0.01264052909676731 
-0.009840622661843094 
0.006143120936566941 
-0.02393437348730415 
-0.07474028043930012 
0.02524061458618926 
0.002470462932914503 
0.00139676406003662 
0.003790411084320796 
0.03315430434287038 
0.0294483851180396 
-0.008414011841434105 
-0.003471458369791127 
0.000718543211056787 
-0.006176008257200838 
-0.05176147140413311 
-0.01788836693411597 
-0.02514808677245592 
-0.01128688794033666 
-0.006670584746763169 
-0.003584532703397861 
-0.02157938591774769 
-0.01004661923224922 
-0.00716105389024834 
0.0007329936323232968 
-0.0009461427147273602 
0.006941912724714191 
-0.05028999318523709 
-0.01594126650158048 
-0.0242305074259549 
-0.007232202696495136 
-0.0005987647868758499 
-0.004140616087118597 
0.03314969131456805 
0.01721992494239607 
0.02990943852899757 
0.04388069771974266 
0.002981462751556551 
0.02550709795145141 
0.07202631127033172 
0.04417877918725393 
0.003257245076976341 
0.03875267856774615 
0.03911404894588615 
0.02172226809490255 
-0.007991326322772449 
0.00597787711459476 
0.004627897177027204 
0.005303716618516751 
-0.002591959007782045 
-0.01069771001727278 
0.007018317226879194 
0.010171665157695 
-0.008893681625601918 
-0.0293731828624542 
-0.01156746132398525 
0.001235076787043547 
0.0315099290724819 
0.02774540179376723 
0.006058330904824541 
-0.03311448789856474 
-0.01013867973273177 
-0.01303892375207948 
-0.08171541685214768 
-0.03410428665503969 
-0.02241392414470821 
0.001724984774619981 
-0.01099881186228761 
0.03629087653161118 
-0.006592587569676818 
-0.001089331830780267 
-0.002102140698649807 
-0.0254637688383469 
-0.008721222760070797 
-0.013828862246111 
-0.04262684751722987 
-0.02157446419141951 
-0.009135970863436474 
0.02357658621157305 
0.01720550635950508 
-0.06203346111793037 
-0.04964171531014002 
-0.0256332024529418 
-0.006632431286272326 
0.01443175912661521 
0.01924579178552811 
-0.04190859894870367 
0.005332181492430208 
0.01594875585708978 
-0.019089813442398 
-0.03767050080660841 
-0.01870319983594789 
-0.01861913938821854 
-0.02353562753433076 
-0.01033823564605294 
-0.007152548740050036 
0.03749909018423753 
0.01814818388128887 
0.01823244163210664 
-0.006052277562274472 
-0.00407163848187809 
-0.002029725430184229 
0.001758601904466967 
0.001365835002260405 
-0.01221111181599785 
0.0422374611141462 
0.01287159998689861 
0.003426943561546175 
0.02065416358435115 
0.02775310647621538 
-0.02872470824088107 
0.06018259015686071 
-0.01811022850654626 
0.05996832468738544 
0.02994908350126811 
0.03445541657694128 
-0.004001925603580521 
-0.002525785229597173 
0.002225954663117931 
-0.008572304868564124 
0.0002093476497200378 
-0.003063166746036207 
0.007968791266212315 
-0.01744610418554696 
-0.001402439737842236 
-0.004751986725844829 
-0.006832675791402525 
0.03647078736345745 
-0.02895270989057098 
-0.009317068751727789 
-0.0001264386563922781 
-0.01128861628747865 
-0.122431959570003 
-0.06744715536736272 
-0.02183642103053861 
0.006855913637666541 
0.01249797346947288 
-0.005123021763804402 
-0.01502977960604957 
-0.004040352924567483 
-0.008519131135384408 
-0.0326924922831665 
-0.002938881756144976 
-0.02294484749206547 
-0.05980819825405431 
-0.03441607856196231 
-0.004560935569350473 
-0.03111659918386511 
-0.008740307611098223 
-0.02850638072393432 
0.03087450284335135 
0.01153547037684675 
0.01413151665402637 
-0.08804262067214409 
-0.04459559853973336 
-0.008279485927230577 
0.02024757101748661 
0.01437112063658823 
-0.0009269334787283135 
0.01616743386953563 
0.01998616231974743 
-0.02738041762151502 
-0.04038125236068561 
-0.01646804978578453 
-0.01867372196999369 
-0.01523944029838369 
0.0004436196523855171 
0.004105634838849135 
0.02387836115803734 
0.005718657265551208 
0.0183330679305314 
-0.02699698810372719 
0.00507890786789854 
-0.03305539347929126 
-0.01034703161998725 
-0.009631422448987849 
0.003705941948963487 
0.006555760235922459 
0.009209279047432545 
0.002085498493301748 
-0.006845144166604332 
-0.004162676702336343 
0.001747928494738989 
-0.01962054994119507 
-0.0006777186929924313 
-0.02850178444472004 
-0.04517540608764931 
-0.011229451979339 
-0.03330286345293424 
-0.01662034315936888 
-0.009896869396025944 
-0.002754357486146378 
0.01042638249266406 
0.00765849177823027 
0.006700066136175217 
-0.01766988375750331 
-0.01061729200681919 
0.01792318525612334 
0.05790267667731546 
0.01116954242031214 
0.03297269480823907 
-0.04815268610296293 
-0.0223153389613213 
0.00597650571921329 
0.034678885272115 
0.02048556070276986 
0.05581246783312438 
0.02191107687868344 
-0.01539946226794826 
0.009788250638935478 
0.02510096024777716 
0.01030221225480518 
0.01938478749628493 
-0.0326110776721649 
0.004193266004548504 
-0.01405223354436448 
-0.0592227142063263 
-0.04648720673650748 
0.01773056439042881 
0.007116582273039185 
0.01127051454638263 
-0.03341519659216566 
-0.00040282390813093 
-0.0001787007921052827 
-0.0002280919594802247 
-0.0103658370592274 
-0.002328152355536728 
0.0003475960077741867 
-0.01629558130876323 
-0.004950763527976235 
-0.002204596670795461 
0.01313629833429661 
0.01767247472117473 
0.0005994996924685568 
0.09304128042171733 
0.03659344812610205 
0.04874298028915874 
-0.01280092282770105 
-0.008391965350324953 
0.007063139622619408 
-0.04523593046875955 
-0.02197047231884514 
-0.00796630747477666 
-0.003772889856564505 
-0.00268330339450655 
-0.0001918837558009848 
0.074729801344913 
0.068861446957317 
-0.01312464046144294 
-0.01961425125368568 
-0.008972041578999548 
-0.0105687414411907 
0.01686774809357629 
-0.0250736713004531 
0.05594546109745601 
-0.03391100287580586 
-0.01424596312065005 
-0.003723913447696889 
0.02158245349843745 
0.02353109385112077 
0.01591102190439714 
0.01615233731257664 
0.01141935994554839 
0.02221715737967968 
-0.005157205186274631 
0.002103986320314935 
-0.011535254010494 
-0.03931499463704563 
-0.01839929765426491 
-0.01233274329153359 
-0.02433862986296095 
-0.004760066860900284 
-0.01400876138688863 
0.04208488711855202 
0.01939831112568987 
-0.001852580703341662 
-0.02158075139017032 
-0.01982843056115874 
0.006787246054842166 
-0.004845106341254508 
-0.0001067106864594534 
-0.004286209968863292 
-0.02955634203343871 
-0.01049079614988222 
-0.03124307685661898 
0.01617774818163746 
0.006676825764519147 
0.007551858288152517 
-0.03666495430185438 
-0.02234089657976411 
-0.01570776677334617 
0.03154807874884064 
0.01240382565962008 
0.003808999018730886 
-0.02575334373685895 
-0.01527401980064127 
0.009392780589092872 
-0.0612878847303859 
-0.01541565017738132 
-0.05513219093461971 
0.03718426747814835 
0.03092124795831438 
-0.01489399946302944 
0.01250376396119933 
0.007855220617171905 
0.002635806470295665 
0.01306117632330329 
-0.001819370764715804 
0.01608482700203606 
0.02329740763820917 
0.0375335664683086 
-0.01359081586969656 
0.04184154352159174 
0.02068098202020998 
0.02405138815110394 
0.005391281048658947 
0.01064892079677765 
-0.004823231712758938 
0.04235697560671941 
0.01383483094355481 
0.004718336448864209 
-0.03216378908773245 
-0.01000462609778353 
0.002974663392051707 
-0.05329956135234783 
-0.02314065945534916 
-0.01221995530175975 
-0.05170851205833794 
-0.03820145490625191 
-0.04607726990835261 
-0.06636580642225545 
-0.02938222055279887 
-0.04091807588644664 
0.01560047659520969 
-0.007319158854636812 
0.01383329940807123 
0.06599003101755159 
0.01048389549125816 
0.09847709594219392 
-0.01749254464833813 
-0.01001717604017459 
0.0120024020728223 
-0.03588226533631907 
-0.01793044264882119 
-0.0128284214679757 
-0.01560794538711068 
-0.008626805657218108 
-0.01568299438623121 
0.01572843536167606 
0.003483410937042084 
0.02413587637358625 
-0.01243703630575479 
-0.01336529044429083 
0.01227075808108802 
-0.03708226571963897 
-0.009288849720375251 
-0.01604533248449088 
0.001380195294311728 
-0.001032806047731185 
-0.007356616327847284 
-0.005505463230490148 
-0.002525161913954698 
0.003883015864755079 
-0.04869705623404439 
-0.01986039975831052 
-0.02650846243654885 
0.002842920825093525 
-0.009068798080236687 
0.02857423646721018 
-0.1183653348018152 
-0.06076867021299566 
-0.02998342271835009 
-0.02566619892464459 
-0.01185090816492967 
-0.001975422974238781 
0.002662494148310629 
-0.001599607466172856 
0.004207863643151626 
0.0364521052133198 
0.02108618745286333 
0.0192852243837401 
-0.05194416910903144 
-0.02455563620317177 
-0.01785793155225937 
0.0004776453668237535 
0.01992801281661756 
-0.03269747185706529 
0 
0 
0 
-0.0413380084700738 
-0.02162160724825035 
-0.004250299042557373 
-0.04091587024035824 
-0.03781419251646549 
0.0164328490441844 
-0.005578952233128378 
-0.002653911383250961 
-0.002914255431870977 
-0.04664168315383715 
-0.02160110842056484 
-0.01046093101845268 
-0.02180980504284007 
-0.02927012386868841 
0.02655661569023534 
-0.05519876162799564 
-0.01799828331268774 
-0.03588856714036928 
-0.0221517160626037 
-0.005628532637514744 
-0.02596886339734298 
-0.06310979202166858 
-0.03437992591483121 
-0.001223503982183989 
-0.04079806871121344 
-0.02174102681629221 
-0.008368561967133491 
0.006549698112916036 
-0.00511491288527421 
0.03967902136511374 
0.01742156060065959 
0.008823467819925416 
0.01831027534606053 
0.01489836763978384 
0.01753970764021012 
0.01722693867166804 
0.00839170678908384 
0.01978094809560902 
0.006444686491377035 
0.0356795812616261 
0.02372781173521267 
0.004519291151164319 
-0.02053765684523367 
-0.01927602867850087 
0.01890497251461325 
0.02594416241279613 
0.02485088059436255 
-0.0007872483218027448 
0.03638094380920565 
0.009877703694858894 
-0.005379607605559773 
0.045098234255094 
0.01358577693998289 
0.03644924602718624 
-0.03629476330085892 
-0.01634796688146391 
-0.002385351425505071 
-0.05767287852767845 
-0.004495678599819503 
-0.07167050081741037 
-0.03227948541693573 
-0.01279817988884814 
-0.02225057885505016 
-0.009363330222333655 
-0.01433957275472505 
-0.003142865018812406 
-0.04047893827613371 
-0.01502325483267522 
-0.01054710885527371 
-0.02645736459676615 
-0.009933964233965418 
-0.013470183602345 
0.03765350315064184 
0.0419123329124684 
0.02127813925532736 
-0.02449716047201362 
0.003512230079538271 
-0.02279530097393779 
0.007646516354485016 
0.01460722805347124 
0.003696658854615659 
-0.03057011211113611 
-0.026907424289823 
0.04004814820201862 
0.09110519645984624 
0.04691169764842829 
0.06449243936203074 
0.01991152618887965 
0.003924109852507502 
0.02049174937710423 
0.04768930354679377 
0.02570128463207454 
0.01471711721121989 
-0.004048495042936784 
0.02351720949207766 
-0.04146077495007161 
0.0109292307547439 
0.01357651140332552 
-0.01318670097423431 
-0.07035881225221298 
-0.02497142262266126 
-0.01586267358030285 
0.0005421976437096014 
0.01526303582040189 
0.02096931510809842 
-0.02392889138342513 
-0.01197362471402277 
-0.0163748498072366 
-0.02976221207131515 
-0.002948056119553845 
-0.02459767282253021 
8.668719453648213e-05 
0.0012303065433296 
0.003303813934903866 
0.006616858221753476 
0.003702193398382706 
0.007296762073287706 
-0.05990151502286097 
-0.02334175187007079 
-0.0185299854220374 
0.06639306920020999 
0.05693395901917313 
0.004206903571641323 
0.02715886565937736 
0.0373065150345549 
-0.02525521533408581 
-0.01753056969679418 
-0.0132904765946003 
0.002083073733274205 
0.00307540206462053 
-0.006037738707987003 
-0.01867231584772496 
-0.01822965852122978 
-0.0007018645591570313 
-0.005633708611744723 
0.02790207221457482 
0.02103742599335842 
0.01016687935169709 
-0.006779545567846525 
2.324384113048246e-05 
0.01339887337248959 
0.03179477998576336 
0.02330708759555143 
-0.01149582880405162 
0.0007339582893799726 
0.006298427416148254 
-0.007204304997329897 
-0.02179464582620804 
-0.01963433460136045 
-0.004519433745900428 
-0.01190386484433224 
-0.01338109710818318 
0.03250894499954382 
-0.04310338181250783 
-0.01780887474899583 
-0.03108134168760504 
-0.02791365622600455 
-0.008536218788417059 
-0.009252716013830965 
-0.02738699571286331 
-0.007476679225881271 
-0.02210316777337248 
-0.02078493107835082 
-0.01262962626519765 
-0.004825788306040325 
0.01102475017234889 
0.0031471704347254 
0.02682122184396031 
-0.03759497159353305 
-0.02250159255938479 
0.003400911438223258 
-0.01893123602402995 
-0.01079534550871142 
0.0009735110696700398 
-0.03161609344340043 
-0.01384958461729445 
-0.01791995201577484 
-0.02341863950824048 
0.03556503514995198 
-0.05400637769214212 
0.02516442961063265 
0.01377029427335611 
0.001372105918945664 
-0.001299783530745808 
0.004545109301707317 
-0.008010731628293268 
-0.007674859645314763 
-0.003421785291618184 
-0.003071320414962215 
-0.03312300555072122 
-0.01746770552095984 
-0.02831643076685314 
-0.01529966681219721 
-0.01207143205880714 
0.01103458379092178 
-0.09384270986477751 
-0.04763371375543323 
-0.02211871044981998 
-0.007852906383510314 
-0.005642771883315222 
0.002451373040321507 
-0.02480923675222437 
-0.01355947084731205 
-0.0001071647129051631 
0.058037431189045 
0.02252865651513751 
0.03783285755670854 
-0.002291112863815615 
-0.001729431338455681 
-0.003377959101014777 
0.006231762050690209 
0.005024010396670687 
0.009787316313710452 
0.00427871677172996 
0.005179633920810932 
-0.01473533408751975 
-0.01788413856436944 
-0.01305169904494826 
0.01445571526028441 
-0.02300231237259997 
0.004754718252480492 
-0.01712712845570138 
-0.07183373100285628 
-0.0430685375396739 
-0.002632805676655795 
-0.04369565519873986 
-0.0222308788788185 
0.003038207876890383 
-0.02122939515537264 
-0.01061805714676581 
-0.003571950481243723 
-0.06793979686726281 
-0.0345986477499234 
-0.01326523056207207 
0.002532951720623042 
-0.05478027340390405 
0.05286807708798348 
-0.0196173557148848 
0.02402190679579157 
0.01093782303678635 
0.02061652616595548 
0.01278099238939465 
-0.007990835033117961 
-0.08315269980976203 
-0.05150286795245207 
-0.03962503457963027 
0.01008802528794468 
0.01073858951817343 
-0.01578796722091628 
0.01989283556401349 
0.01333896720881265 
0.002126232118357284 
-0.04426611233038429 
-0.02472572780194443 
0.001922952571501328 
-0.008116981233595189 
0.0004923163018790919 
-0.04027198860167619 
-0.01285757423015844 
0.003356135247919537 
-0.006309198077707013 
-0.01276058357369317 
-0.01011085370579338 
-0.01225369865036524 
-0.01569828704567059 
0.01572919743907134 
-0.03708550014579615 
-0.05754962993960713 
-0.02994450795395295 
-0.01614742390369759 
-0.03334350078356848 
-0.007406088572051284 
0.01478668613356182 
-0.04950303776086661 
-0.03390490006457287 
-0.01946641527356957 
-0.01833959811055056 
-0.0008846774336667744 
-0.02867132355182864 
-0.009951155480878198 
0.005846985311474565 
-0.01729694497693228 
0.04891233597112928 
0.02750618094157881 
0.01767699140418949 
-0.007228282378562196 
-0.002719353525462853 
-0.0001670776808149769 
-0.008173580184776317 
-2.674792858511508e-05 
0.006268105099368496 
-0.006498373099485235 
0.003325547365166004 
-0.00959052449706304 
-0.02986982154755042 
-0.01393687463991783 
-0.006701710788730039 
-0.01000527722503201 
-0.003398731920140182 
-0.0006716496956751974 
0.03901869678966111 
0.02195721152757228 
0.008577098540057974 
-0.01863906088866655 
-0.0139518706627053 
0.00812295924759591 
0.004274919885514767 
0.001849766771981422 
-0.01762281699822503 
0.01168290038922935 
0.009562823579151364 
0.01096622102862236 
-0.1148408035937298 
-0.06659136907509811 
-0.008945099420459034 
0.03950105237127234 
0.02850365448047982 
0.005270942809327136 
-0.007198705700687035 
-0.00023380146979788 
-0.006319856071648213 
0.05353494268180112 
0.01106630657999048 
0.0444739453575148 
-0.006543849118235448 
-0.02003960265949579 
0.04225566070175292 
0.0009443605100473447 
0.002129259741492298 
0.001955087573547789 
0.02314891836347436 
0.01069559635717116 
-0.002208699156062071 
-0.03073331681429826 
-0.01524032682510969 
-0.001113249491873268 
-0.01527286063094813 
0.00175804218797195 
-0.03233867208067115 
0.008527473625287418 
0.01759880723936086 
-0.02410064004406715 
0.02333283010523781 
0.03010862973427094 
-0.0150098953252223 
0.02981634333295097 
0.01005691410418346 
0.02100814069542234 
-0.01205065957368485 
-0.01142084193797582 
0.02280182654831619 
-0.04688600931120924 
-0.01621956672865613 
-0.03522435337226711 
-0.01208410783316448 
-0.005817308581435122 
-0.0002899028987653839 
-0.0140925949779238 
0.02407025392990711 
0.008188798951073032 
-0.03119923194324052 
-0.01613550174503096 
-0.02489063754972987 
-0.07010463927088287 
-0.0234414272434675 
-0.03202709341457685 
-0.03130670511930912 
-0.02197415908866251 
-0.004226965429585647 
-0.01376245642870457 
-0.01457454508962139 
0.01616472459626556 
0.03025256859865966 
0.01563452642209642 
-0.01274327355622334 
0.01205073268700828 
-0.004353698208136895 
0.02051066283571748 
-0.02319280708562486 
-0.01235319204763847 
-0.002026322712215522 
-0.03868819913380064 
-0.01444087700598544 
0.01225396791243383 
0.01798067567376525 
0.01811382069254133 
-0.006837298522738241 
0.003795601076329366 
0.01112937220053861 
-0.01630504987465384 
-0.0008375776296471305 
0.03562204833961046 
-0.02731700375877862 
-0.0172028131194388 
-0.013101527007845 
-0.007802165471786503 
-0.01824982523644786 
-0.01036202864300552 
-0.00639771935673509 
-0.03090339586162889 
-0.009399001271009629 
-0.003943763506123853 
-0.02186780381435892 
-0.006618019129637671 
-0.03900616667243587 
-0.03621270257658789 
-0.01906570739936581 
-0.004618916861718289 
-0.04116627759123399 
-0.02505059624154648 
-0.0005942306068061427 
-0.01041813710354033 
-0.01319538506484987 
0.04822983041250722 
-0.02018784641069609 
-0.004223912203304189 
0.0003011953436164818 
-0.01253338401149941 
-0.01981485620952114 
0.02451292635292219 
-0.06112834568335196 
-0.03168477152703183 
-0.03852396335565483 
-0.01492648931558479 
-0.005255447217029084 
-0.01184777766328331 
-0.01893984502851096 
0.01394949025344228 
-0.06413863750112059 
-0.01497117658111682 
-0.002416388290211471 
-0.01194607342553082 
-0.009641562071277915 
0.013395748730375 
-0.0001961504427281765 
0.01803927177893096 
0.01985810712711911 
-0.03243765415350694 
0.03252292698635036 
0.03372599732512326 
0.02581004826893708 
0.003986960607087527 
0.005585461940071036 
-0.006446555881712979 
-0.00775280601402773 
0.0007155457512144392 
-0.0122417411192824 
-0.006856125858845419 
0.007773006815010331 
-0.05204612477181002 
-0.005888925264184212 
-0.0006607422978559336 
-0.005507851427910844 
-0.0323193734972191 
-0.01229410308411215 
-0.002181759022615967 
-0.006425735912241588 
0.001540587271606241 
-0.006237682987587833 
0.0522820249458904 
0.006494209027166203 
0.04004458823225808 
0.07983061165678063 
0.02115738629032654 
0.08073670490677871 
-0.1075210930740388 
0.04879500178642376 
0.03375658178323324 
-0.08305478355817453 
-0.002139730501598261 
-0.02088392496809255 
0.055672122847104 
-0.02041053565244533 
0.1067461784038032 
-0.02784015807110664 
-0.006433712563738619 
-0.02720204570312434 
-0.03168401443242921 
-0.02036312172378467 
0.01828049557989312 
0.005000841553405315 
0.003303468952167089 
-7.470047836397954e-05 
-0.02376383975223754 
-0.01113442511897936 
-0.001513388956856285 
-0.03629810016598575 
-0.01430918709763815 
-0.02192012354278034 
-0.02040304415430059 
-0.005280528936442219 
0.0009043724721708695 
0.01769810205428691 
0.0179986481467615 
-0.0086610026987091 
-0.003070498797005584 
0.0009800997711829921 
-0.003153874973147878 
-0.01089847494576954 
-0.007930131012740855 
-0.03188981101086582 
0.004366209575365545 
0.0268243423527588 
-0.02137573558163459 
-0.002222774238904751 
0.02978136661270136 
-0.01889390700371621 
-0.02668609359286755 
-0.01302974102611538 
-0.001318372728444589 
-0.04731187107011299 
-0.04253801158511936 
0.03315941460984685 
-0.06951189057500677 
-0.02716883238401296 
-0.02491001232936877 
0.002881326499569245 
-0.003346814976752507 
0.001234013965927625 
0.03512232212174189 
0.01626449236240373 
-0.01147132468070154 
0.02174688014290842 
0.01936231577266552 
-0.01206982021277453 
0.01601103127920341 
0.02314765814281763 
0.00970544853128092 
0.003563773912417496 
-0.008493097960999783 
0.01792328671859474 
-0.0151892854834606 
-0.008982893880769172 
0.002613478423226147 
0.0337873105476129 
0.0196423408976319 
-0.008782490333464786 
-0.02896137219207826 
-0.01806511673354888 
-0.005277508610026204 
-0.003222701290964839 
-0.007741281529732849 
0.007192954105116178 
0.02218835712518111 
-0.01301831149637154 
0.05698393331331548 
0.02809165537515993 
0.0163377803546217 
-0.005445517350271468 
-0.005770258839844663 
-0.004560974965068698 
-0.00697749150426989 
0.01249569937768064 
0.005277744200069457 
-0.01485080355262407 
0.00384107146583173 
0.005915601898931208 
-0.01595791973004826 
0.01921271642939384 
0.02728098104517098 
0.007152411298981114 
0.01644785882570121 
0.04381068002891692 
-0.02436979184891671 
0.001449477442466737 
0.02403543143438472 
-0.0525806838594116 
-0.01993234748064492 
-0.02471257826967588 
-0.005543525929391003 
0.0009064697626157967 
-0.006693779264655687 
0.01491170037327538 
-0.01199612914653158 
-0.03515984308451345 
0.03228877902938595 
0.01555350147245861 
0.03768946887189777 
-0.01847597353821203 
-0.06077443452924478 
-0.02990781833166839 
-0.01055095251940683 
-0.03126665283329245 
-0.01758831605706749 
-0.01551183207045326 
0.03956298150307185 
-0.009090529627742693 
0.03487993516754605 
0.006218596153732493 
0.004683388864316399 
-0.01095591859604828 
-0.003163313432973215 
0.004349272275814402 
-0.009862101854298746 
-0.01191096256260925 
-0.02128395633123275 
0.01345013536276751 
0.04592384624332664 
0.008683254088209216 
0.0359929349091792 
0.009471889099882931 
0.001536332706892343 
0.02296887345182519 
-0.02109589881632234 
-0.01355534692284617 
0.007255698162581465 
-0.1104289854534493 
-0.03639183996209896 
-0.06244455439372389 
-0.03423502724727838 
-0.02044938544655836 
-0.005265834164390704 
-0.03251417275342495 
-0.01574827061238807 
0.004158877867058789 
0.05763098896686451 
0.03568536129210845 
0.02365541891572456 
-0.01572469040623439 
-0.001845270469856242 
-0.005878942125524604 
-0.03980218811277917 
-0.01305592801716208 
-0.001765426989213345 
-0.008635802709987785 
-0.0005658176091046966 
-0.007735341748430239 
0.005548175104545835 
-0.001883982743933516 
0.007067299439910407 
-0.02659252145131509 
-0.004717078324930403 
-0.02211413319610115 
0.01174082035620876 
0.0009375233575585384 
0.0004200270533879139 
-0.02027771546507835 
-0.01124332145906139 
0.004659382535127109 
0.02361899539727975 
0.009235394062806693 
0.02675869766104226 
-0.03409840630694631 
-0.01074334023818209 
-0.02254850310509361 
-0.01996818984813974 
-0.003538743640745959 
-0.01810892562070143 
0.01231657814385014 
-0.0352994241278555 
0.01735691398066389 
-0.0188872778123583 
-0.00391941406778815 
-0.03526930601607649 
-0.03743382106966538 
-0.02908935209541532 
0.002140261542490035 
-0.01495597042976498 
0.006991026460412825 
-0.0363193398329005 
-0.01126323120341252 
-0.003892070505859846 
0.02300001861325446 
0.001105851699765902 
0.01940906942002683 
0.004260206184323193 
0.005384577759985873 
0.01330017163652706 
-0.007325404136549317 
-0.02339844715148303 
-0.008062648564329259 
-0.01087260794538456 
-0.00373949775243392 
0.01340993000272174 
-0.02126425253385419 
0.05149236446309448 
0.03314363717244843 
0.01690654334635962 
-0.03409028663132998 
0.02005101526046246 
-0.04901512250969995 
0.02613939689269612 
-0.01374165255145069 
0.05906414264438276 
-0.02513850962705591 
-0.01509928425248403 
-0.006686996932996073 
-0.04934764495656443 
-0.01448056850215723 
0.01549555711664163 
0.03493409958158727 
0.02380041761601207 
0.01100242722615625 
-0.02134337177142626 
0.01678790019659523 
-0.03232362055648672 
-0.008573628886417321 
-0.01638485072632563 
0.003777241738470472 
-0.02096951101668734 
-0.004113924779330078 
-0.003757787351920334 
-0.0372011027166284 
-0.01318058862261903 
-0.02491075228564148 
-0.02787537329517316 
-0.004262809905984414 
-0.01741975796789687 
0.0294649003509913 
0.01896462967644211 
0.01981972098219081 
-0.006233581977165919 
0.001570962196369067 
0.02675701257403385 
-0.02326288801573156 
0.003208077485708661 
-0.02817091156489773 
0.02300976169892565 
-0.02090651197172036 
0.0331920312340354 
0.01979894258236811 
0.03636241531853095 
-0.03278610675643798 
0.02199141512554696 
0.03444962658995795 
0.0144824468414145 
0.006284541615688299 
-0.01011795977680752 
-0.008813889357366966 
-0.002094670060440276 
0.007095924705233976 
-0.01828979548705364 
0.002833361410348108 
-0.002932786760806179 
-0.006768337577178224 
-0.006241769112612844 
-0.002373414258367138 
-0.003543083681596281 
-0.006641417758945094 
-0.01473696422875615 
0.007946447092383672 
-0.02714456701177468 
-0.0005243698801695518 
-0.001964402407502223 
0.01162638556714212 
0.00621196587618078 
-0.01287818691222014 
-0.04887812201111646 
-0.03925906594635478 
0.008022333575236837 
0 
0 
0 
-0.02175078664511659 
-0.01471439301764433 
0.006680080470578456 
0.05974629144014573 
-0.0239149952436463 
0.07301682710930243 
0.03763358885125269 
0.04246866676869671 
-0.05460819789035963 
-0.02236546324806553 
-0.01451510370860309 
-0.003288985033409771 
-0.02120577243476347 
0.008924538621963869 
-0.02853170743301675 
-0.01931147812475617 
-0.002863622048473707 
-0.01069155832500281 
-0.05234227845213067 
0.01969901008752117 
-0.04331830262469271 
0.03775350115454097 
0.007955971230936163 
0.02805863701475329 
0.02567611492457195 
0.003669308228118854 
0.02018944365464551 
0.0186312659322657 
0.005181221172229696 
0.008396519559025427 
-0.05723104098768757 
0.02334555556575171 
0.04496064254935175 
-0.006097831808840584 
0.002388320856033454 
-0.01501046576810833 
-0.01708117854841403 
-0.0243991820416615 
0.01464378694991442 
-0.03923073600646644 
-0.01799619486839008 
0.02703024839808212 
-0.01364693341198285 
0.003622796905130962 
-0.03193541830109561 
0.004920305789542893 
0.005100119182674639 
0.03981087670584694 
-0.005433086776949076 
-0.001537632657843486 
-0.003133412918907111 
-0.02382639665404017 
-0.009358724738324687 
0.01675369519345919 
-0.02363227373801569 
-0.01282716888703797 
-0.003592757743014281 
-0.02570772398389504 
-0.02657222902022187 
-0.002121224508215862 
-0.03429105671730835 
-0.007418961716052154 
-0.00741034559924872 
0.04874454782213876 
-0.01111623358893748 
0.06936176787592276 
-0.007244068853778915 
0.01026045801770469 
0.009833646473249861 
0.004285127548989422 
0.005209649873057998 
0.01897076840823335 
-0.02039095671892776 
-0.03470168760486243 
0.019720849434822 
-0.02985677513583918 
-0.008268886010586018 
-0.03837820118289209 
0.02079262442201069 
-0.008439652426576055 
0.06021834637073054 
-0.04932782052511209 
0.0008797709827561804 
-0.008080411303956691 
0.04397725189661916 
0.02004906846615128 
0.04457734985537445 
-0.01952185040885165 
-0.0137554755634399 
-0.0003358345719340398 
0.07131711662302191 
0.02154557671898186 
0.02157722237656046 
0.006282022748426637 
0.009124984401686523 
-0.0008691564890603617 
-0.01553250886470131 
-0.0191695317736813 
-0.01832374051798249 
-0.01681239956861255 
-0.007650159964606198 
-0.023440121418824 
0.03588955245145381 
0.02271796391354305 
0.009631943226259628 
0.01360189020596039 
0.01131571117991153 
-0.008732032808552571 
-0.03157387918749812 
-0.01270686927077966 
-0.04337424501589702 
-0.009061182053782384 
-0.0005486939815653929 
-0.01521768811387595 
0.002811880559900033 
0.005117064851486927 
0.01217443881255707 
0.007182498123112332 
0.00503668492064824 
-0.02128588803868619 
-0.06008905739700107 
-0.02229632484714143 
-0.01902622088826711 
0.002689377423240757 
0.00780653561536087 
0.009978225665890962 
-0.03700751916519132 
-0.005079325407435129 
-0.02041918111679398 
0.01777207947650191 
0.02267357306639967 
-0.01807077904851804 
-0.02567883971469971 
-0.01229183578022675 
0.02640558010590865 
-0.02528005437092648 
0.003272666680597207 
-0.05330776853577074 
-0.08580466552322108 
-0.03664113394411361 
-0.02146412834951722 
0.02455411913768464 
0.03790216771836166 
-0.008796612114732164 
-0.01346500083791944 
0.01313025797074075 
-0.03053920627272785 
0.03337507670031568 
0.01762789156679376 
-0.003917048773248686 
0.01030716903945262 
0.003030786282710543 
0.03332595060210983 
-0.01744663390382013 
-0.01542973021452492 
0.02784959541832002 
-0.03395983577961127 
-0.01034999209074669 
-0.005625880609809664 
0.0006472326319852647 
0.007878881210744967 
0.01216432090124863 
0 
0 
0 
-0.02050053145713154 
-0.008851108111212735 
0.005784220031766227 
-0.007650553206089828 
-0.01004170307393088 
-0.01349199105853159 
-0.05557467309010514 
-0.02030392962264512 
-0.004512425021725376 
0.008604541612340045 
0.007877470013180819 
-0.004485482141429782 
-0.01314561895037321 
0.01142807154558902 
-0.002795777623476929 
0.0714664604022815 
0.03781872379738292 
0.01066425188816016 
-0.02835196984206121 
-0.01566311644041618 
-2.657119956447598e-05 
0.006783655379085228 
0.005557473684951444 
0.001609183535215263 
0.00498247246810392 
0.014916168274433 
-0.009651037443966911 
0.002669166742416081 
-0.002497591091862285 
0.009522547033083008 
-0.01889728522034024 
-0.0016737176195631 
-0.007406540323099711 
-0.01182288025225498 
-0.005173895856652614 
-0.007342065100646111 
-0.00265561078553905 
-0.0004387513043457236 
0.01564482525579062 
0.008882155445204898 
0.01469834083886198 
-0.02529148723020908 
-0.01203841810517161 
-0.005422279831362422 
0.003231322460859351 
-0.01269674546031451 
0.01914943887808723 
-0.04892674931849019 
-0.06687420022336785 
-0.03069892475104738 
-0.02059663287189953 
-0.008266698565628651 
-0.005904702776275845 
-0.01163309808527346 
-0.04458437922330904 
-0.02638788378447257 
0.0006688444114198813 
0.01567933878541902 
0.01541994738987966 
-0.009535599166532341 
-0.004644546151261541 
0.0003324602702645371 
0.003068098124129844 
-0.008794402723493902 
-0.004725232392466468 
-0.002209593635115875 
0.03957279070822742 
-0.003163037435117273 
0.05786480194161326 
0.02307515478387847 
0.01431652158121025 
0.01419780633114281 
-0.0373546276307812 
-0.006278209687712838 
-0.011397653996663 
-0.007458003197866835 
-0.01487348325868854 
-0.0007152763229416708 
0.01848853015497158 
0.03101433918116691 
-0.01217930293075524 
0.04012401292377542 
0.02199095226812548 
0.002503103103211581 
-0.07028099907185587 
-0.04426179793395328 
-0.02205830583148428 
-0.03366743730082278 
0.007253054198093573 
-0.04030673041887169 
-0.0845052316372706 
-0.0480250922362402 
0.0057003641276749 
-0.04989760809820142 
-0.01580780474062555 
-0.008876524428208214 
-0.04159582669084183 
-0.02881805372775011 
0.01585437521767267 
-0.0003425316124500153 
0.03690104637956799 
-0.008316620426348498 
-0.05993799843403044 
-0.03024164124030261 
-0.006111303087778961 
0.007988574357847783 
-0.001388149015384998 
-0.02924593305664763 
0 
0 
0 
-0.004448634540804917 
-0.0163692748667809 
0.0008950330499929235 
-0.05169384790256062 
-0.01952169016217404 
-0.00401298780774481 
0.01938181882104881 
0.01724784246829802 
0.002759942742212932 
0.005206442655935249 
0.0285521820348935 
-0.02231827199434094 
0.02299958114604257 
0.01268958168184666 
0.001265593671841421 
-0.03129242143388749 
-0.01762943142795815 
-0.0124162895011263 
-0.03190296975987965 
-0.01729730541191228 
-0.006743689829318152 
-0.04864853594180062 
-0.04325507001170916 
-0.03110492726100821 
0.05412204503861412 
-0.0116198266429411 
0.06782626792218885 
0.0724832666092803 
-0.005534062080741372 
0.05270075800431896 
0.02758130405920441 
0.01135921042887776 
0.009056271971890802 
-0.009932200389902073 
-0.01288061113230805 
0.03646040961869132 
-0.003993487139551432 
0.005741828452580418 
-0.0187686638198032 
-0.01713133856953779 
-0.007533674142819235 
0.004619920309123238 
-0.0384736706122658 
-0.03885658162220734 
0.02820961302872229 
-0.03302781440145389 
-0.01822224115034487 
-0.003875244975292862 
-0.06898207711352711 
-0.0187964254895451 
-0.01780788803084925 
0.04023662095160109 
-0.005300753501546225 
0.02313489295319535 
-0.03556224220379003 
-0.01967298368613242 
-0.01983422608871062 
-0.08619159174456055 
-0.03985350580763192 
-0.02731018272841331 
0.06236059004205119 
0.01027418782815375 
0.0344608347196737 
-0.01371019201381913 
0.0025014359380655 
-0.01127408395177427 
-0.08416600794558037 
-0.02534442624039236 
-0.02739120035288263 
0.003703822021856735 
0.01508446198091134 
0.00264829631354999 
-0.03879363035236444 
-0.02097024202502852 
0.01000102344895809 
-0.02518662815729907 
-0.006273317264047094 
-0.01222424491483104 
0.05688195467576441 
0.04045615083835805 
0.0168114431114708 
-0.01491958263680302 
-0.01114202507048415 
-0.01100253407164264 
-0.006721321628786827 
-0.002875780650076952 
-0.004787811951061389 
0.05125926531978623 
0.02466293206106253 
0.03218823595104076 
0.005934593649555773 
-0.01507113164909384 
0.03150655234668625 
-0.03020134212759109 
-0.01142765242660906 
-0.03098251601521785 
0.04305546589263264 
-0.05190186711701935 
0.05042968133300679 
-0.02103439086312164 
-0.001043314739524749 
-0.01445454199445844 
-0.01859801751829169 
-0.01051024114167341 
0.008134973317825509 
-0.003636451022712895 
0.02467096326224497 
-0.07348678573302339 
-0.00168310221145554 
0.005713449022152615 
-0.03307451555678347 
0.03195081276225666 
0.0188015867460828 
0.02721958308988763 
-0.003379685511432951 
-0.01230743451084067 
0.04516266392822623 
-0.05355662514851564 
-0.027076212360995 
-0.02124599310261051 
0.0183693681887693 
0.004890740200151435 
0.02504249128598083 
-0.05872406829940847 
-0.007109938712553199 
-0.04455310368330611 
-0.03524178093155886 
-0.01217479168537113 
-0.02012653891014734 
-0.01058272311285631 
0.001112209120224649 
0.01434282231528061 
0.01853670325014276 
0.006775072390106099 
0.02111064647900817 
0.02989784762744544 
0.01418891377549498 
0.01990320144646263 
0.04149400072505288 
0.02850212718627378 
0.01991234190733458 
-0.01630682104870029 
0.005942917768149598 
-0.0446310614739114 
9.977719623192781e-05 
-0.006206137708529127 
0.02857853644723237 
-0.01232577601036487 
-0.03439585576485357 
0.02420119045196423 
-0.01944721405763261 
-0.01105321940450163 
-0.0007765668770621609 
-0.005314606002606242 
-0.01428675905000803 
0.004518180253245543 
0.008955564907987485 
0.02284085880647079 
-0.02325841107002708 
0.02778010671357575 
0.03213180732607421 
0.005285478733920707 
0.004421687998635852 
-0.01431037246224677 
-0.007647960937419832 
-0.03636598867511748 
-0.01681181316499947 
-0.001700506267884475 
0.03325493837367296 
0.008559891870781353 
0.02882100391308257 
0.01142873426878737 
0.02984421138856363 
0.03031376195639931 
0.05459087066421892 
0.03198414723380309 
0.002842412260913733 
-0.02927463141691343 
0.00694717613326999 
-0.05165034415892151 
0.008020657059971426 
0.01120554415573596 
0.00549869291947582 
-0.001046421528724047 
-0.01097985018853146 
0.02529983728734126 
-0.04306213819627824 
-0.006780307881190623 
0.008803628747616435 
0.09731663570533118 
0.02336113780346043 
0.04900499155481473 
-0.02411398986466982 
-0.01128508995100079 
-0.01267185343429732 
-0.03256213507162081 
-0.01729548622135113 
-0.001595188666301597 
0.01292860445432018 
0.01090844890892863 
0.001064543695215014 
0.01064374966570818 
-0.0002164925357075188 
0.02210993573125743 
0.04054024209201944 
0.0232819612254806 
0.0578367181835294 
0.0006641079733935361 
0.004309898485737844 
0.01016369934935812 
0.02568998376563608 
0.01100439055218786 
0.01195910959785792 
0.01233288246091641 
-0.0096817026748623 
0.02724298171641354 
0.02560832556032318 
0.008837337733262427 
0.03862689417416824 
0.06495065492799193 
0.03903053558403952 
-0.02556902463726756 
0.01963600947815388 
-0.01697101230577284 
0.03273709186345226 
0.004946612026170695 
0.001982790067133996 
0.01055849983395516 
-0.02975009665956394 
0.002891786646522722 
-0.007111049811561946 
-0.01770884929086728 
0.0008801168517410098 
-0.01105999591283298 
-0.05930082476121455 
-0.01353294020055492 
-0.03265202122009379 
-0.02401002142816856 
-0.008524964225146399 
-0.005610026943829578 
0.06705823451732856 
-0.01283049125436028 
0.003223684257040245 
-0.01717458014877103 
-0.005287159374560812 
0.006489841102267716 
-0.008944287929722175 
-0.008462786493172444 
0.002338123513613428 
0.04119326622281569 
-0.001983754660035648 
0.06080164817875659 
0.00537278737649115 
0.007505798286714421 
0.002522686632120123 
-0.004389627984146023 
0.01871662551887235 
-0.05236301661679716 
0.0027344514056285 
0.02145439292556696 
-0.02205743468856765 
0.01276861526971345 
-0.01594629659499509 
0.04090345720401436 
-0.006343826157756594 
0.01225549919076924 
-0.02079124786088958 
-0.03621515007350035 
-0.007987168608519746 
-0.02232111966839564 
0.01696440802939295 
0.03448558890636004 
0.0007117490198108801 
-0.02758654308330603 
-0.01292508215528401 
-0.02785454387081206 
-0.01252254531775295 
0.01680621154604712 
-0.02064753935391561 
-0.04757176094115557 
-0.02200810982412981 
-0.02613595410087002 
-0.01253442903749777 
-0.01038546993660222 
-0.02404129390036462 
-0.002204647704708006 
-0.001168487459235641 
0.001072159121721494 
0.007350191547423906 
0.01698347179036742 
0.009970233529278257 
-0.03891607969709437 
-0.01876017941663881 
0.01241204860355521 
-0.03047599490843036 
-0.008338988664085594 
-0.03730878488227731 
-0.00668474580136984 
-0.002996101934072845 
-0.007910088335099714 
-0.003947818616210471 
-0.004926118286667411 
0.001557372817468063 
0.006142872958464814 
-0.009285015014676242 
0.003496857671758436 
0.007312389266035785 
0.03210172325054238 
-0.01982104162141176 
-0.1550002795937156 
0.01082694240179362 
0.05406490161297287 
0.01015784551889978 
0.005190002877141951 
-0.0133806529240746 
-0.02663319649979125 
-0.01600119277444562 
-0.01521017991437145 
0.04526269580418984 
0.04318018660613993 
0.01769626994613482 
0.01900631778888342 
-0.01626215962072981 
0.02308452553523761 
-0.02220391386333473 
-0.01121698827454246 
-0.002447915273951038 
0.04708146750604033 
0.03330031551602118 
-0.03067584606994095 
-0.009618037708753566 
-0.005296270689189852 
-0.00729008124789653 
0.002985259625136477 
0.02878822908210524 
-0.04152783716041734 
0.004752349100641502 
0.01054868687346126 
0.02248705125818654 
-0.04583828800090067 
-0.02599291651180589 
-0.01046926410550736 
-0.01391504852915091 
-0.01061118684913564 
-0.003004094522502574 
-0.02037936069631554 
-0.01310712109891134 
0.002393287409919366 
0.01058353722174194 
0.01591599932634559 
-0.03057892802009132 
-0.003055556829869843 
-0.00436347862318302 
0.007104897146730156 
-0.09025678384059947 
-0.04922627515613432 
-0.02173637465003786 
-0.02495644657613007 
0.01327952444590293 
-0.04925747894276625 
-0.02231476064022506 
-0.008456245126042311 
0.004979430819428717 
-0.02355940982245776 
0.002477135999726098 
-0.001353610189950742 
0.03695343974102595 
0.01962742955806091 
-0.003874282881612364 
0.04222878557447112 
0.0728762936822224 
0.0001794396216624748 
-0.05108627277069725 
-0.007592006049718818 
-0.04253229965083593 
-0.0293293116222358 
-0.01861117195773463 
0.002171333273473926 
-0.02344756874518957 
-0.02735509179726621 
0.006006328515262001 
0.00325215829199544 
0.002720147178349919 
-0.005831624986635414 
-0.0529357774987203 
-0.03305505779089208 
-0.001851272034744076 
-0.01893900054175301 
-0.02067555887139211 
-0.01614057309330793 
-0.006930273501993839 
-0.0007008031097116665 
-0.009575374598249298 
-0.03671742275634765 
-0.01674301740737093 
-0.01905368241991982 
-0.04996511894098422 
-0.03491795360959619 
-0.004687909846014906 
-0.05589699330699329 
-0.02601575846987065 
-0.0138128954461935 
0.02160310489725781 
0.02672765998463408 
0.01446298262872474 
0.008862849963000826 
0.009592235964171556 
-0.03244852872886927 
0.01415880167990148 
0.01319625183945039 
0.007709438922887796 
-0.01023301266225136 
0.01379332051020143 
-0.02923890919956716 
0.002725842512029778 
0.03516192560746573 
-0.04171367283986881 
-0.00571605497500581 
-0.0005093834418648006 
-0.01498255094045241 
0.006917497579657895 
0.01877883277942437 
-0.0007791352387930705 
0.008566265402971483 
-0.04742362071427445 
0.03746395346478557 
-0.001599585245858557 
0.03420148859398813 
0.03145815371372067 
-0.02436437743092684 
0.0001754385646152212 
-0.003645662878858886 
-0.01508656731934004 
-0.01046231145272596 
-0.02552378627782029 
-0.02256467638469681 
-0.01018172159787575 
-0.007673405434152527 
0.01349582036794275 
0.01173807864970831 
0.01775939826682334 
-0.0265515978558336 
-0.01438805709217253 
-0.004813541927377208 
-0.02232470586359105 
-0.004061007854944428 
-0.01343149780532456 
0.064643860083911 
0.01646946279410319 
0.03460631027456854 
0.04813552060842201 
0.04188068217027759 
0.0119922943430884 
-0.03020925824142865 
0.005465518332508816 
-0.05571036717920871 
-0.01380026839956073 
-0.006249893988039537 
0.01489967025304288 
0.0268530466603761 
-0.02364697860256077 
0.06275895200679361 
-0.0256598300318426 
-0.01596284868654717 
0.0239727273031519 
-0.001123083872109065 
-0.007926753731121259 
0.009027793409646555 
0.002627982715724982 
-0.01066428013360895 
0.0276808703144835 
-0.02479507873081664 
0.01270282147706497 
-0.05124941094998738 
0.0259044614519615 
0.02098956076361414 
0.003662543241779562 
-0.03923885561444876 
-0.002574354193770619 
0.01648370677902805 
-0.02381472336180461 
-0.0129032536169928 
0.02551587098016745 
-0.01657506363348795 
-0.006298587291446669 
-0.005743404337751062 
0.0005324717118735667 
-0.001841929736441541 
0.01568712074058929 
-0.03328058176159075 
0.002053359755146446 
-0.01102601993554533 
0.02595715330168687 
0.03426918612857591 
-0.005637477639708816 
0.002492200896964423 
0.008172654814092425 
-0.003410469184856372 
-0.05864692079027417 
-0.01870701034537093 
-0.002191965881359516 
-0.01912046459788367 
-0.009883687266386561 
-0.01303315065760492 
-0.004768292707566873 
-0.00548133860695539 
0.008735962045351224 
-0.06168070954385889 
-0.02664104186789855 
-0.007504130413035296 
-0.00501549165389093 
0.006960754836563325 
-0.03410796967878311 
0.001897752942759347 
-0.03158327910746377 
0.02426194688085733 
0.02092514934380908 
0.0262586910837652 
-0.0307390782876177 
0.04911159482390784 
0.03003918109769678 
-0.00265518136003249 
0.02362572751781239 
0.02245235680074822 
0.001554330056128075 
-0.03581535303825247 
-0.002893117176731327 
-0.008382649485043093 
-0.01223762878945136 
-0.001630777766965079 
-0.02953307650236433 
0.01629410904202796 
0.01303403358934629 
0.02042309947328278 
-0.01894763109716393 
-0.008469752232188047 
-0.01785456978311369 
-0.01420406048384112 
-0.006194732057526488 
-0.004951533329036141 
1.645138354489708e-05 
-0.03558184015938181 
0.02766125879820902 
-0.02622280618897051 
-0.004851412965621341 
-0.05871704829004234 
-0.03087388797300013 
-0.01844753562742353 
-0.009558347589612865 
0.008367728853181997 
0.01998980259810021 
-0.006053515036983646 
-0.0810503938273226 
-0.02674218260600594 
-0.02808707881628173 
0.01545460223145512 
0.002601452546424501 
-0.003433576449979671 
-0.01352885310229448 
0.003710125749485865 
-0.04554947423750403 
0.02642541320196602 
0.01864178561215976 
0.03553735372755269 
-0.04711163052459213 
-0.01142529149193227 
-0.01837585229376154 
0.02588603088961864 
5.909736349585427e-05 
0.04626443737745808 
0.0001871958106493773 
0.002640215080510612 
-0.006229897529280906 
-0.02421633241480881 
-0.01786846012911809 
0.01631808903670411 
-0.09543096106243636 
-0.04329612557963113 
-0.04438248227182028 
0.008264201504297205 
-0.004590727592121957 
0.03493482912110046 
0.04864966489712384 
0.007541370568144174 
0.006101713363408154 
-0.001220215819060078 
0.01051453159238769 
-0.02611132622521072 
-0.01078296723268265 
-0.004157953251004195 
-0.001847933409551181 
-0.007148846328403299 
-0.004114684388229314 
-0.005819909444700661 
-0.07576930992987145 
-0.01970475656296254 
0.009120246930745835 
0.02718645135695233 
0.009626372023373388 
0.01029770345208915 
-0.000805101970563996 
0.007933737646899995 
-0.003146095043514639 
0.0004950780343193382 
0.02121467935719798 
-0.01253119599226712 
0.0006252756541620232 
0.003932177164728383 
-0.006253683950567187 
0.01159343467026576 
-0.006902495291409704 
0.03064084934538051 
0.002185829936476172 
0.001169054619846396 
-0.005152848631100034 
0.006445651765801917 
0.01409629858515298 
0.006341611176810101 
-0.005599777956277833 
0.00368087628182832 
-0.0007206862322637707 
-0.04322313462677567 
-0.01153103593002589 
-0.02499324880030502 
-0.001551814225061016 
0.002616865503276344 
-0.002311618770513708 
-0.02610866359423688 
-0.01056135866260701 
-0.01478893670737212 
0.04864268364082421 
0.004405861874209267 
0.03766840978517148 
0.02408957924977517 
0.01349625036841998 
-0.005174479633012263 
0.000984542329688421 
0.004034427724099429 
0.0008769816347270227 
-0.02389461972199031 
-0.01454807351454637 
-0.004212674853376916 
-0.02036142542644483 
-0.01235641167499573 
-0.009877722057917109 
0.06091343551044781 
0.05325873731768248 
-0.02790171457339233 
-0.01659301700872454 
0.01052703548666791 
-0.002886364537991352 
-0.009993742431147031 
-0.0009798138531057952 
-0.009813730477848538 
-0.04262161485950757 
-0.01551951769652759 
-0.03296020695261993 
-0.07041323943536448 
-0.04321019670547741 
-0.005785978399545987 
0.01320425721002393 
0.004322713989779256 
0.01259646592852675 
0.007491083632735728 
0.006649785043858306 
0.00636112157388051 
-0.03856404149231967 
-0.01873220678618858 
-0.01327811912881465 
0.003426834628367684 
-0.003430094469199613 
0.01919581880461862 
-0.0326947563654663 
-0.006820616001346151 
-0.01401443063089137 
0.01638726166554631 
0.03446870423874644 
0.01430484130724304 
0.02106639242275747 
0.003947392211285683 
-0.0002159505524624133 
-0.02051674536693742 
-0.01077159718242623 
0.000103801460098428 
0.00798545496713202 
0.005445974406492625 
-0.005282300136539032 
-0.0172316038101398 
-0.001720361687667371 
-0.008749898444708892 
0.04938085650781307 
0.01087249087510562 
0.0407079913631143 
-0.01277970837253421 
-0.008667019878102332 
0.01404000631146962 
-0.004709910334290926 
0.0002760876410491254 
-0.006679833492121098 
0.05811954292194758 
0.03073945909419229 
0.01873202739302919 
-0.01446079568219147 
-0.0002364255438175905 
-0.005511818761825616 
-0.005476826987220513 
-0.0005296316196125823 
-0.0001005427739057668 
0.03252068149673909 
0.0008271488506782076 
0.02916799606480625 
-0.01583131776659351 
-0.00738860864630058 
-0.002977747874769542 
-0.02695682035049612 
-0.01463380025775821 
0.002700215939335159 
-0.03434639910559666 
-0.02941727368091673 
-0.01140145878627438 
0.009321250675840763 
0.007322214388322358 
-0.008200444205570569 
-0.0332545715943655 
0.01282773242038144 
-3.659613473911515e-05 
-0.03126143128414781 
-0.001978702288918881 
-0.0288205526854445 
-0.03809826334115615 
0.001675135080538663 
-0.03491616936452588 
-0.01634301601237622 
-0.01053235950892577 
0.01659638801637449 
-0.03919837045519914 
0.009047647210653291 
-0.02953079638959902 
0.04119344430112839 
0.02567303301752598 
0.0142870252908842 
-0.01363580266384821 
4.674258324231621e-05 
-0.03698859984766871 
0.02544618458487301 
0.02101290106560188 
0.02297619395806805 
0.06327189578159337 
-0.04244066657362423 
0.03680750472867816 
-0.06108398289260034 
-0.01266414533178789 
-0.02401611671163065 
-0.002733498098514761 
0.002648615862507317 
-0.008959458138984107 
-0.04596569912620919 
-0.02639132313635377 
0.002881268711355108 
0.02212900432646801 
0.009094243362362704 
-0.0001850168136049934 
-0.02663371719298376 
-0.0154295127444269 
-0.004769208312254564 
-0.03114839999303187 
-0.01606134402713384 
-0.004259456127316767 
-0.0235677466449407 
-0.02071349090129325 
-0.006254970236924957 
-0.01165631072083373 
-0.0005094574972629918 
-0.01351795072869937 
-0.01573938648812746 
-0.01803381724696116 
-0.012646618900058 
-0.008063259549061267 
-0.003764420881320887 
0.01213444640457296 
-0.04042199438301808 
-0.01856474605490196 
0.00708958036884314 
-0.02023323686757478 
-0.008046769204079065 
-0.01123116498348889 
0.01041521610637651 
-0.003727745045327494 
0.02123072985059318 
-0.02593069838984758 
-0.01385685641735569 
-0.001087464818100379 
-0.05141551891277736 
-0.01183297331868113 
-0.02038400386755568 
0.02435862850654049 
0.01009172429523986 
0.01581947338260887 
-0.01953903278403165 
-0.0118431805450237 
-0.001226677139941152 
-0.002699565123427275 
0.007933384233309094 
0.004740340622424108 
-0.03679073602906825 
-0.01211461319223425 
-0.0206485680906884 
-0.03726521079749316 
-0.0201549808529782 
-0.004339634127430094 
-0.06710479412904073 
-0.02318445503997425 
-0.007154112318014381 
-0.003921294029236796 
-0.001978057371249539 
-0.005054355312212837 
0.02891499243984649 
-0.03241251626740675 
0.01158577834137358 
-0.009362946565117844 
-0.01154558253617571 
0.02613188531421585 
0.001951451082243277 
0.01300565720853114 
-0.01424002666677697 
-0.008322233588491171 
-0.004153318019062641 
-0.006204176892290061 
0.02112470614264667 
0.008487048158324271 
0.01752430340743431 
0.06756840428652536 
0.0510331667884233 
0.04059602326746618 
-0.0220385533451129 
-0.02730795347083268 
0.006566180430825598 
-0.02819290950426925 
-0.006024988663392595 
-0.01527680155384023 
-0.02046962120634894 
0.002626846748890601 
-0.0145893735214268 
0.02992937701254303 
0.01397605780397077 
0.008409969575868157 
1.878447252850264e-05 
-0.01525406668737064 
0.01032035341905486 
0.03757072113445339 
0.01715048167662 
0.02008048913025262 
0.01901753510911922 
0.01927572616749295 
-0.009569209149737853 
-0.03683758715794815 
-0.01646646716538401 
-0.0275661795475283 
-0.009884349729021318 
0.0008674083427933814 
-0.02147894677237263 
-0.008537556581569079 
-0.006398935079323298 
-0.02552833269227812 
-0.01143142701438577 
-0.008654595935210039 
-0.008978798688323806 
0.02432749919711163 
0.01944906544734433 
0.006526261588740401 
0.01226846201029251 
0.004482680304823911 
0.01570788575131775 
0.005535433621708894 
0.01099479714129598 
4.419495601448968e-05 
-0.07520896841163213 
-0.003228551140836835 
-0.07262137847721223 
0.06057289772329488 
0.04526570046491784 
-0.03143332753658816 
-0.03924139217854364 
-0.03536483623381737 
0.02888097931933649 
0.01805628591239228 
0.04002609100279627 
-0.003960206972694144 
-0.06584194829257312 
-0.04239837768279351 
0.001203740300603445 
0.01248267836594271 
0.007216722598919172 
-0.002311232890697623 
-0.03833097931590064 
-0.04689509236234701 
-0.001395049855009702 
-0.06075671026538981 
-0.01284756123245136 
-0.03959869169422504 
-0.02984287240358724 
-0.01265955311456926 
-0.01732825020344064 
-0.02225092232768306 
-0.01492646777428922 
0.001089442405547671 
-0.01838785893339527 
-0.02256541510773648 
-0.01236709414837242 
0 
0 
0 
0.006537925175403961 
0.006442005475239731 
0.01078572262402874 
0.01724300309825811 
0.00193189542292961 
0.03146021076820368 
-0.03881334534699679 
-0.00743909679017458 
-0.01548132521725224 
-0.01360552859905204 
0.0008251179725132161 
0.01080205999313208 
-0.04052352265110107 
-0.0201728974251532 
-0.01335528782986167 
-0.008923204487704945 
0.0195719911411442 
-0.02392858325827879 
0.01388442400043329 
0.006536202020556993 
-0.001274544671148976 
-0.04928869247924902 
-0.0206598447202961 
-0.03752770035171604 
0.03592925559239863 
0.01571737178217497 
0.02144264981319245 
-0.00715901903996721 
-0.01049006283287441 
0.007506833354099579 
-0.02786394746405802 
-0.01313295166754467 
0.001181019669103441 
-0.02782463040772357 
0.02651118265881427 
-0.026031450502653 
0.03391662099620493 
-0.009050949943939388 
0.0768080629787304 
0.04400490412492085 
0.02110078662522196 
0.01415195133438941 
-0.0502065123863144 
-0.01908566013885628 
-0.01854716617684155 
0.02058901638070526 
0.0132109957461322 
-0.03049553184522355 
-0.07010657635421774 
0.008427788838535961 
-0.0284744088699794 
-0.03204201578321123 
-0.01442924729194879 
-0.01220825350631087 
0.01804578161377808 
0.008029082149840596 
-0.01613736835433749 
0.0009456900424063017 
0.01466060281542509 
-0.01012360296181827 
0.07966574820711667 
0.03721924362357348 
0.03364216109591006 
-0.002377220494021524 
0.00130042987273248 
0.001211261021011829 
0.03631660723454589 
0.004976444006410145 
0.03748601356054646 
0.03368021516263268 
0.01041680952833249 
0.01466145236538408 
-0.02605468148654797 
-0.01594191795893029 
-0.008644722139787378 
-0.01339173956196116 
0.001917831497323809 
-0.001050518410511159 
0.03801398415550805 
0.02587097162477947 
-0.008855779029812903 
0.06499793856306302 
0.005232046449513872 
0.06373074343302067 
-0.05671322056527324 
-0.01082904615394618 
-0.03071744797559868 
0.06518723660242735 
0.02016020725938039 
0.02459238247102114 
-0.0083516815396916 
-0.003022036868632428 
-0.003438204084844919 
0.04325871957265922 
0.01129481468547216 
0.0505191263960757 
0.04403825367187821 
0.02328863457440217 
0.02824048780782494 
0.00132094334982041 
-0.003187928635402516 
0.01528654618443336 
-0.03152406772293413 
-0.01812839227324315 
-0.009678429075297543 
-0.01146567430042867 
0.002327665863701378 
-0.01737510961531548 
-0.1176915527789227 
-0.06282655266269152 
0.006071643636010474 
-0.02591617089465738 
0.007676354153282633 
-0.05778073899357702 
-0.05418865095623075 
-0.02314599898806166 
-0.01540174014242826 
-0.02002527145454258 
-0.008723968053082818 
-0.001569670957060904 
0.01579758219119338 
0.005601416609297983 
0.03672652615996149 
-0.06815198181167111 
-0.01912396319968019 
-0.04092622030246142 
0.02635054389020713 
0.004641627156830403 
0.01080177614193297 
-0.0285136511440734 
-0.02060405674793014 
0.01575943370942902 
0.004931344606212616 
0.005135327171184754 
0.003887889640223771 
0 
0 
0 
-0.02150957441560349 
-0.01690857978418871 
-0.001255547579557012 
0.05677195484359337 
0.03064098640873156 
-0.02376222011018489 
0.03656710977685884 
0.01804501807922483 
0.008418826876571736 
0.01676822613818421 
0.0122539062973069 
-0.00435490554715147 
0.009922520730782808 
0.00716832381940904 
-0.002525195898814424 
0.00505390989137763 
-0.01049798555402683 
0.01959764648188025 
-0.04804119568533916 
-0.008173277657744501 
-0.03967073483774716 
0.04021450536056141 
0.0160093618359041 
4.963657927226901e-05 
-0.03789183339002148 
0.0001891255295449437 
-0.0117463555589099 
-0.1056064444935069 
-0.0481689867289285 
-0.06948136668104436 
-0.005879442232711652 
-0.00115070528347723 
0.007315473125124546 
0.04462702930112947 
0.01521376504867053 
0.03854629215958329 
-0.1152180320363111 
-0.05529525505882142 
-0.01791472186072764 
-0.05332205749322002 
-0.02597124232193706 
-0.01759818070444735 
0.01109983172947216 
0.009978217528607782 
-0.001658910004647317 
-0.009924955731830601 
0.005217230254176016 
-0.006851711216575979 
0.01328084189338312 
0.01590410678448404 
0.02195289735759176 
0.02606066955105786 
0.03388150870539978 
0.001360374620810143 
0.01712798671663219 
9.890890972191429e-05 
0.007128228181138757 
-0.0009653987832849932 
-0.004031458973127035 
0.0003418449944241051 
-0.01443064364393468 
-0.006858535029268698 
-0.01330639961519715 
-0.01719551494854095 
0.004428636805908245 
-0.008829246997679884 
-0.06417924428475788 
-0.0138219901977351 
-0.0252324539256771 
-0.08358745614727654 
-0.03894196229024243 
-0.02203286148891477 
0.00119655566632329 
0.004228970943486136 
-0.002384252114316799 
0.002330488160219306 
0.01418684039273079 
-0.04531107198670802 
0.005040353922063192 
0.009182954036164823 
0.01131987805214972 
-0.02735084374430765 
-0.01699083459159161 
0.00135497268281676 
-0.0187219110891663 
0.008885126043393045 
-0.02393358173549598 
-0.01575651078413439 
-0.009408660622425083 
-0.008871188449682517 
-0.01378272858982074 
-0.001638225906391975 
-0.01767611776174641 
0.01027982262550158 
0.009011634336161345 
0.001161125961299638 
-0.01424787693952471 
0.002472532504962903 
-0.014872133146269 
0.0329926218810604 
0.01308509090634302 
0.03015032360219796 
0.05744451864216379 
-0.01171330131236405 
0.03456666903008714 
-0.005130345607672851 
0.005557860201784413 
-0.00158736626031708 
0.007725306595352827 
0.02483573747805349 
-0.006469242188707762 
0.04208300944322582 
0.02030676851312998 
0.0048288361392026 
-0.04096929879444983 
-0.0233623245628322 
0.007262522023878722 
-0.001016069157289004 
0.0009505583475976584 
0.003162333684574881 
-0.02400611308554539 
-0.01321421232309985 
0.00771660203640937 
-0.02330507698957225 
-0.006631726627384902 
0.0001930710512767658 
0.04027561403927029 
0.02572916672814072 
0.01119896648877348 
0.0708811345263861 
0.03238288669635798 
0.02622733221663427 
-0.004819013061252408 
-0.007007409813166047 
0.01889879633855832 
-0.001855198174877631 
0.001088496217715503 
-0.02852965824046667 
-0.01030361131687419 
-0.004945520735189832 
-0.008409612880333409 
-0.02606667937907571 
-0.02469174578456947 
0.004088109843757422 
-0.002630230464016704 
-0.001019939312214341 
-0.006101235765131343 
0.06681358471480997 
0.01159083622452184 
0.03709208081053902 
-0.008903528725225969 
-0.003773372763406238 
-0.002176790529032341 
-0.02807424075893957 
-0.01210963863873453 
-0.009960579744410825 
0.07539977005105414 
0.01752186821622348 
0.04577652760131159 
-0.004734962590984231 
-0.002774203382028878 
0.0006583400568585512 
0.03256462644849076 
0.0273797513443888 
-0.007820179220729445 
-0.02854785363313504 
-0.01424040964782631 
-0.002865439814153499 
-0.01591338556043689 
-0.004783787797470997 
0.002204964430640947 
0.01160263349691544 
0.02638343894862645 
0.009481357699174898 
0.01901744620324059 
0.01382486396907947 
-0.0065175390868721 
0.02130935798202381 
0.00361904510621066 
0.01118978403331602 
-0.00888045471920227 
-0.003086498182020645 
-0.004183913775594557 
-0.02538443511126901 
-0.01504686045415626 
-0.012859674825362 
-0.03726016981376831 
-0.01748460274433288 
0.003729762607030335 
-0.01005118877025535 
-0.00141414934434699 
-0.02000990166804877 
0.06465349335474961 
0.04282358619070305 
-0.0001860366040505993 
-0.005659424574982588 
-0.001007148598037958 
-0.01723280899346738 
0.008994265853865825 
0.0472014941272074 
-0.03079602087999179 
-0.02859982796339602 
-0.01315641251034324 
-0.004386057647506489 
-0.02795463869796041 
-0.02611599963626656 
0.01014015495017929 
-0.02529189329233006 
-0.01748948741373577 
0.0005098454344655736 
-0.03936788277954891 
-0.01400802106308679 
-0.03746365748664574 
-0.04293170999752705 
-0.02746983943213476 
-0.01781921686095038 
-0.008100674104627146 
-0.003993290247368377 
0.01124222617122401 
0.01996496788201925 
0.01039645104054985 
0.005018933000878073 
0.05804380258458593 
0.03243161561945629 
-0.003413436335042719 
0.01602275591625196 
0.01363067208821502 
0.0009286040118758292 
-0.004071887534629948 
-0.004046664149433536 
-0.0145288148285248 
0.01410546436400444 
-0.004479468544401233 
0.02541646200255484 
0.04612599146896734 
-0.0224738918801622 
0.03311338342227878 
-0.004015313220066296 
-0.005212480530725074 
-0.01389530527044971 
-0.01600128833428434 
-0.004218336655070663 
0.006576488428940277 
0.04296360776566089 
0.01625202625099821 
0.01808495533223233 
-0.004273024316400813 
0.004280228203685123 
-0.005523468255705134 
-0.0433267859878146 
-0.01962546888826524 
-0.05232802459214608 
0.03874966825176731 
-0.03069689960259559 
0.05450665144880313 
-0.010072559597341 
-0.01806894614381668 
0.03649935231305558 
0.02522838051498483 
-0.0223412257210341 
0.04283240426893522 
0.01163953669613083 
0.02105665101205389 
0.01082000700395794 
0.003858121636153746 
0.007525504549510527 
-0.02461030849759375 
0.01720169094716133 
0.01085749671762215 
-0.0391036344596697 
0.03431972003869358 
0.02238527003405117 
0.02177294772906208 
0.02384031829857108 
0.01086871529577849 
-0.01446842292910368 
-0.01109661160412622 
0.01623704545803701 
-0.02758291635935166 
0.001926361252591235 
0.02708056642367036 
-0.008920170273177989 
-0.009518372096749774 
0.0297839016447753 
-0.05267748479562686 
-0.01408369120107758 
-0.007610157719291298 
0.01008206793050835 
-0.01418374988891187 
-0.01171685228170364 
-0.01658049493874635 
-0.02558502296268402 
-0.06732552664258523 
0.00767312395122019 
-0.03160735632213445 
-0.01042050422606481 
-0.02557122239703506 
-0.01178121253053242 
-0.007177876399327216 
0.025970499283443 
0.0103369429455896 
0.0122730364240592 
-0.04034938725785125 
0.02744800510146932 
-0.03019701757116857 
0.04690142001798086 
0.063984898144054 
0.01822267237994686 
0.06394685588068162 
-0.01752391584981039 
-0.002090419693643288 
-0.01441702839666576 
-0.04207187455454763 
0.006753097525743731 
-0.00732936493752175 
0.06118550295920488 
0.005386156838735779 
0.07386830020385633 
-0.007706485303096249 
0.001625815859067416 
0.002754183887408881 
-0.008684161892340878 
-0.003161962167478702 
-0.01796022976212603 
0.01692039177972763 
0.02075067878646858 
0.01777339753955526 
0.02179181501562359 
0.002071086619642753 
0.02233490709569819 
0.03985455496150005 
0.0325992084797309 
-0.02341495015897443 
0.006253840898460829 
0.003815414545853801 
-0.009288830471430228 
0.007277300243610154 
0.03177054975136605 
-0.03504065424034683 
0.01444869185646452 
0.003197039628765248 
0.01942180338648215 
0.03890162484502279 
0.02246082375642985 
0.01919557041732602 
-0.02671867648879383 
-0.01650897186142635 
-0.01382505430010862 
-0.008585825831766449 
0.002174970651545911 
-0.007954999171368025 
-0.0467528483545771 
-0.02788599532990658 
-0.0308663000385747 
-0.001738448845200941 
0.006947225480021578 
-8.094898461048865e-05 
-0.02660863560155202 
-0.01060603313176128 
-0.008317787965227521 
-0.04125498654928433 
-0.0208630679291068 
-0.001518159577264841 
-0.01250168179133624 
-0.005593400742110057 
0.002802762797183553 
0.004874888614495483 
0.0005814059550369172 
-0.0001731981608146212 
-0.02467898602291591 
-0.0165509778194586 
0.003673516148103622 
0.001068345771871713 
0.02308664991551611 
-0.009433749471394212 
-0.01725378048115584 
-0.02823395083705778 
0.003058054915377926 
-0.0161241203754874 
-0.008914909333574389 
-0.00120766264197663 
-0.03666526723842337 
-0.02414478336152151 
0.009230765480436699 
-0.02379053493419489 
-0.0381560793723941 
0.03007527489882585 
-0.003919447119257565 
-0.0008058708172179259 
-0.02034218301698618 
-0.0319448837730584 
-0.01702687175610224 
-0.000465950234262953 
0.02368157309689131 
0.002544969987214794 
0.01620663833769264 
0.02930230843125842 
0.0278370950173279 
-0.01771645930268301 
0.001996005283138468 
-0.01324096672023796 
0.02395420335320126 
-0.02109650076232419 
-0.005173301143882282 
-0.008563475553161335 
-0.0410113921326241 
-0.02200794900969061 
0.005484214244692403 
0.000407853708171956 
0.007862985006505856 
-0.01854976289539647 
0.03644071052456799 
0.02367692378099862 
0.0030463570065868 
0.01439916172333892 
0.03021744793982015 
-0.01535656666463807 
-0.0335744533462043 
-0.01708090446115711 
-0.007579231567229904 
-0.05049230903994581 
-0.02595460258724393 
-0.006620405787940422 
0.01246524822749139 
0.01125021076659142 
-0.01204894865052653 
0.002216591040558636 
0.002174824271512965 
-0.007074276855491679 
-0.003426655735903701 
-0.0053075713172515 
-0.02420836966261097 
0.002351367061374882 
0.0009438947830264488 
-0.002237075557213405 
-0.05252057727383284 
-0.02788438681031872 
-0.003484331450195022 
-0.0163891297401658 
-0.005365430987123365 
-0.03823509311012151 
0.002197786350922186 
0.006522706356996226 
-0.0003054952732207615 
-0.04698953372193863 
-0.02161168192613386 
0.009011930268599538 
-0.007549488350563282 
-0.003821048257327187 
0.0008603382391661319 
-0.0342232190739028 
-0.02049614332338402 
0.01500685479865971 
-0.001316835181602266 
-0.0005276027791485628 
0.008865856027710582 
-0.03086065598056541 
-0.00152405402203586 
-0.05463430573692289 
-0.0104625622963315 
-0.00282866251227699 
-0.006140342429707541 
0.01744313741616545 
0.02377202123186712 
0.01047571670444719 
-0.008419378488142393 
-0.02114475384833094 
0.00691509436119182 
0.02693986254638047 
0.01618642425225661 
0.01374509308664304 
-0.02378603343791832 
-0.01462813510100302 
-0.01896124831794198 
0.07670610028763768 
-0.0513049150630887 
0.1259495201404895 
-0.02443669421187791 
-0.01291046888958734 
0.002414130189192187 
-0.003979588484299622 
-0.0006249199786246243 
-0.01138544488363929 
-0.01554063899750323 
-0.008364545342638289 
0.002005867080261574 
-0.0138355748045547 
-0.005408622347424339 
-0.00257557245561468 
-0.02022927214963628 
-0.005807234011779572 
-0.006230408500878716 
0.008561345129440389 
0.002610426835042604 
0.02597435276681156 
-0.01177077933859773 
-0.01834902758668744 
-0.00814382716726347 
-0.01306859336889096 
-0.005904142042396724 
0.00346328146127379 
0.01421237895330094 
-0.0009377163090060221 
-0.008118754192994519 
0.05783906069149952 
0.05987422492493769 
-0.03032053640321177 
0.002645590881517655 
0.002606996092789558 
0.00661456253534654 
0.007646454891876122 
0.04102221671292132 
-0.02404188462220817 
-0.01632392866381321 
-0.007840743236336401 
-0.001459449851884265 
-0.0001867182709912982 
0.006545869005892806 
-0.0007102812764465917 
-0.01839791399932327 
-0.04881416594227917 
-0.01901142375581165 
0.006883393130747565 
0.0136448918532865 
-0.01358496484942577 
-0.005367778330088458 
-0.002305056088349041 
-0.002530070761664183 
-0.007507818558322457 
0.00415449185100672 
-0.0216437065299907 
0.04536956025188404 
-0.01285900466890398 
0.03974752851873407 
-0.02199904306455951 
-0.001838275802109544 
-0.008338341987831285 
0.01973979557937824 
0.0156460943663637 
0.01557780319359972 
0.009283126620997634 
0.01017283004020471 
0.0275239777248909 
0.02935284848492559 
0.01531676650390648 
0.02805850211237321 
-0.05248573256176219 
-0.02646532615356474 
-0.01932212662660038 
-0.01581900266732923 
-0.01067672343120402 
-0.0005941034682611252 
0.04893389871836391 
0.03084719776313545 
0.02360412620204912 
-0.05318886248013414 
-0.0330842858946423 
-0.0167309251872079 
-0.02774102677703854 
-0.01116723779006411 
-0.03506201430558943 
-0.04781459655784872 
-0.0139805507516432 
-0.05036569160422318 
-0.01570614793041802 
-0.006176804310325672 
0.006315277774176864 
0.05105396213053421 
0.02260871133412403 
0.03413868969106127 
-0.02228005984792561 
-0.003596780828135876 
-0.01928569356295222 
-0.04884362789866777 
-0.02080723022687583 
-0.00730902908884183 
-0.01984090753756488 
-0.008500390677753203 
0.00987856986059865 
-0.03230446961376588 
-0.01875756314020717 
0.009404083844019303 
0.01016474204827843 
-0.01421450429304747 
0.04124547219699255 
-0.01874781597712693 
0.02196603307787068 
-0.03609940819852749 
0.01332279487409384 
0.02048626839106279 
0.004217294845109355 
-0.01896717857710211 
-0.02162960547380635 
