solver_type L2R_L2LOSS_SVC_DUAL
nr_class 2
label 1 0
nr_feature 12288
bias -1
w
-0.01315635088310318 
-0.004691016660005782 
0.01180607597082181 
0.0596034531426093 
-0.001170075376176207 
0.06187271618588989 
-0.0177126292004181 
-0.0005877972562307684 
-0.03291976384924848 
-0.007064437894879663 
0.004776764523580932 
-0.004450004534508638 
0.02751838420409611 
0.02169053188018456 
0.01081225946260192 
-0.04277547266004932 
0.008118683973022385 
-0.02053214067883175 
0.005828245527642302 
0.005330263139617523 
0.00351202595354023 
0.03391633876302914 
-0.005036086946674093 
0.06739715655890792 
0.05142619704619066 
0.03874806754111167 
0.02198623386926729 
0.01672249528549142 
0.002515104617415428 
-0.0003133416937432148 
-0.00355377114725736 
-0.01503892717932696 
-0.01044347636767072 
-0.02542566847249418 
0.01308217391014023 
-0.01207953765000239 
-0.001801166864149974 
-0.007448405332737841 
0.0234686578020204 
-0.01562281674369745 
-0.008627626693458908 
-0.003451061655103831 
0.005523343188891787 
0.01450203154466505 
-0.03188156524469728 
-0.04713992765541323 
0.0008955440237410601 
0.02231302064927402 
-0.04633125633088635 
-0.001814360126201378 
-0.0421759644011773 
-0.00101068540700346 
0.007401166155852377 
-0.0004430363853738314 
0.03098176821511927 
0.04405754026740279 
-0.04866756955450921 
-0.01816823858532259 
-0.01347805055018145 
-0.004313562322410048 
-0.03354593949696597 
-0.02399898940331931 
0.01869166769006585 
-0.03742231274311028 
-0.01481310583033081 
0.02919818737160105 
-0.04411444777835979 
-8.778245940665482e-05 
-0.04102737496274286 
-0.02072644413399317 
-0.0006117836003389632 
-0.03313244013095022 
-0.01418897458268357 
-0.008521366526937883 
0.004848493822588678 
-0.00707429850461002 
-0.003315498250473244 
0.004166242272537393 
-0.03023285895425558 
-0.007298863467354598 
-0.009594432779576239 
-0.0140536636910472 
0.007628266325967106 
-0.02661565864681779 
-0.06669248656506413 
-0.04270273597156105 
0.005710433484853317 
0.01509796333127779 
0.01496695726660853 
0.001097486583871413 
0.04574287142802042 
0.01783729862704267 
-0.0009282543617064165 
-0.01504574325194916 
-0.001257468257234633 
0.03708597280228913 
0.01874479803580743 
0.005557418769637028 
0.01048020828037872 
-0.03516611031975396 
-0.004677813906479106 
-0.05021755636823001 
-0.00599576531233877 
0.002725873543763867 
-0.01628257946954774 
-0.02522647614898798 
-0.01306448316707303 
0.009037322582498484 
-0.02476980482262303 
0.02407193286990639 
-0.04234957478454992 
0.04727855245926404 
0.00601454886852281 
0.01565776416842513 
-0.03462984125954489 
0.003927748478044922 
-0.006659982976671848 
0.04474339423046186 
0.01623199146935038 
0.01458794740288996 
-0.05612914334577185 
-0.02052622697781365 
-0.05009988255180865 
0.002874680231950584 
0.003726749514196782 
-4.884722076005459e-05 
-0.02714176446600095 
-0.008826032161751334 
-0.0106775135876067 
0.04863507057933778 
0.03999024791539155 
0.007275486549844959 
0.006941511734087137 
0.01002400286194628 
0.008553374955908501 
-0.03382256805150687 
-0.04155022110700832 
-0.002229823317418586 
0.05824563858525542 
0.03458991152064021 
0.01978928612159877 
-0.01056905208244393 
0.002325654629083981 
0.007515762780117193 
0.001381554052218507 
-0.006681051901398654 
0.004038949989395326 
0.00681908474290643 
0.008538308082046699 
-0.009286434999698098 
-0.05624325671563597 
-0.0111295935351083 
-0.02845244784736508 
-0.01108979008170507 
0.01296382189275613 
-0.01103035145688806 
0.01918251938727065 
0.01504282800443372 
0.00850777126920675 
-0.02555584550009477 
-0.01082932011353218 
-0.007085249510747886 
-0.0005080776166088198 
0.006075440878257791 
-0.001031685950699336 
-0.0390270958540419 
-0.04765001131158172 
0.01349646434219071 
-0.03300988241012925 
-0.01393761000766781 
-0.03137336232922089 
-0.01578257138473703 
-0.004302391399634298 
0.01682424885274761 
-0.0421587764974884 
-0.01801116539345839 
-0.01741465257265401 
0.0114003637745412 
0.02275352600294843 
-0.01601416572083231 
0.04853378746547194 
0.04913342009863256 
-0.0268458804132624 
0.03576770711822144 
0.006721562669346313 
0.03006671431989985 
-0.07289939972509571 
-0.01632997770703776 
-0.02222976494421989 
-0.07210301778962896 
-0.0352971591983904 
-0.007784615028081284 
-0.007418146917173756 
-0.003393146112167066 
-0.0005430878503999085 
-0.03585063958655395 
-0.01318437940827531 
-0.002480649367843809 
-0.02746224323284617 
-0.01512549275602128 
0.007159971776476396 
0.004119185094994237 
0.008198411874136027 
0.03216134056012661 
0.0004313841119149192 
0.008952178643666748 
-0.02424751122739556 
-0.001451028168963346 
0.002891179185711054 
0.007893450924128858 
0.0005810980596185339 
-0.005154678018621151 
0.01277370078465249 
-0.01803162338243011 
0.008239086934275127 
-0.03402381380175568 
-0.01092612009017468 
-0.004593160069753822 
-0.01118338602344086 
-0.002657158112198935 
-0.01159552441974197 
0.007381504494441386 
-0.03425318220360372 
0.003028940249343094 
-0.03342915969882716 
-0.0393860133051577 
-0.008955374377049753 
-0.01488547948517707 
0.005713514959425448 
0.02585728999791854 
-0.007478244975228124 
-0.04535451796197369 
-0.01263974808175791 
-0.01880477132245985 
-0.02138962558743501 
-0.008282575532468642 
-0.003733514157550584 
-0.04562936296319311 
0.001372850912678192 
-0.05492843579344793 
-0.01092626532907619 
-0.006758987128110033 
-0.006691790243133544 
0.02761767255020282 
0.001402216560003965 
0.01454553550648206 
0.01582655439083486 
0.01872438100376913 
-0.04386113857545935 
-0.02251568062823048 
0.0195098718893783 
-0.02838619755309752 
0.01255507423893478 
0.0121970257723106 
-0.00337249649844865 
-0.001607238087990379 
-0.01556349625813484 
0.03615382012103629 
-0.04973453154774546 
-0.001665321517034693 
-0.01773342383598902 
0.003567992700495897 
-0.02157120411259254 
0.007572117610804539 
0.01315908808381991 
-0.02106138202161858 
0.02684305139964107 
0.008049656749753298 
0.0125645343323681 
0.009638798372585683 
0.06272690426751903 
0.04388931266265137 
-0.008264911508403222 
-0.005755843463210461 
-0.00912804038803206 
0.01699454858962155 
0.01613946340002656 
0.01917197162367065 
0.001272039585971836 
0.01276367707748102 
0.0181204501408056 
-0.01534806327284093 
0.005067186207647918 
0.01278979955774921 
-0.02094699982636821 
0.02441260778751308 
0.02097551085589144 
-0.009395695104312764 
-0.03467508440157421 
-0.002189898428389189 
-0.01613713050609882 
0.01112286320134003 
-0.004445013277626668 
0.005293166642902115 
-0.03787353773507007 
0.002119113094234806 
-0.04176826634915148 
0.06033737474406067 
0.03534406114696129 
0.03184511371903197 
-0.04828965223485931 
-0.01721512403442083 
-0.01266140812571265 
-0.03461089803094487 
-0.002788273481562277 
-0.02851763393757159 
0 
0 
0 
0.01701669270908113 
-0.03922148860537436 
0.0252192447674328 
-0.01972846283938532 
-0.007786799313772947 
-0.000113911296165961 
-0.002482829474353051 
0.0009961072442253118 
-0.004912587346148274 
-0.05130719297947222 
-0.01555952405202025 
-0.02786821435639312 
-0.06054785555315323 
-0.021796518996749 
0.01041683596995907 
-0.02847414451798317 
-0.02254661734402123 
-0.01747309896257323 
-0.06583484978605159 
-0.01793564045855346 
-0.03375158001640466 
-0.0332415800935645 
-0.02938193857298338 
0.01014465801672446 
-0.02384494341729355 
0.003791197791493052 
-0.02205380372063203 
0.027433499875183 
0.02137912063479469 
0.01774937434987426 
0.02319861450705075 
0.01192968676577241 
-0.006329239728774156 
0.0101045135523569 
0.005461681239950064 
-0.007416806895653712 
-0.005143819974925854 
0.009360674209188147 
0.01320648289670213 
0.02716600635550441 
0.01992565891463169 
0.03885641544779704 
0.03887241614208543 
0.04615244140092604 
0.02042817822391348 
-0.05195606618588466 
-0.0259900378938513 
-0.01678913103619897 
0.03599465814507773 
0.03512919160961072 
-0.02814432904689012 
-0.03919951656155579 
-0.01723652067332146 
0.003508195550498528 
0.05111150997233217 
-0.01457445466714396 
0.02717867967098327 
-0.001487316525965658 
0.01839180684355135 
-0.01939382286357774 
0.002096179180810628 
0.005419043029938598 
-0.002860398734577608 
-0.006257397910641803 
-0.002313086901682051 
-0.0007454783711226459 
-0.07458368933213107 
-0.02705407697195966 
0.004985422573192817 
0.02672330481970851 
0.01381628976432217 
0.02027524774374036 
0.01653083784158365 
0.01408325620260031 
-0.002320922255793664 
0.02299403382804457 
0.02701698459414295 
-0.04261803798704956 
0.04245912551403516 
0.009143523552783172 
0.04571236540096105 
-0.001374328138025371 
-0.002484088012818284 
-0.003220043623035637 
0.02085486424615195 
-0.01762241149048565 
0.03703837101396689 
-0.01752873075036184 
-0.007779611419243649 
-0.0007954148849393904 
-0.01130472724002508 
-0.004035844723285435 
-0.01189253987824899 
-0.02172656949853878 
0.00370326247146279 
-0.03157838015434862 
0.05383872504068719 
0.02129673824402276 
0.02385136634658591 
0.003263262741830269 
0.002041201366699233 
-0.001563247865683539 
0.02409851623716104 
0.01417199152296862 
-0.009758753096933562 
0.03630325593164944 
0.02380362491218221 
0.003625020285531337 
-0.006832182873291037 
-0.007713065418425069 
-0.02682858703590357 
-0.04716738187166553 
-0.02855759000319029 
0.005966668157169116 
-0.02071241787710639 
0.005929765927246301 
-0.04331062126263161 
0.03134281695713988 
0.04366970417192791 
-0.02121189423560719 
0.0519981859344259 
0.03575513991908592 
0.0249861772401614 
0.001044279148239819 
0.0007485011243569931 
0.004428738711574546 
-0.002945277131298613 
-0.009019113819952074 
0.01712744584541127 
0.02158083508349347 
0.006787988905612692 
0.05589936563751722 
0.03221609534544574 
0.01707105179421507 
0.01975867476279144 
-0.04274756470131684 
-0.01956853985838905 
-0.002360700837103196 
-0.03500962984884518 
-0.01223436179367948 
-0.01426276480795112 
-0.05832454016755191 
-0.02624524976007698 
-0.01221757405193125 
-0.01641726782464454 
-0.01242366240851834 
0.00804482156229803 
-0.04154465014222939 
-0.009389694016439762 
-0.003470627437775088 
0.01421501103659732 
0.01651146469679746 
-0.01216495504596395 
-0.02832212209682635 
-0.003122201714705244 
-0.039938808777063 
0.03418001058551372 
0.02180810606789921 
0.002286310893503105 
0.01003717078681955 
0.01406583715359541 
0.00574503320222579 
-0.04536547902627904 
-0.001412661058331606 
-0.03249608224460133 
-0.04671029742440567 
-0.0186924747709735 
-0.006326013532579163 
-0.02085141584715883 
0.01465128854601155 
-0.01728818098190251 
-0.02104368003162511 
-0.003598670059420017 
0.02726224314856175 
0.02032867038728872 
0.0213109183941877 
-0.03394561436624689 
0.04730428040766679 
0.02465038114137217 
0.03932687340404505 
-0.02743134930325026 
-0.006904830051856616 
-0.003945409535693749 
-0.01219331965442924 
-0.02321394594676254 
0.03973979034335635 
-0.09041409444988183 
-0.0305765773155814 
-0.03173291969016934 
-0.04196055924177005 
-0.00696007411812851 
-0.01947864612263981 
0.01084443839812548 
0.01784552352531609 
0.004113991570916818 
-0.01837122001841257 
-0.0014344897979404 
-0.01423761918411333 
-0.02314486109045367 
-0.009177883493643981 
-5.897279412641834e-05 
0.01629449331077063 
0.02047796900826097 
-0.002512827287016557 
0.02969362330519903 
0.02146809844450663 
0.009132598502916292 
-0.04638225225701301 
-0.02091648972532828 
-0.0121634098014666 
-0.01041392181720031 
0.003640928531624721 
-0.01350537738495548 
0.008689298842572019 
0.008332652158875216 
-0.01981229190846667 
0.001153347748346901 
0.0191349359171192 
-0.015889066821864 
-0.02759846222756718 
-0.007139617252996631 
-0.03586467802785247 
-0.04253170481699856 
-0.008852438004716379 
-0.008457237432645641 
-0.008295970171546877 
0.01740037826496053 
-0.001055790698948757 
0.01041099993041432 
-0.01497098887530763 
0.04693966153769919 
-0.01352424015521324 
-0.008760559442299646 
-0.01201030442953228 
0.02343184056456067 
0.01940921829026619 
-0.02360995390654859 
0.05973745567000396 
0.0643295108245832 
-0.003912546630460204 
-0.01852941315787538 
0.009218060650695518 
0.008280654730840364 
0.01932253099798146 
0.02345167688764432 
-0.02399941229513014 
-0.03785698523480285 
-0.01901845116416548 
0.005526387143754526 
-0.0383547930669366 
0.01764668739190521 
-0.02019495644094651 
0.02322737989768893 
0.03657828420184955 
-0.01725912060616232 
0.01481257826520273 
0.008492938599870211 
0.01667637930726448 
-0.09969609965723768 
-0.05556425826133329 
-0.01473170131529736 
0.007028138524589537 
0.002666442282602138 
0.02172360319511165 
0.02351339297019021 
0.03324235507102626 
0.0002031216392773672 
-0.008768534962843709 
-0.02086424009452709 
0.02453360973325339 
-0.01827564047432619 
0.02381887009488826 
-0.01029721713226965 
0.02948961756792254 
0.02289785657247385 
-0.01888943284257828 
-0.02302026574735994 
-0.01104986070085039 
-0.002731306357022817 
-0.03422226536786349 
-0.02063257294423291 
-0.02732944305601231 
-0.03939329592794501 
-0.02148015978466353 
-0.003705604397024812 
0.04711776200852445 
0.01098128781831008 
0.02542204512767254 
-0.02522144336575179 
-0.01495411791694531 
0.005881739745852688 
-0.02375534384260505 
-0.01622799812609364 
-0.004147698008567389 
-0.01117394658066054 
0.009318733387037915 
-0.02248407761034873 
0.006754888868088149 
0.001319594914924215 
-0.01322665991743279 
-0.03702214061106798 
-0.01434734896447872 
-0.01385772541072855 
0.03550090464233683 
0.006837577882217445 
-0.01427720675225646 
0.01781329342674404 
0.01306671633026631 
-0.005134962257296613 
-0.03035988224366442 
-0.01150226194693342 
-0.005443454692732954 
-0.07550135604001863 
-0.03591163617931944 
-0.03693366009308317 
-0.0133100040781232 
0.0133209580158589 
-0.01312462618046021 
-0.0241952454329616 
0.004120357398441847 
-0.02455481897778089 
0.01146930990055151 
-0.0008927189991387466 
0.02123594167723366 
-0.04195598684172824 
-0.002290885716659633 
-0.0569590522091405 
-0.02148754884422049 
-0.009095264637256503 
-0.02290903040248212 
0.004397866679768974 
0.01493202928372946 
-0.01646202122220694 
-0.03478324013383964 
-0.02305360875338573 
-0.01147573166580904 
-0.03130503475028934 
-0.03522059288293704 
0.01187367202249675 
-0.04742459243513314 
-0.0133945396075244 
-0.03119457418872998 
-0.04169603116246248 
-0.02713094097233257 
0.01746591763032072 
0.02345790810853603 
0.02241532095618713 
-0.01332028321334775 
-0.006165238229348437 
-0.004316938372774046 
0.01610350804399994 
0.05698022963418305 
0.04347645343532237 
0.0001617520022395154 
-0.004372073268027035 
0.006414501312947044 
-0.042021977558258 
0.0256064505747748 
0.02471458654499646 
0.01060184913760474 
-0.00865977772987064 
-0.0005559689191001352 
0.007212038289983831 
-0.0348836512358898 
-0.003723696923793208 
-0.01445605958981668 
0.001731090052777349 
0.02811523835442758 
-0.0419815727809616 
0.007957511925749765 
0.008156706283384019 
0.00679061703130201 
0.03197396823700239 
0.02378504426440019 
0.04516615916769259 
0.004118755956084029 
-0.0155649469576752 
0.03814757859534974 
0.01980462741144891 
-0.00143912179292553 
-0.004702175807979875 
-0.04696883106800673 
-0.02187236288829107 
-0.0009834255850577681 
0.007618081196339289 
-0.0001974463172510255 
0.01308091619984022 
0.006385026472059996 
0.001405818575362656 
0.04182997870990895 
0.005123348762856754 
0.005737200670228423 
0.00472805914520432 
-0.01141947161114951 
0.002709611523804503 
0.007426527393907371 
-0.002271362316764819 
-0.01386503271107234 
0.02439256573014234 
0.04816817163869704 
0.01993501091316141 
0.04671259761848588 
-0.007529588899213801 
-0.001964526620607889 
-0.00136073426904375 
-0.06433702727931792 
-0.02410659273003146 
-0.03089362232010507 
0.0001645913680627439 
0.00628976623337169 
0.0039284381250696 
-0.01834461287066887 
-0.009855680052453649 
-0.002881087949623396 
-0.05789793502332095 
-0.01272908239285755 
-0.04063745002024718 
-0.0422201645479444 
-0.02060629555976846 
-0.005143126422941122 
-0.04188238489581621 
-0.02315882392464751 
-0.01708729622046075 
-0.01951781471582497 
0.01331987268197254 
-0.0394584210266364 
-0.07390327137548627 
0.006348324012191803 
-0.03773214802748412 
0.02253476283138489 
0.03028370150999806 
-0.02711462369742547 
-0.01523058649665628 
-0.01546437673580423 
0.01429688102169712 
0.1075572436719533 
0.0524574444123374 
0.05594889005426832 
-0.01368950268661722 
-0.01297500022118011 
0.006551457618021186 
0.001802596335347508 
0.007387329454061842 
-0.009299056533542412 
-0.03605019272693963 
-0.05425031021472555 
0.02393770362725786 
-0.009143371248084765 
0.02601417461445752 
-0.0540184944641731 
0.02761256814797558 
0.008750197197152301 
0.03176803567902745 
-0.03608231172993767 
0.008509841775962285 
-0.06164967511988127 
-0.01604176904808872 
0.01466541148094539 
-0.01290021902350879 
-0.03072160588815861 
-0.02461714565316689 
-0.009404725423005631 
-0.0133464330213665 
-0.00254157815429705 
-0.005895598075907706 
-0.02489803498919994 
-0.01647132627685637 
0.01436295442864461 
-0.008402977470951086 
-0.001161969310014083 
-0.01610441382354192 
-0.01546873366520365 
-0.007299609733218925 
-0.004716035465759422 
0.02868068234507477 
0.02247503071430247 
-0.03476495413808743 
0.04165149228478322 
0.01502713200033622 
0.02861824156943671 
0.05346843374939431 
0.0466455159120551 
0.02481039342537436 
-0.0272267940352254 
-0.01222976669174068 
-0.01200963088163626 
0.01412556886777097 
-0.01090584951930974 
0.03142977201435808 
-0.009617595730171263 
-0.004300210490445657 
-0.01931911125142224 
0.01069684971635824 
0.000149070343489275 
0.001336990111155499 
-0.009276604286533398 
0.005220997038215471 
-0.00157606339429935 
-0.03325113627264729 
-0.01919027187208803 
-0.009876499115679222 
-0.008003551736201923 
-0.02140690122532807 
0.03443644991479727 
0.04766583897441676 
0.01402295426879444 
0.05745219922521103 
-0.005715086006964974 
0.003409884216122038 
-0.005603511061417508 
-0.06062548817775675 
-0.00209964179308405 
-0.04806309418470526 
-0.02522313161590555 
-0.03340868040402131 
0.006639104209325408 
-0.03453346263043881 
-0.01337103384497107 
-0.01025605842426185 
-0.002326599531899686 
-0.0005172040384282524 
-0.008962116939561969 
-0.0006486652290079904 
0.004751860330428697 
-0.01048458409849178 
-0.0742344096134764 
-0.03883694924336117 
-0.02364580068295346 
-0.03134524385620011 
-0.01497697158447063 
-0.004330166630759131 
-0.002656886560431377 
0.005971888093628284 
0.02405409937807538 
0.01868647672707486 
0.01996987918466039 
0.01186015870456388 
0.04122176799561526 
0.03690609120212863 
-0.00155759697176597 
-0.02280450726867374 
-0.01146899863004785 
-0.01063402602873851 
0.01621322142682172 
0.01255886249037458 
-0.0029579413860133 
-0.06305716229654544 
-0.04814200596490963 
0.03172437022303187 
-0.05575389591447217 
-0.03522782209000221 
-0.02194424941365872 
-0.01824982141065652 
-0.001829635992022109 
-0.03363889663026517 
0.09445020711631365 
0.05499242781924762 
0.01688994906611254 
0.04274283327765214 
0.01863893003821011 
0.0146698050465229 
-0.000264789899098835 
0.001244045339577107 
0.0008235464563423041 
0.03036520042588098 
0.01504765050044661 
0.01296696132655644 
0.02455249683784474 
0.0331502199682713 
0.005583638140770912 
-0.01535657062473377 
-0.001165840574027531 
-0.008093100803486715 
0.09456491871097629 
0.06738192227209581 
0.01590433093996792 
-0.04540833619132498 
-0.02702923391035391 
-0.002829356926435501 
-0.01689858092250653 
-0.02247586452121358 
0.0210537540622883 
0.01917253867114234 
0.006344501758715148 
-0.01172521999941361 
-0.02387706243859822 
-0.007216834582081227 
0.0005640611411247072 
-0.0289895091247125 
-0.007690741947386555 
-0.0114040736015488 
0.02840774898501755 
0.04788858472972134 
-0.03546224025997981 
-0.003038126439429969 
0.0006024648636734127 
-0.006436522106100872 
-0.04004629720158783 
-0.01893142468937521 
-0.008052235418821404 
-0.05000729575736015 
-0.03051090130407179 
-0.002372801189256426 
-0.01314340559876456 
0.005479755618316417 
-0.008553593473699697 
-0.03814603373092788 
0.005417371806067451 
-0.03474159770350534 
0.003788805905827591 
0.01855920065682084 
-0.03228943777122181 
0.05624661657391423 
0.01635521459207917 
0.05921896800704999 
-0.006401474177986702 
0.01839671599306626 
-0.002611680978517752 
0.00394306247373976 
-0.00605905266732768 
-0.011803298085331 
-0.02835349116768454 
-0.01168091953730219 
-0.005385183987516957 
-0.03997543169919174 
0.0008077582116176418 
-0.04017070708621227 
-0.01046449952644433 
0.01249383283477043 
-0.035030857293945 
0.01261701883387904 
0.01184481980181362 
0.01201758294824162 
-0.005541024898508589 
0.003961075954573442 
-0.003839452970116912 
0 
0 
0 
0.06835351129910669 
0.03960749679651148 
0.01506476889348034 
-0.05190595771738919 
-0.03250333054910388 
0.004050939960331765 
0.02338342928656407 
-0.001057559476757591 
0.05208303007533348 
0.02460399379837111 
0.03364578434226574 
-0.001597804680744209 
0.02519781210240529 
0.0008662463236161659 
0.01565806626363671 
-0.01536883966482146 
-0.01289646506863464 
0.01830889588204187 
-0.04636136718845294 
-0.02519403952902041 
-0.003369604705861774 
-0.01628824126996145 
0.01730538095162907 
-0.0769065766666259 
-0.05410091356799208 
-0.02715893224058868 
-0.01168608889472272 
-0.03150391233591072 
-0.0109231724822804 
-0.01486452415515658 
-0.01979511042478867 
0.01385170515148853 
-0.01892918607267347 
-0.005202019256585011 
0.002933127269815364 
0.0003391234759243842 
-0.012091880694115 
-0.0006604776380329737 
-0.005401219722845993 
0.0232622486549672 
0.02632095198795764 
-0.05341230390568631 
0.05058941949150523 
0.02986918338410454 
0.01297381670420396 
-0.02028364023295048 
0.02288902528570174 
-0.02590755169139417 
0.01141369047787557 
0.004970313104478139 
0.02153152649295305 
0.02351410442835338 
0.02363256770417034 
0.01469246082617181 
0.02093681671503839 
0.001300745180944719 
0.0271474731719481 
-0.003168693431564693 
0.005028413979908303 
0.01641251980714312 
0.04043897199064395 
0.02551158843990832 
-0.0004403955178906797 
-0.03757433287560353 
-0.003044899172145714 
-0.01941928827300755 
-0.04586785751810062 
-0.02426414193656303 
-0.01105371068963655 
0.009124796412400923 
-0.01440887177918625 
0.03655194430148549 
0.02698896721760348 
0.02147918963892005 
0.00800816454271782 
-0.04463049843267705 
-0.01167111379315405 
-0.05395287127366925 
-0.06705720763061265 
-0.02939067397092547 
-0.05191040921530873 
-0.07207309612462119 
-0.02202188840670859 
-0.04970895794290201 
-0.01205236645798117 
0.0003215138253785836 
-0.01398933071328791 
-0.08745569637774446 
-0.04709303325465096 
-0.01481807987748029 
0.003803053548789067 
-0.05209547289592088 
0.04364346914757831 
0.03506901059112724 
0.02127888317009406 
-0.008693508684641157 
-0.001318138398932583 
-0.0008002224415286126 
5.443115296987792e-05 
-0.07348700240804672 
-0.02072290164496559 
-0.04780575078001521 
-0.0531706432170442 
-0.02739772111119237 
-0.02128186537094906 
0.0002774840988287784 
0.01381243075467904 
-0.02031963544886081 
-0.02478800684863824 
-0.03138931551002833 
0.01713110771037791 
-0.05602248044287832 
-0.001065543449203526 
-0.01943169857890033 
0.03297414342040324 
-0.006548478999756185 
0.0207828092138179 
-0.003311752600296254 
0.002485959899714862 
-0.01330567819526277 
-0.01132696928362631 
-0.001926229977902689 
-0.01759960932813688 
-0.03266021603051446 
-0.01211705657639249 
-0.007987283571735511 
-0.007533663077543632 
-0.003008204614725281 
-0.0004279779201877036 
0.01080250453328247 
0.02828023210510287 
-0.027864765634257 
0.004000999290969163 
0.005437732160919338 
-0.001050330931159681 
-0.06572263517880479 
-0.03557449590959967 
-0.01616312360052182 
-0.01997766655003282 
-0.01285093811713257 
0.006990526340999488 
-0.04010145141754141 
-0.01061434119373542 
-0.02248668862308578 
-0.001181975611023402 
-0.03266719903990583 
-0.01039642097792376 
0.02021843552684758 
-0.003275425365061038 
0.0285235816461292 
-0.07484464602222504 
-0.03744302390902732 
-0.006704519983713711 
0.05947118838902046 
0.04025742798014355 
0.01486746372735601 
-0.04254745205252698 
-0.01347680418995985 
-0.01250579680732709 
-0.03479042922351264 
-0.0167876858219524 
-0.01967650236408086 
0.006071433873118507 
0.01333604111464403 
-0.004320440304249934 
-0.03171389545453493 
-0.017956726189299 
-0.01656422300542179 
0.02923774018446979 
0.008669262974274637 
0.006948582499333114 
0.0748082196543971 
0.02762347534567205 
0.0224437649919914 
0.01189780229813372 
0.01248710260156068 
-0.005323138489124448 
-0.0007141509690694876 
-0.002067547271287894 
0.004271906789236526 
-0.0147460148295862 
0.01102674494281541 
-0.01009401496199134 
-0.02570653309636261 
-0.01524515180034287 
0.0001588742385581153 
-0.02803986107817465 
-0.01348806039036395 
-0.008673204346137485 
0.008618069359818967 
0.01885261746685404 
-0.01998666196411932 
-0.04665157535285053 
-0.008306195223083901 
-0.02661322722922808 
-0.03117690481893103 
-0.01457252927274943 
-0.006031215302170774 
-0.04694793619985978 
-0.02564822656357435 
-0.003057262688037857 
0.001039542793120724 
-0.0004532105116205127 
0.0002983640871350393 
-0.09771119337483118 
-0.0135601492373654 
-0.04097050420801825 
-0.004222406702951414 
-0.002572524032641299 
-0.01092103653419872 
0.05555556577619652 
0.02178241803747361 
0.0126814725907074 
0.002560370277302551 
0.004855757457730916 
0.008061978519505521 
0.00161035561812819 
0.01515002845215381 
-0.02762130254828739 
0.01003796592777967 
0.02796862534943018 
-0.01836021033097537 
-0.04212499704685432 
-0.03226654176381326 
0.009143865788714556 
0.06038276248071182 
0.05664676543460219 
0.01950173106668206 
-0.02479156840504854 
-0.00157957913174716 
-0.03057411274475284 
-0.02943334109203839 
-0.002167806026831869 
-0.0123250402240203 
0.004349482219187301 
0.005115471306306099 
0.005912892711050548 
-0.05044792234036961 
-0.03197879845523555 
-0.005828938362661329 
-0.02793144177211961 
-0.02274291749152674 
-0.005870502839207687 
-0.04291666845999515 
-0.02913637581850772 
-0.009991592303761751 
0.0238857009676768 
0.0216564085098769 
-0.01317263205980086 
-0.02697166168905532 
-0.01098499090860141 
0.000579183783101819 
0.04315978427990511 
0.02147288430415826 
0.02672404637832251 
-0.03020710371013513 
-0.01582012843730626 
0.0088790843515583 
0.002169886696023066 
-0.01947946220381994 
0.008166675822164507 
-0.03242210057508841 
-0.01367050742222798 
-0.009558367132841857 
-0.03238092100325273 
-0.01824943338246621 
-0.003369578932111126 
-0.006591419783800856 
0.007664989873503385 
0.006396248704239857 
-0.01798102444294646 
-0.006953845026642719 
-0.004185592543064395 
0.02923877814061059 
0.02855294941079145 
-0.01097578806949256 
-0.009376178168372933 
0.03282030390418424 
-0.04235774033674348 
-0.04759868976783312 
-0.01465289753376941 
-0.02504153531735854 
-0.03811679541797455 
-0.0135736297426804 
-0.03505626309814 
0.03063170345180648 
-0.006972313768433024 
0.01076287177475158 
0.03267884362562792 
0.02689895623559999 
0.02949076657815243 
-0.001780014741393669 
0.0006702600469615362 
-0.03360988767442114 
0.1066630276460645 
0.04054135092026546 
0.07119165891145592 
0.01736616174634831 
0.007426774129669572 
0.02508091805950024 
-0.03883035947518978 
-0.01530732443287354 
-0.004193563104589272 
0.007298787691882595 
-0.02169943295349619 
0.0438311301124315 
0.08882801911749802 
0.01732448321392477 
0.06125896153301275 
-0.01114366019741764 
0.004009758489726093 
-0.00350820359085439 
0.03588194162172544 
0.04974898412268475 
-0.02676127150130163 
-0.05138736491877065 
-0.01725588969308449 
-0.03479462302345653 
0.002817210069102663 
0.009172110834947927 
-0.01842338874450577 
0.03583189142419985 
0.01553710191607431 
0.0282657421380307 
-0.08875989674588357 
-0.05009968501697629 
-0.01343518600305728 
-0.00727115382468058 
0.01010913324730196 
-0.01353471479781617 
-0.04989214485930323 
-0.01754751270905217 
-0.03595953395395793 
-0.04144439587551245 
-0.0427616303411883 
0.008376496798743107 
-0.02025580345796188 
0.006328116129942891 
0.003422375445140847 
-0.03711208840068415 
-0.0192332052885172 
-0.01006457047589972 
-0.01965358243011164 
-0.001650983572982168 
-0.0157887358903447 
0.001319036359303982 
-0.00768804490172308 
0.02604165489533892 
0.02920109171785289 
0.02241723533298407 
0.003018357069626751 
0.00560137395797802 
-0.005545592649301359 
0.01696409068465216 
0 
0 
0 
-0.005233672107759724 
-0.01282883145431464 
0.01544748025011762 
-0.02637892551503016 
-0.0200371975738707 
0.01915071092243995 
0.03971830883504499 
0.01547824048720436 
-0.003437985150115272 
0.009433777056406039 
-0.03782466044661263 
-0.009330800752109207 
-0.01885337208571996 
-0.02110119306047321 
-0.002835557076768168 
0.01691073376380929 
0.0008888889041438578 
0.008230667102962223 
-0.0474312558441384 
-0.01562475127974454 
-0.01882019908934443 
-0.00293567822271943 
0.006903319669150044 
0.001928246931885709 
0.005492185264390059 
0.01102544017697811 
0.006395383996672677 
-0.02958341222871869 
-0.007398918647805173 
-0.004655692705163246 
-0.03610811521657133 
-0.01671995266874314 
-0.0277733019137357 
-0.004097393534352024 
-8.787726560681818e-05 
-0.001547007611592501 
0.007322085848928363 
0.02144876884213119 
-0.01716766334309223 
-0.0215171859928497 
-0.005324270116344568 
0.03242690771615304 
0.02078841762098475 
0.001580105770575748 
0.00608597386352792 
-0.0393762528531682 
-0.003484668029121458 
-0.03400071547013953 
0.005602792342535974 
-0.003906657580425579 
0.02459771419674713 
-0.02251362666809858 
-0.009542580064715742 
-0.004110704218395736 
-0.01931363054027242 
-0.01979221010016551 
0.005734260701065734 
0.03143846239722633 
0.02776042901971866 
-0.002703311186107768 
-0.01155674944370158 
0.006611195116446399 
-0.002323268140855193 
0.02562837736431146 
0.02039827174728879 
-0.009211872356827289 
-0.0338755732743657 
-0.004208778492794924 
-0.03783589704115699 
0.03833003967611351 
0.02944703960041559 
0.008424072382481438 
-0.02150186186410518 
-0.0152358570243109 
0.0006483016967254324 
-0.06111511543583341 
-0.03530183396384191 
-0.03317473430113749 
-0.02933197931718671 
-0.006692618389167833 
-0.01620784134056638 
-0.01258075848909927 
-0.001871246878639507 
-0.01600832314074566 
0.024770712645187 
-0.01613685505930458 
0.01369298013247227 
-0.04847507973165667 
-0.009534972840098077 
-0.01264890698741464 
-0.002718185918000806 
0.006027301959771854 
-0.009777558289002791 
-0.05106134806376058 
-0.01362605068904036 
-0.04016279201496874 
-0.01612446234726812 
0.003760687181525535 
0.01073314219306123 
-0.0598726644239943 
0.02204828151926829 
-0.03334718936037048 
-0.1028146017865079 
-0.03019879299245132 
-0.05926083937718409 
0.01150435226037004 
0.0063341343520713 
0.03237368886935719 
-0.0120178623508886 
0.001581949099699965 
-0.01158384355031796 
-0.008366154613311947 
-0.006004805751085298 
-0.008624975574415496 
0.03116292829257209 
0.007435951133454591 
0.002555945425077437 
0.03120117657934302 
0.005238632370362438 
0.0004656420576725002 
0.00213223992174449 
0.004707683206192585 
-0.009502707835763831 
-0.008257057810775842 
0.01408451985177258 
0.006094637600510447 
0.02007049547203279 
0.02295853601911731 
0.008877961590937729 
-0.0718171554712892 
-0.03792017617492863 
-0.01172073540901306 
0.06170193506594069 
0.02496616324312633 
0.02485554365404871 
-0.01765039867109024 
-0.02772023299107986 
0.03456674991096653 
-0.01353470937802676 
-0.005585903130236121 
-0.001560304423316364 
-0.02906983091002312 
-0.02672792526657101 
0.01861807557742259 
0.03029572881267912 
0.02230728752570928 
0.008798901504878951 
-0.02156202813044569 
0.004530531197570711 
-0.01840226971091481 
0.02839355382328189 
-0.0113535208995621 
0.04479425585565389 
0.01691589984755099 
0.03577138385959705 
-0.05135716518261713 
0.04299433895687092 
0.02419268390093938 
0.01592329677858736 
-0.06031492392039872 
-0.0334421933322346 
-0.01174346649549167 
0.02067616376359292 
0.006938942310671089 
-0.01034942692053064 
0.004115412707999298 
0.0002514689863461522 
-0.007135118528069763 
-0.04224963855033685 
-0.02285894373721067 
-0.000645106550152498 
0.0007709312556583598 
0.03073131646794086 
-0.01083915932533492 
0.02720502780727288 
0.01197487092606473 
0.00700933793522144 
-0.01874239556406397 
-0.003837822625716634 
0.002784687366054991 
0.03628310877318671 
0.02224779662879388 
0.04960220573783059 
0.0480622861531357 
0.009355245453080615 
0.01461669166987252 
0.002687771954156589 
0.004619070428227737 
-0.005034688462206844 
-0.0006679883196336165 
0.002500167304639 
-0.0001142561093513068 
-0.0242433095946333 
0.0187381993788145 
0.01738130908605787 
0.02407136667820382 
-0.0494447145742269 
0.02617458488232181 
0.03077038371896308 
0.006129722312227421 
-0.006740013460925448 
0.006450708250498456 
0.01295922868330379 
-0.02274022171059716 
0.03929379656584445 
0.02212215481137356 
0.01999198078440917 
-0.05572110327198133 
-0.01563588802929815 
-0.024091062446844 
-0.007009443120354086 
-0.003005544318742349 
-0.001963061300391249 
-0.002643524422788269 
0.00823675887739342 
-0.03743065076549922 
0.05996703973716037 
0.0287255052776248 
0.03800863134569376 
-0.07866411683510148 
-0.03818373588240392 
-0.01021403847296353 
0 
0 
0 
0.004860913157833053 
0.02150453571980424 
-0.01688003239656003 
-0.05943341199355794 
-0.03094553895361124 
-0.002293475953338923 
-0.009963193545508967 
-0.001161878031394797 
-0.003301956575651423 
-0.06672347222589775 
-0.01221332166781631 
-0.02243684646947038 
-0.008763824107252205 
-0.00305750050571161 
0.009745085305639585 
0.010751766156977 
0.0136954598902357 
0.000151672196105959 
-0.05133393199498699 
-0.02314262911712187 
-0.005638745138027459 
0.05597900315816715 
0.02491165352479362 
-0.002852477918416986 
0.02715376606677032 
0.009808257334391619 
0.03037154037769604 
0.01632799903605219 
0.01260849069273256 
0.007228647278896216 
-0.01954330989777482 
-0.008256351640401904 
-0.001927636711752812 
-0.02504757173027659 
-0.01281591269953059 
0.002238834993963381 
-0.0236513900484677 
0.008729421644519857 
-0.01007377413386707 
-0.03168806598469347 
-0.02910646584035911 
0.01706036224993441 
-0.02370195293633023 
0.0144329990446523 
-0.08403210448691358 
-0.08211529498607575 
-0.03285475906735377 
-0.03167744726466267 
0.006383200577930563 
0.01917164652107238 
-0.005525006442827729 
-0.003422771735946186 
-0.01473929612651731 
0.0109808634774433 
-0.05396262488951278 
-0.02769196779728115 
-0.0005718344361440126 
0.009363278484202235 
0.0169388638189965 
-0.01868854359883923 
0.03037432299362625 
0.0297033213426598 
-0.005042653029296255 
0.03625907055490384 
0.01886259033882866 
0.02270566803895293 
-0.04069654050132322 
-0.0319462757794465 
0.01705859405656532 
0.07581332402041378 
0.06561527075002176 
-0.004301497312163905 
-0.09769489924735017 
-0.05744653168970962 
-0.01223189079649972 
-0.006956526280394965 
-0.01074985904678406 
0.008306789490224793 
0.06925059058831526 
0.05065338199336737 
0.01424411621152537 
-0.01524322114872473 
0.006292872541242308 
0.007386265265534426 
-0.002628693918517422 
0.0230303943356558 
0.005647457234921535 
0.006856783953857131 
-0.0178098929405618 
0.0127710102664514 
-0.001527228062001859 
0.003767150442711878 
-0.02456134259208007 
-0.04447454131832932 
0.00528099678004712 
-0.03399926682045325 
0.07495134736416514 
0.03569501674858157 
0.01273477749849599 
-0.01146536881542885 
0.006644764075138978 
0.002004231120522694 
-0.04410554861868463 
-0.02799459556749028 
-0.006116337597167453 
-0.00965112586583384 
-0.003514645457031816 
-0.002167631070605038 
-0.06078928756516636 
-0.02614126425487029 
-0.02776487072652365 
-0.04814402370214903 
-0.008350886206034382 
-0.03216570214707708 
-0.01386672155070719 
-0.0125197352245934 
0.02128990931841169 
0.04648867711656315 
-0.001297525067930719 
0.046619524058982 
-0.02144934926414961 
0.01143626481182984 
-0.03476093011749 
0.004870420544204111 
0.01684115366741288 
0.003474773396949538 
-0.02529365873644548 
-0.008707724866675946 
-0.007844696446619597 
-0.03279608137114956 
-0.01092091886790615 
-0.04880936111564203 
0.04798541191308798 
0.06414635277888175 
-0.04032538882278545 
0.0364265192293521 
-0.001020547216805021 
0.0218254596014159 
-0.03339364759488652 
-0.01921118753641163 
-0.0001649244256207085 
0.00302713022703208 
0.01084895375434151 
-0.02145910265703041 
-0.0127072264603288 
0.01409716397787939 
-0.01587756476157302 
0.001233072041691634 
0.0004949421923724677 
-0.001555776552777547 
-0.0150693130301548 
-0.009617061977913862 
0.0286265528676652 
-0.03347309908721825 
-0.0155546300479083 
0.02326897271151366 
-0.03873909994376833 
-0.02167138323649015 
0.01369639500751989 
-0.07290790774871748 
-0.03320984968522711 
-0.01714418246560984 
-0.01663398571965851 
-0.003951805120837687 
-0.03325548872420613 
-0.07454561531204063 
-0.04081974049104697 
-0.02902343945168747 
-0.01097243037132637 
-0.0152469427735815 
-0.001920299627360109 
0.04000686596958199 
0.0184962346015779 
0.04261873360246944 
-0.008282976230948917 
0.000926385161979886 
0.005072826180761814 
0.04378285339973098 
0.02475291396528657 
0.03302007120560616 
-0.01446217928229042 
-0.009300190645226249 
-0.03257466133547433 
-0.0253640663616764 
-0.01083440206728023 
0.0008869747579864894 
-0.007484456848423116 
-0.00404269368339615 
0.00308438621040624 
-0.009678134445304699 
-0.002653577789072575 
-0.0137153499397915 
-0.03837485110408952 
-0.01305724576807161 
-0.02484476846749253 
0.02831389755289122 
0.01206820688617208 
0.02565126609336247 
-0.003859730750214928 
-0.001362575643006115 
0.0009448079146194517 
0.01912128017912873 
0.002350195316112674 
-0.001664278136839191 
-0.008287399913858271 
-0.0003209508295269028 
-0.002209463340727012 
-0.01989222062686077 
0.004695731068356713 
-0.0124906203986139 
-0.05702288585986702 
-0.01097937190282336 
-0.04052613192864973 
-0.03660363717895245 
-0.0132716090395715 
-0.01326712233564405 
-0.03620954210678835 
-0.01706412727400091 
-0.004960942759441465 
-0.004278225117074849 
-0.01062726775243249 
0.02609816622024955 
0.002704849559613009 
0.01931039591250522 
-0.02163654284811092 
0.07025189819297083 
0.04529121645982392 
0.032735396229554 
0.01794586532242168 
0.00729691236171372 
0.01061990307361152 
-0.03946499968042545 
-0.01692668557535521 
0.0109486211410714 
0.007344939182187924 
0.04160043480125248 
-0.04458891090345688 
0.00283824671353899 
-0.008072165949194706 
0.002364319704456109 
-0.03885211883144722 
0.005075011369321666 
-0.03893651378735927 
0.01045122316556349 
0.005562860797556447 
0.003710568159689463 
-0.02177876410733714 
-0.001999686166549638 
-0.01705366476600686 
0.0002910130142812366 
-0.001086102126227051 
-0.002319300518965328 
-0.03900868413331116 
-0.004211521544636432 
-0.03596940883243186 
0.017661183420491 
0.0115691124569276 
0.0187330359428398 
0.008538961361391411 
-0.0488219155538598 
-0.005100738299178455 
-0.02967292355208104 
-0.009607102558159082 
0.002378463024607077 
0.01613894068410634 
0.0238218133722835 
-0.03116226342727947 
0.007330907214183625 
0.004922376671624914 
0.005901187512701075 
-0.01510616619591836 
-0.003171379713816397 
-0.0127476223875301 
0.003127411899372131 
-0.003691180457971526 
0.01238622217367385 
0.01992004698113887 
0.02360072263893493 
-0.021476788196913 
0.000488490149467019 
0.01478131618616575 
-0.009802305566869608 
-0.07510367426043187 
-0.04255857154608016 
-0.01021005902249383 
-0.01295404556164011 
-0.01361240348447544 
0.0102650319437777 
0.04045119003985544 
0.03386911502141997 
-0.008563084949164922 
0.001832675452331059 
-0.00592539533862328 
0.01544573455726513 
0.01376357992613846 
-0.002232139861382259 
0.02942919704400818 
-0.05701225009362702 
-0.01239638836091224 
-0.02656117361128142 
-0.009514686001854435 
0.01766364212342366 
-0.01332740459014248 
-0.01989581125765647 
-0.02729771376593449 
0.01657118025164125 
-0.01627009572003444 
-0.007377802050034048 
-0.003333959255129893 
-0.02191718089719248 
-0.009216789323601244 
-0.005464824084290081 
0.03251709779881561 
0.0130884489430382 
0.02478474058646058 
-0.000790404239599823 
0.003084678668416521 
-0.01477457345155997 
0.03075708093421234 
0.036341190766216 
0.002834999533204672 
-0.01112336788260255 
0.008702019801009972 
-0.001194416146796594 
0.03250534531874625 
0.02333727027558536 
-0.02966488917632299 
-0.01299790362731626 
0.003140918185822775 
-0.003114388394627019 
-0.007638417567096972 
-0.003444425264130022 
0.001280324318357199 
-0.03009047386103849 
-0.008524611875553477 
-0.01126640965440117 
-0.03435399300180846 
-0.03834676097485741 
0.04526154225305463 
-0.005895221864354611 
-0.01571333825884557 
0.03396977724893142 
0.04227312247585265 
-0.005868040367984635 
0.01737304982862118 
0.01124256602615384 
0.011877454497538 
0.0004890130827923641 
0.01611822926610992 
0.03355861738618026 
-0.01969665711656898 
-0.006966835079720877 
7.530442093242349e-05 
-0.01895997078948081 
-0.03258518286163575 
-0.01846202930743794 
0.007284851306788091 
-0.03070902925184543 
-0.01365488378952561 
-0.009702604856387203 
0.04209429081083502 
0.0293351249725222 
0.02154579284051979 
-0.009850139059180972 
-0.001956029349404077 
0.004754994230448777 
-0.02968946241464809 
-0.01238169354610261 
-0.004688714102122968 
0.008168801197801204 
0.01031451530050962 
0.01595443264186238 
0.06833208346757277 
0.03292502700728404 
0.04630703953269846 
-0.04564314553930793 
-0.03893984633703902 
0.0003804649384817107 
0.001665604755055312 
0.01197191152440266 
-0.01844027763454085 
-0.006826678614722337 
0.005468991174893685 
-0.01194525878245421 
-0.02360379216457991 
0.00450037688652158 
-0.01617878747971356 
-0.04776439419080163 
-0.01453925827910947 
0.003268632577831539 
-0.04295543393044043 
0.005123349607327563 
-0.01435156523807328 
0 
0 
0 
-0.008410466100896609 
-0.001489917298288879 
-0.01895961884989157 
0.0634920468514712 
0.04191348297930145 
-0.000474299585934151 
-0.01940895841249412 
-0.005022385311229822 
-0.01071930319006932 
-0.03438441064698835 
-0.01047740553492192 
-0.008074001600491034 
0.02091155730196274 
0.01721765306446837 
0.008659765963583522 
0.04099939112467065 
0.02411936331695329 
0.03450821225657017 
-0.01958562204154237 
-0.009288149634785669 
-0.0006849494230760723 
-0.001102126074196628 
0.01305500955026388 
0.01032059795297264 
0.003610544296396562 
0.004363305200408767 
0.005641770983162443 
-0.03283920335367562 
0.01300838534995588 
-0.0256415794527701 
-0.03072857247244696 
-0.01146321711115246 
-0.01165738132323255 
-0.06015563377465025 
-0.03317119289729399 
0.01804565586627405 
-0.01527462219275794 
0.001468549367171562 
-0.00795085601091112 
-0.04387448091971333 
-0.02688727251325053 
0.004339760031255497 
0.03031677531716855 
0.02148851692765991 
0.0103590268803731 
-0.04260378187456693 
-0.0143639272519676 
-0.02465476886944962 
0.01989317066488403 
0.006240555663687122 
-0.02653084292541329 
0.02913537121283451 
0.05394779968317256 
-0.01862100683221335 
0.01317931232608919 
0.0006706274000463725 
0.0002026514569084704 
0.004349057047682299 
0.02028187801306102 
-0.00539435144442937 
0.03244043280056614 
0.01499236729607848 
0.01894863656798427 
0.005292118678718922 
0.03009147414799401 
-0.01979938509352776 
-0.03087904881761081 
-0.02061587863082344 
0.003945350983030098 
-0.001606404405977693 
0.00685860763928239 
-0.001367153690379981 
0.02339088351837483 
0.02682133448075524 
0.00312519606020608 
0.006288345763033316 
-0.01591898912680049 
0.01578832897320309 
-0.02502701821632336 
-0.0005362746854933501 
-0.0165124997856291 
-0.02495075325513588 
-0.016233851806721 
-0.00327820734963641 
-0.02811502370226541 
-0.00611757934035856 
-0.03829028370994939 
-0.02180256618962646 
-0.01029079847765166 
-0.01663129696067688 
-0.05412753206051869 
-0.04776907333372443 
0.01815725318884583 
0.06934155184759921 
0.03354546142220302 
0.0199133021782108 
0.001883098850077962 
0.002609356889964323 
0.01957890554484136 
-0.01919360228518945 
0.004653029381439762 
-0.04064846836474083 
0.03493378621785594 
0.02667938269216685 
0.01175578192232808 
-0.03043038090254761 
-0.007323835802536875 
-0.004325877188530147 
0.06479176137342979 
0.02216176012651521 
0.0157371558853666 
-0.02532024117000985 
-0.003773312827165496 
-0.009482800128200774 
0.03184182474084826 
0.02846392655755255 
-0.01718449251953329 
0.02380461576422024 
0.006704167312329197 
0.01631335908540127 
0.03373823047494479 
-0.01246829532309669 
0.07442987796249365 
0.0098233478291461 
0.00161079834730918 
-0.0005545456633776836 
0.02782911318585629 
0.0233630560615657 
-0.01959283085364903 
-0.01619092542969171 
0.003056119529289684 
-0.02956914560932214 
-0.01247043831920857 
-0.005860050950734789 
0.007263012425894747 
0.04001614510923461 
0.005949068587310472 
0.06584967459894465 
0.1009402500376473 
0.04832390987824891 
-0.01171523352237103 
-0.02194022860359372 
-0.01232842661978019 
-0.03059745221330728 
0.03107966442660378 
0.01927516516644519 
-0.001325870754631046 
-0.0467808417586567 
-0.02809966041903774 
-0.03012254852772948 
0.02601071899536877 
0.03128431053446633 
-0.007298725882763767 
-0.03780505619859593 
-0.01443913404018685 
-0.01683660349164255 
0.007015529785031662 
-0.005111920061515562 
-0.02067183185077941 
-0.02043462693759504 
-0.009821126161871674 
0.004529763105569985 
0.00636575040894265 
0.006433617181071596 
0.007091515065569503 
-0.04359792606277357 
-0.0329744131337387 
0.02142944980816448 
-0.0002923757728255075 
0.0056612069821455 
-0.004816243649617444 
-0.06992347959033414 
-0.04402513509598354 
-0.001906899351324153 
-0.004046966271719295 
-0.01207085361153973 
0.0172494121905372 
-0.006783526805064441 
0.04291878081763007 
-0.0688463654353105 
0.02315092554852946 
0.003532930423754953 
0.0266120692706577 
0.002609017400818367 
0.0008436303290133987 
0.003696572822525627 
-0.002242581313173593 
-0.002153451881663168 
0.01924104160235296 
-0.01279770430240522 
-0.006085025593072737 
-0.01100147711081234 
0.01052085056528714 
0.01992531784108074 
-0.00445788390665327 
-0.04475258720589902 
-0.01200663257138729 
-0.001252716658485363 
-0.04150592035033977 
-0.01661504372276397 
0.0006985988555019741 
0.009383146410593558 
0.004891084621595201 
-0.01766790274196131 
-0.04987402984524621 
-0.01925903323402794 
-0.02203687289011882 
-0.0911792023746897 
-0.048668436788134 
-0.01716383180276276 
-0.02815874219739877 
-0.01880112439344877 
0.007691540123282292 
-0.02935409306271121 
-0.01812451234769115 
-0.008373576358751101 
0.008827416893226211 
0.01252632918507414 
-0.001259440227094992 
-0.06255340781674008 
-0.01569668454844094 
-0.023470111772848 
-0.07206733446868069 
-0.03859308419719529 
-0.01788660294658001 
0.002517089946416398 
0.003839414684148312 
0.009899258452917682 
-0.01017853151865892 
0.008468515277945935 
-0.002290333177186686 
0.00601446143926899 
0.01846702252499734 
0.005887766279801938 
-0.0056788894359865 
0.01763741531658925 
-0.008779193321597064 
0.03146060374270837 
0.02001248908608251 
0.002899845098199556 
-0.004218415310025411 
0.004075228655457045 
-0.001682041851977204 
-0.02991754021151403 
-0.02969499165720436 
0.01577285368628601 
-0.01986844726990374 
-0.01565098815805861 
0.01867027210664942 
0.04290213376274961 
0.01445254255706994 
0.02246615066044741 
-0.05933802500509892 
-0.03101531515735907 
-0.006300579681900786 
0.03939708443736234 
0.02642620703633022 
-0.002043818015837303 
-0.04408016681894086 
-0.01036265883666563 
-0.03792285730018297 
0.02467242519880864 
0.003836221589550168 
0.01198717192551224 
-0.0573651060230547 
-0.02150317376981236 
0.01263356776326388 
0.07539107252067721 
0.02804975653621053 
0.009257677135724441 
0.02961454480923544 
0.02843101518037345 
-0.0007467316107643653 
0.03484410238764948 
0.02954194147417329 
0.02888506558232148 
-0.02178015825230829 
0.00597454138123839 
-0.03817964771595849 
-0.02921242256611964 
-0.01126848006003182 
0.001397824670655402 
-0.04284688418722738 
-0.0204162191007262 
-0.0007524054633328027 
-0.004122852393618349 
0.006855365885181008 
0.005580848688400569 
-0.01456634682954945 
-0.005085965962443669 
-0.007931733738673175 
-0.0483368282227598 
-0.01771846109807485 
-0.005522366966415691 
-0.02906343641573909 
-0.009417924089617809 
0.005553571868391062 
-0.03901223753986259 
-0.02228353881659341 
-0.01275298630337658 
-0.05283902584201686 
-0.03562229767482032 
0.01014063811923583 
-0.001677982295778038 
0.00658897935974236 
-0.03288235797858642 
0.01430210034669657 
0.01521852198730411 
-9.782095967081774e-05 
0.009952641137595319 
0.01395978847523134 
-0.01449031677600681 
-0.0092183636525285 
0.02497087150415108 
-0.04591176454828816 
0.01537277032407324 
0.02795947694728143 
-0.01875363436153844 
-0.009685164812703833 
-0.003969947371583328 
-0.001830079863254061 
0.01286015002603304 
0.03981442320481803 
-0.01216473471831536 
-0.04327027733073802 
-0.01630209397696137 
-0.01056808766201905 
-0.03094565987084247 
-0.01764333306862288 
0.009202898856508934 
-0.01221984310167257 
-0.01749143836291183 
-0.008048451578429483 
0.04534371969139959 
0.03450228824741707 
-0.009409978605150353 
0.006218471434967419 
-0.02430234803174131 
-0.00146410048637142 
0.01357845085661265 
0.01884839436595619 
-0.03582825353766958 
0.01219479164425762 
0.004659434641255476 
0.001380138979149892 
-0.02929141967541881 
-0.01237010051613028 
-0.005845051040117264 
0.05179215403859386 
0.05187644077792676 
-0.02357128848080396 
-0.03054805372221638 
0.0004544763277913125 
-0.01594821232743611 
-0.02339985851957682 
-0.0120397712063231 
-0.004757318610612008 
-0.001631962527763763 
-0.01492468321409601 
0.01669376173631309 
0.003758524490143886 
0.005775936792647275 
-0.02431272483946704 
-0.0105887988157115 
-0.07420493650202817 
0.03506512671850588 
0.01278192548092235 
0.01710699211490484 
-0.009462786401095137 
-0.003074210520815045 
0.00133803134230636 
0.01187322572970171 
0.03017858081002481 
0.02107720381764402 
-0.01741149604006394 
-0.05518580686209712 
-0.02731433149696175 
-0.01077126464484816 
-0.0262212194196435 
-0.01244308202166731 
-0.01153164800633121 
0.01320191175865068 
0.01070045410743036 
-0.005650613195356279 
-0.02101170255552698 
-0.004873284076936456 
-0.005455595205722696 
0.01346376583679062 
0.01428078743594303 
-0.004259829993015409 
-0.02277484286066197 
0.008891790788526791 
-0.03428815888954832 
-0.02920777025139534 
-0.02315470999978423 
0.01537543250339397 
0.01082174127927503 
0.006585973159463266 
0.01598867900443685 
-0.03356860074901998 
-0.01114461104705046 
-0.01382615137959995 
0.007604330306743829 
0.01294504847015543 
0.03166146355554347 
-0.01879311333102929 
-0.009838832600524398 
-0.0130810673457952 
-0.01505950106713852 
-0.01342401658144574 
0.001463107464392236 
0.002845159258230371 
-0.005617388661409001 
0.03356672193342194 
-0.01257960096251933 
-0.007978393533760076 
0.01805787991693052 
-0.0657768374970646 
-0.01053353385012013 
-0.03091120397757081 
0.09015607503583177 
0.04289479576085004 
0.03815058553932148 
-0.02138091063417665 
-0.02307759052087725 
-0.004174260210244417 
0.001440722980542298 
0.005710269866393486 
-0.003647328999189578 
0.004754232586631713 
0.01263685475744973 
0.001139372763287713 
-0.01813460691678611 
-0.01488045946524798 
-0.007374503971579007 
0.007600068268735858 
-0.01756280421464096 
0.0364711895578639 
0.01924730483452607 
0.05118925849054091 
-0.03526716831876647 
-0.04521337168912092 
-0.02006055560942231 
-0.004059532348092977 
-0.028684138530185 
-0.0125661678877692 
-0.005284915082333788 
-0.05457896514275564 
-0.01956384955157188 
-0.02513352228367504 
-0.009236359726730628 
-0.009181994640507299 
0.009170642207163853 
0.06426723746759527 
0.0370406260383867 
0.01571661219263224 
-0.02256913639604865 
-0.004899788948831339 
-0.02436845809174833 
-0.07570943012591162 
-0.03014036539178407 
-0.01282151413226513 
-0.060199713266078 
-0.04104056225434762 
-0.04175299494535257 
-0.0361007790150555 
0.05650930963061691 
0.0004888472201912268 
-0.0007207292405283466 
0.009604916658992707 
0.02499351041119252 
-0.06015943269673374 
-0.02500407737063505 
-0.0322358302953531 
-0.02557698347921055 
-0.01484685484327173 
-0.02930065062323129 
0.04961044684619188 
0.02667026805300367 
-0.006417566851606419 
-0.009594130595169923 
-0.00671600113292939 
-0.004258917716009405 
0.006115815551924537 
0.01185733406770335 
-0.02677541943455933 
-0.02826854184649829 
0.001521214613925873 
-0.002892152239239797 
-0.06898753766684518 
-0.02162480779937281 
-0.02035043709460344 
0.005379391821263511 
0.02151559696341963 
-0.01336859975162283 
-0.01109119386845694 
-0.0009136713780454848 
-0.01124132003577506 
0.02267807736696347 
0.04236047153635153 
-0.0478099138518867 
-0.01688820653191229 
-0.001578583277608054 
-0.01679453127855235 
-0.07352788509689294 
-0.02946003977478344 
-0.01180477000462255 
-0.02823550265025674 
-0.01382619455114142 
0.0005929420276560224 
-0.002207207015395537 
0.002845187249565769 
0.001663916778684115 
0.02146119308862533 
0.02899647133490578 
0.004993451708312698 
0.03572248280722763 
0.01436265986422782 
0.008182352623923429 
0.009130304008176294 
0.008994751648203006 
-0.01202358747459644 
-0.0162027738564691 
0.01602148335986285 
-0.02926418879042452 
-0.04167352504241083 
-0.004033302093780219 
-0.02173447795650171 
-0.04722729170564115 
-0.02479611740271459 
-0.01326029371876231 
-0.01122919924640617 
-0.002301114197300092 
-0.006290950208172676 
0.005168818830103531 
0.001101069290927233 
-0.001743498885002061 
0.0717098352022148 
0.04431832876117103 
0.0026519187243342 
0.01966167765616779 
0.02068613093719313 
-0.01994389707635986 
-0.04002789789947441 
-0.0186916158639421 
-0.0200386783254908 
-0.02731051167602661 
-0.02016797341992788 
0.009235502968330452 
-0.0131119060266356 
0.01289616605863693 
-0.000995841954017918 
0.000295054548926362 
0.01104678870574731 
-0.01037368160982901 
-0.01764156335510685 
-0.00628399443765288 
-0.007244326213398409 
0.00995430926717371 
0.0417561228978435 
0.0008650490996092636 
-0.06055114606240351 
-0.01666452479724806 
-0.03752856495413346 
-0.0009572340743817753 
0.01322886494324778 
-0.007733341436580447 
-0.07858510604843787 
-0.01861979844980061 
-0.02966374606980456 
0.03262520395147012 
0.04422395239842794 
-0.005338082791298826 
0.05925804822701575 
-0.004024654367394119 
0.03973822142764829 
-0.03199042484678413 
-0.004581203108728062 
-0.001450767509657645 
-0.01349706738609494 
-0.03333560098819106 
0.01143542842687433 
-0.008013291707671464 
-0.005623634545561682 
0.002782572527597926 
0.1012548716374295 
0.02884768886369385 
0.04994630167716222 
-0.02131189253453961 
-0.01707658145935409 
0.01119814441107435 
0.005978839406524268 
-0.002019221928508555 
-0.0006949711377010953 
0.005126987970632781 
0.02785956323511439 
-0.05662413480397705 
0.02501157858178327 
0.00290587067742871 
0.001515464888732573 
0.006907683021119561 
-0.01516026775084165 
0.02032439573348466 
-0.03493732672659648 
-0.01641132484589772 
-0.007696791189881353 
0.04613927066261622 
0.04997179479994303 
-0.009164915156306448 
-0.01222686910210278 
-0.01464075886205415 
0.01437707077478826 
-0.05190305499808802 
-0.01367485400677021 
-0.01128348082862657 
-0.00965759553489977 
-0.01134016634781382 
0.01802116043746544 
-0.02048711031043246 
-0.008750827985682171 
-0.01035975490863461 
0.01184266046413888 
0.01447616875416761 
-0.004050752645482862 
-0.03286044301963101 
-0.007985274980310151 
-0.01647688869007038 
0.01130307213056437 
0.01342483149344988 
-0.01926425303008047 
-0.04082241355837634 
-0.01692506740973649 
-0.01341077722895512 
-0.00112039624567623 
0.003021537074284702 
0.003532122803201951 
-0.02701500989085638 
-0.01469844215554714 
-0.0143943593817138 
-0.0250861485409466 
-0.005755508267126705 
-0.02070001174297408 
-0.009863578336050709 
-0.0009643223017882992 
-0.01744635150472325 
-0.05382893642287628 
-0.01074279390887387 
-0.03766685501382013 
-0.02425932629225633 
0.02625105994293911 
-0.01250159969264943 
0.02154834385547538 
0.03634011784502242 
0.007132656837543555 
-0.0112053342700349 
-0.006446552050679716 
0.002546673524205702 
0.01894790610410075 
0.005995804868808997 
-0.02434178152498197 
0.04174619671479833 
0.05749873932036924 
-0.02685327258418843 
-0.06689506892264513 
-0.02941892818852715 
-0.02571508237346086 
-0.03313895919756546 
-0.003062312882826178 
-0.01074135318563525 
0.001146030146867227 
0.01162483747248077 
0.003757046218474356 
0.02162670591265325 
0.01525525217282857 
0.02666845423620598 
0.052575541248584 
0.00246459620382798 
0.06986167733718157 
-0.03957946901484925 
-0.00870114008536701 
-0.005889537285070552 
0.0003692452921249384 
-0.01926752354342588 
0.002148644240547327 
0.03608566301215172 
0.01764963844529882 
-0.004992605820247872 
0.03886352442382226 
0.01787502408860487 
0.009369563833989829 
0.02535987017790312 
0.02422539798387922 
0.005810210331841635 
-0.02326177808035068 
-0.01308670141848615 
-0.02767942737166955 
0.02430447638557276 
0.006843559535257902 
0.01403692297350131 
0.001969565909936515 
0.007874429354093968 
-0.02324091531460353 
-0.02626543657033758 
-0.003167927445663119 
-0.0297884073429302 
-0.01246941790648663 
-0.005534185941883252 
0.008731682432354466 
-0.03926547812514969 
-0.01050606458116808 
-0.0606829010254549 
-0.01570087861872907 
-0.00978893441765866 
-0.01359908902678465 
-0.06486530295635626 
-0.02158130540658971 
-0.01801938110130664 
-0.07107373563960842 
-0.03220044071926253 
-0.02415852192050292 
-0.05565380503209903 
-0.01144474794808721 
-0.0203683889263507 
0.01356793085228188 
-0.04346688636320258 
0.002328201634287978 
-0.01538906844841804 
-0.01065890855282919 
-0.0009464810080369792 
-0.04014068737244698 
-0.0558254423105408 
0.05909427699804058 
-0.03662157373240275 
-0.01653984816128155 
-0.009062075376893467 
-0.02669327372993028 
-0.01262026903745792 
0.0006358454477107177 
-0.01907205803593014 
-0.01456932662838748 
-0.006690135580944521 
0.01494120130454424 
0.03016340161847341 
0.001768575552347057 
0.01340207813079223 
0.0103101913909932 
-0.0009043755444441652 
0.01723143894603832 
0.007456842222254689 
-0.005512312188853802 
0 
0 
0 
0.0392993922931667 
-0.04973854539681465 
0.05003752509917826 
-0.008359155202037061 
0.006277287222428344 
0.0001838833162636019 
-0.02924345694268681 
-0.01490330983916161 
-0.01125759907899607 
-0.002262712164462102 
0.001298403733389368 
-0.007071369892400707 
-0.01537658652737296 
0.003124032758370333 
-0.006246679478712053 
-0.001767919926159892 
0.0004223791379587656 
-0.03486487364069395 
-0.04686371397449358 
-0.08230439551282971 
0.01683433375988564 
-0.01254295339727001 
-0.01124651826954004 
0.001458734529819339 
0.02797067538621909 
-0.0002948367617649543 
0.01958473163211916 
-0.04837767505821698 
-0.01776291166331733 
-0.0308736121607583 
-0.05425560214365158 
-0.02067199456707195 
0.03041399523321778 
-0.007601989458601397 
-0.004761613763571796 
0.01171166590957061 
-0.01707949370633547 
-0.02230150523121457 
0.02707406816905442 
0.01316879245165136 
0.02361307788482097 
-0.01520822354046804 
0.01420987578495495 
-0.008387314550083033 
-0.004009955085726318 
-0.02001128487831744 
-0.002293455230279674 
0.02056364569703916 
-0.007690237029099857 
0.001350081372195072 
0.01153012007634979 
0.004579231434815719 
0.01682764334790057 
-0.02402033243863542 
-0.03755888533332037 
-0.02099578382932019 
-0.007101629554291038 
-0.02986372932031624 
-0.01858654157767886 
-0.004239406708793069 
0.004160811011971537 
0.01147807351232005 
0.03887100009983841 
0.04981415515237789 
-0.0007064333640681661 
0.06093341379429697 
0.0443140756684479 
-0.00873476116626079 
0.03375844182979128 
-0.02604989706128739 
0.003448823594292058 
-0.02856891002821931 
-0.05197299667101118 
-0.02014642846471882 
-0.03466185742110665 
0.02622527932970875 
-0.002617790783897262 
0.07312232215552358 
0.01703007164363146 
-0.001397074405218484 
0.01666398623323888 
-0.08332712871743962 
-0.03757812399487329 
-0.01468914029000173 
-0.003870679515805231 
-0.0002347815382181974 
-0.003203668714929554 
-0.003986441129305294 
-0.00238834246127037 
-0.01487507007466316 
0.06755504229584666 
0.01169387839974932 
0.05426116186327198 
-0.01588287563425073 
-0.01382296605000407 
0.001015631849798103 
-0.009173960733072774 
0.005330087613412127 
-0.01926724862126418 
0.007770917756385264 
0.01163920495030436 
-0.024490821344197 
-0.03113602127215087 
-0.0433252360844218 
0.01828110383320097 
-0.01544317477466107 
-0.003442774200849272 
-0.007762543299269908 
0.003357498558281936 
0.01394272524198466 
-0.007239167138581143 
-0.01266681208351196 
0.01567062825547599 
-0.004815325372990059 
-0.02478220758555548 
-0.002512338369629446 
-0.01389892627381826 
0.01551403879759306 
0.007470081235207797 
0.001098974357742702 
0.01106870288644774 
-0.002471548520715082 
0.0342463103218135 
-0.01366610805361625 
0.008445699916436199 
-0.02202735134595668 
0.05353950592831213 
0.02674117742436067 
0.06054774015725209 
0.005495678667230457 
0.01362366720829529 
0.01115292660560182 
-0.0424625067498741 
-0.02185641755065084 
-0.002950212821064095 
0.01615965651007766 
0.01093708744888052 
0.0003224964364577328 
0.004705790520871662 
0.02648958456969036 
-0.01966647336308259 
-0.05914462792548358 
-0.009284415225724381 
-0.05556265287306709 
-0.01008712235375418 
0.02070925056634315 
-0.01490844575812156 
0.01875488236608553 
0.01242286875963677 
-0.01479850140059249 
-0.04274582016455047 
-0.01939260666923379 
-0.01835377877024953 
-0.007781916043768038 
-0.003996706051643824 
-0.04109977721437259 
-0.03525518985463096 
0.01284209811762316 
-0.01317546308344165 
0.03380344692669766 
0.03567694961375917 
-0.02591794615698274 
0 
0 
0 
-0.01243888463857699 
-0.004182894759594077 
-0.002505609347080678 
0.03758444233225617 
0.02682154424746089 
0.01624235437216712 
-0.02975030474928299 
0.02099460825848136 
-0.03985676072975466 
0.00234251158924522 
0.004176608367966018 
-0.001390825179710694 
-0.03943745586325626 
-0.01287833443301438 
-0.007577086185858471 
0.01931272104599532 
-0.01817607326753975 
0.04512917223827926 
-0.02737646075772788 
-0.01480789159959329 
-0.007965487435484728 
0.01051662663302039 
-0.02453180397750405 
0.009862383543361409 
-0.02403216087468379 
-0.0198239483759019 
0.00271722842431558 
-0.006600239149926599 
0.003911424106866971 
-0.001008741803732022 
-0.04324724183237296 
-0.00892478319498744 
-0.02919834052558776 
0.004513409867359797 
-0.001942406401067482 
0.0109196278495908 
-0.02404325491677456 
-0.01110840589783066 
-0.02609808256358568 
0.03026895747245154 
0.0249632694938994 
0.002235635045494429 
0.05309383773062242 
0.03220950921641463 
0.0115044856848662 
-0.01041413142210335 
0.01362521087072983 
-0.01524317642873437 
-0.03563748364948608 
-0.01221031441601545 
0.002924841684636089 
-0.0486018620638389 
-0.02125601562445025 
-0.02288623286225533 
0.02855129697671397 
0.03437692019969787 
-0.01487972807150726 
-0.008289734355399436 
0.02869765093628062 
-0.02954507795123002 
-0.02534128370990564 
-0.001821936925123596 
-0.01868071570107939 
-0.0006955419427340155 
-0.01934490160005198 
-0.002845805304850376 
-0.002593231776549403 
0.02210062531613705 
-0.02087173375195045 
0.02847773640019503 
-0.004339685036940814 
0.009611297224319502 
0.02635226513173419 
0.009546207937528675 
0.01693346143480054 
-0.07620228374184779 
-0.04211984061009715 
-0.003659309204583444 
-0.0326950989416705 
-0.02146707766711175 
-0.01068056334855276 
0.01683107276549577 
0.003695116301072529 
0.009850211394404612 
0.04311544455659078 
0.03813896392743409 
-0.0006414645458313119 
0.004692454970159287 
0.0145613491646268 
-0.02584966503519752 
-0.06232088102402481 
-0.03412547949857766 
0.008869816767479839 
0.004078232876596447 
0.02765936139260291 
-0.03270561404811753 
-0.02540824125630642 
-0.00681727420324716 
-0.05176448884613227 
0.03101835457849646 
0.05397028359250476 
0.005750410978544478 
-0.0216711071395617 
0.0142931183315009 
-0.0007261939663684789 
-0.03900994832169468 
-0.01241544198035676 
-0.04239177644688902 
-9.099611251578375e-05 
-5.264266916603963e-05 
3.890954754155104e-05 
-0.01987647084765136 
-0.007050671788263387 
0.002080807227284584 
-0.06119208935022601 
-0.0103535306458319 
-0.05222092098637859 
0.006960636229138256 
0.01014919479380241 
0.005246731905674966 
-0.02031418525849167 
0.01857745603878158 
-0.04274300719727606 
-0.05266924135916901 
-0.01224831047326232 
-0.027951557745525 
-0.01405916689464204 
-0.005971301767953667 
0.009534075008387868 
-0.001161998579002106 
0.01785722197649797 
-0.036607622105046 
-0.01999783475407059 
-0.0001418866021794154 
-0.02162116968792353 
0.01945490206627949 
0.04401246007007451 
-0.02418339528296738 
0.007964888897405166 
0.01435513976302642 
-0.01469968401110956 
0.01410787789678847 
0.001232542734828359 
-0.009318099664150783 
0.0003151464429505261 
0.01043115003755902 
0.002007624054930484 
-0.007475730097926529 
0.008317259966928177 
0.005560308906134215 
-0.004943102692436281 
-0.008514548493122841 
-0.02042028672392526 
0.05459852746276309 
0.02555183554352205 
0.04740478225468175 
-0.04148417226348393 
-0.02012656224422103 
-0.01093068513261639 
-0.02127412078139951 
-0.02510569863853467 
-0.02371082643324893 
0.0004202986871646608 
0.01207494466758413 
-0.01123218266919671 
0.04827707294813251 
0.03341277129380714 
0.01440751481435753 
-0.04764376752531706 
-0.01562706510522613 
0.00762391336943177 
-0.07934729473857133 
-0.009649852193863573 
-0.05681907404160191 
0.002738787093782929 
-0.003187055623404975 
0.003857695099179298 
0.00240600124395463 
0.002215011625119286 
0.02438532849785033 
0.01358890069513577 
0.02173701824925094 
-0.04408748440194243 
-0.02587597333925185 
-0.03457413211004259 
0.02150553460471737 
-0.03972195656781723 
-0.008530927141521816 
-0.01749384738584061 
-0.02235915014190841 
-0.008481590405318202 
0.03589936875422522 
-0.02249485575934708 
-0.01128106153651043 
-0.009724952293380735 
-0.02696025778780699 
-0.01354092770040584 
-0.02387932741461029 
-0.02772547664384204 
0.009508650070184803 
-0.05827612791413205 
-0.006867904893079473 
0.01614058864511753 
9.906705713981322e-05 
0.03179512947945803 
0.01112847921348615 
0.0527654181057442 
0.02529462874520173 
0.02319188331881595 
-0.02122947967410287 
-0.008720577589658758 
-0.002626202087542969 
0.0002380119202291293 
-0.0204697262955265 
-0.007008456462206806 
-0.009926255599688134 
-0.1014869427676849 
-0.01632539784117628 
-0.06321584998518004 
0.01891633673916544 
0.03636326363646668 
-0.035603327064484 
0.001110987037385887 
0.004668164310816167 
-0.02363204904030525 
0.04002499672737885 
7.824406333960033e-05 
0.02465223668628225 
-0.01188185078229735 
0.01142372672326268 
9.145338317294915e-05 
0.001242832210484953 
-0.008273105674480301 
-0.02340687896572979 
-0.01464899632184954 
0.01111486288801946 
-0.0140596477847124 
-0.02340666550366858 
-0.03870643104912877 
-0.001520200129858873 
0.04897589045741081 
-0.005879514331040999 
0.05484321374583982 
-0.008739940972070946 
-0.007230727813411826 
0.001031434572347821 
-0.01644860078688649 
0.02705184192162118 
-0.02379019501446313 
0.002504984449852861 
-0.01873622262899519 
0.05408718706921881 
-0.04268811822887396 
-0.02798402462160721 
-0.01823735373984066 
0.03126188065457397 
0.0584115468340368 
-0.003119698416903533 
-0.01240018604468634 
0.009163224398567503 
-0.03811949915605998 
-0.01453471619063398 
-0.02634207164715562 
0.01826920356751315 
-0.03188257343306541 
-0.02149582577428914 
-0.01541497258373126 
-0.1111973834005402 
-0.03570776731816463 
-0.0573536552160776 
0.05044967112501445 
0.04883751722191594 
5.163086437467053e-05 
0.02951841852690649 
0.03521596886472839 
-0.01291892014956781 
0.01083243105438857 
0.02186798523771601 
-0.003562020715316736 
0.01487838813570744 
0.02701316548120877 
0.04069399710740802 
-0.01266361671817783 
-0.02421004584726159 
0.04544048127199433 
-0.01095075820667364 
0.006406273897829394 
-0.02674854881412214 
0.07493712652164725 
0.02485605615890034 
0.06392097900938316 
0.01686786330180906 
0.02601566145246575 
0.017492110123414 
-0.002775774570595105 
0.007141322252836739 
-0.002831739381293277 
-0.02399281985648228 
-0.02215872737911211 
-0.02155922091735456 
-0.06307288729344737 
-0.003218059359613913 
-0.03383148113071897 
-0.01924063396642307 
0.01417498272754325 
-0.01282415145975589 
-0.01826468109441947 
-0.009391478648079278 
-0.01305930530731158 
0.002910753024855586 
0.003393562630564192 
-0.01051521575744053 
-0.003571877781826494 
-0.01141483980686728 
-0.008312887478877911 
0.004468874289515564 
0.001792926669973421 
-0.002125017445818025 
-0.07836640693010212 
-0.03043295825152045 
-0.04941763143537114 
-0.06294590469677946 
-0.02975207181289733 
-0.002533679351162968 
0.07826067087703689 
0.02299990082559053 
0.04697682695814932 
-0.03804734504220013 
-0.0005632476693764748 
-0.01728282942796592 
0.0347196588439765 
0.01543801411356955 
0.02410425767353627 
-0.03298468291949105 
0.001169869307085057 
-0.02072076149898932 
0.02422191575650037 
0.01906644591905631 
0.0008754800755646333 
0.007348483951955695 
0.009935701506426418 
-0.02918854916983811 
0.06125945320753016 
0.003847742638263811 
0.0221688205324792 
-0.03120229700637522 
-0.07339297881546511 
0.02319385680038935 
0.005790464022393867 
0.001078641968604325 
0.03669866405747359 
0.009456874582555468 
0.02627107103023492 
-0.003133451034139857 
-0.01023631500725832 
-0.03064210702330306 
0.03370430226084468 
-0.03123833599411656 
-0.02324707177997697 
-0.0009400043939845304 
-0.06352249731275315 
-0.02037444058972621 
-0.02391515940044606 
0.07943088691242249 
-0.001122812404655271 
0.0495977337941676 
-0.0727661537944964 
-0.02832245030803567 
-0.01778543534213447 
0.06436997209776261 
-0.01857093884533528 
0.074895337702611 
0.09159860562153042 
0.04689817178177054 
0.06554532813259283 
0.03177468749913036 
0.03186551658196581 
-0.02987827393343576 
-0.08914451570113453 
-0.0310492653977596 
-0.03843858742999384 
-0.009214986647191456 
0.01048204889829063 
-0.008783222778948826 
0.02817120026033208 
0.02254884779656246 
0.01454688367786437 
-0.03021091505801608 
-0.01169763568374979 
-0.013565773970625 
-0.0333052715769895 
-0.006863662268156221 
-0.009714362112312675 
0.04388775399920676 
0.01032423216703946 
0.05205537764734124 
0 
0 
0 
-0.07473724152210204 
-0.03561701544569952 
-0.009715731381461572 
-0.04176886984766143 
-0.01175537986704612 
0.0004385842955029048 
0.004031221266403733 
-0.006484993841275717 
-0.005587422105972743 
-0.002457973268069806 
-0.003265878287663366 
-0.002952124026690569 
0.04299514012729247 
0.007014911323629948 
0.04533669425020107 
-0.0352033214143893 
0.001175145232306605 
-0.02332598199514539 
0.002951764409821198 
-0.00617321878251383 
0.004376820749737401 
-0.07829226119450845 
0.007121173420613812 
-0.009327338105069149 
0.003683840051825649 
0.01723237537278272 
0.01206345070609855 
0.06386735164483989 
0.03781459804023972 
0.01484099546488541 
-0.02213871031451845 
-0.009964175968587769 
-0.002377608678256454 
0.02709895517816971 
0.02430010149675384 
-0.006141877555370752 
0.006358610322407057 
0.001970746748846159 
0.01249371035622058 
-0.04204272989852181 
-0.01326712640467752 
-0.05052980068762788 
-0.04330160917641381 
-0.02306871342806063 
-0.004255468086491025 
-0.007339231353684211 
-0.02102459405333803 
0.0337809671503125 
0.03271166149183746 
0.009850604043275995 
-0.01171484196975837 
0.005055876191202666 
0.01518040876005644 
-0.02849656880204189 
-0.02851302121438053 
0.00153406015966773 
-0.04350319429339652 
-0.02875038925681566 
-0.03371374211318187 
-0.006474519853319777 
-0.02821816038527127 
0.0006534058567235302 
-0.004377652637778067 
0.06978039886419019 
0.04490118702334858 
-0.008231434396859659 
-0.02995253245179146 
0.0007634251036412006 
-0.04024065331794136 
0.0131470265821983 
0.03113585726161211 
0.008826615468063792 
0.02561848672280177 
0.01069191404483987 
0.02144187789360736 
-0.01591500512716224 
0.004926941779939041 
-0.00424458717075961 
0.009383015533359913 
-0.003368818322035934 
0.01242031156749891 
0.03539841266913481 
0.01690112414985893 
0.04004671684934505 
0.01876141970121183 
0.01350406809032414 
-0.005582768251995708 
0.001353921415881529 
-0.02050580246497384 
0.01933278580886207 
0.004553722636031671 
0.007564874978488297 
-0.02343713220545296 
-0.02267028723909762 
-0.008189402470844907 
-0.006193873597303234 
0.06236533021633039 
0.04732914804349291 
-0.008123012231676304 
0.02117190078932669 
-0.008394013759322418 
0.05824598524403702 
0.001178104014568751 
-0.0190452842820229 
0.002646302793255184 
-0.01571040180750109 
0.0143193209774784 
-0.01480565338699717 
0.09867708869634216 
0.06646991212623495 
0.04033924709662182 
-0.0436412804221044 
-0.02517257903191423 
-0.00633952838146891 
0.05021793406150248 
0.0316125848360805 
0.01545470216496453 
-0.04184792366225507 
-0.01536508517442642 
-0.009577711655314392 
0.02911571355459966 
-9.836415531551741e-05 
0.001062210978967852 
0.05873674743696709 
0.04025258332624547 
0.01930457595647707 
0.02487600864994212 
-0.02355487537453913 
0.01340239330792034 
-0.02359954135643614 
-0.008641830392026163 
-0.003651706207698249 
-0.07329427233310916 
-0.01560195319171732 
-0.09720281016832144 
0.02968143175647218 
0.03171962860092467 
-0.009974095522085684 
-0.0163983706536983 
-0.01611243017791871 
0.01368991858856613 
-0.04049220091961488 
-0.005850257006957708 
-0.02596586058246972 
0.01267351363690485 
0.02111326198337648 
-0.05152380279557715 
0.03112311125091581 
0.01257591916464395 
-0.0116149135361435 
0.02486672057231303 
0.004811825061928607 
0.02713056273393255 
-0.03473546913688111 
-0.01696888837570373 
-0.006894734442149009 
-0.001146971804057937 
0.04013864241410346 
-0.05379112122992329 
0.007565956454040078 
0.01391818371934282 
-0.01353956236559706 
0.03916068811713014 
0.02150269789356986 
0.002051978973106255 
-0.002792298293420234 
-0.02119350491662232 
0.06554330769022776 
-0.0848386257681142 
-0.02675204088207887 
0.02037905190609664 
-0.0218024376237723 
-0.02152642804194301 
0.01615255105737741 
0.008891656334587427 
-0.0008053389542222175 
0.01680339554805494 
-0.09584699989426548 
-0.04283897361376995 
-0.04977716948936653 
-0.02105996840777438 
-0.0347425817950424 
0.005778662494745182 
-0.02239571540602688 
-0.005743450779446392 
-0.06436021714376314 
-0.01964826460657327 
-0.01375590544951853 
-0.01367090964966819 
-0.02750322841664025 
0.05489285104822463 
-0.0453313334494718 
-0.05474406965284882 
-0.0218434574717739 
0.002266989525429059 
-0.02701731023492236 
-0.01213361927052715 
0.009752543417330159 
-0.01556530521868254 
-0.00327087654213776 
-0.0134674078725739 
-0.03798508426534289 
-0.01293788381831423 
-0.005204037494712535 
-0.002714283829092412 
0.004293174858096886 
-0.005950687267828159 
-0.01337301835848902 
-0.003691216102010803 
-0.004469601082809244 
-0.01259162932434766 
-0.01649033202780514 
0.0266460342571046 
-0.01216116779239236 
-0.02284197257820382 
-0.0007272097909006114 
-0.01248971101153856 
-0.00356019758203456 
-0.005314963734673702 
0.022433241078914 
0.02539983160263444 
-0.02104601549693957 
-0.02941855482336174 
-0.009951280605150254 
-0.01101228268326706 
-0.07810023655855924 
-0.01684866042292954 
-0.06058631922600428 
-0.06728658597980985 
-0.0332761298552552 
-0.008075935315217758 
-0.0123070517030619 
-0.002129896325535484 
0.004003495156234695 
-0.02614777859059906 
-0.02597305770583501 
0.007729962180330703 
0.008087428731955226 
0.01816882238823291 
-0.01470769215986742 
-0.02591094065298857 
0.006842047158234362 
-0.05519790923912502 
0.01202450329947479 
0.01548897045394872 
-0.02620933019306259 
-0.00672049121186276 
0.007107871312122802 
-0.04601247651912192 
0.06258501104303968 
-0.00111680057707103 
0.03474009719479174 
-0.03356494099159742 
0.0007108614184130389 
-0.03522890280278415 
0.006357393621553764 
0.00354660500902034 
-0.008412785879597486 
-0.05310279066083572 
-0.03405688313390436 
0.00743439254766392 
-0.08117819789749492 
-0.0420702649555486 
-0.004529728768058103 
-0.05780570204864507 
0.00713268795644844 
-0.03122940455804189 
0.03600170518297884 
0.01285678844355307 
0.06565437694128967 
-0.0598145312671106 
-0.02416455251734764 
-0.00488597680380635 
-0.0228508683323989 
-0.003846357269805734 
-0.02872819674475888 
0.06514807631632695 
0.04748497015133691 
0.02157121707676407 
0.03058199237606751 
-0.00620097264709652 
0.004635796624266771 
-0.01758987896541862 
0.006103571196742729 
0.002064010814089652 
-0.04531725612244446 
-0.01761219781232781 
-0.01704129928492414 
-0.01072063921632191 
0.004022384582706971 
-0.053585811175947 
0.05097818535499173 
0.0247780527868415 
0.02226919922680238 
-0.01810618637811981 
-0.002921109580562453 
-0.01034872299490335 
-0.0706223726135327 
-0.008134582382107554 
-0.04866699605498449 
0.01151693963488302 
0.01331577315128246 
-0.01307028279795955 
0.03272797426896137 
-0.007548834577402327 
0.0291737488361648 
-0.06372274912821244 
0.05742461902423429 
0.07713624083665742 
-0.06596523431392769 
-0.0428998717331566 
-0.01035997358920901 
-0.07098514039787959 
-0.02646617182205217 
-0.01939582068834072 
-0.03957199551368221 
-0.02268969449683857 
0.02770590803120704 
0.03218314293369168 
0.01997198452455574 
-0.0009226520458103049 
-0.09205052543449325 
-0.04967495230465543 
-0.02970032290758259 
-0.02473604654869641 
-0.01152071392629433 
0.001646854995819916 
-0.04052162740350525 
-0.007278140326799819 
-0.02077558480032011 
-0.02335895430810838 
-0.01701306945710942 
-0.03163980089334254 
-0.01190908217729927 
0.03245809010325874 
-0.01516351443564987 
-0.01075649005487307 
-0.01103226131805392 
0.01088318000130593 
-0.002628782944380338 
0.007147040814798285 
-0.0293664301232477 
-0.02725086656823994 
0.003954031610061699 
-0.02836828292398638 
0.01866481907248821 
0.009988709782478527 
0.01400346309498035 
0.04949022485757471 
0.01682469765423072 
0.01660743519030209 
-0.02916639251516768 
-0.007995485326299068 
-0.0329157249605273 
-0.04867715251495516 
-0.02630886702942996 
-0.004620300163218535 
-0.01132794743055183 
0.005851711893094613 
-0.03203337563348276 
-0.02994246527249014 
0.002428262291601843 
-0.04529679979847312 
0.008847349951766975 
-0.006961745382446921 
0.03590263717088674 
-0.01684510040481938 
0.005614382061303769 
-0.03256900523051993 
-0.02670437875572607 
-0.02656020179298976 
0.0242634082202701 
-0.02469599998839344 
-0.01576715767934377 
-0.01035235445052263 
-0.007592942052564596 
-0.0008101728333584286 
0.01270419898676419 
-0.01517459687198502 
-0.01480696838042664 
0.04189969286279323 
0.0134786463218974 
0.01428088354306565 
-0.0229162544438285 
-0.07911717129878189 
-0.03425273818206393 
-0.005722144200581725 
-0.02640264414557286 
-0.005369707931192689 
0.003140798696539022 
0.007968129706707423 
0.006279832531539468 
-0.01442272602607967 
-0.01862548104603275 
-0.008762587077248392 
-0.001046053297485225 
-0.01848919444443748 
-0.01312771980439791 
-0.01835504915096118 
0.02982613155748979 
0.0231338551729517 
0.01162903565068154 
-0.03382693102933258 
-0.01211985782814391 
-0.003935838571308038 
0.006472330775827276 
-0.0004277209839814632 
0.01434336407743955 
0.003561462222975287 
-0.005070382969083877 
-0.0006407530825594726 
-0.02597217872109502 
-0.002752573536146344 
-0.01373163818747381 
0.007826335173861786 
0.02157023126640587 
-0.02517551871407751 
-0.00293358008155204 
-0.004618180602737366 
0.002233474026430681 
-0.01950803448556103 
0.006951681887198768 
-0.02575925278296971 
0.02359034933837486 
0.01714891842432361 
-0.0004014139549024218 
-0.004572432678530529 
-0.008106106214198222 
0.004704089600415183 
0.008369485109628476 
0.0008929903771167143 
0.03157276943778077 
-0.00569841715612464 
-0.0263864009809977 
0.01658525106616575 
-0.01238241057147172 
0.02118857964602922 
0.01112572645919616 
-0.01425875123506321 
-0.01987263023591232 
0.03398621423511138 
-0.01030681041135276 
0.004612156759602661 
-0.001020231889147745 
-0.007870533202778029 
-0.008158104193080832 
0.02588942449450663 
-0.07497697405041923 
-0.02908806592010152 
-0.0193499841726987 
0.03102982922013869 
0.02090789673142567 
0.02027244580347914 
0.02392083500959685 
0.02197029771100979 
-0.04066816744712282 
0.05039401222001871 
0.02604400295828636 
-0.01356593506273827 
-0.01981867874835892 
-0.01729724295435841 
0.008770598912922365 
-0.002610556161441169 
-0.03734433996487341 
0.03716526919351525 
0.01496104567879643 
0.01501495092997629 
-0.01434097703673213 
-0.02937537318035642 
-0.03682762504827836 
0.006528769134742853 
0.02546859692777356 
0.01621690613272401 
-0.001408932850708433 
-0.02417263302702857 
-0.008690126286620584 
-0.01160604361433718 
-0.03866870778023992 
-0.01106015526622704 
-0.02928216714005027 
0.003364868117440647 
0.02352305472446593 
-0.0008089748693017264 
-0.08705858943257221 
-0.04042938937045557 
0.01451897598384117 
0.003770790965394301 
-0.01536701408394703 
-0.03248168868458955 
-0.005013421670357247 
0.01356329277568395 
-0.0168127515740013 
-0.03591274284532116 
0.0002784935423094176 
-0.02751946196738399 
-0.005123852900797533 
-0.003235415700509983 
-0.00289237226686343 
0.02789672594610294 
0.005441555187910591 
0.01282647304593964 
-0.02386131961082336 
0.004573982094056564 
-0.01914626516822304 
-0.01923180579981295 
0.01039273699092367 
8.034307753798581e-05 
-0.02137321088701295 
-0.002500250106122937 
-0.009819230046055501 
-0.01691146137497846 
-0.002610394686437212 
-0.01311227695359594 
0.02945160547737033 
0.01923988125101814 
-0.02565241011217314 
0.04117182179247804 
0.008058409811733881 
0.03847406764226469 
0.06024040972864243 
0.02696576282881593 
0.01755498108131988 
-0.004993424649131904 
0.03713008398895139 
-0.03855920632509052 
-0.06697165061140159 
-0.03802730589611687 
-0.002650666851371367 
0.03696920732302356 
0.02263733762480116 
0.028781233697642 
0.02006757561228998 
0.04888118831116712 
-0.03259691157186418 
0.004392732294035573 
-0.0001296750755482953 
0.0177667655795464 
-0.02033220247581467 
-0.01026021637930164 
0.00191077471920641 
-0.04732635248075793 
-0.02858975859124038 
0.001933371748627664 
-0.02974378406972352 
-0.007891162469624669 
-0.02645269022825333 
0.008740514796596639 
0.002611443314645776 
0.01786089191773503 
0.0139760490153158 
0.01763838127384103 
0.01556981770650472 
0.003446242725185695 
0.02261963444942728 
-0.02866011658705843 
0.00539664631897339 
-0.01455474091338444 
0.02901103390341589 
-0.0156356253835756 
-0.00794394941220887 
-0.007152187672650588 
-0.03923158340506188 
0.000523838199482446 
-0.03910377683768467 
-0.03785242058899186 
-0.01775814266704352 
-0.007829605304521658 
-0.01218460761047009 
-0.01882615926188747 
0.01649318132859658 
-0.06444802129143758 
-0.03295081291969593 
-0.004839803787323423 
-0.01302511970971502 
-0.004437374222000366 
0.007743167653593896 
-0.04933091184597305 
-0.02718171823714151 
-0.006816853598432392 
-0.01975292915257388 
-0.003407307686417425 
-0.02894770197808717 
0.02317942342088935 
0.02587187224597142 
-0.01042805211401479 
-0.06559375818034073 
-0.03956466588456618 
0.007384640393127372 
-0.04512489831199514 
0.01269489442904853 
-0.0197159705728325 
0.01189601342109283 
-0.01452138306817371 
0.007495040457153934 
0.02251847406376212 
0.01508422747628271 
0.01137170333681651 
0.04313662787396587 
-0.0004779742843689383 
0.06396229609023556 
-0.04229880152061771 
-0.01334147010014666 
-0.03932154594785691 
-0.04126771511841354 
-0.02405425267296819 
-0.005408801620284176 
-0.1061241221901071 
-0.04623029463940769 
-0.04825737968325933 
-0.002315737109928597 
0.01116681797246635 
-0.006109379838352106 
0.0121043819281989 
-0.006981625401751572 
0.03133825586673718 
-0.01578357232794012 
-0.02387735929547689 
0.01588561499069305 
-0.0225020075355607 
0.004436112965845346 
-0.03826202057097968 
0 
0 
0 
-0.03522111935714538 
-0.01140700534464718 
-0.007977730764847193 
0.04311554114662154 
0.03776409735394425 
-0.05017211819660174 
-0.06669223081334545 
-0.02963152594346673 
-0.01958235553282339 
0.03925487558660102 
-0.02553798259140424 
0.02880927092995838 
0.03061280379055803 
0.01989421110544898 
0.009415454501788299 
-0.01670594954323715 
-0.004167326057920489 
-0.03557522237713415 
-0.02005490616304009 
-0.005174376986268705 
-0.002591232305454856 
-0.03476962108923532 
-0.02262814172759803 
-0.0002977064125769594 
-0.01705242679456988 
-0.01221059152467974 
-0.001092823503583914 
-0.01225155320399526 
0.01420515209564753 
-0.02685182725980135 
-0.04353432517337186 
-0.0159153037135443 
-0.02611147391869782 
-0.02883559857307529 
0.0229986950547295 
-0.03018215150489739 
-0.0171034664464092 
-0.002250520916409993 
-0.001481690082708071 
-0.01380838567395056 
-0.01079551600764391 
0.001811929715298246 
-0.02347911123502485 
-0.002131306243161365 
-0.0009044115234257833 
0.02248460045808147 
0.003543070256842841 
0.01032118619481626 
-0.02643155663764731 
-0.009145587832323306 
-0.04257267076420624 
-0.0634588266334988 
-0.03289100021428786 
-0.002220390247012075 
-0.05921556041480785 
-0.02482525337871434 
0.00707344226785566 
-0.04245253180015376 
0.005330270566535678 
0.005711469877545689 
-0.02269131375484591 
-0.006348273493147403 
-0.02203192117850704 
0.01023464852255195 
0.009568443541761276 
-0.001756125854131589 
-0.02677999788882813 
0.010890616800643 
-0.03722142934436983 
-0.03220329605915916 
-0.01875843767552855 
0.01028135592869814 
0.03759148179400289 
0.02133300673883408 
0.01811754346110844 
0.02530784211921863 
0.02738425359125688 
-0.007881200540417525 
0.03540881358259872 
0.01677182148565737 
0.03512461847661179 
0.006466498305267993 
-0.009013575191622034 
0.04582832549960884 
0.007060562730715376 
0.008841033617596722 
0.00211567967058222 
0.04311981681709691 
0.01448413693388742 
0.05018626740695214 
0.006952201961273757 
0.007326232135911094 
-0.0006909369036665926 
0.01395816017184616 
0.03799231615765046 
-0.06182844603980107 
-0.01822700237753454 
-0.003217314963371731 
-0.001150353194825999 
-0.004534217711480777 
-0.001312094162797869 
0.01204536257393092 
-0.01674293282845405 
-0.01132701132016622 
-0.006293390814042641 
0.0004136472308651134 
0.005237202197747442 
0.0002289913029684308 
-0.01726258695787259 
0.004270077724852731 
-0.01083223423525334 
-0.00829130265559915 
0.01448083682292801 
-0.02145096046822963 
0.01606505194503421 
0.002124307366598335 
0.006216929384557482 
-0.007123428753770319 
-0.001095910453879646 
-0.004959509035091851 
-0.00199975206994177 
0.01302591604022173 
-0.006093424521381242 
-0.0417146410464963 
-0.006117743944785771 
-0.04729201568567309 
-0.02431127445653266 
-0.01721333333524516 
0.0118873463104571 
0.05470404943601604 
0.03003815564120327 
-0.002053082028506944 
0.02492953822571137 
0.011465506669811 
0.01599457930978953 
0 
0 
0 
-0.01726525004667425 
0.007954215003871277 
-0.04391965357646928 
0.01726901730311498 
0.02097689816170748 
-0.005710337385893219 
-0.001526118177735198 
0.0004594240162674901 
0.006570608060299816 
0.00513021902102425 
0.00454448207173207 
0.000795058901606952 
-0.01994661849133034 
-0.01082400367227836 
0.0009348658836651846 
-0.02450793007067615 
-0.00472111692226478 
-0.01888924542986964 
-0.03857663876998425 
-0.03752184231166513 
0.0122825533916685 
0.05300497049856167 
0.0280282149901504 
-0.002069679326865321 
-0.00506591342246055 
0.004988393820869898 
0.01630811419213675 
-0.02495873184257517 
-0.01166145958232155 
0.008701418598877776 
-0.02403098679111952 
-0.006114921109586112 
0.003242386286740166 
-0.0482436078982631 
-0.01686678253354959 
-0.02098842341608032 
-0.05625569201614897 
-0.01704953291416209 
-0.02642892871987271 
-0.002426513342557383 
0.00339450180897246 
0.02160949304265311 
-0.009260812519110274 
-0.004200591485805759 
-0.0006711974572000294 
0.01250465358896532 
0.01233941632633957 
0.002879310765879915 
0.1314618758048026 
0.06221989459895659 
0.05269591871686476 
0.05656262504141481 
0.003008170495825468 
0.0633727446935385 
0.008858842878754913 
0.02454336213217182 
-0.01810528475386942 
0.03107988215898219 
0.01640130884329774 
0.02464390675455166 
-0.04172575124903528 
-0.02295819377063493 
0.001736326697783846 
-0.01092463132110613 
-0.0001584389235616723 
-0.02106095541381817 
-0.01631906195865302 
0.005300677847306587 
-0.0252319521239643 
0.0001819731443940625 
0.02417513596604118 
-0.03429901249783346 
-0.04539796965017227 
-0.03305205086410184 
0.02654349962421455 
0.0404530054664422 
-0.01802532727243328 
0.0843352453143333 
-0.02398008228311075 
0.003157691161355902 
-0.02488914593457869 
-0.006657721545397084 
0.004538789374685999 
0.000781624387724835 
-0.00771304336709861 
0.003910506732238295 
-0.008714513141675762 
0.06141450841283273 
0.03295935453901778 
0.0047535553675565 
0.005918597062730547 
0.01131218429755593 
-0.02416581826097602 
-0.01264241682028101 
0.003919087409903569 
-0.00919674926214435 
0.06962618031961332 
0.05049558245500477 
0.03851656459294691 
-0.07728132592357727 
-0.03600616429220679 
0.01383180357885283 
0.05240133918618563 
0.02356024895111787 
0.001542649849201044 
0.006537596265250842 
-0.02738107460288895 
0.02734951438180394 
-0.01424664285284202 
0.03014256542587255 
-0.07089251081940945 
-0.02018954619290854 
-0.001366628089864175 
-0.04086707917922536 
0.008020178865742586 
-0.009138680003274082 
0.01002107065385234 
-0.004190975457845504 
-0.008606228245787394 
0.006417349877628517 
0.0417858820583797 
0.05403709452243056 
-0.001915198607309479 
-0.00457531565942526 
-0.001498304428742317 
-0.01231998790232713 
-0.009167130302848278 
0.003663942120880846 
-0.07311904324047713 
-0.07136528782407109 
-0.01732501602944096 
-0.01623096189477974 
0.02027798089421411 
0.03982189314537112 
0.009396855439132989 
-0.02080920781871732 
-0.02281495947578899 
0.02634206465219584 
-0.05571518348515475 
-0.02128126791465025 
-0.02528137292229181 
0.06646907371039965 
0.03031330658162067 
0.039895563646999 
0.01441044086596877 
0.003899280089210109 
0.01706040766963874 
-0.01114957586525099 
0.004704719518559148 
-0.009440043824037911 
0.03307639656413738 
0.01828652385870849 
0.004138206409497592 
0.00658560656183663 
0.004732624227624237 
-0.009308087817278533 
-0.04282614734915909 
-0.02017599207521999 
-0.002015891414421745 
-0.007527849187894302 
-0.003814466661873477 
0.001826213006189372 
0.00513780209685136 
0.0003666332860621288 
0.01322379657283951 
0.005917286620204715 
-0.01111418562585497 
0.01440456077966694 
0.01588253546804193 
0.01745565807317809 
-8.30931211481909e-05 
0.001603338274138624 
0.01721790282040799 
-0.04453900449164942 
-0.001337480570375726 
-0.003357714757797789 
-0.009123140899286957 
-0.02493562735673765 
-0.005390272680820756 
-0.01144311286318909 
-0.01086078068350012 
-0.01096371833006045 
0.006365013248845668 
-0.01319255621146993 
-0.01736120679882798 
-0.009482910027772374 
-0.0251790918667354 
-0.008518704333583678 
-0.007667530048944418 
-0.01723334983657766 
-0.009699189658033944 
-0.0159193377698281 
-0.01364716273935131 
0.008473221586544778 
-0.01631771411804535 
0.02574266364003087 
0.02136090872578794 
-0.01694579102920663 
0.0201522526771846 
0.02727892957082924 
-0.0004049542372901971 
-0.01483647360334635 
-0.005398664964434521 
-0.02017680611730496 
0.03518849191413091 
0.01830461100895694 
0.02859849625847171 
0.05554303288403332 
0.009306387738500793 
0.03865425057079099 
-0.0222149868849729 
0.005770764230523539 
-0.02577642589687822 
-0.04006241590251662 
-0.01933268231797869 
0.007224495534082003 
0.002218072485529062 
0.01281701480169134 
0.01922264566811764 
0.001660664250615769 
0.001322274575622955 
-0.01295514732837168 
-0.0417165703914597 
-0.02095017785892681 
-0.001130278721722584 
-0.02376120143115436 
-0.007131089362502559 
-5.262417648164993e-05 
-0.005391204317201441 
-0.0008757412541806098 
0.02082509324827425 
0.006762731635070647 
0.02062718610412743 
-0.07109186509382495 
0.01067768264320049 
0.006559318890869502 
0.02952900567757462 
0.05808546055407499 
0.02212680220882248 
0.02187792917234908 
-0.03875022687389505 
-0.02122291024711524 
-0.008728953055265625 
-0.02991615658511245 
-0.01958030650642894 
0.01658693552456856 
-0.001259843875859663 
0.01415664462414815 
-0.01237941968908112 
-0.1250228447971277 
-0.05197529819799866 
-0.04928352377857025 
-0.01099854169923029 
-0.01521456693556762 
0.02005153387262727 
0.04554260119822295 
0.04680211580682764 
0.02326134046271683 
0.03367814016095457 
0.01138304192401137 
0.000673909143790515 
0.02919880746295133 
0.01695022493877305 
-0.01397356101400626 
0.03815510970003556 
-0.009820359078429994 
0.03705357052434437 
-0.06859554458389169 
-0.03610281763598217 
-0.01255262791879959 
0.01481073976448518 
0.001767459553149133 
0.008560572517781931 
-0.03188704060200753 
-0.006253252548439694 
-0.01852142941088627 
-0.03594477226468243 
9.176608165596388e-05 
-0.01750212952088705 
-0.01647634955663472 
-0.03140270611651601 
0.01903176769061693 
-0.04344505538629039 
0.007840210399802065 
-0.05900644635246875 
-0.02620343577221731 
-0.02776219826539178 
0.01680694630792786 
-0.01874678465263777 
-0.01037282637273355 
0.001623692014337121 
-0.0534458795590626 
-0.04563483555223825 
-0.007460063172761829 
-0.02309505476414167 
-0.01528308990031763 
-0.005812519680019031 
-0.0458843019553632 
-0.03069852621714719 
0.006983665259581588 
-0.006966952675400761 
-0.01216370598916652 
0.01267686650289094 
-0.02497536926600946 
0.0005118818692942173 
-0.009588202196597596 
0.007348371631412642 
-0.007705207934579785 
0.02261134057567284 
0.0004360450257808208 
0.01189058327863215 
-0.0002370387411258806 
-0.07327940392414102 
-0.02014559690452282 
-0.03251390495294573 
-0.02039034310394359 
-0.0153584405927193 
-0.01250021470316742 
-0.008570032802689484 
0.002038483352749585 
-0.003946875217752398 
0.001923577388875587 
0.0002187577441611061 
-0.009951492054722604 
-0.002300714998697983 
0.006288548714097897 
0.04516311421183337 
0.07181204846574889 
0.05638156760686173 
0.0003490195956580243 
0.01504456419334465 
0.002509949830649449 
-0.003345111127348767 
-0.01018986248127977 
-0.002180325308657419 
0.003884600688406713 
-0.02980467993308909 
-0.05701853438318553 
0.04854616144978809 
-0.01551892469384383 
-0.002052101026503402 
-0.01414009959998834 
-0.01558886122893405 
-0.02459032831825173 
0.01477387286184962 
0.01348744471938212 
-0.02122731633332767 
0.0342800465968142 
-0.06605181770725653 
-0.0007415922133334292 
-0.05257831433233528 
-0.004442892309996491 
0.005465871502357715 
-0.02326085480511276 
-0.03165909691724837 
-0.01153445236422181 
-0.01593801136295724 
-0.02023623036270228 
9.067238392743314e-05 
-0.02015222895636633 
-0.005887980730028324 
-0.0004273799457691789 
-0.003275290878818851 
-0.01174769115065762 
-0.006147672626702226 
6.961472613159283e-05 
0.0398319716407082 
0.01271330468231884 
0.002740073472195834 
-0.04984541443118372 
-0.02552373333979368 
-0.008065553122042917 
0.05334774754274225 
0.0174633674582019 
0.05024325716226759 
-0.02082377052179098 
0.0009047745274259975 
-0.02240177700935856 
0.005262809839872094 
0.006111434673423355 
-0.009061275920990571 
0.001546026206806235 
0.009483483901436926 
0.004125435324640336 
-0.004123203399719725 
-0.007559718328539394 
0.01366460118684454 
-0.05266829576352009 
0.01095092684325146 
-0.07669115114269126 
-0.003135236605771001 
0.00915270224611602 
-0.008519804100875293 
-0.01348831955240625 
0.005473817502369058 
-0.0197435568293392 
-0.02941090290978055 
-0.005656787664485126 
0.0140387026701623 
-0.0336046236758783 
-0.005251036400122537 
-0.02044478159132108 
0.02568129581495214 
0.009227706266196151 
0.03086147554462434 
-0.0551018743781816 
-0.01194594417088791 
-0.009703656455946853 
0.01634451636866727 
0.01815185086741466 
0.001533456487007266 
-0.01779527063062272 
-0.001069590880718316 
-0.03281486466489932 
-0.00413199835450557 
0.01422836026376083 
-0.008346943013632277 
0.01150337230462215 
-0.004365082632562259 
0.01722257507326473 
-0.006937627224901396 
-0.003470142930672541 
0.00962859688847573 
-0.04014882232428389 
-0.01946362672308004 
-0.001237127653920832 
-0.001934446693852188 
0.007626624598192426 
-0.009348827103884731 
-0.0305381519790087 
-0.02691854964560962 
0.01694887260526621 
0.001464831708340472 
0.002168236699978576 
0.001507846176228927 
0.01206983691982657 
0.02019708632597488 
-0.01205377154197539 
-0.04798615301047388 
-0.02220660753084606 
0.001967952323648251 
-0.03388526520943296 
-0.01910174434021506 
-0.002022824980604422 
-0.04954979147064904 
-0.02301128631261736 
-0.008712985986594776 
-0.01013075889615712 
-0.002219775895482448 
-0.001214338923837225 
-0.01235856098308212 
-0.02422738744527312 
0.03396501132294782 
0.01327881019795281 
0.002606663867134196 
0.02825218599518305 
-0.01965157043912481 
0.03028348715198906 
-0.03429030279361636 
-0.008550154785610184 
-0.020642088929202 
-0.0001560306338703224 
-0.04241090793573198 
-0.02815385128720338 
-0.01090488425669635 
-0.04995756265353931 
-0.0225383390466935 
-0.04288237289140284 
-0.0004447176067294378 
0.001637850729885873 
-0.01556302585209988 
-0.002690325882747787 
0.01876315995831862 
-0.02658629801155931 
0.01594658033975532 
0.008055607492634382 
0.0005850354432536815 
-0.006421439450005984 
-0.004304695396189477 
0.0002384028756971509 
-0.02205184033760977 
-0.0005679201551638215 
-0.01492022585804901 
-0.02300204821888176 
-0.00915871890919707 
-0.008434019379805703 
-0.003563085898884606 
-0.005562799580168591 
-0.005634734006825508 
0.01691185944760109 
-0.02082000832731003 
0.01238800503974304 
0.0120260559465774 
0.01844430439193848 
-0.01290224530649002 
0.0174553921808045 
0.03916823005532399 
-0.004678551942226336 
0.005239425544096161 
0.003784166048668193 
-0.006931155050075432 
-0.006995529089512092 
0.006685279627663418 
-0.01669406021575096 
-0.02684160516529662 
-0.005829142146126102 
-0.03401631464229016 
-0.03758348043345594 
-0.01279467199655137 
-0.01761285330974781 
0.03823034185830427 
0.03961577492376384 
-0.01842734751583344 
-0.02617286520965898 
-0.008398630675162212 
-0.005745858505787446 
-0.05226075502598025 
-0.01614374005591829 
-0.03108385228373104 
0.03975403012390478 
0.01637408521506327 
0.00720856440939048 
-0.05144978556337147 
-0.02432241750855037 
-0.007075942361680619 
-0.02432265915877538 
-0.008641151646091168 
-0.008290095810404213 
-0.01362788905436432 
0.019706463592404 
-0.01939109246473878 
0.003096199902029038 
0.02082400324295789 
-0.0118221931781715 
-0.052138298701709 
-0.00635664783405229 
-0.03144099288577087 
-0.01594495420717165 
-0.007792860058983215 
0.01631288489101189 
0.002705820280018527 
0.01391991488024968 
-0.02950079106792012 
-0.04919961820269352 
-0.02424570958064396 
-0.02557488808851677 
0.02263648956506414 
0.02538345695272587 
-0.03048111474591472 
-0.00112898555810783 
-0.001778198033972541 
0.01179589577144219 
0.01803248553725512 
0.00134838545366458 
-0.006220490619291816 
0.02880922494403013 
0.01226080428729634 
0.0165314332835873 
-0.01408601258383061 
-0.01970720887940571 
-0.001082884282832595 
-0.01394641382407846 
0.01623513310775372 
-0.07360443608194274 
-0.00462744765661052 
0.008207533239938914 
-0.001393469452530442 
-0.00152706518210298 
0.01277677236031916 
-0.01618143550412983 
-0.07330911769993691 
-0.02292426965127145 
-0.05953692868899394 
0.02082432971697384 
0.01955071103368135 
0.0005918754777434111 
0.001369017778574181 
-0.02708882301420373 
-0.02103475562310532 
-0.040228471215254 
-0.01549216381480824 
-0.007709682407449703 
-0.03592960181984183 
-0.01975694493833315 
-0.008347946798635906 
0.01951991404513029 
0.002061689442819974 
0.02118739671565053 
-0.02399543908753589 
-0.01658749806985167 
-0.0292260672696218 
-0.05931701604431695 
0.0006675542214469474 
-0.04455878568688676 
-0.0155897990455008 
-0.01009661232239341 
0.02451374380793731 
