solver_type L2R_L2LOSS_SVC_DUAL
nr_class 2
label 1 0
nr_feature 12288
bias -1
w
0.06287079861436443 
0.03742474739367176 
-0.005352996917845614 
0.04147176791430554 
0.03014919718372682 
0.03497360835522317 
-0.009057930986752612 
0.03133966130772864 
-0.05911301342820171 
-0.02329503215271724 
0.004338318816820535 
-0.01676225405569487 
-0.05656660332510523 
-0.008989840809532036 
-0.0665559060923987 
-0.02201665033638194 
-0.05112429248646694 
0.07020390243874038 
-0.01764521405323409 
-0.01761192970854586 
-0.0175285498940901 
-0.08786935854727083 
-0.0212692772813655 
-0.09636313414180014 
0.06048806518717516 
0.02491209312399382 
0.045115758642588 
-0.0992254074678969 
-0.04324950342364021 
-0.04834740710195509 
-0.005188226272138487 
0.01472063776345294 
-0.03286057065117625 
-0.01239691230659458 
0.009013848394643413 
0.006998815766596504 
0.04881214911791067 
0.03882203108100626 
0.02917594444881766 
0.007918450701525312 
0.01033296357168444 
-0.006264882421219226 
-0.02506623789969667 
-0.003852003685883499 
0.001481884906395423 
0.0282833230352768 
0.05952109644383922 
-0.02602214891785633 
0.08092992221054883 
0.08724318276014392 
-0.05910412717291016 
-0.05804007795490002 
0.002287690865946836 
-0.09621928455441975 
0.004036242552327073 
-0.03249830428994523 
-0.008991825568321283 
-0.1040265524138968 
-0.05046361598056455 
-0.03482060730915813 
0.05955955288972324 
0.05268238390761616 
0.0001254146366401142 
0.01927792996799968 
0.01859453930931551 
0.05210333122940859 
0.01511537522754163 
-0.05020111989255117 
0.03883166495148448 
-0.08170944192140218 
-0.01032202149725449 
-0.01350585043356296 
0.06926101122695323 
0.05845337641455802 
-0.03052231234035852 
0.03778721246381046 
-0.001266266006484059 
0.02605699069068157 
-0.06214589816732832 
-0.01781683690077247 
0.001741442551517703 
0.02051578218870816 
0.04981155011327527 
-0.02515013658058192 
-0.05519707430191636 
-0.02343345424902406 
0.001053275892092804 
-0.009143124568244957 
0.007984040691037657 
-0.005227102105187731 
-0.03421972419627334 
-0.01342222232147616 
-0.02506744833334101 
0.03909637034365866 
-0.03623094959883422 
0.05378366355558944 
-0.09232092893726551 
-0.04815982205051913 
0.008204538531524202 
-0.05064471645116214 
-0.04318152049388743 
0.006237420084134498 
-0.02725588752210115 
-0.01278378465897619 
0.001108970630744663 
0.005245330439429791 
0.001555636932560338 
-0.03731354085778392 
-0.1071363629740275 
-0.05777689143567345 
-0.01557847376393059 
0.01666794682597604 
0.03029065041063458 
0.02298161545195997 
-0.1066152395025254 
-0.05002904686030912 
0.003793811461066489 
-0.06753213964919128 
-0.0245936395278702 
-0.01686909338163672 
-0.003370416664716201 
-0.007177255324458282 
0.04885164805973345 
-0.02441437654034121 
-0.01086924939780062 
-0.005467479241475936 
-0.07319017062937115 
-0.01958511208427119 
-0.01827592816150377 
0.0510437266171609 
0.05446388478580706 
-0.001168531466111306 
-0.1107761013346032 
-0.06718498824544451 
0.002349436076446517 
0.006659031976079565 
0.02010020196380135 
-0.02361318291406945 
-0.06429306690507079 
-0.03150755177220028 
-0.0363975736382597 
-0.07445221907022991 
-0.04159679471818411 
0.008947066056238863 
0.01199382213784512 
0.002850909474903959 
0.02851655736697074 
-0.02861645448088527 
-0.01062774661069659 
-0.004285121360035763 
-0.01985402045563697 
0.004255475958785309 
-0.01831379096218608 
0.02940462375999115 
0.0255086411070529 
0.01370525801571984 
0.009431781232678772 
0.002829918297991868 
0.006564752504355661 
0.03310906248865542 
0.0199419470287919 
-0.01465141449027853 
-0.02706811922209399 
0.001195513361883842 
-0.02402682652638112 
0.07917562805551488 
0.05585695602730459 
0.07649809748915398 
-0.003808334566060082 
-0.01058085299230829 
0.02305412216975541 
-0.03816619974399088 
-0.01439315420340696 
-0.01337506654879089 
-0.02343481655368566 
-0.004253520226139972 
0.02184152430058404 
0.06144160880955015 
0.003595190364271581 
0.04621561872005188 
-0.03781739573707441 
0.003074434288827913 
-0.09785370128660811 
0.03907490470275434 
0.05133281417912711 
0.01254318134245512 
-0.007852324392397905 
-0.004603139892341976 
0.001532523189695778 
0.003544666962280838 
0.02760479200863183 
-0.02149651697997624 
-0.04616702338679046 
0.009326587492330571 
-0.05075147596608399 
-0.06372046734386906 
-0.0387649655383344 
-0.0420953594911415 
0.05054198462671985 
0.03244854988394742 
0.02162654161708193 
0.03371935186271523 
-0.0316619606035155 
0.08917181935460644 
-0.0655182728395047 
-0.02343095394688856 
-0.02469133069150872 
0.006189920561019645 
0.005793454327117946 
0.02085473708537713 
-0.08592732300652431 
-0.02694233020921084 
-0.04925492523300535 
0.06187404494201205 
0.06168912010369863 
-0.0231310035728132 
0.003082447386289146 
0.01117513884825758 
0.01083798651900359 
-0.04508124555433324 
-0.007960750621949156 
-0.01238837730181846 
-0.09802188756190222 
-0.03023753685725656 
-0.04274324190602605 
-0.004091159363869713 
-0.01987745175335034 
0.02914898096714814 
0.03141317184005489 
0.04234683738040589 
-0.01766234374528459 
-0.04760936271368443 
-0.01836090687159788 
-0.005397106294951582 
-0.02778806410228481 
-0.01643006285142485 
-0.008424957297529045 
-0.03062840637491779 
0.006429293698459594 
0.01575801465163602 
-0.02856637796744074 
-0.01412123191413952 
-0.00222738415982493 
-0.04567901094847672 
-0.04500953690733422 
0.008674434853316202 
-0.03135526782286664 
-0.04656758016489149 
-0.004415168239874194 
0.02785021977257454 
-0.001237683516962081 
-0.01616999700151319 
-0.01662431910748749 
0.02499251467749417 
-0.06728231462012585 
0.04064699419477107 
0.04786041291989063 
-0.02436387655097606 
-0.026619234599151 
0.002447360064289463 
-0.01719684260474965 
0.05075412564384575 
0.04130096595451266 
0.007515143824675885 
0.02030119728421194 
0.03956372687228694 
-0.02072826074691779 
0.00279184249002444 
0.03532575913881494 
-0.01273079820315247 
-0.03342076425914671 
-0.01823288508877683 
0.03440815230950493 
-0.1476384523551228 
-0.08809564120035933 
-0.004422867127777358 
-0.02210665214890196 
0.02132053243687676 
-0.006158896156782909 
-0.01176328221008363 
-0.01836459793250722 
0.002941355864442708 
-0.07455124985558798 
-0.05206785417980588 
-0.02033599666828826 
0.03116287844540476 
-0.004572876759265635 
-0.03652795876206468 
-0.07482861984338932 
-0.01863000114354491 
-0.0001074254011035774 
0.01720700736111493 
-0.007008726026378603 
0.05195386577177207 
-0.006553645641115332 
0.02677295821236637 
0.01045106638596081 
-0.118850269983912 
-0.04482904083683181 
-0.04859084248982079 
-0.01139328652512861 
-0.003617196509240975 
-0.002224798681697589 
-0.01562949844164124 
0.003238534279310667 
-0.01737839650272045 
0 
0 
0 
-0.005708131341716055 
0.078623217912762 
-0.001705077444636726 
-0.005957234652844981 
0.002256852718873391 
-0.004527045000234715 
0.04622977808035529 
0.01679090072880747 
0.02139813773861144 
0.07348760816604867 
0.02526984484829646 
0.02079104005903215 
-0.009197320908503438 
0.002753976218007654 
-0.0382403597767253 
-0.1138074119377372 
-0.04463259345845171 
-0.05877580135020278 
-0.06220281956882683 
-0.04678339377657242 
0.01170294461962449 
-0.01186165042217073 
0.01044560034195771 
-0.02255765723444639 
-0.01748542635296784 
0.01969227960304889 
-0.07638061938812206 
0.06179521617085417 
0.00135330921008613 
0.06396038801369289 
0.01143581054633293 
0.009101164489099438 
-0.0201249005057576 
-0.007858607456660479 
-0.009455794451196285 
-0.0161345920636915 
0.04767491901249132 
0.0023583875035668 
0.05907823428240046 
-0.03080939413811761 
-0.03595400646202675 
0.01716243227301394 
-0.005887543396614322 
-0.008654771428641199 
0.04280900396782818 
-0.1271938019992594 
-0.05159429721316572 
-0.002297651908012866 
-0.02658092869228561 
-0.01047972738072088 
-0.02296181077849562 
-0.04239913069652184 
-0.003243961220095423 
-0.04699474027631341 
0.01071671528927791 
0.04027488487239827 
-0.003918077119922877 
0.05696737068046562 
-0.0358351318587743 
0.1211664621561294 
0.01294298664264824 
0.01514449319671237 
-0.01462219633460786 
-0.01389685854263434 
0.006797420087950004 
-0.01386041602979862 
0.03816080494544324 
0.05018788245254897 
-0.02548454083204074 
-0.08765436614027274 
0.002940720496152997 
-0.02203356878913038 
-0.04196160996034089 
-0.004248846049814068 
-0.06458144161327245 
0.09549098505069814 
0.05364901737712478 
0.02839102742708663 
-0.01331027868817974 
0.006856571051986037 
0.00947281441743273 
-0.001061990032752127 
-0.005631949077115408 
0.009829892669030517 
-0.02781574929125427 
0.004143959498902504 
-0.01240688331919975 
0.005700304387133572 
0.009953406117994187 
-0.000588575927826743 
-0.03549616316135199 
-0.01464522176965186 
-0.01026493309829578 
-0.0283620814366953 
0.008392806084936161 
-0.02079675844467646 
-0.03066444961314527 
-0.04848579832731813 
0.01679712310610343 
-0.02072505823053526 
-0.0121142871287356 
0.006553041306142891 
0.06661176988505174 
0.04558571484426027 
0.06396054539646803 
0.08556202223809112 
0.05596637167546455 
-0.01725684213847113 
0.01137983944304173 
0.01862172458758696 
0.06467191821209735 
-0.04792140140331454 
-0.009629432110692036 
-0.03171706995896314 
0.0003518132189526299 
0.03109124785911208 
-0.03923036577772797 
0.008163804134166662 
0.04091251739879889 
-0.04036035437328377 
-0.0005063791361058565 
0.01654575291130602 
0.03221268184192674 
0.03637124922409719 
0.0007466664861905823 
0.0519979622663279 
0.053039313638917 
0.02128179617510673 
0.02902202929405928 
-0.07262647065467717 
-0.0200667917640627 
-0.02392816086413687 
-0.05332877070759922 
-0.01772263446286365 
-0.009040870992651873 
-0.01611548866582807 
-0.02941821306743847 
-0.02609331184814225 
0.0926101008804899 
0.08401985769086225 
-0.08118730234066981 
0.03791895878397862 
0.01381257455352248 
0.06620055835403009 
-0.04184692682353332 
-0.002380661274710914 
-0.03785805860464118 
-0.05617836879123327 
0.01197643148879317 
-0.04106733047727038 
-0.006861005092174678 
0.009054281474463292 
-0.001665804521574729 
0.06205990537311513 
0.01401454217172146 
0.0617623505179577 
-0.02941637471075403 
-0.005063960462308651 
-0.04685320851706027 
-0.004116384899995602 
-0.002782969426217316 
-0.01769947133687754 
-0.05358356728579346 
-0.01996838806688964 
-0.008106176441227152 
-0.05808681424848302 
-0.01776711498856059 
-0.01468735514077808 
-0.03738282636434583 
-0.02643854397174129 
0.01496621254594794 
0.04004654467841644 
0.01884507136858073 
0.01588624380119895 
0.05731520027944789 
0.04226625398871942 
-0.01907028592503078 
0.1046293710729697 
0.04339715877758579 
0.06264563164035701 
-0.0189630873873957 
0.008847818867075129 
-0.02344659699117329 
-0.0208406502721158 
0.0378057694956139 
-0.007366889647117642 
-0.083665546249755 
-0.005318593954239933 
-0.02751398193382746 
-0.02130617623555495 
-0.002999807749745345 
-0.05934343059087578 
-0.00995819018166663 
-0.01789142059874285 
-0.02009921481321473 
0.009013502532026848 
0.01522549987942268 
-0.002611659996908509 
-0.02742553205339378 
-0.02302791892737353 
0.02372738124363983 
0.03869270601615855 
0.02713157842172436 
0.006406673125050222 
-0.05079926342906274 
-0.0317030018513773 
0.01059443948424175 
-0.007091873723631492 
-0.007166791280390802 
0.006518306731414806 
-5.677917862007162e-05 
0.01806988267764461 
-0.02316832859456706 
-0.009301253183847079 
-0.001797240919483554 
0.005843830228069196 
-0.04917428297398097 
-0.02072491478814608 
0.01358444829220552 
-0.008409835356005915 
0.01901434627875725 
-0.03747459540145026 
0.01497459703816144 
0.0434334503337875 
-0.03599508064697772 
-0.07367550744492216 
0.01997857962558632 
-0.1086207844398451 
-0.04884836061375337 
-0.0008698109600618405 
-0.00274081790643799 
0.0308824974403031 
0.01245828250048794 
0.02067247922505437 
-0.09517947541091629 
-0.05340062323331098 
0.01514444671282168 
0.03100627955552204 
0.02140623634590422 
-0.02652618741600555 
0.0292148874131818 
-0.08422827195922976 
0.04736758815591328 
-0.03933491130309285 
0.004986035533459454 
-0.01490271556110491 
-0.04058276618723122 
-0.01878968211534151 
-0.01551880282072132 
0.03883211147064056 
-0.0534398791189447 
0.02641316294995109 
-0.0982977285822399 
-0.05704141841596747 
-0.02965619075128474 
0.02616976028958939 
0.033756878136876 
-0.01090797356130364 
0.04068198759803394 
0.05545621004389904 
-0.05948346617212322 
-0.09740187784398284 
-0.04089266300322411 
-0.05128604870817392 
0.01923959058626728 
0.01626457038145346 
-0.009540716576299362 
-0.06482540856068315 
-0.03528424717810091 
-0.003022533294182 
-0.1207510284195275 
-0.03895851763755359 
-0.07063096080108407 
-0.09309298041954583 
-0.04068579157507594 
-0.03420039713964575 
-0.01825161434139403 
-0.0003296071984809929 
-0.03371205280191117 
0.001245991476334042 
0.02899708503709375 
0.01782752265989467 
-0.0404998965423166 
-0.01940726098235732 
-0.004880085297659404 
-0.01142572034841407 
0.005035509236445931 
0.01180604345457564 
-0.01706210322894969 
-0.002665577729258028 
-0.008742251844637998 
0.03148234397350543 
0.01497539900756346 
-0.007185545313540985 
-0.06330508773714665 
-0.01829111177260583 
-0.012749323346423 
-0.04956314093396561 
0.01239022914950224 
-0.06481360011723133 
0.01385616574899411 
-0.02983664003399367 
0.08065466388250842 
-0.0352554022315158 
-0.00635903028277806 
0.01124106944558744 
-0.1212712744538961 
-0.04585727395272133 
-0.01756991745059274 
-0.01871100616239016 
-0.0003580058594091167 
-0.0003727152065667099 
-0.0158760581248201 
0.009665691614786035 
-0.04653263980128065 
-0.03949147466364608 
0.01285695008325924 
-0.01731101397968986 
-0.03419642956916043 
-0.009994696673553639 
-0.02333665690675179 
0.006401431929894834 
0.01895794829895563 
-0.001355817654944996 
-0.006980559250589762 
0.02510269832354389 
-0.03447292770100376 
0.01716918317956571 
0.02216949649912366 
-0.0003150265546410329 
0.01500172317571619 
0.0759593274027502 
-0.08763008339820601 
0.0753254081954927 
0.02797896843912679 
0.0006144021845947807 
0.04993263887794892 
0.0004400661093511624 
-0.009932885781829683 
0.02483282979844558 
0.004951427384354791 
0.01242739724920313 
-0.05729020495720699 
-0.02332387996554913 
-0.01766607418345673 
0.008644208204377373 
-0.06413862276199153 
0.06432926149013908 
-0.01212656915849141 
0.0004447339576907826 
-0.001264523313629095 
-0.03226208555758636 
-0.04397834740238185 
0.04644745952640201 
0.09423420463956575 
0.07226417137337986 
-0.07376395907492199 
-0.008975570255314523 
0.006014298642427441 
0.006672286969624536 
0.005436407461432658 
-0.001198118615857978 
0.001886361753550763 
0.02239571701027475 
-0.007248218514066016 
-0.02094842961315872 
-0.05049228224404773 
-0.0616346614537041 
-0.02471359128858296 
-0.06132945088341436 
-0.03407466410546529 
-0.01020612392982374 
-0.07484881649924997 
0.01166077558278533 
-0.05429216154719401 
0.03121157940042558 
-0.041214616175103 
0.03658344006609431 
-0.1522661777091165 
-0.02283596339647928 
-0.08702877637746835 
-0.02936627583190217 
-0.005554939179229742 
-0.01348658587626517 
0.01032578788676062 
0.01266223927723325 
0.007682679538733093 
0.004084618073841726 
-0.02750290750480762 
0.01271234069180223 
-0.03261184132316131 
-0.009356535785441053 
-0.009039216446416002 
-0.06553864329795911 
-0.0360337260837845 
0.0004975051742597281 
-0.04826525566361054 
-0.01387683067393583 
-0.01524556254617635 
0.05277263219838463 
0.026471905614156 
0.03016685289001197 
-0.03065520421173019 
-0.009794176589714076 
-0.0262240368697485 
0.05910222682395321 
0.03066681224805791 
-0.002613251323111019 
0.00506757051731108 
0.03692855799651172 
0.002374510600750484 
-0.0253451885357527 
-0.01279891173120737 
0.001027773085299625 
0.07513155114471159 
0.04401376595049163 
0.004560117326044368 
0.03330001558504361 
0.02055010268733488 
-0.009645371756880393 
0.01445554338145035 
0.01124943436861307 
0.02610808569819224 
0.02080036001095304 
0.04123326405186731 
0.0005444698924406381 
0.07038696099435168 
0.09021912229423186 
-0.004949333450635317 
-0.08636410175384501 
-0.07515161966251635 
0.05333640317021938 
-0.08828640319679656 
-0.00615505451075672 
-0.06125519251272468 
0.03913476475697652 
0.02570973060172205 
0.03741534283189168 
-0.0439734311655019 
-0.03061946580892987 
-0.05536674818196215 
0.0414353454472287 
0.0226764370706658 
0.04266356431081312 
-0.04866926846583811 
-0.04033729847465555 
0.01610376370678935 
-0.07123725361648668 
-0.03840132814703018 
-0.03537735901864605 
-0.01799162797800084 
-0.008059275873705802 
0.001809031416014619 
-0.08348616822710916 
-0.06373594904510448 
0.05382222991471733 
0.04773541137534658 
-0.01194650865277994 
0.03635201244994415 
-0.04926025633470472 
-0.0009518310642687478 
-0.07348275569043339 
-0.009744734474878192 
0.001536658894081739 
0.001364790524846449 
-0.003644054156115563 
0.05126031484235533 
-0.07939831767345759 
-0.06974316483832306 
-0.03410570711951275 
-0.007866595941345455 
-0.01442381187119116 
-0.01105027904731982 
-0.005052325544808384 
0.01869700813616414 
0.02165286818401314 
0.009199781756558625 
-0.005039843040827077 
-0.003232742378038706 
-0.0139032843070853 
-0.08183848101065366 
0.02139104096436313 
-0.07079379781670274 
-0.06574080845615633 
-0.03151213758696566 
-0.01456962001309178 
0.005735218562974124 
0.01696408060318704 
-0.008762968794222527 
-0.05022343317653718 
-0.02555071831300537 
-0.004275060641867364 
-0.03770205357489352 
-0.02262172960028571 
-0.01066128219051366 
0.01356357362283415 
0.01889401760977689 
-0.0285181834683476 
0.03745118154615804 
0.0287045223123152 
-0.01738300010569895 
0.006154939029802142 
0.004955572837471661 
-0.02903072979653011 
-0.05612692602011466 
-0.03104279093750047 
0.01699382617065242 
0.004569811891154861 
0.002720077914249512 
-0.00650020141700996 
-0.007953421842302228 
-0.01183579231311263 
0.008445687286283858 
0.02703968818279933 
0.05059083720770836 
0.01545952389061673 
-0.1055167166585475 
-0.06254081138109242 
0.01248202541130645 
-0.01936836343661542 
-0.0109135412914935 
-0.02097307942468992 
-0.01784874473634904 
-0.01889072280861175 
-0.01108265325753773 
-0.01209628697487526 
0.002623621399469069 
-0.003216345754086999 
-0.01541243666345827 
0.003778074949908359 
-0.02559215011473712 
-0.04719745542617997 
-0.04556050943004462 
0.00568883083524388 
0.06050088274218895 
-0.111296546245872 
0.1132186490716475 
0.003497103205302215 
0.0103759555987635 
-0.03976571293838889 
0.0152636970298051 
0.008403805323009314 
-0.008291214605528558 
-0.1245344585562258 
-0.0652556490081941 
-0.0280896246761358 
-0.01047629997501754 
-0.004432764858610876 
0.0130370035426103 
0.05600391355525401 
-0.005360061679232643 
0.03577879703785645 
-0.04032917128101408 
-0.00220807465759403 
-0.003761359507279947 
-0.04802951425623035 
-0.0315022109517628 
-0.04644531106231007 
-0.03518187741326118 
0.01509569536848581 
-0.0243388127730475 
-0.0008978051306982877 
-0.006738001107896176 
0.02913445010621697 
0.04411772930818567 
0.02687022855648622 
0.03451103772142985 
0.04833702674610707 
0.02075413514026113 
-0.02747752226180146 
-0.02128772480298056 
-0.004439386491518391 
-0.00144236411952468 
-0.13911428564173 
-0.09750696097726047 
-0.01769134349299075 
-0.01262620638951666 
-0.001641234179814422 
-0.0289344836855051 
0.04111702532859146 
-0.05878335533058974 
0.05422010964355961 
-0.001559602546947485 
0.0002804234169291345 
-0.02435936860568026 
0.05929466666053881 
0.03520107387045986 
0.01000469541185895 
-0.08133481037716393 
-0.03267074658526486 
-0.009901870915554487 
-0.03249269983421875 
0.02431501195931906 
-0.1047606933563597 
0.01187772868691695 
-0.01313425615805838 
0.07706302773502353 
-0.1112500357733 
-0.0521400560021723 
-0.01691412359207466 
-0.1019679072027408 
-0.02986033871106335 
-0.02441418627825091 
-0.02773726502097864 
0.01638195384848921 
-0.0380251192932987 
0.07046986284516688 
0.03442667815056302 
0.009383347458709545 
0.06699840602279879 
0.02909543157544201 
-0.01663440109620119 
-0.04468878636388661 
-0.01137491449120305 
0.01556363939823242 
0.005359887765392929 
-0.02297713317729418 
-0.01467845962857303 
0.02135881863700998 
0.01693195342844583 
0.008329920486858267 
-0.04443275022540331 
-0.01256799106164848 
-0.04934419661525308 
0.01780403036724248 
0.07400123285852155 
-0.08958183381690496 
0.06859775561904596 
0.04733644179037957 
0.01721963541872551 
-0.0519657705785301 
-0.02753709215722565 
-0.01143342219597833 
-0.02122339810281391 
-0.005429140935274985 
-0.01344106044065656 
0 
0 
0 
-0.0313732684710207 
-0.03615169702521872 
0.03844429601081448 
0.003647805643061913 
0.01029546812989004 
-0.03670686302016571 
0.06869799633715262 
0.01541264969642543 
0.03149009321422313 
-0.0370468459058667 
0.006347525555971551 
-0.06699983830365247 
-0.09650315480574084 
-0.01586451497775234 
-0.06204667108902686 
-0.01151599212724392 
-0.004427846448162619 
-0.02054726035744673 
-0.05515951876204647 
-0.02682334981468217 
-0.04145807907797388 
-0.1075308996903125 
-0.12768187421206 
0.007901984471941844 
0.01016068760251416 
0.01692516686924485 
0.002219938164924608 
-0.0185593637770424 
-0.002409741447007338 
-0.02037805642239129 
0.03132438267021096 
-0.01429189742950158 
0.03668649171445943 
-0.01333671141816784 
0.003392912285578377 
0.003876623521668539 
-0.02080472526634019 
-0.01322634153135648 
-0.02765938615337292 
-0.06390794887848397 
-0.05272406871671456 
-0.01547236552440451 
0.007201889892096359 
-0.0109837656245562 
0.01917853602679295 
0.07845114676019616 
0.07709597545639324 
-0.02199791575626207 
-0.03173063486294007 
-0.01271069603742755 
-0.02455261163347231 
-0.0793705041853031 
0.00239213633266394 
-0.03896652531981518 
-0.02581282645822182 
0.00714574157999731 
-0.03750562833079547 
-0.02836110876299245 
-0.06614032922070374 
0.07204644189140048 
0.06588338994809988 
0.04947047726104738 
-0.01904864723212585 
0.001895711312913506 
0.01024457945078055 
0.009563905989780496 
-0.01806447399499788 
-0.005860225553730694 
-0.01318132172712906 
-0.06558184846991445 
-0.05064641430830953 
0.02311222224120197 
-0.05766157756228212 
-0.03176797542470568 
-0.01115964203184245 
-0.01701095654195882 
-0.05726592981409753 
0.00459046555561555 
-0.03622474151274587 
-0.03680221535977227 
0.03026649781228424 
-0.07054880276224521 
-0.03310116848326349 
-0.01152558659730793 
-0.07980778139075639 
-0.02871012441444748 
-0.004892573592972744 
0.003970862619687745 
0.01035841280825893 
-0.01063812760298491 
0.001994736366338939 
-0.07291297965594111 
0.07984447507545489 
0.05870762781993645 
0.04570404040572053 
0.0111900644216916 
-0.002881803335716106 
-0.001757892035366607 
-0.0006996378027620599 
0.02812523075519428 
0.02828083028966892 
-0.0216017640851012 
-0.05460728629212547 
-0.01344952218580003 
0.0003832556124551559 
0.04582941801614378 
0.02197501395226424 
-0.04841575801352734 
-0.03343192607721196 
0.0001819458682381541 
-0.004345660728516497 
0.04305495245060514 
0.03780421534361612 
-0.008496760414653888 
0.03743357357368817 
0.01870222313465281 
-0.02648997695008248 
-0.01259503418544072 
-0.03683448059077478 
-0.02595814912562077 
-0.04658602933238003 
-0.01239675279019486 
-0.02147115191228809 
-0.04920961648521519 
-0.009956904337007981 
-0.03406682948533882 
-0.0003189750922266038 
-0.002572237580808004 
-0.002243956526450769 
-0.006771798316106342 
-0.01629976198591269 
0.01609966374892489 
0.04805503385947738 
0.01124074496281806 
0.02494241364926966 
-0.001058809347219497 
-0.004524064697734578 
-0.01150469116724381 
0.158918517496409 
0.1240838803498571 
0.1010851159820516 
0.007733192612949391 
0.0230109397417811 
0.008364028052137189 
0.03210140642843051 
0.002079988725073218 
-0.01563255017549589 
-0.02216981234345876 
0.00734739817012015 
-0.04146233769226287 
0.01954423526064804 
0.002242046832215356 
0.08743156080264254 
-0.0088182189136109 
-0.02838609843588112 
0.007609146716036472 
0.05718155738235203 
0.06570686584998846 
-0.002898674278839754 
-0.008812311066474596 
-0.02037644382995382 
-0.0013756084374744 
-0.09888735797103929 
-0.04596055891207626 
-0.00431326413354024 
-0.01457109626187535 
-0.003005383241239575 
-0.01698586402371869 
-0.005536150061833934 
-0.01102038369992082 
-0.001202138333516699 
-0.1180067407990382 
-0.04370844908970729 
-0.05585919987369446 
-0.007548503210586985 
0.002799595892121281 
-0.02935578900393392 
0.02886219149134869 
0.008240117269077862 
0.02625770189469396 
0.01524239818620963 
-0.01131326737151786 
0.03610157817508022 
-0.09540398736372115 
-0.04640864020455848 
-0.05977360655590443 
-0.07441255947129438 
-0.03823965787405452 
-0.01067200507382756 
-0.1046365239961447 
-0.004891982095116851 
-0.03810648686697129 
0.03646387077358997 
0.02389746731744054 
-0.03952259332778547 
0.06236006743533928 
0.03771393611015569 
0.03234403278888513 
-0.02843280868063683 
-0.01157433405582796 
-0.02473508134492063 
-0.06323915642023485 
-0.01407897385660481 
-0.03131888269780414 
0.1202886296602736 
0.06721285005728181 
0.05701092699906954 
0.03843844930012789 
0.03634104485196662 
-0.03783811089915681 
-0.007354953607691003 
0.01666639502107418 
-0.02778699977441724 
-0.06815945604525875 
-0.04896629341603864 
-0.006156830893668946 
-0.05626169551257499 
-0.02945404414681042 
-0.003988386807411409 
0.023571282737199 
0.0196200924978217 
-0.04221141403987142 
-0.003019368568605885 
-0.006226847438806359 
0.02775297066028506 
0.01880425183162527 
0.009237559222399239 
-0.04803004420038782 
-0.01580755011561064 
0.02496680107817955 
-0.02987867341701889 
0.05453885059916248 
-0.004112137904355898 
0.06683042678634683 
-0.08463922449965131 
-0.04267827210693547 
-0.01468567135893898 
-0.1192746485335253 
-0.043774867727957 
-0.06343677488200344 
0.09856697544853082 
0.08240384100628288 
-0.05975817222580566 
0.01483016774824314 
0.008038284648258124 
0.01671830638582475 
0.02592034566122793 
0.02925553793375111 
-0.0007856675155692365 
-0.004187542529098373 
-0.01091395203502138 
0.01760250624348302 
-0.07877169794183546 
-0.02737583000532122 
-0.03807726237693871 
-0.02176539946132359 
-0.01323996980008347 
-0.01798948398010034 
-0.02770858210997582 
-0.002871016603459888 
0.002801241189294821 
-0.00397348892078029 
0.005822147856988836 
-0.0151884973824092 
0.0179971059599855 
0.01971539377965174 
-0.00186840613316006 
-0.0678457988720825 
-0.03808138605336844 
0.02582628503568835 
-0.03035388225905936 
-0.006732851003378686 
0.004094259952059416 
0.004678751492758107 
0.01193118540073409 
-0.01974755847543723 
-0.07195396723702405 
0.004677548396402061 
-0.008278119788838627 
-0.0131902960694314 
0.01619445789786736 
-0.01323481129576432 
-0.05584411929778201 
-0.0343807018017426 
0.04146705560454532 
-0.03972967761847918 
0.004179070694104644 
0.004378180960911006 
0.06785322898031351 
-0.000837226228647853 
0.1017744550594883 
0.00292680774985462 
0.0035739941735098 
0.00205702735783906 
-0.03329672450329664 
0.005181278330312152 
-0.082574236983695 
0.04548664291774426 
-0.01910350750297818 
0.00635195891708041 
-0.1065072732805196 
-0.05829355808891098 
-0.03483191856164236 
-0.01559366091253638 
-0.007918835046170988 
0.01858830697220281 
-0.06019928289800656 
-0.03136147012076122 
-0.01372739741445463 
-0.02235857992877547 
-0.030553001257956 
-0.02008493634637365 
-0.0244245341059872 
0.01349163502839803 
-0.06564349154591501 
-0.07215753174487897 
-0.04106003962091145 
0.01042639307411303 
-0.01030917895113495 
0.004873069086103954 
-0.02935011132252783 
-0.09518884793151014 
-0.05510503414539523 
-0.007055528316772424 
-0.04753110398850648 
-0.03330159616680077 
-0.03863462922673044 
-0.0511167527065018 
-0.03722363608455389 
0.02012863105786259 
-0.06187941384279157 
-0.02226606094763729 
-0.04419700170046096 
0.1010682095909744 
0.05130581144965902 
0.03903775215231156 
-0.01537120265457959 
0.0383383609784099 
-0.06691904137632523 
0.007266702731832332 
-0.004369798478124593 
0.04206321178771938 
-0.009795617668184934 
0.013895373306277 
0.00405413720057364 
-0.03492244613121682 
-0.01873250092701665 
-0.02253430965851125 
0.009757376890848388 
-0.002892358589157215 
0.002934432527095714 
-0.09319266332221586 
-0.04834008621098815 
-0.03882111251233689 
0 
0 
0 
0.004178924897543288 
-0.009977152260886968 
0.0110129696915494 
-0.1001632851638912 
-0.02729900044996481 
-0.01826183925790361 
-0.001120375811092813 
0.01296164507176337 
0.01106076137204638 
0.005410981828557882 
-0.05354975683272313 
-0.007138263722987515 
-0.05089403848824149 
-0.01252112808613692 
-0.03087448654974061 
-0.04503901868974779 
-0.02932315177040885 
0.01396624876027389 
-0.06406653015873906 
-0.02133822523890257 
-0.04406141555073351 
0.02074610766695339 
0.0293301120853941 
-0.002554178043498638 
-0.05409943319849575 
-0.01463256409423108 
-0.01834989967844933 
-0.005934641374078059 
-0.01247320141937984 
0.03181938753766794 
0.004842324391302845 
-0.0006353950107923569 
0.008691226116985957 
-0.03653774056965721 
-0.01966587951531396 
0.0006825114451187347 
-0.01041133161998336 
0.02399720490598641 
-0.03955813796662404 
-0.02595925165429596 
0.001165790390124899 
-0.02802229599810074 
-0.02635620583145534 
-0.002403633426365149 
0.02163298079373924 
-0.01109256063681729 
-0.002169778190010443 
0.01675408373962205 
-0.01814724581032396 
-0.007479805419967666 
-0.02418026701641676 
-0.05382243240135501 
-0.02756971745872445 
-0.006579319773595157 
-0.008423739802387878 
-0.007253085369545897 
0.0009253972688940638 
0.0263841771018076 
-0.02280177354661107 
0.05077780867431996 
-0.02460679277055997 
-0.02887450280461225 
0.00889954079681419 
-0.002573215826823313 
0.0009742343633459194 
0.004808819001009357 
-0.1182521851565296 
-0.05594039748962602 
-0.02727589964572334 
-0.07174106470803517 
-0.05698600561367227 
0.0105748060279183 
-0.0282476352914569 
-0.01508111381230647 
-0.003588939834430803 
-0.05844836974932736 
-0.04072614888196017 
0.03081879760296906 
-0.04559662891282787 
-0.02340416743584768 
-0.002037888898706345 
0.01918351109377657 
0.01087102891472498 
-0.003731789083823692 
-0.0029516852866456 
-0.0352528322926165 
0.03432008810641926 
0.01453576880011743 
0.02186419042973291 
-0.03140992464963641 
0.003303632476118953 
0.002589850283394209 
-0.004706030871800078 
-0.06538223777059037 
-0.0230961623154057 
-0.007939562631775669 
-0.06043533692856269 
-0.004259919839783429 
-0.05639336082712151 
-0.004984068562610061 
0.03062053237321196 
0.08132211817920232 
0.106896973226189 
-0.0008628577750072581 
0.09337414957998738 
-0.01891670348607155 
-0.02664044204541028 
0.01283971304829791 
-0.02548612972718101 
-0.02064698599564366 
0.01854344897480262 
0.02186217737820481 
0.01012837681366482 
-0.0165463761472034 
0.009785754238385883 
-0.01384966855712441 
0.04608289357028735 
-0.07533114043419478 
-0.02820726604742915 
-0.02848001251958819 
-0.01768030837801067 
-0.001127542459388181 
-0.001051858065552359 
-0.01410918621194702 
0.003821955736561783 
-0.05269483517419264 
0.01414787129100971 
0.0152162413194075 
-0.05205410543431954 
0.08131988472243513 
0.05779840550168722 
0.01393505670108281 
-0.0320325583414796 
-0.0322527383465892 
0.02779050679742678 
-0.0294537271681907 
-0.007808932409417024 
-0.04741865456629335 
0.07256696334414239 
0.04610938637632394 
0.007236698184192143 
0.1090850507727644 
0.0577433564989627 
-0.005215574752928977 
0.0319750693674329 
0.04849194831873856 
-0.0275723881048585 
0.02493843202774379 
0.01254377971328241 
0.01503182522707441 
-0.02338547337292629 
0.003532478982415034 
-0.06750288495878232 
0.03440312262455299 
0.02272972903169526 
0.01528503999661822 
0.03264041091529706 
0.03909746231901534 
-0.0002702144610798402 
0.02705873263984379 
0.02700086903703096 
-0.02587404699088302 
-0.05450260641046518 
-0.02691037618621494 
-0.03201096085455245 
0.02973848172934494 
0.03509764337773432 
-0.003661811383597538 
-0.03201164376981817 
-0.008507887954580887 
-0.02623236094893738 
0.06136702021561453 
0.04340459354912125 
0.007671681505481406 
-0.1216698775702697 
-0.06771025964772358 
0.008593892079499574 
-0.06706826715305247 
-0.0225489671372746 
-0.01878479687208413 
-0.0325021496882781 
-0.007233752620653285 
-0.01858549658343096 
0.073473006190788 
0.06040745084962062 
-0.0126281678345182 
0.01627816509168674 
0.001686036962111119 
0.01611769012300988 
0.01975935051024628 
0.01253873541668079 
-0.01788416622633779 
-0.04553068322465107 
-0.003033100314305692 
0.007911956010219521 
-0.04275757721946286 
0.01891327184923614 
-0.0640907644847357 
0.01265694980831066 
-0.002813242766399717 
0.02407741850092946 
-0.004515758032470488 
0.007324187836028577 
0.005152882849696679 
0.0279346527246368 
0.02626826650132481 
-0.02586292687322108 
0.01499126763351134 
-0.05810469945331866 
0.02787845641860108 
-0.01889444254145379 
-0.009028326975825769 
-0.001003686413365384 
-0.04483250130287979 
-0.0174879114426015 
-0.02423677460956268 
0.02685094026501282 
-0.00686353670082615 
0.06736250637555764 
0.02641662986907318 
-0.0002767263469642412 
0.05305277329957055 
0 
0 
0 
0.04324923274315749 
0.06661467600187862 
0.01688873202210664 
-0.04552922694857747 
-0.01663354932960249 
-0.01693570515847354 
-0.0146099610359815 
0.01043075291587331 
-0.04650597509264538 
0.01139720432183095 
-0.01986706682040465 
-0.003722704189404551 
-0.06823097465475816 
-0.01715464288341492 
-0.03942397919324261 
-0.08355579973022201 
-0.02473076122232517 
-0.01461910196377836 
-0.01241893578759986 
-0.01609090166291386 
-0.01157789490069506 
-0.01057413896831585 
-0.01077212804535143 
0.03797258498387005 
0.04025258183740593 
0.02804842427330044 
-0.01463598381402651 
0.0009992567136247279 
0.0141782001690467 
-0.0007894631505325765 
-0.01736562711565849 
-0.004274619298561161 
-0.001055550190542049 
-0.007805283462309181 
-3.405091994302647e-05 
-0.002348158064832754 
-0.003186853984529547 
0.03377988855770934 
-0.01126577887672026 
-0.0970624187273971 
-0.02667598928227036 
-0.07062885223808388 
-0.01537201735781508 
0.005964342153941695 
0.03669046955319349 
-0.05560694962445186 
-0.02351953939001756 
-0.0271351238229408 
0.0313800693532284 
-0.01853128982263101 
-0.02023285651922243 
-0.008722891665372004 
0.04026241989119573 
-0.01871282661081237 
-0.01100152172766041 
0.00210320039152682 
-0.04182900755715647 
0.001917597673334402 
-0.01549802160347809 
0.001360346597814442 
0.04346313337834235 
0.03583819081467134 
-0.01454835530401702 
-0.001661538211009084 
0.005231260911357933 
0.02325471963465285 
-0.07542774477132247 
-0.01153077735683152 
-0.02809121495628367 
-0.05081601655057408 
-0.02170013192244611 
-0.02533007383717211 
-0.01454153889569259 
0.008335252874750789 
-0.047804662282506 
0.01787926742897757 
0.007663246719069017 
-0.02921684300484283 
-0.005048432166722732 
-0.01037465622422919 
0.03771847211820124 
0.08857380945238784 
0.03246977649094153 
0.03799229057252344 
0.07856044739445471 
0.05650122263731756 
0.02557161735296691 
0.01499428609568324 
-0.02942456066326017 
0.01163250440031524 
-0.05290937836264723 
-0.07044284675928084 
0.01883518456291485 
-0.04022948209584357 
-0.04750054750562929 
-0.00153594063376267 
0.03065813242290533 
0.004665475738075866 
0.01534358043848915 
0.01191741284420329 
-0.02572519916736499 
0.03806627338452614 
0.1230366171684757 
0.05969049247643371 
-0.01389254167452264 
-0.02361521107190718 
-0.00687611311469376 
-0.001187262534780939 
-0.0892756161818424 
-0.04062380116205649 
-0.01745551198382205 
-0.0754210141834576 
-0.04662088308382493 
-0.02243697644290571 
-0.1238092588067648 
-0.07267924120894502 
0.02673000396453185 
-0.03569097268120219 
0.03919346793884279 
-0.008992618412867966 
0.02902470728224322 
-0.03355809362884839 
0.01262021908438595 
-0.0710315422501382 
-0.04569161118762529 
-0.02535440122064522 
-0.01108777293005416 
0.003083216484190673 
-0.0105909265420622 
0.009127611081208641 
0.004767196258714605 
0.01396494872887331 
-0.1282620536964387 
-0.05701920158185621 
-0.07766721877595949 
-0.03007323028315284 
-0.001842037362362971 
0.001695464262515677 
0.05581886302087524 
-0.01913412585494295 
-0.03531012212067149 
-0.004289542543225608 
-0.002709901205562586 
-0.01086614196583293 
0.06382065299702416 
-0.0166219218113597 
0.05577089594725843 
-0.06493357367844556 
-0.02173830198561293 
0.01811641386496299 
0.07963289559735885 
0.01793708553887579 
0.07033693075982783 
0.01348545518694094 
0.02729689187632497 
-0.02802244249313767 
0.009169919949822754 
0.01109053292673463 
0.03583687315769707 
0.1019115355457517 
0.0697427665484129 
-0.004587336786830177 
-0.03925242027999955 
-0.005027554709131806 
-0.01367189114177162 
-0.03746027652556636 
-0.006335963908695941 
-0.002660164607455104 
-0.1265710742704954 
-0.06626143110359028 
-0.02400592608695082 
0.007269014367510313 
0.0002055711827938461 
-0.01700659912195977 
0.09890892288203267 
0.06091816448304213 
0.02197991665025877 
0.04325368848545539 
0.0176017175384731 
0.02438673849579453 
0.09134805588546333 
0.04601686161023948 
0.04766355462793642 
0.009797735542527287 
0.005613333956705128 
0.008137327116009325 
-0.008728138324579087 
-0.005218935216141385 
0.002113613928267032 
-0.07294695549705457 
-0.03515237598747285 
-0.05663456440036654 
-0.03848609223816573 
0.01053176780739127 
-0.0326735012419 
-0.01904135342858039 
-0.005497872899175963 
-0.01169475720190924 
0.03169746028171831 
0.008263844389940369 
0.03276610082685739 
-0.01851091170363968 
-0.01830405279677673 
0.03296825546133429 
-0.02406494417581685 
-0.01466306760824642 
0.01017131852455271 
0.06318077175866242 
0.04741095178611662 
-0.007596672751925759 
-0.01994513917006029 
-0.04041933427226172 
0.04533540046563782 
-0.03153925914394309 
-0.008239790247958024 
-0.01089310920176888 
0.004500641593064262 
0.001938522520537219 
-0.002057743144486822 
0.06735880820421038 
0.01438515487050085 
0.0190771252980784 
-0.001967947731312327 
-0.02261313917133938 
-0.07813104827707575 
0.04679538327423801 
0.03066646279308907 
0.04923420465260313 
0 
0 
0 
-0.0450079902089138 
0.00529265745319905 
-0.06405334680853064 
-0.04236153240704962 
-0.05515043613290879 
-0.09167839690485326 
0.07368860759474362 
0.06569694336739931 
0.02151921068317126 
-0.03906788047239858 
-0.01237321261741055 
-0.03176077558466863 
-0.008198783535126028 
-0.01216292816363927 
-0.006305516878057431 
0.009741200123153784 
-0.003997019750700683 
0.00661214891663724 
-0.01118126736065848 
-0.006928987559481331 
-0.004219655833749127 
-0.07161716227136274 
-0.0572914146699095 
-0.01139359833245258 
-0.03804189883057978 
-0.02060689295190346 
0.008071589115221513 
-0.0328687435464147 
0.05983165844531782 
-0.06263184165317331 
-0.02123292248559063 
0.01030727429675949 
-0.03206761394685474 
0.01952965223287609 
-0.02436148002606204 
0.08754345283548938 
-0.04407905869471598 
0.00522536988958028 
-0.06637103249908127 
0.02508354832287064 
-0.0002723769143233242 
0.00135865228582651 
0.06349724740965429 
0.0384870076414033 
0.02424553575424419 
-0.0267015422298545 
0.001117182325746064 
-0.03338595127277641 
-0.04727276492477411 
-0.01993690610849339 
0.01083981617247039 
-0.01792595423693023 
-0.03508751446970429 
0.03552706320627979 
-0.03202381144453357 
-0.01465988293829925 
-0.006651679623470287 
-0.02958985121651274 
-0.04260071371911579 
0.005412462405808593 
0.02255592461431728 
0.0142907994555465 
0.01205325469758482 
-0.02526219523355751 
-0.02711192721961127 
0.0045045849464269 
0.01395354640971651 
0.02278135119691176 
0.01586179944890348 
0.01512094058746655 
-0.005713352595510367 
0.03064589186371387 
-0.1407766116194032 
-0.06011154248885272 
-0.04910056971927169 
0.0197625345372178 
0.02200751209782606 
-0.01875053391007698 
-0.03397941413594686 
-0.008267986908226586 
-0.005141586608371202 
-0.07040154083780767 
-0.02334375098741276 
-0.01441702249434324 
0.0339434266778926 
0.0104365589905728 
0.00944071719679254 
-0.05086574142891742 
-0.07887579407331526 
0.03084651637535882 
-0.05320105797825588 
-0.02274717575607233 
-0.02848699619850661 
0.01633903439917417 
0.00473674308006988 
0.02866819930802902 
-0.002463971852017609 
-0.03772126899026229 
0.06851078007642358 
-0.02053553345432491 
0.005004434146129024 
0.005538633061819493 
0.02136400090882624 
0.01366380021974866 
0.02872524880505269 
0.005639746890779395 
0.0295288454422434 
-0.0001620862201461586 
-0.05396619254854703 
-0.02681941874868344 
-0.01014940253126296 
0.07203961839091456 
0.04823652768297178 
0.03155914841868746 
-0.1242972895165253 
-0.07070265944938339 
-0.08062268843042319 
-0.01077907191810894 
-0.01427389117042874 
-0.05188050727296584 
0.003119307166926509 
0.01115693177613257 
-0.04357187822204537 
0.01100049729912387 
-0.0348772296935921 
0.02363214342412525 
-0.01877059392854166 
-0.008004305270934948 
-0.01551959370635827 
-0.04005256740386933 
0.01445768320810367 
-0.07701042573100454 
-0.02115520826128459 
-0.006947287797197341 
-0.01170806978121035 
-0.01300484312428601 
-0.009297460444926202 
0.0241047001019004 
-0.00399458433309319 
-0.006285135192508992 
0.05649778081194725 
0.03570652943870092 
-0.02969292084116067 
0.03470387932565517 
-0.03738854226019356 
-0.0002099659515058149 
-0.05825769527278971 
-0.006512667090575367 
0.02147814504118438 
-0.04105930454802587 
0.007040383229262951 
0.003161546193979107 
-0.003953682217833421 
0.01063829411890792 
0.0286682139397729 
-0.008546700478495945 
0.01474582117021183 
0.002642623892199922 
0.04216193062236527 
0.02760599243160018 
0.05449448810453954 
0.01089760702024406 
0 
0 
0 
0.01861939255941736 
0.02134786059025947 
-0.04352688159533476 
-0.0750955754459932 
-0.0782805269953373 
0.02430408226200921 
-0.007892259375244697 
0.006942941729739104 
-0.002439945966607674 
-0.04762648348975761 
-0.04161681014123462 
-0.01484506203002961 
0.02267007598862039 
0.006619144280825255 
-0.004073041182361295 
-0.01527768650388883 
-0.03245425206899485 
-9.732681219763892e-05 
0.0302337655043036 
0.03129814061694085 
-0.03987088781872385 
-0.03022473517445235 
-0.03598808643850612 
0.01996478531843496 
-0.08268400945572932 
-0.04710240960920426 
-0.002698732677691701 
-0.05467762028469553 
-0.1160924336093552 
0.06086107938202095 
-0.05149496507897117 
-0.07024620817057817 
0.0434576257359439 
-0.08615472811266406 
-0.005025044836673934 
-0.1054227265842054 
0.03314497843217136 
0.01180723563914714 
-0.02676923651647388 
0.01344440807889626 
0.003881575967780208 
-0.001167934979905401 
-0.01788104141845795 
-0.002136889302297707 
0.02143772345686909 
-0.08059001046314139 
-0.03695124956070848 
-0.04635116365297225 
0.04562477968916344 
0.055127597793157 
-0.001691976141795013 
0.05747343300868674 
0.0458570076466163 
0.01752855357795531 
0.01239771323658508 
0.0124409226447632 
-0.01810030423408198 
0.07214869868798479 
0.03935778544194592 
-0.003309914356070916 
-0.02325616007310352 
0.02355522975480339 
0.005592086331174162 
-0.07218985758709508 
-0.05143045172196199 
0.01217546770037749 
-0.006773924568389123 
0.0157799228579034 
-0.001098538319661891 
-0.01296950418523488 
-0.004761369108910904 
-0.00302774329316699 
-0.02392430210197745 
0.02726661843657901 
-0.08938829936209698 
0.02078760325134775 
0.005524655592651148 
-0.03930026685231298 
0.02481739057525838 
0.01956107760374439 
0.00698662057281641 
0.003149145723056023 
0.02484952000420079 
-0.002581472691297224 
-0.04681030809323471 
-0.02916378777126601 
-0.003084482168694343 
-0.06937645484660861 
-0.03112489150618222 
-0.02005305680985661 
0.04144034218256479 
0.01401648490117737 
0.03459833629964926 
0.09253034225948126 
0.003762350270782428 
0.08352447675105928 
0.05727255475541864 
0.03519191213321187 
-0.001085556643354826 
-0.07779021736060542 
-0.01615673472776144 
-0.03111392086317265 
-0.06099768989763477 
0.009023081666123837 
-0.04204735241963226 
-0.07172407276826638 
-0.01290198189864824 
-0.05023686204964033 
-0.02102435358521346 
-0.02613351499466093 
0.00338548531287848 
-0.0465362254419836 
-0.02338058118350263 
-0.03350139466679197 
-0.03424867889968793 
-0.02095919086960999 
-0.03200161450884405 
0.005235526232515999 
0.01575752207978298 
0.05508833441949729 
-0.07080403978872535 
-0.03722014352755771 
0.02238446075822164 
0.02375642908276978 
0.02316300210857763 
0.0274094473801033 
-0.006736920528947596 
-0.01128460850889775 
-0.01312480543938844 
0.006355781042966266 
0.0003356936253787362 
0.007446559868091582 
0.01865827740295243 
-0.02769573766215679 
0.03991623382080136 
-0.06832966725687148 
-0.02861751609659799 
-0.04803900725826458 
-0.02010678128995349 
-0.0177000436005132 
0.04311675563130607 
-0.01283128025054866 
0.004432452267519944 
-0.01467033316214752 
-0.02919618906708077 
-0.02241139970634174 
0.0094738321303978 
0.04723887286643193 
0.03689106005466376 
-0.01226608060963364 
0.1182509649140013 
0.06949248633864702 
-0.002768254092057327 
-0.002078052158948788 
0.004288828555263173 
0.02078527464705797 
-0.09201085845956444 
-0.04052003704847154 
-0.01799804924250059 
0.006854444716202605 
0.01062925523850349 
-0.01429988518126086 
0.002573938679156398 
0.004413782056186551 
-0.01632511406786492 
-0.04228854420136451 
0.01861883808898685 
-0.06163534382531501 
0.02130050086508517 
0.0202509519974589 
0.01106268611364558 
-0.0284384312660719 
0.008010167585562595 
-0.006172669601209675 
-0.001955667621808808 
-0.002913214428860905 
-0.00194287710730846 
0.0346898562105362 
0.06035178891678507 
-0.02053401800210096 
-0.02055453223008367 
-0.002090298497120512 
-0.05001832172820898 
-0.005853040272241106 
-0.002704333660874714 
-0.005721097284453002 
0.01839566807363312 
0.007046315767430939 
-0.01231998272586237 
0.0128977882997626 
0.02176667552758649 
0.01573298243882528 
-0.08237560985758727 
-0.0635806545929215 
0.01465254745677153 
0.01525842668639582 
-0.02689109796649057 
0.0178101893820323 
0.05424333255864741 
-0.01210667039899273 
0.07983846751411086 
0.0003067067186051739 
-0.004172952564672401 
0.009520872205016786 
-0.04068464273795829 
-0.03905149816747468 
0.01462464790612384 
-0.004777736622867944 
-0.0008573441567352169 
-0.01877138548263545 
-0.008205228308913229 
-0.01400214292735974 
0.01063422384550389 
-0.01266355856664845 
0.0006068538389429253 
0.01281174622535494 
0.08043459967806803 
0.03203241305102925 
0.04568833917120742 
0.05164514286928464 
0.0159851946946008 
0.02046593919080438 
0.1257530807215489 
0.05586506918224093 
0.042924076261602 
0.07605106684110088 
0.04623460507333441 
-0.0213867611180573 
-0.003655910648643994 
0.02371666035660609 
-0.02769589843300497 
0.01883988491834286 
0.01753824279170721 
-0.02598579053418265 
-0.05700353187595386 
0.009256399870842322 
-0.04121465541274059 
0.007151598178930861 
-0.01372660104626769 
-0.004803361130629489 
0.001302186145826918 
-0.007805072855280227 
0.03176253055793345 
0.008408341483637961 
0.008578325860972688 
0.0437298202537058 
-0.0335565553937531 
-0.005487571015280966 
0.001204625702740025 
-0.03042388371061062 
-0.00793167837513277 
-0.01087752587279905 
0.006287015653761049 
0.003265827708871139 
0.0006865818335743863 
-0.005462954150822527 
0.02681076653692381 
-0.04476404907998591 
0.01050322530197065 
0.01407600279380201 
0.03280522500145025 
-0.08233225154720615 
-0.04767954652660711 
0.06202607434017067 
0.03655736812872352 
0.008986423125901153 
0.102473540116391 
0.04735525233460278 
0.0378749725248424 
-0.04761860709864674 
-0.03701947602262362 
-0.01777335373233096 
-0.08670081539209319 
0.0415713303334542 
0.02832156060721447 
0.01043328908168545 
-0.01976469424772791 
-0.006208042902046384 
-0.02455266594733104 
-0.06514439563404632 
-0.0105432033505403 
-0.0754340428282915 
-0.0241783507149824 
-0.0059367014181618 
-0.01754747850299756 
-0.005911005879580525 
0.007736552660098484 
0.003026868372037069 
-0.04286063767535579 
-0.01967267566785672 
0.0007777875603172986 
-0.007752044273348198 
0.008183477829807681 
-0.02794643611722172 
-0.01831298300685836 
-0.02526342900266586 
0.02801443387087706 
0.03184497075546142 
-0.008471786374628429 
0.04112216957144002 
-0.1078188841981977 
-0.03727355445073601 
-0.009068054607939786 
-0.01699492959042694 
-0.002950014916381394 
-0.03622294797333591 
0.006726941579986595 
-0.003126871286509191 
-0.0004142965263987981 
-0.05437012203381443 
-0.02207375416192007 
-0.000306743565013087 
-0.01362154945064604 
0.03661144016047985 
-0.06851244392501397 
-0.0004303786053800187 
-0.01640606861897748 
0.003079306103421991 
-0.003781988400761303 
0.0008175230093303287 
-0.001920514265138337 
-0.03855350006067879 
0.001944295409169288 
-0.02446555510669852 
0.04067518482508719 
0.0009609589973493091 
0.01533414065477489 
0.05392767217673444 
0.05947681148844978 
-0.002576366539983551 
-0.01664276950665064 
-0.007446678636284022 
-0.009665038698057864 
-0.02483770980825878 
-0.01800196781282769 
-0.03302705367101087 
-0.06893714067604331 
-0.03149167936461554 
-0.01426951591061963 
0.05573559872639867 
0.03828458447550678 
0.04234858007923546 
-0.02133303213786228 
-0.01929142904598004 
0.02720626504203246 
-0.03303503989224298 
-0.01837475011209999 
0.0002291488764110673 
-0.0540507043619095 
-9.914631973334267e-05 
-0.03496536600068106 
0.005897452259146545 
0.04936840207801481 
-0.02515723268510892 
0.002578780874881524 
0.001964967165979143 
0.007226226779612628 
-0.03415712949654848 
0.01787945839261153 
-0.04890878825325779 
0.01330289759766914 
0.0004349592187169013 
0.00597847218386807 
-0.009726503700829189 
-0.0003943310268686842 
-0.02215739037735209 
0.02732335291271663 
0.02718879291869375 
-0.01030397878840467 
0.004202056027613737 
0.0264995045429512 
0.01722462536477482 
-0.03604742537726441 
-0.04531535772727396 
0.01640123158970981 
-0.003204467709868348 
-0.03559321619629616 
0.03936212267234462 
0.01177215379356034 
0.01816911691812639 
-0.00130981308389517 
0.02828894923414956 
0.04089020466432543 
-0.02763515270279309 
-0.05132133106769839 
-0.03300356362835993 
-0.01528122947268955 
-0.01829426895411428 
0.003808048104647341 
-0.004017104585233792 
-6.33678232273322e-05 
-0.003229449873477982 
0.005960495734470653 
-0.03624166438991333 
0.0208463512037962 
-0.04676764616673338 
0.01184913534353881 
0.008010173375836854 
-0.007271866294966744 
0.09608128971830127 
-0.0009385605529824856 
-0.02156965380780421 
0.01568795870681313 
0.02287533649222455 
-0.02358704318249658 
0.05919132076856781 
0.01877105523159078 
0.01482571056636563 
-0.01120429160100318 
-0.001398830402086091 
-0.01324984222949684 
0.04706181857887969 
0.005521256277899519 
0.02386561095418866 
0.01070937236413595 
0.01402612073961445 
-0.01895415871190715 
0.0001804854436697073 
0.05055517125230888 
-0.0764514650575104 
-0.01243955554170333 
-0.01118839977941082 
0.02236282125823289 
0.06130320622537695 
0.02577168538650984 
0.01798668946037967 
0.04547184492597857 
0.01605835897360882 
-0.006510980956342366 
-0.04272751966544491 
-0.02951918665051244 
0.01167556684608724 
0.02663418514659566 
-0.03030745415005671 
0.02676215693442379 
0.03417447330992466 
0.007402359076983355 
0.0409645338901051 
-0.07294145981190706 
-0.01227256859656036 
-0.03621824367240861 
-0.01001625881686238 
-0.01514011607864212 
0.01498065279855863 
0.01800521131290973 
0.02582667704408513 
-0.02227323868077686 
0.02964880711021931 
-0.003752776759338587 
0.03992353579709969 
-0.03452375230022526 
-0.01772200914426846 
-0.005690651769316843 
-0.08712173452606575 
-0.04824039786032997 
-0.01487205928599562 
-0.03575346346208724 
-0.02599631661746986 
0.01679201841597225 
-0.04193176106080997 
0.001091254803643616 
-0.02225624983949058 
-0.0626429302741327 
-0.02321986149382573 
-0.02132146277637439 
-0.1061217721355525 
-0.004230144496322379 
0.006793191049152115 
0.02601855365391884 
0.01282067808086005 
0.006737329341733932 
0.06122462587094038 
0.007905805385425787 
0.009837140582721959 
0.06628848691553746 
0.07198941537968777 
0.01033286159662977 
-0.04791602747844466 
-0.02236614721276247 
-0.004600802834105003 
0.04614522961971407 
0.02364506310366025 
-0.00735263756169076 
-0.06676655654821673 
-0.04487304197004775 
-0.0009581981357619137 
0.05434759794855278 
0.06116618057797197 
-0.01521699601163094 
-0.02311060905527251 
-0.04340410991707869 
0.02849296725567484 
-0.08133987764638892 
-0.02278475336411435 
-0.04746134099260162 
-0.05859492125138088 
-0.02973448111667101 
0.0009590574922914316 
0.02158057712157592 
0.01142741189234787 
0.02631313763813305 
0.06042341026977732 
-0.02329111198266789 
0.0919984141028438 
-0.01437157535212722 
-0.02311403211753809 
0.02723650960268622 
-0.02927270689243022 
-0.01992441801853709 
0.01199590435921252 
0.02613022715784644 
0.0116401119992876 
0.09108740807468536 
0.003681114664646071 
0.03117085664746215 
-0.03160452017919088 
-0.06611660473273234 
-0.04125275364945681 
-0.005360567812964824 
0.02629010260662983 
0.01050988252671929 
0.004520910454713219 
-0.02698789439026298 
0.008192644854214318 
-0.01913553780071656 
-0.05154871185010079 
-0.01540953219223267 
-0.03095916804155205 
0.00596935339395644 
0.01218107678668537 
-0.005999951162662239 
-0.008645151555444942 
-0.00292717575036478 
-0.01905870774660859 
0.01298288099028692 
0.003105394150447076 
0.008572818497485321 
-0.04657549002972029 
-0.03631950435247948 
-0.01758654772026799 
0.02491961887731775 
0.02742364950669526 
-0.01296407125282959 
-0.01924291563460748 
0.0440453072838886 
-0.07821385343765751 
-0.03318635840029904 
-0.005581941323231156 
-0.02353276737609594 
-0.02716274760795487 
0.007862904802704426 
0.03416589791679377 
-0.0593307128323414 
-0.02741605092442488 
-0.01612950608269629 
-0.03283757966223379 
-0.007535572547293393 
-0.005137419797026775 
0.0356686894773723 
0.03794729739250757 
0.02147826813247098 
-0.00642311373211918 
0.03865893854617653 
-0.06891755695766963 
0.01697051817459791 
0.02269981026313385 
0.0116764428567382 
-0.140694213045732 
-0.04915360749485492 
-0.05646951806726405 
-0.03413815384788002 
0.01934209338740546 
-0.05455882428590326 
-0.1018275835605043 
-0.03509518142083388 
-0.007628020407791709 
0.0405733249691078 
0.008932819519582511 
0.009721313202491795 
0.06651253812597058 
0.03709648390940534 
0.03170482915671897 
0.02951996705064214 
0.007865226305143105 
0.006797139724468668 
-0.04306903048663853 
-0.0006539738302800547 
-0.05229659886975644 
-0.03477202645848992 
-0.01916865776172912 
0.01160686773719118 
0.009185404800616862 
0.01476274792894001 
-0.01023739474253578 
0.01750646646322363 
0.07607049854105616 
-0.04552186360135128 
-0.03321173797545612 
-0.01328327721756433 
-0.02031470581715912 
-0.03682427837243685 
0.00959385793059494 
-0.04613044050495992 
-0.03440744704514558 
-0.002251859513415148 
-0.03333404862815741 
-0.004299360620264923 
-0.001091236905745427 
0.04168725869484844 
-0.07008891595565238 
-0.03669446171575557 
-0.04343600348432799 
0.0181680929490249 
0.01835652991043086 
0.0135393379112921 
-0.1523315968620987 
-0.06005135152542675 
-0.08412446174169852 
-0.02551993405579333 
-0.01413463345770864 
-0.01087156309727691 
-0.01781588836994856 
-0.04553174632006408 
0.07352994352481609 
0.06231779007974434 
0.02237205227404238 
0.01790884443887138 
-0.06334948500990654 
-0.02107210528548992 
-0.008306484752664383 
0.01848289240596393 
-0.01108368095423416 
0.01826904917442007 
-0.04507500808732528 
-0.04340297026880695 
-0.01906315318938362 
-0.01140459324643537 
-0.007051036708836974 
-0.02119004306003547 
-0.05471743528914075 
-0.03428810543991251 
-0.01466761544430769 
-0.030399454450809 
0.002362373670313671 
-0.02324087351938271 
0.05388513793994815 
0.02288724847717766 
0.0429854037734981 
0.02338042068212095 
-0.01875101568166916 
0.01761680220254646 
0.05074254272148846 
0.09898569113073152 
-0.02032693527218022 
0.01152406900866289 
0.04454780293344662 
-0.05335226026673107 
-0.04609792316712991 
-0.007588017543199591 
-0.005248545741757852 
-0.101708400703248 
-0.05172873798686225 
-0.04586424194125689 
0.07819108556915964 
0.09629143456440618 
-0.0450849318248325 
0.0929336710588473 
0.02988856247916368 
0.03567285024028977 
0.005414849639859582 
0.01800567382364969 
0.01445892241331654 
-0.08558029705157687 
0.04159873291731087 
-0.1325143082053151 
-0.09219226072761472 
-0.06528372230157047 
-0.01804064380812577 
0.02490922231975936 
0.02295060605770866 
0.0003922753148593817 
0.03200630127073803 
0.07615947024862593 
-0.07717195219271943 
-0.07292801848722179 
-0.03970415840308488 
-0.02472367699576599 
0.01051244207261083 
0.04899885530463099 
-0.06564377904470238 
0.03024686040754872 
-0.004172754359671693 
0.02389830157122484 
-0.07080712900739218 
-0.005291403144814073 
-0.01576286895775871 
-0.07820210210114058 
-0.04687800456085761 
-0.02748192928773631 
-0.06700767172950796 
-0.03086241062329215 
-0.07281444267590416 
0.006795069274367689 
-0.001888292731219459 
0.005585025319483372 
-0.00181767655844647 
-0.002622928214765299 
0.007319757985004951 
0.03380930082740375 
0.01441952996090685 
0.06317743741067276 
0.07588618585825614 
0.03086017100460127 
0.05886744279270759 
0.06207895719875224 
0.08139935766533112 
-0.03589505468815612 
-0.1443466518990857 
-0.04340615009393773 
-0.1349171113841319 
0.02590725436571489 
-0.002795658695467392 
0.02120016443366455 
-0.008354442226096916 
-0.0175841539507987 
-0.01324964613398655 
-0.1353384251821979 
-0.06408234172831803 
-0.06178604103791418 
0.07146896975310016 
0.06156289797465908 
-0.0666935075707092 
0.03315274927846837 
0.03680057084508672 
0.02192948803132625 
0.04093279632896012 
0.02915708766123905 
0.007924757757854534 
-0.03858431422576999 
-0.0523702755248669 
0.02129063669262913 
0.072676866758434 
0.0237328646448446 
0.0591419703166777 
-0.04098188463757289 
-0.00844434509588409 
-0.01559382616712269 
-0.07267896596516021 
-0.04336735970728467 
-0.01474903412450669 
0 
0 
0 
-0.0768526120593377 
-0.0400476887767189 
0.03484533705044039 
0.0066498547641623 
0.03132999618702403 
0.03107453223285649 
0.03284619647536093 
-0.03120752115878574 
0.07061514401215682 
-0.007027544741520524 
-0.002513953689352139 
0.007677594405339379 
-0.05630669612273934 
0.01813882458861392 
-0.09053153998593798 
0.001199246749034651 
0.04779431411758196 
-0.03198367712224654 
0.0690057517656928 
-0.03243014663515908 
0.06155331652916675 
-0.02281678441446696 
0.009425032380853819 
-0.00329020241481996 
0.05585853652745036 
0.07145130857650514 
-0.0343758119483577 
0.0901845984218181 
0.0382602657579403 
0.05749527431224605 
0.06298334007531095 
0.07705913523005548 
-0.003596211999367081 
-0.04519977441811956 
-0.02171157386456732 
-0.01867350415230788 
0.01032114259219527 
0.02301455574117324 
0.02171381736344469 
-0.08826332809848514 
-0.0436856681669343 
-0.03084742684966772 
0.0001243734945887595 
-0.002707058133367471 
-0.01462869055133405 
0.04554947848461713 
0.05977954853082892 
-0.01128514338599155 
-0.01754201872470326 
-0.0007366267663167547 
-0.01378991590933475 
0.06957655691923921 
0.08340740852464944 
-0.02733224602262827 
-0.02322649992689296 
-0.01408161144749948 
-0.006825038068541464 
-0.1081099670463274 
-0.04180643841107323 
-0.02459296902153646 
0.09030523623047194 
0.05628436151377704 
0.02772660715956004 
0.01116804585090145 
0.05013929593684992 
-0.0152197172737621 
-0.02585761262482435 
-0.05708905318172699 
-0.01621082274543779 
0.04458243024260339 
0.06139709139931025 
0.01822802037658454 
0.02637957401841156 
0.03924317059020578 
-0.0438413417927207 
-0.008285212048806275 
-0.003692442763721174 
0.03187625607624574 
-0.1026595973037613 
-0.01321788068783836 
-0.04620792553689148 
0.01993843304790388 
0.01747105276938589 
-0.03561939975675045 
-0.05729751007575799 
-0.03222924873654223 
-0.03150307551432432 
0.007398702071904753 
0.006837120431139847 
0.0005651912035198497 
-0.05529090723189855 
-0.005400796572030167 
0.0241216102759616 
-0.05289777906812836 
-0.02561766230656709 
-0.007308741041664325 
-0.1058433537133672 
-0.01257694344997452 
-0.004692666182127026 
0.04305810428345695 
0.04300893803348117 
-0.05454712193900552 
0.07485836367183379 
-0.01874648086597109 
0.1521114747182512 
0.001937121635311854 
0.002843735570787908 
-0.004666655286878187 
0.04737302321296816 
-0.009045064802255419 
0.01772062676944057 
-0.06439273330840554 
-0.02125378113166725 
-0.02112199151154202 
0.03308878031841447 
0.05404791031423584 
-0.0239811735503411 
0.0319446678964245 
0.02012268422322643 
-0.008358461799029996 
0.03984397960356566 
0.02186729828721273 
0.008715775052293198 
0.01149043196411349 
-0.02887457015509614 
0.035083977487606 
-0.1465919753315527 
-0.02417703953949288 
-0.02641950863676916 
-0.1272999468151493 
-0.05341625418165662 
0.01369296601272098 
0.05767711087552033 
-0.008629127011579564 
-0.01125857396683834 
0.0356178666634006 
0.03193225431281543 
-0.002938115896015695 
-0.08545449915829584 
-0.02607802571761023 
-0.02514778968222532 
-0.04901725782429962 
-0.06751565912855008 
0.04209332691199252 
0.04324747152021817 
0.02070723544723521 
0.04955598934262605 
-0.0008731231630727804 
-0.03599154202616053 
-0.001915935561185586 
-0.01303894985729579 
0.02944976588030809 
-0.07543168886332141 
-0.04967416676808661 
0.002244774635847625 
-0.03864016723761685 
0.009160627798141559 
0.02857143152951764 
0.006954377235227298 
-0.05704360765047352 
-0.06642842397864285 
0.03998471730972251 
0 
0 
0 
-0.06048214988557397 
-0.03644627590967445 
0.00121176200507175 
0.04355883987898025 
0.02251929908587073 
0.03709268785701099 
-0.01550272127013886 
-0.01910905469338611 
-0.01464632973309877 
-0.01774041806105621 
0.008083979694842529 
0.0120931420650273 
0.06275527926125256 
0.06111507756960615 
-0.007771838951221705 
0.003161019919901133 
-0.009929005353192804 
0.004169401204526426 
0.082558772789985 
0.03460622527711162 
0.01779176495957703 
-0.07299691010262689 
-0.04673801668350391 
0.01371602477544435 
0.03693871639805309 
0.03489953208659475 
-0.03071112921212591 
0.009736477558295074 
-0.002356681108395028 
0.01447255699726976 
-0.04027251594578853 
-0.007774771648551819 
-0.03174380642609711 
-0.03670372483534004 
-0.01802774214458338 
0.007788779249163462 
-0.03315617324669158 
-0.01476719291574584 
-0.001853934263545056 
0.06647178569590595 
0.007071828201187689 
0.02315475773825284 
0.01798532981079849 
0.03893203104741595 
-0.02728916447955067 
-0.03526691441134358 
-0.03726664686260361 
0.02919617357972618 
0.02347503587535716 
0.005326438509042604 
-0.002771309948155489 
0.003948356250590423 
0.01510787704264195 
-0.006157090922470423 
0.004155646337112661 
0.0003774260021972009 
-0.02403182285925784 
-0.08018009872448054 
-0.04139813691026185 
-0.0106713564390862 
-0.01241215199799706 
0.0132996505661023 
-0.0124989119818774 
0.1056999221308918 
0.04291103755722618 
0.04613194398925777 
-0.004035077625033986 
0.009744610322830015 
0.005650338197804138 
-0.044424105488708 
-0.01122327342471191 
-0.006706129813039741 
0.03276164091924195 
0.03391684916264356 
0.0055510473589278 
-0.08731487156215051 
-0.03385638884786681 
-0.04559381298071247 
-0.09334133217474726 
-0.04876555533926528 
-0.01642486964987528 
-0.05368073958736681 
-0.009010858474490334 
-0.03425926676901415 
0.002745956078999273 
0.0007713900725779812 
0.02996129325143103 
0.06857270326482706 
0.03100498638452694 
0.0773083129702994 
-0.02079215999988715 
0.006779404781478562 
0.0304816152392312 
-0.03538433461414901 
-0.001400329304322037 
0.002303098807614155 
0.01155199822967781 
-0.01944615767770557 
0.06187671654120615 
0.01491057360693073 
-0.08555049684099557 
0.05349107722590479 
0.1199129866941591 
0.04330544603413285 
0.05182675402500987 
-0.07102403952113652 
-0.02662418325389109 
0.006774397017102443 
-0.002838590928419372 
-0.001642169088449605 
0.001213769309773439 
0.01693802969697202 
0.04721142152182829 
0.01990436254439342 
0.01129758330160755 
0.05621206858350349 
-0.09148118319057719 
-0.0469081065403735 
-0.01919404893722553 
-0.01200881846634065 
0.01310412744660544 
0.05439811146381131 
-0.03436797096227023 
0.0988767715393478 
0.07924276837700239 
-0.02640725865274326 
-0.04735534467764892 
-0.02388349719402837 
-0.02481667131734946 
0.005458048824672435 
0.003137070187401025 
0.03925251845617408 
-0.008320418292549873 
0.01003572734550188 
0.01204636182536235 
-0.02012583893647813 
-0.008793775861702291 
-0.04039616221647296 
-0.05694635894615705 
0.007031704428995692 
-0.02010659332245901 
0.02971442694060131 
0.001565545453150572 
-0.01683844143267407 
0.0540704265516736 
0.03475228536987831 
0.04629503793342094 
-0.03110708787795851 
-0.04745810197327897 
0.07078454417218909 
-0.02964301140631791 
0.006785088826975563 
-0.0562892558634234 
-0.07531880035691489 
-0.01302101086986062 
-0.07683437563564427 
0.007980277417964251 
-0.01745906666262041 
0.005605072843274593 
5.058756487492992e-05 
0.003948800144409437 
0.0168152023807472 
0.03665555330907226 
0.02339972638984873 
0.02813764355467351 
0.04385488380803398 
0.006461902398735024 
0.01046989552169194 
-0.03304311522945052 
0.01691345456742493 
-0.01594639097590217 
0.01731661313111442 
-0.01292353421668139 
0.03445956944904029 
-0.03177354924322437 
-0.003561903446203278 
-0.008032918524541275 
0.01777849084942032 
0.009876595938424349 
-0.02229134296317609 
0.01898036702357873 
0.01915369353522318 
0.0314935328635123 
0.08003051097129396 
0.05684076395004356 
0.01043458619659713 
-0.003698473719743231 
0.02937121410340233 
-0.03716010040937777 
0.0391291041205285 
0.01291473861941915 
0.067144915103895 
0.02446776000729532 
-0.001758145726159865 
0.002571326618826291 
-0.01110192103912777 
-0.01066904129436521 
0.04322343475615637 
0.0234361722066511 
0.0668303347923274 
-0.007741668889477242 
-0.01896828050165451 
0.003274499151532141 
-0.04998298563153055 
0.05054338159168639 
0.03587120179069347 
-0.002466367085336184 
0.06455105715818306 
0.008282602793608368 
-0.01785974757475595 
-0.01224866871847259 
-0.02320046282693602 
0.01393801734128384 
0.02968803896205049 
-0.02259724349023671 
0.03521865341945177 
0.06064002993147857 
0.06474098137857008 
0.01711605683325084 
0.1160354495871231 
0.04957284501762004 
0.08219516963548386 
-0.00229428989352779 
0.00760966944519784 
-0.04426812762710929 
0.01320703602785035 
-0.02721045043426439 
-0.01758178187032149 
0.01750805666599274 
0.009760354898811961 
0.02572808030199288 
0.0365093610523205 
-0.05572446316759033 
0.0665190804049608 
0.03398303555902195 
0.02575723640878327 
-0.03181671198155422 
-0.01206016821587703 
-0.004021165164380765 
0.03722089047782302 
-0.08623801203894162 
-0.03705279799356952 
-0.03932727747543171 
0.06583849473829158 
0.04495784784221174 
-0.0002746269904890745 
-0.03546898178222178 
0.01625591488402221 
-0.05217462942665806 
0.02356484838435684 
0.04291514706720537 
-0.03820089677868874 
-0.01780638442302822 
0.008662537984759621 
0.04749434929886699 
0.01035483776975453 
-0.03403384138665896 
-0.002899480698477264 
0.07346667165233665 
0.02621451271902309 
0.05992047861234773 
-0.04110425103366577 
-0.03171517181711018 
0.02067250955865937 
0.02131000749515756 
0.06898679366715267 
-0.0265411522000325 
-0.03637932443664262 
-0.009310320328283153 
-0.00982643822164129 
-0.05193379359256419 
-0.03705911113964739 
0.03248191008426002 
0.02503088906149286 
0.01345720448096039 
0.007636685013401302 
-0.00734958830136109 
-0.01016731462533411 
0.008520711547578011 
0.01517854661174194 
-0.002836966167223781 
0.06587268987979338 
0.01052714370110372 
0.02083532943386427 
0.02643028481317041 
0.0140724578915055 
-0.003976157254592174 
0.0107322654006552 
-0.07350428961322251 
-8.112516583870474e-05 
-0.1007582438362574 
-0.04164756927745548 
-0.02641140414089211 
0.01280225564225632 
-0.01032066639136583 
0.01104082127219887 
0.02826506049826238 
0.0007553616822590638 
-0.001423112984363092 
-0.01446156387813345 
0.01388211341172126 
-0.02759738562465387 
-0.001156155278175844 
0.008856867460241568 
0.009839087009624752 
0.05118964595388618 
-0.006381898095261578 
0.003519800506708156 
-0.01675528586664398 
-0.03512225321780061 
-0.01990710294159354 
0.01601264970544571 
0.02333210071008318 
0.03464813108385267 
-0.004658854846753994 
-0.008148087665765857 
0.01277664057948841 
-0.03042922588792766 
-0.04394992382036471 
-0.004365568885899294 
-0.06336070047133838 
-0.08855507895735223 
-0.03030378974614214 
-0.03289844715279332 
0.0369395740310551 
0.0100175126076355 
-0.01400815492095947 
0.009807146999335152 
-0.04517297553877195 
0.03156298647376777 
-0.03738593163701393 
-0.02962837868863063 
-0.02163268472753925 
-0.003722620233407145 
0.02156197620117835 
-0.03493652422164339 
0.06031413334665475 
-0.04701107736393789 
0.04024746075328649 
-0.07931155763597005 
-0.1044390306964463 
0.02453123843603372 
-0.02094365554619005 
0.003549592215917784 
0.005728448716143782 
-0.01199312466247061 
-0.05184274327474205 
0.03672949927871131 
0.04496475142312343 
0.05506655488858705 
-0.03965742753905541 
0.08288820259004424 
0.06800808477754243 
-0.04201774854111116 
-0.009467362732952341 
0.01589138429758302 
0.01063552977851598 
0.009600876950855012 
-0.01255993640910447 
0.03128083367361607 
-0.03284365892386817 
-0.05455396483692211 
0.003138366434144048 
-0.008573224897844007 
0.03211898338480282 
-0.04915221695384665 
-0.03481808187429244 
-0.04305094100015931 
0.02478142661878271 
0.03924702746447443 
-0.01244104694034302 
-0.003338411877117256 
-0.01045586254196729 
-0.007309293968497172 
0.03236307317933769 
-0.002863977486282722 
0.03874813097640111 
-0.003140767332123943 
0.1008187263552065 
0.06290012725068841 
0.001521845877043304 
-0.04873650750239577 
-0.05121111675742766 
-0.02622400100921807 
-0.06941324902403717 
-0.01922807625167799 
-0.04856387098123054 
0.01550303714318997 
0.04392847024650554 
-0.01812282175738078 
0.04321845849352526 
0.02148198963752191 
-0.00123876726349101 
-0.02072829812735889 
-0.02460372753969535 
0.001168531993233309 
-0.00104776552220752 
-0.0005553272163640863 
0.0005095468811915516 
0.1015917896077695 
0.04910792054781515 
0.06282659363195418 
-0.003835611107479129 
0.001707377071898977 
-0.002257465832743351 
-0.01390909090009385 
-0.02312776625844887 
-0.007382149566908729 
-0.03237137051108244 
-0.0174907163972906 
0.004125616388790119 
0.02120466710216417 
0.01309142548279509 
-0.02177501858268138 
-0.005325721916664615 
0.01900672284272277 
0.0009807792422535887 
-0.02025533943363594 
0.02234380173454433 
-0.03453984524914394 
-0.03601510769495536 
0.01432566321476291 
0.04695027231540012 
-0.001852790443792869 
-0.009724679113651765 
-0.02346086504569844 
-0.05951558162610357 
-0.01805475119942765 
-0.01602766281803663 
0.003965400943465995 
0.05137821347031081 
-0.08722100571749448 
-0.02668698008008137 
-0.011247368051018 
0.0159292198477715 
-0.02350487656184969 
-0.02770820879588658 
0.01684759702700296 
0.005530139630473076 
0.02551463312974355 
-0.0186230572251694 
-0.01734409036875776 
-0.005732445020124192 
-0.001687589356969479 
-0.03681661517833224 
-0.0152668468540649 
-0.01720491821838402 
-0.094786981291637 
-0.0560287206323543 
-0.008243881194963694 
0.01313645235790357 
0.001931561615561956 
0.008852441916811948 
0.2078285834899297 
-0.003725260611271897 
0.2038547680297728 
0.04390624886260928 
0.03940676889823547 
0.02296219455646589 
0.02789235249883844 
0.03159226609801628 
-0.01159625224896317 
-0.02268815575168778 
-0.01193296362385492 
-0.01766911784744387 
0.02117655074764 
-0.008514658424003112 
0.008120255665804698 
0.03315518779782345 
0.03286570543722007 
-0.0416444062548337 
-0.08549715191771302 
-0.02196785328489415 
-0.03037554803977564 
-0.03618069667335257 
0.008150977873419488 
-0.01758417032593663 
0.01016553267585515 
0.03011218725626023 
-0.006345066536491208 
-0.03225320678766584 
0.02654804282815839 
-0.03726824334565691 
0.0152595030775342 
0.003187856330766082 
0.08424112938547108 
0.06877214505358112 
0.01934692651473913 
0.05081425174749091 
0.07421828840058201 
0.04593896072932623 
0.02188525343756125 
-0.006834118127579314 
-0.0005377146633978589 
0.001298990514207715 
0.09444672567769148 
0.03869734518945334 
0.006308347047478542 
0.04725877690790145 
0.04651036102371618 
0.0857739469257342 
-0.005324560816921124 
0.003771701616116463 
-0.01655748026149241 
0.04199391551504691 
0.02329517286054816 
0.009869437898214269 
0.0333473954180048 
0.004354771481639633 
0.03820691978315237 
0.03600408489898319 
0.006850865729626949 
0.01966425937358306 
-0.1946001930741626 
-0.02875350907587535 
-0.1243370950155589 
0.03284808721215927 
0.01726945555750671 
-0.02975440849542765 
-0.05822471905467244 
-0.04103822697140135 
-0.002309372235842106 
0.1337821872217809 
0.06198385340939833 
0.05599077821320299 
0.1311001981402929 
0.08607241416524335 
0.01813608412037702 
-0.03663280180474873 
-0.004502247557844721 
0.004503985823056436 
0.06860005619735561 
-0.008170893508192667 
0.1088109691414143 
0.009140487178384255 
-0.03054550692786038 
0.06801134991359234 
-0.1555499060298672 
-0.09244918379085466 
-0.02446359976321998 
0.05789544301633669 
0.06848985611452595 
-0.0235949540804762 
0.05337052701722469 
0.01041579878626692 
0.01683581298457808 
0.006034871215165984 
0.02290741702591371 
0.01300402682275485 
-0.03549191836233375 
-0.04167938068425999 
0.03118160372987494 
0.02292755367028355 
0.0210200260710285 
-0.01341901490583765 
-0.05465176497960909 
0.03966935119894185 
-0.07844173713068672 
-0.07217875674625963 
-0.04668702353089452 
0.007096806883029329 
-0.02396247281383716 
0.007545061877107096 
-0.03268236726442358 
-0.005217679387990766 
0.01653843887416631 
-0.0445321130245767 
0.07709208589628345 
0.002729103640926329 
0.0634818694046566 
0.01158414781440565 
0.008227274311158651 
-0.01736078475571298 
-0.1025646005634236 
-0.03405725703929915 
-0.04071703835460883 
-0.04778378659753404 
-0.02222749893714183 
-0.0612456406597813 
0.00697181325966327 
0.04963182531402217 
-0.01210534227802505 
0.04127746436671577 
-0.03159520846537054 
0.05822346652186119 
-0.07586830252629199 
-0.05160209810379733 
-0.04658917223215813 
0.02906699936465838 
-0.003140207551610528 
0.0007016284506224639 
0.06991872726613099 
0.04923639395263852 
0.01665198305949954 
0.05120805601646429 
0.004926517776311663 
0.04088591379338411 
-0.08859378828764373 
-0.04077548426245444 
-0.0329859584297409 
-0.01725271553570316 
-0.005454045749407312 
-0.002477378937421107 
0.05171983746316627 
0.000331627023568025 
-0.005243941917984366 
-0.009920918695323659 
-0.01174389308104183 
-0.002486974590441397 
0.00142067006430223 
0.004842104297940216 
0.003810669885206082 
-0.03589000769710968 
-0.03100975890979828 
-0.01844911272752319 
0.04084974318230062 
0.03385045824591378 
-0.02133913789810319 
0.08418167628407475 
0.02701075231667873 
0.0547619306628839 
-0.001459115020255364 
-0.005313731636335775 
0.005854710480089349 
0.03073214718013688 
-0.02546783112045117 
0.05144595545049011 
0.06453453100045541 
0.007404225768015301 
0.1029808129111128 
0.03837820382390489 
0.02760288505130772 
0.02877613958283801 
0.05615146696265639 
0.09933528119836302 
0.01952631880987683 
0.006659210817785624 
-0.06742664202997006 
0.06319181242767438 
0.06260956202368603 
0.004538467982096645 
0.09823350792448542 
-0.06887443445893918 
-0.02290296318649674 
-0.05578725963666206 
0.06689327288557982 
0.05332422721807593 
0.04453987480598173 
-0.01827505872558394 
-0.05719862407586006 
0.01165559749913772 
-0.01744628195969252 
0.00982059670803498 
-0.01409877085814454 
0.04228372097697477 
0.02723529202548534 
-0.002058405239522547 
0.00193961326943649 
-0.004083493806022704 
0.02335739277128641 
-0.08209147776303846 
-0.02872634838467847 
-0.08546282881340955 
0.08804148194763539 
0.04282918064429788 
0.00403962834011757 
-0.01733879729730738 
-0.02383679740192726 
0.01833279023341097 
0.06643294600709031 
0.03877189973327174 
0.04124827559908995 
0.07353122566227825 
0.03822150187267669 
0.0300202164427154 
0.0110779755675921 
0.01458959416481237 
-0.01489019685088858 
-0.04875013498357769 
-0.04767197962739973 
-0.02261099055928643 
-0.01315716876174826 
0.001987611804055444 
-0.02918046596236762 
0.08766713501589594 
0.07095950183875345 
-0.04768386607260294 
0.03488121399457701 
0.007209184123158547 
0.0574019176767559 
-0.01424594916181837 
-0.04566783898915096 
0.01457931724570936 
-0.04505621105524761 
-0.0205065881747064 
-0.008662174300292726 
0.09890150184233534 
0.03866506451300757 
0.1168732286439682 
-0.01064950392976006 
-0.004234907168737513 
0.01395545606186188 
-0.1484667515645075 
-0.08008364011999088 
-0.07407165386791963 
-0.1233886159619622 
0.007370529295817266 
0.06685618743595735 
0.002394038084770978 
0.009772413872302689 
0.0001741692206202362 
0.02058480374749298 
0.003754115550430843 
0.01277092718872596 
-0.02030900262425042 
-0.00902126170929584 
-0.05903597733916507 
-0.0002483293394137142 
0.001982880804489392 
0.006835858569263271 
-0.02071031368801157 
0.001464521918811717 
-0.04386708783183527 
0.002739027495576305 
0.00326748032484063 
0.006770112349402232 
0.0653187031207928 
0.02831545150361024 
-0.01526205064682192 
-0.009472178758754278 
0.0114699778958217 
0.06305808474389989 
-0.04017847316411761 
0.0002881285771299988 
-0.1101546626196029 
-0.02348856142229144 
-0.04497258107572461 
0.02158455418578377 
-0.01633780560032573 
-0.0001205222277459708 
-0.0273437715883434 
-0.08645132192091205 
-0.05757493980885823 
0.002077892684332631 
0.0761901092102885 
0.04918270552047046 
0.01047165471453265 
-0.0392220900786729 
-0.01183750541121781 
-0.01578617166166516 
-0.05891211932742323 
-0.02333431115843074 
-0.004706189487613418 
-0.008782544710893731 
-0.006800733376165072 
0.009896338838134495 
0.0684025415145495 
-0.01621816201850994 
0.06783400252817656 
0.02436282134540943 
-0.01802714873308804 
0.01936397815707371 
0.0001132962288159415 
0.01011198358600297 
-0.02338052994223035 
0.01246957524255422 
0.01974498409741214 
0.0307526236490039 
0.1148015470712509 
0.0284589949152905 
0.006986964085446449 
0.02730596412884548 
0.02239501270309362 
-0.01270369838185312 
0.0001006775310511364 
-0.0003907315345995517 
-0.006612765014571241 
-0.0210845229224698 
0.005338172383385826 
-0.06374621361553777 
0.07930640545938912 
-0.01516258498256988 
0.0582170901940318 
0.07080836133154782 
0.0486266320323538 
0.005770783578162472 
-0.01567991853300995 
-0.01483262745524356 
-0.03049235189433734 
-0.06847763404156583 
-0.02123834679350066 
-0.0549555810300512 
-0.002062045434225688 
-0.004330899257705172 
-0.02294905242393077 
-0.01326090689773679 
0.02433323210904208 
0.02052254089873058 
-0.07203863674164314 
-0.03723706295594766 
-0.02452079383003592 
-0.07919653849697998 
-0.03748790818554319 
-0.02694765828853174 
0.05665000790508123 
0.02430703678205992 
-0.0102031081069842 
-0.07837990085779153 
-0.04267550880563517 
-0.003382024452046639 
-0.03496497200187625 
-0.02439550595047462 
0.01640093583684466 
-0.06845327105615337 
-0.02981892770649358 
-0.01590352295834304 
-0.01756962968899911 
-0.009319827522401866 
0.01167532866323613 
0.06453586464163459 
0.05585114153607875 
-0.02301351409142184 
0.006116978767329871 
-0.02286070819137055 
0.0130090894975733 
-0.05173617100184241 
-0.02663186605854358 
-0.006308386902952961 
-0.09436358387410365 
-0.03169561146346808 
-0.04711757813442199 
0.007599020468275298 
0.003221233960327974 
0.009681759911290715 
-0.03185441349535134 
-0.006635367424374873 
0.01734788328717432 
0.1058504404709024 
0.07567713116093618 
-0.01408752365665536 
-0.1006058903854418 
-0.03456431136582547 
-0.04566079324469818 
0.09096339008828448 
0.04269325018040018 
0.02049969357718812 
0.06087675604217269 
-0.03430939266006842 
0.03916482496942064 
-0.03908620922164668 
-0.03530968483912808 
0.004175654120571067 
-0.008704459495646683 
-0.001858446900497983 
-0.005186074627255336 
0.01488979846027381 
0.0338284101933779 
-0.07520698780996911 
-0.008567579959186541 
0.01043755887988133 
-0.01170779179690899 
0.07845447300313949 
0.06949784484421243 
0.01234233546000643 
-0.03504368015656536 
-0.01169520100737004 
0.002484308241413721 
-0.0587618399113624 
-0.05150737407663881 
-0.02052289507173745 
-0.03394943173487491 
-0.03164086720476914 
-0.0005988407617502303 
-0.06556811632600933 
-0.04081678561345622 
-0.02396674291724897 
0.03597129206532559 
0.01883848324042279 
0.01294957785085834 
-0.03139104681960848 
-0.01455153340324199 
-0.02986620074127725 
0.03245570698356157 
0.01448213452038355 
-0.0310665874749242 
-0.0233522345172624 
0.03150722713508149 
-0.01521347479035646 
-0.05137594264928387 
-0.02235273961549456 
-0.03351760014030579 
0.09189371015579792 
0.06271609509033234 
-0.02827511962956114 
0.07414563308999379 
0.02889556866411101 
0.03952162064313539 
0.01073516912326992 
0.00246156717993907 
0.00616032849748526 
-0.04720311199818894 
-0.04476474980958443 
-0.002801565567165197 
-0.04918694126550234 
-0.02882404958969304 
0.00336986028500072 
-0.02907808498127544 
0.000911892854729988 
-0.009857207727998066 
0.02368383823785397 
-0.01253920359300541 
0.02464780672300219 
-0.04682344990532611 
-0.02007553372937328 
0.01473582685910033 
0.1099051113431346 
0.03234754029285002 
0.06907993882436295 
-0.00844593194960973 
0.01190232432878212 
-0.01076953433681639 
-0.008650583866347549 
0.03657209594577252 
0.006729129241947648 
-0.01162375992873146 
0.001472275669810548 
0.01520600475930374 
0.05563415183064804 
0.054755975663005 
0.02765043664807019 
-0.07782781739020839 
-0.006516977464759863 
-0.04934864592966651 
0.06552799500012643 
0.05943855625316583 
0.02996881144102564 
-0.03824046461297097 
-0.01862496076999641 
-0.002435462227778044 
0.02488890713857545 
0.02372819275881357 
-0.009954370987710627 
0.001279533916406779 
0.002070962440777111 
0.05234013503275324 
0.0338532669596024 
0.02251983355929102 
-0.0008797802696563637 
0.05628185117384098 
0.003879858752708885 
-0.01161826246510373 
0.0006240403345854734 
0.03410987917341152 
-0.02445099144911188 
-0.003191526434405305 
-0.01104819066420671 
0.06872507089968738 
0.03614456347536851 
0.004970861527742101 
0.05065845725464522 
0.03707069468274464 
0.002180570977783068 
-0.01037056725622488 
-0.01210287063174694 
-0.002317879313734015 
-0.02231546408929661 
0.03149623695904539 
-0.02725051045525516 
0.04516360928561976 
-0.03420653656439142 
0.001367021053448256 
-0.05999902814513623 
-0.1358858917223306 
-0.08336298130923175 
-0.02277569881400901 
0.05806454790567155 
0.05117362655959153 
-0.008867165134406104 
-0.07686739955954633 
-0.0357658399782962 
-0.0007123142378594505 
-0.03933228732798645 
-0.006023566598306689 
-0.03481857298106225 
0.02284548490923671 
0.02051510928644669 
0.005271279123921124 
-0.08445771867815036 
-0.05691756437610643 
-0.03626250531827616 
0.01639161620276915 
-0.002511109344095324 
0.01042914387399594 
-0.007093453228609187 
-0.02457618716332304 
-0.03022852601494156 
-0.08334101079589777 
-0.04678338409930239 
-0.01685285190209499 
0.005556331462734361 
-0.004473935444004175 
-0.01147701834444311 
0.00326549131402455 
0.0064247393269633 
-0.01982389130875189 
-0.0589180863983801 
0.01125378841760408 
-0.03424841331601815 
0.0161063810777626 
-0.005778114256526799 
0.01634389702804668 
0.01046586391897427 
0.01488569687890642 
-0.04414634730595975 
-0.07717007586325018 
-0.03859435818059331 
0.01678460712070735 
-0.1172194609739021 
-0.03271303256249709 
-0.0794142610801403 
0 
0 
0 
-0.022069200110947 
-0.01103087932804571 
-0.006036810657376418 
0.005770728367050114 
-0.000147798048213211 
-0.03410212039869702 
-0.08119427761118195 
-0.06681165865367417 
0.01186398049824897 
-0.0756035002129173 
-0.04430959616756291 
-0.005732537831186996 
0.03406492230995339 
0.02141267221970548 
0.03546163901711778 
-0.06320069989822585 
-0.03238818872559875 
0.001796486629994799 
-0.01769462564598337 
-0.005380953248956835 
-0.0122633580099671 
-0.0752390764038206 
-0.02676091003380105 
-0.005009778671752564 
-0.00252744170644188 
0.0244810680280102 
-0.04203857510968917 
-0.1093959895639973 
-0.008707180998877477 
-0.08596764469957509 
-0.01834571086409979 
-0.007737842603302541 
-0.02547707464746626 
-0.0759415716919643 
-0.0809492720134901 
0.0314732093615099 
0.09973087791906753 
0.03875148299530277 
0.003310820685940269 
-0.02600123275206412 
-0.02009787810351794 
-0.007619649400898974 
0.07815397899525316 
0.004215117107453621 
0.03997380216649499 
-0.05293980391626428 
-0.02950700923264352 
-0.00320917732664904 
-0.08035276052700774 
0.02161939313826723 
-0.04939033990015759 
-0.02918599905630044 
-0.01062231785428453 
0.0002707670059761577 
-0.1170402570653496 
-0.05452554529756005 
-0.0548776592212886 
-0.11497250524095 
-0.04003301049797842 
-0.04572579312757957 
-0.1053289489680392 
-0.08158872094685292 
0.01828151598848868 
-0.03765456256614182 
-0.01568960249776033 
-0.01535199730510577 
0.02135405602344037 
0.00598228273458069 
-0.002639516217917796 
0.006087173230112755 
-0.00379580998197713 
0.007694198991765318 
-0.02462958290890174 
-0.009418732587499756 
-0.02408629539822356 
0.0223949282893428 
0.03638467730387303 
-0.02316034030357885 
0.03411066796010846 
0.009916411639753217 
0.04813972830077909 
-0.007798791720042469 
0.00475841449339454 
-0.004622687087398044 
-0.01074134977962513 
0.01545623349872935 
0.01422682446714276 
0.04096971968081638 
0.04289990317244231 
-0.05254033552230623 
0.0327167406544495 
0.005480933161457675 
0.005815061236648543 
-0.07339855851684514 
-0.03030373777941465 
0.02071940382594245 
0.03705550206453672 
0.02545484580213025 
0.01636270973688405 
-0.03823149334337472 
-0.001442334612778686 
-0.02999964118405696 
0.06346142157714875 
0.04078739523112381 
0.03450745242296039 
-0.02493648289422652 
0.003972660973361577 
-0.02628227287938915 
0.03070047714395737 
-0.000650385979002474 
-0.04306537647539562 
-0.006796488366139806 
-0.006416518977973982 
0.03169493168409787 
0.0355909754811654 
0.02651024759618546 
-0.01140214795214408 
0.04183760825860246 
-0.02660451121601397 
0.05224942302114026 
0.03598170315407938 
0.03303349787672157 
-0.01211140756427171 
-0.04499391772437201 
0.008366043027988849 
-0.03676600796019577 
0.00120230248914922 
0.001299661434114149 
0.008511656463950653 
-0.07479693355639974 
-0.04621654730177471 
-0.01956987204867801 
-0.04456132379158542 
-0.01988981329467746 
-0.0006038941812391665 
0 
0 
0 
0.1076356782695161 
0.108331332500334 
-0.02283008988180091 
-0.0414091954691857 
-0.02401971530651408 
-0.002511333052062989 
-0.00779396793678671 
-0.009165866423187905 
0.0219188433775859 
-0.005878796933703587 
-0.008318408399625554 
0.01353282566048687 
-0.01637508322848893 
-0.01256235300046526 
0.01396848889127974 
-0.05661969166281799 
-0.01252584291559621 
-0.02080627634407895 
0.01468759482964776 
0.0075055211627089 
0.01672972386146265 
-0.03147211742351266 
-0.001608203658554766 
-0.009649665478306915 
-0.0001826598699216665 
-0.02205121654177724 
0.03160418567525119 
0.0608193400774969 
0.01936658992493722 
0.09402866840063166 
-0.03893928165056335 
-0.03302687337975288 
-0.002585313947780082 
0.1456366482548837 
0.107223815307609 
-0.004024288080939324 
-0.05785196025347734 
0.01346648551956618 
-0.0918280164729904 
-0.1036506752236926 
-0.06005778945221964 
-0.03079334547029143 
-0.008845570365461214 
-0.002544038483124039 
-0.007071014915617845 
0.05125400894370982 
0.01000921358690751 
0.03729850611992821 
-0.01049103279341857 
-0.01301050436134668 
0.02010688110539318 
-0.02325630051115282 
-0.08720538420491368 
0.083375082226333 
-0.01880546028564683 
0.02297880265822643 
-0.01907410666573169 
-0.02319020708887073 
-0.01599320332917889 
-0.01913713914467612 
-0.05892403387971871 
-0.03478620394151032 
-0.002379523707632445 
-0.009545482016014774 
-0.009461109885488237 
-0.003379240529988165 
0.02798636582028132 
0.006008902180616666 
0.04511222690509702 
0.005321565133075611 
-6.176111615382894e-05 
0.004993297266116099 
0.006382815059307612 
0.0002675336807471851 
-0.003498000734121438 
-0.004224852291959785 
0.007605093644684399 
-0.05558246020429304 
-0.005394240379031547 
-0.005603062253293905 
0.01703957738793039 
-0.047266366743733 
-0.03873392236681872 
-0.001397160204896943 
0.08216840203979503 
0.0110840021056379 
0.08899869198852126 
0.01499794425115863 
0.01369270747214809 
0.005750290416568177 
0.008454147775349218 
-0.01077401703892529 
0.03761582924703141 
-0.008777525674231632 
-0.004041702021160851 
-0.01234625482157539 
-0.03682066579165388 
-0.008382231490274748 
-0.03714117755819252 
0.03702270820116278 
0.03176471209822063 
0.02570582845420233 
-0.1204271954190816 
-0.06880226266453568 
0.01110209757611414 
-0.02962296684562455 
-0.009223177298693527 
0.003828174489188726 
0.0673117272530715 
0.0174379515156479 
0.06566878553159443 
-0.01304371579881636 
-0.022034994618436 
0.0001762322753060437 
-0.05110449171167891 
-0.008531394653460552 
-0.03115803895315373 
-0.04298214043170376 
-0.01300448453423632 
-0.01855727785810788 
0.009604268920758158 
0.03534699875245387 
-0.03089698241029637 
-0.0163510781323274 
-0.00402211527709732 
-0.01714430539378805 
0.07827248342792366 
-0.003366261870561923 
0.05969734763914914 
-0.1023931042364911 
-0.04426600493284897 
0.01451443718066853 
-0.03151512847791772 
-0.06703769254758152 
0.06031830046755907 
9.942998025164752e-06 
0.01924027945215134 
-0.0317403079133048 
0.06546679492621588 
0.0404653889083272 
0.02863437514643122 
0.007310428789831546 
0.002090185607384198 
0.01670473057555068 
0.0002182192132758822 
-0.003481031333388832 
-0.01241468466857429 
-0.07456530185633729 
-0.02410024003382283 
-0.05360234115183647 
0.08254746379417688 
0.01612643946105752 
0.02780744498156022 
-0.05675098158582937 
-0.0280461200384005 
-0.02331443089440894 
-0.02600237589870693 
-0.00297872075851602 
-0.03991793479985807 
0.003978063278819525 
0.005109483547360816 
-0.004369889693757335 
-0.07003734498088639 
-0.03468070668903897 
0.01880918051700656 
-0.04659711059537097 
-0.02090482443155342 
0.01939183800944596 
-0.04205970955323467 
-0.03847431874115651 
-0.0110666440509266 
-0.04568984612534922 
-0.042249549012466 
0.02132327663644023 
-0.0110115484851385 
0.008006506344355058 
-0.03585701500809158 
-0.03786099435605483 
-0.01285560479105975 
-0.004903444988690858 
-0.03088030026357715 
-0.00993764131633479 
0.01989522704710727 
0.05920219726326962 
0.05315894333195529 
0.001709306860533359 
0.03941801953315523 
0.001389798839119439 
-0.02276436790435579 
-0.0302084985898768 
-0.01209571827053745 
-0.009657553226194437 
0.04624177761571247 
0.03369989306506536 
0.03821891806722268 
0.007716066764031522 
0.006974962313649908 
0.008366847557970498 
-0.04010578744089894 
0.001270913600551567 
0.04269052662757605 
-0.01829364031301734 
-0.0009026040512337506 
-0.05418195157451466 
-0.07524820457874827 
-0.0350910659174053 
-0.001563970766952824 
-0.06592596221025587 
-0.02274336877769202 
-0.02055373762259418 
0.04311184169811826 
0.02913363922270875 
-0.03301544468847269 
0.04847439058972945 
0.03163845329636777 
0.01268056739306188 
-0.05990727458422532 
-0.03737627349570349 
-0.007950211802995414 
-0.033847064883238 
-0.01739798953726152 
-0.002107402378335345 
-0.05998609494798726 
-0.03154331811277315 
-0.02241840546094201 
-0.009642958347974465 
-0.004900259592456611 
0.002022861877201135 
0.03001981387726909 
0.003184081034542618 
0.02609372194772384 
0.0007252304424572273 
-0.003543570879362648 
-0.002173737891583289 
-0.04589168264170347 
0.01366019531252716 
-0.04272334314418633 
-0.01963945373738336 
0.002273911388767945 
-0.01589717588574905 
-0.001992292905140781 
-0.001557406833058904 
-0.007010404623062878 
-0.03964491778160261 
-0.03914154585882668 
0.09330270416908215 
0.04006837677457242 
-0.008075316676348391 
0.05045674526617813 
0.04755040644048398 
0.03163769517113599 
-0.01001061940282974 
0.04529747255701533 
0.04308122631531419 
0.01688513677919668 
-0.03938387894546056 
-0.01954151392515557 
-0.004313703314490789 
0.0783555356116904 
-0.02449129414514856 
0.08853099934380139 
-0.04882447067445635 
-0.01329278519925738 
-0.009472267097773501 
0.02976867084228735 
-0.005532191073294249 
0.009490777854510754 
0.1100174869069256 
0.07990795828028734 
-0.02641066934284565 
-0.02574839453936044 
-0.04135860013569686 
0.004783982302887515 
0.04726879237763834 
0.05277131657055607 
-0.03377587641505191 
-0.004592543839607985 
-0.0009605946944609455 
0.01241298878137634 
-0.1194801159669943 
-0.07340036300792339 
0.01156938272584593 
0.07465140503029873 
0.05998028876030177 
0.03521537877026954 
-0.01595709102600483 
-0.003509524247309416 
-0.003628132287499174 
-0.02752836718632836 
-0.02606309578834929 
-0.002294612547330584 
-0.01312519423165665 
-0.01776929466205097 
0.03984931327245731 
0.02595895645758509 
0.01654991739543215 
0.01272007155819855 
-0.01167306644677683 
-0.01299332215639396 
0.01129259304770148 
-0.09832867931666318 
-0.03807392394549903 
-0.02853707392000332 
-0.0611735850033936 
0.01806932878986508 
-0.007699297663860782 
-0.03504544972269478 
-0.003818638992552566 
-0.04954244244453933 
0.007715090550757672 
0.03078453713570513 
-0.03664418151695579 
0.02930742424837181 
0.03151348334639961 
-0.0226607958328429 
-0.01106704794504502 
0.01783628224196606 
-0.02257638223770992 
-0.05474508827260053 
-0.02972559709618352 
0.01106844638944565 
0.004477316594372943 
0.01019068033945445 
0.01981669513951519 
-0.06325000396919701 
0.03911033451590901 
-0.1174796316121177 
-0.07602721392584624 
-0.07050116242810779 
0.0368172018001488 
-0.07588146777528572 
-0.06084926051929124 
-0.002386766861774495 
0.01324352396088066 
0.01582078199884521 
-0.002470783827611427 
0.0569250019032123 
0.04908449114767971 
0.03723304563594327 
-0.07116195914421408 
-0.03874851270871251 
-0.000704478317577664 
-0.04497488501735275 
0.01551162238270338 
-0.06124908325254768 
0.05139736476234975 
0.09032962275426377 
-0.05174496303948449 
-0.1498235709930333 
-0.0566102212735269 
-0.04975403936210458 
-0.04218231700786224 
-0.01697271945269305 
-0.02761732141617569 
0.04178890912596582 
0.02546074446173632 
-0.01542992778354456 
-0.02213773226135566 
-0.02117309241445232 
-0.01068560117122333 
-0.02332819570533335 
-0.007061930746624323 
0.001329400596742473 
-0.01816532918033759 
-0.01147485045266962 
-0.01626910404070219 
-0.03055634190714369 
-0.002630575890592615 
0.01641104997928591 
-0.001373100375503751 
0.001010175600354033 
-0.01206151120966294 
-0.04614617796802332 
0.0001127001931560286 
-0.01249214817437182 
0.01761678882150897 
0.0179003591541121 
-0.02941105264840061 
-0.04425513831436355 
-0.03148612226635232 
0.01439687719597842 
-0.03040673547987384 
-0.01890204031045013 
0.04427579514172933 
-0.0006643144923822156 
0.009717142914070213 
-0.02127080288747142 
0.01751887552863542 
0.000462228557887228 
0.001304677112861178 
-0.02880918229699553 
-0.009451655475977587 
-0.02603177396955569 
0.05799461420852415 
0.02904018465627626 
0.0201116470740755 
-0.001754398541481775 
0.03806226272776016 
-0.03779330676278531 
0.002718250886539923 
0.01332640769502905 
0.001317694998917442 
0.08924732699064769 
0.03038230742842355 
0.04627198089202007 
-0.1000607687824067 
-0.07981712815316706 
0.003273892514004844 
0.04016601834768758 
-0.0003788448461242217 
-0.01644157219090164 
-0.020379669365805 
0.04082946701883614 
-0.03460261298390552 
0.070864292887393 
0.03877950583875905 
0.005858559234263309 
0.002072969128383046 
0.003323803558837603 
-0.0143180823667477 
-0.1348812068696312 
-0.08233380785575743 
0.02896003907262464 
0.04709874021467309 
0.01180877224437532 
-0.008093908545527774 
-0.03017637124573183 
-0.00393377243077991 
-0.01617656563100029 
0.002865817591986104 
-0.0116075980417259 
-0.000703981659127883 
0.0008937572046892215 
1.949501918659319e-05 
-0.00383042719769179 
0.04306579429683262 
-0.01255417424767693 
-0.01291471276356997 
0.03568979864034841 
0.0401448509898538 
0.01519487903021565 
0.04619160305527983 
0.03396428759668338 
-0.008811414466553103 
-0.02240017999410871 
-0.001430715372591039 
-0.001894747965910355 
0.003155420182794958 
0.006090451171355922 
-0.01924821102655332 
0.0321040102257372 
0.03444849704014996 
0.009621551719807374 
-0.03909413087900943 
-0.0193359072568181 
-0.00804862693525457 
-0.002952575225091032 
0.0168531803234597 
0.0007950134461213562 
-0.04518628728320324 
-0.03674999602436949 
-0.03361521002295382 
-0.05049936125337531 
-0.01703951133336987 
0.02154074202564357 
0.004697354943646208 
0.02778605702026012 
-0.04313158530474533 
-0.03724272051605412 
-0.03261464944082532 
0.02698888548009906 
-0.01876775774576983 
0.06855979516624569 
-0.02297712140460395 
0.02841842697720856 
0.06758315712651483 
0.001337002289452242 
-0.02427267554114422 
-0.006753604445322007 
0.003184787658019107 
-0.02768014100226534 
-0.01444325643286591 
0.0110771148686281 
-0.002177901962134693 
-0.0005522724426026431 
-0.004417950097972881 
-0.005381481237727925 
0.004312479232189726 
-0.01878019262349971 
0.01995547972510371 
0.01386861534097071 
0.007679741502477697 
0.0248745489892762 
-0.01513218141703525 
-0.01992238009221664 
0.04156591516924563 
0.03205752241464589 
-0.01384452841424682 
-0.009773362797578686 
0.001919738352775211 
-0.00772333792713947 
0.04748235318868103 
0.01012348323349188 
0.04003957545516689 
0.05613778085811592 
0.01894623004744273 
0.02755617267641708 
0.07468003957771674 
0.03499283357892475 
0.02179477599740758 
0.02157452089370717 
-0.0202353398999148 
0.03043822715133196 
-0.04187127674113662 
-0.01778284575265088 
-0.01016818521358565 
0.04340803312999231 
0.04452780920029153 
-0.007881560556431275 
-0.1892891739455317 
-0.0704496214351891 
-0.1089808634038876 
0.02677562681435618 
0.01759165187442584 
0.003533959040177324 
-0.00796254207771758 
-0.008193677309145669 
0.005777722482953046 
0.0151373122142819 
0.01375523790263198 
-0.01207794744308864 
0.08395504644160282 
0.01700961173090993 
0.09410612570668357 
0.07620532431460841 
0.06095110925921617 
-0.009347469762361785 
-0.007978508366616399 
-0.02513889508108527 
0.006151685921211936 
0.02622690297222745 
-0.007310519332274614 
-0.009122854907174604 
-0.0255307047552655 
-0.02531628011068165 
0.0184508179190232 
-0.03672114852278428 
0.002133355753452054 
-0.003736182554029807 
-0.0735471829341981 
-0.03519593362572752 
1.411482171060647e-05 
-0.00815866790443392 
-0.02920926197038414 
-0.05275088728375414 
-0.00973917700119799 
-0.01852488186354817 
-0.0004145215717245664 
0.06164469828163004 
-0.03017521655626674 
0.08813570990499478 
-0.003485804450908496 
0.0144240090133806 
0.02163020062827853 
0.02635546036198158 
0.02837288147968893 
0.01002992825387829 
-0.1244472768942811 
-0.04165169845327404 
-0.08630259110055642 
0.04975906803685262 
0.01309452918214876 
0.04569535283041216 
-0.02955358321061561 
-0.001142092476552008 
-0.001402264544361903 
0.01732818540977836 
0.01210547475930797 
-0.0008696179801223279 
0.01938098404357792 
-0.00604340156079531 
0.01366839533236589 
0.05508788303010986 
0.03978096829351257 
0.02201727246340121 
-0.101097898493573 
-0.04838503099363543 
-0.03461469175575668 
0.008684586828848134 
-0.02395186324983199 
0.03037950129073411 
0.0282606848965349 
0.05460209915013198 
0.04803382246293243 
-0.02719263977520843 
-0.007361688816685979 
0.0003804255205806872 
-0.07838049117869815 
-0.05229813979940116 
0.00895520917750659 
-0.04890206195697847 
-0.02607710631243509 
-0.0011247545531294 
0.02149798413006201 
0.01973833310262306 
-0.01990069475814664 
0.04571250660979531 
0.04320846143700971 
0.003740095841147954 
0.08876957063196077 
0.0701666083555067 
0.008977613476640313 
-0.02546629060778721 
-0.006975129138312733 
0.004047013346355655 
-0.009339915099689523 
0.03265994672712904 
0.01369597484557233 
-0.04441426551333139 
-0.02577234791646967 
0.01349071653001038 
-0.01654105015415714 
-0.001177521403486597 
-0.0005396413459089838 
0.0175852154380791 
0.02629935541952364 
0.01659150320979718 
0.01899277255395182 
