solver_type L2R_L2LOSS_SVC_DUAL
nr_class 2
label 1 0
nr_feature 12288
bias -1
w
-0.04500336570810134 
-0.01766821574274165 
-0.008008679167358489 
-0.02072262826325579 
-0.005166656937718424 
0.01237947323767101 
0.006599204769070876 
0.02112349133870892 
-0.009500862137938453 
0.01511242455646918 
0.02438421242738974 
-0.007873089129586662 
-0.008761185222605045 
-0.002837658831495685 
0.01737267969807662 
-0.009436578606755012 
-0.02040657025153693 
0.03861478687620234 
-0.006500985628134404 
-0.005337470480170355 
0.0247612084129166 
-0.02923961287155938 
0.001996395728118408 
-0.00505282260764655 
-0.04098038047826111 
-0.02335019734757868 
-0.00819777035158176 
0.01235989063100916 
-0.0157757783119732 
0.04030346791186925 
-0.02203983754949944 
-0.004344698243150741 
-0.01443343439058081 
-0.01441453448869325 
-0.01843277032915659 
-0.004130457138520037 
0.006793658279769265 
0.008027761131514745 
-0.005832307017673954 
-0.007036343108281746 
-0.004712189223722213 
0.0004659915571371901 
-0.001436317709750125 
0.0133220848002014 
-0.02708968502038017 
-0.03894313519808235 
-0.03423751411360754 
0.01558560258120284 
-0.009900340658112164 
0.005342933175510347 
-0.01793674185608313 
-0.03011725345755524 
-0.004333858599471835 
-0.02925672126165079 
-0.007441011522273763 
0.005866875903298099 
-0.004215038542614053 
0.015071244026866 
0.0113488702878634 
-0.006259430768603584 
0.01434660405274817 
0.01520985098903646 
0.01561548579083591 
0.02945662781293525 
0.01206556846944977 
-0.003180599371478732 
0.03802666548928955 
-0.01993237835676222 
0.05031352757628157 
-0.02890349509429827 
-0.006276985547552329 
-0.05128327015568796 
0.02574491940864024 
0.05352870969952166 
-0.024287482338855 
0.02094847875284165 
0.01878143533708802 
-0.00503477175229137 
0.009447001543858016 
0.012923391687838 
-0.006350074530983445 
0.09736349651947208 
0.02700580083925594 
0.03661625015947909 
-0.02843279328685101 
-0.03502136624880918 
0.001999959976089088 
0.03279579400882063 
0.01461767768860709 
0.0002720609775891426 
-0.02910809008701652 
-0.00985520832383076 
0.001454503995117098 
0.04900361246761539 
0.03989360104168714 
-0.0111303251566909 
0.02986673114057175 
0.01680424245327693 
-0.005292933312595075 
-0.06222212185221835 
-0.02740040548257327 
-0.01021961088942965 
-0.003420185728238374 
0.009184043835825153 
-0.01957523017926638 
0.05166996098804241 
0.01626775999176147 
0.01929274388635619 
0.03242066779603462 
0.009437167813880961 
0.03549756286676219 
0.005135725923498791 
0.0002867094537230816 
0.01670404865427103 
0.02632202738140128 
0.02510280599521215 
0.02617477230951813 
0.02081157884979446 
-0.008003556157100151 
0.039065587708685 
0.04078329579254016 
0.02232566061953784 
0.01982641771845469 
-0.018302466445111 
-0.01079306009761741 
-0.001495863393008669 
-0.001853237181761285 
-0.02087590501794471 
0.0340098640049307 
-0.03106183144681951 
0.02060420334926583 
-0.07033034253769722 
0.05636507000669937 
0.02656486156692154 
0.01618368548184961 
0.03849075466292245 
0.01288573835172309 
0.03554890314632299 
0.02959315486129317 
0.02183407704605099 
-0.008274786941092183 
0.003477884438537742 
0.01167196164148107 
-0.02750456781173945 
-0.009229326256916727 
-0.003076294409411612 
0.001580940783798634 
-0.01271654382221407 
0.0008856479822727639 
-0.005759495999709116 
-0.0422044437759635 
-0.02110731737523191 
-0.01310874690044145 
-0.07462449901812146 
-0.03913175915748582 
-0.004856710174271596 
-0.01433488613719304 
-0.001850435915558349 
-0.02828864973993224 
0.01115093975232625 
0.004324338359262988 
-0.02090612142060267 
0.03141155552513246 
0.003377935580848804 
-0.009501163470148859 
0.009819892806918995 
0.04177768425192153 
-0.005074374777572279 
-0.05272737283919129 
-0.02149142569722359 
-0.02325337407311517 
0.02468495851654624 
0.01730954935654537 
0.01512522100898972 
0.02107739069201412 
0.02195187863164437 
-0.009488286741361891 
-0.001746422030213996 
0.0268181975677812 
-0.03441428474654557 
-0.05824010334519508 
-0.02222388491397256 
-0.03382560830965842 
-0.01042777849475604 
-0.00642376628922975 
-0.01564547195148181 
-0.04365562115752317 
-0.02751214917796651 
-0.01102151515559471 
-0.05632381496918958 
-0.03078916794989752 
-0.01976992696514126 
-0.01378505636243397 
0.01215134792478806 
-0.001148307896967623 
-0.004294794571535532 
-0.0007242943583077703 
0.01786778348569144 
-0.007137183452241802 
-0.007323138439394114 
0.01195878519068273 
0.00568069742863668 
0.03247319093315458 
-0.02542651296047714 
-0.02564762101165814 
-0.001002128285197878 
-0.02225937027837934 
0.01702031825165581 
0.009390918258372257 
0.007942963822327573 
-0.003343530366026663 
0.02168524523084178 
-0.007035840020812514 
-0.0450505772333138 
-0.02776437761414335 
-0.0273270858001032 
-0.02091676565628133 
0.004547840439025052 
-0.0154406464543499 
-0.01369718496162194 
0.01902838344260956 
-0.008397728096601408 
0.04279753735759732 
0.03492838308521765 
0.01401886794557464 
-0.01411517025044038 
0.02144413571273382 
-0.03795424986675792 
-0.04886348176921849 
-0.01384485910491867 
0.02012553508079352 
-0.01673624032210809 
-0.002041040438426005 
-0.006174324642126061 
-0.01318306488945116 
-0.007114757212210013 
0.01313257730394404 
-0.04484982054137597 
-0.01575886660039555 
-0.02473467159664227 
-0.02845291203411476 
-0.01243122595486186 
-0.001294481317079171 
0.01144293484866572 
0.02598036958246932 
-0.031951369711086 
-0.008396823511425296 
0.01639936999619563 
-0.01839768160924615 
-0.02176516531294743 
0.02407848818223413 
-0.03025042819146994 
0.01225144179136214 
0.01443559815413866 
0.007930847190148397 
-0.00501232453615214 
9.334871408513354e-05 
-0.002681719410294887 
0.06513393384904283 
0.06715094243811005 
0.03315882167504297 
-0.04117787246186948 
-0.005128673322278557 
-0.02853774869936324 
-0.08772700153146042 
-0.0228041423830475 
-0.02461613529044868 
-0.04200510704357362 
-0.01703910230804124 
-0.02848136905913288 
-2.435603413339309e-05 
0.005730740398517753 
-0.01330276024135316 
-0.02401975758142739 
-0.003330384802850481 
-0.02770722696421135 
-0.05970924140342314 
-0.03594856115717254 
0.007148238373584265 
-0.04884614236745941 
-0.01949448449282061 
0.0005874854109875411 
-0.04834578606154192 
0.007294774396410179 
-0.008019216040299319 
0.04620279910042679 
0.02829216427167342 
0.01674272682900675 
0.008425826018812402 
0.01833446928805962 
-0.01344413024392117 
-0.0401630831717727 
-0.01160303292027274 
-0.01590104120921183 
-0.03801546893756468 
-0.006061959839599854 
-0.02897819562718067 
0.08050553260991328 
0.06274699773742339 
0.01403047753629715 
-0.009347989157349773 
0.005612456636831004 
-0.05227411636325868 
0.01546917769246181 
0.02839033907336667 
-0.002806148683512094 
0 
0 
0 
0.03549072752373283 
0.0669322538775448 
0.02295963826901188 
-0.01739604695750798 
-0.00546575667020202 
-0.005586227897085547 
-0.007404911973295089 
0.0001838810085774187 
0.006526311992615682 
-0.006946808977147351 
0.003586093531317644 
-0.0009206633471963482 
0.02532398058669951 
0.02764814056434898 
0.02326664734997272 
-0.03940966340358499 
-0.002303596322704739 
-0.03015881480177698 
0.02054794009785091 
0.006309175925389435 
0.01242900017070672 
-0.01318677840487414 
-0.002818303874498096 
-0.02038735051318345 
-0.008065654368626541 
0.02614175359328456 
-0.05016670906858433 
-0.06503443648480108 
-0.02674662681418203 
-0.04812911370538797 
-0.02950640589361582 
-0.01645514696391038 
0.0005673153153663004 
-0.02135156838046829 
-0.009233762009920812 
-0.01700572900219334 
0.03525138006059542 
0.02737193673102628 
0.022865117158025 
-0.04478760954313044 
-0.01910509690754141 
0.00413132675234845 
0.01142764602318129 
0.0003997529605006025 
0.01461190024753014 
-0.008511602614645335 
-0.004791229703546189 
0.01359221312526146 
-0.06381034628266459 
-0.01812478152677711 
-0.0559861752395279 
0.01462780629065395 
0.01567926441175895 
-0.007859828139345715 
-0.02401161968446062 
0.01037959555085579 
-0.01702861884734098 
-0.05453881127928455 
-0.04275257539183664 
-0.01828603361700835 
-0.01769808379606736 
-0.007697390645305139 
-0.002303337126350636 
0.007088090334058597 
0.009153780947385599 
-0.003631620625105372 
-0.04185960091508801 
-0.02150698399304182 
0.0004497941646705916 
-0.008279539210114562 
0.008941180523396219 
0.002119556216794569 
-0.02563569439896722 
-0.01783695125446799 
0.00354460775897615 
-0.06175542153944277 
-0.03072717939236835 
-0.01826799709610919 
0.02613710414893897 
0.03658626406861336 
-0.02344629586258292 
-0.01391940053203926 
-0.00752029078364902 
0.002009620983329355 
0.006591831357940974 
0.0321779050895582 
-0.01135596240362137 
-0.01080652516191876 
-0.006560404045264506 
-0.001552370794092944 
-0.0164412177526607 
-0.009220969094940837 
0.000728162109270649 
-0.02686273269415305 
0.01240378577824723 
-0.009717416642106151 
-0.003448148778712707 
0.009876074141692911 
-0.02293054420400032 
-0.002193318044903132 
-0.002087540914283599 
-0.0009953240024002188 
-0.04240497252620212 
-0.02052754441826563 
-0.004710937061400085 
0.02758012164379347 
0.01053975244026857 
-0.004090850349760467 
-0.01968082631522515 
-0.01590967936601127 
0.00196717628886483 
-0.02313778435023895 
0.0009496166129316782 
-0.01185538206445629 
0.04423355331358805 
0.01682581204216275 
0.0276320743206208 
-0.04169901997466773 
-0.01290430410948457 
-0.005721844395269941 
-0.01251909580804368 
0.006887524911590386 
-0.01233472093471162 
0.01186284923436468 
-0.002993815169736765 
0.01600848002038233 
0.01959605496234533 
0.02391818290470361 
0.006751952930478494 
-0.02175493938353535 
-0.01023070812307244 
0.0101578114343942 
0.03817735671368252 
0.03226423020440435 
0.03173598847052483 
0.03442115170355682 
-0.01168429734809008 
0.0607174797166657 
-0.05135344365844972 
-0.007328550643829315 
-0.02004184673847523 
0.002314356873812628 
0.002229746201912369 
0.01484098470726215 
0.002477920241673827 
0.007310380987377011 
-0.01190475012793368 
-0.07597235068237178 
-0.04478687193683667 
0.004784835310927633 
-0.04105039505451678 
-0.005112016611280652 
-0.02438355051112459 
0.01224149897737107 
-0.01119599990917425 
0.01622889895623751 
0.01131371365286712 
0.01498571160873374 
-0.02148791672456109 
0.0683238288468065 
0.03710748829491961 
-0.02918058247464126 
0.03550108700329881 
0.003717261795893042 
0.005995862569022248 
-0.04553527160955041 
-0.01110110837601985 
-0.01245205714466856 
0.03357244465604562 
0.01595775572016996 
0.02177015167741225 
-0.02900440266779253 
-0.01055148477777179 
-0.02596498494943904 
0.02105228667715803 
0.002663738116568453 
0.02572053581407625 
0.06005487759135042 
0.0380344585396481 
0.0274602831362613 
-0.04517741933988168 
-0.008207211458564987 
-0.0228889049831733 
0.02118067260989033 
0.03878103297347695 
-0.05643991826383382 
-0.05635542234628822 
-0.01066394554613349 
-0.02440773641493992 
-0.01500171338062763 
-0.04104080947157535 
0.05228134718138397 
-0.0124704093110694 
0.009966849770626666 
-0.0190919282133426 
-0.0647640086977315 
0.002673352066300828 
-0.05739180672504249 
-0.06504407820497078 
0.0006745189308687008 
-0.06300800184751369 
-0.03353399439204526 
-0.01438342424775595 
-0.0371406853128416 
-0.01344024494295284 
-0.01432580360393533 
0.01008404354849819 
0.02768489212726949 
0.0256950556392068 
-0.01218961555110708 
-0.03114848742512502 
-0.01541479403733621 
0.006132036458925786 
-0.04678833660715646 
-0.01870757644417141 
-0.01391873872264041 
-0.01863585691139045 
-0.000354079283042372 
0.004287452156063667 
0.0160328408706115 
0.02381310035197904 
-0.02839088814171476 
-0.06016551722398315 
-0.04895736365498209 
0.0469879157486995 
-0.04255296402128218 
-0.01211009449975177 
-0.01142546172828874 
0.06187813875934151 
0.05229372116211052 
0.04248275658581712 
-0.02693817767470728 
-0.01087119326889318 
-0.009538354102318973 
0.01212174221239243 
0.0159833772579383 
-0.002102870461651642 
-0.01679497575570116 
0.01328780622953411 
-0.04026876583171673 
0.04383212893096775 
0.04908254419583744 
0.003865650718258334 
0.03479478240533544 
0.02006866384709471 
-0.0004232955615336255 
-0.03841464722445767 
-0.01947102268040406 
-0.01287861755034571 
-0.01556097271488057 
0.004897112506453399 
0.005250351384664657 
0.003309430451882439 
0.008398700775693341 
0.02267287709044949 
0.001720755221665217 
0.0003730785944823974 
0.02501100877865038 
-0.07964518609128662 
-0.04966834983586625 
-0.01794805323392999 
-0.02080384632842435 
-0.001666027255325172 
-0.02943203964829831 
0.02172046390144609 
0.04540974436741438 
-0.04047000483025859 
0.001969403670780005 
0.01142831347071438 
-0.01053180332349398 
0.01300957790059347 
-0.002403169279186913 
0.03440125885089319 
-0.01925101607539492 
-0.009791454333473216 
-0.005821971601713237 
0.03363633419418167 
0.01585007753932784 
0.0004989734354004558 
0.01070910331542969 
-0.006097856096994494 
0.03919215264981264 
-0.01846882806240816 
-0.006520500218055759 
-0.01580552562975585 
-0.01076588320328367 
-0.01174052119913002 
0.005354848869729636 
-0.03199375185074115 
-0.009296992770833727 
-0.004807502519951409 
0.0217950633334138 
0.0008680339845297101 
0.016118598645277 
-0.02082518176037857 
0.003601914581296238 
-0.001902107426759452 
0.03245773443273386 
0.01916638054071515 
-0.04158854068449717 
-0.04453250430903811 
0.0008027144259472981 
-0.02508462219061228 
-0.007991388258381063 
0.01508014736443521 
-0.01150871650418269 
-0.01492877004142861 
-0.002517228293725464 
-0.01721470642051419 
0.0282211231564449 
0.01737204644340001 
-0.01584540469145454 
-0.01510690756869474 
-0.00654312854212645 
-0.004908029967509494 
0.04831151547416646 
-0.01849333006101147 
0.0787123788537426 
-0.004543139493673209 
0.001648336239317625 
-0.01185210518850605 
-0.06587938446560655 
-0.03017751002661969 
-0.01829315726394599 
0.0668160902032169 
0.04253289147153941 
-0.01032613250433219 
-0.04422484666051856 
0.004212875439366252 
-0.04721166114702445 
-0.03929058724950516 
-0.0001060042456291407 
-0.02138939075671025 
0.08036585607496345 
0.04160847247051728 
0.01589357751135663 
0.0699701486053617 
0.006405223697144588 
0.0950757805654962 
0.01296652809281815 
-0.003124097206433642 
0.004152298116787957 
-0.03418788367894228 
-0.01623918371572101 
0.001298549798056914 
-0.0718157850550207 
-0.02835273086024538 
-0.03365478932682447 
-0.004596228983447504 
0.003469300664693404 
-0.007662526077896233 
0.04408446620951682 
0.01818838097931647 
0.0511591871286815 
-0.03766436992629461 
-0.01878709854483521 
0.009312293957670604 
0.002303513374979709 
-0.007146122730260272 
0.02270879606128612 
-0.03487197077229171 
-0.01464966585704211 
-0.02065636331462455 
-0.0380352356797729 
-0.004750807858722232 
-0.02020411414653394 
-0.00432667661648631 
-0.01444840888317715 
0.00756981040619202 
0.004372078766232349 
0.01217903554675628 
-0.02152955862003774 
-0.03812223019024581 
-0.01103246253307969 
-0.03374592236144583 
-0.02436882020003386 
-0.03333713868230165 
0.02635085438690843 
-0.05212016252932022 
-0.009398484292915446 
-0.02144979021474958 
0.04342525828383288 
0.02444584966505021 
-0.002288397964635648 
-0.02231818347325847 
-0.02155836917855272 
0.005835652780836495 
-0.06638246060183166 
-0.02721863489689569 
-0.02280634884761737 
-0.004005123805226988 
0.002417072774202163 
-0.006750034839778284 
-0.02939283855120652 
-0.01262978485738102 
-0.003728136156814404 
0.01042954200321127 
0.002780516988770681 
-0.01732447946440942 
-0.01003888956651717 
0.0113454193402882 
-0.03838218527164943 
-0.004004506800459172 
0.0008372644931459015 
-0.002295650176849249 
0.01641635384694229 
0.009186796912209578 
-0.01685106867461182 
0.01438190974359958 
0.02495082498902926 
-0.05036140852655372 
0.01149308649307292 
0.01611432184857191 
-0.009884792568076275 
0.0143483153131446 
0.007051617084573934 
0.02861879594273259 
-0.08184048194432271 
-0.01517565493228249 
-0.02431427137224933 
-0.00681318798130914 
-0.008957045275995319 
-0.00277886715058457 
-0.07274659126088694 
-0.02247571748019537 
-0.0357724887992151 
-0.07062621849155758 
-0.00495913067103401 
-0.02431992245936219 
-0.05244282017358314 
-0.02716496088220283 
0.01886926240836753 
-0.008264446441904029 
-0.02106308028903974 
0.01411640458026737 
-0.06982390954543624 
-0.03058470611080942 
-0.02016185252960404 
-0.001342917558777554 
-0.003389707880084725 
0.00721888487949407 
0.05128415073068742 
0.02962407233915134 
7.775989910313363e-05 
0.009095602134312018 
0.006846061403521201 
0.01910483174124016 
0.01828195570645241 
0.006374265393645016 
0.00566006290446863 
-0.004202372477046483 
0.0005560677264794702 
-0.02087836537549494 
-0.01044462319675881 
-0.005191653765755024 
0.01445161612695939 
-0.002285322994006235 
0.02291259866716522 
-0.03327835637183321 
0.04329686519909567 
0.01576935621418341 
0.0589864678473415 
-0.01001398705154608 
-0.004133833496711027 
-0.003807385655019941 
-0.02231096002541983 
-0.002490876960351533 
0.01159256731531046 
0.03401643566261107 
0.004515027574846312 
0.01848197843101928 
0.002038242266273848 
0.001969202702819525 
-0.004220937533663064 
0.0205004197027668 
0.00924205694694411 
0.02092234582015842 
-0.03207712882026774 
-0.01394973069859095 
0.001362524944557393 
0.0107718626114972 
0.01213640585195275 
0.0177106031950726 
0.0175988389425908 
0.01550900230045829 
0.00557836214134377 
0.00376118168293571 
0.006481026510123496 
-0.02355751371065964 
0.05273546437276878 
0.01646831576148198 
0.04661888354605668 
-0.05096133571292407 
-0.006658768950247357 
-0.02969396562673758 
0.03198073250137647 
0.01797829667898065 
0.008094475179286872 
-0.03668631258912371 
-0.0266328406078097 
-0.02257117700759428 
0.002048151673044426 
0.009542442694346646 
-0.01623119435415851 
-0.02736116606038461 
-0.004823118601560696 
-0.03414875585840058 
-0.0299345823541817 
-0.0161624580660028 
-0.006018014973680499 
-0.002062886808344508 
-0.008164675507965161 
0.01319632637541291 
-0.02598044165139015 
-0.02344900504692052 
0.03074954141472137 
-0.01443955912310235 
0.004719288793604246 
0.0004195347942673746 
-0.0007658306421345027 
0.001355046804106506 
-0.006033743147118699 
0.04684807515438483 
0.03100074585591315 
0.03099331599005523 
0.04571076562300329 
0.02073941843389489 
-0.001761403831294337 
-0.001680786014227793 
0.0008184352461848469 
-0.004670816608430796 
0.06448644467461551 
0.04352157058014423 
0.007959715315981369 
0.04863271452779005 
0.02890308014270655 
0.02628278471721099 
-0.03456181637966634 
0.007307261161289679 
-0.00528501986885942 
-0.01466123022694674 
-0.0007163320637438262 
-0.0009542610304591544 
0.004511761348273426 
-0.0314869905963483 
0.06447527127292468 
0.03034744166518453 
0.01517945694886629 
0.01687808614544319 
0.0009764159390587175 
-0.02488237927198993 
0.03379519809527241 
-0.05501654436783972 
-0.01568151565388134 
-0.02624173998374293 
0.01552515252770178 
-0.0003098660581603168 
0.01276658991200214 
-0.02030372490009972 
-0.009506111722430977 
-0.01841737036575521 
-0.01085301329275961 
0.0003831056641280581 
-0.002460603426012727 
-0.004221221630925157 
-0.0007442656452298057 
-0.01539581682440223 
-0.03132650420057279 
-0.009750105818413084 
-0.01596806187508692 
-0.03666395439118419 
-0.01438014884766224 
-0.01088516113603764 
-0.05841667945883261 
-0.02163259572726934 
-0.0325129673019138 
-0.04946247830385387 
-0.02648512912528035 
-0.006363852720021536 
-0.01480329074331576 
-0.004049578733956596 
-0.01296315118744365 
-0.04135938177074393 
-0.01913594984590278 
-0.01459631978238437 
0.03227044835886302 
-0.008362435187716927 
0.01927284035134122 
0.02806169357049736 
0.01341537461118974 
0.009266583210565204 
-0.01365562548804857 
0.0009012215200599621 
0.004517212223035646 
-0.03469229816386545 
-0.03902744079093708 
0.05104173227688075 
-0.0618987618886381 
-0.03115277609664095 
-0.01245164587077969 
-0.003778618814773278 
-0.01026864380150999 
0.02576068488846798 
-0.1083363177738769 
-0.05470144517833694 
-0.03423326495227714 
0.04514623428879971 
0.002575071818261855 
0.02917598188241847 
0.05302900729036581 
0.03686484078028746 
0.01986147386484698 
0.009882016768806156 
0.004904789428150109 
-0.0178261872781751 
0.01980731968418175 
0.007538623085466599 
-0.01279531365157386 
0.00319547316756081 
0.01570141255164268 
0.01027767580313196 
0.00408210519371584 
-0.003950335110376632 
-0.002600115230368523 
-0.01894317143281506 
0.00406160517084663 
-0.02709936297866297 
0.05826386267898866 
0.03165263338933588 
0.01838568054878651 
-0.001637578799269593 
-2.709351764504048e-05 
-0.001705110926949575 
-0.0104389455457033 
0.001293541734810421 
-0.02115808954014521 
0 
0 
0 
0.01464853845367524 
0.007864522039563735 
0.002420867348279897 
0.01404703579632199 
-0.003549177591136318 
0.01138836229052545 
-0.05242001424926586 
-0.01972127466870826 
-0.01793961366054884 
0.01176773061742219 
0.02933144516261693 
-0.00919788089832866 
0.01170709019642183 
0.02751590575699327 
-0.03027531154266681 
0.006528440978373445 
0.01147427439972823 
-0.02409111453895449 
0.0006537179934063658 
0.006586956990072387 
-0.00729771329412444 
0.01080455971683896 
0.03900850201548269 
0.02344606185229035 
0.01040228219622229 
0.01421753351749643 
-0.003284159011218576 
-0.0115712114115976 
-0.0008742046615153465 
-0.009199567988522816 
0.0324943531048484 
0.03004971698307641 
-0.003515814194692081 
0.04400692230705901 
0.06081395198843731 
-0.00617963314121822 
-0.005830379317040229 
-0.001105877509667869 
-0.02123883029535104 
0.03021647342231265 
0.01415670975194656 
-0.003557124752452396 
-0.003672632496491574 
0.00519311652204598 
-0.01098716694204366 
0.01812950172695832 
0.01402658703473978 
-0.01070061645178996 
-0.02298379805548253 
-0.01957152692787045 
0.002190038315427203 
0.1319257319484103 
-0.04331246622615845 
0.06111872502057579 
0.06197723266644975 
0.04257771909298411 
-0.01060278394155404 
-0.04083700934327603 
0.01665136436821385 
-0.05097956296952591 
0.06251749773401676 
0.01842920593176569 
0.06353506896585474 
0.03300916325525316 
0.02290880358413878 
0.01309589590479305 
-0.04376237904691539 
-0.005362596851588831 
-0.01524153706198319 
0.0396674323576934 
0.02839905242557318 
0.00798793894700923 
-0.04475778990451837 
-0.002885441430082893 
-0.03462698298026457 
0.06343123647384943 
0.006654097590550493 
0.1099275578261082 
0.0009425578309352461 
-0.003439695117284156 
0.02264996156986381 
-0.02260780300648119 
-0.01009350183220622 
-0.003233195190399092 
-0.01213525259591231 
-0.002130461572894873 
-0.001635451044540878 
-0.02658360691437251 
-0.00697242413816132 
-0.04767063817393203 
0.03854132050473316 
0.03285640587806764 
0.007872180897524887 
-0.02743847702984206 
-0.02563795851664559 
0.01196778553968755 
-0.001917289837984831 
-0.0009436562553703987 
0.001004299175719778 
-0.03449075511325077 
-0.001700839839779497 
-0.008740236534605338 
-0.01672147144792288 
-0.01037213664126717 
-0.004030743626457855 
-0.006989181828646322 
0.006514791159460635 
-0.0181119913233093 
0.02850679454801973 
0.01941433645778064 
0.009418588433846763 
0.07373573953690046 
0.06567797642181537 
-0.01342443172302106 
-0.0346858136802691 
-0.01015316637698344 
-0.03387693396763051 
0.05285298826420425 
0.02468838050777028 
0.01537559222581054 
0.04690738910515929 
0.009102650516329717 
0.05085984982734335 
-0.02432927326607359 
-0.008330601053383494 
0.01946467967247889 
-0.01250437000824857 
-0.002471641603012672 
-0.008445821655514461 
0.009734157769339264 
0.01108246976454107 
0.01663043267384911 
-0.0001674209644982009 
-0.00127305793934757 
-0.02039725850862109 
0.03521198106053468 
0.02533773131880952 
0.02605847067085972 
-0.04279626089843561 
-0.01426523927506349 
-0.01819530360597542 
0.074595714721286 
0.03884419651944139 
0.06200102411877251 
0.0230678682525864 
0.01392336306673433 
0.03104043210508115 
-0.06155014516428714 
-0.02578690298290799 
-0.01273067539641403 
0.03865741849651385 
0.007700857409396212 
0.0557341720790351 
-0.00704711871924147 
0.0002703759806996288 
-0.01478625527582306 
-0.03263655974271889 
-0.02753702188271363 
0.01479217322175099 
-0.006559790148073219 
0.002136953834962167 
-0.001520759957764037 
0.06355307475897039 
0.03812315012549038 
0.0167168484694572 
-0.01639463647326225 
-0.001864581063205016 
-0.002764600794174153 
-0.01670418287651428 
-0.0003366495513731723 
0.002312532380764848 
-0.07684954448267649 
-0.04732821334531333 
0.007282470216457684 
-0.03132067226641011 
-0.03009814197198427 
-0.011268841727207 
-0.01843251769741296 
-0.008587950103397893 
-0.01329750630902157 
-0.06592847323671455 
-0.02800411395489046 
-0.01018900724136733 
-0.01807128480065886 
0.02941656742561493 
-0.01412342142319884 
-0.03097577870269193 
-0.02079390972011842 
0.01226168024780281 
0.03546115567617427 
0.04109804495871129 
-0.01651955591981458 
-0.01538555973566725 
-0.008695070418281674 
-0.01548974398234522 
-0.01642572131396157 
-0.009381345616451185 
-0.003855847275637717 
-0.00594896635344208 
-0.01228829658405802 
0.01400251034771765 
-0.06007568730431111 
-0.02287282002687261 
-0.010857092608263 
-0.06761346809904252 
-0.04800086150106075 
-0.005384000183156326 
-0.05801728050292657 
-0.02117140789952408 
-0.02412368522510747 
0.07989449734373219 
0.05202726240789289 
0.01608905096340003 
0.004232087717177071 
0.01590884524027891 
-0.009683564765494377 
0.04308955862818659 
0.04533284626771482 
-0.0114171830467453 
0.0002867225034466962 
-0.006984017415535542 
0.03544017038597937 
0.03686085074472686 
-0.008458873901521082 
0.0117318310637708 
-0.005500374651044542 
0.002259191129816028 
-0.006978689048564761 
-0.009593106485594544 
-0.004250372794006143 
-0.0151980813677991 
0.0623018591605474 
0.05484825616437716 
-0.0122460664780755 
0.01261858949454353 
0.009686218352888857 
0.02151429363707207 
-0.03650842669602118 
-0.01394545863649617 
-0.03556910793485915 
-0.04553716052523916 
-0.01237899271275119 
-0.0180744893495615 
-0.0183523659278671 
0.008043637654970856 
-0.01112544309767218 
-0.02723407778373077 
-0.008541965213562243 
0.0004401452668201032 
0.02736712870244022 
0.0005042059876526766 
0.02145198237187854 
-0.006639395591412602 
0.005132408267634609 
-0.009328095584572297 
-0.01328590012752932 
-0.006312385606092143 
0.001909728559503924 
-0.01880233242256853 
-0.01431510585123833 
0.004992609302103076 
-0.03489925525833446 
-0.01669378917690704 
-0.01163077293568367 
-0.04322841935133154 
-0.02061545480387841 
-0.01496090011653491 
-0.002945415609546839 
0.007899779708037577 
-0.008340470166543764 
-0.02169210466402575 
-0.007068478105596925 
0.001932869327961738 
-0.05595403631277943 
-0.02332178321898504 
-0.01977958196829191 
0.02172163033087956 
-0.02045431116625315 
0.02400020576794777 
0.01499652409281154 
0.01997468285324292 
0.001423642403591302 
0.05546026691446599 
0.04438299627129513 
0.03441412034896873 
0.06792856897563629 
0.04841053171780511 
0.02321433255469688 
-0.02021269810400375 
0.003122859825482752 
-0.04064962920977822 
-0.02941511488867686 
-0.005305199263344099 
0.003849852955654721 
-0.0637602748180874 
-0.05329986172578922 
0.02788990945185255 
0.001265824806417404 
-0.0001655497056818927 
-0.003432230877324809 
-0.006422643564737584 
-0.004944183434234866 
0.01420829307753571 
-0.003518955137367513 
0.01199727720543136 
-0.0492388263360052 
0.04290931340684587 
-0.0007546468817578253 
0.03064133321053285 
0.007469412414611798 
0.01245883641315812 
-0.004019131650757797 
-0.009729438721553244 
-0.01606161742817719 
0.007337306487711161 
-0.02770220264708098 
-0.01024716660505274 
-3.073110436346025e-05 
-0.03356219380999612 
-0.01352933223966691 
9.413647955847027e-05 
-0.05554619322098425 
-0.02898803200436537 
-0.0286535464007646 
-0.03237348299549159 
-0.01523738445646821 
-0.006708536361443784 
0.02770747784387526 
0.01371371535724321 
0.01474144839131909 
-0.01486000241343534 
-0.03380708327071974 
0.02594354309887196 
-0.01624949256412608 
0.008102180568236242 
-0.01195910334138515 
-0.03101576240334008 
-0.01113339058819899 
-0.01183015623144119 
0.007881904129873413 
0.01544550787149713 
-0.01235644881554494 
-0.01784330369736944 
-0.002739459243373992 
-0.007667725009640606 
-0.03114639597280455 
-0.02308612816494626 
0.01762180025897603 
-0.001140233663788063 
-0.00173898795747306 
0.01236652501710246 
8.219130535990983e-05 
-0.004963078592320853 
0.03859153966869439 
0 
0 
0 
0.009211858115809816 
0.01427526918502932 
-0.003473683531075563 
-0.0593299611026367 
-0.004240370443632849 
-0.02233180585135303 
-0.01324330137975875 
-0.01437863700490751 
-0.02010313462288995 
-0.01560256022575167 
-0.01937824782926421 
0.01854402112551474 
-0.02159015823227341 
-0.01137052213921171 
-0.002694098323927768 
-0.01817864129975566 
-0.01421451007595188 
0.02518840674207647 
0.05825166474141065 
0.01996281582577228 
0.04854504521324087 
-0.03187603170401155 
0.007430720116948239 
-0.02877805731618218 
0.02165580186092519 
0.0004391854553831406 
0.004318951099857732 
0.008208349794257178 
-0.00521441695084587 
0.01692740158305934 
-0.06320818372815186 
-0.03088915863935019 
-0.005346078876335925 
-0.02433330434251378 
-0.008402056958085031 
-0.01043661884196868 
0.04824470882606604 
0.04947327933099751 
0.03103937967032604 
-0.01883242120206408 
-0.02318861472375871 
-0.00519143178027563 
0.0627748434094811 
-0.03291086945028887 
0.03623551342494827 
1.021381362454775e-07 
0.003678715114386194 
0.007833327503849841 
-0.003610395415581367 
0.01138540911481697 
-0.0181125201674026 
-0.003358452988599667 
7.84357557874213e-05 
-0.00555960387656092 
-0.04630873207118774 
-0.02529291087011629 
-0.01350377365694076 
-0.05152427759340699 
-0.03234946270486343 
0.008175599772560591 
-0.02798494392038975 
-0.01992824824205 
0.03865001905687006 
0.005045582021982276 
0.002776406180641166 
-0.001250900729201517 
0.06943011482939861 
0.0306801999425695 
0.01630106386743709 
-0.03584803410507011 
-0.0317180656266455 
-0.0110510852618328 
-0.03088380988381854 
-0.0141900599868137 
-0.005464649896797122 
0.009386034156905627 
0.009576367070122375 
0.001003974137000352 
0.008635697622120599 
0.00499494809551073 
0.001660494168364714 
-0.07406228529681373 
-0.03016010660157075 
-0.03032219061807621 
-0.03929570469042597 
-0.01412075697954199 
-0.02576460854767657 
-0.05915361148330714 
-0.03472098779930254 
-0.03300042608258506 
-0.02682468616013373 
-0.001473670865394542 
-0.02609245936896034 
0.03643240489978763 
0.005986254133964221 
0.0255994206562033 
-0.05510704571930909 
-0.002792215640218683 
-0.03437815420041362 
0.01157329408442933 
0.06591788016488526 
0.01154043388941434 
0.03208704203366086 
0.02791709897601159 
-0.01789667980108254 
-0.06447613906845794 
-0.05241435991243263 
-0.00230376431012126 
0.06714960285385049 
0.03919576219004728 
-0.01756784152841609 
-0.0007381510609692096 
-0.01161740859854853 
0.06521174150639142 
-0.04313127958707341 
-0.01461773842773277 
-0.01585557505709426 
-0.01790643272630485 
-0.005641475597054939 
0.0004313374728860022 
-0.003804186181819471 
-0.0008207332717705351 
-0.00565616355886168 
0.03285768207337909 
0.01789010444656484 
0.01284110538299628 
-0.0217091555112491 
0.01023856065300624 
-0.029772281323157 
0.03492992832737229 
0.01875393567395202 
-0.02006301004516101 
0.009562664592682561 
0.01308541615455483 
-0.02696240290107805 
0.01323990285069445 
0.004837484224681732 
0.001341392524911305 
0.05067506633646222 
0.01228031202976327 
0.03912767399605259 
-0.005556401062675715 
0.0008589969124303617 
0.003712837241352142 
0.05612673288985398 
0.03708208484196777 
-0.004814939170844615 
0.02431634007362424 
0.02511325457663659 
-0.01554353359722739 
-0.004975245206293066 
0.004921998841015765 
-0.0301766933288114 
-0.03081954502231255 
-0.02372003811808554 
-0.01348158764935005 
0.007139348659655804 
-0.008143346807615442 
0.02825249910399378 
-0.02579740561349702 
0.002185190483176821 
-0.022174199913576 
-0.02024619515863192 
-0.00760512446408168 
-0.008790486624227848 
-0.04957491630356778 
-0.01240021911910345 
-0.01102683060109839 
-0.03074097534312449 
-0.01872696365783605 
0.0002412254869548126 
0.01349553234036865 
0.01307966295327257 
-0.02048593038395589 
-0.01804774915044862 
-0.005491144079442578 
-0.009459187736864128 
-0.037367537316336 
-0.007285104360561711 
-0.0264024081502741 
-0.06225588821678556 
-0.05087298585796479 
0.003329043617256221 
0.02135508975218464 
0.01581901863127358 
0.01069300588869359 
-0.03325429496807929 
-0.01704930153371749 
0.005791515241427826 
-0.01217782356672032 
-0.004345014731283858 
-0.006445438372145808 
-0.03028218079132233 
-0.01361752447468176 
0.005185883239327746 
-0.03226067185973441 
0.005101745471725515 
-0.06328158881685145 
0.05478134708811093 
0.0338512232411555 
0.02775420557130544 
0.01690161029593644 
0.01400873454556327 
0.004388650847900927 
0.02341195785472093 
-0.03511488814924429 
0.02752915297738545 
0.01128045720945987 
0.009930548224297156 
-0.002300067280377741 
-0.01041681386076591 
-0.005304006309603268 
-0.002188335064150172 
-0.06173722360629628 
-0.03927736857135885 
-0.01577742869389527 
0.01397997279770942 
-0.003684543248782758 
0.009373588783843718 
-0.007618178320352325 
0.002407297522538853 
-0.02075251093155531 
0 
0 
0 
-0.015870884621276 
0.008834874473244082 
-0.02274403332411412 
0.02413733548778513 
0.004883575750215639 
0.02535598470696541 
-0.03691200037587031 
-0.004300856027378911 
-0.008612631892754671 
0.005465108770404016 
0.02382944381519495 
-0.004758520450819267 
-0.02221729671346464 
0.01116555186602488 
-0.02414212610820045 
-0.001052713401210815 
0.007041453779050925 
-0.03387646172768552 
0.02178430496721902 
0.01766003029076596 
-0.008413348252927718 
-0.03187160823460274 
-0.02015949376060477 
0.004370825830052142 
-0.01802641924968773 
-0.003167489400387923 
-0.01354167769266812 
-0.01252261658670438 
-0.004809619135341927 
-0.00352548720049341 
0.004599052946734434 
0.001193454315396236 
-0.009530735206889334 
0.03169013517725136 
0.0283786202507187 
-0.003421633058215423 
-0.01114174199702801 
0.01920319729592962 
-0.01827362826321032 
0.05150969466848269 
0.03398061097336743 
-0.01794968418154712 
0.02769134878488968 
0.03938153832945289 
-0.004746713840644589 
-0.01739382343383214 
-0.03054748797779723 
0.006834670045861658 
0.009471647473341158 
0.006189843412110348 
0.01487476923887102 
0.02666009184462224 
0.01509037035081826 
0.01591978492485898 
0.007285601211954197 
-0.0001433275965691191 
0.02384775535592595 
0.02526986538686657 
0.01958142690835056 
-0.01595314132149354 
-0.0363187855928205 
-0.02032808646760092 
0.007346794392385564 
-0.02612901128475054 
-0.01090468555985795 
-0.008770690234654367 
0.01729721680555955 
0.01234773218217218 
-0.0303117434417902 
-0.006800937298969548 
0.008917382949097309 
-0.05575810387973804 
-0.02549864220410085 
-0.01287742250899534 
-0.03177096524180593 
0.02049542270453814 
0.01642427937983031 
0.009232373242411499 
-0.02008178062583758 
0.003101118054497517 
-0.01873406650096971 
0.01368726559201193 
0.02540585869407409 
-0.02045428235900187 
0.04464994290877115 
0.01615267358280058 
-0.0005891434811342403 
-0.03363495044565681 
-0.0009410593486757482 
-0.03425307294337401 
0.02563116708420088 
0.0112921998714518 
0.008397362534665559 
-0.02445437709705395 
0.006511427793907799 
-0.02976152479721551 
0.003667619410914388 
-0.006281563330084804 
0.02190988955651946 
0.0008149030593561424 
0.02723555169999086 
-0.01699824522048646 
-0.05876869862383438 
-0.04669113622579646 
0.007284357433734606 
0.0004509923014997525 
0.001565723466561649 
-0.006231462945921213 
-0.01419716292051585 
-0.005526742717721008 
0.0058838713954939 
0.03335920039735226 
0.0371991288635146 
-0.01681925870837764 
-0.04110530435130957 
-0.01675502134262031 
-0.01072495786706814 
-0.04161664667100287 
0.02068782241020611 
-0.03494222299550753 
-0.05781073537497301 
-0.007750018156808862 
-0.03266046556206688 
-0.04648802693211 
-0.01371122562175918 
-0.02192175254782846 
-0.0151427749354783 
-0.005877055695573383 
-0.00110653991255604 
-0.05398706118660191 
-0.01610007232346168 
-0.0205242126691629 
-0.02356473144358703 
-0.01240564610294257 
0.02671305837632832 
0.008094759567555098 
0.01339717124693374 
0.0007762103546197866 
-0.04283505080283834 
-0.0170413831814078 
-0.005913370809550537 
0.0006281270807369546 
0.008330594132569815 
0.004164839641395936 
-0.03086931043740742 
0.01310755351819057 
-0.04168950956312215 
0.002364321168514489 
0.0006474202750623204 
-0.0178503698261125 
0.01836256071630344 
-0.01202643745823769 
0.01378051426346498 
-0.009034175402175161 
0.009431332507711629 
-0.04562012664888779 
0.03009734821776742 
0.006541207214863628 
0.02470208561771897 
-0.0631213094918967 
-0.02285154862137001 
-0.05576500330879082 
0.03390947887536767 
0.009937925899777756 
0.03383373110175335 
0.03470101017698143 
0.0115313767551058 
0.01643410729358805 
0.03191714726524623 
0.01813697232536954 
0.01143417995280291 
-0.008143606370555112 
0.02440050806438942 
-0.02666767981341006 
-0.03378385800254138 
-0.002288485247798709 
-0.03650368212763064 
-0.0235314198002446 
-0.00613847253213712 
-0.0043358005088281 
0.03959310286634832 
0.02077903762580422 
-0.0009321146703222501 
0.01306972380731091 
0.007470804025705604 
0.006240866896813936 
-0.002192255284750173 
-0.001028664285024169 
0.001193740852154798 
-0.038542475102582 
-0.0315585690313252 
-0.004742316507035003 
0.02641551970690809 
0.02205634657312693 
-0.01813777373089077 
0.008256221434423387 
-0.005830808579348196 
0.02100080910149886 
0.008207511804157082 
0.01466712475817211 
-0.0185305776563554 
0.02131299624571854 
0.00877389150772822 
0.009795475674682861 
0.01347738741388526 
0.001067398341167309 
0.000195078802835449 
0.02377830495884098 
0.01050105295556163 
0.01516391064845584 
-0.01625217486990968 
-0.007477552661178487 
0.01416461262924759 
-0.06461084049495636 
-0.02744912189215819 
-0.01797290758759689 
0.005799728835451698 
0.005470354174208693 
-0.007871081415998987 
-0.008916726388422157 
0.01712543935466752 
-0.03858571926331075 
0.003430453051087996 
0.003995830350154134 
0.004176243180505321 
-0.04878296685190704 
-0.00217127506607313 
-0.02185177664575652 
-0.002427794643818989 
-0.0009585634846056267 
-0.001459873516366804 
0.04653094631707176 
0.0148715337605247 
0.03644878733671766 
-0.04099397261598626 
0.009979381742086473 
-0.008744187055036757 
-0.06271413304195327 
-0.03050808766219031 
-0.03912985050712506 
-0.0005089184283388684 
-0.01258875543727756 
0.03988997978687834 
-0.05714937830890523 
-0.01324058843852087 
-0.03004633591494419 
0.04634425727639323 
0.03399219075629638 
-0.01112458488907867 
-0.01454624790598378 
-0.009638511267895328 
-1.372154733992109e-05 
0.01609030583270642 
0.03503189059334823 
-0.002996570075451878 
0.006541964582018473 
0.001978504221326185 
0.01093091823915998 
-0.0387371052515538 
0.003446851594001688 
-0.0332186051642975 
-0.02683352716937454 
-0.01283516160250546 
-0.03160410307966717 
-0.03625356685452585 
-0.01707576043230826 
0.006166991086018992 
0.04409428521165906 
0.01432412444445466 
0.01327787668334467 
0.0474251716212411 
0.03635209533217327 
-0.005252055154547748 
0.0429676117901987 
0.01281552581504823 
0.02200938382906388 
-0.01985694305148888 
-0.01120407558643931 
0.00535438256088314 
0.01070735791999101 
-0.001676145061961022 
0.01365555666587863 
0.0694401956444167 
0.06016616072861919 
0.0173363456550338 
-0.0181812644423321 
-0.006569160256801382 
-0.006289402600055114 
0.09800765214390142 
0.04128036151370564 
0.05164211073530534 
0.01216447997801664 
-0.01378579430927039 
0.01941683499821841 
0.03146663447732165 
0.01771357346231766 
-0.006787066381820812 
-0.003505891085120799 
0.000125303186918543 
0.005032143102415136 
0.01231797414752353 
0.02675204499578945 
-0.009152234219899736 
0.02415351986308581 
0.03238195576745743 
0.02753946225930095 
0.0233813460890788 
0.01970643156674829 
0.002302085366975917 
0.001310496071985216 
-9.987196499630351e-05 
0.004485528797427491 
0.04042458903559033 
-0.003145584581762036 
0.01682210909564479 
-0.08165770852479289 
-0.02130016886063931 
-0.02609792955778069 
-0.02317152412950755 
-0.01808802249512683 
0.009069361052031204 
0.01145035215549376 
0.02423300097523915 
-0.005223302654024395 
-0.01288844414754058 
-0.003665836211998272 
-0.007819859404831939 
-0.04140696130856801 
-0.01990539845028169 
0.002026592091017552 
0.04088361620875885 
0.02356076111620471 
0.01714208629636687 
0.02140912617921549 
0.004577858373512721 
0.01862746268734604 
0.002621080987364284 
-0.0003096973297242397 
0.0298574182283773 
0.02506115871256808 
0.02802260244249913 
-0.001542464266216845 
-0.07912110543325444 
-0.02175619479283104 
-0.05261994803611394 
-0.01112720683913769 
0.004083698878901109 
-0.0221755133154679 
0.006422822979211484 
0.003443747355576146 
-0.004891666237223057 
-0.012787504955463 
-0.01104572021627862 
0.009634228981380995 
-0.02237234882415839 
0.01305625491359807 
-0.01362254255191097 
-0.01494443533356481 
-0.006434050807994876 
-0.0069768915937454 
-0.00168566698758617 
-0.001167706922794722 
-0.002951771649586578 
-0.02101789000205556 
-0.008378398419934112 
-0.006986922681044059 
-0.03300176848677827 
-0.01564073030476031 
0.004991467637414512 
-0.02968422353674615 
-0.0110833210345752 
0.01138446745738862 
-0.0321192365443165 
-0.009821949188820293 
-0.001532445967313354 
-0.01632615368577473 
-0.01107143341007377 
0.001015559543621932 
0.007842166175837524 
-0.001143801219488876 
0.001561580402548189 
-0.01316856842280837 
-0.002902884921193274 
-0.01504504424718666 
-0.06751468543666644 
-0.01602031183636073 
-0.02850545077995882 
-0.03425991282868819 
-0.01123481905938764 
-0.04938241926147333 
-0.02790796726514856 
-0.0007457375678076249 
-0.009728595598216948 
0 
0 
0 
0.008546122510311798 
0.0123304333276831 
-0.008251554679507223 
0.00714291338784381 
0.01008717312776665 
0.008983805749290844 
-0.01474607964466278 
-0.004897860924532497 
-0.006869814110199656 
0.01487809047449827 
-0.002313598976726402 
0.03113981180497026 
0.03920215563542153 
0.01941508083687722 
0.0364350658959567 
0.05082862130404019 
0.04114849943876844 
-0.02799478146215275 
0.03704248234249196 
0.03992259572666366 
-0.0008751104815036232 
-0.03685481780256774 
9.274276062427414e-05 
-0.0251269087110583 
-0.00757239847462108 
-0.005534056741042007 
0.003192419774305355 
0.005512909311750066 
0.0188959536267825 
-0.01799505074523709 
-0.01185457996207941 
-0.002395904728165395 
-0.00447574554347432 
-0.05521956950934468 
-0.02934596358537553 
-0.01751950162575587 
-0.04875031381589318 
-0.03634207899112296 
-0.01215024711642531 
-0.004693524528586453 
-0.001283864464072162 
0.0194164340603418 
-0.009982628552547702 
-0.009938203765869909 
-0.0003464036471060446 
0.003378332144968873 
-0.0009556907252415717 
0.004275924446673301 
-0.03354715214085605 
-0.01977931066543299 
-0.005408198499493141 
-0.02587880486060852 
0.0006895253251660717 
-0.01042691531516878 
-0.01381338974604302 
-0.01013254088198954 
0.004546247070423132 
0.05536780236971248 
0.0123471327415192 
0.0787646205507562 
-0.002107459641479414 
0.003247949937346306 
0.01387854891663226 
0.003448929871600199 
-0.02353125625620462 
0.03758904345661609 
0.03903487961687165 
0.0274356008382871 
0.02296619441513951 
-0.03953021061854623 
-0.01756640392120723 
-0.006699704637710109 
-0.03128736224873312 
0.00263433321629183 
-0.04615995901540864 
-0.030093727962414 
-0.01089199267336002 
-0.005294312684601659 
-0.04302112032872132 
-0.01587082138668027 
-0.03635409367652746 
-0.02194452883775934 
0.0002322383428294853 
-0.04018047989321302 
0.01680858155873695 
0.0001660724611387172 
0.0305511137128669 
0.002363820408401346 
0.006790522389233407 
-0.01182307769559133 
0.02878275745171508 
0.03806200958300622 
0.03845149351892286 
0.002552431137883912 
0.00960385052626922 
-0.005724775838065968 
0.03934273785167802 
0.0229962486510972 
0.01731500042219948 
-0.008232547084309714 
-0.02000465189865273 
0.05570417873194805 
0.03067170212981932 
0.00916299624914829 
-0.007201349371325718 
0.009754032573123628 
0.02454953809473863 
-0.0172016575628764 
0.002663561215551716 
0.002746368555409023 
0.02047818267128802 
0.0168697000411953 
-0.009615625386763915 
-0.003459789579180294 
0.01286945491525405 
0.004754107657614664 
0.009084691757261648 
-0.06669018584487088 
-0.01102198992493795 
-0.03919948380568097 
0.05775466591820125 
0.04297901804973186 
0.003918711562039155 
-0.04874550052512865 
-0.01447949656552551 
-0.04081132557649777 
-0.0005885599010875179 
-0.01445421559350116 
0.01689376500461425 
-0.01003291802214339 
-0.001601540002509428 
-0.01534670962902889 
-0.01878436807551478 
0.02420777496357718 
-0.03368639539636398 
0.0008260873828676878 
-0.005418041523747376 
-0.01808845750311076 
0.01991089596148055 
0.03023379438339464 
-0.02697398050388911 
-0.06360885205082907 
-0.03224993864797535 
-0.0226428328189598 
-0.03326104838648197 
-0.02626949923992071 
0.01485386663585021 
-0.002395302484989014 
-0.01305538199916669 
-0.01254457607333988 
-0.004106130337035962 
-0.01377709883866326 
0.04184370913653146 
-0.04653232225784761 
-0.01315624005396412 
-0.01132361719094061 
-0.0202839042688823 
-0.001016642180113707 
-0.01247026082998387 
0.02003486703590571 
0.01502275420172279 
-0.01597964224779446 
-0.01890793417718559 
-0.01202047163878991 
-0.004794084024192759 
-0.0598437814431725 
0.002664659475650668 
-0.07585356776327491 
-0.01889671472955776 
-0.01190682595422538 
0.001177265578233603 
0.03819855860788293 
0.01809147244580991 
0.03535351937465829 
0.02366392257817503 
0.01094661301675517 
0.01234694695960752 
0.05060087257086322 
0.007738443130476536 
0.06309149526531511 
-0.02214564939609932 
-0.01014874580860641 
-0.00460875748430998 
-0.001186170747877721 
-0.008305335053642022 
0.02182077987180914 
-0.02617253652772797 
-0.0187550043213919 
0.006464472640598829 
0.00015188598264186 
0.003123877300394924 
-0.01273191755646976 
-0.007375136298998208 
0.007515980856199035 
0.0004545394802406528 
-0.03829942044793572 
-0.009106896882350508 
-0.02937314449447502 
-0.02807205448522723 
-0.007543296109059837 
-0.01335217731241735 
-0.0184059658353824 
-0.01057494226076864 
-0.005092389064623943 
0.0002776048328842319 
0.003471986031776182 
-0.01705902225229942 
-0.02391389846759844 
-0.01618693076403411 
-0.0118979791100472 
-0.0159956951458974 
-0.006811087053008402 
-0.0008242770879429445 
-0.003325288607539443 
0.01518887454655687 
-0.01943179777295856 
-0.01712708660802727 
-0.01475276341800596 
0.006882589797128135 
0.03295079805621621 
0.01126271393472912 
-0.006075371126413564 
-0.01063218688777785 
-0.01398292555702623 
0.005851938765843271 
0.08371801171930622 
0.04593759711273599 
-0.01029861750429763 
0.02632188819934852 
0.01870421219793838 
0.008348256263491154 
-0.06381608029081706 
-0.02983392634321851 
-0.03239499321638928 
-0.02155259579105383 
0.01453290104369184 
-0.0248684890423353 
0.02197372338674441 
-0.005716076104097266 
-0.005319256004363166 
0.07567159021896903 
0.03346867681881353 
0.02553338884837802 
0.01662511117985055 
0.02328389064906528 
-0.01148685497242879 
-0.03169606713636716 
-0.02286043741724816 
0.01687139420799402 
-0.001701436079580441 
0.01199064376934105 
-0.01428553995236471 
0.006388956080578506 
-0.002002290912864712 
-5.182092918893509e-05 
-0.004180444188591228 
0.003974135016391552 
0.001852186179179917 
0.05326908424454834 
0.02689326051419511 
0.01900674038412534 
-0.01962945173932491 
-0.01425518277831955 
-0.002086256156516964 
0.004654856272677142 
0.0008422663960219788 
0.02618173659972817 
-0.007597435302420138 
-0.009135571768739689 
0.001874000108734973 
0.03463156699558146 
-0.05743044951028391 
0.07459425209756583 
0.002876124448059241 
0.0161401334366107 
-0.01564201289903464 
-0.02776547580069513 
-0.001618691262394427 
-0.02318637530907338 
0.008446720674848442 
-0.01563222448424157 
0.02204044956140509 
-0.005194716869665442 
-0.005657367130824997 
0.01750681680879723 
-0.006691473016051244 
-0.01867395444150976 
0.01437198278991266 
-0.02358408635216262 
-0.0127336651213745 
-0.02324550830873276 
-0.06020966721543439 
-0.02209326795358055 
-0.02950163830109444 
0.0264125456255363 
0.03318107134542368 
-0.006118195535068974 
0.01102722659989293 
0.0241413774580825 
-0.02208147719050594 
0.008209196149194312 
0.02434999041721153 
-0.03230547172401484 
0.04772340747825214 
0.02979717157278073 
0.00590798259870882 
-0.02396195578219527 
-0.01250981286371974 
0.008961988394535858 
-0.0515534467157417 
-0.03000025495741889 
0.0002179652606050508 
0.02792316660914333 
0.026584547989981 
0.02151809869109757 
0.02597430392803259 
0.004077903837983116 
0.0222839767448207 
-0.01176863052084869 
-0.005198216579402399 
-0.005282308976971534 
0.066183834848717 
0.03056153985344064 
0.009393316008370517 
-0.00442761926233738 
-0.002519534724585281 
-0.01061213263265115 
-0.01916782380292647 
0.00318867526339536 
0.007685426842158828 
-0.03471361080467007 
-0.01367876233891108 
-0.04074515836925188 
-0.07174050635375465 
-0.04211075557445651 
-0.007817849873629426 
-0.02482428352628395 
-0.02287763183766786 
0.02048166176262188 
-0.00992886441950197 
-0.01082893041715554 
0.009160083357400067 
0.008767595857180767 
0.04989329417954596 
-0.03426970259383113 
-0.05247143352697653 
-0.03166949961189378 
0.00157223352461704 
-0.02278197358846263 
0.02035155429757347 
-0.03039771281022612 
0.03473694406059361 
0.02901116407552775 
0.004343678787947276 
-0.01346865429990097 
-0.006089096461852759 
0.004485343290840552 
-0.02595905448585165 
-0.01236881250209155 
0.006562805439057824 
-0.05668593012921642 
-0.01742644966113822 
-0.06115024364512991 
-0.03247636613853957 
-0.006133623657525494 
-0.04136059950704719 
-0.08844421432901794 
-0.05299797706834281 
-0.009638597750395727 
0.004142456296840378 
0.0232748569175186 
-0.009199726345660849 
-0.04123204630240994 
-0.01392873542854285 
-0.009684632830619414 
0.06283812547045968 
0.0159457504290316 
0.03781950504143394 
0.00839982964654778 
0.007212745674750934 
-0.008008162443890876 
-0.0135925619804404 
-0.005715532523294025 
-0.02845135692934338 
-0.01452324914941724 
-0.00336541481574902 
-0.002989741119955943 
-0.005564720869663674 
0.001887203255150365 
0.008535368688202387 
-0.009576336264426711 
-0.00777851840653603 
-0.01195947684271316 
-0.01005853024793887 
-0.006726814406366605 
0.009354767650808482 
-0.01124303727759097 
0.007085888895077262 
0.001615813580844416 
0.009083685240960366 
0.01073632321595754 
-0.04391616810736995 
-0.03654568118847264 
-0.01582368897621755 
-0.0336459614992286 
-0.02349554223493288 
-0.009500320639698939 
-0.004331578744791354 
-0.02137839677662622 
-0.01055653017338061 
0.003634530933474822 
0.04980731824383912 
0.01972003363164759 
0.02418991345594598 
0.01721291648058251 
0.0463825026100936 
-0.02570341669849667 
0.06247219310460596 
0.03007819077951213 
-0.008024894609551357 
-0.003324938549062681 
7.099902967781339e-05 
0.008003353590858178 
-0.02917690119814608 
-0.00765641907350525 
-0.009565842952736919 
-0.03139126962006472 
-0.02358160953146043 
-0.001289914011481765 
-0.02436679326262636 
-0.0004724006298685048 
-0.002995145871842421 
-0.01183904010888582 
-0.0118178239162515 
-0.008157479632014663 
-0.04926432711448545 
-0.03339432076846236 
0.01672132292815294 
0.04956407381213909 
-0.002234766039768695 
0.04890546993797634 
0.07225344634017608 
0.06376935012642532 
0.003907574110338206 
-0.02613013917625568 
-0.008876448589738427 
-0.007903717510969438 
0.008378348376901049 
0.01715069454955644 
6.967863418079521e-05 
-0.008666810601870998 
0.0008540167830486998 
-0.007182966175569458 
-0.001880798924840693 
-0.00263430246015753 
0.003104418458724271 
-0.02708664078720262 
-0.0117983340020914 
-0.02383833810278138 
-0.02034248899024586 
-0.0005037702181523387 
-0.01316852439608414 
0.01054155161682742 
0.009679216591240335 
-0.02357901908340293 
-0.05946233176120836 
0.07899987102904665 
-0.02050124899478267 
0.1363106222416238 
-0.07904897324073829 
0.07241802615810654 
0.00192419438420481 
0.01417582432740886 
-0.01821990830650475 
-0.04804635742756296 
-0.02792279032199239 
-0.0124561015706769 
-0.029248606508327 
-0.01095676315075375 
-0.009210758507286818 
-0.05694255419328358 
-0.02317792197880645 
-0.04491379467432969 
0.06080660135523171 
0.01396164210239043 
0.05120674781840957 
0.02995802158259958 
0.008585529854280832 
0.01650248320692072 
0.003074425706997386 
0.01260110690803164 
-0.01373252075313715 
-0.02016462241731826 
0.009415523059288599 
-0.03932242364958492 
-0.01798083114127141 
-0.008312486210609642 
0.00522101289310198 
-0.01688104166022871 
-0.003317927040800801 
-0.01967165162373891 
-0.02092499814174745 
-0.007294757717287935 
-0.001699069939620321 
0.0328731565414945 
0.01304100352249128 
0.03993170146547888 
-0.02624706508237374 
-0.01427471725169982 
-0.005547993316477711 
-0.03059558977420932 
-0.007613054474034871 
0.003687640605645979 
-0.01013700909420632 
0.007700997868540266 
-0.00605391121207596 
-0.0017454318539978 
-0.007782360714704451 
-0.002098582126623682 
-0.03956008296734465 
-0.02418963194840616 
0.002379798444354256 
-0.02037030178634853 
0.007632977984371877 
-0.0117743872911302 
0.03146423725610983 
0.02675524565958947 
0.009880591664998594 
-0.04320804484334428 
-0.01931693194324754 
-0.01438150361608164 
0.01574857371553133 
0.01349026429362697 
0.001479861155506112 
2.134258931813578e-05 
0.0004430331511761237 
-0.01924922687021755 
-0.05267651199819132 
-0.02506653514067425 
-0.0140846475708938 
-0.01627765943270832 
-0.04425084888444009 
0.03054375262986652 
-0.0405339267135691 
-0.003514997782801005 
-0.03349731727979189 
0.003625764766594068 
0.003239892875249905 
-0.02494715282465767 
-0.01506523752419967 
-0.002204547915264302 
-0.02222888097391044 
-0.03100848425043728 
-0.01785214496608856 
-0.01485927888478993 
0.01121514076886205 
0.005196167690606079 
0.01711473721337723 
-0.07033196423673523 
-0.017180156439435 
-0.03806807549047946 
-0.03779901023096007 
-0.01274766543866452 
-0.02684933140395291 
-0.0286210900674313 
-0.02300109549293899 
0.007681627584990013 
0.04214493808150287 
0.05483110961360837 
-0.01667775843890452 
0.009747781867752315 
0.00099188985204929 
0.03459600070967048 
-0.02471494216193408 
-0.005045402626263546 
0.001370905521758537 
0.01843257168894684 
0.02323884304091281 
0.006150441520694732 
-0.02546027387528722 
-0.001351151760153863 
-0.03004718989725174 
-0.0129578939951166 
0.006263760708142571 
-0.03616384376543742 
0.003373093295169627 
0.01136769158455975 
-0.05426500728511537 
-0.02105575244468572 
-0.01247802945454734 
-0.0006866212113375411 
-0.03130388723231451 
-0.02357875394860004 
0.008327026430709114 
-0.02044675797496827 
-0.0212183640979671 
-0.0130360303385756 
-0.1028345375107163 
-0.04868448190253984 
-0.02460961357224158 
-0.02922029111610265 
0.003861394786747798 
-0.06022081708543544 
0.03639187054058021 
0.01563032605551371 
0.0315352613203682 
-0.006003671857858823 
0.01283833893873679 
0.001899174578939847 
-0.005726585252033696 
-0.007980098137078293 
0.005306827090451906 
-0.05417479413611797 
-0.001440646607157751 
-0.04057443131674543 
-0.008482882330646457 
0.01844616118792492 
-0.001999653085869153 
-0.03045868274050881 
-0.01207743011044133 
-0.003504475105071556 
-0.01167322413090405 
0.0002588203471348999 
-0.009181553759401157 
-0.01502316680358315 
-0.005098154138200102 
0.001132731295449506 
-0.02994371422664237 
-0.01657639123396151 
0.004488729140849378 
-0.01333468589431266 
-0.001056695029647586 
-0.01968717471003585 
-0.01143139790906779 
-0.004530595775846919 
0.007213919803900975 
-0.04920170979262205 
-0.02234489706324459 
-0.01669968422961532 
-0.03884991554312299 
-0.02112088840680408 
-0.02961327098517595 
0.005728144560401814 
0.001207565546791362 
-0.001833914037386205 
0.03320332925990221 
0.01944216862678978 
-0.02032193076192946 
-0.003340330781473213 
0.01137099823742884 
-0.0213833194123612 
-0.01588946575963827 
0.003691688044370956 
-0.03141400156991418 
-0.04305049385956573 
-0.0246270517238455 
-0.01638809866879293 
-0.01656491909722815 
0.01947430467078345 
-0.01040698916682772 
-0.05931898210014207 
-0.02260961368163979 
0.009964827510796302 
-0.06424881857399725 
-0.02109850668473828 
-0.03709808509754972 
0.009376631454226358 
-0.00400647200662798 
0.03087981505925314 
-0.05545278755220812 
-0.00677293495997834 
-0.01349819021256542 
-0.07523727605327397 
-0.02391398267521454 
-0.03925940232900655 
0.05095548257709418 
0.0171650813984542 
0.05893143641790322 
-0.04551086136223735 
-0.007338583393644936 
-0.02390929993976594 
-0.007594836916631302 
-0.0039421193875782 
-0.005648096864207873 
0.0006360777457361169 
-0.005965009616229225 
-0.01470361792505283 
0.0141005908113155 
-0.008055443102641054 
0.02744097135235996 
0.009166448752360896 
0.00105054589603408 
-0.01380552447429387 
-0.006106734138505199 
0.02296136772571008 
-0.02811271200515774 
0.03415367089300524 
0.007823545832115159 
0.009614345778204742 
0.03075446914371826 
0.02734838821488722 
-0.02091857987649241 
-0.001053147933780702 
0.01332908830286664 
-0.01767381435654187 
-0.002475140847350596 
0.02169739779035747 
-0.0111587006331756 
-0.02840961408739482 
0.007731279485766528 
-0.01041229455951499 
0.005338210432903318 
0.02302036102420107 
-0.006448680122346724 
0.006658435245831519 
0.01435903701437081 
0.02099127115418637 
-0.001959434824830463 
0.02207500172529377 
-0.04707426225270592 
-0.02871341061821962 
-0.04304964697342058 
-0.001454827578589647 
-0.007110815092100019 
0.003442870378676799 
0.001938738584204052 
-0.02202852512954326 
-0.01626726987141928 
-0.01065099627280707 
0.01591454407685584 
0.01051909679631994 
0.0015750073943027 
0.01478651215727466 
0.01617942226211296 
-0.01601586992915885 
0.00764561078431408 
0.003060049549769649 
0.01054305103701525 
-0.04111715552937458 
-0.03276310570171592 
0.0200637272088412 
0.03277000954548093 
-0.003344085752974787 
0.01558453933451525 
-0.01102480593818442 
-0.00316206110966794 
0.000632568584076535 
-0.02412834904457475 
-0.01195333460899186 
0.001153055581262147 
0 
0 
0 
0.04484126214263158 
0.03855723133479589 
0.01527841949720418 
-0.05419698752020339 
-0.004155265879531499 
-0.04688479038310593 
-0.03732316357060441 
-0.02596908019803476 
-0.02235486965461899 
-0.02276925506519227 
-0.01109938745895487 
-0.006149759140331591 
-0.001178302379319229 
0.01801338399916185 
0.00100679793937563 
-0.03447540805999175 
-0.02587699350362275 
0.04111332347587648 
-0.012610981292622 
0.02021255743949648 
-0.02866609114945582 
0.05738264997040568 
0.03503561718643493 
0.01513613753872055 
0.05228473349548576 
0.03214693643002224 
-0.006816336975875397 
0.01871581536922687 
0.006179668618797168 
-0.00834502610323812 
-0.06938539907150676 
0.005483846524378923 
0.01825738942426199 
0.01866210493040091 
0.008684054343165297 
0.01165023239543426 
0.02526866618114364 
0.03434709196978974 
-0.002572077211432998 
0.01127847220790061 
0.01389352812508053 
-0.01792832323840162 
-0.03846237780449125 
-0.03798778371528699 
0.00888266263044761 
-0.03240317043513492 
-0.007305576462067734 
-0.01434881115033764 
-0.01967204207888065 
-0.00603161761187981 
-0.008717694615816901 
-0.002963002973563972 
-0.01993897836227525 
0.05784093774699051 
0.03992488350131652 
0.02096931096735953 
0.007908425965909554 
0.01032956045253785 
0.02142251025299929 
-0.02488417713252002 
0.0004187851988764953 
-0.009099895884375476 
-0.008644656026453689 
-0.02973673656776666 
-0.0007093225934942242 
-0.008467863836632275 
0.02538670522836423 
0.01523908976664259 
-0.02453852548893425 
-0.003407582327563909 
0.03169715595666665 
-0.01274751715885922 
-0.03831866423679348 
-0.02694750099997936 
-0.01378968681689617 
0.01961614708759649 
0.0007633632909036988 
-0.0002697993490392228 
0.03679753260454788 
-0.008472384032067558 
0.03750426327362144 
0.02545563230880358 
0.04039688354427425 
-0.0397235097730925 
-0.01597119872241235 
0.00268444089784631 
-0.0002873857676901328 
0.01199260888119742 
-0.002958074688659113 
0.02005801769886511 
0.06765204876764534 
-0.009059598406116719 
0.06746121644570387 
-0.02889569227063005 
-0.01320873472425243 
-0.01478823345343966 
-0.002111444174325741 
0.008474076556025984 
-0.03294962366066238 
-0.03107262058563237 
-0.003185310246397206 
-0.03144711780898579 
-0.01058389005241842 
-0.002105113074987419 
-0.01680140372588245 
0.00221904265942835 
0.006666160459433775 
-0.0218519709244748 
0.03370672854764994 
0.0210358830788473 
-0.03474455076604641 
0.02491319183100943 
0.01326004620043779 
0.005075027603824901 
-0.002199370401429227 
0.01722743087452978 
-0.0130795691163805 
-0.004758887554476792 
-0.001542392686902909 
-0.009020935512018049 
0.008172854988421716 
0.02605075435684334 
-0.02830149951533907 
0.03282861435479677 
0.01477541260957499 
0.01641660083356893 
0.01953862944271126 
-0.005418524198153619 
0.0558605619369586 
-0.03418432902310018 
-0.0083197183657101 
0.008594901177186705 
-0.01111535032597982 
0.02367578058516818 
-0.01700237030872048 
0.006518401302189553 
0.01135861301055117 
-0.001061793852370266 
-0.00534820942560551 
0.01724057376827801 
-0.01387061991207894 
-0.03915235191189477 
-0.01205383054695597 
-0.0219099106056293 
-0.001209142505824963 
-0.0005081215480493781 
-0.02188936497834442 
0.002224326656826933 
0.01324680638159808 
0.01015081500441185 
-0.06012236504439582 
-0.02091633538028324 
-0.02240415412120069 
0.06604858737725701 
0.01572281989381343 
0.06109810856889746 
0.01622268639697888 
0.02518145262972577 
-0.0003084677097685785 
0.04179926512444124 
-0.02523166482184488 
-0.004794509840219114 
0 
0 
0 
0.05005790394881297 
0.03690997376599828 
-0.01042306180313735 
-0.04113235665414577 
-0.001831305474549414 
-0.0285011218953335 
-0.0372245894981901 
-0.0033227019512082 
-0.03530175758301735 
-0.02765289289945479 
0.004903681542361918 
-0.03417127004822778 
-0.03135409744159319 
-0.01150459911341693 
-0.03911394193380078 
-0.01652101515925617 
0.005685245443787268 
-0.009066914952474664 
-0.05176089781427558 
-0.0190601840101167 
-0.01200283788046508 
-0.03052619162571693 
-0.0003200679181919404 
-0.02194351969744646 
-0.006324190608981807 
-0.003878210358193721 
-0.002380640480794318 
-0.02940259510791092 
0.003222931005514896 
-0.0109368815355005 
-0.01266649085082196 
0.001409650960404423 
-0.01466451598392801 
-0.01196984130905573 
-0.002370351057088117 
0.001438786576531034 
0.01332415908594668 
0.008443892805059319 
0.01294240841320116 
0.04413769403235771 
0.02501492289472752 
0.03852353814219413 
-0.05092738343417345 
-0.003975773858635231 
-0.02656170009566185 
-0.02332498638699042 
-0.01593834861234272 
-0.008032736030620866 
-0.04729027194914995 
-0.01107932880471801 
-0.04947788793907239 
0.03550965036851725 
0.003692063023033247 
0.003372496369027391 
-0.03284299841296436 
-0.01300682920577828 
-0.02112520516280305 
-0.04517237450754539 
-0.02456680523224281 
-0.008047400933655649 
-0.02996155736386909 
0.01501696680555941 
-0.01491132662384998 
-0.03106733928833929 
0.01948827839621766 
-0.02824813882261744 
0.04811737064895914 
0.02603527908667442 
0.02038048983448986 
-0.02893072356949541 
-0.01317986311204386 
-0.02260757330533554 
-0.01544852466648721 
-0.001503569300207428 
0.0191717886426488 
-0.01919594975768102 
-0.02035910769466644 
0.02360171266479483 
-0.07994388618005371 
-0.0429730980864907 
-0.01217883155988066 
0.028494814559379 
0.0215183179271922 
0.009049705461132804 
-0.03072776727405968 
-0.01307261925524735 
-0.008006821712425444 
0.04096771444538281 
-0.002630676565253451 
0.0425354692885719 
-0.01950428134018494 
-0.01440446883696425 
0.01075564734333385 
-0.03299061148120667 
0.01105583894447601 
-0.0376058947780524 
0.02550468429968264 
0.03374180685489824 
0.001529977258060238 
0.001002077188396574 
0.02616974517593562 
-0.02902864108509833 
0.00071821869387579 
0.003959220212830055 
0.01040174025976142 
-0.001800370808004666 
0.002940258655284601 
-0.03861426003024978 
-0.0005695643801487672 
-0.0001532394820799745 
-0.0002866742326812093 
-0.01805120976093703 
-0.001173217758874882 
-0.03385514732885878 
-0.006831217058022558 
0.0008954174019974207 
0.001878509527213642 
-0.0102685295765651 
-0.002664020919573229 
-0.02054743961228993 
-0.04556904437372537 
-0.006495499597573053 
-0.02023401310715056 
-0.05968255181668227 
-0.02021100429880382 
-0.01216124515504061 
0.01765823426468393 
0.0120827444622837 
-0.006061563468742574 
0.03360391494714948 
0.02156688207556025 
-0.02226693518980074 
-0.03520846502563285 
0.004306431780932308 
-0.01156113763973008 
0.04442696001223879 
0.02141125591838916 
0.02020413825478929 
0.0101109161980073 
0.005353127268073354 
0.01903763108809107 
-0.009822171978541473 
-0.008748484228369144 
0.01013121546833717 
-0.006329930682685295 
-0.006031655181660032 
0.003538441320601401 
-0.006514263508685567 
0.02755210543204229 
-0.0143779644039422 
0.02416784470202536 
0.03166399657344848 
-0.004292214750041918 
0.03042665499940949 
0.02518994918642885 
0.0208109597295888 
0.06375183824752051 
0.01633245165915957 
0.04593949865360415 
0.05512092498129322 
0.02308557923256995 
-0.004320826459889156 
0.04234879961747819 
0.01864076190634916 
0.0170192580072962 
-0.01162286826594681 
0.01347475729721617 
-0.01190553691402742 
-0.02503942119522166 
-0.02068427379803889 
0.002390183140180071 
-0.03668710977856656 
-0.01078365401570717 
-0.02832310426271622 
0.0004832571080670904 
-0.005028559875816027 
0.01020449441617824 
0.005460866639271087 
0.01730049845120419 
0.007291658153873028 
-0.03526997346834814 
0.01544923776935505 
-0.04639683694537772 
-0.03397655889408162 
-0.03244955616158826 
0.01477187140981386 
0.001947815127300151 
0.02350495325827881 
-0.001261392247988363 
0.01842739123936642 
0.02843084899947223 
-0.02181120406768744 
-0.03026593421170855 
-0.003055379634270157 
-0.01742214688508047 
0.008729564279783742 
0.01492877978793339 
-0.00337960193014491 
-0.02133440921572733 
-0.01314698608949251 
-0.01241859109102643 
-0.0008278697289451392 
-0.001394561768661794 
0.0001451702032038628 
0.003094985655985482 
0.004245283612863775 
0.02510727664271182 
0.04664010593650787 
0.04040370242802831 
0.001640325623008453 
-0.02207209892492444 
-0.03671438333736866 
-0.01832194226913556 
-0.0461241886366249 
-0.02203909581714671 
-0.01038654070556621 
-0.02201361736356855 
0.00523330312956389 
-0.01335511123724983 
-0.0005023784168816306 
0.01639944761918426 
-0.02164586087944884 
0.00847802787850762 
0.01465554603677089 
0.005694346496421867 
-0.01764770927199362 
-0.01699372134966005 
0.01683850081902456 
-0.06040699460393585 
-0.009818482984371572 
-0.02909070805812282 
-0.02103329391263207 
-0.00746156051331304 
-0.02460493678316837 
0.005114411764763524 
0.02435737722040248 
-0.02493438343511733 
0.001262516749810941 
0.02218158545027179 
-0.001116991057689367 
0.0147197072244587 
-0.01474950638285819 
0.04556075099530588 
-0.01678914760170682 
-0.00827599452349901 
-0.003111959694022324 
0.04077996109893142 
0.003641651752256084 
0.04733484312544226 
-0.01430647706902261 
0.00679182102933131 
-0.002763370765358544 
0.02814254888271957 
0.03530111441582295 
-0.0001344496393058104 
-0.0432527133647258 
-0.02262445241978052 
0.01121134430738191 
0.01009756129859927 
0.01460627035579266 
0.003722595179364397 
0.01584098557079285 
0.007941332698042584 
0.0005138910715368295 
-0.01702915023051717 
-0.00539257699653536 
-0.01669826097656571 
-0.01189882995694348 
0.03808535541242077 
-0.02662246723631308 
0.03367835981548532 
0.01910872305852427 
-0.04333122176315089 
0.03297178096633475 
0.0777043925032823 
-0.000126713953155145 
0.01120733943996866 
0.008364564731958112 
-0.0123523183699622 
0.001423896238731778 
0.01345228018628335 
-0.01020854882987431 
-0.02181039300108455 
-0.005029367370397468 
0.01091586629183266 
-0.008437372973755351 
0.001371034644337294 
0.00686224957146603 
-0.02947095105313617 
-0.0310848596198925 
0.03032489588306495 
0.01032660435831795 
0.009248347674797354 
-0.008491011096186839 
0.02880028197960847 
0.02407687340936969 
-0.0150657024303085 
0.07392999363322028 
0.01964825009553274 
0.06405523989668666 
0.01669072026870799 
0.01521250070292424 
-0.01710446595286562 
0.005392327227356941 
0.03604941464363426 
-0.004133536746288198 
0.0007654758639942509 
0.005106594726863137 
-0.01023719477874168 
-0.008099265063692842 
-0.004670715905689249 
-0.01619227523022292 
0.06901671841139476 
-0.0007033375388425395 
0.07964989941195073 
-0.04316178786717818 
-0.01161748284041908 
-0.01554958029303064 
-0.04868918928856304 
-0.0200034522076841 
-0.02135983026664849 
-0.04577015665381767 
-0.01981889593028181 
-0.001530973499029339 
0.06045769010628241 
0.02380661340945879 
0.04432084329375709 
0.0004345935125910326 
-0.0004639473586118757 
0.04893364745691559 
-0.05921578018340513 
-0.02380981317687898 
-0.0286247940580582 
-0.01746004135666616 
-0.01340118161445049 
0.006155418356680163 
-0.03939549879141412 
0.02543373077489925 
-0.02434698022041713 
0.03233091996648139 
0.02385355731678749 
0.0007409046858787795 
-0.02994456326749997 
-0.02537365217434829 
-0.003622364597702533 
-0.04106978309778089 
-0.0319247926974634 
0.002017489566786896 
-0.005706381988542585 
0.01355704890672744 
-0.03700437623257626 
0.0473958427634797 
0.05491525370650219 
-0.02153811485611749 
-0.05060342778836462 
-0.006033756186442429 
-0.02746854005500221 
0.03572788303125476 
0.02813203638461287 
-0.0259373150710983 
-0.01903249015313368 
0.003395428444569843 
-0.03167266412264785 
-0.03517361173447422 
0.02667846429404193 
-0.02764548082048371 
-0.0653341315358226 
-0.03075092324701271 
-0.02005733520401437 
0.03053470244331699 
0.003832646133111915 
0.01145281705915093 
-0.09715468187746837 
-0.05634068285626593 
0.007511292888283088 
0.007851295048654488 
-0.003114306311178119 
0.00464241396217733 
-0.02222083713951199 
-0.01080325163348736 
-0.02009278236951151 
0.01113462159201071 
-0.009952013973141157 
0.03109307983275797 
0.04036793316697995 
0.03610265226158413 
-0.01336175113207617 
-0.04510040750549283 
-0.0203159939840356 
-0.002125485015293858 
0.04455247229170247 
0.02358265388732539 
0.02223012854975519 
0.0107612792414127 
-0.005632794215201571 
0.002864659911835881 
0 
-6.776263578034403e-21 
-1.01643953670516e-20 
-0.02078410434976066 
-0.002388742072777608 
0.01535484061051482 
0.03531748358210016 
0.04373334955035749 
-0.03967023165964841 
-0.03274959393617665 
0.007482373903284619 
0.01184320924716539 
0.07853295896199936 
0.04039566323368932 
0.03244937699589062 
-0.01459692708869574 
-0.004758102426886353 
0.01222218585097299 
0.005857284561015402 
0.01462517406254434 
-0.03224111366186452 
-0.01671696418986268 
-0.01109203080819655 
-0.01224134361973665 
-0.06818913332000656 
0.02604173156897645 
0.07727072472829832 
-0.03130521827789851 
-0.001887382523169388 
-0.01723894048957941 
0.008449441243321769 
0.01144306279553398 
-0.01142696990046049 
0.06190475067677582 
0.04397399231615587 
-0.01295817507482588 
-0.009753774708455407 
0.01432106876305443 
-0.01858228212406794 
-0.003027085017260703 
0.01239097310530641 
-0.02568560176430916 
-0.01116540148783769 
-0.007862022216053395 
0.003869288638188769 
-0.01103433517376843 
-0.004118379960818126 
-0.005003069224701747 
-0.02040315949189351 
-0.02663926402958568 
-0.008358221100935639 
-0.02355016261871875 
-0.008247848209978665 
-0.02586492737840721 
0.03631018437235134 
0.004399875930081321 
0.04591202003465596 
-0.03250523737961229 
-0.01131932380373415 
-0.01372274452785934 
0.03780154159482195 
0.01486777056721579 
0.001723926359010941 
0.04887806476606252 
0.01458266647595181 
0.05636927540039949 
-0.01434757969368422 
-0.02108893249800635 
0.01261356737689733 
0.01220275238573872 
0.005251638119930947 
0.02213473102142112 
-0.007099672245011428 
-0.0007340575091882674 
0.002026313981241599 
0.0419487872452633 
0.03597842463492191 
-0.01991395773794057 
0.01826085848506502 
-0.02822051275435157 
0.01909980909399473 
0.02982399418922298 
0.004161928306084021 
0.0345282461731365 
-0.0169075160556958 
0.0650255066630184 
-0.08969964814280701 
0.01503830195006691 
0.01040631843704714 
-0.001527870318505946 
0.04245037658553989 
0.03242700447132699 
0.007329289375935106 
-0.04065829727067415 
-0.02005122069338047 
-0.01512390421945549 
0.01150320864937942 
0.005606479045291895 
0.007165150811439609 
-0.02377146428495058 
-0.01149902281082432 
-0.01688055367017728 
-0.05582916385055858 
-0.01796874985000802 
0.00578097618870242 
-0.00439810853798115 
-0.0008125601762436674 
0.00257841395861435 
0.02098673014424306 
0.02891324178359658 
-0.01498088350955826 
0.03556266328764428 
0.02548515500640963 
0.04516212179261224 
-0.03710950262761015 
-0.01771757264803928 
-0.004895309115242863 
-0.03202250742481094 
-0.003630812354770697 
-0.03302207822827682 
-0.05376099259417313 
-0.02781579649505722 
-0.02932104756717926 
-0.0221774185945519 
-0.004148464636355668 
-0.02755108687692546 
-0.002702934384323116 
-0.0001939405362942848 
0.004642100778199145 
-0.05502949222707585 
0.04553961342942939 
-0.04583813819014933 
0.02696552841296756 
0.01680238588875698 
-0.02085757840063658 
0.04091413446404534 
0.009217559056437117 
0.01381184842811145 
-0.01942567730096928 
0.01338140355879466 
-0.02900698579346098 
-0.03186413919175354 
-0.01041394780396217 
-0.03403336607814389 
-0.05397377805603812 
-0.01930605389092935 
-0.02627913255731689 
-0.03171867451833733 
-0.001915461751778554 
-0.02740502908581239 
-0.01473545498907386 
0.003309095489819353 
-0.03214982099188898 
-0.03679845274335257 
-0.004910581209285106 
-0.05115492680739615 
-0.001491552468655081 
-0.003273427238262918 
-0.006684175725113389 
-0.03687961327953893 
0.002626857568330109 
-0.02481908458513008 
0.007343334276796258 
0.009240924169278264 
-0.002555459884283721 
0.0580138320001686 
0.04728261101842404 
0.01331237379120553 
-0.01380945033428747 
0.000926932161503036 
0.007527067203613573 
-0.02034583720088046 
0.01290611836623595 
-0.007245906112709621 
0.01587062911842586 
0.02075609561849028 
0.01189305161385561 
0.01057733985844765 
-0.005536453047475492 
-0.006980978720340507 
0.0364144348369566 
0.02458164224497018 
-0.01223454272107621 
-0.04061345907824386 
0.001508307878979837 
-0.007052464620516658 
0.02195016619912263 
0.04172160600948022 
-0.005792083232168874 
-0.01451015261587844 
-0.0002141211426734021 
0.01917972296845026 
-0.003091182531387993 
-0.004153226108423599 
0.02093255132410561 
-0.0504261457725849 
-0.0249855109886506 
-0.00833664209602634 
0.057334379524782 
0.03247794760086608 
-0.001896485298053319 
0.0418706102426671 
0.02411227617515939 
0.0131623161490225 
0.01876027776656838 
0.01374136272678747 
0.007646875267971764 
0.02767385243383571 
0.01646288859313627 
0.03563640408892967 
0.03691225946923666 
0.02527228733746518 
-0.01179506703097238 
-0.001965002097460515 
0.001060487867025591 
-0.01953986133489396 
-0.04804135833333127 
-0.01539133026021453 
-0.01813062821403842 
0.1042520182572215 
0.04353545317118886 
0.04250304174641402 
-0.002103036889094544 
0.01500357053083159 
0.001073004006107366 
-0.06577591458992982 
-0.02922331509152941 
-0.0152750090304192 
0.03973907970952481 
0.0215043451106623 
-0.01076157958678874 
-0.01889539755002019 
-0.02203617508902099 
-0.002812919181485934 
0.01433445595073417 
0.006887208207981163 
0.01215882213347876 
-0.03845012867085659 
-0.001296774479354776 
0.01267331840953814 
0.01600618257842504 
0.00654081369406605 
0.01835403197258222 
-0.01780703193830927 
0.01239588538274873 
-0.01347741096717679 
0.004570998648807684 
0.04208935050665468 
-0.05197142266303652 
0.02386358772191383 
0.02541301621977448 
-0.005409183542331318 
0.09015859660209463 
0.04200040997949415 
0.03270544389645988 
-0.04393046618443478 
-0.02425115239702206 
-0.02374409442434841 
0.008344187237248613 
0.003782324292785528 
0.03132691351782229 
-0.05528647825516637 
-0.02910625826764588 
-0.02098978805715303 
0.07225010049491501 
0.04661331308743317 
0.04500039030731098 
-0.08864225168175195 
-0.02404783261634073 
-0.0346689670903073 
0.01890512241528998 
0.01124490602040452 
0.009847385599358919 
-0.01818757016893725 
-0.01021272406563339 
-0.005407396477996511 
-0.07288458978732607 
-0.03873241161781468 
-0.01208958704295781 
0.03588799431582169 
0.02320048882034195 
-0.00895695041008065 
-0.04160570026457461 
-0.001848810224204016 
-0.04035499072747732 
0.0374831511511556 
0.02097323988461845 
0.04079031311239446 
0.03193978449327808 
0.03259182365361565 
0.01281946908784919 
0.03344421835503469 
-0.003401019940405681 
0.02370446978138467 
-0.0504954565569528 
-0.03032823293719962 
0.005472427177465502 
-0.0001505825742239209 
0.01522833459988727 
-0.01334874379319078 
-0.01784885839476627 
-0.01811138068966959 
-0.01396520321547205 
0.02728475651236047 
0.01663213779845582 
0.001762591274653497 
0.04153465753621145 
0.03831488717552527 
-0.01057072201242933 
-0.1025653380406392 
-0.001975786609805805 
0.01299643691909251 
-0.001969881739664094 
-0.04300021378515565 
0.03450054147825748 
-0.0244142062986196 
0.007241614902572861 
-0.01863737555539879 
-0.05571365038921395 
-0.02846296404606951 
-0.02803992197454783 
-0.004015593948279033 
0.001144755959738994 
-0.009343555626819577 
-0.0004168254201182456 
0.01917713925000131 
-0.01073362933205486 
0.01989157718401155 
0.0123216645464055 
0.007149623788376164 
0.02015004073116829 
0.02344382146707815 
-0.003072075666056418 
0.0254350819438271 
0.01993085683548792 
0.003689471790653306 
-0.0243464236950497 
-0.004865432188364783 
-0.01344129411851165 
0.01766697283442884 
0.01759639527443615 
-0.01484197534109425 
0.02094931190784998 
0.02518366542190303 
-0.0001769955260904575 
-0.007877918412525355 
0.02921819748459717 
-0.04441516760714032 
0.03989245041196578 
0.0152906217710119 
-0.0006849330770559158 
0.003769481175760737 
-1.583304969488627e-05 
0.02258379017802645 
-0.03727871108541673 
-0.02005502292085533 
0.005783579594306512 
-0.02295540365614016 
0.001349791765976747 
-0.02348011945666616 
0.009176950595665151 
-0.005804483397332741 
0.02214950194617128 
0.01733577037077625 
0.009840548190168007 
0.02993337588701037 
-0.007373120672657746 
-0.002765878569706248 
-0.008977002875573696 
-0.03162802618220178 
-0.01242713375072181 
-0.008646053968915436 
0.04634458595199475 
0.0389275371813672 
-0.01247889862887449 
-0.0005937837616898526 
0.00136409852438922 
-0.01379749591492973 
-0.0140126654116941 
-0.01289527853590126 
-0.009253183961999902 
0.008897333458854993 
-0.02142620398665451 
0.009576331692294222 
-0.03436146561167151 
-0.01027526661336842 
-0.03048121234733724 
0.01391734813454578 
0.01631169033522365 
-0.009907002874295053 
-0.01425334857017384 
0.01643967733066505 
-0.003795560400453238 
-0.04180121224082873 
0.0006746661735822768 
-0.02196503143150467 
-0.02488275378982411 
-0.01058483193588075 
-0.004334256089092408 
-0.04908579175490482 
-0.02184564554405911 
-0.01070791697127251 
-0.06535973561013597 
-0.03416742964740378 
-0.04291684909913944 
-0.01779977917941723 
-0.003604943339715519 
-0.01333700676641519 
-0.01104835556438515 
-0.002174280757069006 
0.001379283630902482 
0.008857151047948411 
0.009515373724772014 
0.002253999991166165 
-0.01537371865697127 
-0.006657099833424041 
-0.005568476335318397 
0.03457361811604329 
0.04370066126101003 
-0.01933211589391171 
-0.002343843185405772 
-0.0002362095737397843 
-0.01668602547071495 
-0.064454348978394 
-0.03320740798138051 
-0.01125455671062307 
-0.03411983026275328 
-0.002262102721111377 
-0.02240038159641415 
-0.02913746978495435 
-0.01471355660728995 
-0.009269010749681197 
-0.02750295477501223 
0.01344993416542762 
-0.02685254988811493 
0.002074786508766479 
0.007234493994708211 
-0.003380739198373522 
-0.01927208731601595 
-0.01095136700758173 
-0.00229168534720789 
0.013787168000376 
0.02012688950290818 
0.0003109630091806593 
-0.03222211112611971 
-0.02902580732589674 
0.02700014685339259 
-0.01810490015708548 
-0.01448831732792982 
0.01278136243395071 
-0.01131674570531571 
-0.001455185107421936 
-0.01422223489435495 
0.01054613983188093 
0.02487402331144897 
-0.01725415088406577 
0.05096406327179002 
0.04659654964261397 
0.01033780380656884 
0.02285972956552957 
0.01865782491655155 
-0.00142334547426874 
-0.06201153656158793 
-0.01788423288415881 
-0.008509462396439819 
0.04274567629433207 
0.02249313986542312 
0.01447535869007709 
0.02935262302250978 
0.01283239360281825 
0.03158178756374966 
-0.02333225256238866 
-0.01173147917693494 
-0.009740800518627407 
-0.007277554926223821 
-0.004274363446600149 
-0.003745328102416456 
-0.01210600093721613 
-0.008335407155611405 
0.01166574008285244 
-0.01156436779515148 
-0.01350309202201912 
0.003886223554742663 
-0.03869479005749028 
-0.02581328070542736 
-0.01409372095032307 
-0.01042595418684517 
0.005661716997639023 
-0.01264670477759072 
-0.001674332710761314 
0.01169535465592214 
0.003807346091471699 
-0.02187110844801786 
-0.0100284131825505 
-0.03009401026770032 
0.02466325990811712 
0.001428952423334591 
0.007282367356504802 
-0.006580749886593931 
0.0158028249314665 
-0.025881464821297 
-0.02289043463277005 
-0.009707233813626665 
-0.003911323822723398 
0.02975482663652905 
0.01663690429266724 
0.01031532929380193 
0.05840096664458498 
0.02438272701404834 
-0.01846979336375605 
-0.05564147377342594 
-0.02294260775191545 
-0.01658271498334972 
-0.06612278914654046 
-0.03430927108701994 
-0.01574454671398264 
0.01344528132317348 
0.01672010728204143 
0.002157133234138414 
0.119414432453891 
0.06491072375262967 
0.04185352941961031 
0.01388934533274186 
0.007664057381389469 
-0.01447110203475316 
0.005809389136097927 
0.02799268398309518 
-0.0212470077950515 
0.003667673978114781 
0.005863468329993828 
0.01130531822575498 
-0.027191002645044 
-0.009916758362343417 
0.001046168851178599 
-0.05323678841472979 
-0.01647900500618573 
-0.03525949813983799 
0.003297112002661394 
-0.01137784459439175 
0.0250295019910114 
-0.02116298258516573 
-0.005409413206823344 
-0.005831448416230197 
0.004517852025011523 
0.002605414733515577 
-0.009761334774090535 
0.004464657965374606 
0.01847596671792574 
-0.024017601986527 
-0.02649611705670039 
-0.01418505388045764 
-0.01734431677548203 
0.01255023409066048 
-0.005751228718286763 
0.01384045848619169 
-0.01713443106053577 
0.02893358115410209 
-0.004219678780246024 
-0.00162060847845495 
0.01076010447531079 
-0.02687818673959116 
0.00864080299896024 
0.02418450307862301 
-0.01212100609278123 
-0.05480928681754561 
-0.02348141268582988 
-0.0377941549232533 
-0.0282655086351304 
-0.009594431612079976 
-0.003468139604268348 
0.01800935492435042 
0.02066703118685546 
-0.009136876914475071 
0.0008692566338347275 
0.00386059495436875 
-0.01546411746459303 
-0.00793428300046352 
-0.009092672260138056 
-0.003483445649052139 
0.008633805466601698 
0.01554909711305543 
0.002733802247124608 
-0.02188415463283428 
-0.0009196534188641948 
-0.01475175284527199 
-0.03565705608244773 
-0.02480092466704612 
0.02106960287076783 
0.01386804950398656 
0.01313454332967842 
0.01119585374134239 
0.01611757417034118 
-0.01072680633647688 
0.03797503524562448 
0.01152970798143282 
0.002524725590469213 
0.03246924069193917 
0.01421690048919064 
-0.01385018665769028 
0.02745412370931009 
-0.03675679883600486 
-0.01430744424054711 
-0.03043154066831333 
0.01559621483963991 
0.006985418672564043 
0.001425870517149254 
-0.01151198626006381 
0.002576444995729899 
-0.008631487065965537 
-0.002997139609890564 
0.011524348231763 
-0.01533799091372385 
-0.02539127799513697 
0.03160715129421375 
-0.05418449393189985 
-0.008678271696044059 
-0.02338504930990897 
0.03020000649489876 
0.01310281074175445 
0.006717566041307083 
-0.01976279820285862 
0.07260565905163997 
0.06284595087494091 
-0.03055995765175153 
0 
0 
0 
-0.02094200149331593 
-0.002284025921418217 
0.007567416757087942 
0.02904451037648714 
0.007525807531623694 
0.01323220068631953 
0.05126090090562338 
0.03160171031302 
-0.00709302350625981 
-0.02973737047847818 
0.006651003849821147 
-0.01092784799379271 
-0.04990350006805295 
-0.01483814434918078 
-0.02173837912452104 
-0.08009669357211724 
-0.005343363685695455 
-0.04634280860478094 
-0.006796580462584013 
0.003080997378192207 
-0.009256651170581701 
-0.005870487753500803 
0.002677857358033953 
0.008449887517597935 
-0.002264620609120123 
0.004274913598197704 
-0.005873167825040042 
0.06861693111770713 
0.01393229023581118 
0.04136129364218182 
0.02102806761673473 
0.0199275791913616 
0.00187020269106346 
0.04045016593097551 
-0.005410977140603835 
0.02137523362591844 
0.007331488749934766 
-0.02146245917756523 
0.03054573109465006 
0.01091698926550234 
0.0042696769491313 
0.02513680282258369 
0.1202841714688372 
0.03277611134005119 
0.05724040227702134 
-0.02332639375319583 
0.007719349961617271 
-0.03873292416975437 
0.01951497599169967 
0.02051024061705982 
0.01570497941584569 
-0.03631461505158321 
-0.01275929135979655 
-0.008253803098331828 
-0.06784121009952007 
-0.03006607151694414 
-0.03076454719402977 
0.01962467394654767 
0.02418768052004875 
-0.001060364359718836 
-0.03375968844785961 
-0.01553290065866972 
-0.00837192976893332 
-0.04103698215230083 
-0.01892245972253452 
-0.01407701074461843 
0.02359413261203126 
0.01663199683821988 
0.001823933561909317 
-0.01663100592362944 
-0.002701312410627328 
0.002192017767134354 
0.09814335431776212 
0.04812684394070756 
0.01862391458492257 
0.03095927389371001 
0.003193344523583891 
0.02703736425321877 
-0.02567270793017447 
-0.0004850887259684036 
-0.02100829414783478 
-0.04616857918748136 
-0.01333520817811673 
-0.03521148096445999 
-0.03319295417455158 
0.01159455525251973 
-0.06614358861166594 
0.006552111165351368 
0.01623440934238763 
0.0103829092470935 
0.03057254823554301 
0.02144910012005646 
0.008651277885007309 
-0.01663155260426847 
0.003037167501609789 
0.01459944943916105 
0.02808041785272065 
0.01883962692832419 
-0.0003607109440984129 
-0.0109683017291313 
-0.01369930807017358 
0.0262965834299831 
0.009000502643182666 
0.009894649076451515 
-0.03231099281803741 
0.003767805321448831 
0.006854142953974661 
0.005696204598282075 
-0.02234480272902518 
-0.0002039913004708165 
-0.04059844563294505 
-0.007382445077411365 
0.006556781506530867 
-0.01328016827605465 
-0.04525804967227819 
-0.01430772125315085 
-0.01091250225172243 
0.02632800062460643 
0.01396041014417595 
0.0005367791797545398 
0.111490058474458 
0.02988107090255311 
0.07435064997446209 
-0.0117382532829357 
-0.02338252147977758 
-0.005745547695550845 
-0.02050026867392366 
-0.004588282262829106 
-0.01227115483078942 
-0.01765010008819708 
-0.008650102121844003 
0.03192416830905898 
-0.005218179190921666 
-0.002234104902763117 
4.941065558256885e-05 
0 
0 
0 
-0.03322035642631594 
0.005674177757409132 
-0.04241696981423736 
-0.02606915644982668 
-0.01570272969567216 
-0.01961595869026889 
0.01914413360532737 
0.008443629222239171 
0.01444196852861327 
-0.02052885519317695 
-0.01267921932709134 
0.01024860108632073 
-0.01201904480981902 
-0.008322551919743165 
-0.0002036835187151224 
-0.04937488276267932 
-0.006314337587003255 
-0.04558749832954684 
-0.04505302806765323 
-0.0216304145855717 
-0.02722830881494057 
-0.04383978142747075 
-0.01593548036153515 
-0.02735501128067915 
-0.04912606096458117 
0.0105519868818086 
-0.04101944306078034 
-0.0189501482967281 
0.02176073170113689 
-0.04215644667623638 
0.02337798580908689 
0.02082833149187413 
-0.0247854356240963 
-0.0003952830078031604 
-0.00212900838052133 
0.001032766847544678 
0.0229844427689452 
0.006414883010744169 
0.02216812739613202 
-0.05175915850117548 
-0.01735286765795426 
-0.01602851362113331 
0.008476922799304367 
0.00517910199657076 
-0.008958802992858074 
0.06010300920239272 
0.03762292079863187 
0.02137151858836606 
0.001293439975591102 
0.01704659567234326 
-0.001365235753479545 
-0.003537575503333492 
0.005633347587659918 
-0.02751659437541302 
-0.049118581261516 
-0.03125724729527234 
-0.0016428928354884 
-0.0238483726297518 
-0.01266619541177641 
0.005589145461300284 
0.02423872920377531 
0.01047681192578867 
0.01125949471063939 
-0.01544059714782699 
0.004392614231724454 
-0.009991899996487402 
-0.0005191667834368941 
0.001534889289652124 
-0.002902390819425826 
-0.002475056798692235 
0.0148582817559974 
-0.02403249147593483 
-0.02397010883039514 
-0.01601799657941297 
-0.01455437672232904 
0.06286602112210671 
0.02738912799205891 
0.02106546934338317 
-0.02466039865822918 
-0.007138833894233981 
-0.02560504395778026 
0.02942234441404308 
0.02922987995695852 
0.00611061518022878 
-0.01979114589016568 
0.005071860037256389 
-0.07437299341099463 
0.02198187604126546 
-0.0002597626520401876 
0.002674187700158029 
-0.01226564920344779 
0.01777362898005525 
-0.03856708664700272 
-0.0287063120382127 
-0.009348892237931689 
-0.01164809804538425 
-0.0009169692429571034 
-0.006476280334846637 
0.0006402879585276128 
0.008840183889426605 
0.01178997453535362 
0.02327289705455052 
-0.02905705489936193 
0.003241788365204295 
-0.02841960931879308 
0.008251432153370937 
0.0139307085450298 
-0.02329315855573815 
-0.05085942492667304 
0.003131236694602036 
-0.03513220846222309 
0.007606109245053616 
-0.01419643901097342 
0.01611454886313866 
-0.02859282190065243 
-0.01337144470124743 
0.005172030018532208 
-0.06699430168553733 
-0.01970589046247682 
-0.01131555264808652 
-0.0371637682475145 
-0.004839903386116955 
-0.02556320799141532 
-0.01141413974658212 
-0.001380435092619748 
-0.01425300306434046 
0.008258684355360571 
0.01305830906292095 
0.02312133497465555 
-0.02239097792894899 
0.007403027256016827 
-0.009513749262489126 
0.04691195199475429 
-0.03963536062598093 
0.0682627936493406 
-0.02584371316466978 
-0.02308302777030687 
0.02666856965232408 
-0.04186903251567405 
-0.01544917243966435 
-0.02338319217947259 
-0.02201960421341053 
-0.004969886669727326 
0.001266733113141307 
-0.005028433151294028 
-0.0003114736743318482 
-0.004962086261321441 
-0.05694835335458363 
-0.04789901332905677 
0.01017542126630917 
0.0003885376437936523 
0.007219572246232418 
0.002316322270677082 
-0.059729133754111 
-0.03071938060998178 
-0.007865828833630567 
-0.02892922793923665 
-0.01305888892403131 
-0.0004706904045899814 
-0.002252409768012659 
-0.00236263883640984 
-0.006407097834390501 
-0.01205883907151606 
-0.0009493495571706433 
0.002728560523376033 
0.006689339886579525 
0.008015723751758724 
-0.003276170449263508 
-0.06832891869854392 
-0.03774010170522144 
-0.02139394675642525 
0.004747091412597739 
0.02409577257425441 
-0.00620064194856947 
0.03298301953898574 
0.00922972575263192 
0.0417495627522185 
0.009203631141684069 
0.01776737109483605 
-0.009086306882956651 
-0.01439682597350317 
0.00129977625917505 
0.001063395623833536 
-0.01599091636572898 
-0.004543609921976668 
0.0151457653152211 
-0.0108861503263124 
0.002687329271699354 
0.001235479555280228 
0.04570024549844529 
0.02800248991952007 
0.001320611170724168 
-0.0252704183011059 
-0.004833585175717544 
0.005483864165172465 
0.007937742273019795 
0.01287192812057809 
-0.02913159795821682 
-0.0192582855087578 
-0.005913858094007417 
-0.02925327710459086 
0.001748423346051228 
-0.002373773429739708 
0.0279214785912451 
0.03548442500277259 
0.02488126826828961 
-0.005906309483958992 
-0.02500652329076508 
-0.000130194077075249 
-0.03742953228477295 
-0.07303791912222485 
-0.03441433869162733 
0.02249287418691115 
-0.03416962786486773 
-0.02338950883951869 
-0.0241644051382149 
0.101586992330384 
0.02873120332665011 
0.01391914418787175 
-0.01719682752308316 
-0.003839950187207048 
-0.01121996938366588 
-0.02804415164062187 
-0.02139368811936778 
0.0003546923099750913 
0.002991040053586575 
0.009472092338849941 
-0.01420657652651641 
-0.043965632094503 
-0.0132867937597934 
-0.02656451087412737 
0.03480076295159477 
0.01878688931987196 
0.0259076810275522 
-0.04164535284541019 
0.006696589080789436 
-0.0424441433554024 
-0.05038204163881507 
-0.024255782288372 
0.006225777559480975 
-0.03141103695778541 
-0.01466379780916586 
-0.0001518932366614595 
-0.01739265616021444 
-0.001921132053135639 
-0.03229153175672857 
-0.003028598863103265 
-0.00384342419888251 
-0.000536545831928708 
0.0006481138137760623 
-0.01067335630209007 
0.04219074483194454 
0.01054275465841625 
0.02054910151145189 
0.004522390362076303 
-0.0346223548332137 
-0.01218709684532564 
-0.0005129452359835898 
0.0399968370036094 
-0.008531674834362525 
0.05841093061913651 
-0.01389252864848922 
0.009592789821979439 
0.00901092434234331 
0.0186619487367185 
0.01363357816519553 
0.01695263851188431 
-0.0485820017670675 
-0.02304853412906929 
0.002054697564420704 
-0.06156893835227675 
-0.02521810533885024 
-0.0105291532469066 
-0.02393183678549796 
0.008181129247707366 
-0.02151556951454224 
0.01634652579047561 
0.003632578085924258 
-0.001820205267908889 
-0.04466369580651104 
-0.03783482801676416 
0.005011949328416249 
-0.01424307267100273 
0.001885722371048932 
-0.01700212887299728 
0.02300670122569703 
0.02431647494826395 
-0.0110957423697787 
-0.01017811968206954 
-0.007999574852753426 
-0.006425747622142997 
0.0004046442194455749 
0.003615140377056462 
0.01460891937591461 
0.04752027190093999 
0.02998367143352332 
0.002466050360111654 
-0.002991370051905056 
0.007461567803235791 
-0.01109258389257043 
-0.03305680623244499 
-0.006351854416773536 
-0.02400861873143757 
-0.01392996615811214 
-0.00926498215011101 
-0.01942239643647811 
0.05285379952066228 
-0.01333055162544201 
0.05702996595394133 
-0.02117261869201363 
-0.01678106152835411 
0.007892308460486165 
-0.002835575137960174 
0.01159964322599805 
-0.05411693706474175 
-0.01185808632623628 
0.01532459420976957 
-0.04390119561345985 
0.01615660108842659 
0.01455318410526927 
-0.002415242581047924 
0.00221099020372906 
0.001997178594009123 
-0.007701118524934109 
0.01824179231006924 
-0.001680901252865659 
0.03651998845269089 
-0.04029840934719477 
0.004609902213445966 
-0.03419933290338548 
-0.01784809598047133 
-0.01905099964634637 
0.0003899749441656694 
-0.03375947631602202 
-0.01572538740394313 
-0.001432862848484394 
-0.03849711773391019 
-0.021758919503652 
-0.04232695250669918 
-0.03408378885706115 
-0.01644296252613402 
0.007130269338698248 
-0.05047996484821817 
-0.02248600043720538 
-0.01098010414706898 
-0.03292711233503236 
-0.02173679696780131 
-0.01387785388712916 
0.01403188083416229 
-0.01401400767243566 
0.02750272563965865 
-0.01108984626178455 
-0.005364737993698136 
-0.0007489525590022047 
0.005282945321018149 
-0.01124847993733101 
0.009535981436267032 
0.103411614115059 
0.04898499281820855 
0.01327460389665912 
-0.06302425852146097 
-0.03112741377763893 
-0.01039974139912588 
0.006914771539131529 
0.005076728780079105 
-0.006004691375318472 
0.01684185766907279 
0.01842738130809833 
-0.006209886864362493 
-0.004689096912497824 
-0.002123705442652198 
0.001345893973473411 
0.005239772520277204 
0.01511739110404405 
0.003135007242907194 
-0.03826081869588804 
-0.01616102660201384 
-0.027809175481815 
0.03964446826644367 
0.02286355331601457 
0.008087237324664334 
-0.01674133336347941 
0.005023966971935242 
-0.03292636859272703 
-0.02823720326368111 
0.002176534716204542 
-0.01653677070717561 
0.03437005819659558 
0.01340852450353515 
0.004219331513278088 
-0.0483009562495097 
-0.02372308428882378 
-0.004470184705156885 
-0.009617230308363841 
0.001006924644906776 
-0.03859112932289005 
0.004713391093513424 
0.009877189242306982 
-0.01125769185319676 
-0.08750022318246974 
-0.02993175553091103 
-0.04257202049873226 
0.06542834634941844 
0.03031197139098306 
0.02410685818959426 
0.009125139502108418 
0.0006471450818831558 
0.01790290145271374 
0.0006567398502666117 
0.007563296711128114 
-0.008910444646655276 
-0.01996622320353987 
-0.01369170462263233 
0.003376680404837018 
-0.06616931352014756 
-0.03055079596801902 
0.004264767780934727 
-0.04834131255958327 
-0.0210882118853033 
-0.01088844633010985 
0.009005460963601235 
-0.01535622869650786 
0.01133653595742732 
-0.0127002897746246 
-0.004462627338134714 
-0.008762056475251353 
-0.03119773673119669 
-0.01758373931508791 
0.0009852619153755164 
-0.03985620021190949 
-0.01965975400077162 
0.008598807165036288 
0.01313084212495673 
0.009531039383896423 
-0.001115388029916167 
-0.05522989956043194 
0.005693762840459463 
-0.05119174745878819 
-0.05250396507856289 
-0.01725926190682904 
-0.02272348451706933 
-0.005076248781904907 
0.002421944892622441 
-0.01382629985013852 
-0.08853331837654345 
-0.04839408527409608 
-0.007111170445751093 
-0.01054266216111821 
0.0008469452816530388 
-0.001782567336421697 
-0.004477320029440208 
0.003710080909900996 
-0.01035319503436084 
-0.01883137449998208 
-0.008731105754297435 
-0.00758184614843934 
0.04040430713840226 
0.03368341254259724 
-0.03602935856987241 
-0.002642257203075898 
0.0001827184589929731 
-0.009377786879443243 
-0.03726819847738199 
-0.004370568528746284 
-0.01081231677183823 
-0.06193057993148963 
-0.0343086468134999 
-0.03002304710610763 
-0.02114082196106213 
-0.009943435076145674 
-0.002134177639660702 
-0.02014425294538432 
-0.007535490862791142 
0.01505371732639394 
-0.01705562226081615 
-0.001496989732735146 
-0.008735904490431601 
-0.02728578597144319 
-0.01642627550003589 
0.006376149776004076 
-0.05967317652266295 
-0.01916745375085216 
-0.0381813439701958 
-0.00563467493245282 
0.006937398697925163 
-0.02703795420014578 
0.005601585008545028 
0.01331821949508662 
-0.01364017811345122 
-0.03753666716415292 
-0.004694742944208573 
-0.01653846649697763 
-0.05115584746261136 
-0.02150911227997263 
-0.004652817463660415 
-0.02446283935543463 
-0.01086015575796336 
-0.002558541484665063 
-0.04043510621561504 
-0.02635202186589142 
-0.002923038989496036 
0.008119023663118192 
0.01544834858992714 
0.02017170551141024 
0.003427920616025931 
0.007363406987919989 
-0.0348653474151041 
-0.02087487759094711 
-0.006744614013094793 
-0.0002793599750219815 
0.01017029556713207 
0.03589784650128095 
-0.0247078122835713 
-0.00857072369493473 
-0.002528172064707076 
0.004481201414593686 
-0.02992092117625831 
-0.002455888702554364 
-0.03167961946311743 
0.02051947006135642 
0.02746433418551202 
-0.01721518290805802 
-0.02335846138986242 
-0.01488128077036813 
-0.01470070622787328 
-0.0002402218780986623 
0.00239622452219 
-0.01094528547347427 
-0.01656203857359522 
-0.003756060311842272 
0.01219423265905098 
0.02122455563657566 
0.01753559487895412 
-0.003463836111477321 
0.002989204778192754 
0.006488697787671767 
-0.0303521030270554 
0.008559418975612394 
0.01100067122500831 
-0.006931098573754457 
0.008493519414014652 
0.02209087811625367 
-0.0193997622606027 
0.04316889463277105 
0.009467313440737072 
0.01029852108850106 
-0.008354424231436097 
-0.01512605005286497 
0.00539665894482785 
-0.005488102102227448 
-0.00667340443327397 
0.01114557483503982 
-0.03937993194011488 
-0.01830815819176929 
-0.01273189783891474 
-0.004506119079960883 
-0.006906697643896557 
0.01352222373061254 
-0.06898805915166586 
-0.02957765881891754 
-0.004896527329194912 
0.0529513111068453 
0.02894737792757262 
0.001632279881271015 
-0.05500930642484015 
-0.02947685541858521 
0.005678338352729654 
-0.007813233707022353 
0.000116257270214644 
0.02018069637935131 
-0.04465075301211709 
-0.02699718842733406 
0.008297933695153152 
0.1248952259373968 
0.01561669489768206 
0.08864406945757167 
0.0003405602033051744 
0.01529529750506686 
-0.03734174994286164 
0.0009149361699383976 
-0.01166209483701695 
0.005116647324363266 
-0.007425259773842174 
-0.0183346083941879 
-0.002765005383694083 
0.02090143662184218 
0.02732910675394945 
0.008788718248729704 
-0.002365710193280794 
-0.01756327482908588 
0.02315188955032424 
0.04453006524041925 
0.02029738593388899 
0.01595263154114985 
0.02086868739787991 
0.02224164035228761 
-0.01499301637386696 
0.01054583378442887 
